%YAML:1.0
my_nn: !!opencv-ml-ann-mlp
   layer_sizes: !!opencv-matrix
      rows: 1
      cols: 3
      dt: i
      data: [ 45, 33, 5 ]
   activation_function: SIGMOID_SYM
   f_param1: 1.
   f_param2: 1.
   min_val: -9.4999999999999996e-001
   max_val: 9.4999999999999996e-001
   min_val1: -9.7999999999999998e-001
   max_val1: 9.7999999999999998e-001
   training_params:
      train_method: RPROP
      dw0: 1.0000000000000001e-001
      dw_plus: 1.2000000000000000e+000
      dw_minus: 5.0000000000000000e-001
      dw_min: 1.1920928955078125e-007
      dw_max: 50.
      term_criteria: { epsilon:9.9999997764825821e-003, iterations:1000 }
   input_scale: [ 5.6226781700166784e-001, -5.2241740993086312e+000,
       3.6474330125616766e-001, 1.1202716825475507e+000,
       8.5557946608200008e-001, -4.3931008101311244e+000,
       6.6251919684762006e-001, -3.7574151938423119e+000,
       8.6272067278262543e-001, 1.1006636137256898e+000,
       7.2246133074785468e-001, -7.7231977721016842e-001,
       7.6648099499213407e-001, -1.6066927947212046e+000,
       6.5631111439639567e-001, -1.0361715559143061e+000,
       6.4714206310803546e-001, -2.3126246530786588e-002,
       5.6675307923399765e-001, 4.0786471857872361e-002,
       8.8048913920048100e-001, 1.0593697505136894e+000,
       1.0036653476064068e+000, -6.8654894294042390e-001,
       1.1892496990239352e+000, 9.7069167944218793e-001,
       7.9805931318086709e-001, -3.4798181554901326e+000,
       1.1342343029817090e+000, -1.9775151716180275e+000,
       1.1439522083943172e+000, 4.1139595945415941e-002,
       1.0526116852962668e+000, -3.0865664956560552e+000,
       1.2007602423683832e+000, -6.0713333841428851e-001,
       8.4451466000453035e-001, 2.1241938814600232e+000,
       1.5429875562111399e+000, -3.2226537290439372e-001,
       9.1868712472884517e-001, 1.2740260966424144e+000,
       1.2873022763509301e+000, 1.3576292121946631e+000,
       1.2684319097360661e+000, 3.0531665038760383e+000,
       9.2974665176839000e-001, -6.3191750014954207e-001,
       1.5759195539780759e+000, 1.0731955573903350e-001,
       1.1942249884853089e+000, -1.6902932894965468e+000,
       1.3651756175588381e+000, -1.8266542457191246e+000,
       1.1315880769574909e+000, 3.9523917518560225e-001,
       1.2084831597055683e+000, -1.8103342419131772e+000,
       1.0253673481602101e+000, -7.1220683024639964e-001,
       1.5383980634433798e+000, -4.4959980325441157e-001,
       1.2404058293021016e+000, 2.1210215099936853e+000,
       1.4603958092784297e+000, -2.4845063126202711e+000,
       1.2357709897219200e+000, 1.7844744471128138e+000,
       1.4376180595257588e+000, 6.9515782626647593e-001,
       1.7019371086981343e+000, 2.6922524865256916e+000,
       1.7413110971434016e+000, -1.2165508431434886e+000,
       1.8509475943587426e+000, 7.3033377003717270e-001,
       1.1709641723573023e+000, 1.4789380124350406e+000,
       1.3450085038781996e+000, -2.4105124857926734e+000,
       2.0676352218726941e+000, -7.5001892479369947e-002,
       2.0284617103002343e+000, 1.2821332682286696e-001,
       1.7443573766959564e+000, -1.7210874915769845e+000,
       1.4941823919730723e+000, -1.8800518666726507e+000,
       2.1686596714356980e+000, -2.4734871456955734e+000 ]
   output_scale: [ 5.2631578947368418e-001, 4.9999999999999994e-001,
       5.2631578947368418e-001, 4.9999999999999994e-001,
       5.2631578947368418e-001, 4.9999999999999994e-001,
       5.2631578947368418e-001, 4.9999999999999994e-001,
       5.2631578947368418e-001, 4.9999999999999994e-001 ]
   inv_output_scale: [ 1.8999999999999999e+000, -9.4999999999999996e-001,
       1.8999999999999999e+000, -9.4999999999999996e-001,
       1.8999999999999999e+000, -9.4999999999999996e-001,
       1.8999999999999999e+000, -9.4999999999999996e-001,
       1.8999999999999999e+000, -9.4999999999999996e-001 ]
   weights:
      - [ 1.5965434234209822e-001, 1.5765160482234991e-001,
          6.4885377994096560e-001, 2.2883040616195277e-001,
          -1.1826753271087524e+000, -5.6962295520542217e-002,
          -2.3744374030896348e-001, -1.7428055073057097e-001,
          -1.4021352585694294e-001, 3.7339507085401979e-001,
          2.5526720960331056e-001, 5.6756991851846561e-001,
          2.2649382212600013e+000, 5.9298276621159274e-002,
          2.2076379618747385e-001, -4.8092171913083723e-002,
          -1.4133057279514169e-001, -2.0416472230871555e-001,
          -1.3218041513503540e-001, -3.5356059636725168e-001,
          7.2726473022583740e-002, 3.7806900993691156e-001,
          5.6510106846954944e-001, 1.4992622975997213e-001,
          -5.3717191593135660e-001, 1.9938117346290027e-001,
          7.4011957623681546e-001, 1.8866389090213648e-001,
          1.5797409051348463e+000, -1.0698840418086611e-001,
          -1.1706545017934185e-001, 9.3493825276011702e-002,
          6.5913664327292265e-001, -4.1343123936875203e-001,
          -1.1503519903650328e-001, -4.5966392768335740e-001,
          -1.2863693680691463e-001, 1.4242897430160961e-001,
          1.6072226096923595e-001, -6.1817229810457217e-002,
          -1.2724619212277649e-001, 8.8084353080101929e-002,
          -2.9993139085547804e-001, 1.4824176219311694e-001,
          -1.7682275899063282e-001, -2.9723124727036972e-002,
          1.3908485237533203e-002, -1.0439830909690177e-001,
          9.8650376507964557e-002, 1.3951824448514913e-001,
          5.8875872008255614e-001, 1.1015665441665215e-001,
          6.7563671081795340e-002, 3.5770514174578660e-001,
          -1.9882485354139617e-001, -1.3763651592682677e-001,
          -1.7772009101195815e-001, 6.9268445362800823e-001,
          -1.3072653850454785e-001, -1.1279549111940898e-001,
          -7.0180619111651299e-002, -1.2744485457558238e-001,
          -1.6454323773681964e-001, 1.5355507511454372e-001,
          -1.4693542704597589e-002, -1.2881034881785364e-001,
          -2.9823340141104693e-001, 2.5081821765051093e-001,
          -1.1827858510030186e-001, 3.1867563273056077e-001,
          3.5520921280755857e-001, 3.7686850670745747e-001,
          -1.3769035201151145e-001, 8.4892270749231794e-002,
          9.9507576075040946e-002, 2.7558001375865993e-001,
          2.1412701933742843e-002, -1.7041064160524474e-001,
          -1.2022449734517908e-002, 1.0853871078955825e-001,
          8.2721923366939520e-001, 8.7378578663140027e-002,
          -4.1196453845053015e-002, 1.5662515723749042e-002,
          -1.1383391254357549e-001, 5.7344316906398130e-002,
          -2.4651852186929505e-002, -2.0515449402713321e-001,
          -8.5665823785968001e-002, 2.0280749517505792e-002,
          -4.7279359913124340e-002, 1.9602833248343273e-002,
          -4.6065816182501163e-002, -1.5480355139593757e-001,
          -2.1646344290786793e-001, 1.0294778986705456e-001,
          -2.5247242055295275e-002, 1.8380134230852219e-001,
          3.5471886989451501e-002, 2.6978242251884891e-002,
          -6.7492123009557620e-002, -6.1944910355510779e-002,
          9.1385221164508451e-003, -1.3681938847599781e-001,
          1.0701896093815710e-001, 5.4840502658981860e-001,
          1.3734370568119425e-001, -1.0221129984316753e-001,
          -4.8914767065914067e-001, -3.7821861688685932e-001,
          -1.4688103504684231e-002, -2.3130717186048128e-001,
          6.0103967434687267e-002, -1.6320838060601188e+000,
          -5.1182191970791791e-001, 4.4348642079667822e-001,
          -4.6904177362194349e-002, 2.0198597772321880e-001,
          -9.6295944333196978e-002, -7.5086437193617184e-002,
          3.8187097903742900e-001, 4.9938379610960692e-003,
          2.6997482119470001e-001, 3.2959369441207642e-001,
          9.4893170819716627e-002, 3.4833099189248706e-002,
          -1.0261125293781405e-001, 3.8286931865027385e-001,
          5.3203413860480753e-001, -1.9256034470680708e-001,
          -9.8861084358606327e-002, -1.5081056117487102e-001,
          -1.9454353410247715e-003, -1.9845887513376434e-001,
          -1.8884628527795203e-001, -2.4157019913023593e-002,
          1.1015379557091455e-001, -3.1565439405418105e-001,
          2.9114445559302904e-001, -9.2455585877555896e-002,
          -2.1358454067341492e-001, -1.9631281375718473e-001,
          -6.5132394673912374e-003, -1.3273361903271161e-001,
          2.0518061722422851e-001, -1.1389741602075028e-001,
          -2.2775864087357064e-001, -6.0008956146617977e-002,
          1.6456254445724801e-002, 2.2384155628707391e-002,
          -1.5962808970152231e-001, 1.0423548071476083e+000,
          -9.1592366730058924e-002, 3.2072304872348834e-001,
          -1.6863537971152212e-001, -2.2691706957960744e-001,
          1.1320420864711173e-001, -8.4997153235729789e-002,
          -2.0184738259418145e-001, -1.1932093637154555e+000,
          5.3662406654349175e-002, -1.4506892768140764e-001,
          9.0777288044150931e-002, -7.8521094600615815e-001,
          -9.2990075740429196e-002, 2.2413934238756852e-001,
          -1.1085723649982342e-001, -8.1031237143934939e-002,
          -3.6732363381358213e-001, -1.7830131594104446e+000,
          -6.9870866071725857e-001, 2.9947435194786187e-001,
          1.6135955615076308e-001, 1.2549070951874702e-001,
          -2.8493301674189725e-001, -2.7227045536471817e-001,
          -1.2848545244496845e-001, -1.9218668492689694e-001,
          1.9306644337088470e-003, -1.3675059192746303e-001,
          1.8401913822542137e-002, -3.8210929753707455e-002,
          -2.6088404776861823e-001, 1.9621082434959308e-001,
          2.2091744041536389e-002, -1.0360781004884732e-001,
          -7.9403478695693891e-002, -1.9980818808383227e-001,
          -1.0599651372813951e-001, -1.1844651041614286e-001,
          -8.4208394567256775e-003, -1.6354063673290647e-001,
          -9.0902884374209052e-003, 3.0986418418929718e-001,
          -1.1362166531809487e-001, 5.1874981668154664e-003,
          -1.4507473925178267e-002, 4.5434641305751644e-001,
          -1.3327074276314543e+000, -5.0812801916885454e-002,
          2.3964572752645259e-002, 8.8266905556848615e-002,
          2.0987009547113844e-001, -6.7360743737062634e-001,
          -4.6043643043463228e-002, -5.9672993795214468e-001,
          -1.0644982079029540e-001, -9.1402105395673935e-002,
          2.3023232285513655e-002, 1.6365101307280955e-001,
          9.0752912301188988e-003, -1.1164765459216096e-001,
          -1.2185679884121378e-001, -9.4540476152583014e-002,
          -1.5930700053918101e-001, 3.7394333343096296e-002,
          1.2497102555968909e-001, -1.2754464284695483e-001,
          1.3130637972746233e+000, 1.1932115877737492e-001,
          1.8858138707871452e-001, 1.1609270699115662e-001,
          2.3428234785542468e-001, -7.9457839845453029e-002,
          2.2699459368258346e-001, 1.6276780401860799e-002,
          8.6551007662917012e-002, -3.0951927458327066e-001,
          1.5160292155463304e-001, -9.8380253872375076e-002,
          -1.2768704276097553e-001, -3.5197290611888488e-001,
          3.1415637134169405e-001, -5.8972078414009432e-001,
          5.1163525177982372e-001, 5.3962482229392504e-002,
          1.1702536091215128e-001, -1.0042227372707353e+000,
          1.2039303890356092e+000, 2.0613371136236233e-001,
          1.1641160886481354e-001, -2.0020255263617406e-001,
          4.5191073537771331e-001, 1.8139951122440243e+000,
          1.4877198843736725e+000, 1.4963390914169525e+000,
          1.9917812008016351e-002, -2.4701614580601078e-001,
          2.8132641667911004e-002, -4.9953271730365290e-001,
          4.8052025198620940e-001, -6.5167082350272465e-002,
          -8.8027657262999170e-001, -3.4098321268193799e-001,
          1.0554655660498795e-001, 3.8969760948427545e-001,
          3.6552531816815181e-001, -3.7732111100129834e-001,
          -9.2808018665121589e-002, -3.8775256837737401e-002,
          3.1089547746222118e-001, -9.9549951443120810e-001,
          1.7384260399408700e+000, -2.0607356020182085e-001,
          6.0033008628075146e-001, -1.6169058426182772e-001,
          -5.5263240045868127e-003, -1.6976790585997614e-001,
          -2.8520053617947677e-001, -4.6697295760319379e-001,
          6.7813895552434264e-002, 1.0753043912716086e-001,
          1.2248438212221741e-001, -8.1211120559954497e-002,
          -1.5238206355280795e-001, 1.5407619762415004e-001,
          -1.3212612174774485e-001, -2.5369367865655718e-002,
          1.1910752610791407e-001, -9.3175453486356707e-001,
          -3.3206188143494314e-001, -1.9046208941607234e-001,
          -1.9935132613576131e-001, -5.6507145057158703e-002,
          4.3001038413197856e-002, 3.8393428304963773e-001,
          7.7295800903340942e-002, 1.4919223764034117e-001,
          -1.1296591884885147e-001, -1.1555644911120104e-003,
          6.4253716614752668e-002, -1.9110792289517073e-001,
          8.5893365730701920e-001, -1.0641297782713853e-002,
          1.2872448711632861e-001, -4.9685453135568866e-002,
          1.0420581721960971e+000, 3.8519474608236064e-002,
          1.4865175717986129e-001, 8.9713918472084896e-003,
          1.0570166072468926e-001, 1.9194432151415822e-002,
          4.8382517743297306e-002, -6.5563197818135854e-002,
          9.4378972743444769e-002, 1.2390576889578099e-001,
          3.3160265528096089e-002, -1.1491602276015035e-001,
          -2.1712895154368411e-001, -1.2648834014984414e-001,
          3.3979151097849755e-002, -1.3866848542194493e-001,
          1.8990050895220717e-001, 4.1682910483201457e-001,
          -2.3236311314708474e-001, -4.5800948649806036e-002,
          -1.0718758426374018e-002, -8.4419990408788212e-002,
          -1.8117728713641600e-002, -4.3795647258730683e-002,
          1.4183705224539822e-001, -7.2562547677553921e-002,
          3.1845514714016698e-002, 4.4922746912095392e-002,
          -1.4902070603524697e-001, 1.0897903602541338e-001,
          -5.7038037180815243e-003, -1.7614546168002307e-001,
          9.4433417418860355e-002, -1.5501306267448867e-001,
          1.1755560095203811e-001, 1.2214872480972891e+000,
          6.1494972783226666e-002, 1.5519172824225008e-001,
          1.7318604842975485e-001, 3.3810093650204287e-003,
          -5.8052029574672752e-002, 3.4714502443233897e-001,
          -1.6574759122941712e-001, 1.0789697699005493e-001,
          1.5507719863167659e-002, 9.9761370777841335e-002,
          -5.0317682193070909e-002, 5.9329605962434376e-003,
          2.5844195412911910e-002, -1.4606883425533443e-001,
          -1.7844416496340071e-001, 1.7204602682365172e-001,
          -6.1628438774842198e-002, 1.1286404650457920e-002,
          -1.7381319253938898e-001, -7.0412801495829984e-003,
          2.2655444270568048e-001, 2.3990528046451753e-001,
          7.8953561904665792e-002, -5.4815032819516211e-002,
          1.1020701997628886e-001, 8.1876599204783296e-002,
          -2.4083649666412060e-001, -2.5985733059886770e-003,
          -2.6027460546505610e-001, -1.7872461657600310e-002,
          4.5419361644094242e-001, 1.7344665143853813e-001,
          2.0089960585463412e-001, -3.6426596654929880e-002,
          3.2729811630388965e-003, -4.8286615877346326e-002,
          -8.8801503012882727e-002, -1.4368654425047678e-001,
          4.8242459769097434e-001, 2.8137151364834989e-001,
          -5.1350003972411955e-002, -5.8756256666001321e-004,
          4.4254733049064146e-002, 2.8251880390705392e-001,
          7.4349569200181265e-001, 2.3544541780451850e-001,
          9.1011393523109191e-002, -3.2179955876619554e-001,
          -2.2178255391670917e-001, -1.7539768457774116e-001,
          3.9694084373822755e-002, -3.4318084063162219e-001,
          -6.3857899357461656e-001, 1.3108714363700444e-001,
          1.4544264459740147e-001, 1.4915508032528552e-001,
          2.0898654341579376e-001, 2.9329769139491918e-001,
          3.2274630117636977e-001, 3.1349083846477516e-001,
          5.9028110674090521e-002, -1.6679622765837415e-001,
          1.1079800125335735e+000, 4.1950591595967104e-002,
          1.5933899070523380e-001, 8.1811790061512846e-002,
          5.0851389371048417e-001, 3.4103610118972444e-001,
          1.8353229034266469e-001, 1.2616883390001352e-001,
          1.9729103915087623e-001, -4.9019600893317396e-002,
          -3.4049168330221713e-001, 4.5364490862701290e-001,
          2.0772363953276467e-002, 2.0968862284567966e-001,
          8.3059794672706866e-001, -5.3265056826517110e-001,
          8.7175559887700416e-001, -5.6909943011912767e-002,
          -8.4705959655395763e-003, -2.6365269078030157e-001,
          2.9977033593920266e-001, -3.1902654768802974e-001,
          -2.3127713972668601e-001, 9.2767822487814802e-002,
          1.0552689492087097e+000, -4.7348586879921517e-001,
          -2.6919958728267929e-001, -2.3032382449798486e-001,
          5.7775036691578829e-001, -2.2451902802128790e-001,
          5.3604327048319411e-002, -4.2892303994078684e-001,
          5.1470606858612578e-001, -3.1136965535610212e-001,
          1.8925309111949979e+000, -6.8526341544641800e-001,
          1.4929881250127494e-001, 4.1463354249543553e-002,
          1.2761827257393452e-001, 1.3698442054804597e-001,
          1.0321193139228811e-001, -2.2669195045879617e-001,
          -3.8925727956761018e-002, -2.6987992264088156e-001,
          1.9196155973163265e-001, 4.4605269265037403e-003,
          2.8658980760227149e-002, 2.6819471452411533e-002,
          -6.3747722322174363e-002, 8.7613897643555403e-003,
          8.4799531744876078e-001, -1.1159605894598987e-001,
          5.6129486298335662e-001, -8.4724085299988844e-002,
          -1.7818156603717625e-001, -1.2137188612686378e-001,
          -1.7289392469051754e-001, -2.2731321695677403e-002,
          5.8530044914193191e-001, -1.2543823702605453e-001,
          -1.1140629654278512e-001, 1.1867716907972539e-001,
          3.3933431213798082e-001, -2.9405256038932170e-001,
          -1.8644790915240397e-001, -9.4460696170499292e-002,
          4.4534462217230242e-001, -9.0468480582726196e-001,
          7.4898306424609828e-001, -1.5885405716443743e-001,
          1.5170753972939363e-001, -1.3134468137380217e-001,
          -2.5408575058905774e-003, -1.0694116231764128e-001,
          5.6486475740707968e-002, 1.1610611975103095e-001,
          -1.4492356949628745e-002, -2.4303461807224908e-001,
          4.2814305107592571e-002, 1.0903302241477029e-002,
          2.1750723657952772e-002, -2.0964301820266534e-001,
          -5.2606340774072079e-002, -2.8290238269368939e-002,
          -1.8429527023827280e-001, -3.8234483489634935e-001,
          -3.0902760783052610e-002, 1.5329986719543898e-001,
          1.5555253242474842e-001, -3.3260704825753634e-001,
          1.7591187037650588e-001, -1.9778771911856127e-001,
          -2.9366921636967253e-001, -5.5254808620649365e-001,
          3.9730697761120143e-001, -6.2030574471673393e-002,
          2.9453160920543281e-001, -1.4220042678560113e-001,
          1.7173536163774406e-001, -1.3150380444001086e-002,
          3.0614546703633344e-001, -5.2052457297081645e-001,
          4.9313913151929456e-001, 1.2422305096931555e-003,
          -4.2141296993725685e-001, -7.5347047260031330e-002,
          1.1257703888937876e-001, -2.7476002916111791e-001,
          -2.5002118095713260e-001, -3.8469826094120314e-002,
          -2.5477384240085160e-001, -7.3964974450915810e-001,
          9.1528256785517148e-001, 9.1408816740592547e-001,
          4.4681530650728202e-001, 1.2620265786002078e+000,
          -3.0995540502712943e-002, 8.9441085310944496e-002,
          3.7681250926043169e-001, 1.6868910855247327e-001,
          -5.9772764489028873e-001, 5.3034325571300467e-001,
          5.4914076818760531e-002, -4.7370369015605554e-002,
          3.0938921922115514e-001, 3.7176894885363243e-001,
          2.8988194652077504e-001, -1.4125613066171300e-001,
          9.0137485998455602e-001, -6.3559527944830629e-001,
          1.3828308326300323e-001, -4.0951335683656309e-001,
          -9.0073659054886956e-002, -6.8718469347699007e-001,
          7.6073514498385855e-002, 1.0589591628188966e-001,
          -2.5921957521327110e-001, -2.5487853981042818e-001,
          -6.9429062874141034e-001, -1.6635473781514318e-001,
          -1.7147391221487276e-001, 1.3691395965796927e-002,
          1.2214884056018255e-001, -2.6851243038684691e-001,
          -2.0084291945413943e-001, 1.4389899054561081e-001,
          -1.5599841949630794e-001, 2.4011608448701177e-001,
          -4.4366773271729215e-001, 3.0159823894763665e-002,
          -4.9668265598877132e-002, -1.7426214806069251e-001,
          9.4300133645850090e-002, 6.0060560545261654e-002,
          2.6601133917061470e-001, -1.0608764331448714e-001,
          -3.2566723983142887e-001, 1.1181989799864157e-001,
          2.0918373227054310e-001, -4.4341697786545689e-002,
          -2.5861628996267955e-001, 1.1950378306929194e-001,
          2.1240862090950785e-001, 2.1148094984831006e-001,
          -7.3334027876752507e-003, -1.2893304511937281e-001,
          -1.9857875614041376e-001, -1.4720786583460228e-002,
          -4.3935362644175413e-001, -1.6720250394037267e-001,
          -2.7381175852370365e-001, -2.9438700588837252e-001,
          -3.1040263617182018e-001, -4.6684983744126494e-003,
          7.9427452008291224e-002, 1.5467722020306543e-001,
          -3.0927103010286272e-001, 3.5193659369458759e-003,
          -2.2152944214921706e-002, 5.4162076763864270e-003,
          3.0252403638328662e-001, -6.7957484084746403e-002,
          -8.9848572591122111e-002, -5.5735683203551089e-003,
          -3.5477791930942429e-002, -1.0229980316709412e-001,
          5.4985375162667043e-002, -1.0096140880935837e-001,
          6.5110231813855363e-003, 2.2065507039401969e-002,
          1.6921244233497693e-001, 5.0359146070414484e-001,
          2.9318099279534615e-001, -5.8069461725617369e-003,
          -3.8092790415340673e-002, 9.3958489406601109e-001,
          1.3728150757021515e-001, 1.0098278215943463e-001,
          1.3249576163047333e-001, -3.4989161549870634e-001,
          1.7485823935621220e-001, -2.9170396354174416e-001,
          -1.9675404231280572e-001, -3.0335974777861630e-001,
          -4.7257403443840418e-001, -1.6077060157857936e-001,
          1.3915509839281956e-001, 9.4385876937881322e-002,
          1.0040892530339117e-001, -9.5647352516485529e-001,
          -5.7336904182457321e-002, -1.4666203999221075e-001,
          -4.9981669574314563e-001, 1.8913998752475722e-001,
          -2.1040725753718043e-001, -1.2239097785844875e-001,
          1.5853357522001374e-001, -4.7441168475981593e-002,
          -1.3538522146542864e-001, 1.1282146323562159e-001,
          -1.7347614261375871e-001, -1.3877578604409530e-001,
          -1.4468612189548391e-001, 1.0287372902777014e-001,
          3.5717850197246534e-002, 1.6179937715142795e-001,
          -1.9001087366312011e-001, -1.5391807532347028e-002,
          3.2847976721097394e-001, 1.8511713400801832e-001,
          -1.7730510574730107e-001, 1.5387493023805554e-001,
          1.1933561030526202e-002, 9.4296838643266587e-002,
          -8.6077725924177095e-001, -9.5808505644048692e-002,
          -4.8032068166627828e-001, 4.9170277968388965e-002,
          -1.7256272925711122e-001, -8.2025775032417286e-002,
          6.7709524739630073e-002, 8.3908166545983376e-002,
          -5.6759767990330701e-001, -2.8329220609112521e-001,
          -5.7619452869535952e-002, -2.8231107265431023e-002,
          1.0585234130311690e-001, -8.0122309253780388e-002,
          -3.3984924467147598e-001, -2.0400820351227786e-001,
          -1.6214497642271279e-002, 1.9137418940382941e-001,
          -5.3598614812133127e-002, 3.6800052697439567e-001,
          4.9779140863925972e-002, -3.2881390449704340e-002,
          1.8041595998291745e-002, 8.1421632052497125e-002,
          2.3228095600094056e-001, -9.3029092780417030e-002,
          4.7414452358040399e-001, 8.2956525208523468e-001,
          6.0476741278688025e-002, -9.0020924293024634e-002,
          9.8717620173169901e-002, -1.7870858560171457e-001,
          7.5547266820662998e-002, 1.9217663959088086e-002,
          6.2704196563889078e-002, 8.6153555449767952e-002,
          -7.7092938847402662e-002, -3.4792863248204464e-002,
          -4.5999990711008111e-002, 5.7003133490619369e-002,
          -4.1742421792820845e-002, -1.5045959262458213e-002,
          1.4749318855276587e-003, 1.0419953888281994e-001,
          1.6275181954737275e-002, -1.4333927853839334e-001,
          -1.8584513399907555e-002, -6.9872892337950493e-002,
          -2.9898588587838032e-002, 1.3155636874259719e-002,
          -1.0345429316049684e-001, -3.5198776942835697e-001,
          -8.7285701737026752e-002, -7.9081436559353888e-003,
          5.6239313051787976e-001, 1.9844853405590870e-001,
          -7.3881605992082086e-002, 4.8638986387166353e-003,
          4.0525994568583974e-002, 1.3462398942932369e-001,
          1.9009535720959653e-001, 1.1261092254682502e-001,
          3.7639453669030480e-002, -1.3534368853283169e-001,
          1.4764428275900887e-001, 2.4236887827551695e-001,
          -3.7845129770709235e-001, 6.8395373867605760e-002,
          -1.3292640122581861e-001, -7.7858231154963808e-001,
          -2.5664541319657480e-001, 1.0193054829933208e+000,
          2.2965937273706616e-001, 4.4171060741762157e-002,
          -3.3142800291887053e-001, -5.2614043356867833e-002,
          -1.8932730419840932e-001, 1.0215586124577746e-002,
          1.9816513571272676e-001, 3.0687833846087065e-001,
          -2.6494965300899304e-001, 8.7634928224188363e-002,
          -2.8718628507227301e-001, -1.1218993849471751e-001,
          5.0602435008372706e-002, 1.6253574662642573e-001,
          2.7811553670271341e-002, 2.3407847100929469e-001,
          1.0402799266865183e-001, 9.8993095924711047e-002,
          6.7077895302518076e-001, 1.0769537786072021e-001,
          4.3780406584133308e-001, 2.2681641338645933e-001,
          2.5575736561394363e-002, -9.6780962161727513e-001,
          -8.9346538236984033e-002, 3.1972596585915292e-001,
          -2.7860917483449632e-001, -1.2973286621789308e+000,
          -3.4740509127731467e-001, -1.1715763769683493e-001,
          -6.1210835547150533e-001, -2.6386114300859048e-001,
          4.8549607027642755e-001, -1.2862546812255995e+000,
          2.3459505552408222e-001, -2.4006599495483152e-001,
          -2.1623806295017628e-001, -3.7075687063345497e-001,
          -1.0241390772121490e+000, 6.8821536753385900e-003,
          -2.9483125661599086e-001, -5.2410831938414171e-001,
          -4.5629986008394671e-003, 5.0374789005387588e-001,
          3.0879203606787153e-001, -2.4298780109906948e-001,
          9.5620997754465253e-002, 6.7106823825833092e-002,
          -2.8680690282324517e-001, -1.7538948072307151e-001,
          2.4605407524980663e-001, 3.4125034051126935e-001,
          4.7547177562790137e-002, 1.0551624894113310e+000,
          5.4797089490315831e-001, 3.9296515602749638e-001,
          3.2312401710997163e-001, -5.3771059587269764e-002,
          -5.2498957098499510e-001, 1.6127530728163944e-001,
          -1.1564905374626757e-002, 2.7408517898303984e-002,
          -1.0298072595222993e-001, -1.7248889805198941e-001,
          -1.8977861287683650e-002, 5.7720657392939460e-002,
          9.6010863724382611e-002, 4.8828357244243892e-002,
          -1.8506667295700371e-001, -2.9898294058479069e-001,
          -7.7323180771961333e-003, -4.2713884409867210e-002,
          1.5096507466995393e-001, -3.8076889135951413e-002,
          -2.6649191423952640e-001, -6.7069525781592032e-002,
          -8.0046192629946250e-002, 2.3526578357520378e-001,
          3.3010244803197343e-002, 3.7265753014509129e-001,
          2.8070056920806374e-001, -1.5365987118771459e-002,
          -2.8651742394945494e-002, 1.8949982604602716e-001,
          2.2288712573970410e-001, 1.2069551754986547e-002,
          -6.4179192444462213e-002, 3.9735836283697390e-001,
          -3.1309864815164123e-002, 5.7050762679462186e-002,
          -3.4164542958040674e-002, 1.5891533379691539e-001,
          1.0768482452098126e-002, -2.5423747957030685e-001,
          5.3180558024214848e-002, 3.7679725696687968e-002,
          1.0902747512908184e-001, 2.7405445156748787e-001,
          -2.4780352388123625e-001, 4.9451365963077282e-002,
          -9.5579286951808340e-002, 9.7475243421538779e-002,
          -6.7071362898121864e-002, -1.1185689799068352e-001,
          -1.7263874493918391e-001, -7.5809507355031322e-002,
          -6.2668441592658208e-001, 5.0754358524919024e-002,
          9.1276561954228549e-002, -7.7208352869252081e-002,
          -3.2985705516620145e-001, 7.0547187687181115e-002,
          -8.6238807709420509e-002, -1.1045799235365979e-001,
          -9.8729322388829865e-002, 1.3435579084679766e-001,
          -1.1344295070769539e-002, -1.1730754454247157e-001,
          -9.9932333538625656e-002, -1.4629246658656364e-001,
          -3.0415457966007264e-002, -1.9883042047966998e-001,
          -1.4547245999453173e-001, -2.1195844550515852e-001,
          -4.1271720945087846e-002, 4.0784645819228263e-002,
          -9.2166987310353179e-002, -8.2348303921475866e-002,
          -4.4800688676600474e-004, -1.3881736285282514e-001,
          -2.4858049385701886e-001, 2.7570601691130470e-001,
          4.5179552241918344e-002, -8.5373431727905277e-002,
          -1.1573112819094522e+000, 8.8002505253719832e-002,
          -3.8845660712391518e-002, -2.9489039574019738e-001,
          1.4207062387931713e-001, 9.9239200601755562e-002,
          -5.3054613302580300e-001, 3.9712250660641601e-001,
          -7.6523668166682657e-002, -5.2355680414692726e-002,
          -1.6248886162124976e-001, -1.0586300637577932e-001,
          1.3174919301509982e-001, -3.9046917977479861e-002,
          5.8234148688758008e-002, -7.8030196704318724e-002,
          1.6647039906149436e-001, 7.2996361334674520e-002,
          -1.1519089744332718e-001, 2.6155054173722792e-001,
          2.6005640013493520e-001, -2.4776048974175502e-001,
          1.6554461918447297e-001, 9.7435091525551826e-002,
          -2.1069439081928415e-001, -6.5514202827119228e-001,
          -2.5761234926722931e-001, -1.9202511934035749e-001,
          4.7001011212332733e-001, -4.3240349448170935e-003,
          2.3553156076687670e-001, -7.4109784025792635e-001,
          6.1041059637663431e-002, -1.8124774737813260e-001,
          1.3417627026118162e-001, 5.1032497339748378e-002,
          -9.8954585631243042e-002, -7.3490568472153378e-002,
          -1.5385678004038497e+000, 1.4046685743083906e-001,
          -2.8688319213860408e-001, 3.7985747061218383e-001,
          1.0622037711852142e-001, 9.1228239982033235e-002,
          2.5246884368310063e-001, -2.9292635203415185e-002,
          -1.4966143417556317e+000, -1.9042549557096716e-001,
          3.0894199700914521e-001, -6.5365294857840858e-002,
          -8.2038601600015404e-001, -2.1787862383301196e-001,
          -5.4297188546789787e-001, 2.3608193824833756e-001,
          1.4335860715255394e-001, -3.2408499988578066e-001,
          -9.9258551451171806e-001, 3.6885715892845350e-001,
          -1.0019648472906277e-001, 5.7638451326755735e-001,
          -4.3255279458690699e-001, -3.3786890219489168e-001,
          -7.0731442922960838e-002, 5.6106772097172930e-001,
          -5.1016449347255445e-002, -2.7485473108250125e-001,
          -3.3724294757893936e-001, 3.3708358555634454e-001,
          -2.6048596555236180e-002, -1.2104934220495331e-001,
          -3.0160668359716336e-001, 3.6615347398165153e-002,
          -1.1364881525482068e-001, 2.5658928222906457e-001,
          -3.9715922735699039e-001, 2.2494000986548279e-001,
          -1.0761358283660427e-001, -1.6819672945679026e-001,
          5.5655651850491661e-001, 2.6729300951198004e-001,
          -9.6986090876864425e-002, -3.5616368665281067e-001,
          -6.3157922064940392e-002, 2.5221098084466131e-001,
          2.0169765905498055e-001, 3.7794264187796650e-001,
          -4.6848944410203763e-001, 1.8862616559420769e-002,
          -2.8885640723949368e-001, 2.4993166951601817e-001,
          4.8562626051233815e-001, -4.6875413892465989e-001,
          1.4946926988800946e-001, -2.1627924895520978e-001,
          -1.0030400126915668e+000, -1.9253418522792567e-001,
          5.9511692213087508e-001, -1.9696189979729506e-001,
          -5.7828294838156942e-002, -1.4251168094355371e+000,
          -2.4607741445261813e-001, -5.1490148567484774e-002,
          -1.2251605011991751e-001, -2.8427293145392152e-001,
          -9.4395346944386935e-002, -7.6740070048475259e-002,
          3.9405873469814284e-001, -7.1971631559316052e-001,
          9.4988168732550796e-002, -1.1599077172701874e-001,
          4.9941358439467155e-002, 1.3723635019691138e-001,
          -8.5111439912759785e-003, -3.3486757719359983e-001,
          1.1680737157125777e-001, 1.5477666664777826e-002,
          6.1223504116730727e-002, 6.7925851372397650e-002,
          1.0756464555527152e-002, -2.8957312601198676e-001,
          7.8648424375441772e-001, -8.1732838575084787e-001,
          1.9833046835075849e-001, -8.8308901948258803e-003,
          -5.9854584089780638e-001, 3.7403730878150097e-002,
          -2.3527262928718989e-001, -6.0748513376461089e-001,
          1.4727743323131046e-001, -5.8727203410183044e-003,
          6.3083478564753465e-002, 1.6219834434973321e-001,
          4.6778461653473338e-002, -1.4104006844938649e-001,
          -3.6825470332966959e-001, -1.5576054776823259e-001,
          2.6027529040691311e-001, -1.1930669746520928e-001,
          -3.0004288280014546e-001, -1.1769354546422837e-001,
          -1.3119323985793069e-001, -2.7910604276715677e-002,
          -4.8245486849302702e-002, -6.6285513540316435e-002,
          1.1351731113841046e-001, 2.9002358854598842e-001,
          9.7326028091509961e-002, -3.5751764402074088e-002,
          -5.7264365808153894e-001, -1.0025225025106500e-001,
          -9.9845975360596362e-002, 4.3863256024490677e-001,
          -4.2731070965502382e-003, -3.2448856722540853e-001,
          -1.9073330798093069e-001, 3.4768989792004962e-001,
          -1.9915459418455699e+000, 2.4060135600122642e-001,
          -4.1071316992258033e-001, 6.7611469744756214e-001,
          -7.9685228780429537e-002, -3.8509195381588368e-002,
          1.3764479496257057e-001, -8.3048995830729069e-003,
          5.9610003584049755e-002, -4.9319388524707253e-001,
          -1.7992466790212616e-001, 4.4241968323467507e-001,
          5.3182185173128471e-001, 4.2598844393138546e-001,
          9.3629756189634372e-002, 1.1752543871261101e-001,
          2.4438468754278436e-002, 1.5907685540525560e-001,
          -7.4700307252401552e-002, -4.4912221424966969e-001,
          8.0843480919146216e-001, 4.6999351778920478e-002,
          -4.1567551701307331e-001, 4.4436835071267902e-002,
          1.9399348302876387e+000, 5.1197741266942809e-001,
          -1.8183132503529542e-001, 5.6882133717229222e-001,
          1.6671672264040652e-002, 6.4359069774725042e-001,
          -2.6112333879856381e-001, 1.7734162949144844e-001,
          -2.4806962593552698e-001, 4.5292606166623027e-002,
          6.7843327060715353e-001, -8.5598982309909255e-002,
          1.0277380016314369e-001, -6.8714270977084768e-001,
          1.1355635856230165e-001, -3.8598613503585888e-001,
          1.4905311550434575e-001, 1.0943917912879289e-001,
          1.0504316214949500e-001, -2.1727571533067293e-002,
          -7.4758023357041237e-002, 1.7360431635962839e-001,
          2.6944195698923828e-001, -9.8546856951279488e-002,
          -1.6815972106451993e-001, -3.8815178282424118e-002,
          -9.2439400539953670e-002, 3.7912047249724946e-002,
          -1.8734335258027879e-001, -8.5409762434006373e-002,
          2.9276897184727520e-003, 2.2386622764177852e-001,
          2.7986336912705523e-001, -1.2091139449464196e-001,
          2.6694260655663449e-001, -8.1716508752100164e-004,
          2.3652384337134158e-001, 2.1908829780223693e-001,
          3.1037778463053517e-001, -3.8565784014224297e-001,
          3.3779736187618575e-001, 3.2021089373711359e-001,
          -1.8237708513798481e-001, 2.4214046796493288e-001,
          1.9083278983469041e-002, -7.5017105408339474e-002,
          4.1158097161351277e-002, -3.7820606507551806e-002,
          -1.6276605680913891e-001, -2.4441673814805286e-002,
          -5.5240494629820183e-002, -3.2390298722343745e-002,
          -5.5586733752776667e-002, 6.5283929877903935e-002,
          1.6907746621581302e-001, -5.0771110815143128e-002,
          1.9707430476215718e-001, -1.6208133189564447e-001,
          -2.0437108209119106e-001, 1.6548643376209568e-001,
          4.2542725491516553e-002, 1.4707425696394560e-002,
          1.4454233802006838e-001, 9.4691924953501955e-002,
          9.8816828742589347e-002, 1.5570463386285413e-001,
          5.8461245419234933e-002, 1.5664629865758564e-001,
          5.4497693994787627e-002, 1.7971138222888308e-001,
          -3.4433533555787948e-001, 1.7825771730153619e-001,
          -1.5449985856596388e-001, -1.2753186006623476e-001,
          -2.1406270828056212e-001, 6.0521845531256731e-002,
          -1.3457781208218767e-002, 1.4189807338967794e-002,
          1.0317648941123282e-001, -4.7572659066878263e-002,
          5.8467752689262811e-002, -3.6670092116523334e-001,
          3.3586124566750136e-001, 3.4582463901043366e-002,
          5.1524558579313740e-001, 2.6564317021029640e-002,
          -5.7391525859025572e-002, -2.2541853792834569e-002,
          -1.7280103538059513e-001, 1.3900296735553005e-001,
          -6.5132503347457458e-004, 1.4851751141739415e-002,
          -1.0013788726892768e-001, -8.4368928449493050e-002,
          2.0768073491569582e-002, -1.0536175154313197e-001,
          -1.3580687325720284e-001, 1.4287518377768393e-001,
          -5.8562811299696111e-005, -4.4918676198347857e-002,
          -1.8736893827441300e-001, 2.7126482295618193e-001,
          -9.9937724869563732e-002, -6.9965640538904111e-002,
          -3.1139922090813916e-002, 4.4343475035578360e-003,
          1.6704554291634208e-001, -2.2828162153643090e-002,
          8.7315899313152034e-002, -1.0446170059368461e-001,
          2.2140786530448112e-001, 2.6324031637600143e-001,
          3.1359304578304248e-001, 9.4071898188577224e-002,
          1.6148404003806618e-001, -2.4142713047937199e-002,
          -2.4260860753362820e-001, 3.3556921835822240e-001,
          5.3374102010384950e-002, 1.8599347744967090e-001,
          -1.1736857242187979e-001, -2.0854044555711568e-001,
          -1.2551800708687139e-002, 5.9056043653984668e-002,
          4.9763609626726699e-002, 8.7611682514177669e-002,
          -3.4354515573911767e-002, -2.3383235838863617e-001,
          -1.4964480139162398e-001, 2.4946783199879488e-001,
          2.2336144902448402e-001, -5.5543027505365994e-001,
          -9.3172857517006810e-002, -2.7321414406777520e-002,
          1.7719478275309730e-001, -5.4548192482210975e-002,
          -6.6928507515773406e-001, -1.9578096507281476e-001,
          2.3879664570278594e-001, -1.3052159982892875e-001,
          1.0824409174829094e-001, 5.9949161378489907e-002,
          -3.4282397701129624e-001, 3.2199850199898197e-002,
          -1.1771798252941541e-001, -2.0899457993930554e-001,
          -9.1451637103770772e-002, 2.5463496851268153e-001,
          2.9243813437894739e-001, 3.3649501124514386e-001,
          -6.4379037145627926e-002, 5.0028671724121329e-002,
          -2.1571740549620064e-001, -1.8530921205235837e-001,
          -8.6439844583652392e-002, 1.5348185414533888e-001,
          -2.1668344654144561e-001, 3.9382411635494669e-001,
          -4.2330971101651704e-001, -2.1035538171064583e-001,
          2.3400675924669387e-001, -3.3508947860453907e-002,
          -2.8211522229566643e-001, -1.2553256900784743e-001,
          -2.0912805219575181e-002, 1.5436915021990360e-002,
          -5.4712527879306978e-002, -5.3182173293921456e-002,
          -7.2232575585200420e-001, 3.2966476035341824e-001,
          -4.1675240012884904e-002, -1.3964993442053703e-001,
          8.5298855608430924e-002, -1.0682959337754540e-001,
          -2.3161617842097926e-001, 1.4230910585270240e-001,
          -2.3396248593085717e-001, -1.4399092284301751e-001,
          7.5317036076605204e-001, -7.3421184183184690e-002,
          1.0490866887137873e-001, -8.7822815798060572e-001,
          -5.1887454549580846e-002, -7.0232435957842121e-001,
          -1.6619833991049632e-001, 5.9485289798461882e-001,
          2.9862628953509840e-001, 2.8638148646039745e-002,
          -9.3857495182072079e-002, -1.9790601047130044e-001,
          1.8878932960796316e-001, 2.6178373755349715e-001,
          1.0698925529409205e-001, -1.3420420548301629e-001,
          2.6977769034789534e-001, 4.3246051709043476e-001,
          6.1940749154735804e-002, -8.5931717436330282e-002,
          1.3197557721154610e-001, -3.5684315177616277e-002,
          -9.0061233706011365e-002, 1.9062737333084909e-001,
          -3.2156071227645516e-001, 2.3443255779072292e-001,
          9.1050278878741842e-002, -7.9017353375436111e-002,
          -1.7517498912191671e+000, 1.3829089738195433e-001,
          -1.1631906130497351e-001, 8.6791069717139693e-002,
          -2.0053301440253296e-001, -2.6269708581158296e-001,
          -1.5453783836654625e-001, 1.8962952492959059e-001,
          3.3782034429758218e-002, -1.0880009194740295e-001,
          -5.9741686053203968e-001, -1.6680147153129171e-001,
          1.4930863021750287e-001, 1.9115279077253561e-001,
          -3.4877015310521044e-003, -1.1652784159930410e-001,
          -1.3418032920412598e-001, -5.7886404052562609e-002,
          1.0909604929225714e-002, 1.6468116744305168e-002,
          -5.5148659478443926e-002, -1.9801636162137710e-002,
          3.0919053983495259e-002, 6.5822390379338555e-002,
          -2.8828775270056339e-001, -2.0433827660733272e-002,
          5.3144114502121489e-002, 1.1547978712284530e-002,
          -1.0114878966796445e-001, 1.9431862387827917e-001,
          -3.7643530180669449e-001, 1.0755870806873612e-001,
          1.9624640010275707e-001, 4.0726752909856549e-002,
          -3.5663790334988739e-002, 3.0712395110581048e-001,
          -6.1778128541488897e-002, 1.0881392344687262e-001,
          8.0275564816193412e-001, 7.8612826615136813e-002,
          -4.0122872676525967e-001, -3.0110390526254679e-002,
          -5.1474293014095278e-003, 7.5855372719532899e-001,
          2.1094336256748766e-002, -4.4743021939624136e-002,
          -2.2733166883683750e-002, -3.2049125259546354e-002,
          -5.9565182271252537e-001, 1.0589531195140210e-001,
          -1.6704593483335400e-001, 3.4118100045942380e-002,
          -3.0670101183955519e-002, -9.7977331737687842e-002,
          -5.8523785550220954e-002, 1.7988552281810693e-003,
          4.0103533985770034e-003, 7.9466248160498229e-002,
          9.7464865596320234e-003, -5.0939383750251332e-001,
          4.6779065442481534e-003, -8.2631678380568188e-002,
          -3.5118834407787930e-001, -1.6529915195051856e-001,
          -1.2079129888140804e-001, 8.4438150240755808e-002,
          -1.1117512156499469e-001, 7.5621104082698598e-001,
          -7.8011324890470454e-002, -7.6571945398449928e-002,
          -9.2563443198865489e-002, 2.3332321586338187e-001,
          -5.7366366276126635e-001, 1.3614653463651788e-001,
          1.1287164266790897e-001, 1.2995045959455231e-001,
          1.3840795414324439e-001, -8.7811277330547832e-003,
          1.7336896410106526e-002, -1.2935902016832110e-001,
          2.8527249231171996e-002, 9.3643338045626620e-002,
          -2.9151129111328605e-001, 6.6090276998457154e-002,
          -6.5421494022732007e-002, -5.4882072338242126e-002,
          1.0237718003079588e-001, 9.1689036170066324e-002,
          -9.5917323261875187e-002, 1.8601250463129937e-001,
          -1.3590426820619014e-001, -7.0791298697616203e-002,
          -1.0509484599439436e-001, -3.6563459967450695e-002,
          -4.9864622594810448e-002, -1.0724897909965565e-002,
          -4.2682398947271306e-002, 6.0736540886028381e-002,
          -1.8097230246345214e-001, 2.2516480380542339e-002,
          2.3361567660529386e-001, 1.7966617099589122e-001,
          1.5826712441928761e-001, 8.8682773012495386e-002,
          3.1618155212221610e-001, 3.2552010556087374e-001,
          -2.6876322333575076e-001, 4.6056412579376627e-001,
          4.3913887411147207e-001, 1.4901084887783700e-001,
          4.9150320097037270e-001, -5.3348264769035043e-002,
          3.5342140862273774e-001, 7.1271764907625335e-001,
          2.7632586063983883e-001, 1.2438304580202866e-001,
          -1.3875643875675539e-001, -1.8089366698002837e-001,
          -1.7133170738840495e-001, 1.2969349323682383e-001,
          -2.1240176492835214e-001, -3.8494396458901092e-001,
          6.7023088299257655e-002, 5.4259714050946894e-001,
          -1.0320273878075518e-001, 4.7360124346519657e-002,
          1.2968331428214674e-001, -7.1852423891132361e-002,
          -1.9134885919071165e-001, -4.5862095455254925e-001,
          -6.6827864432115669e-001, 3.5136328885165435e-001,
          3.8746015742883617e-003, -8.6168419534179724e-002,
          1.0321346068605566e-001, 4.1593406652739323e-001,
          -2.6755039537455438e-001, 3.5325003726020693e-001,
          -1.8158394909133438e-001, -3.1518952212679745e-003,
          6.1564189908607611e-002, -2.0648937414219645e-001,
          -6.5904218645618518e-002, 1.0503194844535771e-001,
          2.0771802358188365e-001, 3.4549823345304437e-001,
          -1.0627889318921979e-001, -3.4256186930604435e-002,
          1.0262993969593980e-001, -8.3120230485583715e-002,
          -1.3564895323436682e-001, 7.7505923950706240e-002,
          -1.0460101388992547e-001, 5.6106941370927976e-002,
          1.0173103060535693e-001, 4.0064770948518336e-001,
          -1.2603284965887915e-001, -9.7972772676711145e-002,
          -1.0415183151261645e-001, 1.2983506236650180e-001,
          -9.2238810903273655e-002, -2.8370445833236352e-001,
          -1.7657982138892681e-001, 1.2319037776256918e-001,
          -1.5431256701256038e-002, 5.1164739603004911e-002,
          -6.7794149248010430e-002, 2.2363528607815633e-001,
          3.4097393337538268e-003, -1.3228628089541139e-001,
          4.2253116887174841e-001, 1.6507882427505260e-001,
          -3.0833937103512671e-001, -4.0898373272370045e-002,
          -1.0927798276153501e-001, 7.9369974955174255e-002,
          -2.5209572198507407e-001, 8.1644870409771086e-001,
          4.2668774846579188e-001, 7.0354378863385178e-002,
          1.6813521172674695e-001, 1.3580639899499625e-001,
          -3.7783065303602863e-002, 1.0415504528565314e-001,
          -1.7702042931971879e-001, -8.3056356022307054e-001,
          2.9030390868193178e-003, 8.8904948868556335e-002,
          1.1831419056282802e-001, -6.3071378740232720e-002,
          8.4654402649477753e-002, -8.0598043622856275e-002,
          4.4165454790046667e-002, -1.2990281914566297e-002,
          -4.1045320977659450e-001, -2.1884404440146302e-001,
          1.2877796772338809e-001, 2.5733539986967485e-001,
          -2.8556009981229352e-001, 1.5743965049463679e-001,
          -4.6227969871312091e-001, -1.9624074682647177e-001,
          -2.8601685300194490e-001, -1.9962541306294265e-001,
          -8.9899772275087511e-002, 1.0030183972771860e-001,
          4.6753931697263044e-002, 2.5431525742256567e-001,
          -4.7239889425771897e-001, -6.3606607913712324e-002,
          -2.1754872133669848e-001, -2.4278273162171160e-001,
          2.7167983430479825e-001, -5.0053945026172153e-001,
          -4.2260685694002015e-001, 5.4856028461708686e-002,
          -4.7958536426679903e-002, 4.5778806685189039e-001,
          8.5785707994398441e-002, 1.7503691408590985e-001,
          -3.3133038069619561e-003, -2.5761895327227136e-001,
          5.8747587451887752e-003, 2.2105604008756596e-001,
          6.7095659493757165e-001, -2.3029617571073913e-001,
          -9.1710780364162511e-002, 4.6206188036681539e-001,
          1.8346140051737944e-001, -2.3295019234534298e-002,
          4.4265269889216655e-002, -1.6942096726340639e-001,
          -6.3718324358810863e-001, 5.9618584790442175e-001,
          2.4976530188260737e-001, -6.5883878711418473e-003,
          7.8437307830782371e-002, -2.6373798676444574e-002,
          -1.2365553459568031e-001, -3.8357128994016226e-001,
          -3.8174817040237852e-001, -1.1314790805927988e-001,
          3.9516042664028569e-002, 7.1405144957849143e-001,
          1.9985967708826952e-001, -2.2012190116629571e-001,
          2.1672340885679858e-001, -2.0779269871463533e-002,
          -5.0318817826512985e-002, 8.1167387620494758e-001,
          7.3090347652699270e-002, -2.5359210401330584e-001,
          6.9316988452537120e-001, 3.0346002885912765e-001,
          5.9569883361955629e-002, 8.5678454404311641e-002,
          1.8791580524883883e-001, 5.1223392003892899e-002,
          2.1901720398479019e-001, 4.7445963317436293e-002,
          6.7452183596682688e-002, 3.4959222873150875e-001,
          1.7750852559184679e-002, -1.0943666587778450e-001,
          6.2940353080054891e-003, -9.8870793735367946e-001,
          1.5480632602728206e-001, 7.1930159194250665e-001,
          -8.6773800920913968e-001, -7.8771110459403559e-001,
          4.8503327289817444e-001, -7.4305393488198523e-001,
          -6.0719658348021954e-001, 1.4318856157997646e+000,
          1.7919537292176507e-001, 1.2730352429657827e+000,
          -4.6257268307013133e-001, -1.9789011066081014e-001,
          4.6089339201006740e-001, 1.5790948590886005e+000,
          9.5331313942865170e-001, 7.4752531915739617e-001,
          -1.2918317833020199e-001, -1.4230237350410582e+000,
          -2.0344651102346620e-001, 5.2956069394124283e-001,
          2.4608558046649476e-003, 2.2955176497571234e-001,
          -7.8065332919840835e-001, 6.7129316682033557e-001,
          -7.5028745092068150e-001, 7.3039758434989477e-001,
          2.0003490096568705e-001, -2.8164169971498360e-001,
          1.0505522324362495e+000, 4.3319989052035257e-001,
          3.0581708972296001e-001, -1.0655644463410916e+000 ]
      - [ -1.2507165698328835e+000, 8.8231845290595301e-001,
          -3.4088559551909564e-001, 1.2871984553298357e+000,
          4.7038472008470522e-001, 1.0824660463258626e-001,
          -6.4046130678701396e-001, -2.0143324802371854e-001,
          3.4699788285285232e-001, -2.3820943785697227e-001,
          -5.9291150427460670e-001, 1.9826273208621892e-001,
          4.7295642204836003e-001, 1.4377963764768101e-001,
          -8.5678148377325392e-001, -3.7931029623001800e-001,
          2.9747182477265594e-001, 1.1491859342003838e+000,
          9.8122498544738901e-001, 6.5248772667881816e-001,
          -6.6352060528709900e-001, 1.1335079640015959e-001,
          1.7211966099273197e+000, -5.8387920695498585e-001,
          2.4978982371186618e+000, -8.6190154120326046e-001,
          -1.1223886454895440e+000, -6.6401854504495861e-001,
          -9.0924226561396104e-001, -4.1417586628557446e-001,
          8.4636795417230448e-001, 1.9679210526980544e+000,
          -1.5484848566353329e-001, -1.0138723354786638e-001,
          4.9576915363743890e-001, -6.7822587927430872e-002,
          5.6847172271832813e-001, -5.7273205269710437e-001,
          5.2946400437952290e-001, 5.5065514812852989e-001,
          -2.0192887072789667e-001, -8.5217769623406980e-001,
          -1.6096509229183589e+000, -3.9662008192539211e-001,
          6.1889664372801766e-002, -5.1403322487562908e-001,
          -2.6298428495544190e-001, 1.4951152087207664e+000,
          -9.0523840582742501e-003, 4.6459442433851951e-002,
          -7.5778154737281778e-001, -1.2899188638766350e+000,
          -4.9493632737148985e-001, -3.7318663837522276e-001,
          -3.8982782431156637e-001, 6.1248533417657014e-001,
          9.0883686239302153e-002, 9.2605613548174504e-001,
          5.5981370347972970e-001, -5.2723646637290711e-001,
          3.1746073485910892e-001, -5.0313767734739179e-001,
          5.8967061166837831e-001, 8.0230575515763158e-001,
          -6.2547613185282813e-001, 8.2605948043695088e-001,
          -7.0510214828193196e-001, -1.0873015418020133e+000,
          7.9676556893528716e-001, -3.5907630449295047e-001,
          7.8289612092077729e-002, -3.3079201223464005e-001,
          -1.1558982775355577e-001, 7.7060200895057296e-001,
          -8.7232762537226116e-001, -7.9868593224927764e-001,
          -3.1719828956243973e-001, -1.9818937467448111e-001,
          -9.7558292532473823e-001, 9.5422163866311283e-001,
          -7.2623241335153588e-001, 3.9306138975411647e-001,
          -1.7850091528310774e+000, -6.4774200262374537e-001,
          -1.3063640280375124e+000, 1.0142746832467915e+000,
          -7.6582173376116169e-001, 6.1414810892331606e-001,
          -6.3889280197457687e-001, 3.2039348609578611e-001,
          8.7629994576769454e-001, 6.4363378314123765e-001,
          3.7997954631909736e-001, -6.9821161270808418e-001,
          9.3705576750026343e-001, -7.5621162158623334e-001,
          -9.7667694650812459e-003, -8.7507480520620951e-001,
          1.8081713026747104e-001, 1.2006932090057401e+000,
          4.8243145909607399e-001, -7.1413293504714970e-001,
          1.1571702579408884e-001, -8.1490118372513631e-001,
          -4.0338269899055362e-001, 7.4072457192838181e-001,
          5.1731767477333557e-001, 6.5506319136904201e-001,
          -7.8690731817495063e-001, -6.2132138042585250e-001,
          -2.0803240658581260e-001, 6.4370695734690786e-001,
          2.8950414863854640e-001, 2.7353854267359973e-001,
          -6.6757694821443403e-001, 7.2500538435950890e-001,
          -3.1380907693668003e-001, 3.3165395114700202e-001,
          3.5634202730950709e-001, 2.7689394075514079e-001,
          2.3246777548611169e-001, -8.8235334651111375e-001,
          -3.9255721386703851e-001, -7.6838791604712608e-001,
          -3.0389022727012657e-003, 7.9583833858878605e-001,
          -3.3223184711869819e-001, -1.6730694191310541e-001,
          7.4604166466668242e-001, 1.4864052145566792e-001,
          -3.7994507657366983e-001, 5.6186873510368114e-002,
          2.7993619504793887e-001, 4.7091290711697192e-001,
          -1.2162216111682598e+000, 8.5248426459729665e-001,
          -6.0236442764960985e-001, 1.4529858431369070e-002,
          3.9499978330731395e-001, -9.2166875571026208e-001,
          5.4412630539983531e-001, 1.3150905955944203e-001,
          -3.5726206995323295e-001, 6.8177705108746911e-001,
          -7.8069880865365238e-001, 5.8627218018692728e-001,
          -8.8951265294910664e-001, -4.7685380226373675e-001,
          -2.5420814686268578e-001, -5.4407503172592520e-001,
          -1.2004282667197588e+000, 2.3492961524054407e-001,
          -1.8114424705773594e-001, -1.0400315050393341e+000,
          -3.9540342478887441e-001, -5.1254209892749786e-002,
          -1.1208946727253735e+000, -3.7726947856010190e-001,
          6.7065967050950981e-001, -7.3387701795138399e-002,
          -9.1840153001248870e-002, 4.4445639085024591e-001,
          -3.3033830677917597e-001, 1.1939553508309664e+000,
          -4.8299764645248655e-001, -1.3758246964836678e+000,
          -8.0125092363458628e-001, -1.8186976221002431e+000,
          -9.0354889426138985e-001, -7.2854185332572219e-001 ]
