%YAML:1.0
my_nn: !!opencv-ml-ann-mlp
   layer_sizes: !!opencv-matrix
      rows: 1
      cols: 3
      dt: i
      data: [ 59, 42, 5 ]
   activation_function: SIGMOID_SYM
   f_param1: 1.
   f_param2: 1.
   min_val: -9.4999999999999996e-001
   max_val: 9.4999999999999996e-001
   min_val1: -9.7999999999999998e-001
   max_val1: 9.7999999999999998e-001
   training_params:
      train_method: RPROP
      dw0: 1.0000000000000001e-001
      dw_plus: 1.2000000000000000e+000
      dw_minus: 5.0000000000000000e-001
      dw_min: 1.1920928955078125e-007
      dw_max: 50.
      term_criteria: { epsilon:9.9999997764825821e-003, iterations:1000 }
   input_scale: [ 2.8070943808090620e-001, 1.5767800434729862e+000,
       4.7409516697431398e-001, 2.5281397768903378e+000,
       4.0505324845969382e-001, -4.3151425578623509e-001,
       3.7052079295309059e-001, -2.7432018000600766e-001,
       5.9094671443083668e-001, -4.8688055798297369e-001,
       2.9591265958459279e-001, -2.3379367457080660e-001,
       2.6233729978593806e-001, 4.1922781864528552e-001,
       3.9975116597098692e-001, -5.5905392366221096e-001,
       5.7181755447205052e-001, 1.5496324812397511e+000,
       6.2825437092185588e-001, -3.6803365989318416e-002,
       5.3165797013628946e-001, -2.6856086425283050e+000,
       4.4942279312174149e-001, -9.9567201875375266e-001,
       6.7284535738335682e-001, -2.2570016845237367e-001,
       5.9343656388345178e-001, -1.0404880841567343e+000,
       7.0493084461057787e-001, 1.9341698916556935e+000,
       5.8729819750498846e-001, -2.1149747453550197e-001,
       8.1497136170477236e-001, 1.1676268190292665e+000,
       1.0450266456917949e+000, 4.6923069811220147e-001,
       7.1282712691708783e-001, 2.3642126105675403e+000,
       8.0582296214174487e-001, -1.4388942394828403e+000,
       1.2869698055687737e+000, -5.9767047208973023e-001,
       8.6780575891861100e-001, -7.9351723842688959e-001,
       8.5873718780859010e-001, -1.7775862030381850e+000,
       1.0050838945774301e+000, 2.9463708665122765e+000,
       9.5628792347665603e-001, 2.4473856800527624e-001,
       1.1388614301928186e+000, 7.1696083955415058e-001,
       8.2585858226522335e-001, -5.5754140178526229e-002,
       1.0037793598529947e+000, 2.2126628798072115e-001,
       1.1173756242859743e+000, 6.8013786397538256e-001,
       9.8083165695661567e-001, -1.3614226931764677e+000,
       8.4234657200323693e-001, 1.3013937212639828e+000,
       9.5439503512079682e-001, 1.0946450633746305e+000,
       9.5113430565392576e-001, 1.1949531017069559e-001,
       1.0212434848358278e+000, -1.7949525827084980e+000,
       1.2508899305415888e+000, 1.3606120943660258e+000,
       1.3585243821532551e+000, 3.3466503071812576e-001,
       1.0747984177169194e+000, -9.3386162117037697e-001,
       9.2625173003459915e-001, 6.7799139112048101e-001,
       1.5168320171182701e+000, 1.5578028983347147e+000,
       1.2329960807349796e+000, -1.9480250538874999e+000,
       8.1191177708012263e-001, -4.9882581314362984e-001,
       1.1181985487748334e+000, -3.4739021234232120e-001,
       1.2571809908870113e+000, -1.0264432737219424e+000,
       1.0679636374108998e+000, -1.7271336056021991e+000,
       8.6888243438198376e-001, 8.3001346620452787e-001,
       8.4956562747807141e-001, 3.6210411388295494e-001,
       1.0262816618232709e+000, 1.0657582694244707e+000,
       1.6947586317005117e+000, -2.9741272213354057e+000,
       1.4627821981546545e+000, -8.0187603349018877e-001,
       1.7404284304786659e+000, -1.4375440625727209e+000,
       1.4725208418299152e+000, -8.1460831066373440e-001,
       1.2109617846484539e+000, -9.5830762168435635e-001,
       2.0120707510237348e+000, 1.4338225439070482e-001,
       1.0414109059974415e+000, -1.4059338055043591e+000,
       1.5028209225965532e+000, 7.2993126977604317e-001,
       1.5352738888157151e+000, 1.0511011405734809e+000,
       1.6117097490654320e+000, -1.9522581987245478e+000,
       1.6416535350312067e+000, 7.9414532470646393e-001,
       1.1538064307802260e+000, -5.3399569568670376e-002 ]
   output_scale: [ 5.2631578947368418e-001, 4.9999999999999994e-001,
       5.2631578947368418e-001, 4.9999999999999994e-001,
       5.2631578947368418e-001, 4.9999999999999994e-001,
       5.2631578947368418e-001, 4.9999999999999994e-001, 1., 0. ]
   inv_output_scale: [ 1.8999999999999999e+000, -9.4999999999999996e-001,
       1.8999999999999999e+000, -9.4999999999999996e-001,
       1.8999999999999999e+000, -9.4999999999999996e-001,
       1.8999999999999999e+000, -9.4999999999999996e-001, 1., 0. ]
   weights:
      - [ -1.3951556513495028e-001, 2.5129862866029062e-001,
          3.8287797549015612e-001, 4.0753933543677728e-001,
          9.5512731564831380e-002, -1.2256679997020010e-001,
          5.9712233311656149e-002, -5.3334241605517106e-003,
          4.3772689886756019e-002, -3.5804629261608373e-001,
          -2.5496496088494325e-001, 1.9136100105710660e-001,
          3.2116221609557245e-002, -8.3839193007411994e-002,
          -2.5786496046627400e-001, 2.5294217651729300e-001,
          -8.4331876855957388e-002, 3.7684140723693693e-001,
          -2.5544194895908490e-001, -1.7303401871391738e-001,
          -1.4319791393701303e-001, -8.8251570417594710e-002,
          -5.6533243965817687e-002, -1.8816533010216491e-001,
          -9.8557598956631950e-002, -2.4704643503226389e-001,
          -3.7003037486429191e-001, 8.2874480763282676e-001,
          -2.4126069389766081e-001, 2.5060357654648152e-001,
          2.4682132192664057e-002, -4.0444115334283423e-002,
          -1.4873250883779213e-001, -8.5740072379168142e-002,
          1.6959576388366149e-001, 2.2477636064247189e-001,
          -2.2426227279479535e-001, 5.6607398638529405e-001,
          -7.0551723002166000e-002, -8.7558215507987633e-002,
          1.5019302148545646e-001, 7.4353783378665522e-002,
          -1.1618714819125037e-001, 1.2197827337877918e-002,
          -1.8158277554098021e-003, -4.3674814610935864e-002,
          4.3436601758974035e-002, -1.3415130029526950e-001,
          -2.9711809506477718e-003, 7.9572090096778444e-002,
          -3.5204801872466907e-003, 1.6572075171037592e-001,
          -6.1567419159315143e-002, -3.6144882543494339e-001,
          -3.4589526330007177e-002, -2.0605877839804068e-002,
          -1.6258607336877345e-001, 2.4059494638535676e-003,
          2.3996610503438577e-002, -1.0101579718305456e-002,
          -2.5459917051920022e-001, -3.2574814106806665e-001,
          -3.8540522889466008e-002, -4.5095527006335887e-002,
          -6.9507731238372950e-002, 1.0544671379174161e-001,
          -9.3014587514344105e-002, -1.4139005513246541e-001,
          -2.0445658885720061e-001, -1.2416671319507797e-001,
          -1.9500361308891895e-001, -1.5130161458518088e-001,
          1.1396886341301224e-001, -6.7524856706032726e-002,
          -6.1187865568624586e-002, 7.0903700690095994e-002,
          6.6489378421822162e-002, -8.3970143309541931e-002,
          5.2910187436326410e-002, -2.9966722116809158e-001,
          -2.9205615874465674e-001, 1.6130995856726127e-001,
          -2.4889218544491129e-001, -8.1301583907199035e-002,
          1.9416174530629982e-001, -1.2218120710667582e-001,
          1.3303581223003885e-002, 1.3900087863872473e-001,
          -1.4695210660517743e-001, 3.7732291628584708e-001,
          -1.0866954505887300e-001, 1.5683628893719304e-001,
          1.0415278780921122e-001, -1.3982340444356708e-001,
          6.6508013805526367e-001, 1.4803797345230667e+000,
          -1.4178498296870002e-003, 7.9762365304336516e-002,
          -1.3901506357887888e-001, -2.1283090696738710e-001,
          4.8030703192959004e-002, -1.9849228511325046e-001,
          -2.2623526556874779e-001, 2.4874985433966293e-001,
          1.3492144775277328e+000, 2.8318707862852233e-001,
          4.6445232705696379e-002, -1.1384826887548460e-001,
          3.9696359748024862e-001, -1.7600112205727833e-001,
          1.1347071989859936e-001, -8.1564650477355033e-002,
          3.2440676266536256e-001, -1.4872705373297030e-002,
          -6.2810420016557234e-001, 7.3508995809231967e-002,
          -5.2092527905727756e-002, 6.5199631788727272e-002,
          1.3226973711789908e-001, 1.3607448373765265e-002,
          -2.2889082649590461e-001, 9.0224271471502481e-003,
          4.9413358915763950e-001, -2.0564374825273071e-001,
          4.6428656761676157e-001, -4.1622067400094936e-001,
          8.2876672823254144e-002, 1.2583089453739069e-001,
          -2.1680304338441914e-001, -7.9759141678343276e-002,
          -3.5510099669487194e-001, 9.8774573453466991e-002,
          1.5907373455840028e-002, -2.1027034199972738e-001,
          -1.2841231086487584e-001, 1.1373292049148057e-001,
          5.4274985291145370e-002, 7.3339614199976089e-001,
          1.2820975918382067e+000, 9.1900079858436179e-002,
          4.7015205075963892e-002, -1.2700948299316245e-001,
          -1.1988787475331281e-001, 6.6288063337162584e-002,
          3.9149106365164894e-002, 1.0080238940101294e-001,
          1.5137104897608122e-001, 4.9320721899340017e-002,
          3.8134857220827928e-001, 8.4254818647306579e-002,
          1.1916931079913193e-001, 1.7006362757715343e-001,
          3.0234525002714462e-002, -1.2968389186937818e-001,
          4.2076138538951778e-002, 1.3060661519359537e-001,
          -1.0044340077201711e-001, 1.7063248285032495e-001,
          -1.1254434325637509e-001, -1.8971346185590846e-001,
          3.2111948938119689e-001, 7.5936476306099021e-001,
          1.7860872114478241e-001, -4.2938591320916479e-002,
          -1.6252268653439467e-001, -3.7772678844905039e-001,
          3.8822202644671416e-001, -1.5465935199178377e-001,
          -1.8215257662702494e-001, 2.9019114626620213e-001,
          1.8048677824381196e-001, 4.3080646877202214e-002,
          9.5387229213279634e-002, -1.6563097088484946e-001,
          1.5883133246318085e-001, 9.2028395193667331e-002,
          -3.1949324376765648e-001, -2.1212018515932560e-002,
          -8.4738125899993175e-002, -7.9487276409886135e-002,
          -4.4116276600563463e-002, -2.2468240650352289e-001,
          -5.0952972556111267e-002, 5.7058858366018816e-001,
          -8.6911392017615885e-002, 2.0513604157414347e-001,
          1.5523035149810296e-001, 1.4897425479258821e-002,
          -8.4985024612914933e-002, 9.0399807544367036e-002,
          9.8527243842803300e-002, 4.4474067411097018e-001,
          9.1226401720158057e-003, 2.2324602953390940e-001,
          -1.0413388951006661e-001, 2.9643801641473810e-001,
          1.8716290280116918e-001, 1.7922363838502056e-001,
          4.5464555023360442e-002, -2.9365064502395699e-001,
          1.5205132309038658e-001, -1.1190766259432679e-001,
          -1.4169244624364358e-001, -4.1740381511743918e-002,
          2.2903888471627659e-001, 9.0385353241698774e-002,
          -4.6502196071425944e-002, 1.1595408887169278e-001,
          -1.3427531186981795e-001, 1.0151625567541353e-001,
          -1.5368697076804039e-001, 3.7392833129426684e-001,
          1.8258403759411168e-001, 7.7914658067975900e-002,
          1.1133635318312465e-001, -3.2833939117435446e-001,
          2.9733412595189768e-001, 2.1357297265430408e-001,
          -3.5595164304807220e-001, 8.2037819013170019e-002,
          -5.8855411586664352e-003, -1.0350234622368612e-001,
          -9.3546337833110116e-002, 1.5172368019447008e-001,
          -1.1603782990351638e-001, 5.7167008788258776e-002,
          -3.0233062079877471e-001, -1.0286701965102202e-003,
          6.4986778861782279e-002, 2.5742112448258525e-002,
          4.4899010982687199e-002, 3.6624947492872373e-001,
          -8.1588428484529796e-002, 2.4113732932246046e-001,
          5.2739641617029875e-002, 3.5034727539617355e-001,
          -9.2456173216723198e-002, 5.1003948408540001e-002,
          -7.7533810591537938e-002, -1.4529395210281015e-001,
          1.5794833054224611e-001, -9.1046796161978003e-003,
          1.4890421066751833e-001, -3.8355306504464920e-002,
          -4.1785634987597388e-002, -1.1847526377429449e-001,
          3.2281788768022823e-001, 1.2650832097960318e-001,
          2.0162113533909571e-003, 1.0275350940356549e-001,
          -7.4065136150724997e-001, 1.3109454687114080e-001,
          4.7167179375077896e-002, 2.8877630054454012e-001,
          -1.9500650565144384e-001, -5.6876699474723028e-002,
          -4.1699279592733111e-002, 1.1083797104849370e-001,
          4.5718157115056689e-002, -4.2313910456830854e-002,
          -2.2745229285379420e-001, 1.6666826948956273e-001,
          -3.2748145111290206e-001, 1.3085487353704288e-002,
          -1.7905396875352597e-001, -5.2398195967425079e-002,
          2.0536538292501372e-001, -1.3222672172717476e-001,
          -1.2580724403014404e-001, -5.1202188044516164e-002,
          -8.6970994859277145e-003, 1.0793020678003054e-001,
          -5.1731142682093967e-001, -7.3942350828627976e-002,
          -1.2281520251770706e-001, 1.4210561948316736e-001,
          -1.4599203365411484e-001, -4.0875902317390935e-003,
          5.6811833145552854e-002, -1.6353380355480779e-001,
          -1.1023723200563223e-002, -9.4389595310810204e-002,
          3.9082758952411978e-001, -2.4840559960396892e-002,
          -3.2973597510205499e-001, -9.8342281447670862e-002,
          4.2644648586564339e-002, -1.8420518606253833e-001,
          2.7344807268536348e-002, -1.0095800266661209e-001,
          -1.4480271064872188e-001, 2.0562438470667599e-001,
          -6.1105258109852907e-002, -2.8468450183790336e-002,
          -2.1353788819721983e-001, -9.9472927593041424e-002,
          -3.1069970094882521e-001, -2.7561611101228234e-001,
          -1.4722854232135091e-001, -1.4883055313671650e-001,
          -1.3909631142463108e-001, -8.7380778860967540e-002,
          1.0046713471390073e-001, 3.0833576429592324e-001,
          -1.0957490347143971e-001, 3.7614581801705183e-001,
          1.8385035146680434e-001, -4.8574761682072559e-002,
          -1.7550361209070151e-001, -3.2874841646974745e-001,
          -2.9794124601225108e-001, -1.7742095727374940e-001,
          -2.6146551303053267e-001, -9.7411579843647234e-002,
          -1.3544856137278433e-001, -1.2232348321315646e-001,
          -3.1258489975765263e-001, 1.6194867767733961e-001,
          -7.4135206151238003e-002, -1.5777690476000605e-001,
          2.1451521381665206e-001, -3.2039260375111671e-002,
          -5.8055154059805325e-002, -1.8661533838725181e-001,
          2.9639256959423604e-001, -1.8997018580757190e-002,
          -1.0600007126068582e-001, -1.1993777794021812e-001,
          2.5796949947004510e-001, 1.8930277359629988e-001,
          -6.8299681990038205e-002, -2.2445637616983227e-001,
          -1.2595227616914273e-001, -4.7282670848035263e-001,
          -1.8788331827400109e-001, -1.1992074815824451e-001,
          -4.9007281195693031e-002, 1.9363716037746187e-001,
          1.1578409208584654e-001, 3.5731070664252834e-001,
          -8.2354518240895361e-002, -2.5691583917653339e-002,
          3.8774099469060380e-002, 7.8056862599116691e-002,
          -1.1211282387861821e-001, -3.9825451492546216e-001,
          -8.3972914734433829e-002, 4.1717243385265765e-003,
          -1.1086790454582547e-001, 2.3981227739004921e-001,
          -2.9279028379992805e-001, 5.7834363290209367e-001,
          -4.2175180787084404e-002, 4.6482537520863210e-001,
          1.1455523104480628e-001, -3.2649981986125698e-001,
          -5.4563785085189297e-002, 6.4815908319300142e-001,
          1.0431875675498536e-001, -4.1961064418716976e-001,
          1.1509747456674130e-001, 1.8761074702077096e-001,
          -3.9211038560765543e-001, 4.7835493886112174e-001,
          -5.8207495999025229e-002, 2.5125089133253875e-001,
          -1.1787893390605646e-001, -9.4895639292349857e-002,
          4.4997948799391879e-001, 2.3873278312867402e-001,
          -4.2815683302512036e-001, -4.8452627133818177e-002,
          4.2790314613902691e-001, 2.0171237789316637e-001,
          1.5707013728423946e-001, 1.8413389919882650e-001,
          1.2368858488801860e-002, -1.4913944926755976e-002,
          1.1740251401990495e-001, -4.1709837456550169e-001,
          1.2626009319146930e-001, 1.5188963751939835e-001,
          -1.7385205862122566e-001, 5.1282303411619240e-002,
          -8.2682910977093715e-001, 1.4285147530636252e-001,
          8.1679874345267106e-002, -3.3269149797925152e-001,
          -9.2956259894791615e-002, 9.0579683092526370e-002,
          -2.2740801489573798e-001, 1.2206863123105172e-001,
          -3.7637915290188062e-001, 3.0924503394623826e-001,
          8.9106768738433717e-001, 2.1033671172632445e-001,
          -2.3804835846307301e-001, -1.0759816721174810e-001,
          -5.8202442920066454e-002, 1.9303287944920178e-001,
          3.6928489578817147e-001, -3.2415950123202797e-001,
          -8.3139500789159701e-002, -3.9472351566516856e-001,
          -3.6225957980017048e-001, 1.1048471745287657e-001,
          1.1694339078054472e-002, 1.6454264685881537e-001,
          -1.1345905483043869e-001, 4.3904222223663351e-002,
          1.7191597239741213e-001, 1.6535080313403552e-001,
          -1.6608297197154617e-001, -2.7429977726201232e-001,
          -9.2560021792025715e-002, 4.1851172391259650e-001,
          4.3056833838140796e-001, -5.7565569363492892e-002,
          -8.4075714366286580e-002, -1.0854667552903004e-001,
          9.8311986246681349e-001, -1.8310704534632935e-001,
          -1.8320202895888829e-001, 7.0753678145919457e-002,
          -1.1121528762262294e-001, -4.6300945370801920e-002,
          -9.7424851306962892e-002, 5.8492135670897547e-002,
          1.2882032088768172e-001, -2.0596826136123628e-001,
          4.5041949207314258e-001, 1.3380284154795016e-001,
          1.2168564863892115e-001, 4.6461126610535941e-001,
          1.4585440782598541e-001, 8.1471510237199049e-002,
          1.1861671936862161e-001, -1.3495786979559929e-001,
          -7.9848375075057210e-002, 5.6260790007169592e-001,
          6.1953696818712589e-001, 1.2603149774520050e-001,
          -9.7287606481305508e-002, -1.1639009281246604e-001,
          3.8252441525591274e-001, -1.7225291507239199e-002,
          4.0938342327843658e-001, -2.8463599243574089e-001,
          -9.5821880117078304e-002, -1.7929628287873534e-001,
          -3.4149732722279930e-001, -2.1377864005744768e-001,
          5.8879275258106545e-002, 5.5590757028276226e-002,
          -6.0737289107419393e-002, 1.7044257112997968e-001,
          -1.7041293676491137e-001, 1.4551155626916790e-001,
          1.0338656900446873e-001, -1.8372359643767999e-001,
          4.6853453395057053e-002, -7.0030422697754779e-002,
          2.0732293229250437e-001, -1.9092460130602001e-001,
          1.8278708227573368e-001, 1.5993680023964435e-001,
          -6.6820083841471933e-001, -5.1811754944830431e-002,
          -7.8579856791122990e-002, 1.3802624015943135e-001,
          2.2292115574460597e-001, -2.1529161726170104e-001,
          4.1566983102828742e-001, 1.9547505083063105e-001,
          -9.8916838526045714e-002, 1.5768634432829232e-001,
          -1.8649672498367501e-001, 1.1521658239315270e-001,
          6.2909721062709201e-002, 4.9142529086976409e-002,
          -1.6011417712410833e-001, 6.6281238519643493e-001,
          5.2275407468068069e-001, 3.6889336797818972e-001,
          9.8195469132438817e-002, -1.2457650560136609e-001,
          6.0686307076231705e-001, 2.3748968339515446e-002,
          -6.0821863136850250e-002, 2.2109178973172328e-001,
          -6.1672023599977990e-002, 1.8194331973485017e-001,
          -2.1886325117192196e-001, 1.2828056667177254e-002,
          2.9231129866773270e-001, 2.9921108430631987e-001,
          -1.2187052250835374e-001, 1.2089072674096549e-002,
          -2.6571860107584274e-002, 3.7879602687856208e-002,
          2.9563687908131930e-001, -2.5966095626152269e-001,
          2.3358253256703515e-001, -1.6737018285149194e-001,
          2.8054841050175039e-001, 1.1799256512750123e-001,
          -7.1945316075135712e-002, -2.5436658703970383e-001,
          2.6745645114455124e-002, 1.4221071486486203e-001,
          -1.3114343549554741e-001, -1.6611273398897167e-001,
          -1.4329511816733534e-001, 2.4672357209578863e-001,
          1.9818153024534313e-001, 3.5165007542319865e-001,
          -8.6550713991332462e-002, -7.8805899278021993e-002,
          1.4431397437085691e-001, -5.1938034967004831e-003,
          3.4704108199869591e-002, 3.8426498200877637e-002,
          1.6765489290903021e-001, 1.0060661421452598e-001,
          1.4176115392838287e-001, 2.1230477511336188e-001,
          -1.4099587346178238e-001, -4.1525173309319191e-001,
          1.1149358385467018e-001, 1.3619359655024257e-001,
          2.3415087077068891e-002, -1.9713586674763922e-001,
          2.3227300030182393e-001, 8.2014732904509821e-002,
          1.2272271813397428e-001, 1.4991811812759573e-001,
          -4.3474645547170822e-002, 4.4990914165581028e-002,
          5.5752108459578398e-001, -1.1700845278153035e-001,
          1.1364143227834078e-001, -1.4076615562486405e-001,
          -3.4816304262932052e-001, -1.0088307337093563e-001,
          5.0337840998500638e-001, -1.3910510418500377e-001,
          2.0438619589906490e-002, 7.3469482809671763e-002,
          9.7215430791438795e-002, -2.2681987887590119e-001,
          4.5475580052628595e-001, -1.3648510773118477e-001,
          2.3875047406028099e-001, -9.5476761070585253e-002,
          -4.0431010562348618e-001, 4.8778149663139347e-001,
          -1.8635089198553131e-001, -3.0177630760241203e-001,
          2.6224502355003190e-002, 5.3017843394932006e-002,
          1.5512647803517715e-001, -8.1279666165627720e-002,
          -3.6969152339060041e-001, 7.3463089041706897e-001,
          3.4974471411527230e-001, -6.4159397404430896e-001,
          -2.9798787789494130e-001, -9.0571714197796205e-004,
          5.7907479763135018e-002, 2.6452847330604617e-001,
          -7.7031421886818441e-002, 3.1779964679433126e-001,
          1.2466600066624711e-001, 3.0386693628766570e-001,
          -1.9927037749816079e-001, -2.0265520007730636e-001,
          5.9522169216019528e-002, -3.3636201002743567e-002,
          -2.2206417239089310e-001, -3.3601224456896732e-003,
          -1.3630669326122066e-001, -6.7175685991448109e-001,
          6.6693254435935501e-001, -9.1636523738489989e-002,
          2.3357544179979317e-001, 1.3802226302815335e+000,
          -2.1504912557136477e-001, 3.5991566263700825e-001,
          1.8296306785586119e-001, -1.2843855801561881e-002,
          1.1230949687493309e-002, -7.2113356243921706e-002,
          1.5621445829624286e-001, 3.2401390327989360e-001,
          -1.9511845597410510e-001, -2.9727799319126308e-002,
          3.9332676778423649e-002, 2.9872242273706232e-002,
          2.0018879609554546e-001, 9.0561294516599222e-002,
          -7.0194088067220189e-002, 1.2519626543832196e-001,
          -3.5136667730407446e-002, -6.1088771946866804e-001,
          -3.9116706641458679e-002, 4.5623965898243563e-001,
          2.0407752844496638e-001, 1.8753139220369699e-001,
          -8.3951394630928808e-002, 2.4822478991626806e-001,
          1.4740912408600132e-001, 2.3981859325579898e-002,
          2.1408034324100923e-002, 4.9323553713234047e-002,
          1.0800047574591123e-001, -1.2464159828333186e-001,
          1.3641423437763217e-001, 2.7738163689519357e-001,
          -1.2653902881598844e-001, 1.1832418186641416e-001,
          -2.2349246442592557e-001, 7.2636848432636805e-002,
          -6.6803004894071774e-002, -5.7287279291487643e-002,
          8.7554677567528771e-002, -8.5860306110004322e-002,
          -3.3337939811769905e-002, 2.1752898684264815e-001,
          1.0201697225085556e-001, -1.3525953024821763e-003,
          -2.1089308384045307e-002, 1.4156927397298183e-001,
          -1.4199500871595927e-001, -3.1132464498743961e-001,
          1.0671540294532907e-001, -1.7339807043303963e-002,
          1.0383099283710953e-001, -4.6374766455554139e-001,
          -1.5862950501780382e-001, 1.3449709912560870e-001,
          -5.9167364184116067e-001, -1.4117013998878078e-001,
          1.7183185222198916e-001, -2.4157612214423918e-002,
          -1.0193715807223865e-001, -3.7242867340355817e-001,
          -5.1374591767865141e-001, -1.6808046404589361e-001,
          1.0413361082236786e-001, -1.1655821867769778e-001,
          -3.9769526493156748e-001, -1.4710022755150037e-001,
          -9.8044703151386137e-002, 6.0044896094100697e-001,
          -3.2581432826797779e-001, 7.2461054292760244e-002,
          4.2766512048357286e-001, -2.3787271423598277e-001,
          -1.4880707120334413e-001, -1.3712731073163548e-001,
          3.2829658044334858e-001, 1.4566052865067852e-001,
          1.0224936058081335e-002, -2.6679511998613009e-001,
          1.0852729255430715e-001, 1.7187908148883735e-001,
          -1.4145623921697709e-001, -2.5356167257165435e-001,
          -2.1046973452385623e-001, -6.0788708097363397e-003,
          -4.0455019635085865e-001, 9.7989723639598666e-002,
          2.7427423126932865e-001, 1.5104307970280256e-001,
          3.0813153079836658e-001, 1.6704570254095419e-001,
          6.6654676025680004e-001, 5.6049467134721885e-002,
          1.8423090861432342e-002, 4.7297301020900767e-002,
          -1.1555055586475686e-001, -7.2540204304944275e-002,
          4.1279622620392886e-001, 3.3240071532098930e-002,
          1.1992346104221244e-002, 2.8890537039764280e-001,
          7.6078255918633059e-004, -3.8104984585540944e-002,
          -2.9699521223050057e-001, 7.6918184584767263e-002,
          8.0345458918311385e-001, 4.5246224493184167e-001,
          5.4314272107448047e-001, 3.8814349667813741e-001,
          2.9262125370710984e-001, -2.4878918045536885e-001,
          2.9496270415040610e-001, 1.5093285122476024e-001,
          1.3012472933240378e-002, 2.8278909508445754e-001,
          2.6419708778733580e-001, 1.3617901619345771e-001,
          -2.6500877714701304e-001, 1.0056166095592201e-002,
          -6.7540755038949268e-002, 3.7884062237611199e-001,
          2.5603084608452203e-001, -1.0832328198325421e-001,
          1.3032434066348117e-001, -5.8219138071281720e-002,
          -3.3097354046906596e-001, 1.1138277704678180e-001,
          5.2794031106442574e-001, 1.3530247630816786e-001,
          -5.7202254872289826e-001, 7.5882090347406603e-002,
          5.8223101485648099e-001, 4.1746342279119675e-001,
          6.6465847308071799e-002, -7.4957183178194664e-001,
          -2.5182613825219746e-001, 1.0211253209235582e-001,
          -9.1727482640841573e-002, -5.2726197342559067e-001,
          2.5046367279863196e-001, -9.8219902871160711e-002,
          -3.0728463874986955e-001, 3.7211394458367554e-002,
          -3.5943942908600413e-001, 9.1473936219860441e-001,
          8.0111478490429411e-001, 2.8382559178324651e-001,
          -1.9994479660950618e-001, 1.5826062085460610e-001,
          2.4705037258816909e-001, 1.1441964722315735e-001,
          2.6413088942121848e-001, -6.6157858498489885e-001,
          2.1024913453797239e-001, 1.7506879780247023e-001,
          -2.4411669511006422e+000, 1.0384722080230355e+000,
          3.4134921049033942e-002, 1.2838115312331072e-001,
          -3.0474119766553670e-001, 1.7922223561774100e-001,
          3.6190898989269382e-001, 3.0623498068254351e-001,
          -9.8544687249465379e-001, -4.5522083232953564e-002,
          1.7259486727883480e-001, 2.5445376856570934e-001,
          6.8893784904528821e-001, 1.1029309653796126e-002,
          3.1593344830417169e-001, -1.3593208841770160e-001,
          2.8302704863300465e-001, -3.6006222862508325e-001,
          2.6407123937990501e-001, 1.9229906282604442e-001,
          -1.1704828019780278e-001, -8.8469017012852846e-001,
          -2.6476089815500231e-001, 1.0791996890150141e-001,
          6.1872709146340210e-001, -7.7508089873480693e-002,
          8.9898316374160125e-002, 3.3210617909110324e-001,
          7.2887226343185008e-002, -1.1429973454030905e-001,
          -2.8347407605761404e-001, 2.1401281016140583e-001,
          8.3556367133792581e-002, -1.1161556964827801e-001,
          -3.5046401336241811e-001, 1.8703336692291817e-001,
          5.1971094760272368e-002, -3.3610277355036400e-001,
          2.1932290295649398e-001, -1.2213437892788546e-001,
          4.4384036136748448e-002, -3.8449878906957796e-001,
          1.8240638149387101e-001, 1.3662801747657816e-001,
          -3.7781255936618119e-001, 1.7503477916691806e-001,
          -4.5622976219348127e-001, -2.2037957227250715e-001,
          2.9430060114210632e-001, 2.7662284787392039e-001,
          1.9555447816073845e-001, 3.6546911655272724e-001,
          -4.8776885748058352e-001, 1.4555396970015841e-001,
          1.7959439173952854e-001, -3.5882497125432655e-001,
          -3.1134988679730871e-002, -1.0907735288916402e-001,
          -7.6979094468152473e-003, 1.8574579704429886e-001,
          -2.6242327018180901e-002, 1.7553381437200893e-001,
          8.0711030983713281e-002, -1.4570698118632913e-001,
          3.5960518352514341e-002, 1.5947550316423298e-001,
          -1.7088991737457503e-002, -6.5499801659117107e-001,
          4.2176303240671155e-002, -9.1324717122504548e-002,
          -1.1043791186196000e-001, -9.6049495546466895e-003,
          -8.9092755779263358e-002, 2.2621421797595118e-001,
          3.6529484689050594e-003, 8.1077205211300185e-002,
          1.4222277285875581e-001, -1.9499245097586820e-001,
          -8.8101993596358272e-002, 2.7650097531986589e-001,
          1.0225729776460810e-002, 5.2772907727973231e-004,
          -1.1326475902453748e-001, 1.6927010066382728e-002,
          -2.9896587501805399e-001, 1.0768033235049440e-001,
          -1.5404646654143189e-001, 4.1512281371686673e-002,
          -5.5088441356699075e-002, -1.0578428670643245e-001,
          1.4931905702924747e-001, -1.7528121181544060e-001,
          -4.8559256119452920e-001, -7.2451852933442237e-002,
          1.3490041500505712e-001, 3.4734693558836502e-002,
          4.6796141300648096e-002, 2.2295685005164365e-001,
          -2.6259286590957207e-002, -1.3929019675173160e-001,
          5.8251757229238393e-002, -1.7851336022063338e-001,
          -2.4593656430563582e-001, -3.6937310093923779e-002,
          -4.9080334400585895e-001, -9.3134677371613211e-002,
          -5.2832668895316259e-001, 1.6059161114130246e-001,
          3.2334056588926174e-001, 1.0018657331667583e-002,
          -2.7558053981600980e-002, 3.8678562681284367e-001,
          8.6208196401879017e-002, -4.8310761689693110e-001,
          -4.9186690378745235e-003, -1.3353892506187542e-001,
          1.7291942431794025e-001, -1.5808946997101261e-001,
          -6.5024072003743563e-002, -5.8806120161728766e-002,
          -5.8605228411481552e-002, -1.8726810200367427e-001,
          -1.2063318704086903e-001, 2.7981356435665544e-002,
          -2.6460128044020087e-001, -3.2027743752774940e-001,
          1.1847598907426792e-001, -1.3613701633505548e-001,
          -1.3087941408179490e-001, -6.3515799219023519e-002,
          2.0160622668665937e-001, 3.0519957491512970e-002,
          3.7512824955356638e-001, 4.0834546477185379e-003,
          2.8766587864020299e-001, 4.9724897227465745e-002,
          -6.8980399414911173e-002, -1.4203447799129604e-001,
          -1.5288074565301829e-001, -1.0986448255671913e-001,
          -1.2366952374276619e-001, -1.0084092105354587e+000,
          -5.3759760820117949e-002, -1.4511227709414551e-001,
          -2.3486508814548507e-001, -1.6282378500567091e-001,
          -5.2750997535845201e-001, 1.8710697912824278e-001,
          -2.4011176074866764e-001, -1.7452968798088839e-001,
          1.3070618793583147e-001, 9.9736515629990141e-002,
          -1.0620598054635277e-001, 6.9546546041553386e-002,
          2.2824405816344335e-002, 3.4486330093561040e-003,
          -4.8464781173508864e-001, -2.1732956623738578e-001,
          -5.1548537297670699e-002, -3.4136299873755926e-001,
          -4.8813556379359545e-002, -1.3581559134489551e-001,
          1.3188317841438915e-001, 1.5540261599880995e-002,
          -3.0332673405827087e-001, -1.1007117859645602e-001,
          6.8888828833055943e-002, -1.4806058369113165e-001,
          2.2728075495368610e-001, -1.1586388750466169e-001,
          -1.2802088396411801e-001, 4.2360094950528296e-002,
          1.8445373364478951e-001, 1.1630576921245349e-001,
          1.6704319607399223e-001, -5.5287546231356413e-002,
          2.5479081121708508e-001, 9.7953902376644295e-002,
          -1.8512876983362150e-001, 3.0144654015331247e-002,
          -2.0283936727551741e-001, -9.1163028726113440e-002,
          2.7161843330921327e-002, 1.7634633617231699e-001,
          -3.7519762546125171e-002, 1.1309983902854380e-001,
          2.5237438182263365e-002, 1.9371658285322696e-001,
          -1.1621108932720781e-001, 2.5425579762384709e-001,
          2.0644826270129579e-001, 4.5541960258103011e-002,
          -1.6607398345657010e-001, 1.4366108719920584e-002,
          -7.0025830405849962e-002, -5.3070989376978440e-002,
          3.4052267388422360e-003, -1.0088284674723760e-001,
          -8.0442212316655617e-002, 1.3383967790957310e-001,
          -6.0403787133660992e-002, 1.0856299731182323e-001,
          -1.6072476482042873e-002, -6.4291145939794944e-002,
          -9.8670810791966185e-002, -7.3577099795475900e-002,
          -2.8882682237581481e-001, 2.6610090540698522e-001,
          8.4811837383849936e-003, 2.3806411815116810e-001,
          -2.3298622560840113e-001, 1.5428392678790931e-001,
          3.2393726623028356e-002, 2.0298758064691005e-001,
          2.6127229492488149e-002, -3.7844925809382021e-002,
          3.6073913712180786e-003, 6.5487018953365478e-002,
          -2.3916461867468483e-001, -1.8686216749384837e-002,
          2.1188462249874079e-001, 3.3240584306998072e-001,
          2.8790188675045417e-002, 7.2888425894255454e-002,
          -3.1751346543490377e-001, 3.8341851018573334e-002,
          -1.9188349092581936e-001, 3.0128683977383608e-002,
          7.4462384575893215e-002, 6.4647971726162060e-002,
          6.9085709154007691e-001, 1.8250141187682439e-001,
          1.0555490838541326e+000, 2.2883819030974206e-001,
          -1.9598740163967185e-001, -2.8117118159361684e-002,
          2.0416992763559089e-001, -2.3672610077269979e-001,
          -7.1432154710707074e-002, 2.7462435609946556e-001,
          -1.0138908031292247e-001, 9.3360089962902931e-002,
          -2.4085950364281358e-001, 1.9077322502021424e-001,
          4.8145181031171569e-001, -2.7005380466827003e-002,
          -1.6946962925630638e-001, 2.3229980893741992e-001,
          1.4696418284091109e-001, 5.0862499572430192e-002,
          -5.0198614277130092e-002, 3.3844367054877522e-001,
          -1.3629963081054200e-001, 1.8203132540350486e-001,
          3.8583411404083051e-001, 8.0152760366733009e-002,
          -1.2363279105525747e-001, 6.4013195453230287e-001,
          3.6735293902701242e-002, 6.6515867633207570e-001,
          -1.6070763856197720e-001, -1.6923322192359477e-001,
          3.3833006694761758e-001, -7.8625705999127923e-002,
          3.8295030799965418e-001, 1.5915118414762758e-001,
          3.5680467115966050e-002, 1.7606174138083097e-001,
          5.6890981416834507e-001, 2.6645582588250072e-001,
          6.7461715752268170e-001, 8.3621289872528898e-002,
          -1.1919799806947248e-001, -1.5788466278589111e-001,
          -7.1740925914187237e-002, 4.5035191955939677e-002,
          -1.6588112149530920e-001, -2.2394398927859460e-001,
          3.4214998269202651e-001, -5.5977097985823628e-002,
          -3.2152990593768593e-001, 1.7624367527020268e-001,
          -1.8405411996948828e-001, 1.4563179718940888e-001,
          9.6450076572135474e-002, 1.8391788622420135e-001,
          9.0668908207476889e-002, 8.0459459366585870e-002,
          1.1001402661750674e-001, 9.3381723788116877e-002,
          1.6630413434560667e-001, -1.6363084171655762e-001,
          9.8682757949813210e-002, 5.0851803034916954e-001,
          -4.5300442513830602e-001, 1.4347337336795929e-001,
          4.7867736597879817e-001, 1.8219682174590246e-001,
          -1.7965503224497159e-001, -6.0937819879486425e-002,
          1.9664910592836163e-001, 1.5746392606577261e-001,
          -5.0369185616800149e-001, -2.1990634998623251e-001,
          1.4737284161614869e-001, 1.3026788824761090e-001,
          9.2902260823539071e-002, 1.6866999689737150e-001,
          7.8298067641668689e-002, 9.2672266784957907e-002,
          -6.9421385299223357e-002, 4.5551952665632348e-002,
          2.2458764729453842e-001, -9.2134212810662877e-002,
          2.2186314135960247e-001, -1.8417351555976585e-001,
          2.2718247097543748e-001, -6.0268795135148462e-002,
          2.5433977142356978e-001, 4.1640047739376511e-002,
          -1.4840187801374946e-001, -1.4869126790533449e-001,
          -8.1551785027436624e-002, -1.1290281773322929e-001,
          -4.6221887116080629e-001, 1.5996284408546937e-001,
          -2.4353648648478327e-001, 2.9545105656436438e-001,
          -4.2317736572074588e-001, -1.2486960362444489e-001,
          -1.3717204663900795e-001, -8.1205145923955682e-002,
          -3.1621855550809416e-002, 1.2196786691365498e-001,
          4.7609421246347747e-002, -1.3009524834708583e-001,
          3.8453492319714196e-003, 2.4122799949259494e-001,
          -9.0664231416697313e-002, 7.0451357811885551e-002,
          -1.3053559587062458e-001, -1.2950997303717568e-001,
          2.1025957820942523e-001, 5.7012844053637046e-002,
          -4.5963294017932166e-001, -5.6699545634127303e-002,
          1.8617736912829190e-002, 2.3440405049705798e-001,
          2.8606875159315109e-001, -7.0943651140637776e-002,
          7.6098445856091379e-002, 1.0619160895382711e-001,
          8.5048521970089563e-001, 1.3375882529381472e-001,
          1.1481767864275813e-001, 9.7506018347070386e-002,
          -1.8572453442168291e-002, -6.4832229614753309e-002,
          -8.0475724222517253e-002, 2.2327419696916020e-001,
          -9.6274672147881657e-002, -1.9842966944204005e-001,
          7.6846187151801626e-001, 3.2765662072378793e-001,
          -7.2586958274699770e-002, 8.4414870622414306e-001,
          1.0425655227367359e-001, 1.3119123434820101e-001,
          1.0728311155016047e-001, 7.5011528655435408e-002,
          3.0632797426960834e-001, 3.5088286895619136e-001,
          5.8651491272009559e-001, 3.4450373129999329e-001,
          4.6421057763011109e-001, -1.2767064245094850e-001,
          6.6096833134973199e-001, 3.6463884641056482e-001,
          -8.3010490984687338e-002, 2.8717973515465633e-002,
          3.4398942760753298e-001, 1.8475535920641667e-001,
          -6.2068335536614405e-001, 1.1447212459687131e-001,
          3.9221822055861937e-002, 3.5055718853402901e-001,
          -1.4022021379213601e-001, -1.4683396904619889e-001,
          3.4475442778309628e-001, 7.3850657909736675e-002,
          2.0119286454581198e-001, -2.4834329403316049e-001,
          1.3056964192669903e-002, -1.9150708653063597e-001,
          -2.2163276627941951e-002, -5.4572058438038577e-002,
          1.0872906849817310e-001, 2.4253066015164554e-002,
          -2.6851245639139992e-001, -2.0948426118125757e-001,
          -4.7146622066731841e-002, 3.0568017884895937e-001,
          -5.0045346198229190e-001, -1.7864848003033884e-001,
          -2.3903089316101567e-001, -1.5372027491859588e-001,
          2.1796874333501061e-002, -2.0958526427828264e-001,
          -1.2522379376214304e-001, 7.7471222768332612e-002,
          1.3499621878475590e-001, 6.5677368959285887e-002,
          -1.2619636324263470e-001, -9.2236430178820827e-002,
          -7.9273114400188111e-002, 2.4574059930592590e-001,
          -1.6138392497859200e-002, -8.1424056568113592e-002,
          2.5105573762489125e-001, 2.1657534122093625e-001,
          -4.3382980472397810e-002, 1.2723786422921862e-001,
          -1.6306409613607742e-001, -4.6827300792390905e-002,
          -2.9850290848905753e-002, -7.4552015082361076e-002,
          2.4259858314290127e-002, -1.4026389501186870e-001,
          -1.5058395563192711e-001, 8.8260691037082686e-002,
          1.5653140198053497e-001, 8.3836263174959014e-002,
          3.7835949184349058e-002, 1.3487700051616491e-001,
          1.5216075356623063e-001, 2.3876838141707192e-002,
          5.1404273851421364e-002, -3.8861758610031610e-001,
          -8.3065640833387674e-002, 2.8704433924709083e-001,
          -2.6079566881049027e-001, -2.0604783858801415e-001,
          -1.1267594104690117e-002, 1.6636831129652932e-001,
          3.8147224231341642e-001, -4.9477288249822428e-002,
          3.9376117340504210e-002, -6.1412811219266512e-002,
          -6.5835649134226761e-003, -6.4915290417010540e-001,
          -7.6270946408174750e-002, 3.4737364156417239e-001,
          2.1260499181276628e-002, -3.5284805701720809e-002,
          -2.5486531444357080e-001, -1.4089002469983969e-001,
          1.6481379314798877e-001, -6.3792858322114310e-001,
          -9.9692351418320405e-002, -5.2970546842848583e-002,
          -1.1340128504960847e-001, -1.8306725417811287e-001,
          -1.6642587458286517e-002, 1.5428845635341254e-001,
          -1.2366725906901918e-001, -2.6633996762621842e-001,
          -1.4483695245804806e-001, -1.1967485365397648e-001,
          3.1337608222223545e-001, -4.8642638426592910e-001,
          1.2521467902605743e-001, 5.4701111629954779e-002,
          -6.0944592458424686e-002, 1.8670655525183083e-001,
          3.0589320584326923e-001, -2.6169381145733606e-001,
          -8.6003800807166866e-002, -3.6782028791010501e-002,
          -4.7900542053000428e-004, -1.9681525644535877e-001,
          1.3609476746159285e-001, 2.3053320809492420e-002,
          -7.6106797620599043e-001, -4.3995485841360632e-001,
          -3.1615755150102548e-001, 1.2402307614839002e-001,
          6.2084014432176970e-001, 1.0926771489783497e-001,
          -1.7563432394890688e-001, -5.4435655541316810e-002,
          -1.9330006240838882e-001, -2.0715045111738123e-001,
          -9.9777866566081092e-002, 4.6715361857250136e-002,
          2.4489791170660694e-001, 5.9256200510064500e-002,
          -3.1673185085374356e-001, -2.7215262637894944e-001,
          -1.5433116133148714e-001, -2.8246649294794790e-001,
          1.5231905236940410e-001, -5.1915133187494703e-002,
          -1.8355610089404151e-001, -4.0475081069395547e-001,
          -3.9993772071569726e-002, 5.9119496710232346e-002,
          -1.3624319952958935e-001, 2.3299889316756414e-001,
          -4.1968929888404359e-002, -2.8125449398986718e-001,
          4.4967444395679018e-001, -2.9757907564344610e-001,
          3.6580604049482454e-003, -8.3953160529415358e-002,
          -4.3379810681237874e-001, 2.0672379400179797e-001,
          -1.1121325427338504e-002, 1.7571083801062728e-002,
          -2.2805840776514155e-001, -4.2637417114561960e-001,
          5.9277922136401859e-002, -1.2437696325920815e-001,
          -6.1629558361225523e-002, -5.0877897848070390e-002,
          -2.9311166767891667e-002, 1.9482328926730549e-001,
          2.0528965092045333e-002, -1.4566676502154424e-001,
          1.9749213282916189e-001, 2.4395836624974007e-001,
          -1.0572085340091691e-001, -2.2850242918933178e-001,
          -7.4639741772857246e-002, -2.6847727849034386e-001,
          -1.6063759225177027e-002, -8.9998535437446042e-002,
          -4.6200523535929884e-002, 4.1085838659177518e-002,
          8.2721740498839597e-002, -2.3846509886781928e-001,
          -1.6533961449763077e-001, 7.6878490641934846e-002,
          4.8168652175884674e-002, 1.5336318850615657e-001,
          -6.2040239696044018e-002, 1.2819250387315401e-001,
          1.8735604717924909e-001, -3.2089701517934027e-002,
          1.0696621458249904e-001, -1.1788495928068664e-001,
          -2.5218972032170572e-001, 2.4493310149096043e-001,
          -1.0860399000217921e-001, 1.2532899444474255e-001,
          4.4941532780826937e-002, -1.1392743477096713e-001,
          -2.0927397813890372e-002, 1.0098944842604372e-002,
          -1.0592595284922041e-001, 7.2251700282360387e-002,
          -5.4911611087425490e-002, 7.6529181037061716e-002,
          1.1077596320586591e-001, 2.7254932171036733e-001,
          -3.2527585567852568e-001, -4.1499262726030656e-001,
          4.7251603939724022e-004, 2.9130947132532892e-001,
          5.1711536918037648e-001, 2.8933841813908984e-001,
          -2.6965031766193570e-001, 2.1627773147464435e-001,
          1.2426853065527826e-001, 1.4048293314209436e-002,
          1.8976349303123569e-001, 2.8531823202349238e-001,
          2.6730391889665422e-001, -2.0921805323638415e-001,
          -3.6368454275495413e-002, -2.3941779265240240e-001,
          2.7387607732955827e-001, 1.5689380989491131e-001,
          1.2995411105644891e-001, 2.9048873903114159e-001,
          1.2028347401958339e-001, 4.5791664453339091e-002,
          1.5208413512911534e-001, 4.8744306221370393e-001,
          2.7070447191528763e-001, -5.8799202528136107e-001,
          1.4165292801680179e-001, -3.0083563457008897e-002,
          -1.5699251598301228e-001, 4.1961291536901657e-001,
          -2.4080110470670027e-001, 5.7574663047800756e-001,
          2.7919241062992606e-001, -2.8575025921298974e-001,
          3.0405197974303189e-001, -2.9706004120575985e-001,
          3.4086882124036916e-001, 6.1094843531337439e-001,
          -6.8900031145588569e-002, 2.4443503139829523e-001,
          9.8814374452963954e-002, 2.1615141270055141e-001,
          1.3748381141804247e-001, 2.0311085707569626e-001,
          2.0671973705443722e-001, 1.3342781333880990e-002,
          3.1681002018013621e-001, 1.4835159943800202e-001,
          -2.3237605691097052e-001, -3.6199903056466987e-001,
          7.7507918509130497e-002, -9.9305227845571595e-002,
          -6.6244313478784442e-002, 1.1010463243302826e-001,
          2.1830553352561410e-001, 1.8837168829407203e-001,
          -9.6081616378203782e-002, 1.8761023237329255e-001,
          1.6668654467384178e-001, 1.7682330577704874e-001,
          1.1112267581220166e-001, 6.0578393506261097e-001,
          1.4684910068370183e-001, -1.8494069931268112e-001,
          1.3498949279756747e-001, 6.0359700606303157e-001,
          -3.0744634772770479e-001, 2.0158667845738165e-001,
          1.5770098483050082e-002, 3.3390408309455361e-001,
          -1.0124107445968647e-001, 1.4639417841373908e-001,
          -1.9717584144518210e-001, 7.4821305264480265e-001,
          -1.8200284953405987e-001, -1.3113156339392615e-001,
          4.4437141568224825e-001, 1.2274893934238230e-001,
          -1.6146540698964373e-001, 2.1691048356557963e-001,
          1.8564046884914795e-001, -1.2109699355033686e-001,
          3.0815316530837883e-002, 9.1128409428863438e-002,
          -1.8716583996310598e-001, -6.4601007581466052e-001,
          9.3828146118910147e-002, -1.8031519585475883e-001,
          3.2251856259297851e-001, -1.6043105702266369e-002,
          -4.7472933055078312e-002, 1.3016746622012823e+000,
          -5.3947613028924279e-001, -2.9996560828021440e-001,
          9.3794385945663084e-002, 1.0339308144376629e-001,
          6.1147460753512399e-002, -2.4524619516031798e-001,
          -2.3602110740143775e-001, -6.7383597127711817e-002,
          7.3765067164730906e-003, -5.6349040330575632e-002,
          -2.9192984105284731e-001, 5.5034017117584190e-002,
          -1.5058927907599784e-001, 2.1572875288825852e-001,
          -4.5377505972657189e-001, -3.2509604279010701e-001,
          2.1318591061969788e-001, -1.9877193479788990e+000,
          -3.7493893238186332e-002, -3.1700165021005439e-001,
          1.7737214375350244e-001, -2.4791640885561628e-002,
          -3.0144052569904649e-002, 4.6079649873826206e-002,
          2.7595972134308572e-001, -1.6872341360241704e-003,
          5.8700063119718690e-002, 7.1504151679230160e-002,
          8.8173314659806767e-002, 8.6196232717536736e-002,
          -6.5171976771958096e-001, 3.3867416710144793e-001,
          9.4168284981461889e-002, -4.8553833750433112e-001,
          1.5544397148753761e-002, 1.4403291705417295e-001,
          1.4368072853424783e-002, 4.0465472741185171e-001,
          1.7058691118188904e-002, -3.0101767514587818e-002,
          4.4430094740986886e-001, -5.1495402863210055e-002,
          6.7430584294015106e-001, 2.0085367710821719e-001,
          4.0775033334613542e-001, -1.5479832625895740e-001,
          -4.8433158052424471e-002, -2.4605283870184375e-001,
          -2.6540498007432536e-002, -1.1158596461873010e-001,
          -1.3786737611806330e-001, 4.0019686006044408e-001,
          7.5603232986698288e-001, -1.9295819510162143e-001,
          -1.4029577595784859e-001, 1.9981297220548904e-002,
          6.0834242172946480e-002, -8.9158592575367390e-001,
          3.9294068415047276e-002, -1.2003256262348108e-001,
          1.3793656872556420e-001, -7.8870933801343440e-002,
          1.7121686454713825e-001, -4.0283207403208154e-001,
          -7.3305187749714354e-002, -1.7961011572334856e-001,
          1.4361030159457094e-001, 1.2971882305450400e-001,
          -5.3016628607598781e-001, -9.6614700318597688e-002,
          1.9296299298791000e-001, -1.6807679836400397e-001,
          3.1681039036623670e-001, -1.0795748422597741e-001,
          -6.2694257563875810e-001, 1.4626698681315872e-002,
          -9.0731737968385837e-002, 1.1099794161125441e-001,
          -3.1086456713660443e-001, -2.3221533266866362e-001,
          -2.6087347286797846e-001, -8.4602093299551151e-002,
          1.3396595273426199e-002, -3.0355813578077883e-002,
          -2.8207830605445905e-001, -8.6102899760340190e-002,
          -3.5149584436108701e-003, -8.9238128632663338e-001,
          -3.3280815079841808e-001, 2.0370827184237669e-001,
          1.7225109205385833e-001, -9.3210913787868818e-002,
          -5.6425024258790968e-001, -4.1245245189486940e-001,
          -1.6646963038383994e-001, -3.0973304292508252e-001,
          4.8734963877380542e-002, 8.5229088000893696e-002,
          -3.5858510243471620e-001, 2.4664884950962584e-001,
          1.3420126472107888e-001, 3.3832901239849666e-001,
          -3.4869443004775569e-001, 7.7751892698210867e-002,
          -2.4409465442238123e-002, -4.5192574005911945e-001,
          5.5933565638628813e-001, -6.2217027800546131e-002,
          1.1113684142516667e-001, 1.2400023100416255e-002,
          -1.5542336665761630e-001, 2.8695895682306521e-001,
          -1.3852459071502948e-001, -1.5022027950438083e-001,
          1.0637835433057852e-001, 1.5812051356938064e-001,
          4.7918605066953129e-001, -4.8854704726259579e-002,
          1.3497361992104534e-001, 3.0474208319864510e-001,
          -3.0741663996679014e-001, -2.0510086723407320e-001,
          -2.6843498385332021e-001, 9.5598582813094038e-002,
          -7.7255490075626487e-002, -2.8307043123664127e-001,
          -3.2900206791856235e-002, 4.2775136731502839e-001,
          -6.1303668072401685e-001, 5.8914709620128396e-002,
          -2.6504106002185984e-001, 2.7102728046893443e-001,
          1.3885422486613946e-001, 1.8430438823050918e-001,
          -3.4278561023214799e-001, 4.2040216320154622e-001,
          1.2615307953419932e-001, 5.2342092746975544e-001,
          8.4351234066210576e-002, -3.2518231298959249e-001,
          3.0573038228269234e-001, 2.4160240943572997e-001,
          -3.2638624532711030e-001, 2.5313829800971038e-001,
          5.2256047462225963e-001, 3.2566301309107198e-001,
          -2.2590532427198026e-001, 8.0716734698137744e-003,
          3.1874076522888867e-001, 5.3010554889034067e-001,
          -7.0738063223550385e-001, -3.1931007664112487e-001,
          1.6813302182750009e-001, 3.9535087298224669e-001,
          -1.8808281508896230e-002, -4.3563057986769183e-002,
          2.4308877234320547e-001, 1.0704881668289705e-001,
          -1.3228232705455290e-001, 1.9086568558699707e-001,
          1.0797289219888573e-001, -6.1182524169257888e-002,
          -7.6842382000214926e-002, -3.5249169731592067e-001,
          -9.8626136685357024e-002, 7.0654515068646701e-002,
          -1.9736202264941277e-001, 3.1879760432135265e-002,
          -2.6379098658141302e-002, 3.2071333346657332e-001,
          -7.3350813875127999e-002, 1.8712665460295158e-001,
          -1.4019799608213879e-001, 1.0249801184716070e-001,
          2.1581406691764522e-002, 1.4449595835379753e-001,
          1.6487634183355768e-001, -3.8039134606105457e-001,
          -2.1141157394605238e-002, 7.4985589127363181e-002,
          4.6452105319981540e-001, -2.6413786126322895e-002,
          -2.5296936941631536e-002, 1.8342319843134428e-001,
          -2.4774197214027091e-001, 2.2847835508705497e-001,
          -5.3156610012480765e-001, 9.7794921337443427e-003,
          -7.1634813848189191e-002, -3.4168078200042445e-001,
          9.6089997936758167e-002, -1.8895440533365032e-002,
          -2.4974854010373349e-001, -3.1119369206550207e-001,
          1.4658461501805078e-001, 3.7161459399132409e-002,
          -1.0751523228469070e-003, 1.5871333772144094e-001,
          -6.0238912244860734e-002, 1.3047353523093155e-001,
          7.7506593114453792e-002, -6.8004607447424245e-002,
          -1.3254822141251410e-001, -1.3430242439248277e-001,
          -2.9173005929377693e-001, 3.1351969893300929e-001,
          -1.7074708353417789e-001, -5.2505657029873409e-001,
          9.0274167229670924e-002, 7.7648748822964797e-002,
          -1.0742848016607121e-001, 5.9040623515291664e-002,
          3.2770274175964169e-002, -2.3131499958599305e-001,
          -4.2923058817831872e-002, -6.2631141381029390e-003,
          1.1110961810506782e-001, 4.5139638851383217e-002,
          -8.7228616469692433e-002, -2.6811986466021093e-002,
          1.9481593818446901e-004, -1.3290545552014713e-001,
          4.4737013395997859e-002, 1.4652589720010192e-001,
          -4.1113415878109953e-003, -7.8897419477897468e-002,
          4.9341707585641492e-002, -2.1195760444175177e-001,
          -4.3473134673362412e-001, -7.6667607044928546e-002,
          1.1249875426038458e-001, -2.4542482128419363e-001,
          -1.5501089754934697e-001, -2.6711611057037843e-001,
          5.4497575219060207e-002, 6.1016323375666509e-002,
          9.2868208346088568e-002, -1.4499686295213388e-001,
          -4.2824121650902003e-001, -1.0857950836301632e-001,
          -1.6504375224204168e-001, -9.3766121380292847e-002,
          -3.3960738527180440e-001, 8.8011061437155702e-003,
          1.6487127736989871e-001, 6.2098765544836787e-001,
          -1.2669643363465599e-001, -1.1328852133749598e-001,
          -1.2089698291292972e-001, 2.9527342304949694e-001,
          4.0721949446551192e-001, -2.1299325101129418e-001,
          8.1437592272939813e-002, 1.6958360951419488e-001,
          -5.5169345569040884e-001, -1.0301344376579152e-001,
          -2.0841158582720523e-001, 4.1259159484057950e-001,
          4.2855272474051220e-001, 5.3739922518928873e-001,
          5.7570812788820376e-002, -2.3662435562578309e-002,
          5.7015485020202518e-002, -8.1254856874883666e-002,
          -1.5327918345370783e-001, -6.3214669953576852e-001,
          -4.0060427790848702e-002, -7.8461612550538951e-001,
          -1.3126701616489642e-001, 2.5832960259345727e-001,
          1.5764952343850541e-001, 2.4144925616814944e-001,
          -4.6659768928121303e-001, -5.3855218080178888e-002,
          7.0900519042485122e-002, -8.6640038141252276e-002,
          -3.1075932893601965e-001, -5.3684226579064076e-001,
          -6.1184687856514175e-001, 8.7933555134232594e-002,
          -1.6658402442804005e-002, -1.4362378130167586e-001,
          4.6306718713618722e-001, 3.8147811745061405e-002,
          1.6832146955132476e-001, -2.6947675684402650e-001,
          -2.1381201739269134e-001, 1.2819404019070346e-001,
          -3.2396003596164108e-001, -2.7150573654405324e-001,
          -2.5376965209908525e-001, -2.5359224518760826e-001,
          1.3883968934955360e-001, -8.4837504753627432e-002,
          8.9354968124051151e-002, 9.3167943261530950e-001,
          -1.0522318445142477e-001, -1.2775388842419574e-001,
          2.3174084640578779e-002, -2.2172247368232978e-001,
          9.2903561601475504e-002, -5.5033864591105583e-002,
          -5.0548859510627327e-002, 1.2498213750186729e-001,
          8.0892869740017345e-002, -1.5060667583412013e-001,
          -1.5552774545381237e-001, -7.4553592098177232e-002,
          -1.3920864247521281e-001, -1.0144284990225008e-001,
          9.9872782662524834e-002, -7.4729347710006902e-002,
          -3.1516260067344218e-002, -3.8294896955825407e-002,
          1.6767600476620942e-001, 4.0245566847812629e-002,
          -1.2073384413392171e-001, -3.8526527238541342e-001,
          2.0646117911392181e-001, 8.0996259970230675e-002,
          -2.2907957753892760e-001, 1.5201200211547078e-001,
          -8.7618720342159484e-001, -6.9120402557198923e-002,
          3.3308871838898899e-002, -8.1896657886821864e-002,
          1.5031242086524611e-002, -8.2225866637777978e-002,
          -2.7618559326367313e-002, -5.7002434695264649e-002,
          -1.0607110231087927e-001, -1.8836682346337563e-002,
          -8.3049095114593408e-002, -2.5230940522532214e-001,
          1.0449396891435507e-002, 5.2283658025755547e-002,
          -4.2659896958488298e-002, -1.7403361890633726e-001,
          9.0803433539999270e-002, -3.4637635701974256e-001,
          2.7627718886916636e-001, 4.9413606149232167e-002,
          7.0122776531844622e-001, 1.5693241663337715e-002,
          -1.0428435630228830e-001, -9.7453526535299373e-003,
          -5.2174279504562528e-002, -2.1396696624516284e-001,
          -2.0229576111261832e-001, 2.7258341056330404e-002,
          -1.1040461558123316e-001, 4.9517635040792742e-002,
          3.5090119273532561e-003, 2.5589089629348760e-001,
          8.1372076392123974e-002, -1.5548022035323800e-001,
          1.2510828757515613e-001, 1.0019920581879472e-002,
          6.0289004469737333e-002, -2.0842426310684656e-001,
          -4.2310113984251954e-002, -1.8110297179014176e-002,
          1.5639623948448994e-001, -7.1017086921358996e-002,
          -8.4536362594608325e-002, 3.3849894106485934e-001,
          2.1470101125236937e-001, -2.2891152724372929e-001,
          -1.5290176200810299e-001, 1.3847679741062274e-001,
          3.4749627033426889e-001, 3.3641692679037313e-002,
          1.3881466475481416e-001, 1.0995334970523608e-002,
          2.4567278209406357e-001, -4.0485328751393035e-001,
          -9.2025625256200061e-002, 8.3579098835126903e-002,
          -1.0675296629204976e-001, -4.4304994963531866e-002,
          -9.1904737284356816e-002, 1.3369523784978654e-001,
          2.4299580566394116e-001, 4.4510052096323893e-001,
          -2.3383988221850782e-001, 1.3660778087467251e-001,
          1.2579314616673803e-001, -1.5970480670640241e-001,
          2.9964274943814026e-002, 2.4929387149388296e-001,
          2.2167687229994371e-001, 2.5041648348640633e-001,
          3.8145336320140985e-002, 2.2613823245711553e-001,
          -2.6622602041934312e-001, 1.5851906526546600e-001,
          4.8103806793694269e-002, -4.2098259641194256e-002,
          2.6521295197995162e-002, 1.9268609878088713e-001,
          7.6857043369345901e-002, 8.4062803846860573e-002,
          -5.9790936389334352e-003, -2.6897877472031095e-001,
          1.8592736880668267e-001, -1.6102220453133664e-001,
          -1.6715092899292860e-001, 1.2676234902951410e-002,
          -7.1355920689643720e-002, 1.9169120161919190e-001,
          5.7117852596980830e-003, 1.1392585404068220e-001,
          -8.4593869715468978e-003, 1.0436952559491237e-001,
          4.8943612112942007e-002, -1.0756454783437396e-001,
          -2.2880595397169058e-002, 3.8906758627168588e-002,
          -8.7757664772036031e-002, -1.2564175300955382e-001,
          1.3560654090306830e-002, 1.9401388327583891e-001,
          -9.6856725247528169e-002, 5.9390328736538690e-002,
          -1.2271493075906489e-001, 3.7056747176846727e-001,
          1.2287311731085182e-001, 9.5728506986766798e-002,
          8.8146947980132756e-002, 4.2885418227219407e-001,
          5.1277930171292441e-001, -1.5546631782770798e-001,
          -3.6260933409277329e-002, -1.3480897548498075e-001,
          -6.2926450620129845e-002, 1.1962748893011464e-001,
          -4.4663369443551988e-002, 1.8520099078174676e-001,
          -4.1091357835661500e-002, 1.6693955587006948e-001,
          -1.0927589794225173e-001, 2.1710229585504809e-001,
          3.7291842394509678e-001, 1.3617364819686001e-001,
          -5.8944617163453172e-002, -7.3882226790556536e-003,
          1.3252831850038374e-001, 2.8217807888902505e-002,
          1.7678508736336354e-001, 8.6549609956247692e-002,
          7.7288490419752096e-002, -7.1705255042512531e-002,
          6.5059548089574960e-003, -8.0797055105145926e-002,
          -1.4128197930338515e-001, -1.3967610797938040e-001,
          -3.0923143956700255e-001, 1.3581696357215792e-001,
          -5.3106682008258066e-001, -3.4170503626303590e-002,
          1.6033774918933780e-001, 1.9725023429938859e-001,
          -8.4134603713735573e-002, 3.1487787885318536e-001,
          1.3338044654571524e-001, -2.6318359424859067e-001,
          1.0980816542913541e-001, -1.7707180827441379e-001,
          9.9385977507163159e-004, 1.3326965389308998e-002,
          -2.5191460403498622e-001, -3.5230370333483269e-001,
          -1.5843364550678436e-002, -1.1880203221072205e-001,
          7.8277143381651385e-002, 2.5543321898731475e-001,
          -8.1451177597746005e-002, -1.0518175544559290e-001,
          6.2361527903671755e-002, -1.0357597989804658e-001,
          -2.4164800957359324e-002, -1.6983457335238497e-001,
          8.7876173635683064e-002, -8.6325635003475523e-002,
          -3.4727930089154180e-001, -1.0014897738224211e-001,
          1.1706504686686679e-001, 1.9684718137223414e-001,
          -6.8910857247794222e-001, 1.1213047865024157e-001,
          -1.4831141719749566e-001, -9.8988452760012891e-002,
          -1.1557301301144564e-001, -3.1668641161477601e-001,
          -1.9338337023596402e-001, -8.2439160138448958e-002,
          -1.4202270253240890e-001, -1.0105587689455803e-001,
          -3.7944153230328841e-002, -5.0493674357898720e-003,
          6.5971550767779427e-002, -6.8016154231331644e-002,
          1.3236771103101344e-001, 9.5657259695368646e-002,
          -4.0314171549507838e-001, 1.1192473748874217e-001,
          -1.7381804880678611e-001, -2.3350871422622160e-001,
          -3.0857835662128230e-001, -1.6134719084702892e-001,
          6.5462780089881115e-002, -9.6761143422243484e-002,
          -1.6820207884542845e-001, -9.0784820004467401e-002,
          -1.4726383980486257e-001, -7.4838013692803351e-002,
          1.0478470832086235e-001, 1.6469741936997595e-001,
          -2.0016331808666624e-001, 2.4211023772998064e-001,
          9.7118045457274219e-002, -3.3998732684220524e-002,
          -1.6393292202666995e-001, -7.3860250012921430e-002,
          5.3964315296813703e-001, 2.3454958790320993e-001,
          -1.5392055700581039e-001, 2.2491931041380375e-002,
          1.9345012488125135e-001, -9.2036668959693570e-004,
          2.5310248511134475e-001, 2.7589684991455810e-002,
          -1.7800679912528441e+000, 1.8962293446286441e-001,
          -1.0714000481251446e-001, -1.1830590824577614e-001,
          -5.6475406051301946e-001, -5.6159552019331586e-002,
          -4.7361877199732105e-001, -1.0581079626625545e-001,
          -2.7831898113022918e-001, -3.6805454031785634e-001,
          1.2701222595831471e-001, -1.4126705951785778e-001,
          7.6346669700604414e-002, 1.6071954917152137e-001,
          -1.0536194677267594e+000, -5.9525379954892432e-002,
          5.8271293350428535e-002, -4.1697062652691896e-001,
          -8.2762468702923989e-002, -1.6548336512833295e-001,
          -1.1457999207469334e-001, -8.0921596645338961e-002,
          -4.4007947899887136e-002, -2.9245137749866856e-001,
          -9.6430893067222856e-001, -7.3170753683080847e-002,
          -4.3282970835554430e-001, 9.3003383836311210e-002,
          -2.2401196018522418e-001, -7.6899513888759347e-002,
          4.1937955893496005e-002, -6.7521747011555999e-002,
          -2.8133509203887208e-001, -8.8710407765017374e-002,
          1.6166348601753664e+000, -1.8557436954619924e-001,
          -4.4918868535498799e-002, -9.0663907249336470e-002,
          1.3938241435686372e-001, 1.7373039103494123e-001,
          -5.9793773013479955e-002, -6.1785964495126251e-002,
          -3.3696128576120160e-001, 2.4994019312485460e-001,
          -1.6558462431623591e-001, 2.4524103896578578e-001,
          -1.8490172940811725e-001, 6.1176301193945304e-001,
          3.8996681692488178e-001, -2.6607209719195869e-002,
          1.6994496473689746e-001, -5.6307896847921746e-001,
          2.9037341286851198e-001, -1.0903057343971649e-001,
          -4.5804554840224243e-001, -7.3407389557519270e-002,
          -5.5070346152550520e-001, -8.0555195459974777e-002,
          9.3582845930737305e-002, 3.5310417068510991e-001,
          -7.3655678980214037e-002, 1.4218544311792738e-001,
          -5.9536956660781848e-002, 6.7116134160135454e-002,
          1.9612486471263866e+000, -4.4829837365138334e-002,
          -1.0740000941658803e-001, 2.0966686154119568e-001,
          5.2446201116911680e-002, -1.3059535332494898e-001,
          1.4161268019122300e-003, 2.6627214704351571e-001,
          -2.5765324716065630e-002, 1.9640962180005822e-001,
          1.3701518634102361e-001, 4.9724370486608237e-002,
          1.2976658802693170e-001, 1.2327580608585186e-001,
          2.6379260524941150e-001, 3.5808391373842369e-001,
          -4.8084948346832079e-002, -1.3507446117359087e-001,
          2.0011593237567063e-001, 1.2169181756222260e-001,
          -3.1285273074766737e-002, 1.1924835728152991e-001,
          -2.4428712439313874e-001, -5.5153352680532182e-002,
          1.3342450210728854e-001, -9.6560740351547034e-002,
          -2.8878964546358845e-003, 1.0200517134439341e-002,
          -2.5195922150472016e-002, 8.5414189141776370e-002,
          -1.9350635539683686e-001, 1.8023779781292243e-003,
          5.6142521051632165e-002, -5.6417849115045209e-002,
          -1.2528258492408802e-002, 3.2875668698447402e-001,
          -2.4817943576993629e-001, 1.3901566975654694e-001,
          -2.3079627287593427e-002, 1.2280124305227193e-001,
          1.4563326420568587e-001, 3.1981119163077054e-002,
          -1.5996139001613988e-001, 1.3868470485283901e-001,
          -1.1555386249193784e-002, -3.1522373554172881e-002,
          4.9935059715644478e-002, -2.0765335987338079e-001,
          1.2665194344235667e-001, -1.0702217988399448e-001,
          -2.5504236710914067e-002, 2.2170747491208512e-001,
          1.2550464998768390e-001, 2.8765098783376013e-002,
          4.4604120530571265e-002, 2.5841627694667474e-001,
          4.7076692050414015e-001, 1.2053653393135894e-001,
          -1.5858546132183426e-001, -6.7678221050457232e-002,
          -8.6120978165313167e-002, -6.2525541017420999e-002,
          -5.3969766868096326e-002, -3.3304949274424345e-001,
          1.2561806224526401e-001, -1.6239093882973130e-001,
          -9.5990237883260124e-002, 3.0963268216162421e-001,
          -1.4844518182140023e-002, 2.6980122356181933e-002,
          1.5310502462099998e-001, -7.6470506644940595e-002,
          4.5308200513593888e-001, 2.8930197136453606e-001,
          -1.8158363815164943e-001, 2.6744136092989382e-003,
          2.6367120652676812e-001, -8.2418073761555105e-002,
          -4.8343317677096320e-001, 2.8275042546196727e-001,
          -9.5961053218143050e-002, 1.2018859398209887e-001,
          -4.5314980073503608e-001, 3.0708076813134040e-002,
          1.6421007179703856e-001, 1.7144416987800978e-001,
          -1.3614253022613707e-001, 3.2172660406737208e-001,
          -1.7526376346091793e-001, -8.0022801654771655e-003,
          2.2915841064921705e-001, 4.2104212853900636e-001,
          -1.5113393459018309e-001, 1.4743027583980658e-001,
          2.3640318553260331e-001, 1.0213327593522474e-001,
          7.3287984541040435e-003, 2.9439178407817734e-001,
          -2.3117835390562064e-001, 3.5416957016976747e-001,
          -1.5702474318190821e-001, -3.4798229899667049e-002,
          8.9453584232005529e-002, 1.6622230681989061e-001,
          -7.5857361026741413e-002, 8.8616516345455087e-002,
          2.0053620798228936e-001, 3.0982328532977260e-001,
          -4.9081356940925791e-004, -2.6711728821941289e-001,
          -1.4140220384510485e-001, -2.1496898366052484e-002,
          -3.1506250249869366e-001, 3.8848766911910237e-001,
          -2.4863734647870706e-001, 1.9963640226426768e-001,
          2.5348899872188790e-001, -2.1670012457445753e-001,
          4.3330568227731688e-002, 4.0623885381684915e-001,
          6.1287703564598041e-002, 8.5777468673026158e-003,
          -1.6990722677498843e-001, 6.6219981722636434e-002,
          7.1892627303235501e-001, -3.7096602253708512e-002,
          -2.9283270440118025e-001, 1.3783862051019190e-002,
          6.9885153062590744e-002, -5.2938683547905617e-002,
          1.3040777587191837e-001, 7.2655645034821609e-002,
          8.9821595202732779e-002, -2.3110691655277632e-001,
          -2.0227462856419254e-001, -1.0834573815334846e-001,
          3.3052871186662852e-001, -8.1088462158518435e-002,
          -1.1168585731050901e-001, -7.3857999998440227e-002,
          -2.0784015730081665e-002, -4.8434421779995733e-002,
          -3.8171789818951848e-002, 9.8357224745536750e-002,
          -2.6745815357868302e-001, -4.3020821191099551e-001,
          2.4868445710604914e-001, -2.1629265931390121e-001,
          8.5485775468782832e-002, -2.5027581205513577e-001,
          1.0357634065712021e-001, -1.8944028745893914e-002,
          -1.4401936741330257e-001, -3.0212407472118924e-001,
          -9.2983303338779189e-002, 1.0129371607923296e-001,
          1.0679184614754524e-001, -5.4951525743379671e-002,
          3.9768336992274167e-002, 2.2299080019697939e-001,
          -3.7834428863353552e-002, 1.3447535643408996e-002,
          6.6062571907078782e-001, -1.7262443684083748e-001,
          6.6102988926057329e-002, -1.8759691671171352e-001,
          -8.4694741640622809e-002, -5.8028671594020165e-001,
          1.3390935380152196e-003, -1.3420683579644033e-001,
          1.8781045200835617e-001, -4.4478054372334992e-002,
          -3.9773623817916870e-001, 2.9614834644268262e-001,
          -3.4341904040898574e-001, -3.5255042922403249e-003,
          4.1365855386629047e-001, -2.9422538002541165e-001,
          -5.9347579751742201e-002, -2.8869121149493399e-001,
          3.1574706963086546e-001, -4.2411999979353285e-002,
          -1.7168103570660642e-001, -7.2521131795980145e-002,
          1.0255279218067388e+000, 2.9226448490777740e-001,
          6.1597616035837435e-003, -2.7766502449202435e-001,
          4.1194959917254682e-003, -2.4766899126171035e-001,
          -1.7553882897290035e-001, -2.1452433322188566e-001,
          -3.9120252731331767e-001, -2.9429844664776050e-001,
          5.5057450423768632e-002, 5.5174896447177997e-002,
          -7.3772668430353822e-002, -3.1691417707923088e-002,
          -6.2214133104743427e-002, -6.1135111185242075e-001,
          2.7130234896337757e-001, 3.7190241055098949e-001,
          -1.6338439235251798e-001, -1.0205262644877569e+000,
          2.2053331458415165e-001, -1.3691017874845504e-001,
          -1.9426112455607658e-001, -1.1508275324778398e-001,
          3.8675947776941599e-001, 2.7913695933252219e-001,
          -2.8582066821668589e-001, -9.9496929518689792e-001,
          -3.4463910497397487e-001, -6.2140680609274301e-001,
          -6.6427754436144543e-003, 1.1425887630680904e+000,
          -1.8296534173734154e+000, -2.4931043304935319e-001,
          2.7660030547680424e-002, 8.4577838414144867e-003,
          -7.3304338069124769e-003, -9.9192658262110933e-002,
          1.1139438527763659e-001, -1.1464578177074337e-001,
          8.6166599952884934e-002, -3.5930653979559379e-001,
          -7.3302100223028660e-002, -3.3364814606670656e-001,
          -7.5936458215594138e-002, -1.9502765559005841e-001,
          1.3558743801418627e-001, 3.8123549280501123e-001,
          5.4183813548925631e-003, 5.0345043817111690e-002,
          -1.7061989409145303e-001, -5.6895964407453048e-001,
          1.3622439393842856e-001, 2.6482420887545000e-001,
          -1.3055644057234284e-001, -5.6375734092554619e-001,
          -2.5784324044867279e-001, 2.7828439906392821e-001,
          4.2305009353278478e-001, -1.6721332012982604e-001,
          4.2992511498733266e-001, 1.8576059614687190e-001,
          -6.5136018546951155e-002, 1.4538826259325424e-001,
          -2.2288587876771182e-001, 1.6711212883273707e-001,
          4.1244366771505447e-002, 1.2684970071256138e-001,
          -3.3580801427200263e-001, 1.3363110338056003e-001,
          3.9744027160968298e-001, -9.0883469300674424e-002,
          5.3780458773386164e-002, -3.0811650132362056e-001,
          1.6753745200275255e-001, -2.4419095741609373e-001,
          -7.7754065834857430e-002, 5.8334752843996596e-001,
          -5.7026587507156695e-002, 2.6244887051566324e-001,
          -2.2569147243232066e-001, 2.7082672330021589e-004,
          2.3910694604219321e-001, 1.0250513688973181e-001,
          -1.7703950661988310e-001, -9.3158044298776360e-002,
          -2.0022751675844599e-001, -1.1720481041986695e-002,
          2.9612721909125994e-001, -1.3046843688305776e-001,
          2.6556956255224490e-001, -6.0921989699035739e-001,
          8.4811117004969822e-002, -3.7657367116944021e-002,
          5.4282593979455333e-002, 2.6477474360405379e-001,
          1.2028979058202732e-001, 2.1064898733348542e-001,
          -3.0079349596718535e-001, 1.2939503259951371e-001,
          -7.4159752365154194e-002, -1.5285283671734348e-001,
          1.9566163272155918e-001, 1.0642581702566713e-001,
          3.1507210156399727e-002, 6.8610749092149592e-002,
          2.5597533595606337e-001, 1.1793804121125882e-001,
          6.3869054099607830e-002, 1.1372231460713114e-001,
          1.6324635490767639e-002, 8.2344468002162469e-002,
          1.0020502195173431e-001, 1.2674180247803105e-001,
          1.0726652763822482e-001, -4.8680043559033304e-001,
          3.2895094072566300e-002, 2.4335124048508203e-001,
          2.0618064771052554e-002, -3.7261707234086872e-001,
          2.5102776407723815e-001, -4.1053684696805863e-002,
          -1.3361473829399398e-001, 8.5199100654506796e-002,
          -2.6658800109536451e-001, 1.2763677364221662e-001,
          -3.7858307403984331e-001, -1.3462075756992875e-001,
          2.7741425174912009e-002, -3.0863568885273206e-002,
          5.9025056695857292e-001, 3.3174179421687350e-001,
          2.3260839606758554e-001, -1.8038743479746533e-001,
          2.1709387878670350e-001, 1.2288651039421636e+000,
          1.3848101592852560e-001, 1.6029432148547149e-001,
          -1.4654482064563693e-001, 2.2102289737198641e-001,
          1.1233813390507745e-001, 7.9191665743302664e-002,
          -1.3980162113349317e+000, 9.0398304443387922e-002,
          1.8249947663567428e-001, 1.4078265897471051e-001,
          -8.3259560807674804e-001, 1.3019086233865246e-002,
          -1.5885723184850778e-002, 1.4287410935170206e-001,
          -2.4299053726403112e-002, -1.7396232079692910e-002,
          1.0471404791063530e+000, 2.1471410168377383e-001,
          2.1500041524417399e-001, 8.5324872282496067e-001,
          -2.0539577928940081e-002, -6.0683358352524530e-002,
          3.6817906844507531e-001, 2.6976961391893450e-001,
          -1.8072863173095727e-001, -4.7362484243690113e-002,
          2.6518052544155885e-001, -7.0248201526190171e-002,
          -2.0262447742628426e-001, 1.6077695788148127e-001,
          -5.5035946675494218e-001, 5.6922478612648297e-001,
          -2.1793675794039524e-001, 6.5962687773875595e-003,
          2.7870312724442409e-001, -8.1732819072977358e-002,
          -8.7295810065916565e-002, 3.4719141021070166e-001,
          4.6412436536946311e-001, -1.4644624108639559e-001,
          -1.5675459792605922e-001, -2.6461203689841661e-001,
          9.5611763170623726e-002, 5.3604529168844083e-002,
          1.1636212022185628e-002, -5.9725852557248371e-001,
          8.1935515945578075e-002, -2.9174507493951990e-001,
          3.2927609701311178e-001, 3.2169686240160050e-001,
          -2.0323525932133640e-001, -3.1877902414408188e-001,
          1.6771835687300445e-002, -1.7417366013401436e-002,
          -1.4032954795555516e-001, 3.0439296988163334e-002,
          -3.0108483679351563e-002, 1.0196991056547540e-001,
          -4.8340210341922518e-001, -1.5288036826058900e-003,
          -2.2657424046260838e-001, -3.7700400547591062e-001,
          8.8402394507893306e-002, 1.9664253182281946e-001,
          -4.4182212704933227e-001, -2.1900593734978002e-001,
          4.3953983414594588e-001, 1.0727017105973892e-001,
          -2.9806031293746238e-001, -2.5098102471054068e-002,
          1.1542382597592878e-001, -1.3070987185586574e-001,
          3.4472442277142951e-001, -4.5270451393413802e-001,
          3.3777751507947746e-003, -1.8454402564220804e-002,
          -4.5762463584983770e-001, 2.5863346124840446e-002,
          -2.2715164716657563e-002, -3.3943355849508215e-002,
          -1.6965281587834732e-001, 5.9104322354341121e-001,
          1.7493624060553020e-001, 2.7236194603097275e-001,
          2.1567736819743163e-001, 4.7099049308407959e-001,
          -4.0868234213540570e-002, 1.4019040249765283e-001,
          -9.3286960561521429e-002, 5.0489616811478943e-001,
          3.1772478747176022e-002, -1.5502580620397768e-001,
          1.3729305051364774e-001, 1.5170736158978329e-001,
          -4.8144837086904751e-001, -1.1282942775029958e-001,
          -1.7488285987481055e-002, 1.7076844944958741e-001,
          1.5179412549715235e-001, 1.7755626059826538e-001,
          1.4619693544489085e-002, 2.4657115810749458e-001,
          2.1483936898090222e-001, -1.0814426157350258e-001,
          8.7711947679664087e-002, -1.5176683930267079e-001,
          1.5443212409025003e-001, 1.1264242123762894e-001,
          -1.8733904827647008e-001, 5.4443156342529227e-002,
          4.8259613855292061e-001, 1.9180559615987733e-001,
          3.0084907107871497e-002, 8.7653960727051741e-002,
          8.7998147168964314e-002, 1.7539880173404412e-001,
          4.9186064595701663e-002, -4.5906114139079590e-001,
          -1.6546399616666950e-002, 1.9571829559374240e-001,
          -3.6705138108006290e-002, -1.4564620157385497e-001,
          1.9477999874259452e-001, 1.8764083653160474e-001,
          1.6993691506466638e-001, 3.8803315509334260e-002,
          2.8300888408140384e-001, -2.7492385175552050e-002,
          3.7118817581523156e-001, 2.5311716313313845e-002,
          5.1532718860593053e-002, 7.6661293073710257e-001,
          -2.3329342458128385e-002, -7.8836754429710457e-002,
          2.6985454757111504e-001, -5.6382355861901235e-003,
          -1.4498485258061145e-001, 1.8024077205817127e-001,
          3.4915060264962682e-002, -7.9150221711238797e-002,
          -2.7338294985137906e-001, 3.9411918167218807e-001,
          2.7603656601879933e-001, 2.1432922103441815e-001,
          9.8179059327446097e-002, 8.0510248256332712e-002,
          4.0726510981176939e-001, 5.9861586694581852e-002,
          2.5600484704979110e-001, 2.9041494835259776e-002,
          -2.3643080975801786e-001, -5.5168528281207641e-001,
          -1.8331708210907967e-002, 1.6621016081659812e-001,
          -3.2639709942929654e-002, 1.4914413888244282e-002,
          -2.9090122985880579e-001, 3.7478227216696064e-001,
          -2.9914974177183362e-001, -1.5918788375561121e-001,
          -4.6854890960956090e-003, -3.4513490490997722e-004,
          -4.0669043409823878e-002, 2.2350463536992587e-001,
          1.4549754655093061e+000, 1.1522052001318513e-001,
          2.8291040495826170e-001, 2.4073697337200181e-001,
          2.4461661745438507e-001, -1.2254150163353263e-001,
          1.0054912837320686e+000, 1.5091767537024495e-001,
          4.7142858781953856e-001, 3.2636909254788793e-001,
          -1.1151769258641465e-001, 1.6880648440097537e-001,
          7.9428149879628218e-001, 6.4734925128677911e-001,
          1.0145044448731391e+000, 9.9831785888897595e-001,
          -2.5808579788811601e-002, -2.9278105980862906e-001,
          -7.6355470774661893e-001, -2.2707787140546479e-001,
          3.1704972576942536e-001, 4.2592188028791717e-001,
          6.5420740321049520e-001, 3.1839999999999996e-001,
          1.2624266805944613e+000, 4.7927986002813411e-001,
          1.0042389841085542e+000, 3.6896485761589798e-001,
          -3.0182627884945801e-001, 7.3312631438550158e-002,
          2.0071372559460260e-001, -1.3168059633816822e+000,
          -7.9905732565326737e-001, -1.1344137786828190e+000,
          -3.2314434746008547e-001, 1.6788413756089560e-001,
          -1.1020477653448086e+000, -1.9571818324770932e-001,
          -3.0462145938937141e-001, -5.3319405130865782e-001,
          2.2642103774609809e-001, 1.4089598968428072e+000,
          -2.5116621240630854e-001, 1.0411777335694423e+000 ]
      - [ 2.3178703685298566e-001, 3.1157572631756658e-001,
          2.2729836957246098e-002, -6.6746577758585190e-001,
          -4.1780379167094822e-001, 6.0971309079188096e-001,
          -3.1798303208947182e-001, 5.8284410964582656e-001,
          -2.3542428532111472e+000, -3.9230092924296855e-001,
          1.3920981260016563e-001, -9.5876747812054730e-001,
          -7.1147657928624752e-001, 7.2753033214807694e-004,
          3.2432845455318693e-001, 7.9693019511476171e-001,
          -2.3281668884396547e-001, -8.5932425920878053e-001,
          7.8960768053406460e-001, -6.7256498584523805e-001,
          -2.5633802528306843e-001, -8.1403858430621034e-001,
          8.5283637784332039e-002, -9.8700383482778031e-001,
          -3.8901066124177225e-001, 6.8062907969951614e-001,
          1.7982322600483928e-002, 5.6640625964618607e-001,
          -5.4088159603188035e-001, 1.4318010919541121e-001,
          -5.2131784177944063e-001, -7.7939881707173586e-001,
          9.6710072077129339e-001, -4.9700944933444269e-001,
          3.5178985031619669e-001, 5.1042457585754752e-001,
          -1.4735796065256004e-001, -5.4467524742105367e-001,
          -5.5535255215078592e-002, -3.9896668509379035e-001,
          -4.1359581783786420e-001, 5.4774489188516118e-001,
          -6.3260472315618366e-001, 5.6400108463567511e-001,
          -8.2668277817159727e-002, -9.0457862238636622e-001,
          4.4276248184084870e-002, 3.5671060770562296e-001,
          -6.2602557110786405e-001, -2.1117705485394583e-001,
          8.1106024445548641e-001, 9.0161518943309787e-002,
          -8.6415093848013858e-001, -7.3246867184922115e-001,
          -1.2806433461606584e-003, 3.1702274124406910e-001,
          7.1693683689561483e-001, -6.7856394275805354e-001,
          -3.6615695896819234e-001, -1.2474840076947213e-001,
          -9.8288084435090417e-001, 2.8533786890208729e-001,
          -5.1882944735765457e-001, -5.0124122457528120e-001,
          -6.0953939688339798e-001, 5.2872296636998696e-002,
          -1.6240688908410073e-001, -9.0154737361520521e-002,
          -6.3783489078947908e-001, -5.4568276599064480e-001,
          2.7055785823565731e-001, 1.0698439992964268e-001,
          6.1227620304822916e-001, -1.8356052220910779e-001,
          -2.7704122615754595e-001, 5.4941136436164395e-001,
          -4.4745486055612566e-001, -8.9429809546598815e-001,
          1.0812742582421719e+000, -1.1813816959038377e-001,
          4.1693651131317028e-001, 2.3557647217631345e-001,
          6.1970915757864710e-002, 7.9089942303237326e-001,
          -2.5034687507833842e-001, 2.5975457733318208e-001,
          -4.8162275238864766e-001, 2.0384331468120212e-001,
          8.5612734579965466e-001, 4.6113560019731531e-001,
          3.9109222740396871e-001, -5.7606147710159428e-001,
          9.6680007448300698e-001, -7.4824616282507783e-001,
          -9.4970761781930965e-002, 9.7859795520034421e-001,
          5.2288463791531203e-001, -1.7796596061855549e-001,
          -8.8683885924428707e-001, 3.4561391547694803e-001,
          8.7615033786326646e-001, 6.2155186065770374e-001,
          -1.6406490778320728e+000, -6.2852026858180776e-001,
          -1.7518950955137608e-001, 9.6377745817029337e-001,
          -1.2755175110924363e-001, 6.5678336687903016e-002,
          -3.3858549641874441e-001, -2.4673398530305746e-001,
          -2.8593515491485599e-001, -9.0476548393011103e-001,
          -4.3170920721879608e-001, -5.3446840209686641e-001,
          5.1122142641514556e-001, -8.8855704010215286e-001,
          -1.0797971043854948e-001, 2.7832554550766947e-001,
          -5.1881157433167091e-001, 3.4924799454346300e-001,
          7.6387894846549620e-001, -3.9959413731399307e-001,
          -1.1239528455700574e+000, -8.2180440640127672e-001,
          4.6198894076049324e-001, 9.2533774064555741e-001,
          -5.5586521139669531e-001, 8.9130764153361319e-001,
          -1.2266640567556023e-001, 2.0649509822848439e-001,
          -6.7850309833183886e-001, 3.4979846412301202e-002,
          3.3881265937679772e-001, -1.7593580791047225e-001,
          -5.9847279499888502e-002, 3.0180325740575786e-002,
          -9.1833710143470873e-002, -8.2735850993171345e-001,
          8.6299660632822495e-001, -1.3086518976092444e-003,
          9.2390728815486411e-001, 5.4959211603552140e-002,
          6.9463353626328705e-001, -3.6387418500706553e-001,
          5.1752055418625453e-001, 6.3241887835115218e-001,
          -2.2178646710626482e-001, -4.2171255270481087e-002,
          7.1599076288938490e-001, 6.0955182188376766e-001,
          -1.7621634356304999e-001, 4.4071293342436563e-001,
          1.2018715834768829e+000, 1.8267854250967505e-001,
          -6.0158176275774844e-001, 5.1118511021852486e-001,
          2.9432795351272822e-001, 6.0306557595267885e-001,
          4.3333293343183277e-001, 1.6629941056042910e-001,
          -2.1900248152464627e-001, 2.0879423042386724e-002,
          -2.2704847776487472e-001, 5.2747268294867888e-001,
          7.4484288699924947e-002, 8.6335232011124508e-001,
          -1.9002387426131104e-001, -1.2955646122459769e-001,
          -2.0614999653971197e-001, -2.8831788320329199e-001,
          -2.9994603677019466e-001, 7.5231468335637441e-001,
          6.5543257130384458e-001, -2.2071702405363322e-001,
          2.5046144249662755e-001, 1.6106057720859046e-001,
          4.2089691169023508e-001, -4.7183295885777465e-001,
          -5.0468237433582530e-002, -1.6019744368577005e-001,
          5.2028047189354887e-001, -2.7257018868923183e-001,
          6.4157721189043171e-001, -2.1081887505960649e-003,
          -2.6112016793787479e-001, 9.9831543859094388e-002,
          8.0871515479871614e-001, -1.7731704474845528e-001,
          2.0403117936068776e-001, -5.9501267698168758e-001,
          1.9898874533146621e-001, -7.0253972658595443e-001,
          -5.1041636324673878e-001, 6.7173919543259117e-002,
          -1.1159882707619673e-001, 2.0833384166404603e-001,
          -1.3885683467359162e+000, 2.6834935233762863e-001,
          -6.9017555711655590e-002, -4.5071339874863621e-002,
          8.5215727041587230e-001, 3.6895982927270543e-001,
          -5.1278245078399776e-001, 4.6357192377777079e-002,
          -2.3979074208885431e-001, -2.4079794425889856e-001,
          -8.2202261324550496e-001, 4.5676280339049186e-001,
          -4.8605244960764055e-001, -6.3913537998497499e-002,
          -4.3193949744477877e-001, -1.7152534070408882e+000,
          -2.0489463757271649e+000, -1.8552388310644607e+000,
          2.1352531965821983e-001 ]
