%YAML:1.0
my_nn: !!opencv-ml-ann-mlp
   layer_sizes: !!opencv-matrix
      rows: 1
      cols: 3
      dt: i
      data: [ 49, 36, 5 ]
   activation_function: SIGMOID_SYM
   f_param1: 1.
   f_param2: 1.
   min_val: -9.4999999999999996e-001
   max_val: 9.4999999999999996e-001
   min_val1: -9.7999999999999998e-001
   max_val1: 9.7999999999999998e-001
   training_params:
      train_method: RPROP
      dw0: 1.0000000000000001e-001
      dw_plus: 1.2000000000000000e+000
      dw_minus: 5.0000000000000000e-001
      dw_min: 1.1920928955078125e-007
      dw_max: 50.
      term_criteria: { epsilon:9.9999997764825821e-003, iterations:1000 }
   input_scale: [ 2.7671513656828395e-001, 1.6190792987044731e+000,
       5.2467904857500258e-001, -1.2694985181914173e+000,
       6.0960930597091079e-001, -1.5101604213775326e+000,
       9.3342017533499111e-001, 6.9894662442717326e-001,
       8.3178581960379661e-001, 8.2663653847528618e-001,
       6.2988846555324862e-001, -7.6057428980912989e-001,
       5.5232316857941333e-001, 2.2154512238585147e+000,
       6.6852849815095527e-001, -1.5276400636856098e+000,
       8.2319087701726368e-001, -9.9026460203738775e-001,
       7.7508606763961196e-001, 3.6710170442631224e-002,
       8.7197067225398117e-001, 6.7079993828761086e-001,
       8.0162475294698388e-001, -5.2263764524280321e-001,
       8.9904706749296670e-001, -1.4510195445601284e+000,
       1.1853210816628346e+000, 1.0031611751385605e+000,
       1.3019725919702316e+000, 9.4090804720580068e-001,
       1.1650080036051196e+000, 4.1280230538569035e-001,
       1.0741957438775174e+000, -1.1327225498855000e+000,
       1.2233917084957577e+000, 5.6193887408048360e-001,
       1.0030602131526201e+000, 6.8432598390720645e-001,
       1.5027698698429852e+000, -2.3209412856069842e-001,
       1.2678412096768372e+000, 8.8347489866591700e-001,
       1.8948423057693737e+000, -3.8495655435303733e-001,
       1.1641162373806029e+000, 2.3092324905360131e-001,
       1.6254877709702784e+000, -4.1818394984992852e-001,
       1.6634542463498698e+000, -2.0307990792610214e-001,
       1.6339485728299876e+000, -7.2716371231786953e-002,
       2.4934514574307802e+000, -5.9842327421445241e-001,
       1.4204089040137007e+000, 1.7806014968294106e+000,
       1.4292853081000323e+000, -1.5254558721198257e+000,
       1.7398564266248586e+000, -1.5838328679273770e+000,
       1.5253731208778287e+000, -1.3732664153099516e+000,
       1.4749189054022906e+000, 1.1107226483330930e-001,
       1.7889589749885684e+000, -8.0838094456286202e-001,
       1.0039844245822920e+000, 4.2541336970831345e-001,
       2.2647160208830752e+000, 2.3752305054434150e-001,
       1.4386673551076632e+000, -4.2208890071310085e-001,
       1.8662479447386369e+000, -6.6647703643320255e-001,
       1.6881480919844163e+000, 7.8328606676137358e-001,
       1.2361347439214376e+000, -2.5449910621946997e-001,
       2.1312745291282771e+000, -1.7629256847197563e+000,
       2.4805875626072695e+000, 1.7716745906840703e+000,
       1.7648384221270281e+000, -7.3258450229956196e-001,
       1.7120242587195014e+000, -4.3004169771659301e-001,
       2.4409146379384850e+000, -6.0475538290185538e-001,
       2.4965169931982985e+000, -2.1552931300354849e-001,
       2.2394165769084968e+000, -8.7352811062773161e-001,
       1.8442469759038229e+000, -6.0706357645887654e-001,
       1.6909429398569609e+000, 1.0879362852184343e-001,
       1.8919143705043093e+000, -1.3801003449083493e-001 ]
   output_scale: [ 5.2631578947368418e-001, 4.9999999999999994e-001,
       5.2631578947368418e-001, 4.9999999999999994e-001,
       5.2631578947368418e-001, 4.9999999999999994e-001,
       5.2631578947368418e-001, 4.9999999999999994e-001,
       5.2631578947368418e-001, 4.9999999999999994e-001 ]
   inv_output_scale: [ 1.8999999999999999e+000, -9.4999999999999996e-001,
       1.8999999999999999e+000, -9.4999999999999996e-001,
       1.8999999999999999e+000, -9.4999999999999996e-001,
       1.8999999999999999e+000, -9.4999999999999996e-001,
       1.8999999999999999e+000, -9.4999999999999996e-001 ]
   weights:
      - [ -1.9056814181542758e-001, 6.5373489914756633e-001,
          -2.0241952773016655e-003, -3.0236950019445230e-001,
          2.1607397964592556e-001, -2.2898520613025231e-001,
          -3.9570062867383543e-002, 1.8791712292471449e-001,
          3.1869725184672099e-002, -1.0257469703209555e-002,
          2.7711040753653876e-001, -5.4028590819927919e-002,
          3.1356850966035771e-001, 3.1826797701632742e-001,
          -1.3769229750040052e-001, -1.6976562942771986e-001,
          -4.7387236388253517e-001, 3.8928129114075241e-002,
          -1.2806464719330168e-003, -5.5843482756084133e-002,
          -1.0510370431618078e-001, -1.2266983859419466e-001,
          6.3731874549311446e-003, 4.0000599117834257e-001,
          -1.7368329167574909e-001, 4.2107607370661868e-002,
          1.0564155085264265e-001, -4.2002729420707691e-001,
          -3.5131487908330944e-001, -8.3602202587767682e-002,
          -8.2046646435828041e-002, -3.0521327074184083e-002,
          1.1680616804030514e-001, 3.6805443218864992e-001,
          6.3552089758914132e-002, 6.5308191666058734e-003,
          -1.5347470447202508e-001, 7.1337634440047248e-001,
          5.1859975579196327e-001, -6.6752823734184799e-002,
          2.2883321375367488e-001, -5.0940476408527968e-001,
          -3.4156217584652791e-003, -1.1326062510486228e+000,
          1.0866674043162869e+000, 1.2990661021423752e-001,
          2.7355702887999322e-001, 8.5467282295116409e-002,
          -2.5834527275235325e-001, -1.3004866334582248e+000,
          -3.2379816627057290e-001, 4.0000352334601752e-002,
          2.6507529017227777e-001, -1.1378342974227636e-001,
          1.2829939522478914e-001, -5.6745007264102520e-001,
          -1.9636669513757057e-001, 9.0269493019423802e-002,
          2.9846301738519093e-001, 1.0520232949522365e-001,
          -6.0793733815536910e-001, -2.4943775545167257e-001,
          -1.1175717877564131e-001, -5.4176398731685194e-001,
          -1.7044667234570632e-001, -5.5525037684764411e-001,
          5.3592204341887897e-002, -4.6652437685857134e-001,
          -3.6025588772529191e-002, 1.1085939331556563e-002,
          2.2010359884867270e-001, 3.0813579679449055e-001,
          1.0647090367606223e-001, -5.3913070069469909e-002,
          6.0855680828551910e-003, 8.6261901602163804e-001,
          9.6981101511873016e-002, -3.5096997718921427e-002,
          1.5808251037163515e-001, 2.3831815688363837e-002,
          -3.9034366051250352e-001, -5.3297980083806172e-002,
          2.5885517700644589e-001, 3.0447727789667367e-001,
          -2.3737636075060298e-001, 1.0346784495163237e+000,
          1.6329545982947369e-001, 1.0205922045054223e+000,
          1.0058825208132995e-001, 1.8807393453535082e-001,
          7.5091983002036594e-002, 2.0718631439802224e-001,
          -2.2409057024794754e-001, -2.2541815680448601e-001,
          2.0037861465177997e-002, -3.2122152161595408e-001,
          -4.7842205232431717e-001, -6.8574993691991132e-002,
          -2.4935364274486678e-002, -9.7003124508515202e-003,
          2.4281344208822994e-001, 2.9351964563255517e-001,
          1.2899781148230988e-001, -2.8975896126159312e-001,
          -1.7842738104055819e-001, -1.5399627882439601e-001,
          9.8696401991769152e-003, -2.3564128235274406e-001,
          -1.4548799630370629e-001, 2.6243412117736176e-001,
          1.5437098461300761e-001, -6.1188830936699445e-001,
          1.2128481438770893e-001, -5.1738004403107618e-001,
          -5.6240706467362478e-001, -1.1956932692395630e+000,
          2.2595328326299036e-001, 1.7844654277470054e-001,
          -1.9978628923322014e-001, -6.0683717614366063e-002,
          1.7939726624240998e-001, 1.0735246284358146e-001,
          -1.7882952437210550e-001, -1.2640451825822857e-001,
          5.3989237301728910e-001, -1.1523283594312123e-001,
          -1.8169251302634368e-001, -4.0184034629374105e-001,
          -9.2308515593960652e-002, 1.0876056654694716e-001,
          -1.9244000387628379e-001, 5.5512135008638519e-001,
          -7.6951611475851486e-002, 2.1931146819724426e-001,
          -1.1865222227467005e-001, -1.4212497485312128e-001,
          -1.6973140292068853e-002, -7.9989900471401462e-002,
          2.3610456376531383e-001, -8.5317422568566448e-002,
          1.3150208527388269e-001, 4.6446023704164840e-002,
          8.4805606815921836e-002, 2.5335096554767667e-001,
          3.1892668285686238e-001, -2.2132992610245447e-001,
          -4.0668770223277506e-001, -1.3867789835351779e-001,
          -3.0876326005233412e-001, 3.1931550518612746e-002,
          1.8529285560434472e-001, 1.4775687970077828e-001,
          -3.7197335061216108e-001, -1.2107590112437572e-001,
          1.8377068603640889e-001, 3.4339046485001057e-001,
          -1.0845552466150317e-001, -4.4507818135396976e-002,
          1.1488254853326806e-001, 4.8109458083346594e-002,
          -2.4548035555284667e-001, 2.5733243265914169e-001,
          -3.2338084253505095e-002, 2.6899075359363622e-001,
          3.9696001026391464e-001, -3.2958026616038340e-002,
          -4.0113480720783995e-001, -1.4609096478282796e-001,
          3.9466438543684465e-002, -1.6929009700365688e-001,
          -3.8011910122016757e-001, 4.0166900442897691e-001,
          -3.8512193466115532e-003, 5.5913774074432626e-002,
          3.9460580834614101e-001, 2.7649812903525195e-001,
          -1.1008696694946846e-001, -6.9806043048990063e-001,
          -9.6976705503785524e-002, -2.6191276994825863e-001,
          8.9315355585860012e-002, 5.3030637213572575e-002,
          1.4841785469823054e-001, 5.6776287741989895e-001,
          -2.3067348649438485e-001, 1.4208632990244721e-001,
          1.4689164507988528e-001, 3.0669770013022551e-001,
          2.6977329191146371e-001, -1.6597788660822826e-001,
          -1.6894582284761220e-001, -1.6986664581087266e-001,
          -2.1156309980779306e-001, -5.4841331890686629e-002,
          1.0168302450064086e-001, 2.5105553330196001e-001,
          6.5737061140834152e-001, 2.3752875213233809e-002,
          7.7824983033720901e-002, 9.7081302847521728e-002,
          -4.0187045479565819e-001, -9.5601000093233995e-002,
          -3.6020300405684547e-002, 6.2563612717615839e-003,
          5.9027140831423930e-001, 2.6646511413622988e-002,
          -4.4393254483720912e-003, -3.3790574089485442e-001,
          3.6063805892174944e-001, 1.4891242258586030e-002,
          4.7972038254611465e-002, 3.8395074131283480e-001,
          1.2886224496524401e-001, -1.8107766733304292e-001,
          -8.5619960709924309e-002, 4.3224144451213378e-002,
          1.3978023260699152e-001, -3.9126224996542630e-001,
          -8.3517249324878626e-002, -5.6129461397543483e-002,
          -6.7583785962381390e-002, 3.8399677996641102e-001,
          -4.3080886835579049e-002, 1.2216915053753000e-001,
          -2.0322321435057164e-001, -1.1002015636332821e-001,
          8.6960718506501639e-002, 2.7680896760264403e-002,
          1.0792416851443637e-001, 2.2476833686863387e-001,
          2.6363509599642709e-001, -1.5453103935106730e-001,
          -1.4935189896849199e-001, -5.6062626170878549e-001,
          1.9919989334117327e-001, 9.2023817535514740e-001,
          1.3550383003992048e-001, 2.9043188290204797e-001,
          -3.2077801686304258e-001, -3.5032869006307404e-001,
          -1.6559678877279010e-001, -2.7335800669441488e+000,
          -1.5023282472887767e-001, -1.8364923802422595e-001,
          2.6924515160219493e-002, -3.1131512821223534e-001,
          -3.5296391667051485e-001, -1.1292361723797728e+000,
          -3.9296672091673535e-002, -2.8364515669916618e-001,
          -1.2283321244276703e-001, 2.6689690718655767e-001,
          -5.1599412083249953e-002, 4.6615738241388466e-001,
          2.5739442753445349e-002, -3.1753362635979332e-001,
          -1.2493666580654435e-001, -8.5152630051805803e-002,
          5.1033320198269561e-002, -5.6539294532823514e-001,
          1.4216675562954773e-001, -7.3595777606904633e-001,
          7.8835704251048833e-001, 3.4733176138736876e-001,
          1.5645653250668697e-002, 3.3470111463665003e-001,
          -1.4708665150112371e-001, 2.5816871046378803e-001,
          -3.3986082559828368e-001, 6.2222255045286612e-002,
          -5.6575517822605559e-002, 1.1209181062986939e-001,
          4.7294857542449709e-001, 2.0795777550290723e-001,
          -3.6654257522653283e-001, -2.1669404003833527e-002,
          -2.1842663511868191e-001, 8.7848575225796893e-002,
          3.8052503832296643e-002, 1.1463714926087867e-001,
          -3.0493966408601370e-001, 1.9970771167553444e-001,
          -2.1967755845323334e-002, 5.0287336961001690e-002,
          -2.6319008152018192e-001, 1.3778154033335371e-001,
          -1.9975943469468499e-001, 5.1996873354105300e-002,
          -1.4195869300637914e-001, 2.1133029544038179e-001,
          1.0649522959136775e+000, -3.6077404474381147e-001,
          -8.4385164236272472e-002, 9.0956856856212978e-002,
          -4.0174431378397768e-001, -4.4649428799801999e-001,
          5.6213230870066011e-001, -2.3729367543951441e-001,
          3.8443459825177544e-002, -4.8909352492869113e-001,
          2.9975479982820868e-001, 1.6598651506734616e-001,
          1.4925290530288432e-002, -2.9137003541867407e-001,
          3.8672409402589925e-002, 9.8755490896965253e-002,
          2.2786544146387022e-001, -4.9750077645529987e-002,
          3.9097266441416423e-002, -1.0418716017853508e-001,
          7.3291079134776380e-002, 6.2675076738292679e-001,
          -6.6668037586218712e-002, 2.4978115570048703e-001,
          -6.0459123592693542e-001, -5.2942566564587834e-001,
          1.7877260790953982e-002, -3.3018161934364426e-001,
          1.5038230330493632e-001, 9.4944012054893889e-002,
          1.4224830395413135e-001, 1.1715719808600236e+000,
          -3.0240064869199035e-001, -3.2033311244479494e-002,
          -2.1833013767692477e-001, 5.0133117940749372e-001,
          -1.0494953846813695e-001, -8.6915162365338944e-002,
          1.0433509263362599e-001, -4.9068750907263946e-002,
          -9.5208508167814343e-002, 2.2611409910006208e-002,
          -1.1915263369410470e-001, 2.3747685989256684e-001,
          2.0736171299371176e-001, 3.2806810183585444e-002,
          -4.3981377132482749e-002, -1.2417302734210542e-001,
          -6.3061555359339450e-001, -1.1197740811040693e-001,
          -5.5438849111672604e-003, -2.7887750331265915e-001,
          -1.3591787447240150e-001, -1.6617108159333777e-001,
          -1.1562203745648851e-001, 2.3837087495289783e-001,
          -6.0091935659791214e-002, 3.7474748850911291e-003,
          4.5877791671670942e-002, -1.3041889267618395e-001,
          -2.1270919518507858e-001, -5.4354479905042573e-002,
          -1.9508669877007989e-001, 2.0024733931882893e-002,
          5.3922648242288396e-001, -2.8806660506432086e-001,
          -4.3164337078176310e-002, -3.5411065791204968e-002,
          1.5402861605981272e-001, 1.3369629821869636e-001,
          -4.6077966257062487e-002, 3.4043691185086836e-002,
          -2.7968410108388320e-001, 6.5182029698786739e-002,
          -2.4032886652538533e-002, 4.6149422646877103e-001,
          -6.2286438501673724e-001, -8.3731693939802912e-002,
          1.0727605842677816e-001, 2.3687867687930523e-002,
          -1.3824228996443202e-001, -3.0800338452703174e-001,
          9.2451613738811234e-001, -1.8763368462079971e-001,
          2.1739662549320143e-001, 1.1178769788116993e-002,
          -2.1106486545380670e-001, -1.2532552038690428e-001,
          1.5481379772344053e-001, -1.0578423667092011e-001,
          -1.8115404715813138e-001, 1.0545356783424208e-001,
          -2.3086053083105459e-002, 1.5486635764006904e-001,
          1.7397335026523239e-001, 3.2540519106407123e-002,
          2.1689279651349197e-001, -2.6445697771787707e-001,
          5.4758610160390270e-002, -7.1379307255602997e-001,
          -5.8052945868099015e-001, 3.0866633532967008e-001,
          9.9145521436775852e-002, 2.8412549268168052e-001,
          5.9982995976677986e-002, 3.3542596621707033e-001,
          -6.4495595790434443e-002, -2.2561722936915475e-004,
          -3.1662491390990005e-002, 2.1379417021469924e-003,
          2.7556762644692839e-001, -8.6219417158362816e-002,
          2.6653216555129577e-001, -3.8086186796453592e-002,
          -1.8531487868882018e-001, 5.5365416546797878e-002,
          4.1188556952680538e-001, -4.2258521380087476e-002,
          1.7681404722522420e-001, 5.7819213570422245e-001,
          -1.8930008661508627e-001, -3.1057525966320559e-001,
          -1.7474506544661894e-001, -3.8075662788662562e-001,
          -2.6471167029668818e-001, -1.1205838629105105e+000,
          5.7324079941916239e-001, 3.7543266875441977e-001,
          -1.3205842431190831e-001, -3.6668864103745979e-002,
          -8.0219699629850183e-001, -3.3867689919481314e-001,
          -1.7452073051350020e-001, -5.9995770285887495e-001,
          8.0976948794121997e-002, -2.4443084031414791e-001,
          1.7564767236059992e-001, -1.3070235546556410e+000,
          -6.3667546107976439e-002, -3.1471957975205295e-001,
          8.5465276643747146e-002, 1.4156974608846254e-001,
          -1.3333245493434132e-001, 9.4064893105876135e-001,
          4.1756761822469624e-001, 1.4291316517738448e-001,
          -1.5171551595435129e-001, -2.2407930584326236e-001,
          1.4057533959088744e-001, 5.3928706119572722e-001,
          1.5560060042450199e-001, 2.7965231277111957e-001,
          -4.3685049393941494e-001, -1.4476795358538586e-001,
          -1.1415293999005820e-001, -2.3665319844992311e-001,
          -1.8727500435546490e-001, 9.9924579284127055e-002,
          3.5185331489274470e+000, 3.4369898539270743e-001,
          -1.4099166480977998e-001, 1.0134809413219847e-001,
          -2.4069628598168105e-001, -2.6564213453674240e-001,
          4.8688012169346595e-001, -5.0886876515701585e-001,
          4.4135216211123002e-001, 2.4066991879902841e-001,
          1.5892776790379128e-002, 2.4892477502571392e-001,
          2.7494301007159011e-001, 1.1399541745618129e+000,
          1.1549547414619021e-001, 1.2135360037341216e+000,
          -4.4142696838140628e-005, 5.4021547395293179e-001,
          1.8494379961110247e-001, -3.0405823251485498e-001,
          3.3113437785012273e-001, -1.9586285790022362e-001,
          -8.2799597274989634e-001, -2.2732782388077091e-001,
          5.2543877055837518e-002, -1.2746224286590083e-001,
          1.6979577353260084e-002, -3.0002000916132715e-001,
          -1.6170699437591857e-001, -2.6478224689246188e-001,
          8.1072273421290461e-002, 5.8189580820386988e-001,
          2.5519358524383022e-002, 3.3573384849266030e-002,
          -1.6126043697912912e-001, -1.9982288321313818e-001,
          2.2096235151528924e-002, 2.1688644598807846e-001,
          7.1740770199933549e-005, 1.8286960323681267e-003,
          6.8448148664519537e-002, -2.2815262106733212e-002,
          -1.2942867136305573e-002, -3.6236611258676332e-001,
          -6.0079330547600215e-002, 2.8096685503395200e-002,
          -2.3566893525844304e-001, 1.7280382128285898e-001,
          -2.1900042308127354e-001, 2.0312617744114962e-002,
          3.1094246284451921e-001, 8.1018311069433760e-002,
          -1.0019826904572711e+000, -2.8407625014749982e-001,
          1.8228246712808527e-001, -2.1826799616159412e-001,
          6.4272239495523220e-001, -6.2827618307698074e-001,
          -3.1159000378933366e-001, -5.4365315382194301e-001,
          -1.3530687988385603e-001, -3.6802722752660392e-003,
          -3.5969172955414341e-001, -1.9715339283414163e-001,
          -4.5820140263394959e-001, -9.1899293744462443e-002,
          -1.6165385577443309e-001, 4.0883760813176365e-002,
          5.2021119597149890e-001, -1.0457418776288309e-002,
          -1.1982287797524584e-001, -2.9564496031259258e-001,
          -1.0991397300759261e-001, 2.6061080756121063e-001,
          -5.1366317706036357e-001, -9.2153596526268200e-003,
          -6.4135278870480733e-002, 8.7060226114747563e-002,
          -3.3084975025184671e-001, 1.4140409117916987e-002,
          -9.2667497220761022e-002, 7.4277791789191264e-002,
          1.9083068812310335e-002, 1.2412407587651311e-001,
          -2.1594620025578176e-001, -5.7625217334575068e-002,
          2.8423141693656462e-001, 1.0529705297486935e+000,
          -8.0412276223586654e-001, 5.0984456185182658e-001,
          -1.8911928018989454e-002, 3.8975987190121089e-002,
          -1.0099511071099521e-001, -1.6313787111230488e-001,
          -8.7922392319149567e-001, 1.4436247706881575e-001,
          -3.1898985169686217e-001, 1.0043552031011152e-001,
          -4.9289581113973295e-002, -1.7876162724632250e-001,
          1.4636585766252219e-001, -1.8081706622189466e+000,
          -7.6390701572339875e-002, 4.4382931127638636e-002,
          2.1699619656481272e-003, -2.5362571658085531e-001,
          2.6304811810170320e-001, 5.8072457136664271e-002,
          -2.7513679528519691e-001, -2.2206380765434533e-001,
          1.8077970534707269e-001, 1.8916651523620473e-001,
          -9.9815176603327255e-002, -2.1515781248176336e-001,
          -7.3934705970565739e-001, -1.6548434581407626e-001,
          9.6645237238293458e-001, 5.8823960082878424e-001,
          1.4080525170654454e-001, -1.1134208478254112e-001,
          2.4961438476179246e-001, 2.2901852711148110e-001,
          -1.5647975055924959e-001, 9.3904068163137655e-001,
          -5.6960911070557032e-003, -1.5510860365840779e-002,
          -2.7257417859481581e-001, -1.1296482576800351e-001,
          4.1428538109143764e-001, -4.3872809169119426e-002,
          -1.0770924196252282e-001, -1.0734420519033698e-001,
          1.1357897258248248e+000, -1.3569963611872121e-001,
          9.6259604191783282e-002, -4.7277081730925426e-003,
          -2.2692406990949857e-001, 1.3558706269872206e-001,
          5.0381756626275885e-002, -4.6972798388738990e-001,
          -2.7366038019267479e-003, 5.8499794810001260e-001,
          -1.3103239167391037e-001, -8.0444562307770626e-002,
          -9.7713149813062075e-002, -4.5927936974844541e-001,
          -1.5996144039167820e-001, -1.5574156013552304e-001,
          7.2662420869203392e-001, -7.6286786483816524e-002,
          -3.5975305930985441e-002, 1.3484859922137141e-002,
          -3.9883857652731847e-001, -3.6319976642293650e-001,
          -3.4217766349206552e-001, -1.0457670471028191e+000,
          1.2298718029072736e-001, -3.8170468180519640e-002,
          5.5537749521111102e-001, -2.1432278987009171e-001,
          8.4311338443362985e-002, -3.8516729157446250e-001,
          8.6850706710069558e-002, 2.8037936163633391e-002,
          -2.4349040406819489e-001, 1.2764969862202535e-001,
          8.0980610875724682e-002, 1.7247834031047130e-001,
          -1.0126878910392867e-001, -1.8385059692933890e-002,
          1.2013406203920632e-001, -1.6786985240363722e-001,
          3.1479685574637573e-001, -1.1132584349445947e-001,
          7.2506484795917453e-002, 3.7246706196797308e-001,
          6.2528479635972798e-003, -1.1547156737274303e-001,
          9.2727075682157156e-001, -1.9967874145222836e-001,
          -1.1164114487398144e-002, 1.3267697383813146e-001,
          4.0557082690835128e-001, 4.3284351956831352e-001,
          7.1957266614957591e-002, -9.8108898269895065e-002,
          9.0372809047902639e-002, 2.9051786950105029e-002,
          -5.5871466394171870e-002, 8.5560553312599458e-002,
          5.9345310088529120e-002, 6.9639739539985687e-002,
          5.5153896862816576e-002, 5.5513073550597494e-002,
          -2.9538430308214769e-001, -1.3021125081597870e-001,
          1.4222113994187316e-001, 7.0992561902650866e-002,
          -3.6315948877363857e-001, -8.8154194744495679e-003,
          2.5060141379844264e-001, -2.3207563644740267e-001,
          -6.7807231729091158e-002, -7.5586538375694304e-002,
          3.7760567143311513e-001, 4.5726083096068987e-002,
          -5.7622842999734331e-002, 7.8735669534576025e-001,
          1.8464390291124132e-002, 1.4099061314099551e-001,
          9.3227164261271242e-002, -5.4686189412044872e-001,
          -8.6404670581874865e-001, 1.0064267016663200e+000,
          -9.9601465098797110e-002, -1.1923970062050845e-001,
          -2.0254012424823400e-002, -1.7286229045590301e-001,
          -1.4770139235742671e-001, -1.3549789471384108e-001,
          1.8505607722678741e-001, 3.8936870071949398e-001,
          -1.3999309075431879e-001, -1.2223632439248315e-001,
          -3.5593553737073608e-001, -4.3917947448750178e-001,
          -1.8763057389080495e-001, -3.7746259735326755e-002,
          -5.0151094800684984e-002, -3.3820249673238864e-002,
          1.2820999014613632e-001, -1.4650928563987736e-001,
          -1.5319920240893936e-001, -1.1995356811803044e-001,
          8.3949093918849707e-002, 9.4410413357613202e-002,
          5.0639098337878563e-001, -4.2004343969690111e-001,
          -9.5372348287085462e-001, -1.5587356986752174e-001,
          -7.3692542185689858e-001, -1.4226618992969187e-001,
          -2.3767632427652394e-001, 3.0465572803790392e-002,
          5.3238868095231871e-003, -1.3028794410190465e+000,
          1.8718147841130481e-001, 1.8451252729550377e-001,
          9.0982628647975156e-002, -1.3245227091236922e-001,
          -4.0854905800870207e-002, -3.8912341942338391e-001,
          -5.4178004805840252e-001, 2.0515567135371862e-001,
          1.3630763068430068e-001, 7.6124089527833283e-002,
          3.4669600352675090e-001, -1.1035429323180104e-001,
          -5.1253333401542656e-001, -1.5796434145634594e-001,
          2.6236919267134756e-002, 7.1414098307794266e-004,
          -6.1417481055599432e-001, 4.7993876072411346e-002,
          -2.4786120141079407e-001, -3.2528963152552093e-001,
          8.0094436774566136e-001, 3.4465817044148156e-001,
          -4.1981489678657591e-001, 2.5552356901939260e-001,
          -1.7676363051974286e-001, 2.3021160857325049e-001,
          -5.8632860058141681e-002, -2.0751799444521724e-001,
          -1.9518117634699468e-002, 1.7065896256669372e-001,
          4.4107050055363706e-001, 1.2809742469345861e-001,
          2.4727433972817581e-001, -1.1143087718516967e-001,
          6.3242546735204519e-002, 4.7039359765055607e-003,
          -1.1482433375526692e-001, -2.6694461943826547e-001,
          -1.2454146635788751e-001, -7.9910638287613023e-002,
          1.4500724537276993e-001, -3.4323530431914669e-002,
          9.5886068890759894e-003, 2.3187724541774349e-001,
          2.3668697780484396e-001, 4.5710710897271384e-002,
          1.8087149610590414e-001, 1.6260252788031765e-001,
          2.3460739491564110e-002, -1.1276007179818000e-001,
          -4.4650803502858877e-001, 1.5500893060209536e-001,
          7.3586794245330905e-002, -7.3946790867994786e-002,
          2.2790605662992328e-001, 5.1256535389244545e-002,
          -3.5928772567911554e-001, 1.9504479294754412e-001,
          2.2526259507284449e-001, 1.0838274839503105e-001,
          -2.4827165869989656e-001, 1.8330234420342928e-001,
          -1.8657092911926487e-001, 1.4200217990646959e+000,
          2.4017522502437597e-001, 2.5449807860377652e-002,
          1.3298593795322380e-001, -2.9660712534704997e-001,
          -1.8351424374042349e-001, 1.6580725564686257e-002,
          1.5226556760782001e-001, 1.3855729176167109e-001,
          1.2848032337122897e+000, 5.9199751267685785e-001,
          -2.6093894039984589e-001, -4.9029289646243540e-001,
          -1.3289085343954990e-001, -2.2103721457382616e-001,
          6.9293388612727602e-002, 4.1268080387949588e-002,
          -1.1535874789232850e-001, -2.5048059982981202e-001,
          -9.5720325654817667e-002, -1.9241036011058113e-001,
          -4.4569119069577848e-002, 2.7243732842971408e-002,
          -7.3761520773402722e-001, 3.0952100434212565e-001,
          -1.1039294487263382e-001, -1.2257516620049876e-001,
          -1.3837568161933578e+000, -4.8551325204686974e-001,
          -7.5407395913839353e-002, -1.6165712475868759e+000,
          8.5179901587105047e-002, -2.3487728537836269e-001,
          7.0624458327753908e-002, 2.8590750994151259e-001,
          -2.2552826590295905e-001, 7.9987014707091311e-002,
          -4.8808535708981637e-002, -2.2698382649667592e-001,
          1.3171713732641521e-001, -1.7917573910583476e-001,
          -2.2739058883490676e-002, -2.1026325781755861e-001,
          9.1883884906797542e-001, 7.9824777257967910e-002,
          1.2724540257723638e+000, -9.3048871277160425e-002,
          6.6971951120074924e-002, 1.0143272535004162e+000,
          8.0836955206408406e-002, -2.2838330149852354e-001,
          -3.9372775901587942e-002, -9.7769312140224177e-002,
          1.0400482038614916e-002, -5.0249835962648759e-001,
          2.2356226165088583e-001, 4.2547182066136274e-001,
          -5.2069910931380692e-001, -1.2159225849136396e-001,
          -4.5980105192252330e-001, 2.1005666535082436e-002,
          -1.2413673336576694e-001, -9.0309365409651163e-002,
          -6.9753518496699618e-001, -9.1315017625578920e-002,
          1.5944978592442302e-001, -1.7732199434845612e+000,
          7.5988493324571568e-002, -1.0120778498550946e-001,
          1.5391115517589574e-001, 7.7976916475473626e-002,
          1.2589079663139466e-001, 2.9332115746284032e-001,
          1.0412076770296768e+000, 5.2233734261195229e-002,
          -3.3704430107980915e-001, -2.3637139240777174e-002,
          -2.2642377304025249e-001, 4.7083961089378595e-002,
          -5.2512656268586991e-002, 4.3026876568679917e-001,
          -5.7687273395454108e-001, 2.2556591710955315e-001,
          -1.9778143034228041e-001, -2.7032285834108177e-001,
          7.0874804479327969e-003, 3.0343313652144527e-001,
          7.9610616839175169e-002, -7.2774684694289604e-002,
          -6.4886152802444197e-002, -1.1291968996109292e-002,
          1.7098005689021176e-001, -7.8721185762419075e-003,
          6.9163888596738488e-001, 1.3261362771130658e+000,
          -5.5438368394540770e-002, -3.3049038827954937e-002,
          -1.0620046828692704e-001, -1.2343525824029795e-002,
          1.5062729129804579e-002, 3.5468748412528112e-001,
          5.1865941872449320e-002, 4.0739189569102036e-001,
          -8.0346971243955123e-002, 2.3816717334113077e-001,
          -1.4463697771813189e-001, 6.6085256466632658e-002,
          2.9448016395672977e-001, 4.0875343180104490e-001,
          1.6771170767003452e-001, 4.3714375476265242e-002,
          -2.9525520486838780e-001, 1.3061230292430956e-001,
          -1.5405485792623413e-001, 1.7534074076454764e-001,
          1.4391933553193698e-001, 2.3921026958941216e-001,
          2.2944803532782784e-001, -2.2410317330996996e-001,
          -9.3216861801168338e-001, -8.5311650859314714e-001,
          1.2333957103064394e-001, 2.3354788290686164e-002,
          -1.3859644925614666e-002, 4.6975974902316875e-001,
          1.8396549224992470e-001, -3.1519413657748913e-001,
          1.0015902199883995e-002, -3.5132129369790993e-001,
          1.3229243925396444e-001, -5.3382283390933295e-002,
          5.5849176933294709e-001, 2.1550872380977548e-001,
          1.0755160123911980e-001, 5.0047561800924664e-002,
          2.7407359976081107e-002, 4.6840888792894708e-001,
          -1.6048295994643530e-001, 5.0750493941000487e-002,
          2.3896372509751247e-002, -2.6950564351944212e-001,
          1.0840100918835843e-001, -2.2028375565119751e-001,
          1.1016515212008225e-002, 2.3540510733040668e-001,
          8.4470154389002822e-002, 4.3722878648428459e-001,
          -1.8595458505977516e-001, 3.3908027675794525e-002,
          1.2104133977083963e-001, 1.6331646585782347e-001,
          -2.0155060212887069e-001, 2.3368409931139554e-002,
          9.9756471642312536e-002, 2.0718278112024810e-001,
          -2.4706914121213358e-001, 9.8449562506247590e-004,
          2.9865531318835736e-002, 1.7506776834818322e-001,
          7.1881676441492015e-001, 1.8589556382163328e-001,
          1.0061294273008881e-002, 6.3774323382486631e-001,
          -8.1384748168896667e-002, -2.3882215062255956e-002,
          6.1890323753410061e-002, -3.8247840758972990e-001,
          -2.8423408645133878e-002, -3.0170298426709619e-001,
          -1.5224353358549961e-001, -3.0449254092158484e-002,
          -9.1909426298216537e-003, -1.9100211640095524e-002,
          1.5720212052951699e-001, -2.5741174387279370e-001,
          -2.5416286055894227e-001, -1.5624859629236384e-001,
          1.0690847201964551e-002, -3.2239280780338647e-001,
          -3.6160098661980847e-002, -5.3010602883053107e-002,
          3.0650592716619790e-001, -1.2614946044666030e-002,
          -2.3133046770091581e-001, -9.5370308125881501e-002,
          7.9932686467836922e-001, 2.9780436262726712e-001,
          -6.0524756960565626e-002, 3.4997894218404518e-001,
          1.0996145098126255e-001, 4.8988815845078693e-001,
          -3.5688460565658492e-001, -7.1051455033874528e-002,
          1.3320183828376519e-002, -4.9788769606954039e-002,
          -7.6935022581194931e-002, 2.6492089436028532e-001,
          -3.9677398057149212e-002, -3.6962189541206186e-001,
          2.1730441901532635e-001, -9.9534578399264745e-003,
          -1.1547907936783106e-001, -3.0021013481580455e-001,
          7.6525787550867405e-002, -1.7691954199636671e-002,
          -8.2901776306814300e-003, 4.4263603354439091e-001,
          -7.0582681677711728e-002, 6.5781418731267083e-001,
          6.7846796361575878e-001, -5.2519632463366239e-001,
          -2.4962764840233026e-001, -5.8393446643792113e-001,
          -1.0651666484778333e-002, -3.7831387238977682e-001,
          2.0792871863063139e-002, 3.5472017060292182e-002,
          -2.8058722597221690e-002, 2.7171551658542520e-001,
          2.0509979904272463e-001, -7.3496045363874385e-002,
          2.2809690659824514e-001, -1.2032965337484212e-001,
          -3.3523146796131237e-001, 3.8113804044213490e-001,
          1.3992538872514756e-001, -5.6081313599974625e-001,
          2.0195520071408574e-001, -2.4109241364112310e-001,
          9.4798454217158504e-002, -2.1510719095671366e-001,
          3.2551173604633654e-001, -2.1916031753867785e-001,
          -1.6705434944083458e-001, 4.0831846991383654e-002,
          -8.8591928664296971e-001, -1.5706986950426371e-001,
          9.2081105203384875e-002, -1.5914558690860467e-001,
          -7.4859238530210634e-002, -1.3386947707209872e-002,
          4.2215064205236942e-002, -1.5573061764332881e+000,
          -1.8289123160081768e-002, -1.9834157378608261e-001,
          -8.9752300899722068e-002, -9.9161920383187316e-002,
          3.2078555975876652e-002, -3.4922292480184769e-001,
          1.7369382550805765e-001, -9.7691032919083570e-002,
          -3.4145842608380833e-001, 2.6289948536116398e-001,
          2.8158125210142287e-001, 7.9723963265549327e-002,
          -2.5562575630218229e-002, -1.2400132512105266e-001,
          6.7876324558934137e-002, -9.9141506152956554e-002,
          1.7782674882339428e-001, -1.0621363150786794e-001,
          -3.9492151466631886e-001, 1.3045906436840504e-001,
          -3.0917663385100602e-001, -1.3428712335277099e-001,
          -4.1700193256318846e-001, 2.1336081615011929e-001,
          -5.0176352844365252e-002, 1.5692158966161521e-001,
          3.6312637080482657e-002, -6.5144632417551154e-002,
          2.1998242371662192e-002, 2.4872695511126247e-001,
          1.5822475939114206e-001, 8.3263713091938849e-002,
          1.1427178805781663e-001, 1.9586689682842166e-002,
          7.7627555561405479e-002, 5.0316278547119113e-002,
          2.6745181048363882e-002, 1.9502782026634871e-001,
          -1.3186797315842253e-002, 2.9422668593643616e-003,
          6.2097762554178301e-002, 3.5562231961484519e-001,
          -4.6433136824912846e-002, -1.3534429077441548e-001,
          -6.6264302901740249e-002, 1.2325676840484488e-002,
          6.9848020808692582e-002, 1.4494365783609267e-001,
          -1.8109890639989903e+000, 3.0443164503189218e-001,
          -5.5777526392599565e-002, -1.7823282130620587e-002,
          -2.0214051849017090e-002, -7.6983340299255110e-001,
          1.1942616272862965e-001, 7.6046403516791927e-002,
          -3.1137129181698625e-001, 1.3450626249290479e-001,
          3.4805873372246890e-003, 9.9572481379672090e-002,
          -7.6490547534491679e-002, 1.7824804516199896e-001,
          -3.8816707081708077e-002, -6.8029821533489521e-002,
          8.2018301047636161e-002, -2.5531271998707670e-002,
          1.5327247883143243e-002, 3.4697961088525575e-002,
          3.7324156314381929e-001, 6.4152532904054718e-002,
          -2.9457780695872771e-001, 5.7797154825983277e-001,
          -1.0462967074933265e-001, 5.0601933123915666e-001,
          1.7426410254647431e-001, 2.2954846707777957e-001,
          -1.8928314167019891e-001, -2.0709078132049394e-001,
          -1.1529624341459471e-001, 9.4494519157865553e-002,
          -1.9888314355894493e-001, 3.7039776894372584e-001,
          2.0177846436570848e+000, 3.6029684125059802e-001,
          2.6867471845200188e-002, 9.7505618474741290e-002,
          -8.0672590566372882e-001, -1.4970979961760189e-001,
          8.1804334652176347e-002, 5.0105351470423484e-002,
          -4.9633129821722638e-001, -1.3435574369556111e-001,
          2.1842942673690122e-001, -5.0975648424650619e-002,
          -1.3132709659045164e-001, 2.0203316656637288e-001,
          9.3414542087917385e-002, -2.5392488923520190e-001,
          -8.3793472999358173e-002, -4.0666835080849173e-002,
          -2.2958758765714155e-001, 2.1162536297364396e-002,
          3.4604342705806629e-001, 9.2317828713764205e-002,
          -2.6234869912448011e-001, -5.0891835118412909e-001,
          2.0313426197044135e-001, -3.6093518252005441e-001,
          6.7869733461570853e-002, -4.9073408964132238e-002,
          -1.6175040201102317e-001, -1.1259588969555601e-001,
          5.9592949549382190e-001, 3.3916552909198611e-001,
          -1.0929091615348144e-001, 1.7871121654541130e-002,
          -1.4041500215975411e-001, 3.4263497141124066e-001,
          -8.8892175030205786e-002, -1.6264512062402314e-001,
          -4.6455237702235830e-001, -4.9344690492016507e-002,
          -4.8190346328795669e-001, -2.8747714068595043e-001,
          -2.5263851915396063e-001, 9.3694884564104006e-002,
          1.4153697273539551e-001, -3.2574981372747399e-003,
          3.7758552075503599e-001, -1.7107630976635207e-001,
          -4.6942926907279185e-002, -1.5037288552087905e-001,
          -4.1996813533958149e-002, 1.4176522980615541e-002,
          -1.0159936484316437e-001, 5.9195654689406074e-002,
          9.4070689907796179e-001, -2.9428100312170274e-001,
          1.3717042903615104e-001, -6.0393379551565152e-002,
          2.7294940539497742e-001, -3.6767763832683308e-003,
          -1.6445871289327907e-001, -3.2988802595779432e-001,
          1.1994950529411873e-002, -2.0598102552526362e-001,
          1.8698223061087080e-001, 1.7761121353687639e-001,
          -1.1351057995817985e-002, 1.2762398512436229e-001,
          8.1359637246919483e-002, -1.4837121783261110e-002,
          -4.1263051263330297e-001, 1.1070261221396854e-001,
          3.1648304362069141e-001, 5.7728358419426717e-001,
          -5.6919037159326252e-002, 1.3936555559294975e-003,
          7.9215860216878353e-001, 1.5161245933037987e-001,
          3.5382336440346114e-002, 4.6958552059448111e-001,
          -4.1000258801738887e-001, 6.0038672694183803e-001,
          -1.1338932325789145e-002, -2.2657852566409037e-002,
          -1.9915027823254794e-001, 1.5190792881133857e+000,
          2.1725114352429151e-001, 1.7153172168376138e-001,
          -3.0062981389708497e-002, -1.5805820468092210e-001,
          -8.5649967692655697e-003, -2.0316997292563674e-001,
          5.2292878173961321e-001, -2.1239615052401541e-002,
          2.0533340164836270e-001, -1.6879495662346537e-002,
          -7.0678765665576043e-002, 1.3729101588581172e-001,
          2.8487975260460868e-001, 2.0051162191516639e-001,
          -1.0572326025828509e-002, -7.9682031175688658e-002,
          8.0833634514270655e-002, -4.0044877895722908e-001,
          -3.8016751539355298e-002, -1.8439286552924952e-001,
          2.3605859024156192e-001, -1.2041223419169853e+000,
          -4.8841288437419711e-001, -8.6451884827565256e-003,
          -2.1903527581353499e-002, 3.1808310875524726e-001,
          3.5592727556402187e-001, 7.3350351626100863e-001,
          -5.9356921105797295e-002, -7.6691615729528442e-002,
          -4.7264475112972798e-002, -5.8117403761080901e-003,
          -2.4841054185376621e-001, 6.7700557252393756e-001,
          7.9415048124455087e-002, -1.1466082996796771e-001,
          -3.4301291413971724e-001, 7.9096703172287508e-002,
          3.1717505480696191e-002, -1.2081957025970030e-001,
          1.3905996523053515e-001, 7.3983495758044859e-002,
          -8.1247764621287452e-002, -4.5323027536904081e-001,
          9.4067850783465551e-002, -2.1345414844419214e-001,
          -2.3937603295306956e-001, 4.7660748924424312e-001,
          -1.1475859633236525e-001, 3.0776639761634478e-001,
          1.5947599675135987e-001, 1.5213181168199724e-002,
          -3.4616270393028292e-001, -1.6981375481984912e-001,
          -1.0060296833731676e-001, -1.4758526916687614e-001,
          2.1739219643722271e-001, -4.3648493070491362e-001,
          -1.1132003858134856e-001, 2.1861257285607266e-001,
          2.8771295639177390e-002, 1.5653695990443250e-001,
          5.1607076429166354e-001, -7.4767393823184577e-002,
          -2.9260739337050057e-001, -1.0653246745396645e-001,
          -1.5792328181970537e-002, -6.1295558903576419e-001,
          5.4866096912937146e-001, 4.4910588879320013e-001,
          8.3626277137715491e-002, -1.6719466800005403e-001,
          -3.9397710575928002e-001, -8.3882850000699449e-001,
          1.9729687450709318e-001, 3.0899552020277530e-002,
          -1.8399830996251587e-003, -2.7745630511482328e-001,
          9.0514002233695254e-002, 1.3798518478805968e-001,
          -2.8183126043251966e-001, -1.6273918289958944e-001,
          -6.7101040067657118e-003, -9.9957895206909542e-001,
          4.0714948388910416e-001, -2.0241387064618619e-002,
          -1.4078681603443410e-001, 4.6529173265113702e-002,
          -6.2046219124386418e-002, -7.4970802150288007e-001,
          -9.7905692443722939e-003, -1.1407111281040275e-001,
          -2.2790349905557858e-001, 1.0251902539795904e-001,
          5.3354703062640597e-002, -4.4459974204585292e-002,
          -4.4715551696104692e+000, -1.5479129978053546e-001,
          1.7692460564191402e-002, -9.1477797137275829e-002,
          3.8433773501603147e-001, -3.2121629599402973e-001,
          -1.2302122038916100e-001, 8.3808779556731272e-001,
          4.0402345088027349e-002, -6.0725249832545647e-001,
          -1.0159192097284509e-002, 9.6152275946496141e-002,
          -1.6342443848177339e-002, 4.0059481743384051e-001,
          -2.0771641550466385e-001, -3.0414796367127633e-001,
          5.4078781416200283e-001, -2.8371842874027015e-002,
          2.0795573085180680e-001, 4.1953483293403371e-002,
          2.2269104807121423e-001, 4.9947388741017129e-001,
          5.7594275186131645e-002, 6.0545838821755238e-001,
          -8.9288327896786632e-002, 1.4075355831624523e-001,
          -3.7517864804953255e-002, 1.3464512799761708e-001,
          -1.0047543817287494e+000, 3.6672736309135934e-001,
          -1.3519148220543800e-001, -1.6218564254544102e-002,
          -1.2007855162481178e-001, 1.2356834213408152e-001,
          1.0916132499094039e-004, 3.1575976959659345e-003,
          3.5409466885329716e-001, 9.1210695963954355e-002,
          1.4893662874320195e+000, -2.1091763984903839e-001,
          -1.4240145232532117e-001, -3.1439681909245792e-001,
          3.1627060877550511e-001, -4.2811628131480206e-002,
          1.1278128539203341e-001, 4.0926145174506134e-001,
          -1.2739797610134948e-001, 5.2852794675967962e-001,
          4.0661803125469423e-002, -4.2568258999346248e-001,
          -1.1781228720578725e-001, -2.6737153687266629e-001,
          -1.1990172764078810e+000, 9.3871931612719325e-002,
          3.4725656245795949e-001, -2.7872391240068728e-001,
          -2.0055369673419665e-001, -1.1235305781632929e-001,
          7.5665668788919435e-002, -1.7465307016161519e-001,
          1.6048072961765022e-002, -1.0305163696041818e-001,
          -1.3434764592183659e-001, -2.8213954475795938e-001,
          1.5473610912585520e-001, -3.0439608802758994e-001,
          1.2099808348129236e-001, 4.1672265958017368e-001,
          -6.3457109943633849e-002, 3.0614821232494815e-002,
          3.1630215359732339e-001, 8.9551170488854970e-002,
          1.3540328491984485e-001, -2.0014309538240560e-001,
          1.4185562562910739e-001, -2.4093098130790314e-001,
          1.1125854645848110e-001, -5.4703123574596059e-003,
          -3.2054406244204370e-001, -7.2176782816863988e-002,
          9.1471369283268766e-002, 8.4798670978842666e-002,
          -1.2245360591940291e-001, 8.4571201324864662e-002,
          1.0049464201228309e-001, -1.1102100778416957e-001,
          1.5890802328119213e-001, -9.9376814629270060e-002,
          -1.4408139324258065e-001, 9.3355004245702908e-002,
          -6.4181960831671561e-002, 3.7935087471116215e-002,
          -1.2326164602742332e-001, 2.4143342362943443e-001,
          1.9807469953484114e-001, -3.3799207777687024e-001,
          4.7874818167305472e-001, -1.1446322367891711e-001,
          -1.9662930110266225e-001, -3.4895985690423487e-002,
          3.0715238766924274e-001, -2.4709860688358559e-001,
          1.2015245395880159e-001, 1.0885403520814446e-001,
          -2.0079937448254914e-001, 6.4480854666427126e-002,
          4.3672984161911843e-001, 1.2490570128773325e-001,
          -6.0837427718140283e-002, 4.2422153067680324e-001,
          6.7738993711176365e-002, -3.3830667855274105e-001,
          9.1519829300936259e-002, -3.1258643856444923e-001,
          -2.6502122548987161e-001, 1.0894158436169937e-001,
          1.2389015399300356e+000, 5.0876410643360811e-004,
          -8.8766973430866564e-002, 1.6833600750237454e-001,
          5.7300461125493293e-002, -2.9015570950444280e-001,
          1.2966748699706292e-003, -3.7726178703571265e-003,
          -5.0795118903499199e-002, 2.3630810025714061e-001,
          2.4427454899207263e-001, 2.6456223813356727e-002,
          2.1831515555130851e-001, 5.4922965091812070e-001,
          4.3702515636755965e-002, 4.6036425397458933e-002,
          1.5893409112853379e-001, 5.8951065637133004e-001,
          -5.2525330154965376e-002, 1.4272759362732068e-001,
          -1.8199092534392017e-001, 3.1641001998450718e-001,
          -4.5762324857688136e-002, -1.0934907979626148e-001,
          -2.4061783063973954e-003, -5.0297486545265446e-002,
          1.0601568572827831e-001, 1.0214383879409403e+000,
          3.5765603319022482e-001, 2.6510040216186311e-002,
          1.3130538768873024e-001, -4.9539574922713148e-001,
          -3.3703786390466756e-002, 7.1275425090143771e-002,
          -3.3663097642937539e-001, -3.2592247191412183e-001,
          -3.4425486702103608e-001, 1.5509176504992275e-002,
          2.2857162855685773e-001, 1.3308184440793019e-001,
          6.7915665754865728e-001, -8.0794990741577510e-001,
          3.1355009125419381e-001, 3.3091566974835418e-001,
          -2.9762905363802955e-001, 1.3210262345780122e-001,
          -2.5564159550477172e-001, -1.1419549831187795e-001,
          -4.4139761956294411e-002, -7.4171014653260856e-002,
          1.9603697496286740e-001, -4.4523199530610097e-001,
          8.7411035772600854e-001, 3.5063874573084453e-001,
          -1.1727069570898278e-001, -5.1265833849853404e-001,
          1.0964790455014310e+000, -7.1478839363800684e-001,
          1.3621765025485710e-001, -2.3597977937567245e-002,
          1.0537429552410182e-001, 1.9096021384855469e-001,
          1.1669518284824491e-001, -7.9654422365432451e-002,
          2.7383966845947699e-001, -2.7129931517080531e-002,
          1.0176825003626115e-001, -2.3781729464242402e-001,
          1.6719071126194515e-002, 5.7333357314471790e-002,
          -1.6539732625865611e-001, -7.9068620078024829e-002,
          4.1508118833147006e-001, -2.7125359177944488e+000,
          3.1260313493173841e-001, 3.8911256361291544e-002,
          -1.5570953393918984e-002, -7.8750616639901239e-002,
          -3.6004406269543127e-002, 2.9995408409273949e-001,
          -2.1349912107873181e-001, 2.3326118652905441e-002,
          -7.0232416647350582e-002, 1.3831657796841110e-001,
          2.9168479746660625e-001, 3.9259961830132792e-002,
          1.7961206340547803e-001, -1.8130028748206153e-001,
          1.1043058504017142e-001, -2.9193703514596531e-001,
          -2.6430475921650842e-001, 5.7055451156471138e-001,
          2.5917686311782950e-001, 3.0392869510301385e-001,
          3.1374248699681480e-002, 1.3356371021138033e-001,
          -2.2255219872386177e-002, -2.1485644665688897e-001,
          -3.7133841845560273e-001, -1.6483867710618033e-001,
          2.1260577389146812e-001, 3.9007433407540072e-002,
          -1.2584576273548817e-001, 3.3990022069778233e-002,
          -1.4591520861037446e-002, 2.1507690252685459e-002,
          5.1627100177542795e-002, 1.6441874879468651e-001,
          -1.7496555464557204e-001, 6.9486080979262121e-001,
          -2.4979190612528329e-001, -1.7201351348473876e-001,
          -2.2702614793392675e-001, 4.2216993851235052e-001,
          2.0889817655959576e-002, -1.3160186598150819e-001,
          3.7522783414505428e-001, 2.8037611517362789e-002,
          -9.9154231273504811e-002, -5.3416453560580029e-002,
          1.8949254478980958e-003, -8.9812211845670259e-002,
          -2.8382692005252219e-001, 2.8536113253044115e-001,
          -4.1045442531689280e-001, 3.0500897196376289e-002,
          2.5119179681326465e-001, 1.1301641124865912e-001,
          -3.1183186046107597e-001, -4.1274059503699431e-002,
          2.0966166747206343e-002, 1.0038244022982644e-001,
          -1.3998966732537063e-001, -2.6483458129170545e-001,
          -1.2965682020631075e-001, -9.3178723669669353e-002,
          4.0792500975717511e-001, -2.5155552516906909e-001,
          -1.5076694355857745e-001, -6.4510510977946134e-001,
          -1.0584067328798222e-001, 5.5615540318262026e-002,
          2.3762985339165965e+000, 2.4873529578066964e-001,
          2.9938953506422734e-002, -1.4958543628545601e-001,
          2.1848186418673279e-001, 1.0248205117220070e-001,
          1.0812471786533323e-001, -1.0233886812114709e-001,
          -1.0215291052771910e-001, -2.8795783330639274e-001,
          -2.5441273991658708e-001, 4.5589482984338514e-001,
          -3.8986350151732641e-001, 2.0854543836690058e+000,
          -5.0620093638123942e-001, -4.4805989148220615e-001,
          2.4010295411748234e-002, -5.9512120089389686e-001,
          -3.4933744413643594e-002, -3.2784402195591683e-001,
          4.0994187322543507e-002, -1.3416479069830545e-001,
          1.3507605089642280e-001, -2.8888510100356712e-001,
          1.2826273755182493e-001, 5.4923435671195076e-001,
          -1.5433719962598532e-002, -9.9976529957474969e-001,
          1.6198863949874576e-002, 2.7889219836962859e-001,
          2.9225356310749101e-001, 1.0819179758175800e-001,
          1.9362525438758169e-001, -1.6023666865581279e-001,
          1.5393068726196120e-002, -3.3292668935507019e-001,
          -2.1037819139777886e-001, -8.3035243307632151e-002,
          2.8879828150137753e-002, 6.8923579169396110e-001,
          2.1216368891503617e-001, 3.7008067247692726e-002,
          5.9657030348855375e-002, -8.1105297785850705e-001,
          1.0920362324503051e-001, 3.8899608805086988e-001,
          -2.8020063851996974e-001, 9.8039619108107240e-002,
          -9.1235892139270747e-002, 3.8683076869201638e-002,
          -1.1847040151183859e-001, 7.5233397453602524e-002,
          1.0484533255851317e-001, -5.8281632668443917e-001,
          8.3540828446179849e-001, 9.4163621137898765e-002,
          -5.1118739183076800e-002, -1.6210082625614247e-001,
          1.1620497022561722e+000, 1.1359517353589522e-003,
          4.9073175765857215e-002, -2.2527044656706362e-002,
          2.1443283526877327e-002, 4.9950631350185626e-002,
          7.4560107614654203e-002, 2.0744386164903145e-001,
          -8.8726233627187123e-001, 1.2376865893013755e-001,
          -1.4972171679933788e-001, 1.2214706481357676e+000,
          7.1559782118498311e-002, -1.2160337469272765e-001,
          -6.3857791289848642e-002, 3.9502673087961807e-002,
          -3.2052215727873229e-001, -9.5272700720214742e-001,
          3.4810764488691537e-001, -2.3790415989007827e-001,
          1.0159113293701409e-001, 1.0834110127591370e-001,
          3.2033143689936977e-001, 4.3222400210670486e-001,
          -2.8036154278555450e-002, -7.8560605153264440e-001,
          8.6344997397476753e-002, -3.3477391848047273e-002,
          4.6743362051441273e-001, 4.8279897522574844e-001,
          1.6634778405131296e-002, 1.7706574976544509e+000,
          2.9540478670906628e-001, 6.3500865044789845e-001,
          -3.6437980903457144e-002, 6.2761333475055936e-001,
          -2.3433963007221992e-001, 3.0804558717475850e-001,
          -4.6218617498153636e-001, -2.1575542995528160e-001,
          -9.2354724524650586e-002, 3.3424125350375655e-001,
          3.3467195286388601e-001, -5.1755422645694305e-001,
          1.1809623788465259e-001, -1.1755758082455828e-001,
          -3.9184412425945708e-001, -4.8816538675833132e-001,
          9.8536882035554371e-002, 5.1817661538758095e-002,
          7.9333572549056697e-003, -1.5168415681915770e-001,
          1.9377625080424235e-001, 3.0143073971819384e-001,
          -1.0109539595276246e-001, 2.8435226391606100e-001,
          1.7752665103090681e-001, -1.6191529729491319e-001,
          -8.0992979610980648e-002, -6.5396695110347666e-002,
          -3.6520925778240038e-002, 4.5708415309849884e-002,
          3.4457668478374703e-001, 3.2849287328618954e-001,
          -1.3829064077146302e-001, 4.4372875833698266e-001,
          4.1239057574722862e-002, -1.7799247610195096e-001,
          -4.1221808173743921e-002, -2.2893711696808405e-001,
          2.0434494071452117e-001, -2.0022504140669889e-001,
          9.3996359465949711e-002, 6.9700568121929107e-001,
          9.8955702149319841e-002, 1.4266141150189379e-001,
          6.4113468497907000e-002, -1.4363148210715315e-001,
          -1.1137805312972093e-001, -1.1289510224244692e+000,
          -3.8323844573615429e-002, -2.4857246505872729e-001,
          -3.3430822801279064e-001, -7.0055460080271392e-001,
          -5.5223500363612010e-002, -2.9763314255328804e-001,
          -1.0904927606792361e+000, -2.6059578793725396e-001,
          7.2878747067686689e-001, 1.6394865262076141e-001,
          -2.0347094252666664e-001, -3.8138583186356489e-001,
          -1.0498125069233942e-001, -2.8274442029794953e-003,
          -1.3172402898821731e-001, -1.1705424356831805e-001,
          -2.4279068459112987e-001, 4.3394010666099919e-001,
          -2.6960799273090225e-001, 4.4081474676931276e-001,
          5.0498587396693065e-002, 3.2102732724676669e-001,
          -1.6994470833353054e-001, -1.7874031546876876e-001,
          1.3603885704591079e-001, -7.2001100119466919e-003,
          -1.0425238363121803e-002, 1.1484776271960293e+000,
          -1.2839241745749219e-001, 7.8701914275940577e-001,
          -8.8269023899312613e-002, 2.6771036443435103e-001,
          1.7236267135260544e-001, -3.0396757088773591e-001,
          -7.3780825206220285e-002, 7.1360032823966815e-002,
          9.6406107409316252e-002, -1.0488863379240029e-001,
          5.2058332265140943e-002, 4.5686171653500258e-004,
          -5.5653003809331900e-002, -7.7154153944156215e-003,
          -7.4343784970546278e-001, -1.2749895789065807e-001,
          8.0227092661949759e-002, -1.3921041887271397e-002,
          1.6301729950903004e-001, -4.1979385770159861e-002,
          -3.9415442938060943e-002, -2.1857675285559688e-001,
          -2.5803916727112637e-002, 3.2527665759707663e-001,
          -3.5084402416754784e-002, 1.4273033686391765e-001,
          -8.7142155897205670e-002, 4.6931503640271259e-002,
          -1.4558062738241132e-001, 4.7044629790846434e-002,
          3.3101169898576560e-002, -1.7636233471624865e-001,
          3.2622571465173683e-001, -2.9486975932188048e-001,
          -2.7295359890520739e-002, -9.7152472280836052e-002,
          1.1086597081237189e-001, -3.2708216139887746e-002,
          -1.1573231915774761e-001, 9.1481806878232430e-002,
          -6.2741364332972463e-002, -1.2862470586558322e-001,
          6.8887581322524857e-002, 2.4283397558443959e-001,
          -4.8721459421769892e-001, 4.8462544064384006e-001,
          9.6635439482196905e-001, 6.8282387403543887e-001,
          1.0409262387954840e-001, -1.9998202416122357e-001,
          1.7354436995618591e-001, -2.0245200047431300e-002,
          -4.7238756231870471e-001, 2.5134045036242513e-002,
          1.5812056507381198e-001, 2.1499953494938770e-001,
          -2.1847724110939298e-001, -2.3416381416572876e-001,
          6.2989326058118897e-002, -4.2099337028619616e-001,
          6.2219140436196863e-001, 6.5843660053443595e-002,
          1.9204571878596749e-001, -5.5123268510709267e-001,
          9.3591805140091675e-002, -2.1462260793092608e-001,
          -2.3096017256341550e-001, 5.5249988560691576e-001,
          -1.0437499936467887e-001, 2.8328160432374910e-001,
          3.8532011404487548e-001, -1.7806359524105680e-001,
          -7.2999402319526993e-002, -5.6077149306374230e-001,
          -1.0762172419999690e-001, -1.8166876077685121e-001,
          1.0389290252195842e+000, 1.3352614866893028e-001,
          1.6099120731946814e+000, 6.9235053504412691e-001,
          -9.8656118962724770e-001, -1.9583629732946257e+000,
          -1.1579660561701294e-001, 7.8256255713868794e-001,
          -1.0340243880808502e+000, -1.3168691903046299e+000,
          -2.5824426021319208e-001, -6.7985332352907865e-002,
          -1.4994097137929820e+000, -7.2994887284082455e-001,
          1.0350465746771467e+000, -1.1382622406843497e+000,
          -1.0915536960153953e+000, -5.2713817356251080e-001,
          1.0283012607999997e+000, 5.7086244818606868e-001,
          1.2990456904313281e+000, -1.1038180010358039e+000,
          1.4368536469121913e+000, 1.1206339193770940e+000,
          9.6551201634316064e-001, 9.8965134246011588e-001,
          -9.8719506620509434e-001, 6.3828011733169399e-001,
          1.9532612075304623e-001, 6.2863821999418801e-001,
          5.9484015298083603e-001, -7.8738651153487493e-002,
          -6.5944230605991128e-001, -3.6942167687927924e-001,
          -1.0548255676375557e+000, 1.1479037331166930e+000 ]
      - [ -4.0187642627823705e-001, -4.5555335589915519e-001,
          -5.5423640517082884e-001, -1.1575199215870797e+000,
          9.4427951855004233e-001, -1.5291927067562938e-001,
          -4.1446953890088556e-001, 2.3737894738915563e-001,
          1.1906934819684660e+000, -8.6569533248052755e-001,
          2.6968647325233347e-001, -1.0372961142458883e+000,
          -9.2492923259341706e-002, 1.4840137684863805e-001,
          -2.5609340837330006e+000, 9.7118043416064437e-001,
          -6.2945200307369586e-001, -2.7694557378489371e-001,
          -6.7906233428121809e-001, -1.0411305945417880e-001,
          5.4465624460447182e-001, 3.5867486569434398e-001,
          1.5488450265958320e-001, -5.6234844110549931e-001,
          -4.7656325300675657e-002, 4.2140970151942964e-001,
          6.3621695180758842e-001, 1.1361866394315694e+000,
          1.1340983695542364e-001, 8.7969797385603887e-001,
          9.1176772888523328e-001, -6.3675084944818022e-002,
          2.8802682776726751e-001, -6.3023441041090145e-001,
          3.2292618479029067e-001, 1.1816193518790200e-001,
          -7.6870720493211198e-001, -6.7613939115501898e-001,
          3.2529172517720212e-001, 3.3402237433344123e-001,
          4.1969286855310195e-001, 8.0828665776825304e-001,
          6.2205733290836218e-001, 6.9826101300072629e-001,
          -7.9369859488638772e-001, 5.6235486559569825e-001,
          2.8523536664005755e-001, 4.2184704992234717e-001,
          1.0399437514197416e+000, 1.0616470272317599e-001,
          4.1665257926638516e-001, 9.5638780105468157e-001,
          -8.8342390552784900e-001, 7.5160877115061309e-001,
          -5.0906397983023832e-001, -2.9558533211570986e-001,
          6.6934208195656542e-002, -4.6080029057070621e-001,
          1.0557023753278791e+000, -2.6510546027091220e-001,
          -3.6615827995058886e-001, 6.7403922093988200e-001,
          1.6201226314621504e+000, -7.3969459731570564e-001,
          1.2689698994129894e-001, 7.2440356532726036e-001,
          7.4563685553669912e-001, -2.8937929165496706e-001,
          -7.5838447243962015e-001, 3.8042311937690376e-001,
          2.9160421477615866e-003, -2.3083618435215950e-001,
          -1.0910179627086063e+000, -5.0342023187981844e-001,
          5.9678374078497276e-001, 8.8177596905604017e-001,
          -2.3278778670728209e-001, 9.6382936044903700e-001,
          6.5321311199441545e-001, 1.9754513170857360e-001,
          1.5700861737943701e+000, -1.2820121320189422e+000,
          8.1933834782813464e-001, 8.6638361086866256e-001,
          1.3894534924138430e-001, -3.0858132925030574e-001,
          3.6772191093105433e-001, 2.7417213791219003e-001,
          6.7808153911978009e-001, 5.1773501327480642e-001,
          -2.7370093437823056e-001, -3.9065655578029157e-001,
          -6.6918807626980892e-001, -4.7400901543721546e-001,
          -2.5190493631064881e-001, 2.3040605396032277e-003,
          -2.1540301242971063e-001, -2.0542598576940632e-001,
          -5.5291074106107552e-001, 7.4769015859820043e-001,
          -3.2977272163480520e-001, 1.4574574155360457e-002,
          -7.2320216749719479e-001, 3.6013283355371944e-001,
          -1.0434660374165179e+000, 8.5670073271876246e-001,
          1.0105191259376354e+000, 8.5187707079182018e-001,
          -2.6711670847014302e-001, 1.9102713412344455e-001,
          -2.0954261091902845e-001, -9.0312450891182561e-001,
          7.8158690306994316e-001, -1.3532163821026685e-001,
          -9.3702957205346926e-001, -8.5138515045135832e-001,
          -6.0306525914464926e-001, 1.3237117719518978e+000,
          -2.1384933113948543e-002, -9.6916294821966265e-001,
          -7.7624942882623160e-001, -1.0800850390605665e+000,
          3.0007586345310594e-001, 1.6640288680013562e-001,
          2.1727116927504539e-001, -7.5759479540478059e-001,
          -7.8184772056225305e-001, 1.3169823874458672e-001,
          -7.7721008342843526e-002, -5.1267406322002407e-001,
          5.4585606691229693e-001, 8.1765739396178708e-003,
          4.2307784389300623e-001, -1.5646879008733261e-001,
          1.4809051240980628e-001, -1.6350804788848758e-001,
          -3.9236865178868530e-001, -1.1086556354351045e+000,
          1.4148989501083131e+000, 1.4798866928821808e-001,
          1.8743516948407573e+000, -5.8099688583791798e-001,
          3.4480617294356936e-001, -1.1108662592854359e+000,
          4.5498322260186791e-001, 2.6604629457667472e-001,
          -1.2422385462769236e+000, -2.5343667981823403e-001,
          3.3680132291707748e-001, 5.2640998431822683e-001,
          -8.4051575757709129e-001, -4.9175297088325021e-001,
          -5.8238368566663679e-001, 1.3953977868343781e-001,
          -3.8587051535588957e-001, -8.7703803057487684e-001,
          -3.3852409857082899e-001, 2.8797158648379790e+000,
          -3.7819123184638015e-001, 1.7819005988889074e+000,
          8.9479227196786149e-001, 8.0789690064942840e-002,
          3.9483672763677546e-001, -9.9675520980962784e-001,
          -7.8187308508455775e-002, -1.2740272245915572e+000,
          4.4930633272860052e-002, 1.0223284578819782e+000,
          3.9459813027850743e-001, -3.5212326023280616e-002,
          4.1919059424173821e-001, 9.0488032171130189e-002,
          5.7421046148383592e-001, 2.5589167459502821e-001,
          -5.3369437664293161e-002, -5.3616834378987555e-001,
          -8.0779097149848891e-002, -2.5153790878854748e-001,
          -1.1909270909778780e+000, -1.4263827830777147e+000,
          -9.8034748197896382e-001, -4.4468562916184166e-002,
          -1.2906221109013072e+000, -1.8003259509735665e+000,
          -2.1870544264444338e+000 ]
