%YAML:1.0
my_nn: !!opencv-ml-ann-mlp
   layer_sizes: !!opencv-matrix
      rows: 1
      cols: 3
      dt: i
      data: [ 64, 46, 5 ]
   activation_function: SIGMOID_SYM
   f_param1: 1.
   f_param2: 1.
   min_val: -9.4999999999999996e-001
   max_val: 9.4999999999999996e-001
   min_val1: -9.7999999999999998e-001
   max_val1: 9.7999999999999998e-001
   training_params:
      train_method: RPROP
      dw0: 1.0000000000000001e-001
      dw_plus: 1.2000000000000000e+000
      dw_minus: 5.0000000000000000e-001
      dw_min: 1.1920928955078125e-007
      dw_max: 50.
      term_criteria: { epsilon:9.9999997764825821e-003, iterations:1000 }
   input_scale: [ 3.2119236017965674e-001, -1.3093589620000201e+000,
       7.4597805745367995e-001, 3.4332004292338660e+000,
       3.6042005084701179e-001, 1.4044428424504705e+000,
       5.2300708047064071e-001, 1.2065075644936682e+000,
       7.2053278199222615e-001, -3.9569020033840230e-001,
       9.2844489983907785e-001, 3.2832088712780588e-001,
       8.3788040136032482e-001, 1.9104103413324736e+000,
       6.2880468711985715e-001, -1.4076448343936454e+000,
       7.9182986453864290e-001, 8.3492982550582051e-001,
       9.1248569153840875e-001, -1.2717485953917604e+000,
       7.9604198444964935e-001, 2.7471713293922712e-001,
       1.3698408296816107e+000, -1.2447091608116376e+000,
       1.2723836261583910e+000, -2.8934226850556697e+000,
       9.1692018680762766e-001, 8.9244500788217795e-001,
       8.3454968921235162e-001, -1.4212866787369962e+000,
       1.0140766184982264e+000, -1.4073597006645600e+000,
       1.0231394761607757e+000, -1.6566834031225912e+000,
       7.7646808186672633e-001, 6.8403371956915274e-002,
       1.1919234591406547e+000, -1.4311307513542415e+000,
       1.1470856496679198e+000, 9.5720116580596495e-002,
       1.1574719256163399e+000, -1.4628503384720393e-001,
       1.4516084381555721e+000, -1.4358281887843287e+000,
       1.4984742026905753e+000, 1.1337848086234603e+000,
       1.5493998731424490e+000, -1.6015394350814263e+000,
       1.8941135193437522e+000, -4.8684202121145587e-001,
       1.3128260274078702e+000, 2.4495554538126139e+000,
       1.4729293534590329e+000, 1.0802677653676893e+000,
       1.2398600257131545e+000, -3.8097640932233709e-002,
       1.4818763768441561e+000, 1.2604604758841740e+000,
       1.4767171964645607e+000, -4.7637476297189069e-001,
       1.4739067816353637e+000, -1.7205621313494179e-001,
       1.3822960735655982e+000, 9.8990519803812538e-001,
       1.8867554527618910e+000, 2.6339993842437293e-001,
       1.1350110384348882e+000, -3.1214349277889358e-001,
       1.6254022403012447e+000, 8.7391027182280090e-001,
       2.0409600366765370e+000, -7.0828474734492242e-001,
       1.5745735543999322e+000, 1.7950375352188397e+000,
       1.4956459368002570e+000, -1.5552877249837085e+000,
       1.8305067159165183e+000, 1.2916780421712626e-001,
       1.8453909336986936e+000, 1.2306492566038947e+000,
       1.5657214961284185e+000, 1.1458918948984196e+000,
       2.3911363329008326e+000, 1.6009927615127947e-001,
       2.7520832848593328e+000, 4.2681089221274872e-002,
       2.1428966063241557e+000, 1.5447129306686482e+000,
       2.1606305577932292e+000, 7.4643787100669223e-001,
       1.9714549558764700e+000, -3.5017276125342792e-002,
       1.8981697909375850e+000, 9.5836207709820112e-002,
       1.6067782804996051e+000, -2.3849189980070833e-002,
       2.0931129137391080e+000, -1.8124978532018050e+000,
       1.7924115136591945e+000, 3.7679854151790827e-003,
       1.8910621535607541e+000, 8.0865078414854452e-001,
       2.5575370557813755e+000, 1.3146823026985541e+000,
       2.2590509938413459e+000, 1.4047026128722737e+000,
       2.5309462133504930e+000, 1.3597520219399988e+000,
       2.3275002519738903e+000, -5.2821559896033643e-001,
       1.8496022469084688e+000, -1.1010652278354180e+000,
       1.0658827378404521e+000, 7.4085167116822026e-001,
       2.4392491410448742e+000, 5.6308751611824370e-001,
       1.9059616257514502e+000, 3.1719129915537764e-001,
       1.9709248567692770e+000, -3.9393968624266901e-001,
       1.9120827337173729e+000, -1.5751275460901599e+000,
       2.6952439244162765e+000, 7.0087397345009661e-001,
       1.6290192512440345e+000, 6.1285081873885427e-001,
       2.4170113574276102e+000, -8.9590780881793486e-001 ]
   output_scale: [ 5.2631578947368418e-001, 4.9999999999999994e-001,
       5.2631578947368418e-001, 4.9999999999999994e-001,
       5.2631578947368418e-001, 4.9999999999999994e-001,
       5.2631578947368418e-001, 4.9999999999999994e-001,
       5.2631578947368418e-001, 4.9999999999999994e-001 ]
   inv_output_scale: [ 1.8999999999999999e+000, -9.4999999999999996e-001,
       1.8999999999999999e+000, -9.4999999999999996e-001,
       1.8999999999999999e+000, -9.4999999999999996e-001,
       1.8999999999999999e+000, -9.4999999999999996e-001,
       1.8999999999999999e+000, -9.4999999999999996e-001 ]
   weights:
      - [ -1.9234146917844325e-001, 7.5415696006341515e-002,
          3.7352903656003029e-002, 5.1011245761448354e-001,
          2.2692083490877837e-001, 6.2600183801389236e-002,
          -2.0189731104937239e-001, -1.9214111478528620e-001,
          -6.3714453923468195e-002, -8.1103873994812559e-002,
          1.2604159795402661e-001, -1.8189119477589541e-002,
          -5.2170111003966257e-001, -1.1763975162486601e-001,
          4.2061268912084761e-002, -1.3144411328927827e-001,
          -2.2419906714554350e-002, -2.1806125683979100e-001,
          5.0512389055707908e-002, -5.9020897176897250e-002,
          1.0429553793860318e-001, 1.7234990774351297e-001,
          -2.9276557804815040e-001, 2.2030301068178224e-001,
          -3.0730730732888550e-001, 1.4672976164774021e-001,
          1.0191023190752053e-001, 8.0455387929060207e-002,
          -8.2098016067585572e-002, 1.5804424434768011e-001,
          -1.6203710965921317e-001, 5.9181177756133650e-002,
          -6.1670260800937064e-002, 2.4232026880553870e-001,
          -8.8753150684906273e-002, 2.4581018825075632e-001,
          4.5038674646642174e-001, -5.3412973753290301e-002,
          -3.2748839216572852e-002, -3.2450176616470627e-001,
          -2.3850736733357303e-001, -4.9133786315626045e-002,
          -1.9581678358729229e-001, 3.1783515495189929e-001,
          -1.5396226131284979e-001, -7.0077954357840838e-002,
          -1.0436901781565587e-001, -1.5380728076120434e-002,
          -4.9213003959572643e-001, -3.5016153285921359e-001,
          2.0493015566774164e-001, 7.2928053814008531e-001,
          -7.9963660987673629e-002, -2.4924100201320856e-001,
          -2.6730122146232560e-001, -4.2551133432102051e-001,
          4.0843213162184966e-001, -1.7344592464801656e+000,
          -4.4375241824558964e-001, -5.6513726308890344e-001,
          2.1843190201839127e-002, -7.7480076165939216e-002,
          2.7309017855031209e-001, 3.9254719371521904e-002,
          4.4485448582234155e-001, -2.1874993078917301e-001,
          1.3878113353810408e+000, 2.6060148903351588e-001,
          -2.3824932619811234e-001, 2.3734520443112531e-001,
          -3.5222403161625315e-001, -4.3966500471373335e-002,
          1.7240866107008074e-001, -2.4467779129621514e-001,
          4.7643926873587250e-001, 4.0640679234557353e-001,
          -1.9604403081769384e-001, 2.5395358273298579e-001,
          5.4931328728383161e-002, 1.7286145730950964e-001,
          -1.5236511284329271e-001, 2.2886712153235494e-001,
          2.3081913857978717e-001, 7.3245518159279110e-001,
          -1.0021014343321451e-001, -1.1093239318314288e-001,
          4.2701788227073267e-001, -1.1125004358775898e+000,
          -1.7930312342808560e-001, 5.5578205528929758e-001,
          -3.5230711508243440e-001, -1.1481529034519947e-001,
          2.2468831146581728e-001, 2.7616657933762678e-001,
          -1.4463816915110653e-001, 3.2117937025822041e-001,
          2.3228226647202030e-001, 2.3454461561896900e-001,
          3.6537907146241350e-001, 1.0871766490041637e-002,
          3.6643965146939583e-001, 3.0239753077170578e-001,
          1.0179878208850737e-002, 5.8626664562843112e-001,
          8.9720842641549253e-002, 1.4916795966757687e-001,
          2.8280501064127789e-001, -2.0660189114490046e-001,
          9.8263394654031389e-002, -1.8198268017488708e-001,
          -4.6666853016586118e-001, -8.7912400960587417e-002,
          -9.5461361529175437e-001, -1.4264895924901649e-001,
          2.8925424470880168e-001, -1.4010272129621920e-001,
          9.1871898286162573e-002, -1.9500398407421635e-001,
          1.0831533017052949e-001, -2.0337921079413068e-001,
          -7.8354863045043549e-002, -2.2740501985137893e-001,
          7.8310744917940517e-002, -2.1074023844423465e-001,
          3.1995947955469933e-001, -5.7685329821653109e-001,
          3.3746719693153637e-001, -6.1848414715829092e-001,
          -2.4222458323659488e-001, -5.0871619554148617e-001,
          2.9395206990149780e-001, -6.0078289124174167e-001,
          -1.8940191583754546e+000, 4.9614157554613236e-001,
          -2.2575725839240710e-001, -2.5887202180344104e-001,
          3.2579902386386494e-001, 4.2420967308860698e-002,
          8.4042293408776586e-002, 7.8565883311126752e-002,
          -5.0365460827389064e-001, -2.0747417535537332e-001,
          1.1715741821791337e-001, -2.4871467699077099e-001,
          1.4543569854509156e-001, -6.4955335950792351e-002,
          7.3913204181375636e-001, 3.8184186773744183e-001,
          -1.0265521422840979e-001, 1.1234754990349238e-001,
          2.5314879273031221e-001, -1.0921071619983413e-001,
          2.9318531942985082e-001, 2.4315158555441019e-001,
          -4.3200449648055923e-002, -1.5489827477703483e-001,
          -4.7805671725874832e-001, 4.9059038812870416e-002,
          -2.0874338612549023e-001, 1.6864440299489625e-001,
          5.1496917752118709e-001, 2.4855322327063637e-003,
          -1.0924702946547601e-001, -1.6203350595887944e-001,
          1.7663864826364609e-001, -1.1919884084261588e-001,
          5.7358847464631810e-002, -1.2378313794476792e-001,
          1.7085184841005280e-001, 1.3215717146860394e-002,
          1.2788725505743326e-001, -9.8908464096170212e-002,
          3.6480917247480837e-001, -1.0498432175993955e-001,
          -6.1056455780582962e-002, 1.4252233973246348e-001,
          5.2627919235318767e-002, -6.1718552372132682e-002,
          2.0180148932985462e-002, -3.8531556842679081e-002,
          -4.5881161415256833e-001, -2.3186425143043204e-001,
          4.0823601741103072e-001, 1.5033806163163929e-001,
          8.6065276442250718e-002, -2.0091228014252499e-001,
          9.4748586188962050e-002, -2.1933133894210277e-001,
          -2.5496976073808996e-003, -4.5124033550095632e-001,
          2.6646113050498084e-002, 2.3800882830268025e-001,
          -5.9453800887882338e-003, 1.1801381283910581e-001,
          3.3121604386248560e-001, -1.6207498725730116e-001,
          1.9731535050160970e-001, 2.3911733063162252e-001,
          3.3083373070618607e-002, 5.0722268852346861e-002,
          1.3962359673635797e-002, -1.1205744914911628e-001,
          1.6653516149068734e-001, 6.8611763496421785e-002,
          -3.7597142876886580e-001, -1.3390064557338635e-001,
          1.6350672256293938e-001, 3.7755688479155669e-001,
          1.1176197861380681e-001, -3.5453325515836753e-001,
          -1.0181349096301363e-001, 1.8693067098660857e-001,
          -4.7252298100202939e-001, -8.5997263451926154e-002,
          3.8650298135623845e-002, 7.8724910053811395e-002,
          -9.0687590127338000e-002, -2.6383183520477288e-001,
          3.4952537768782233e-001, 6.0494773907506190e-002,
          -8.9241627607909080e-001, 4.0327694047033173e-002,
          -3.3207816467701719e-002, -1.2706333534248243e-001,
          -1.1602864010102829e-001, 4.2800406692621383e-002,
          2.2657553539601447e-001, -3.0289543044355399e-001,
          5.0307184855886269e-002, 3.7713867713137039e-001,
          -2.8061356324651088e-001, -3.8113850732624632e-002,
          1.4179276362781629e-002, -2.7531643465192246e-001,
          -1.6149214750326668e-001, 6.7621106215133203e-002,
          9.9511621797286537e-002, -8.2206754589326719e-002,
          -3.6997596305143055e-001, -3.4388549369541588e-001,
          1.5093322733712605e-001, -2.8417080338721479e-002,
          -3.0187788835905754e-002, 2.1449764955250666e-002,
          -1.4539824434678503e-001, 1.0915865551577693e-001,
          1.9868139342546831e-001, 7.1065033384287823e-002,
          -2.0597496720344922e-002, -1.4108526665415899e-001,
          3.4021614576960552e-001, 5.0519364379373766e-001,
          1.0205265989807702e-001, 1.6812721662673877e-001,
          -1.8442124669752194e-001, 2.7603803500401464e-001,
          -4.4423071901983122e-002, 1.9522000341950368e-002,
          1.0203928016561642e-001, 1.6794353652689556e-001,
          -4.0385601927368259e-002, -2.9498155770328646e-002,
          1.7264539476952998e-001, -7.7266623688386452e-002,
          -1.0303761617008124e-001, 2.3318509169064022e-001,
          7.0080494310010163e-002, 5.3575229911269021e-002,
          -4.3814613614542690e-002, -1.4256913633943410e-001,
          3.6049909662123347e-002, -3.6269707818610769e-001,
          4.8403971757452285e-002, 5.1688242612867925e-002,
          -5.7228189810968677e-001, -3.4774210044949616e-001,
          2.5654813509027519e-001, -1.3473996356258874e-001,
          -2.7784831603131971e-001, 2.0481884195505638e-002,
          1.1906105056886099e-001, 1.2877802618538756e-001,
          1.1934246096206109e-001, -1.1801235700967111e-001,
          6.1707905681437643e-002, 3.3529896028710282e-001,
          1.9766762967399243e-001, 9.8721180733263747e-002,
          1.7066947113381400e-001, 6.1754801504937229e-002,
          -3.1004106999117237e-001, -5.9418128427346228e-002,
          -1.3089139818086576e-001, -1.7264398062799632e-001,
          -2.2642700222211293e-001, 2.3585086873348360e-001,
          -3.6287002039176736e-001, -5.2836135591936929e-002,
          -3.6170994868200884e-001, -1.6074291641486077e-002,
          -8.1757470410960570e-002, -9.4519982273942649e-002,
          4.8953853665013491e-001, -4.6902887956125006e-001,
          -1.8774834154765907e-003, 8.9986800828201988e-004,
          -1.9618827019184684e-001, -1.7695447154661850e-001,
          -6.4782878724992818e-002, -1.3424966733060845e-001,
          7.0312861706730193e-002, -9.1039872422914073e-002,
          -3.3531767609432506e-001, -6.0850148680285258e-002,
          3.7119925414166322e-001, 2.3268285836964786e-001,
          1.9227828095158004e-003, 7.0287893858816008e-002,
          1.3480341595515330e-001, -5.0095577513707794e-002,
          1.6883666322817811e-001, 1.5232503342525089e-001,
          -9.8026072484203003e-002, 2.3861172233763009e-001,
          -1.2483337486081529e-001, -2.5528197035051775e-001,
          -2.4507456354202062e-001, -7.1946342014287956e-001,
          -3.5401757172724341e-002, 8.7943205424978924e-002,
          2.1929609435807756e-001, -2.3954434236482669e-001,
          1.2589484946824006e-001, -5.9414406546430314e-002,
          2.6216914267971536e-001, -2.8428121582396276e-001,
          -2.7460932265545557e-001, 4.9496073892735248e-001,
          5.4648372992416328e-001, -6.4400085074586322e-001,
          -1.9141208660065470e-001, -1.9406472482088347e-001,
          -2.3865236692524491e-001, 3.0314809948182087e-001,
          1.5569955712940534e-001, 2.3031930532295367e-001,
          -1.9812915940532796e-001, 3.8891912187566441e-001,
          3.7089429819610831e-002, -1.9595621167284596e-002,
          -1.2830004565196229e-001, 1.0925940860537239e-001,
          3.7735729603145154e-002, 1.7936252565552782e-001,
          6.2754061722407009e-002, 6.6292218178047729e-002,
          -4.4059550996143243e-001, 2.7840169582158147e-001,
          4.3142870251549958e-001, 4.8633554456207839e-001,
          7.9843394975346385e-003, -1.9584222930614473e-001,
          3.2140227638215951e-001, 4.4784056401784407e-002,
          -4.4540810209351606e-002, 2.3988526137482324e-001,
          2.1956550336708089e-001, 9.8097850194735631e-002,
          -4.0252042034642121e-001, -3.8577397238367304e-002,
          -5.8403366661019374e-001, -5.6293510246293677e-001,
          -4.0943956902972212e-001, 2.8570152224277355e-002,
          -2.4950167033474846e-001, -2.5375886420295207e-001,
          -1.7951685676576357e-001, -5.9754186875117221e-001,
          1.6531261703980835e-001, -2.7703044334993865e-001,
          1.9374283497479772e-002, -3.2755572354502951e-002,
          1.9545453351229786e-001, -1.8890654569668586e-001,
          3.4862604543359244e-001, -3.2805261708701339e-001,
          2.6787783159433093e-001, -1.5120248807137375e+000,
          6.2258008810868337e-001, 3.4627420497172032e-002,
          1.0553651591799107e-001, 1.0270533104054038e+000,
          1.2774604197494679e-001, 4.2321743445784613e-002,
          -2.1986637858425817e-001, -6.4969915887356811e-001,
          -1.3654471409806937e-001, 1.6792521344915401e-001,
          -1.4653027138082336e-001, 2.7942215580086510e-001,
          -3.8650443972457138e-001, 6.1789883865997108e-001,
          -1.7655023639526740e-001, 2.5721739514881220e-001,
          7.8306867178904627e-001, 1.6533194129960707e+000,
          -5.0801860551793698e-001, 1.1418419461183017e-001,
          3.2339451954281534e-001, -2.2341214261026521e-001,
          -3.9047140451329163e-002, 9.0237644951607587e-001,
          -3.1949721812513648e-001, -5.8189822054512362e-002,
          -2.8209912405055344e-002, 1.9165941811712572e-001,
          2.5795423351759883e-001, -1.8217267371526963e-001,
          -2.0814006321054318e-001, -1.5938340884652999e-001,
          2.0580222207935893e-002, 6.2029185081973644e-002,
          1.0866237894565865e-001, -1.2135015314050944e-001,
          -1.4018394704775167e-001, 5.3738346215054661e-002,
          4.4479880992069765e-001, 1.9677127303212211e-001,
          -4.4765256025671496e-002, 1.0657657886253292e-002,
          1.2642222096045366e-001, -2.8677132557298124e-001,
          1.6635346643271731e-001, 2.7194642345008768e-001,
          -6.4385274639223389e-002, -1.0064806621827697e-001,
          8.4927750479019529e-002, 5.4034610261645730e-002,
          1.4139904512533430e-001, 3.2930836181709555e-001,
          -4.1976420673184722e-001, 5.6171521039656769e-001,
          -1.3139693038058714e-001, -1.8419637116340436e-002,
          1.8623093599695165e-001, 1.4874105758252287e-001,
          -7.9167117374349130e-002, 1.0217915157192034e-001,
          -3.9936980707780445e-001, -3.0289533322175177e-001,
          8.7246600981326500e-002, -2.3124136897629828e-002,
          -1.4470731352884320e-001, 5.9656852245094205e-001,
          -8.1689115355576297e-002, 3.4673150224364824e-001,
          1.3235258669770358e-001, -6.5152113948354809e-002,
          3.1020249028350394e-001, 3.4128308257164774e-001,
          -1.8581612630558014e-001, 6.8680417243882275e-001,
          -4.1963831383010042e-001, -2.4053416402000874e-001,
          -8.8049322942562666e-002, 1.1470519887157574e-001,
          -8.5366673784637526e-002, -1.9292023791449453e-001,
          1.0019413287530206e-001, -6.7147254526461531e-002,
          9.5817604909482629e-002, -2.5503219355638374e-001,
          4.0943403183576775e-002, -3.1546108233450743e-001,
          4.0543879053296011e-001, 4.9042718586313067e-001,
          1.5750904453994277e-001, -1.9001663974049685e-001,
          1.6651458271537070e-001, -1.8532292018731703e-001,
          3.4656286482630161e-001, 1.6804818096890134e-001,
          3.9745992717858381e-001, 1.7467461301494847e-001,
          -1.5038697445133234e-001, -8.3698207247380405e-002,
          2.7597178523492565e-002, -1.0760762857245811e+000,
          -1.7055100477287991e-001, 1.7748201088470639e-001,
          3.1995341858546539e-001, 6.6304110817027495e-001,
          1.5611863968715531e-001, 1.6772952357115922e-001,
          -2.3700463204745795e-001, 2.7920333190879909e-001,
          4.1420295957326841e-001, 4.2124596415030510e-002,
          -7.0238140007955863e-002, -2.5099444952757510e-001,
          9.4616898212057529e-002, -2.1275882768130014e-001,
          -4.8358612372930493e-001, 2.4695924524280016e-001,
          -4.4994034243476394e-002, -1.1295671321365501e-001,
          -3.3763693217934898e-001, -7.1026802340663928e-002,
          -7.5765996073745831e-002, 1.6113753125082761e-001,
          5.9619401993453745e-002, 1.1465533827656495e-001,
          3.6394718722677327e-002, 3.6795848820366635e-002,
          -4.4680103725278364e-001, 3.1708199174018722e-002,
          3.8002691366189147e-002, -2.7373761211753384e-001,
          9.2150219819272752e-002, 1.8034603387247702e-001,
          -5.8133366501177086e-001, -1.1114061207551972e-001,
          -3.6333528776290114e-001, -2.1984041147901312e-002,
          -1.7382651700975450e-002, 2.3880653520483736e-001,
          2.7844057514836255e-002, -9.2200668050268220e-002,
          -7.7916733821536177e-001, -2.2704168805031340e-002,
          5.8263479906584550e-002, 2.6455813373565278e-002,
          9.7521287800914243e-003, 2.7473789969403875e-002,
          1.0396706134469549e-001, 3.1913058852208430e-002,
          1.1282140623663170e-001, -1.5807348332497292e-001,
          4.3921194603826416e-002, 2.0451070661376242e-001,
          4.8893892260160166e-002, 3.1202156563230454e-001,
          -9.1914323863377306e-002, 6.0460762650786815e-002,
          3.2289328729158503e-002, 1.4309857455083322e-001,
          2.2608758331068088e-001, -2.2504065887564950e-001,
          1.8739660913836148e-001, -2.5955306303926295e-001,
          -3.2114454314733970e-001, 5.0077798232265429e-002,
          -1.1877452123481333e-001, -3.1315493659731680e-001,
          -1.6954446462304415e-001, 6.5541832570514519e-002,
          2.4785583959442956e-001, 2.1593306051372119e-001,
          4.9476607531433070e-001, -1.1482919379757463e-002,
          1.5929535083815338e-001, 1.7508522321980857e-002,
          3.1943960864155801e-001, 2.5870263340710820e-001,
          -1.0694327402543495e-001, 3.8161443417519042e-001,
          8.6932360813400333e-002, -7.1321181786796403e-002,
          5.3902285146333773e-001, -2.0169162777944794e-001,
          -9.8222270623950191e-003, 1.1378797752200506e-002,
          4.0581110496237346e-002, -5.2271592353903817e-001,
          -3.6296108724147742e-002, -1.3823251901484176e-001,
          4.6977882256221082e-001, -7.0207498509305799e-002,
          1.7444155629349334e-001, -6.4250532537743710e-002,
          2.8532980597020842e-002, 3.8454013649234420e-001,
          -1.8692343915195037e-001, -7.0652415573791885e-002,
          1.5730548202739936e-001, -4.3530689382421145e-001,
          2.5132766197681944e-001, -1.5804149955487290e-001,
          -1.6012905289358087e-001, 1.2058434615413782e-001,
          -6.3627158596573016e-003, 2.9379050619652447e-001,
          -2.9825457999512206e-001, -9.4223137429452389e-002,
          3.9720567722416600e-001, -2.1815205567550749e-001,
          -2.5512668358048590e-001, -3.0160077859122725e-001,
          4.7083656382576229e-002, 3.5094041223561001e-001,
          1.0287610041360447e-001, -3.8547826931343609e-001,
          -2.9299899083369874e-001, -1.9293387951981794e-001,
          1.6505480152233640e-001, 1.9773789036805398e-001,
          1.6861053051698879e-001, 8.9163431695549869e-002,
          -7.8099477441597981e-002, -2.3026556411076801e-002,
          3.8083096562655156e-003, -4.1740359179131478e-003,
          6.3437900556515964e-002, -8.9939122332047178e-002,
          5.8082841900094710e-002, 5.7101433281219770e-002,
          2.2053535076586958e-002, -1.7228611000908164e-001,
          -1.6459307702963458e-001, -9.0060819137917303e-002,
          2.3049267697969009e-001, 2.2856329359207223e-001,
          -9.3668453448109854e-002, 1.2459567134362635e-001,
          -2.5586134144136113e-001, 1.9372285254716190e-001,
          -1.3484221496576615e-001, 8.2094027592641561e-002,
          -9.4139926901142257e-002, 2.3508011686051580e-001,
          -1.7113847436399651e-001, 1.4496439877110831e-001,
          -7.3786152057729856e-002, 1.4980206571077992e-001,
          1.5590468816028819e-001, -5.1983090684942912e-001,
          -1.3939611173159777e-001, -3.0982768548054429e-002,
          -6.2971240439053486e-002, 6.3900795672661229e-003,
          -1.6568969529685371e-001, -2.2095665972157486e-001,
          1.0248861815729868e-001, 1.9114373414648361e-001,
          1.6423431364068086e-001, 1.8345604293644999e-002,
          7.3908466372851422e-001, -5.8270342090398795e-002,
          -5.4041689028827067e-001, -1.8117038951554046e-001,
          -1.7140824199944366e-002, 6.3159367515609674e-002,
          1.3363006248549996e+000, -2.2600888247057571e-001,
          -2.1787052522642340e-002, -3.2923656262412122e-002,
          1.3897924324708477e-001, -3.1858990754191252e-001,
          4.9465256146745051e-001, -2.8794337459219638e-001,
          -1.2273377310577021e-002, 3.6722650473260426e-002,
          1.4219824209902336e-002, 8.3338490907463786e-002,
          -7.5535636615228374e-001, 1.4719892371284678e-002,
          9.7271433872000945e-001, 3.4635272522014338e-001,
          -1.5011011396916363e-001, 4.7579382132561507e-002,
          -4.2595430616251118e-001, 1.1537130975192825e-001,
          -5.9083172143182261e-002, -1.8002670743969248e-001,
          1.1184349153055353e-001, 1.0599536140052088e-001,
          6.2243630538377906e-002, 3.4114501419899891e-002,
          4.4795502935692913e-002, 3.1624251656117812e-002,
          -5.2323719880451765e-002, 8.0106485155459650e-002,
          -1.5515910553880086e-001, -2.0735013669969032e-001,
          -1.9911670134220399e-001, 3.4782005147765827e-001,
          -1.4547148353768782e-001, -3.6125452632370735e-002,
          7.1515860887816018e-001, 4.4389935948949438e-001,
          6.8416424204808299e-002, -4.1078968162698287e-001,
          3.9695265231434490e-001, -2.2302037838592784e-001,
          -3.0804735760971813e-001, -2.9216320281785546e-001,
          -3.0398731765099590e-001, 1.5925395709872120e-001,
          3.5761391797224595e-002, -1.0751465799979197e-001,
          -8.5831642718678131e-002, -4.6971711351934164e-001,
          3.6363782445682286e-001, -1.4945915689398193e-001,
          1.5360012812702875e-001, 3.9843664250941285e-001,
          -5.5284731360538495e-003, -2.0174712629124680e-001,
          2.2963395904090897e-002, -1.6494709353176237e-001,
          1.8028566251062786e-001, 2.2862199542818637e-001,
          1.2038796936467161e-001, 1.0063291408090085e-001,
          2.1718764737847503e-002, 9.1331672102591452e-002,
          -2.9910974956663999e-001, 1.8818627905680821e-001,
          -1.9269253285945845e-001, -1.2347065570202362e-001,
          3.4672636591299572e-001, 1.0692679588425812e-001,
          -2.2186521627153056e-002, 6.6176515497169741e-001,
          -1.5092135133726992e-001, 1.3825860425567754e-001,
          4.5952199382743499e-003, -1.3163270069750449e-001,
          -1.0388102025731556e-001, -1.5801282743577647e-001,
          -9.5429804834925455e-002, 1.6319375927917667e-002,
          -1.4529892696292065e-001, 8.8308453550680219e-002,
          1.3109271981651244e-001, -8.1961649983004758e-003,
          -5.7946953869239581e-001, 6.7671242138139043e-001,
          -5.8428085779443217e-001, -1.3687065859154049e-001,
          -1.0329052437354219e-001, -3.2709377590927674e-001,
          8.3811650381589262e-002, -5.5703421656004359e-001,
          -1.5039015721729254e-001, -3.3162515472407356e-001,
          5.0236278440870374e-001, -2.4689166948711916e-001,
          6.5337167832486842e-001, -3.5516560493188298e-001,
          5.1464093899638974e-001, -5.6884066561461610e-002,
          3.4331941787232800e-001, -9.6310164001696941e-001,
          3.7035005263968629e-001, -3.8048748139466493e-001,
          2.7197956316952721e-001, 4.4568772585629961e-002,
          3.9355053110441673e-001, 7.6617550595081674e-001,
          -8.7337428058048602e-002, 3.2540948302098138e-001,
          -2.9873452575904909e-002, -1.5978040947237850e+000,
          -3.0437852215958139e-001, 1.9715179901709315e-001,
          -2.7584683976057553e-002, 2.7426295475749279e-001,
          -6.6846190956043718e-003, -9.7777065620084647e-003,
          -8.0150435361930394e-002, 3.3606337288726051e-001,
          3.1136860020390417e-001, 3.5999306774091183e-001,
          6.4541857225487709e-001, 4.3184836032814511e-001,
          9.8253013007128902e-003, -5.5801972411225753e-003,
          -1.2217016705113308e+000, 2.2480436210183583e-001,
          -3.1832297063902934e-002, 6.0303552474879552e-001,
          1.0241186667241255e-001, 2.5216036098367611e-001,
          -9.3526600030608198e-002, 6.9575506938765930e-001,
          -4.0335388023162215e-002, 6.2804781644758478e-001,
          7.6616928692204780e-002, -3.5367769098273882e-002,
          1.1317967143574877e-001, 2.1300061925752803e-001,
          -7.3884284584681839e-002, 2.6811880111631309e-001,
          -2.0773542495888916e-001, 3.7596237947151551e-001,
          2.9020743333364706e-002, -4.3871960872519676e-002,
          -3.2568317881492559e-001, 3.2557340880154806e-001,
          -1.8604396464932854e-001, 6.2214719553502584e-001,
          -1.3372346818330269e-001, 3.2254088562342159e-002,
          -5.9282373103278468e-002, -1.0704161876660639e-001,
          1.7424338049754293e-001, -4.9190718245812344e-002,
          1.3047411339933407e-001, -1.2718663348275563e-001,
          -5.9260311847234307e-002, 9.0862912627844933e-002,
          2.8247915118646445e-002, -3.8117844906898173e-002,
          -5.0496429771561276e-002, -1.6329730031966228e-001,
          5.7150073413126050e-002, -2.9240562406891479e-001,
          -1.3368520229253608e-001, -1.2930130374620166e+000,
          4.3308429121012418e-002, -7.2495487015319396e-002,
          -4.0019079997886342e-001, -7.4730994875321144e-002,
          8.1306019383831668e-002, -1.5742433191834779e-001,
          -3.2940583136591056e-001, -2.4180765973080026e-002,
          -4.1845149662952712e-002, 8.4225753578962087e-002,
          -1.5983345114451189e-001, 1.6032917183894579e-001,
          1.2258972719053775e-001, 1.1247368882709324e-001,
          -5.4195526876999654e-002, -1.9102442155298252e-001,
          -8.4770972590121896e-002, 6.8323498850546463e-002,
          2.3231096133071524e-001, 3.1481307539228141e-002,
          -1.0975794256890850e+000, -1.5399401544154746e-002,
          1.7263940782495257e-001, -1.7845411158633392e-001,
          2.0843739236058154e-001, -5.2724529047611095e-002,
          1.0789435885506260e-001, -2.3370521052727747e-001,
          -1.6335342471657022e-001, 2.0307599505635873e-001,
          4.9554371254741836e-001, 1.6180921205283813e-001,
          9.0467246399878631e-002, 7.7701883591720367e-003,
          1.1355458555503026e-001, -1.2603135352277492e-001,
          1.7731920426986922e-001, -5.9241192685664225e-002,
          7.6664691370172844e-002, 1.7266161597437363e-001,
          -4.3877104034982573e-002, 2.7491350039339085e-001,
          9.4839565163668413e-002, 3.2683740004314782e-001,
          3.8658732591791833e-001, -1.0183051722430632e-001,
          4.9753255676626883e-002, 4.9811058953726062e-002,
          -1.6566555778527590e-002, -3.5645356337594594e-002,
          -2.0705651562860483e-001, 4.2983796999130375e-001,
          -3.1011704582223826e-001, 1.9560228708575533e-001,
          1.6678150755797552e-001, -3.2006784198428795e-001,
          1.6332905820782645e-001, 7.5021938696275259e-001,
          1.6410471000744756e-001, 1.6170683539748129e-001,
          4.2945853900547609e-001, 1.6143014277954190e-001,
          -7.7939427200616571e-002, -1.5567948723954074e-002,
          -2.8517343341228618e-001, -8.9642469422490753e-002,
          -1.4725331561420144e-001, 7.7371379365809956e-002,
          -2.2333765670368710e-001, -4.9107500978584961e-001,
          -1.8973893411067499e-001, 2.5907565425607604e-001,
          1.3444111945987947e-001, 6.6837908667400592e-001,
          -2.2908003839694924e-001, -8.0827835123946506e-002,
          -6.9035648694717233e-001, 1.0432211767553358e-002,
          7.4695847432718412e-002, -3.5415623864633772e-001,
          -1.4267892062721738e-001, 8.5889049174835391e-002,
          1.5571843549618111e-001, -7.2384652619738740e-002,
          -1.7886179510530356e-001, -1.8000200575952072e-001,
          -2.8372837987697219e-001, -1.8478306256169519e-001,
          3.4002032599589255e-001, -2.1605812862836879e-001,
          -3.4206097067063179e-001, -4.2841944839291865e-002,
          -1.9596405345881249e-001, 5.8868400099180325e-002,
          9.0338482622320401e-002, -3.1029560324705184e-002,
          2.3006459609694416e-001, 1.3870188182951132e-002,
          -2.3585856257387541e-001, -1.4468221158091699e-001,
          -3.0542465278564457e-001, -4.0746536532433869e-001,
          2.9897887866050599e-001, 4.3109117363434989e-003,
          6.1632296263479547e-002, 9.9784453442115853e-002,
          1.3821257019347780e-001, 1.8261408044115462e-001,
          -9.7463002373499447e-002, -4.4832907002215172e-001,
          4.6616398839271350e-002, -2.5648809516279852e-001,
          -9.1025989449299891e-002, 2.5128949235133691e-001,
          -4.5453024921824833e-002, -1.7115653091802799e-001,
          -7.1964919496933941e-002, 7.7166891130662149e-002,
          4.0962474359920992e-001, 1.3400717733442724e-001,
          2.7135638108076725e-002, -4.8117479394605409e-002,
          -3.6292847124731242e-002, -8.3481302666782969e-002,
          1.7592272887770691e-001, 1.8681392991889985e-002,
          -2.5524650292186041e-001, 3.0782117218700594e-001,
          -1.0773398284227784e-002, 3.0838020705394475e-001,
          6.7740402025697949e-002, -1.1797220636166900e-001,
          -1.1518842649321509e-001, -8.5302323343683650e-002,
          -1.4515848056695098e-002, -1.1075443420963639e-001,
          1.2202570899058199e-001, 1.6704478148381824e-001,
          -1.0315907817700216e-002, 2.7836634512180414e-001,
          1.1905176878433803e+000, -3.5601127437935885e-002,
          6.0749558280977256e-001, -1.1890787940539570e-001,
          -9.1741883286338630e-003, -1.2399227481316533e-001,
          -2.8694098347564490e-001, -1.4983952296085741e-002,
          5.1052591685275761e-001, -3.7473922802220111e-001,
          -5.3943317955919867e-001, -1.2483674449497464e-001,
          3.4037528172970133e-001, 1.2461877855653070e-001,
          -8.4426396548165028e-002, -3.7678605375058705e-001,
          -2.5802682505022490e-001, -1.9086495343724483e-001,
          4.1283720122033657e-001, -4.7889933473505847e-001,
          8.1683177787858741e-001, 1.0362912339584374e-001,
          -2.2409269980901625e-001, 1.5557805584266066e-001,
          1.0077017188608208e+000, 1.0791403220208878e-001,
          2.2359725358378355e-001, 3.0046371180421227e-001,
          1.4643095021875192e+000, 7.5168907802641405e-001,
          -5.5573581949926967e-002, 3.7684505248765598e-001,
          -9.6534494650753389e-001, 2.5294636619008332e-001,
          -2.3356349858356265e-001, 5.6980539064776481e-001,
          6.8575799033995555e-001, 1.6470140946509987e-001,
          -1.7984664371092254e-001, 5.9025361126613107e-001,
          -3.5128400596211984e-001, 3.2938131327505732e-001,
          6.1557915827133969e-001, -2.8603143799990016e-002,
          -3.9961585989926651e-001, -2.5702774885209168e-001,
          5.6608987769945690e-002, 2.8623793285110422e-001,
          2.6866048855849173e-001, 3.7435183287636331e-001,
          -3.9668272530140651e-002, -1.2717812563816971e-001,
          -4.0982050321123897e-002, 3.3415200891858503e-002,
          -2.0795182781750726e-001, -1.6023588677873751e-001,
          -5.1549164951969706e-002, -4.5343557174498517e-001,
          -1.1071628071588838e-001, -3.0603437240986042e-001,
          -2.4675994466602767e-002, 6.8449947861989194e-003,
          -1.1294235397381243e-001, 4.6008519086345262e-002,
          4.6527513170774215e-001, -1.8783800073102219e-001,
          -1.5150203571435819e-001, -3.2381473300685348e-001,
          5.1532874493555947e-001, -2.4251334278833497e-001,
          -6.5228152888257406e-003, -4.6428540179621586e-002,
          -2.3994792086226710e-001, -1.9515924853091719e-002,
          4.2994091758360251e-003, 1.0552458654402203e-002,
          9.1367541521802903e-002, 2.4607537833519395e-002,
          1.4600007528501133e-001, -1.4500852680694296e-001,
          -1.4479963572457982e-002, 7.1049832448206368e-002,
          4.8873356324889816e-001, 2.6482325323089373e-001,
          4.9519804255946938e-002, -5.6174209683112373e-003,
          -6.0156698153343002e-001, -7.5998406957364276e-002,
          4.2067723241615518e-001, -4.8916514376576764e-002,
          5.8842724860433772e-002, 2.2208067565256545e-001,
          -1.7362606713382960e-002, 1.3138955430278582e-001,
          -4.9993752477675873e-002, 8.2763355733833005e-002,
          -4.5366657348145090e-001, 1.2318602429221561e-002,
          -4.3530876918622591e-001, -1.2750751050597933e-001,
          1.1935127599804640e-001, -8.2996698720002010e-002,
          -4.3285774431929286e-001, -1.3994719280620675e+000,
          7.5995604247920789e-001, -1.5869603451469175e-001,
          7.1792938072544521e-001, -3.8324706333931746e-001,
          1.2224459744868138e-001, -2.3694526889921982e-001,
          3.5833127129584830e-001, 1.3319655694438324e+000,
          1.0061335633477185e-003, 2.4678749703061819e-003,
          3.2957099973550852e-001, -7.2532604341421147e-001,
          1.4200622297029003e-001, -6.1964056700212267e-001,
          -2.8042361288654033e-001, -1.5562939802376099e+000,
          4.7676066433708142e-002, -1.2013521476979143e-002,
          1.5181362704640275e+000, 3.6415713649259207e-001,
          -4.4434383161200441e-001, -1.9733258224917324e-001,
          -1.9897292764945532e-001, 4.6628784601696954e-001,
          2.6441787932893956e-001, 1.0855748128419221e-001,
          1.2566178767899505e-001, -4.2868532236329338e-001,
          -1.2984131219294365e-001, 3.9314274447403497e-001,
          6.5266269564396162e-001, 6.6659582819050781e-002,
          -1.8926881389239483e-001, 7.4767297549677036e-001,
          3.6331011183979789e-001, 1.5058611034505085e+000,
          9.8729067907476348e-002, -4.1213758981223148e-001,
          -1.8931666318790866e-001, 1.4475186278698948e-001,
          -2.1522450408899044e-001, 5.8328463150465271e-001,
          -2.6525138366865919e-001, -8.5594118675685296e-002,
          -1.1055488686984367e-001, -2.1354061385607084e-001,
          1.6794627463608486e-001, -2.8193930707441184e-001,
          4.7085030976803033e-001, -2.6400173251529886e-002,
          4.9102621147259051e-001, -3.5761440148736412e-001,
          1.2423358444931598e-001, -2.8537362210193130e-002,
          -6.1710460516680865e-001, 9.3932797213994432e-002,
          3.0983642308371939e-001, -6.2171363313911387e-001,
          1.6018586427123849e-001, -3.1413195169222624e-001,
          -4.5100304919833450e-001, -9.1496631798245090e-002,
          1.0193461465833926e-001, 1.3021184848497624e-001,
          2.8667247848380339e-001, -5.9201252392722070e-001,
          2.3027548717799107e-001, -2.4817899646224553e-001,
          3.3646069876599238e-001, -8.1631272368827057e-002,
          2.9772362687982629e-001, 2.0619002876100753e-001,
          -5.8190414937789293e-002, 1.3353892539557113e-001,
          4.9191736835636914e-002, 1.1259362089546056e-001,
          3.4552773662923886e-001, -2.1503236972512155e-001,
          8.2607342540942721e-003, 1.7554293993434580e-001,
          3.0537032166204914e-001, 4.5351698898133719e-001,
          -4.1887345283022359e-001, -7.7358229729999076e-002,
          6.5402980389918897e-001, -4.9180328502308712e-001,
          -3.8578475103775961e-001, -1.5195450338162439e-001,
          2.2590325664735726e-002, 1.2522140343811111e-001,
          2.6397906747206840e-001, 1.2047844397401283e-001,
          -9.4911767020783899e-001, -1.5150658139544820e-001,
          -7.6777587156242255e-001, -2.3719644455105302e-001,
          2.1627960214713945e-001, -3.2962980835824107e-001,
          -2.2140501488971365e-001, 1.8403098598697767e-001,
          -1.9607615811164628e-001, -2.3868689265052354e-001,
          -3.9374399500384190e-002, 9.5037932489458216e-002,
          2.7423008993481046e-001, 1.0939658394962906e-001,
          5.5431151071968876e-001, -1.8571490388750489e-001,
          -4.6879115464389987e-001, -6.0366513735811818e-002,
          1.9746050321960765e-001, -1.2607340910862316e-001,
          7.9657141349690555e-002, 2.4137601212462428e-001,
          1.9268954862424179e-002, 2.7151541688355374e-001,
          -2.6575693442252862e-001, -6.5257995912213734e-002,
          -3.3883355092215645e-001, 1.1901693555866051e+000,
          -2.2623390529415358e-001, 2.6606139705805454e-001,
          -4.0990434175682336e-002, 1.8015637867139164e-001,
          7.9954114772171139e-002, 5.7203617834749210e-001,
          1.7765495582608293e+000, -4.0554299945710914e-001,
          2.7936596789221746e-001, 1.5245540830243847e+000,
          -8.7037913705838510e-001, -1.8625677743555208e-001,
          -7.0140330316226407e-001, 5.1689629963288478e-002,
          -9.9980028486936129e-002, -2.7053079972057870e-001,
          1.4664777181084052e-001, 1.2220685042414448e-001,
          3.9230923572745506e-003, -1.5404027689832292e-001,
          -2.7224166323457977e-001, -1.8899398408349580e-001,
          1.3998048801209823e-001, -6.9040342565874702e-001,
          -1.7027793348651105e-001, -2.3743125506631765e-001,
          -1.6641303791607628e-001, -9.4039023641580649e-002,
          1.5017106225039203e-001, -1.9646103317859057e-001,
          -9.8927564069303656e-002, -3.8604679569814387e-001,
          9.3862117129194822e-001, 2.8062003810876104e-002,
          2.0328247570879446e-001, 3.4453888591687304e-001,
          -8.3092348684025874e-002, -9.8402408843397682e-003,
          1.0229390485421894e-001, 1.4568956373784636e-001,
          3.7502480933806481e-002, 1.9207229438613854e-001,
          2.0668533006928713e-001, 2.4397175883335626e-001,
          -2.2353353222427649e-001, 6.6366765091486674e-002,
          -9.7633288166212084e-002, 7.7837854405089640e-002,
          5.3083568362331657e-001, 3.5819909350545981e-001,
          1.9490452183311638e-001, 1.0394066767583639e-001,
          8.5634949855979234e-002, -1.7198659247501480e-001,
          -1.5949889125999664e-001, 2.4707752312100276e-001,
          -3.3186873645271914e-001, 1.7478293952268192e-001,
          -3.4620161787713477e-001, 2.5099930107331536e-001,
          -4.7510672676139420e-001, -1.1804016453501741e-001,
          -2.1060658372930388e-001, -2.3964794542700812e-001,
          -4.4980790759312606e-002, -3.8939231237432259e-001,
          1.8782622272956134e-001, 2.7004490654878238e-001,
          5.7155446047090153e-001, 2.2717919356322125e-001,
          4.3428409350754682e-001, 1.2941507497163057e-001,
          2.4425664579563638e-001, -1.0025479932555538e-001,
          3.4250173568206788e-001, -1.3324422797487831e-001,
          -2.2851144005002272e-001, -5.9440160282616383e-001,
          -1.5818821896263852e-001, -1.5392489978642560e-001,
          4.0667019584145525e-001, 3.4866833868424785e-001,
          2.3388719506522751e-001, 1.6483887276397186e-002,
          -1.1446753159649445e-001, -4.8690575244111012e-001,
          -2.7120315915641333e-002, -6.7749381222217964e-003,
          2.7559936954165815e-001, 7.8943126137276096e-002,
          -8.5968915620039082e-002, -3.5312932402109858e-002,
          2.3653194273604980e-001, 3.8947247084141678e-001,
          2.4828004023130912e-001, 9.0565412629265235e-002,
          -4.4342013205517999e-001, 3.6172572646762635e-001,
          1.6747236906437798e-001, -9.7748799497240080e-002,
          -4.5158214853576528e-001, 9.8529421151916430e-002,
          3.0307196590787489e-001, 2.7799040870781810e-001,
          -7.6756355970995627e-001, 7.8145281416885759e-001,
          -2.4069219988538312e-001, -1.9496654285671552e-001,
          -2.9432859792041266e-001, -3.4655713318179232e-001,
          -9.9216000296910384e-002, -1.9178718831279642e-001,
          -9.2373248640835043e-003, -3.4107348091108902e-001,
          3.3581038776013061e-001, -7.0192904924500188e-001,
          3.0489531358946115e-001, -4.6795608612944871e-002,
          8.8858558776737220e-002, -7.8560097340136276e-002,
          2.6207455940690300e-001, -3.4705015884840856e-001,
          -3.9980123054932476e-001, -5.2151900849944921e-001,
          -4.3642485872676107e-004, 2.7680177022591776e-002,
          1.5738809031590520e-001, 3.4384427673604734e-001,
          4.8812904402609114e-001, 1.7236900193904889e-001,
          2.3885800846488142e-002, -3.4949473374795015e-001,
          -5.1457962572281912e-002, 2.6436153156997177e-001,
          -9.5677456085363266e-002, 1.0376492228068876e+000,
          -1.0185320793634085e-001, 2.1739070305782413e-001,
          -3.0314518529708168e-001, 2.1608803292092546e-001,
          2.2659688858370572e-001, 2.0504658196637537e-001,
          3.1180090933537807e-001, 3.0914672978254171e-001,
          4.8006759984983138e-001, 1.9078188305083951e-001,
          -7.3289394208871206e-001, 3.4992206412256727e-001,
          2.3777425406287461e-001, 4.9735116753299058e-001,
          -3.8866838929092276e-002, 2.0098844995977269e-001,
          -9.0855158398590138e-002, 7.8510184552067305e-002,
          4.2311053125397902e-002, 6.3793151636324361e-002,
          2.2260794669866543e-001, -9.9157684005854313e-003,
          5.5123473573737658e-001, 1.7775137710944175e-001,
          1.4522441183296647e-001, 1.1805772809557498e-001,
          2.7464860043715511e-001, 6.2952113566629686e-001,
          -1.3027128483236042e-001, -4.8056187797091067e-002,
          -2.1549962242646152e-002, -4.6356785715569720e-001,
          -1.0973076816665933e-001, -5.1550753754104742e-002,
          -2.1687353208459448e-001, -1.6066011835018310e-001,
          1.4890496733297320e-001, -1.1576236588434527e-001,
          1.3319008204154759e+000, 1.6179308953733895e-001,
          1.3407156922925892e-001, 1.9647586533557929e-002,
          -2.9192629808878884e-001, 3.9650552979169307e-002,
          -2.3684923797582871e-002, 3.5747720626558670e-002,
          -3.3585032969976725e-002, -1.3487928061058756e+000,
          1.3363611863925112e-001, -1.0215524831356940e-001,
          -1.2574689664764360e-001, -2.1767265543192169e-001,
          1.0458485827486717e-001, 4.1145374111786126e-001,
          -1.7240202336931379e-001, 2.7313510035749433e-001,
          -1.5094998345252039e-001, -4.7111619905920521e-001,
          6.5967819015396656e-001, -7.3508542380453330e-003,
          -1.1674786839787984e-001, -4.2181203808861001e-001,
          -6.2671575162666041e-002, 2.5837594367298579e-002,
          3.9477970000210902e-002, 2.6783593074580503e-001,
          -6.3243068944178318e-002, 7.3195898606853285e-002,
          -9.1625269419119637e-001, -1.1191801954565156e-001,
          -2.3521248049648127e-002, -1.3069551201717500e-001,
          -3.8070452128666038e-001, 6.6032964855790091e-002,
          -1.4476884098804039e+000, 3.4103098013525557e-001,
          -3.4112490901156167e-001, -7.1801407822114222e-002,
          -8.4204402878539669e-002, 3.6831868468955982e-002,
          8.4728935950571449e-001, -1.7256521833415298e-001,
          -6.2315475519158703e-001, -1.4041239595912278e-001,
          5.6503033870031372e-001, 3.7038171558352800e-001,
          3.6626441927337557e-002, 1.4093280138406453e-001,
          1.3354983408443508e+000, 3.8614100429371967e-001,
          1.5459128068818517e-001, -6.0273619638293419e-002,
          -6.6109719700450842e-001, -1.5927389376504678e-001,
          2.3906265919810456e-002, -8.3906801201483888e-002,
          1.7738571908603851e-001, -1.2773221800530943e-001,
          1.1000452128500790e-001, 3.5230037783895407e-001,
          2.6398494438222758e-001, -5.3920717518172523e-001,
          3.2543517342738620e-001, -8.7703101275794060e-002,
          -3.6366225274458991e-001, -5.2237222616165735e-001,
          -3.6200943626334803e-001, -2.3103042070369284e-001,
          1.2627269321961809e-001, 1.7944725592023172e-001,
          1.4144696476474919e-001, -3.0832526325097406e-003,
          3.9397631777891233e-002, -1.7346690760467259e-001,
          -4.2152166423646616e-002, -3.6680280310343516e-001,
          2.5322253052225546e-002, -2.2873534293429604e-001,
          -1.4020374790633514e-001, -3.3723567040411306e-001,
          -2.6603762353257321e-001, -6.9015963667094310e-002,
          1.6509371069783001e-002, 4.2330895889964981e-001,
          2.3469433986550275e-001, 1.1111143974735480e-001,
          3.3505933652120612e-001, 2.3342690525310786e-001,
          -3.1324148384029978e-002, -1.0187978887943722e-001,
          -9.0346653034829152e-002, -1.7796464087030248e-001,
          -1.2708692360515672e-001, 2.1613960553281350e-001,
          1.4539851936446294e-001, 6.4212402496095167e-001,
          -1.9463146964283778e-002, 6.8679364344491095e-002,
          -1.6437793113001811e-001, 5.2688312876451784e-004,
          -1.0554862773207870e-001, 1.9514521782158886e-001,
          3.3813709810450499e-001, -7.1270715898035866e-002,
          -1.2764079279299727e-002, -2.2645381453465810e-001,
          6.2510809332347553e-002, -3.9704847036335794e-001,
          1.3617892090155997e-001, 8.3003337298881652e-002,
          -4.0185109601548585e-001, -9.5562025644878923e-002,
          -5.6461906739586509e-001, 2.5470774519192008e-001,
          -9.5004536073975865e-001, 1.0887398017459385e-001,
          1.5319830012555971e-001, 8.3912452882216951e-002,
          -4.6632996298925526e-002, -2.7468903729686345e-001,
          -9.0532241153793616e-002, 2.6310051201151741e-001,
          8.7089248412678788e-001, 1.8184963237431123e-001,
          -5.9894771967525830e-002, 2.6765511002375714e-001,
          2.0677420233313321e-001, -9.2782809527928489e-001,
          4.3269252198781016e-001, -1.9366920098587195e-001,
          -2.1605182677154228e-001, -4.8905626160791538e-001,
          -1.7930574021475093e-001, -1.5251642950126518e-001,
          -1.0258796600481410e-001, -1.5338842085391824e-002,
          -1.3278602622639690e-001, -2.9166497518567043e-002,
          8.7192698680492242e-001, -2.0899687098425909e-001,
          -2.8174401215081790e-001, 3.9360155282933607e-001,
          -1.6001408619266297e-001, -3.8389497040804696e-004,
          2.1645005598896921e-001, -9.6620052684319460e-002,
          2.7663003079120330e-001, -2.2192373491492584e-001,
          -4.6838677860360139e-001, -1.0074057570756292e-002,
          4.5654954993075436e-001, 5.2214579735495015e-001,
          -8.2713743591669969e-002, -5.3929916047695030e-002,
          -9.1564566055699931e-002, -2.9997996558997198e-001,
          -1.8635366759156023e-002, 1.6145797983945547e+000,
          1.0716682064916708e-001, -1.2828391710720876e-002,
          1.3503385545508564e-001, -7.9743993521938325e-002,
          -1.8960405001722755e-001, -2.9757095452752319e-002,
          7.3816514392006705e-002, 1.4880936788289681e-001,
          8.2735647507120813e-002, -1.4221686914276341e-001,
          -2.0686539530006132e-001, 5.9279362771769845e-002,
          1.4396242654438376e-001, -1.0147636436791266e-001,
          5.5611579315697678e-002, 1.4907853621886596e-001,
          9.5422156835884009e-003, 2.1094409528185379e-001,
          -2.5700738255636353e-002, 1.2263599704850417e-001,
          -1.1861085478459438e-001, -2.3929168951751972e-001,
          1.4313447333601884e-001, 7.8962476107833177e-002,
          1.2516814304946214e-001, 1.4453381129946782e-001,
          -1.1779959482300613e-001, -1.9460567855159233e-002,
          -8.9353707536412030e-003, -8.5584545373447396e-002,
          2.4615105323374929e-002, -1.9666540431168866e-001,
          -4.3909294658213138e-002, -1.4132842474152729e-001,
          -1.8562707448923096e-001, 1.5544140314914387e-001,
          2.4150303583080832e-001, 5.8441214424674634e-002,
          -2.3983955379789845e-001, -7.5557308777420068e-003,
          -1.0561830067385751e-001, 7.5787345025955896e-002,
          1.7582377262617313e-001, 8.1209658607101234e-002,
          1.7707763697963990e-002, -1.6929866224345383e-001,
          2.0942830516127645e-001, 3.5300285908709339e-001,
          -9.4485940618454878e-001, 4.8699430814784402e-002,
          5.1485194317134952e-001, 1.8526689889570877e-001,
          -1.0647201031167661e-001, -2.7229880362025016e-001,
          -3.0309979796661522e-002, 8.4719042487734675e-001,
          3.5234899452598423e-001, 3.1929576403489324e-001,
          -2.6037602210851479e-001, -2.6615460402923130e-001,
          4.7331834111730302e-002, 2.0672676173379118e-002,
          1.0393169361422607e+000, 9.5333058140953941e-001,
          -4.3456546860987871e-001, 3.3935734193140138e-002,
          -3.0264832091290363e-002, 2.3352227235566525e-001,
          3.6501970483237819e-002, 5.5985331243123895e-002,
          -5.2456172469978890e-001, -2.5415703720273763e-001,
          7.3901551447212754e-001, -5.3242693788323181e-001,
          2.0157740144369912e-003, -1.9131624020752316e-001,
          -1.2980482093452361e-001, -4.1371638050666501e-002,
          -4.6927310740978341e-002, 2.4131280276567235e-001,
          3.2691287082552817e-001, -2.8421538303169885e-001,
          -2.2924195360970440e-001, -1.2677601165548807e-001,
          2.5517982718652688e-001, -6.8471537142922423e-001,
          -3.0769169423148701e-001, -4.9961764842780276e-001,
          -5.1887979476869794e-001, 1.8465695339070543e-001,
          2.8736711901639078e-001, 1.5326656395916147e+000,
          2.3177563587816272e-001, 4.2698919502506483e-002,
          2.1035913558980310e-001, -7.1201952798881807e-002,
          -1.5348171400382427e-001, -1.6119985244057972e-001,
          6.4306379197713688e-003, 3.8738191448151826e-001,
          1.3908146836684224e-001, -3.3250977055421516e-001,
          -2.9892375344917876e-001, -1.9495740924363628e-001,
          7.6039343458248643e-002, -3.2130348833299849e-001,
          -1.6459118515428944e-002, 5.3447365974412309e-001,
          -2.4041768486076356e-003, 2.5343187439056436e-001,
          1.0705560096210039e-001, -6.6551089251596252e-002,
          3.8470998079547396e-002, 3.2505565856279467e-001,
          -2.2851038667687468e-001, 1.3190822307839470e-001,
          -1.3577058856524959e-001, 7.0202012652614776e-002,
          -4.1544040518813374e-001, 2.0322235442195491e-001,
          -4.5976199988684234e-002, -2.5147915917996966e-001,
          1.4315733058820235e-001, 1.5551028915039108e-001,
          2.7779472401786709e-001, 1.4169539482390825e-001,
          -7.5482028172841747e-002, 2.1847121207640591e-001,
          4.1760748255928300e-002, -2.2898516074697277e-002,
          -1.1250302902974975e-001, -7.8004281433158285e-001,
          -1.9135680628976262e-002, 2.8553612941244733e-001,
          1.3529185052584722e-001, 2.4291461948439191e-001,
          -1.1757137853822316e-001, -3.6220801461376539e-001,
          -3.9082627959634048e-001, -1.2798408387984028e-001,
          -3.1316881301145863e-002, 6.9610780856386140e-002,
          -8.1636170354349613e-002, -1.1862991751729798e-002,
          6.0307923818840559e-001, -2.7440046126848011e-001,
          -2.9891964318438552e-001, -3.3887373639821222e-001,
          2.4202397629445555e-001, -2.0975837496748467e-001,
          -7.1994287774410304e-002, 1.5349373794873519e-001,
          -4.7627932313489874e-001, -6.6457117509260741e-002,
          -6.3573806845239139e-002, -3.4167958846195229e-001,
          -8.0711358617690063e-002, -1.5940772666500388e-001,
          3.2943884931223777e-001, -5.1014991815944499e-001,
          -1.3882246192275410e-001, -1.9999263475974571e-001,
          2.9436304425231075e-001, 3.9212951524255135e-001,
          6.1195376425971233e-002, -7.5301685965340676e-002,
          -3.8484079816507498e-002, 4.1329597062538737e-001,
          -1.2538664162271479e-002, -5.9188387894931395e-002,
          -3.7268765662904979e-001, -2.8508019037414639e-001,
          -2.5617723999544795e-001, 3.6577365356031721e-001,
          4.1782418767257974e-002, 6.5324273993670579e-001,
          5.9242837088296849e-002, 9.6739269030393338e-001,
          3.4720910336512467e-001, -4.8694444431709498e-002,
          -3.4151013077296455e-002, 2.6510849372469752e-002,
          -2.0032096478049011e-001, 3.1107961771651878e-002,
          2.8074072313818876e-001, 3.1044382080714188e-003,
          -2.8767387759640883e-001, 3.8130132406195692e-002,
          9.9759961769370201e-002, 9.6066923550340202e-002,
          1.2950737550263372e-001, 1.6132071626020031e-001,
          -2.1044862729921665e-001, 1.1954685589385790e-001,
          5.8555755361563426e-002, 9.2058015068596552e-002,
          -1.2064777144349821e-001, 1.9029069744755894e-001,
          2.7084477850137727e-002, -7.5065955430532808e-002,
          -2.1193690935252538e-001, 1.2487815336950525e-001,
          -1.7395256706447884e-002, -5.6677598715009297e-002,
          -9.5831848128183475e-002, -4.1830075845112051e-002,
          -3.5000659666705664e-001, -2.2170640610782308e-001,
          -8.9409706529000710e-002, 1.8921426258754390e-001,
          1.5378296645830786e-001, 4.1961646614199577e-001,
          -1.9052334980930982e-001, -3.2647825537885677e-001,
          -3.7371024172888062e-001, -2.0910613723595686e-001,
          5.0712515482496301e-001, 1.7255095733706038e-002,
          1.0800363529834435e-001, -1.2480130947698631e-001,
          -1.4086924123664440e-001, 2.5944245197308480e-001,
          1.4169174073325891e-001, -1.6340823549130254e-001,
          -1.5612938735178519e-002, -5.8498632818127916e-001,
          -1.2204843905375404e-001, -4.1698989904255350e-002,
          -9.0348331710259633e-002, 9.1140191291004244e-002,
          1.3167809950058507e-001, -2.0066563213290439e-001,
          4.5829045875418500e-002, -1.0091445977291502e-002,
          -2.2978519745168274e-002, -1.3203953817565818e-002,
          2.1326751270255413e-002, 1.9672953390999914e-001,
          2.4435230340989242e-001, -1.2551453022674569e-001,
          -2.1341190815778527e-001, -9.1413144441486752e-002,
          3.2456619608075478e-002, -2.1792544006634984e-001,
          -2.4634027778088632e-001, 2.8442106428260050e-001,
          3.0132271672916332e-002, 4.5293099528196001e-001,
          2.0254837860467795e-001, 1.2101997489290889e-001,
          -1.4922419813733384e-001, 1.0139594215579473e-002,
          8.6231728288624937e-002, -5.2368592620075760e-001,
          -8.9989063453125712e-002, 3.6832123261450751e-002,
          2.5232168129589866e-002, 2.1204984337387794e-001,
          3.6011541659486279e-001, -4.4949491099759153e-001,
          6.1309359915069014e-002, 9.6848552338089325e-002,
          3.0785956660226471e-001, 1.2972526874157331e-001,
          -1.7549691277238677e-001, -1.6024763169925019e-001,
          -3.0340848113424201e-001, -2.9256183723111229e-001,
          -8.1132979643936634e-002, -1.8948671670235920e-001,
          -6.8124610157580562e-002, -2.2433057754559999e-003,
          4.5286435946055675e-001, -2.7563562872925546e-001,
          1.7378671206053445e-001, -1.5628132155261359e-001,
          -2.3326784141846471e-001, 1.0146847298566655e-001,
          -6.6418443299728991e-001, -4.3911097249671566e-001,
          -4.4612564285262633e-002, -2.2207240149855845e-001,
          -3.1650539217517604e-001, -5.2420675932272454e-001,
          2.0320640029846737e-001, 2.4952326634426511e-001,
          2.2172492729301144e-001, 7.6316623146765891e-002,
          2.9573200615722312e-001, -5.2140134715102660e-001,
          2.3002949206722204e-001, -1.9331220496544987e-001,
          5.2203745476589958e-002, -6.4236739041577257e-002,
          -5.9718185968314108e-001, -8.6657750737497152e-002,
          -6.0993042827628911e-003, -1.1208774161811362e-001,
          3.7898027101565424e-001, 2.6552787091330671e-001,
          4.3686567060803455e-002, 1.8525990281220689e-001,
          2.8955373723557720e-001, -4.0149350073578349e-001,
          -5.8923286709229188e-002, 6.0577337222458438e-001,
          2.3350439488704047e-002, -5.3068814207948796e-002,
          -3.2669042078426386e-001, 2.2567105653022945e-001,
          2.5543946676968043e-001, -6.6910285532488345e-002,
          3.8620607269011331e-001, -1.8288172173467199e-001,
          -3.6254089480905756e-002, 5.6309311239296689e-001,
          -2.5189673095028220e-001, -9.7397556913568328e-002,
          -3.1090388123602941e-001, -2.5010689817869036e-001,
          7.5677597097943483e-001, -2.3675144627668076e-002,
          -2.0765806062433381e-001, -3.5745977025890396e-001,
          -1.1802868545858602e-001, -7.0116825496874535e-002,
          -6.1252924845857003e-002, -1.6351510336040162e-001,
          1.0029136081265363e-001, -2.1133123222983916e-001,
          -2.3334094509873679e-001, 1.6682176889775011e-001,
          -6.9992022861104619e-002, 3.4405865562287952e-001,
          9.8918605762950335e-002, 1.1239435138920612e-001,
          -1.7268306057660635e-001, 1.6716885156628439e-001,
          -8.5212711070543068e-001, -8.0863240991708593e-002,
          -8.9762719547457223e-002, -4.7254530363876494e-002,
          -1.1594315959714110e-001, -1.3586461120838902e-001,
          8.2789945452080627e-002, -2.5236818916710847e-002,
          -5.0228634977395305e-002, 2.9134222913901085e-002,
          1.4280772622226535e-002, -1.7966544386806679e-001,
          -2.0972779868741925e-001, 2.7020517462664873e-001,
          5.8920493938060059e-001, -1.3271356261989897e-001,
          -8.5404992723849160e-001, 7.7873214540687519e-002,
          1.7563023570485406e-001, -1.2486234891436193e-001,
          1.8892266037190952e-001, -1.9172941234030005e-001,
          7.5998541629295188e-002, 1.9816212952494722e-001,
          -4.3970637973064414e-001, 5.9138164371212421e-001,
          -1.1361878602293338e-001, -4.5917589032318115e-002,
          -4.4094207516635189e-002, 7.7363415597569457e-002,
          1.1064939091685430e-001, 3.7289957252872055e-002,
          -8.7523752226520202e-002, 1.8621407826476541e-004,
          1.0283166488085432e-001, 1.7574008322936144e-001,
          2.2270880073636479e-002, -1.5345073354275199e-001,
          7.5031932952234967e-002, -8.1128411670716896e-002,
          1.0188034390869259e-001, -2.8106639256567539e-001,
          -1.6192706332077431e-001, 6.3854026746493403e-002,
          2.8843532085514745e-001, 3.1646393556959657e-001,
          2.8024101702654303e-001, -2.3849202100387670e-001,
          -8.0994591999262081e-002, -8.8982334973854091e-002,
          -4.6048538592030763e-001, -8.7838675239568773e-002,
          8.9679643047153079e-001, 1.2120160411941143e-001,
          -7.0378864171419003e-002, -7.1197536972616646e-002,
          1.2254384536741128e-001, -3.0179031081131946e-001,
          -1.0410232380256661e-001, -5.1892571123890806e-002,
          1.0222609895059914e-001, -6.0453505765146638e-002,
          -2.2168212394986869e-001, 5.0038441659646000e-002,
          8.9007476883960601e-002, 1.4771337602516477e-001,
          -2.4334425938447760e-002, -2.8311861580602743e-001,
          -5.8246944084182073e-002, 1.4746075145802451e-002,
          -7.7004729214752640e-002, -1.0084330695222909e-001,
          -3.3120346148485680e-001, -1.5770108934187690e-002,
          -8.1562440826272412e-002, 2.1600791025523175e-001,
          6.1637857270181569e-002, 6.0104731734119243e-001,
          2.9372266085865566e-002, 1.4884854218277321e-001,
          5.7710717171528578e-002, 1.3658144403390365e-001,
          -1.8497367933150091e-001, 2.4607069012095634e-001,
          2.1940847193206556e-001, 5.8647184394918095e-001,
          -3.6675010878730603e-002, 3.7511309763528045e-001,
          2.9981614167058612e-001, -5.7368256328373746e-001,
          2.5483542950193144e-001, 1.8728374913448700e-001,
          1.4539345400406270e-001, 5.3631243476441037e-001,
          -5.5672599047019232e-002, -2.4991760478384673e-001,
          -1.7125845326400893e-001, 2.3588150188203913e-001,
          4.1321097041944715e-001, 1.5421060060894759e-001,
          -5.5611207895840498e-001, -7.7676966340133533e-002,
          1.3791972327740937e-001, 7.7401065496768631e-002,
          2.0959155066058145e-002, 7.8434545382982238e-002,
          1.4058251017461751e-001, 1.0213819643855809e-001,
          -9.0061664145175441e-002, 1.4267228967999851e-001,
          1.8702080741024335e-001, -2.0812779839611839e-001,
          8.3016902737612042e-001, -4.9600809568661121e-002,
          -9.6950355869982685e-002, -2.8220634988204030e-001,
          -2.4599306434262422e-001, 1.4085047277283810e-001,
          -2.9712937967075526e-002, 1.4699355686604318e-001,
          9.2402903175160006e-002, 8.9364710053007376e-002,
          6.6284872457603805e-003, 1.2875422953856380e-001,
          7.3761286641030058e-002, -2.3763899366796559e-001,
          -4.0035798544609502e-001, -4.3182560683628241e-001,
          -8.7694829818788178e-002, 2.2040742383442705e-001,
          -3.5852202721682561e-002, -3.7241867309475686e-002,
          -8.1854459642859673e-002, 4.3259484474665127e-002,
          3.8958592309722551e-001, -2.4117606214329096e-001,
          8.0660545253664884e-001, 3.1081648061490019e-001,
          -4.9681179642902518e-001, -6.2361011343376460e-003,
          1.5227496452802436e-001, -5.8786945826969021e-002,
          -1.7323483877100267e+000, 2.9124313609487851e-001,
          1.0385261740572604e+000, 2.9107296594364562e-001,
          -5.9513108422326266e-001, -4.9602539238986171e-001,
          -9.4675972797872321e-002, 2.8691353162037958e-001,
          -3.8463149991121853e-002, 2.6423249839189833e-001,
          8.2898861187899231e-001, -2.9514315729233451e-002,
          -1.8923725082479551e-001, 3.2105395057526231e-001,
          5.4853710645453493e-003, 1.3572279029235584e-001,
          3.3887204674701310e-001, -1.9288197803627508e-001,
          -4.6027598952261745e-002, 3.9222292134173428e-002,
          -1.6016409534182399e-001, 1.3023625394075822e-001,
          -7.3110520233702414e-001, 7.7811607637111480e-002,
          8.2574158289667532e-001, 2.4603221572515894e-002,
          9.2975065780675506e-002, 6.8950181437315905e-002,
          -2.0351992896195362e-001, -6.9550090349269331e-002,
          -2.6482015026055385e-002, -2.9365173965244355e-002,
          4.1960117566775013e-001, 2.1311461831292511e-001,
          1.9244761188100371e-001, 1.0610788992784221e+000,
          -8.3866651739976220e-002, 3.4725505887419142e-002,
          -8.2131418624108166e-003, -1.6549600392974767e-001,
          2.8893849578497061e-001, 2.0310952006642671e-001,
          -9.5776779646779719e-002, 1.2629801331426335e-001,
          -2.7571078741366478e-001, 3.9282597806285224e-001,
          -3.1803908648778106e-001, 1.2471332359978189e-001,
          1.0117247512633457e-001, 1.4753717673466715e-001,
          -3.2834722982145220e-001, -1.0236494788069962e-001,
          3.7377932037672468e-001, -1.9946084690568404e-002,
          2.2758646046027331e-001, -8.6265986509040549e-002,
          -7.2089722864680378e-002, -2.2311749644105994e-001,
          -1.6787381554808140e-001, -1.7480488482925723e-002,
          1.5607364661376588e-001, 1.0877689296867293e-001,
          -1.7143603095297386e-001, -1.8344057453741855e-001,
          -3.0051355346483832e-001, -9.7276648707606786e-002,
          -2.3657791124739622e-002, 3.9628048710646696e-001,
          -1.9158088563237141e-001, -2.0309131152285143e-001,
          4.5812342544557759e-002, 8.8121758099135097e-002,
          -2.0726083002843607e-001, 2.0407279761227703e-003,
          -5.6414615879802482e-002, 5.6232510657164197e-002,
          1.4959785066747985e-001, 1.8009239228197613e-001,
          1.3769045525930004e-001, -1.5710105802901139e-001,
          7.8280504084272146e-002, -7.2408696757534100e-002,
          -4.2218679554921971e-002, -2.7211263583595635e-001,
          -1.5387199109285790e-001, -3.7610250563395570e-001,
          -7.2777962211548475e-002, -9.6029518703434902e-003,
          8.6060124174309419e-003, 3.2491147546566887e-003,
          -1.1992775646431501e-001, -1.8683564342203487e-001,
          -8.2272502678150783e-002, 3.5596837689467847e-001,
          -1.0561815250954154e-001, 3.6879805918374187e-001,
          -4.9503143130263860e-001, 9.3519288295171935e-002,
          1.3252673962211028e-001, -1.9013478638140133e-001,
          3.1823459296691814e-001, 5.2975218315794148e-001,
          -7.3156965455467987e-002, 2.3554215058870481e-002,
          5.0189709436708974e-002, 1.5553227791811189e-002,
          -7.4094107574049037e-002, 1.4830906751820991e-001,
          1.4004670847650244e-001, -5.6080313920958851e-002,
          -1.4814993184260772e-002, -2.4884920264623747e-001,
          5.9143607842077527e-002, -1.0514565575691472e-001,
          -1.7437797889705592e-001, -7.4758291840675867e-002,
          -1.5821738562213991e-001, -7.6440481723124440e-002,
          -1.5572005501504546e-001, 2.2290126053518466e-001,
          -1.5741391499302501e-001, 1.3992123928577307e-001,
          2.4498746643354047e-001, 4.1200294542793517e-002,
          2.0020700908868653e-002, -2.5162072525480855e-001,
          -2.3346280526792848e-001, 1.6722359112823842e-001,
          1.5652491041669894e-001, 1.4490442116339108e-001,
          -1.9853080628993797e-001, 1.7739233793299675e-001,
          -5.3119843576032211e-001, -2.2298555119865421e-001,
          -1.1543937268953912e-002, -2.4470185694980162e-002,
          -3.2013700490522441e-002, -4.6920044399170258e-001,
          3.7435323965534684e-001, -2.8795702521770722e-001,
          -2.4187975637195022e-001, 1.4416536249801338e-002,
          9.2687479166020673e-002, -3.4043618054712038e-001,
          1.8802644231557347e-001, -1.4491127697535403e-001,
          1.3458023595641697e-001, 1.1014607830258559e-001,
          -5.1800397706462276e-001, -9.7521101503497909e-002,
          -2.2097919494992593e-001, 7.7687964640709099e-003,
          1.8823520467050697e-001, -8.1115738643209492e-002,
          -5.2739384961912980e-002, 1.2989964877210458e-001,
          7.9577538199139847e-002, 2.0269570370700618e-001,
          4.2701141164607888e-002, -3.5460207533852393e-002,
          -1.9100995508326890e-001, 3.4129567868700673e-002,
          -1.2216556608646069e-001, 1.0892058771517180e-001,
          -4.4974563073301110e-001, 3.0267835330824149e-002,
          -2.1074227927838352e-001, 1.5690946676166376e-001,
          1.7441202285496296e-001, 2.8826799937949538e-001,
          1.0320916956536641e-002, -2.0865341211651270e-001,
          -1.6537790496163454e-001, 1.3425101100113138e-001,
          6.0657658903931533e-001, 8.8488717285447840e-002,
          -1.4273371927979397e-001, 2.8319222458392090e-001,
          -1.0652766394164723e-002, -3.3522039209882004e-001,
          4.0998853747002217e-001, -1.1951252865411613e-001,
          -3.5842618370120399e-002, -7.5207682105170981e-001,
          1.1261342667386257e-001, 4.1701825925625169e-001,
          -1.4139166731527120e-001, 7.5748229095462466e-003,
          -5.6690082342548331e-001, -1.4360587211985512e-001,
          2.1168894707361363e-001, -1.7797388636669734e-001,
          -1.6156588919618650e-001, 4.7301378276386286e-001,
          -1.9717506353343067e-001, -2.1548871092500143e-003,
          1.0050620599116476e-001, -6.6007083135349517e-003,
          2.1657111895325848e-001, -1.7953790061312272e-001,
          -2.2533177888017225e-001, -4.6127835592015602e-002,
          2.6790679019788429e-002, -1.5628823993134817e-002,
          9.4780822579408189e-002, -1.1705152061611571e-001,
          -2.0862401366249173e-001, 4.9194984656630740e-002,
          -8.1431634338820102e-001, -3.3123501849592263e-001,
          9.8797672671462264e-002, 5.9405784236928283e-001,
          3.2573129815027047e-001, -5.7089074278148827e-002,
          9.4747317341275020e-003, -4.2936780564803413e-002,
          1.2984243629560405e-001, 5.2105317095789916e-001,
          5.7044019510117942e-002, -5.6937505372378294e-002,
          -2.1063757194503379e+000, 5.3734083763465897e-002,
          3.0936072177517423e-002, -2.4020884741837201e-001,
          6.5864073630658077e-002, 3.8409459063840946e-002,
          -5.2592101460793972e-001, 1.9521011737235006e-001,
          3.2120303272776840e-001, 5.4803373243396243e-002,
          -2.9642198855558777e-001, 1.6645807132892868e-001,
          2.7441747086007261e-004, 3.1122045032349954e-001,
          -3.1758129840492558e-003, -5.1397545924385182e-002,
          6.7566251027888491e-002, 1.7555502561737976e-001,
          9.1553171764645003e-002, -9.3811678445390762e-002,
          4.4085394857371685e-001, 1.1427789553898389e-001,
          -1.7784103776198479e-001, -5.1535784381266945e-003,
          1.0152711035537587e-002, -1.7246203690992756e-001,
          6.4757305424446271e-002, 1.1110158903069187e-001,
          -7.7102660763094266e-001, -2.0227802391049915e-001,
          -7.3340596531326940e-001, -2.5616275035446223e-001,
          -9.0666355778441121e-002, -1.1521294164756854e-001,
          1.0824922922192191e-001, 4.8107490543520072e-002,
          1.8114264727459464e-001, 2.1816681894653286e-002,
          7.4967647628229772e-002, -3.9380268368216703e-002,
          -1.4334022924745302e-001, -5.1198166257849863e-002,
          2.1512229910138331e-001, 1.8400841367579862e-001,
          3.5423724390556888e-001, 3.9790092745950606e-002,
          -2.6345695060260987e-001, 1.5276637093740944e-001,
          -8.6188033219648533e-002, -2.3760598397791030e-002,
          5.9624327793464471e-001, 4.5463188363886312e-002,
          5.5631817123299100e-002, 5.8479483070782011e-002,
          7.1642529779239100e-002, 8.9142749982559621e-001,
          -5.5823894756315307e-001, 7.0721712754843413e-001,
          1.1464421946711487e-001, 6.2056676399470163e-002,
          -1.9956159913770713e-001, 2.2216077419069280e-001,
          -1.1957763274637241e-001, 1.5112960188161678e-001,
          -1.0700809901274144e-001, -1.0403104145946658e-001,
          6.2109074102175178e-002, -1.9506329006552917e-001,
          -2.8011441460490361e-001, 4.6492449508583000e-002,
          -1.7560582069346134e-001, -2.6898947232120642e-002,
          4.3473867299986042e-002, 1.9248723566081008e-001,
          -6.9336350457283993e-002, -1.4976930225730514e-001,
          -1.2677309715320625e-001, 8.0928768933308165e-002,
          -3.9665012350785378e-001, 2.2587991072659065e-002,
          8.8687055727565101e-001, -1.3251909007253004e-001,
          -2.1908542052486513e-001, -2.7206852438799778e-001,
          -2.0666303425033172e-001, 2.0254790977860974e-002,
          5.8473580743755971e-002, 1.9607134073433108e-001,
          1.5138705164651972e-001, -1.9779544816103561e-001,
          -1.9256746046326512e-001, -5.5543735199912190e-003,
          2.4435168699246920e-001, 9.6183859266483041e-002,
          -2.1012224798664483e-001, 2.3831263999377894e-001,
          -6.4800604210362558e-002, -1.8208626137762016e-001,
          3.4404551830832431e-001, -1.9845562467805244e-001,
          -8.0376918764267016e-002, -2.2431469240153226e-002,
          2.3559513966304355e-001, -5.7165915023079861e-001,
          -1.1750446979375448e-001, -2.7455252335590777e-002,
          -5.3087747232962418e-002, 6.8493684018378498e-001,
          2.9115348590964896e-001, -1.4299441590649042e-001,
          2.1476630335937513e-001, 1.4861698350244232e-001,
          -1.5131594100669249e-001, -7.8692063201197959e-001,
          -8.8508182897608131e-002, -2.3814479307717637e-001,
          2.8837204029021002e-001, -1.5948086449043344e-001,
          -2.8336437855904323e-001, 1.8847757740166191e-001,
          1.6831636143679210e-001, -2.3036407510690873e-002,
          -1.5747125548692065e-002, 3.0403995309250281e-002,
          -6.4984340852992289e-002, -1.4000472132562006e-001,
          -1.7779673528993123e-002, 3.8190497585254163e-001,
          -9.0788189585753548e-002, 3.1555119111137203e-002,
          1.1270996312753734e+000, -7.3634922162895203e-002,
          -4.9487963128532553e-001, -4.9130167167618304e-002,
          8.3715746295610560e-001, 9.0640089073386743e-001,
          -7.8187737878836328e-001, -7.9787466813817473e-002,
          -5.0423037200117360e-001, -1.6862979839296721e-001,
          3.4051625896347693e-001, -2.1472949102980893e-001,
          3.9432588690630671e-001, 1.7339297061953940e+000,
          -1.2573181915911619e-001, 1.6673081186901278e-001,
          1.1831788793045984e-001, -8.7129358502004151e-004,
          8.2333119854060155e-001, -3.2051168366724958e-001,
          6.4998545652702744e-002, 3.9054098174519025e-001,
          3.2501909198497481e-001, -1.5208410053083135e-002,
          -2.4488287264162228e-001, 3.4720304950059078e-001,
          3.2912405511199394e-002, 2.1179337683925686e-001,
          6.5734687653087176e-001, 3.9897724152346048e-001,
          6.3059289685963513e-002, -1.8299840630733322e-001,
          -9.7931972996775044e-002, -3.8826811758477131e-002,
          -3.8364537596257665e-002, -6.1812336068424556e-001,
          -6.6748085633037224e-001, -9.2397578839791009e-002,
          -5.8066317425550251e-001, -7.7616564152566278e-002,
          1.8333611681714343e-001, 2.3940255881324174e-001,
          -7.6266004536206211e-001, -2.9889948491525675e-001,
          -8.2910639077155443e-002, -3.1062998115426430e-002,
          1.5130419967079242e-001, -1.7359701207355491e-001,
          -1.2715416040475955e-001, -3.4214785426076055e-001,
          -2.0283548959458356e-001, -6.1284987925072313e-003,
          -3.4401509008950747e-002, 8.8290534708487425e-002,
          -8.2614305292181243e-003, -8.2264526849108274e-002,
          3.3429571861753787e-001, 1.1050924222560168e-001,
          -6.0795883609333690e-001, 1.2055840185945001e-002,
          -5.1194038468622492e-002, 5.5539767563149788e-002,
          7.8788837659659286e-002, 1.9926653653081897e-001,
          -8.3899427686134689e-002, -7.9268953338326420e-001,
          1.1545634083319457e-001, 1.2681043779698353e-001,
          1.0929999784979544e-001, -1.2730403073975494e-001,
          -1.3599661046970621e-001, 1.1468969006817638e-001,
          -7.7685221270486882e-002, -1.2721866491324346e-001,
          1.9722293369517874e-001, 8.6819029311081666e-002,
          -8.2624884962078426e-002, -7.8859918006628268e-002,
          1.2675082785012173e-001, 4.9502272733207883e-002,
          1.5179363824774164e-001, -9.2676025275022070e-002,
          -1.0640396898665708e-001, 1.9653218098840278e-001,
          1.2688102843676377e-001, 8.9422322254309045e-002,
          1.1737479656688331e-001, -1.1348726937991047e-001,
          1.5351757112826772e-001, 2.4398790622168171e-002,
          1.2062147036087342e-001, 1.8649952247084720e-001,
          -1.1775205183684463e-001, -1.1131453925374005e-001,
          -1.6775940044651375e-001, 1.3489424969274834e-002,
          -2.0295497479566862e-001, -1.5567132624468258e-001,
          -6.9625876788877994e-001, 5.1356660429292947e-002,
          -3.5646192374093155e-001, 2.9215127387973022e-001,
          3.9555865460776857e-002, -7.7659563421620270e-001,
          2.0059588548749066e-001, 6.2165202637598886e-002,
          1.6255105145559870e-001, 3.7082836390427049e-001,
          -1.5877452403242054e-001, -2.8156151413726738e-001,
          2.5815237304747213e-001, 1.0280348043188914e-001,
          4.7345851068925959e-001, 4.9706500939716919e-001,
          -1.4325071318991975e+000, 1.3105822373155458e-002,
          -6.8453211600989078e-003, -1.4879654059759395e-001,
          -2.5127457374632851e-002, -1.1961735237004309e-001,
          1.2944228262698365e+000, 4.5718324858916130e-002,
          -1.2919911057597050e-001, 6.1068693257585530e-002,
          -3.1386343820039053e-001, 9.1934948494814372e-002,
          8.0181409172799234e-001, 7.9880036097934121e-002,
          2.6502910390729428e-001, -2.3408419509654563e-001,
          -1.0358142860057702e-001, -5.6548119244235681e-002,
          -1.3245798674316214e-001, 1.7887761414370479e-001,
          -3.0275658878397077e-001, -2.8353122659200436e-001,
          -1.8188649794103784e-001, -1.0132575732432262e-002,
          -5.5999211230860624e-001, 2.5012288489386542e-001,
          1.4504114698623302e-001, 1.9753010729459619e-001,
          -1.9762689451586565e-001, -1.5987088251787432e-001,
          -1.3655885634450529e-001, 1.3924272226677750e-001,
          7.1097924493153719e-001, 7.8470101402219605e-003,
          -7.8627307238088390e-002, 1.5512270664289315e-001,
          -4.2441448933484754e-002, -1.4278449908718324e-001,
          -7.1558672889529135e-003, 1.0961435584478028e-001,
          -5.7271116658898481e-002, -7.8290727584143782e-001,
          -1.7636389646060224e-001, 6.2487112515139254e-001,
          -6.6315141612628400e-002, -1.8679615386265405e-002,
          -8.7049403179485729e-002, -1.5196107428132280e-001,
          1.4269035266478489e-001, -6.5446870812086014e-002,
          8.3276232028307084e-002, 1.1391619736240663e-001,
          -1.7167796367349705e-001, -4.9491918709945425e-002,
          1.6933368048327946e-001, -1.5918070977059558e-002,
          1.7858219943568429e-001, -6.3674588607734742e-002,
          -1.2770022046994173e-001, -2.6732855252446716e-002,
          7.8561622889718699e-002, 7.8926007510976795e-002,
          3.9515689411042394e-002, -1.4874205362579013e-001,
          -8.4556292588836138e-002, -4.9457233018971654e-002,
          -1.9465814058927691e-002, -2.4345528052032665e-002,
          -1.7236730036943725e-002, -1.0613683475660633e-002,
          1.9303983232287591e-001, -9.2410634637375894e-002,
          1.2774324333505471e-001, -1.1035991082101795e-001,
          5.9956195922934628e-002, 7.2972863059202281e-002,
          7.3597547547579523e-002, 3.1998261389632902e-002,
          -2.7342637867331349e-002, -1.2504419415186452e-001,
          1.4811353539178643e-001, -2.4056162328039952e-002,
          1.0027340864430799e-001, 4.9766980901274294e-001,
          -8.1107924223930757e-003, 3.3322475740587765e-001,
          1.9914251752069501e-001, -1.0700476903478913e-001,
          8.6240401690201002e-002, 2.4391817601232668e-001,
          2.6288845697836327e-001, 5.9344841902682605e-002,
          -4.0003043925377579e-001, 3.2081284964819066e-002,
          -1.6173582381794110e-001, 6.1401305585404276e-001,
          -2.4289897263332383e-001, -1.4667710380689630e-001,
          -1.9247045067595578e-001, 1.5101244286022497e-001,
          2.4352488243291776e-001, 1.7324208276424762e-002,
          -5.1935528323641067e-002, 3.6970494797105946e-001,
          -8.2658430514539555e-002, 9.9039236029535016e-002,
          -1.8817283983013594e-001, -5.8866526404151864e-001,
          2.5485374114341675e-001, -2.9726422285279080e-001,
          6.1685780191958153e-002, 2.2185745186600150e-001,
          1.5565941978717213e-001, -2.2202388843156468e-002,
          1.5600502453226586e-001, 1.6145878655949542e-001,
          -2.1678845845220351e-001, 1.3388051343215235e-001,
          2.1675361997917975e-001, 1.3354548463582508e-001,
          2.1230917285089503e-002, -3.2245464210658581e-001,
          -4.1221608740399751e-001, 1.8001126596391115e-001,
          2.3528130108947529e-001, 1.9016932055820776e-001,
          -1.5548137097351014e-001, 1.2429059652631770e-001,
          -1.9496536079797880e-001, -3.9229468565037662e-001,
          1.4157629574213172e-002, -6.4567773225233091e-002,
          -5.7406997583897924e-002, -1.1579473652106211e-001,
          1.2592462508387645e-001, 4.1231685046959593e-001,
          -5.3059265630794321e-002, -1.7646529105132560e-002,
          -5.9203836580873845e-002, -3.7893093495935237e-001,
          1.5026733565370873e-001, -2.3464585668928215e-001,
          2.0147390381609062e-001, -2.5748186579933563e-001,
          -1.3931644226807507e-001, -1.3856434059075244e-002,
          9.0554337614652217e-002, -1.1582762930169330e-001,
          1.6933379733423456e-001, -1.4916955088544023e-001,
          -1.1845438202248011e-001, -6.5309693083728096e-002,
          -1.6851482958882943e-002, -3.5936785971810166e-002,
          -4.6341401517524347e-002, -6.3317813911028184e-002,
          -1.6108748705084924e-001, 1.2484182061457902e-001,
          -8.0493472745175182e-002, 1.3680822872070603e-001,
          9.8984321043746437e-002, -2.0830472204938452e-001,
          -1.4420682840020660e-001, 7.8192029170644564e-002,
          1.1761988408244065e-001, 2.5384149618158422e-002,
          1.8837450879208370e-001, -7.5476206210356403e-002,
          -3.7655095310576026e-001, 8.1502569881130221e-002,
          -3.5590292855259648e-001, 1.2345597691516581e-001,
          -1.5504623933502532e-001, -5.1899993967326252e-002,
          -9.8842215715633119e-002, -1.5057092643069200e-001,
          -4.7654954052652054e-001, -8.5130910208221250e-002,
          -2.9929098661883625e-002, 9.7756594274193420e-002,
          -9.9363779727575485e-002, -5.4756608089084571e-002,
          -6.5135508316218893e-002, -2.7955426544810913e-001,
          9.2967687944160271e-002, -9.1554094514897211e-002,
          1.0356472577121868e-001, -1.1799027264572962e-001,
          1.8903108486867412e-001, -1.5826837977296726e-001,
          -2.6840636330460443e-001, -8.2176746843086346e-002,
          -4.7718674230901414e-001, -1.0971488646738811e-001,
          9.7127590466619507e-002, -2.0483071474156642e-001,
          -3.5012130569356931e-001, -7.4677725346043555e-001,
          8.0982320672002547e-002, 2.2244071730940929e-001,
          -6.7258076213479664e-002, -1.0968227217800611e-001,
          3.6360896952074057e-001, 5.9928501068750514e-003,
          3.0510497383521129e-001, -8.1275398062862367e-002,
          -3.4801489749428960e-001, -1.0282902949539574e-001,
          -1.0254579053598409e-001, 6.4978121027934529e-002,
          1.1173733771130928e-001, 4.2236863806138547e-001,
          3.1260300702183760e-002, -1.3217787167123088e-001,
          -1.4882060342698911e+000, 6.3502250255126434e-003,
          1.0195205247267831e-001, -2.8489189946219967e-001,
          -3.3174656060167951e-001, 1.8003558771339811e-002,
          -1.8746314861441188e-001, -5.1600570763429492e-002,
          -5.3154395784837671e-001, 2.3601703621722349e-002,
          -5.2182268649933986e-002, -8.4516943476595296e-001,
          1.4547330320255339e-001, -6.0346567275744445e-003,
          -6.8697182538361046e-002, -3.6536341234632071e-002,
          -2.5118064516724430e-002, -2.8589416208537838e-001,
          4.7207394673863950e-002, -5.0446133025478096e-002,
          1.0556209252333650e+000, 9.4693163686515502e-001,
          -5.7845221417944438e-002, -5.1253773477332350e-002,
          -1.7706343303913571e-001, -7.8501626865073129e-002,
          5.1922590993995384e-002, -1.4246206863934990e-001,
          -3.6076124176353717e-002, 6.9735971308558506e-002,
          -1.0954073640703195e-001, 3.4437859135392289e-002,
          -1.3539129879235193e-001, -1.0935000124742200e-001,
          1.6113904481685298e-001, 3.9428465898722065e-001,
          -7.6949394868724197e-001, -1.6554093635521261e-001,
          -8.6542621378721751e-001, -1.8412412391820127e-001,
          2.5573896859687273e-001, -7.0087901783943141e-002,
          -2.2073207423292365e-001, -1.6268963174157691e-001,
          2.0145827945660572e-002, 2.9934729497775059e-001,
          7.0708212800495585e-001, -6.5418296938919152e-002,
          -1.2772035570128398e-001, -1.8392786666929173e-001,
          5.4189411116703723e-001, 4.1355733471623118e-001,
          -1.2328117205686696e-001, 1.8267420571849780e-001,
          1.0259180365198264e-001, -1.7164941598404523e-001,
          1.0873888864146083e-001, 1.2493043338773074e-001,
          2.7317011412609272e-002, -4.1720810903261185e-001,
          -2.0197580640530141e-001, -3.5899726418299732e-001,
          6.5918787821493341e-001, 2.8440764957477083e-001,
          -3.4655459867339572e-001, 4.6391256800419173e-001,
          7.0787271476157043e-003, 1.0402518034748836e+000,
          2.0955208801564382e-001, 1.0024313775459885e-001,
          -1.3663244013835188e-002, -7.0652084081828451e-002,
          -1.5796009787580878e-001, 1.1225830401826284e-001,
          7.7099311607857463e-002, 1.7901140090123269e-001,
          -2.4411448790916584e-002, 5.0039409255278988e-001,
          -1.8184470266392350e-001, 2.5784149066303680e-001,
          2.5199632579919679e-001, -3.2183800072073432e-001,
          -1.0223818003974905e-001, -1.5438776764858911e-001,
          1.0109269375000848e-001, -1.7636762972985373e-001,
          4.0505293336779447e-001, -1.7991954805744084e-001,
          -1.6039653123508332e-001, -6.4837495187671734e-002,
          1.5082578494533158e-001, 1.3036587217430659e-001,
          1.6661481105119361e-001, -2.1381453747113480e-001,
          -1.6168863586256682e-001, -1.6056876855801913e-001,
          1.3140510052648227e-001, -2.6243836412540951e-003,
          -2.9705221704045071e-001, 8.4191403355302424e-002,
          -9.4958867585024628e-002, 7.6083746016675335e-002,
          2.8993655044471783e-001, 5.3934504809702166e-001,
          1.1912639873893383e-001, 3.6819704577015394e-001,
          -2.1418468237330218e-001, -7.2801860093941653e-003,
          -7.6613531354920383e-002, 1.0032816289258220e-001,
          -2.4226241270606463e-001, 2.8292578049007999e-001,
          2.6633418509159434e-001, -1.7152518415361975e-001,
          1.9422995091794260e-001, 1.1372109667609169e-001,
          2.9142714487726644e-002, 1.8688553799402810e-001,
          -8.2961338492041736e-002, 2.2119710640793705e-001,
          1.3046277833475634e-001, -3.1498624448335399e-001,
          -2.9169781831070984e-001, -2.7535206657947708e-001,
          2.3698726190972564e-002, -2.8247767267287109e-002,
          1.7560624506452935e-001, 1.7096382762782272e-001,
          -1.8028897873051478e-001, -1.7694519822040464e-001,
          -1.0664666411287654e-001, -2.5826988256489623e-002,
          -1.2412851811756105e-001, 1.6511063080023311e-001,
          2.3079688836794324e-001, 2.5620211283433086e-002,
          -1.5059364391049308e-002, -2.2615175685380731e-001,
          -1.1916895976920683e-001, 3.0066203500953192e-001,
          2.2482521803674865e-001, -6.1432430111462370e-002,
          -1.9448418439216117e-001, -2.2638383362302503e-001,
          -1.2023372403015369e-001, 7.1997239649684575e-002,
          4.6046524686900986e-002, 6.1143130535568919e-002,
          2.0519451736909800e-001, 2.3957145115374454e-001,
          1.0901240285061553e-001, 8.2929320539378359e-001,
          -2.5960048384150403e-001, 2.2387978420495577e-001,
          -2.0778178553318644e-001, -2.2781311927999889e-001,
          -1.5230808358342612e-001, -1.4885621585666756e-001,
          2.6562326116666202e-001, -2.4451764350654528e-001,
          -5.4062087614240772e-001, 8.0666555723612046e-002,
          -6.7642167596422442e-002, 9.7996735654854158e-002,
          -8.0569768681746187e-002, 3.1896655065244361e-001,
          2.7905938750163450e-001, -7.1796294827498316e-002,
          1.4134016936109284e-001, -2.1608868653220617e-001,
          3.9664364898149840e-002, -4.7294446980069842e-002,
          -2.4166139350613738e-001, -1.4079063938925318e-001,
          -9.7858453534671222e-002, -8.1722762553170347e-002,
          3.2633961086117769e-001, -8.0675488917110488e-002,
          -1.2663528283409595e-001, 1.6525545770002939e-001,
          1.7400251434729055e-001, 3.2293457078439736e-001,
          1.0748310915749146e-001, -1.6177095989558435e-001,
          -6.7360014989888906e-001, 1.6512467755413854e-001,
          -5.5992327051185668e-002, 2.4629662734937607e-001,
          -1.8000537493610216e-001, 1.7674732454288808e-001,
          -6.7531277432592823e-002, -1.6246936388178126e-001,
          5.8430555236721974e-003, 5.1788174824226992e-002,
          -1.8895263266281834e-001, -6.1841894690974189e-002,
          2.8824500040918161e-002, 4.2989989653444555e-002,
          -3.5234911721731571e-002, -1.2632199515775697e-001,
          -1.8874684075636014e-001, -1.3848885062408581e-001,
          9.5684127043294084e-002, -2.1064754054722701e-001,
          2.7646703229749259e-001, -3.6766013190298090e-002,
          -1.5737454212777832e-001, -3.9434509893358460e-001,
          -6.8847947768898840e-002, -9.7049064607899749e-002,
          1.6359213564219324e-001, -1.5991325611349549e-001,
          -9.1889490733363680e-002, -4.0018915794555673e-002,
          5.8929813642647606e-002, 1.9019153341182193e-001,
          1.1347175925718784e-002, -1.0716955566998405e-001,
          -2.0109191191978792e-001, 3.5385568083739237e-002,
          8.9676022482868406e-002, -1.6584071576138677e-002,
          1.7994050986735508e-001, -2.2671867975099452e-001,
          -2.3869009442332756e-001, 1.6998895705754488e-001,
          2.1525843306257339e-001, 1.8913461448959051e-001,
          -5.8371025901785660e-002, -2.1529696150121136e-001,
          2.7475762671621667e-001, 2.8708769587284438e-001,
          5.2910548033558311e-002, 7.8937815554222496e-002,
          1.1709889757312721e-002, 1.3692438904632825e-001,
          -2.1922721346180804e-001, -1.3587658991875190e-001,
          -4.8419706103983740e-001, 9.9343726636231122e-001,
          -7.9221456273626673e-002, 8.5927102449229575e-002,
          -1.5160650214888532e-001, -1.6668470670884666e-001,
          -3.0345674524786679e-002, -6.8957731018099780e-003,
          2.5583633478289767e-003, -9.9178483705337508e-002,
          2.4317077532219791e-001, -2.1969875118782387e-001,
          -1.1946925466396852e-001, -1.0189340345701497e-001,
          -2.3218065042245492e-001, -1.0497241171105288e-001,
          -1.6786721023409723e-001, -1.1773715524476336e-001,
          1.6585058834732108e-001, -7.5915218884662933e-002,
          -1.5579192372410081e-001, -2.5415591677605898e-001,
          7.5872822404213100e-002, -2.1573178751283778e-001,
          -5.0905836622426137e-001, -4.4309098382048062e-001,
          -1.7633529907191234e-001, -2.8838014067026324e-001,
          3.1862272087609489e-001, -1.6785844649422138e-001,
          1.2186055187037903e+000, -9.8128064279033067e-001,
          7.8016914406716487e-002, -1.3373859454044656e-001,
          1.8137078080516222e-001, 2.3019320896713935e-002,
          -6.8244541955586124e-001, -8.3025308360134198e-001,
          8.4624161651836038e-001, 7.9939661036737131e-001,
          -3.1777244331770982e-001, -5.5834309588833042e-001,
          -1.4162859290200455e-001, 1.5162978439851535e-001,
          -1.0346425095981384e+000, -3.0416147930777271e-001,
          6.4372370531400103e-001, -9.8077684373132334e-001,
          1.2169379973937140e+000, 9.8294937830359164e-001,
          -7.1220244767972851e-001, 8.0849309711961959e-001,
          -2.0650329741872095e-001, 7.4415999999999993e-001,
          -1.9067760142377047e-001, -7.4358144271239746e-001,
          3.6322888161995592e-001, 1.4862871006418618e-001,
          9.7540667220411770e-001, -8.1655286670740557e-001,
          -1.9873316824801224e-001, 6.8586827103229375e-001,
          -1.3061925096776326e+000, 8.5851329137309929e-001,
          7.4700529827103579e-001, 1.1775877770268033e+000,
          4.0905950418743064e-001, -9.7909465099083093e-001,
          -6.1829132414371446e-001, 4.4460632556696550e-002,
          9.5881590982274112e-002, 2.2558390377088919e+000,
          -7.7796074496599565e-001, -2.0780860882493313e+000,
          -2.4419121352113582e-001, 8.7340509884566297e-001 ]
      - [ -5.8607424108311545e-001, 9.1424496784597631e-001,
          1.0155144805908208e-001, -1.4442706403508782e-001,
          -3.8416366366150390e-001, -8.3964233130216614e-002,
          5.3591904093039033e-001, 3.9521776041736600e-001,
          4.2715338288247595e-001, 2.1650200468979430e+000,
          7.4206032605590833e-001, 1.0245266736819623e-001,
          4.1309515543282027e-001, -7.0702002326026547e-001,
          -5.5785353846549979e-001, -4.9623952559113499e-001,
          9.8016807393580718e-001, -7.5001626231405116e-001,
          6.2705750313887587e-001, -2.2493380944502953e-001,
          -6.5708633067458855e-001, 1.7959897283303750e-001,
          -3.1314650446176517e-001, -5.5771811250597242e-002,
          3.1265054545769100e-001, -3.7412875119969252e-001,
          9.3385263920798878e-001, -9.1958176874369427e-002,
          -1.0109728120267390e-001, -1.7451828512539230e-001,
          5.5630606630817070e-001, 2.2526668906211848e-002,
          1.8075459915623071e-001, 3.7047586083403233e-001,
          -7.1897467559134343e-001, 6.0805779879242161e-001,
          3.7531503676816108e-001, 5.3664080711081619e-001,
          -1.0067999050021173e-001, -3.1344092765308626e-002,
          -4.0111392857015121e-001, -1.4211437375098468e-001,
          1.5897292603626850e-001, 6.8101057387515895e-001,
          -1.5310165570797174e+000, -5.9323509375244388e-001,
          1.4697665567040444e-001, -1.0964520430192351e-001,
          2.4590042752698066e-001, -1.9524777030525201e-001,
          -2.8021739458665257e-001, -1.5069379014106987e-001,
          -7.7980757372125975e-001, 5.9142190625891078e-001,
          7.7126794068217275e-001, -1.7947365543067459e-001,
          7.3581089837992197e-001, 4.1687015631958840e-001,
          5.4088139857023954e-001, -4.1176440982346518e-001,
          5.8327623617276536e-001, -5.8360153677165527e-001,
          4.4614141765981902e-001, 1.9305841624121070e-001,
          1.6642835465711325e-002, 2.5591150250285871e-001,
          -2.6164061350896956e-001, -7.8450616458058364e-001,
          2.8392420746909985e-001, -1.8268808633372188e-001,
