%YAML:1.0
my_nn: !!opencv-ml-ann-mlp
   layer_sizes: !!opencv-matrix
      rows: 1
      cols: 3
      dt: i
      data: [ 45, 33, 5 ]
   activation_function: SIGMOID_SYM
   f_param1: 1.
   f_param2: 1.
   min_val: -9.4999999999999996e-001
   max_val: 9.4999999999999996e-001
   min_val1: -9.7999999999999998e-001
   max_val1: 9.7999999999999998e-001
   training_params:
      train_method: RPROP
      dw0: 1.0000000000000001e-001
      dw_plus: 1.2000000000000000e+000
      dw_minus: 5.0000000000000000e-001
      dw_min: 1.1920928955078125e-007
      dw_max: 50.
      term_criteria: { epsilon:9.9999997764825821e-003, iterations:1000 }
   input_scale: [ 1.5875643663912758e-001, -1.0227672882610970e+000,
       2.6309538948030525e-001, 1.6904349333356112e+000,
       2.8637310124161053e-001, -9.2364932846355452e-001,
       2.4984521775061566e-001, -3.2246943733031114e-001,
       4.7195853338427995e-001, -8.0163437820307593e-001,
       3.8600396543788246e-001, -8.7515678945610931e-001,
       3.6396935187815588e-001, -3.1849080198022817e-001,
       4.7593830037049711e-001, -4.4804528069315464e-001,
       3.7890182214596480e-001, -1.0322768518920507e-001,
       3.5377509264133233e-001, -4.8358576261756098e-001,
       6.6454091622896361e-001, -1.9271862667914053e-001,
       5.6038803680221616e-001, -9.9250646325648750e-001,
       5.9579348561700740e-001, 5.0329855333133455e-001,
       4.4706759993389916e-001, -7.1119562472429954e-001,
       7.0861947115959589e-001, -5.7209849519264144e-001,
       6.6024585436779626e-001, 1.0602592828271225e+000,
       4.7355546554714745e-001, -1.5163282628411483e+000,
       8.2618174708928205e-001, 2.0876604872117763e-001,
       5.4239235055031887e-001, 1.4154652379230590e+000,
       8.5806355589116523e-001, -7.7642716075729656e-001,
       3.8368261362260381e-001, -1.4886149975814070e-001,
       8.5943061440875590e-001, 7.2454432409824776e-001,
       7.2658284522710148e-001, 2.4264714676906923e-001,
       6.4844486673734658e-001, -2.8724212871006854e-001,
       1.1166078684674390e+000, -1.3698920715494298e-001,
       7.7746911725660528e-001, -7.2008998750933195e-001,
       9.9288467214074327e-001, -7.6034963324305538e-001,
       5.6523339979339138e-001, -1.9536553817922125e-001,
       7.5735280357890677e-001, -1.0157476935922847e+000,
       9.1710624688796349e-001, -1.1482479578840090e+000,
       1.0322529248581018e+000, -8.9590184080714685e-001,
       9.1851290538053709e-001, 8.4620594060017718e-001,
       1.0493334051469621e+000, -7.4230055845524445e-001,
       7.2246365317968297e-001, 3.7766664712882680e-001,
       7.8200754726567168e-001, 3.3190818242336967e-001,
       7.8195092161761481e-001, 4.6870240444359773e-001,
       1.0214357293146812e+000, -3.3049252677121260e-001,
       9.6101299771026949e-001, 1.4715843682710983e-001,
       1.0817944052905915e+000, -5.9205157145189813e-002,
       7.8522493080793343e-001, -6.2566927605472489e-001,
       1.1049236044031012e+000, 1.6014830255445778e-001,
       1.0855106038158011e+000, -5.4681211929196261e-001,
       9.9379954837445272e-001, -3.6535835238531372e-001,
       1.0322776999864369e+000, -7.8874415557560895e-001,
       1.2654751026413111e+000, -7.9166164607501432e-001 ]
   output_scale: [ 5.2631578947368418e-001, 4.9999999999999994e-001,
       5.2631578947368418e-001, 4.9999999999999994e-001,
       5.2631578947368418e-001, 4.9999999999999994e-001,
       5.2631578947368418e-001, 4.9999999999999994e-001,
       5.2631578947368418e-001, 4.9999999999999994e-001 ]
   inv_output_scale: [ 1.8999999999999999e+000, -9.4999999999999996e-001,
       1.8999999999999999e+000, -9.4999999999999996e-001,
       1.8999999999999999e+000, -9.4999999999999996e-001,
       1.8999999999999999e+000, -9.4999999999999996e-001,
       1.8999999999999999e+000, -9.4999999999999996e-001 ]
   weights:
      - [ 2.9250942010209818e-001, -2.9401491421765008e-001,
          2.9238189084016553e-001, -6.7887748145404714e-001,
          -8.3098352161755273e-001, -3.5456495205422002e-003,
          5.3189765744489248e-001, 1.6927567029429050e-002,
          7.8177624143057067e-002, -1.9969978342524158e-002,
          -4.6578942396689423e-002, -4.3652363721534311e-002,
          7.6814391500001883e-002, 2.8308698381159271e-002,
          -5.1864344663726081e-002, -3.1921264836748370e-001,
          5.8099035955365830e-001, -4.3108198408151555e-001,
          7.0305309434656438e-001, 1.3528055563274832e-001,
          -4.2621018489741613e-001, 1.0640324481691153e-001,
          9.6301662184749434e-002, -1.2068208320002785e-001,
          -3.7252813598281259e-001, 1.0648910112995975e+000,
          5.0248266246500872e-001, 4.1610167266213643e-001,
          7.5180279178595155e-001, -1.5619828642086608e-001,
          2.8712908038065826e-001, -2.7046668672398827e-001,
          4.2782815026812260e-001, -3.4632109536875200e-001,
          1.2715894984946019e+000, 7.0425529756642527e-002,
          -7.5991900134914622e-002, -2.6723436662639038e-001,
          1.2072154772417995e-001, -3.7053322981045722e-001,
          -6.2412316431144821e-001, 2.8322132684010187e-001,
          -3.1003092301547813e-001, 1.3766707677916903e-002,
          3.4728241009367160e-002, 3.6016727527296305e-001,
          3.2320135523753318e-001, 1.6741234829932225e-001,
          -3.5291462349203540e-001, -4.4747014266365087e-001,
          3.6808961830975617e-001, 1.7972538401665211e-001,
          -1.0339596931820466e-001, 1.9482731774578663e-001,
          4.0360771458603818e-002, -8.0280135926826784e-002,
          4.5485754122804173e-001, 4.1887022194800821e-001,
          4.5556129624745206e-001, 1.9778430088059104e-001,
          5.0174183828457253e-001, 1.6802877166441754e-001,
          7.4420247634894043e-001, -4.7766833288545635e-001,
          6.0658789272359548e-001, -2.5635528155999754e-001,
          -6.5766293101104667e-001, -9.6593218349489071e-002,
          -2.6590044340430175e-001, -1.0406919352114641e+000,
          4.8977871879558613e-002, -1.1087465489254261e-001,
          6.3361797988488552e-002, 2.8493725406243492e-001,
          2.9244189767504097e-001, -3.9604727211398000e-001,
          -4.2453570637025706e-001, -3.7260679365244763e-002,
          9.0920846654821211e-003, -1.1207116921044172e-001,
          -9.9370036016444944e-003, 1.3770441866314004e-001,
          -3.9038229170530155e-003, -2.9854101672474948e-002,
          8.2797999056424543e-002, 2.1171160277903811e-001,
          4.4593109086907046e-001, 3.2930971572866827e-002,
          -5.0438440709917109e-001, 5.7591392432710542e-001,
          1.9603494408687563e-001, 5.6059580708504064e-001,
          -1.0828295314250115e-001, -1.1105771139593759e-001,
          -1.2797111330786792e-001, 2.2851040119505456e-001,
          -3.8391380055295264e-002, -4.4465558171477820e-002,
          -2.9197569808574853e-001, -2.4222734310615123e-002,
          -6.3903873009557632e-002, -2.7938279259551074e-001,
          -1.5961008588354919e-001, 1.0494327877400215e-001,
          6.6304284438157127e-002, 1.3679899490981862e-001,
          -1.3238244318805742e-002, -1.6582534984316755e-001,
          1.6844401020859229e-002, 3.9632020167314058e-001,
          -1.5906960350468424e-001, -5.8988259728867443e-001,
          -7.2027657565312750e-002, -1.0307360886411883e-001,
          1.5039841949208210e-001, 5.1082768796678321e-002,
          1.5883322637805675e-002, 5.6216441723218803e-002,
          9.3691180666803028e-002, -3.3135854919361724e-001,
          1.3878579837429000e-002, -7.9177724538903926e-002,
          -1.5025757880530002e-001, -1.3902300558792346e-001,
          -1.2130058918028339e-001, -1.2629791604767375e+000,
          -1.2955547378901405e-001, -2.9283325298270092e-002,
          -1.4989896059519248e-001, -6.5554168706807067e-002,
          -9.8559209358606348e-002, 1.9566535658512899e-001,
          2.3999456465897520e-001, -1.0081965529704617e+000,
          -2.4428921730874892e-001, -2.7188884313023565e-002,
          1.1944185088411766e-001, 3.8702540345818957e-002,
          5.3706316189702896e-001, 1.0617105727124422e-001,
          -1.8169560627341491e-001, 1.1416265201154554e+000,
          2.8389048171980874e-001, -2.1487478104711553e-002,
          -2.6924328583131447e-002, -2.9258190694875025e-001,
          -1.4254620183357061e-001, 8.7914438533820260e-003,
          2.0819318884572480e-001, -1.7842423477129254e-001,
          -8.9359523173522387e-002, -1.8160937450384748e-001,
          -7.7185911690058936e-002, -6.5404669676511790e-002,
          -7.5810088783522106e-002, -2.7565389579607424e-002,
          -1.0336499322808879e+000, 1.3581381164270179e-002,
          -1.9090017299418144e-001, -1.5529133811545562e-001,
          -2.6857484273650815e-002, -1.0676214186094073e+000,
          1.9575715151615095e-001, 7.5818385673841748e-002,
          7.5311336991102673e-001, 1.2105879774756850e-001,
          -6.6494407489982321e-001, -3.9999354903934921e-002,
          -5.3677147381358215e-001, 1.5780859264075500e-001,
          -1.2219943671725877e-001, 1.2957703194786191e-001,
          6.2963081507630666e-003, -9.1523040481252926e-002,
          -2.1852117674189728e-001, -1.0655492486871818e-001,
          -9.0057062039351221e-001, -5.8357218572689684e-001,
          -1.8879667556629118e-001, 6.7002560072536993e-002,
          6.8165305822542127e-002, 1.0040857024629256e-001,
          -8.2439970516484207e-001, 1.7942705922959307e-001,
          -2.2884785595846358e-001, 2.1685033795115266e-001,
          1.4670840354430614e-001, -3.5719658808383237e-001,
          -8.0494593728139482e-002, 2.3703317708385713e-001,
          -1.2991923945672568e-001, 1.2792758411829352e-001,
          -1.3885025067742091e-001, 4.2249384189297155e-002,
          -6.4411290318094921e-002, 2.1597748166815447e-002,
          -2.8324905408517820e-001, -1.5403038694248347e-001,
          5.6242092882294559e-001, -3.7286566396885469e-002,
          8.8102543603845271e-002, -2.2745149444315133e-001,
          -2.1321050452886151e-001, -1.4538524987062640e-001,
          4.3803770905944861e-001, 2.4442796204785536e-001,
          -6.6734833290295378e-002, 1.7569263003251923e-001,
          -9.4193417714486333e-002, -1.9959493892719032e-001,
          -1.0535562083084215e-002, 2.5773309540783901e-001,
          1.5245476365878619e-001, -1.9349477695258305e-001,
          9.8753991460818979e-002, 1.6430786354552199e-002,
          -2.8239047444031090e-001, -5.3044642846954822e-002,
          -3.1976515632537644e-001, -4.0194026542844896e-001,
          3.9439137240991451e-001, -1.0414498900884336e-001,
          -2.6177809384697537e-001, 3.4262733135454687e-001,
          -1.2137468013416530e-002, 2.1407838040186078e-001,
          3.0718099314771696e-001, -3.1718583458327065e-001,
          -6.1341108159912838e-001, 8.9844437296922464e-001,
          2.3822345723902447e-001, -1.3584555006742902e-001,
          -8.4026663026305917e-002, -1.1535275854009451e-001,
          -8.7112904271632291e-002, 3.0726572346259556e-001,
          1.4205396091215131e-001, -7.7271345270735259e-002,
          -6.4212103431590548e-002, -4.7372526082630961e-001,
          -1.0777931726638644e-001, -8.2569740136174102e-002,
          4.5762312080590645e-001, 5.4816059188024541e-002,
          9.2952684373672406e-002, 1.2345817692095282e-001,
          -9.1206133483439658e-002, -1.1808366975455484e-001,
          1.3882444659591092e-001, -1.8011579890365284e-001,
          -1.5989852177379058e-001, -8.4767757902724436e-003,
          -9.6861134498792092e-002, -5.3967736227538102e-002,
          -6.4381301622212034e-002, 3.0319623348427538e-001,
          6.4846349559634497e-001, -5.4693973642949145e-001,
          1.9190075333487838e-001, 1.3267080404226261e-001,
          2.9341237986222118e-001, -3.2444776204008194e-002,
          1.2732201626087014e-001, -1.6526351220182078e-001,
          -4.3202764171924840e-001, -1.5954946293062774e-001,
          -1.3734810315338677e-001, 3.4996159414002398e-001,
          -8.5107194483476742e-002, 6.1855063968060779e-003,
          4.5314317312434231e-002, -1.6460773538803916e-001,
          -1.3410126587778259e-001, 7.3110287440045441e-002,
          1.0509744447192054e-002, -2.8506151437584987e-001,
          -1.2041974734774487e-001, 9.4522252134344273e-002,
          -2.4249815588085932e-002, -1.6608398736356711e-001,
          9.2238890565056811e-002, -7.5995681416072339e-002,
          -1.1002861357613161e-003, 3.4660254942841286e-002,
          -1.4631996383294618e-001, 2.6128804304963771e-001,
          2.7065500903340943e-002, 1.1131895764034119e-001,
          -6.9366958848851482e-002, 2.1712626099368798e-001,
          -1.4143569257887297e-002, 4.9217250864829233e-002,
          5.6675496987019652e-002, -9.6180832182713866e-002,
          -4.8962612883671409e-002, -1.5953345313556888e-001,
          9.6239475000097108e-002, -1.6263902539176389e-001,
          1.7860130213986133e-001, -1.6595063192791505e-002,
          1.2905766364013866e+000, 1.2696314059881131e+000,
          1.4047987379475330e-001, 4.7475552181864132e-002,
          7.7233180743444749e-002, 6.2264851135781007e-002,
          -4.0661142471903909e-002, 2.1939216055305277e-001,
          -1.2273029954368415e-001, -5.6019965149844156e-002,
          -1.5040975616061498e+000, -4.2736735421944942e-002,
          1.2525597455220716e-001, 3.1271045632014570e-002,
          3.0669884612915289e-002, -3.8561691950619242e-001,
          -9.3222174341893976e-002, -4.0052142408788211e-002,
          -1.3596907671364158e-001, -2.6813647258730686e-002,
          -6.8452947754601826e-002, -7.2191101775539142e-003,
          -1.0523769392917430e+000, -4.0900690587904596e-002,
          -7.7356106035246980e-002, -5.0494389154962649e-001,
          -2.6914696371808156e-001, 3.6395886319976929e-002,
          -2.3764020034113961e-001, -5.8591963154488717e-002,
          6.7300080952038169e-002, -4.6054969296485465e-001,
          -4.6984828891277353e-001, 2.2144158739719402e-001,
          9.4554048429754955e-002, 1.6849847976502036e-001,
          -4.5686250425872751e-002, 1.5691163947233899e-001,
          7.4174394101782851e-002, -8.0956405288514477e-001,
          -2.8010421920883233e-001, -2.3865285007335868e-001,
          -1.5379024019307092e-001, -9.4792818552556585e-002,
          -5.4397593735888081e-002, -4.2085638630653444e-001,
          1.0590143503659930e-001, -2.0894081477634838e-001,
          2.3234678985157794e-002, 1.9340718905045784e-001,
          -3.7868034139389002e-002, 4.4714498999216992e-002,
          -6.4057298990319492e-002, -1.4520016753548257e-001,
          7.0300102755865804e-002, -8.6211848195162036e-003,
          -8.3572119172511117e-002, -3.2268975354376067e-001,
          6.9588985059373509e-001, -1.3223450930598871e-001,
          2.3438242928694381e-001, -1.6799104080640032e-001,
          -1.2527054152776824e+000, 1.4469371438538145e-002,
          1.2246686414258343e+000, 1.7900851891627009e-001,
          3.3335481163038895e-002, -1.6372113942294633e-001,
          4.3506096987117285e-002, -2.0553089625047671e-001,
          2.4152218484591823e-001, 2.1271346564834984e-001,
          -1.1431412173241193e-001, 8.4289389433339981e-002,
          -1.1114058471093584e-001, 1.9699384390705391e-001,
          3.3118784176181276e-001, 4.8282749647331857e-001,
          -5.7262168076890808e-002, -2.6339102276619553e-001,
          2.8304134083290852e-002, -2.8459390724654116e-001,
          1.8468676373822757e-002, -1.4812759007162213e-001,
          -1.1563087286402165e+000, 4.6924728187700443e-001,
          -8.1182349932682230e-001, -3.4252001914714503e-002,
          3.3902602834379375e-001, 8.4594632194919223e-002,
          2.0867359584516973e-001, 2.7732005446477509e-001,
          -2.4735597259094616e-003, -1.8550163565837416e-001,
          2.6688635173357350e-001, 1.1707479644716710e-001,
          4.1449499070523388e-001, -5.1132606908728717e-001,
          4.7761120816194019e-001, -9.2258320991427556e-001,
          2.3395998634266471e-001, -1.5745017409998641e-001,
          7.8950373995087608e-001, -1.7011263774451735e-001,
          -8.2760150873041016e-001, 8.8174846270128830e-003,
          -4.1951386046723549e-002, -1.7682252915432034e-001,
          -1.9354697245293107e-001, -3.0241976826517103e-001,
          -2.7503182512299557e-001, 2.9169325442808708e-001,
          5.4254670154998019e-001, -4.2226899030030152e-001,
          2.9240383593920272e-001, 1.1065435231197018e-001,
          -1.7390843972668604e-001, 1.6441502248781481e-001,
          1.1413194252871008e-001, -3.0459600879921533e-001,
          -9.4656176573413509e-001, -2.2332648280198480e-001,
          -2.9784097084211595e-002, -1.8074287802128788e-001,
          -1.7289211465408055e-001, -1.3358968958895863e+000,
          4.8230218634612571e-001, -1.4441150720601015e+000,
          3.7384810574219840e-001, 3.9737059042622191e-001,
          -1.7469540834992514e-001, 2.2235437250554357e-001,
          2.4052616697393447e-001, 6.1773954948045995e-002,
          2.1303819699228810e-001, 2.9792140559265973e-001,
          2.0051968204323897e-001, 4.4502721307662529e-002,
          1.1227395973163262e-001, 8.2529729486503695e-002,
          -3.0169489639772853e-002, -4.4242335186079151e-001,
          -1.2178362232217438e-001, -3.2799806235644463e-002,
          1.3856131744876096e-001, 4.0305610540101681e-003,
          -2.5563972901664322e-001, -9.5778406272788885e-002,
          7.2338205839034364e-001, -1.0323261508686378e-001,
          -2.9056517469051746e-001, 5.4220720726432270e-001,
          -5.5101545090952386e-001, -1.8838245787725455e-001,
          -1.9588005654278515e-001, -7.0034880177666092e-001,
          -1.8938342871321900e-001, -4.2415274516681603e-002,
          -9.4144455152404008e-002, -4.6062257704992914e-003,
          -1.5291679867889754e-001, 1.2102287417273790e-001,
          -1.5771039495390160e-001, -1.5973027801563747e-001,
          2.8322141248203364e-001, -6.4872574044580211e-001,
          -1.6532771657789064e-001, -1.1614031431764126e-001,
          1.2944567574070792e-001, -3.4652810110016907e-001,
          -6.4222009787762879e-001, -5.7798732072249073e-002,
          -3.6502784037720731e-001, 4.6906348555468014e-001,
          1.5572858925795274e-001, -2.1714915913066526e-001,
          -1.0768368170207206e-001, -3.2593689170936896e-001,
          -3.8935654383827273e-001, 1.6269454430365057e-001,
          1.2619904816947384e-002, -2.8103618080456100e-001,
          2.5560988847620442e-001, 3.9263376699391955e-001,
          -5.7067219623494106e-002, 3.9962858088143882e-001,
          1.0906262363032743e-001, 3.4867912788784233e-001,
          -2.5788113588798522e-002, 8.0556724728326645e-002,
          5.1939570805432878e-002, 9.9584314363198881e-002,
          1.1445477477744027e-002, -9.0561762684001082e-002,
          -4.3901243505800236e-001, -1.7279972970816470e-002,
          1.7822253631929455e-001, 4.1560840965849311e-001,
          3.9673934037263109e-001, 1.2058516649996862e-001,
          6.4391589392937854e-001, -2.9692355876111787e-001,
          -1.5711181570913244e-001, -1.0018904649412030e-001,
          3.1504387535914830e-001, 1.2648789389084170e-001,
          3.0682759855171517e-002, 2.2579290340592564e-001,
          -2.4421796389271794e-001, 2.7995902511540838e-001,
          -1.0210360680671286e-001, -3.4038120986655526e-002,
          9.4064189260431655e-002, -7.0422421048752670e-001,
          -2.6827109575595282e-001, -3.7218474428699544e-001,
          -7.7632862071234443e-001, -2.5425169015605542e-002,
          1.0372840322115515e-001, -1.5503425114636754e-001,
          -8.7504336252621362e-001, -5.3079037617566605e-001,
          -6.1403292975443780e-002, 3.1504769959693590e-002,
          -1.8510986273699678e-001, -4.2191948836563117e-002,
          4.4428902894511302e-001, -4.5751748917618984e-001,
          -1.8465235501614143e-002, -1.4787143976956632e-001,
          -2.9799232521327107e-001, 3.1647601117571825e-002,
          -1.8761510874141038e-001, 2.1793387184856808e-002,
          1.8357790226512721e-001, 1.2630826636579690e-001,
          7.3334880560182544e-002, -1.6379245971420694e-001,
          -1.0320411945413940e-001, -1.3184055145438919e-001,
          -1.1092111389630802e-001, 2.0472464487011763e-002,
          -4.5059989423281210e-001, 2.1098198837476365e-001,
          5.2049671901122897e-002, 2.3082201939307562e-002,
          1.8337674364585013e-001, 5.2176555424817350e-001,
          -1.9517799842938527e-001, -5.9847328683448708e-001,
          -1.1781158983142885e-001, -9.7812914501358483e-002,
          -1.6765470943185687e-001, -1.5944369778654571e-001,
          -1.6337612996267956e-001, -3.3647210493070806e-001,
          3.9813614090950789e-001, 2.2087599848310067e-002,
          5.8040972123247717e-003, -2.5878320117082876e-001,
          9.3487483859586260e-002, 3.5151260732220374e-001,
          1.6405239723824577e-001, 6.7123287920817132e-001,
          -2.8700254395189678e-001, -3.2709269176101252e-001,
          -1.6400069643820240e-002, -8.5920098374412668e-002,
          -6.3253499031708765e-002, 6.4354622858706545e-001,
          2.0285764635153725e-001, 1.0812620817694582e-001,
          1.0119039018507825e-001, 4.0363707676386418e-002,
          2.3317812918328656e-001, 6.2529063591525358e-001,
          -9.6946970429224710e-001, -6.1687547413795485e-001,
          3.0038890309057566e-002, -2.1779986729509421e-001,
          8.1963791078186993e-002, -2.3934352080935836e-001,
          -3.3276177681861430e-001, 2.2287615023940199e-001,
          3.8142259785497684e-001, -1.1875157529585505e-001,
          6.5703208710866101e-002, 6.8894253992177401e-001,
          6.5238009584659321e-002, 5.5463118029420444e-001,
          4.1270259540691262e-001, -3.4771316984056538e-001,
          6.8287658269927365e-001, 4.3960936370129361e-001,
          3.8720639935621221e-001, -3.0055048392944216e-002,
          4.8478787373865029e-001, 1.6948922556103971e+000,
          4.4552568780159579e-001, 6.5417798421420634e-002,
          1.5074269839281959e-001, -4.2966147911357466e-001,
          -3.7070843074806481e-001, 1.5184483336314472e-001,
          1.7486579181754272e-001, 1.8084432224778918e-001,
          -2.5033395398314556e-001, -4.4940581471524271e-001,
          5.5553534462819638e-002, 1.0489322414155133e-001,
          2.9204060122001368e-001, 1.5567354362693034e-001,
          -1.5603077495022860e-001, -8.3894836848571630e-002,
          -3.0097131381375869e-001, -2.7634378044095281e-002,
          2.0629760034451608e-001, -2.7917443097222983e-001,
          -5.6761081540275338e-001, -2.3358674060857207e-001,
          1.7491866233687986e-001, -3.0497148204754704e-001,
          -5.9078054741026148e-002, -1.7556171399198170e-001,
          2.4355271973749884e-001, -5.1574263926108033e-001,
          1.6265552327052618e-001, 4.6981703424326654e-001,
          -1.1606125201697710e+000, -3.8950131407259259e-001,
          3.4669616057372171e-001, 4.1874580846438891e-001,
          -1.3070032925711117e-001, 8.3818979296758267e-001,
          9.4912591554308590e-001, -7.7931216649401658e-001,
          1.1333532470883803e+000, -8.8279415489214896e-001,
          -2.8012258729833589e-001, -8.5380941009807099e-001,
          -5.4959451373688295e-001, 6.3118667462196323e-003,
          3.4218273617972389e-001, 1.8667653221391780e+000,
          -2.9372196324227123e-001, -5.2778690596170574e-002,
          2.7726166742786701e-001, -8.7815529640506018e-001,
          3.7785891088683787e-001, 3.1068209550295694e-002,
          -1.6617175874299013e+000, -1.6111111971827028e+000,
          -3.2675102485025942e-001, 8.7514257219582989e-002,
          -2.8733389817959604e-001, -2.0280063591476524e-001,
          -9.4207602384131195e-001, 4.8067372770697531e-001,
          -5.7949483283828607e-001, 5.2646939982647856e-001,
          4.2643121682066293e-001, -5.0437011204091187e-001,
          -2.9550803436110943e-002, 1.7766730544976791e-001,
          8.6411847025237298e-002, -1.8350030324820446e-001,
          -7.7881240711008076e-002, -6.1175567309380598e-002,
          1.2636033320717915e-001, -1.3529435926245825e-001,
          5.9715460525527661e-002, -9.7200061117180048e-002,
          2.6989132288273732e-001, 1.4314709586160662e-001,
          -8.0129473399907586e-002, 5.8940584224549522e-002,
          -5.2419463587838007e-002, -2.2659176312574020e-001,
          -1.3455392516049680e-001, 1.8370863057164299e-001,
          -3.4141075253702674e-001, -6.4268565415935383e-002,
          1.9066163051787982e-001, 5.0290009055908705e-002,
          -2.0860191849208209e-001, 1.2003448863871667e-001,
          -8.6879784580216071e-002, 9.2816989429323732e-002,
          -1.5798725411840342e-001, -2.7046373575717497e-001,
          -6.8691383309695082e-003, 8.6227311467168291e-002,
          1.8106147025900884e-001, 3.4521678275516943e-002,
          8.5293085139146130e-002, 4.2559221867605766e-002,
          6.0026283420237458e-001, 2.2647469069036172e-001,
          1.3411898880342518e-001, 9.0732551793321056e-002,
          4.0074045049706614e-001, 2.0921646074176214e-001,
          -6.2596120678870590e-002, 1.9532053487033213e-001,
          -1.8504845619840937e-001, -2.4378907217942219e-001,
          -2.7833051228727324e-001, 4.2678776220870622e-002,
          7.2101458482770420e-001, 2.6784608022418838e-001,
          -8.3665565072272977e-002, -7.9232290494717528e-002,
          7.3011618215717256e-001, -3.2210535613574273e-002,
          -3.5356978547852869e-001, 1.2421869600929468e-001,
          -3.0734807331348174e-002, 3.3587404673511054e-002,
          8.7046469069116705e-001, -7.4543826683687975e-001,
          -2.4944900787386695e-001, -2.5195094266499662e-001,
          -1.1534426343860565e-001, 8.6665213531524746e-002,
          6.6969061763015966e-002, 1.3134806585915293e-001,
          2.3108500346950359e-001, 6.4125377501069253e-002,
          -8.4575843277314683e-002, 2.4550138303165048e-002,
          -7.6457330471505422e-002, -9.4804063105979020e-001,
          1.1846588659642751e-001, 7.5278978012800202e-002,
          -7.1278065807117763e-002, -4.7360601991483148e-001,
          4.6289154728982357e-001, -1.2582252802967894e-001,
          -4.1922759516149113e-002, -1.0068837438557663e+000,
          -1.9704348559909080e-003, -1.0202351938414188e-001,
          2.6811443494796044e-001, -7.4734315386124045e-002,
          1.9640635606787141e-001, -4.9182751099069520e-002,
          -2.2106619968553465e-001, 2.1582602382583310e-001,
          -1.2696574058324520e-001, -1.6013218152307146e-001,
          -2.9744207353739338e-001, -3.1199671740873064e-001,
          2.4658157756279014e-001, 4.0199613411331110e-002,
          2.2461126866315845e-001, -1.3253323885250368e-001,
          2.7158161710997170e-001, -6.0831678716230975e-001,
          1.3588079034876491e-001, 1.5304129768163943e-001,
          -4.7411037870582673e-001, -2.9922536789196010e-002,
          -6.3227926035222992e-001, -4.2513975617934946e-001,
          -2.0036848628768364e-001, -7.6021454607060557e-002,
          1.1844648780886266e-001, 1.0168939724424388e-001,
          -5.5748512957003747e-002, 1.2434246915209295e-002,
          2.6811930022680386e-001, -1.1046094348186714e-001,
          -8.2121066258046063e-002, 2.2175671006404862e-001,
          -1.5543444863952643e-001, -2.8006059138159195e-001,
          -4.8010815378860217e-001, -2.6063558090479622e-001,
          -2.8576375519680264e-001, -5.9789516738601378e-001,
          -1.0307573164313621e-001, -2.6633987118771449e-002,
          7.8936375365054517e-002, 2.0976436774202720e-001,
          -2.3247756820295871e-002, -1.1073733048501343e-001,
          2.9313455859553778e-001, 2.9906487836973916e-002,
          7.0615919584835860e-002, 1.2200836267946215e-001,
          1.1180835704195934e-001, 6.1976072720491526e-001,
          -1.0814346954790191e-001, -6.4038445175897873e-001,
          -2.5491521975785147e-002, -6.2166694904348896e-002,
          -4.5581441997051475e-001, -3.9971014032512110e-002,
          2.5238463217021961e-001, -3.4348396708114670e-001,
          -1.9251726258060833e-001, -4.2406824142966110e-001,
          -3.3549221185812184e-001, 2.8545597031331643e-001,
          6.2626720660816107e-002, -5.0129427355031349e-002,
          1.5355391495341797e-001, 1.9414516812491900e-001,
          -4.4360047588246887e-001, -4.6196400869252051e-002,
          4.0945964563379861e-001, -3.0839234072818862e-002,
          2.9214297143937956e-001, 1.9127173189977187e+000,
          -4.0824822388829868e-002, 1.8230135244679757e-001,
          4.7548545116923052e-001, 7.2826676308728425e-002,
          -2.4813328959008155e-001, 1.7185755965343638e-001,
          -1.8688114356600721e-001, 9.7783642020330033e-002,
          1.4879380005468280e-002, -1.0045249350515856e-001,
          -9.7798400945087863e-002, 7.0114645819228300e-002,
          -5.6341287310353150e-002, -2.0487818616147585e-001,
          -4.9420868109258986e-001, -1.0612724509282512e-001,
          -7.9215245857018904e-002, 5.2042544111712863e-001,
          1.0414043448191834e-001, -1.4667881727905270e-002,
          5.1317670150666250e-001, -6.2325612506280173e-002,
          1.1023455893560843e-001, -2.0188559574019738e-001,
          -4.2252128120682859e-002, -9.7493115740646175e-001,
          -1.8072405302580302e-001, 3.4864986606416092e-002,
          -1.3469897816668264e-001, -4.0725284146927356e-003,
          1.7225383922995025e-001, -1.5595215637577931e-001,
          -5.9040572104900199e-002, -1.3771839297747990e-001,
          -9.6633351311242011e-002, -6.5032892704318696e-002,
          1.5042569906149442e-001, 7.5012414029436181e-001,
          -3.2525924944332713e-001, 1.0657465125936141e+000,
          -5.9648060716264814e-002, 1.5858321073824497e-001,
          1.2822609118447301e-001, 1.5045693152555178e-001,
          8.6127178926647585e-001, -3.0039860427119236e-001,
          7.1549117969277076e-001, 4.2002247105964247e-001,
          2.6662771195327412e-002, -1.0042571494481711e-001,
          1.8601656076687670e-001, 2.9435253235007364e-001,
          -4.3328057876233655e-001, 4.3382865262186732e-001,
          5.4717045889981691e-002, 1.3584055237974837e-001,
          -5.7402580894444610e-001, -4.4557248472153380e-002,
          2.1313341719614981e-001, 1.2036685743083898e-001,
          1.7226812786139578e-001, -6.3667014538781619e-001,
          -2.7544282288147848e-001, 1.1229855248203324e-001,
          -3.3766758385972850e+000, -5.4747116340821511e-001,
          6.6042372160436813e-001, -2.4409971642216716e-001,
          -3.7899033899085466e-001, -1.0730349485784087e-001,
          -1.3805256810306607e-001, -7.2354431833011920e-002,
          -2.7308347893989793e-001, -6.8477054175166241e-001,
          4.3163507755255398e-001, 8.3390393522219317e-002,
          -1.7937057011718223e-002, 1.3952858928453571e-002,
          2.8533515270937244e-002, -2.6441757116124237e-001,
          1.2767493401647179e+000, 1.5139845385656425e-001,
          3.5246268707703921e-001, -2.1122067902827071e-001,
          -2.2209131587255449e-002, 1.8391791286604292e-001,
          4.9485758021060568e-002, 1.9990389805634456e-001,
          4.1607813887295697e-001, 1.7560103864624668e-001,
          1.8360446840283662e-001, -6.3995580098348487e-003,
          4.2056620066069916e-001, -1.1627580001093545e-001,
          1.3992225488300958e-001, -3.2597114213451722e-001,
          -2.9200682836604291e-002, -3.4099195679029507e-004,
          -3.5924027893508342e-001, -2.4506814248801992e-001,
          -1.6712975687686443e-001, 2.2753649347189230e-002,
          1.4081337713505965e-001, -8.9808484780938669e-002,
          1.9263015905498057e-001, -7.1474414355022664e-001,
          1.3309305897962347e-002, -5.8197783440579257e-002,
          3.8560967760506284e-002, -3.0072690963278181e-001,
          4.3905594912338107e-002, -5.1757474692465999e-001,
          5.5522814092800932e-001, -2.2406830802720984e-001,
          -1.9934852691567122e-002, 7.3408147720743734e-003,
          4.7483703989087528e-001, 2.0734577898704951e-002,
          1.2724065116184302e-001, 2.6286013960683596e+000,
          -2.7600794452618125e-002, 2.0154604894803516e-001,
          -3.1429550919191734e-001, 1.0564351024847846e-001,
          6.7988269055613032e-002, -3.1922918048475239e-002,
          -6.8920243605857176e-002, 3.7787818840683929e-001,
          -3.2320076096984912e-001, -3.0867334227018744e-002,
          -8.9563924120532851e-002, 4.2668315019691144e-001,
          -1.5303454399127603e-001, -1.1544597719359985e-001,
          2.6459859242245770e-001, -1.1197951095222178e-002,
          3.0494638482073066e-001, 3.4890577222359759e-001,
          6.9527248955527157e-002, 1.9735526438801321e-001,
          1.3921939754417821e-002, -4.9149953321964790e-001,
          -8.5944557134041491e-002, 2.1698894980517411e-001,
          -2.8087348889780656e-001, 5.4904201729350108e-002,
          6.4832250712810111e-002, -3.4601333499781406e-001,
          -7.0430379268689502e-002, 1.1700227965898168e-001,
          1.0169823056475348e-001, -5.3718690050266797e-002,
          1.0814034389347331e-001, -1.3779629020938650e-001,
          -5.1483173808166960e-001, -4.5966101861943248e-001,
          -2.0422243993086907e-002, -1.0910524146520931e-001,
          6.0742717199854517e-002, -6.3198408936228398e-002,
          -1.6643962589018368e+000, 1.2973234772328432e-001,
          3.3830881715069733e-001, 1.4086745157968356e-001,
          -8.8980688861589552e-002, -1.6347537145401161e-001,
          2.6275522641150989e-001, -1.1992496440207406e-001,
          1.3257192888060900e-002, -8.6060422243973678e-001,
          -1.5606765536059639e-001, -2.3907653515093247e-002,
          2.5929833703449749e-002, -2.4245153234540839e-001,
          7.0678227239410918e-001, 6.6045533920049568e-002,
          1.9140426775442962e-001, 2.4567338037242639e-001,
          1.7447193207741957e-001, 7.9234313675621715e-003,
          -2.3601986878042955e-001, -9.6016996981588373e-002,
          4.2022811666497056e-001, -1.2326064506787283e-001,
          -3.4048698137595018e-001, 7.7825778719916583e-001,
          2.0579364097873764e-002, 6.5001668719475200e-002,
          1.1531793173128489e-001, -1.8093829699661446e-001,
          2.1483135618963434e-001, -1.3856031128738899e-001,
          -5.0096189549721559e-002, -4.9575026834744400e-002,
          3.4346406717511829e-001, -5.9800274249669785e-002,
          -2.2599405085999372e-001, 1.5539205257892047e-001,
          1.8907150498692671e-001, -4.3155664928732122e-002,
          -1.9026046980836048e-001, -1.1245546989057177e-001,
          -2.0866531046348860e-001, 1.3540537172292375e-002,
          1.0582351661604070e-001, -1.3282154225274953e-001,
          -3.0006664862256377e-001, -1.3318395050855159e-001,
          2.4365503236847297e-001, -1.9591206583337700e-001,
          -1.6488922812962212e+000, -9.9100864549909240e-002,
          7.1259681763143692e-002, -7.6891138570847839e-002,
          -2.5704145519769833e-001, -7.1502835035858858e-002,
          8.7631035504345769e-002, 1.0371071352879288e-001,
          -7.4437125850504993e-002, -2.0138052128692333e-001,
          -2.1033223135704124e-001, 5.0786513967283142e-001,
          1.6503763698923829e-001, -6.7653404410622342e-001,
          -2.6660981002451994e-001, -9.9962039133624087e-002,
          -1.4085932053995362e-001, 2.7001551100972493e-001,
          -4.0857454340278834e-002, 1.0063458956599365e-001,
          1.4407320147847275e-001, -6.0487620358221368e-002,
          9.1266087455524836e-001, 4.5394855505358059e-002,
          9.7580920683994515e-002, 2.8434082034067215e-001,
          7.2414288216397629e-002, 3.8670096202236930e-002,
          -1.7497039868266789e-001, -4.1951125605776285e-001,
          1.7056142587618570e-001, -8.0636146262886357e-002,
          1.4773666486201517e-001, 2.7552791628493284e-001,
          2.4234415898346906e-001, 4.7975953358457418e-002,
          8.3325092233351314e-002, 1.9830399349244815e-001,
          2.4900038489326107e-001, 6.5453332921338780e-001,
          1.6661805097017984e-001, 1.8131196044447087e+000,
          8.9044016557522310e-001, -2.5881539343529919e-001,
          -1.8571163983564290e-001, -6.4750645215143121e-002,
          2.5799518476215710e-001, 2.9643949690435550e-001,
          7.5435179088089721e-003, -6.9295730906704350e-002,
          -2.4375687450848343e-001, 9.8669307936394571e-002,
          -3.5293485397993157e-001, -1.2803157504649804e-001,
          2.1702336314258935e-001, -1.3807911613714582e-001,
          -1.6103226962935377e+000, -3.1385981054113443e-001,
          -9.6062540885212391e-002, -3.9057926519916977e-002,
          -2.0704919462987947e-001, -3.1519942137046381e-001,
          1.4424514143403608e-001, 4.8799337652133228e-006,
          5.7082735667981971e-002, -1.7091263540743279e-002,
          9.7027282317812442e-003, 6.9989189578967784e-002,
          -5.4176049651267190e-002, 5.0923040005121704e-002,
          -3.6324023273893036e-001, 3.6479647883476662e-001,
          -7.2599486012498535e-002, -5.0240973598956642e-002,
          1.2482948579313746e-001, -6.3907545378970365e-002,
          4.9012815956916750e-001, 1.0725518060716542e-001,
          -1.1708953538059516e-001, 7.6738924727104996e-001,
          1.2678461246652545e-001, 3.1748444434237938e-001,
          7.0238037246272395e-002, 5.8554836030506978e-002,
          -1.2266426650843043e-001, -8.8957972394331924e-002,
          1.3580382754279718e-001, 4.2328379777683958e-002,
          -5.1382312811299714e-002, -4.5265669539834791e-001,
          -1.1690847267441304e-001, 2.8540049271618201e-001,
          -3.7956292486956367e-001, -8.2128336538904140e-002,
          -1.1342120649081393e-001, 8.2608097503557854e-002,
          -1.6260435404365789e-001, 7.5376082806356867e-002,
          -7.5840600686847962e-002, 1.9102899406315408e-002,
          2.9967963304481118e-002, 5.7142012376001423e-002,
          -5.6902400125695762e-001, -7.0903869491422800e-002,
          -1.7011680996193382e-001, 6.7035987752062806e-002,
          -1.2563200753362816e-001, 1.6266658358222361e-002,
          -2.7031277989615046e-002, 8.8814658300870902e-002,
          5.1307307578120243e-002, 3.6637027444288428e-001,
          -4.3956590708687134e-002, -1.1261145634601534e-001,
          -4.7160586373273326e-002, 1.6505032514177665e-002,
          2.3331104890608820e-001, -1.2011904588863621e-001,
          1.4143455305317601e-001, 6.2083031998794891e-002,
          2.3798549024484018e-002, 1.3952941244634010e-001,
          7.9728577234993214e-002, 5.0738788479322239e-001,
          2.6952478753097291e-002, 1.3481380751778904e-001,
          2.8322021284226573e-001, -2.3600950728147490e-003,
          -2.0248470229721388e-001, 3.5175605521107106e-001,
          -5.6781146651709059e-002, 2.3117029097848996e-001,
          -5.0424620959840294e-002, 2.2311655099989819e-001,
          3.0354017747058459e-001, -3.2333879139305556e-002,
          2.6481273762291790e-003, 2.8169076851268149e-001,
          -5.7588610581052552e-002, 1.1547357874514391e-001,
          2.4418556285437210e-001, -9.0208578758786406e-003,
          -6.1068753496200633e-002, -8.5416298217971809e-001,
          4.3875780416347605e-002, 2.3656186253389290e-003,
          3.5397953458554378e-002, 5.4845956354946747e-002,
          -5.2220966056517153e-002, -1.1932126395064580e-001,
          1.2953693844669395e-001, -6.4296413328864710e-001,
          -9.5327104535666465e-002, 5.4870813179215239e-001,
          -8.5950680521957501e-001, -2.3097378577800964e-001,
          -8.0316679987930684e-001, -3.1486647276295261e+000,
          -1.8610211414960426e-001, -6.2833535646581729e-002,
          -2.4476074001288492e-001, 7.8644286430662944e-002,
          2.2987262008843093e-001, 4.3496448662245457e-001,
          -3.9960177842097933e-001, -2.1453832851529758e-001,
          -4.6895680763376907e-001, -2.9248900284301743e-001,
          1.0803436076605211e-001, -9.6642661943184674e-002,
          -1.1375828312862128e-001, -8.2344654620605931e-002,
          1.2039629545041915e-001, 5.0910326177709853e-001,
          7.3036780089503692e-002, 3.6034389184618904e-002,
          1.1039443046309835e-001, -2.2488413853960252e-002,
          -1.0414565518207207e-001, -3.7239080801984442e-001,
          -2.1430764869603683e-001, 1.0123449054955220e+000,
          3.5870262305409201e-001, -1.3952881548301624e-001,
          3.4344185034789548e-001, 1.5209851709043490e-001,
          -6.5836750845264191e-002, 2.6171023456366971e-001,
          3.5609352921154608e-001, -1.7815842322907216e-001,
          1.4145648108643660e-001, 1.2318887333084902e-001,
          4.3181371305730482e-001, 6.7967936939522910e-002,
          -3.5916699425258145e-002, -2.6646601411143606e-001,
          -4.4537510839062366e-001, 2.5475183488195430e-001,
          3.0825319878078633e-001, 5.4049905514533281e-001,
          -1.4289644992253292e-001, -2.6439806757158285e-001,
          -1.2707808705334322e-001, 2.9948274929590592e-002,
          -4.8662845762169765e-001, -1.8899649994740297e-001,
          -7.7315439680839843e-002, 2.0531588452016422e-001,
          -6.8185869782497147e-002, -5.2032569227464361e-002,
          4.1684620772947906e-002, -2.3372944159930417e-001,
          -3.4290868352926010e-002, 2.2686998143223733e-001,
          -9.8341238590774302e-002, -1.1121109885569481e-001,
          -4.3984765529899925e-002, 2.8444287850666233e-001,
          1.0406981228109527e-001, 2.4268177261933854e-001,
          -1.9185752700563379e-002, -4.9163048511933261e-002,
          -1.1308358149787850e-001, 5.3986533476374055e-001,
          -3.8931289667964449e-002, 3.1053856159347915e-001,
          -2.2675184046694507e-002, 8.6594708068736079e-002,
          3.9911856102757062e-002, 1.8297040490985655e-001,
          -2.1406390809498874e-001, 1.2350489510581046e-001,
          9.0834023458511132e-002, -3.0593143260458333e-001,
          -1.2109280436926576e-001, 2.0008528551367969e-003,
          -3.6250025965259634e-002, 1.1544465747374530e-001,
          8.8799670698590419e-002, -4.6280320804670858e-002,
          -7.4644695743251221e-002, 6.4912340405298241e-001,
          1.1215298511631623e-001, 1.1902712474045361e-001,
          1.3956915328747463e-001, -4.3517012580245384e-001,
          -1.1615808683335399e-001, -4.7246676878705074e-001,
          -1.1756761675515554e-001, -2.4151544949768794e-001,
          1.6855046444977903e-001, -2.0681994771818937e-002,
          8.2423253398576993e-002, 1.3251853256049823e-001,
          1.6775198655963208e-001, 1.3390804473748663e-001,
          1.2303905854424822e-001, 7.9223169619431849e-002,
          5.8954964135031374e-001, 6.6767312010068136e-001,
          -5.4971200881408035e-002, 8.5854690240755857e-002,
          1.2582099619500531e-001, 3.9807111226986075e-002,
          -1.0377722289047042e-001, -1.1673956006724988e-001,
          8.6229044301134497e-002, 8.2677938935381959e-002,
          -1.0663274276126639e-001, 7.5492159636517814e-002,
          -2.9056996533209101e-001, -1.0483079040544765e-001,
          9.8996002143244430e-002, 5.9779256826694505e-001,
          -4.7986784854989334e-001, -1.1580314016832108e-001,
          -1.2278113076882800e-001, -1.3459666195437339e-001,
          4.2978708886713866e-002, 4.9164396998457136e-002,
          -2.9977174022732020e-002, 7.2464926061757862e-002,
          7.8478003079585773e-004, -9.5029638299336736e-003,
          2.8416967577812485e-001, 3.8157104631299406e-002,
          2.5857110942609864e-002, -1.3816484869761619e-001,
          -1.1834640849439437e-001, 4.4727427929637381e-002,
          -9.4462122594810419e-002, -5.0568756981965585e-002,
          -6.9699273947271295e-002, -1.5677879113971623e-002,
          -8.6519602463452111e-002, 7.5654180380542280e-002,
          -1.8426990163470613e-001, 1.6811501899589118e-001,
          5.1583999419287617e-002, -2.9524787286014459e-001,
          8.6909792122216098e-002, 1.5253166385847364e-001,
          -1.5726072333575072e-001, 3.5268317793766227e-002,
          -8.4128013388527947e-002, 2.9964444929292969e-002,
          -3.1571429429627235e-002, -8.7527013917835031e-002,
          9.6495267694737846e-002, -7.0633005652374636e-001,
          -1.2677356336016121e-001, 1.1715295802028665e-002,
          2.1257505514724451e-001, 7.9157829417862757e-001,
          1.6942405709159505e-001, -5.8991664763176160e-002,
          1.1810053907164789e-001, 1.8571917650989082e-002,
          -4.1025341170074225e-001, -2.3529610339453089e-001,
          2.0246992121924481e-001, 2.9273306527451959e-001,
          -1.8139629717853253e-002, 2.3470700010886769e-001,
          -5.1078059190711678e-002, 1.8947231744745069e-001,
          -3.4607144432115677e-001, -2.3412299274834564e-001,
          -2.6822976242571167e-001, -2.2609195341797440e-003,
          -2.2449467371394433e-001, -1.6822440952406270e-001,
          -2.2658366380335440e-001, -2.2839556273979314e-001,
          -1.7783184349133441e-001, 8.3380088301873201e-001,
          -1.5215250124019233e-001, -2.5892585809074048e-001,
          6.4540554278257456e-001, -2.9886081955464228e-001,
          -3.5279071458116359e-002, -9.4245487758695545e-001,
          -1.1685504318921980e-001, -4.9056175642974037e-001,
          -2.5534813115526012e-001, 7.4618866038827214e-001,
          3.4509448195283310e-001, 6.3382957499506287e-002,
          -2.6847241484992551e-001, -1.0142455862907199e-001,
          5.5718681574956963e-002, -1.0433853771481667e-001,
          2.3887383956992081e-001, 1.2741573937448875e-001,
          6.3886780843907098e-001, -3.6804201012954216e-002,
          2.2180040509672638e-001, 2.1515842166763655e-001,
          3.5197256403926636e-001, -9.6835480237430827e-002,
          -5.8410276057325572e-001, -1.9572448124819511e-001,
          -4.2718419248010391e-002, 4.5687982687918022e-001,
          5.9799162157375374e-001, -4.9508624645411392e-002,
          1.0987080887174847e-001, 1.9182222587505265e-001,
          3.4114488036873294e-002, -7.0013723272370043e-002,
          -1.1714204526153500e-001, 1.2286112295517425e-001,
          1.6474032601492589e-001, 3.4995466930116687e-001,
          6.2458023153779185e-001, -8.3765251136614829e-002,
          2.0328823572674692e-001, 1.1175479899499627e-001,
          -5.9780288230962875e-002, 1.7815965328565311e-001,
          1.0552897068028119e-001, -6.4344495286307057e-001,
          4.5140383908681925e-001, 4.3356448868556330e-002,
          9.9502590562828022e-002, 9.9105421259767276e-002,
          -5.1097972350522256e-002, -7.4512543622856267e-002,
          3.5202657437174674e+000, -1.4108341791456627e-001,
          -1.0709854417659458e-001, -1.1136963440146300e-001,
          5.7627087723388121e-002, -8.1298736130325150e-002,
          -8.6105899812293607e-002, -3.1309065350536314e-001,
          -7.5715919564321041e-002, -2.5317031426647169e-001,
          -9.4604283559210134e-001, 3.6088277025026044e-001,
          4.6268783679691250e-001, 1.2249693772771858e-001,
          3.0188336972630384e-003, 2.4113742256568767e-004,
          -1.0699817425771907e-001, -3.1425476791371237e-001,
          4.2575846409149465e-001, -2.5018231621711590e-002,
          -1.4201868569520168e-001, -1.1836571586172162e-001,
          -1.2905016940020138e-002, 4.3413659617086865e-003,
          6.3345813333200995e-003, 1.7037353245189035e-001,
          1.2791602799439844e-001, 2.8113146408590978e-001,
          5.8611260449703795e-001, -1.3896583327227138e-001,
          2.1663885154518875e-001, 3.6110684008756599e-001,
          5.4618160077426903e-001, -1.3312387171073911e-001,
          -1.3273067129216251e-001, -1.5345015803318457e-001,
          -1.0197569948262054e-001, 1.2741746461465701e-002,
          -1.7445267610783338e-002, -1.0969760166340639e-001,
          3.3489135853925139e-001, -8.0143540955782740e-003,
          3.2566905793406337e-001, -4.0591976701994181e-001,
          4.8236345325897551e-001, -1.0406604867644456e-001,
          2.4601740404319682e-002, -2.1301231079136212e-001,
          -1.4076711040237855e-001, 4.6045321194072014e-001,
          1.5497444426402857e-001, -6.4820974421508470e-002,
          -1.8223274467173045e-001, -1.1771154916629570e-001,
          -1.1405923914320142e-001, 3.2447054836853634e-001,
          3.3666961322287026e-002, -4.7577477046825528e-001,
          1.2262941015269925e-001, -5.2418452013305798e-002,
          -1.1525815947462878e-001, 2.0157402885912765e-001,
          3.3946800560195561e-001, -7.3563385595688355e-002,
          -1.1626099475116114e-001, -6.6683982996107130e-002,
          5.5281081678478994e-001, -1.0407408468256373e-001,
          -4.9634438215717314e-001, -2.0452421926849124e-001,
          1.6480752559184679e-002, -4.8307040877784500e-002,
          1.0897371530800551e-001, -8.9080987353679461e-002,
          -4.1361458727217393e-001, 2.0344971694250669e-001,
          -1.1075744835771397e+000, -8.9092291557387537e-001,
          8.6583530015603027e-001, -7.6697291088198505e-001,
          -9.8832011628021965e-001, 1.6030036795796045e+000,
          -1.4931676729534344e+000, 4.9731185096578301e-001,
          -9.1425722849832458e-001, 2.9284200933918986e-001,
          1.0114817120100670e+000, 5.4666760409980042e-001,
          5.7453769942865174e-001, 1.0753900948373958e+000,
          9.9598471669798044e-002, -6.1989025408105825e-001,
          -6.2558595012746632e-001, 7.2713589394124278e-001,
          1.1431095956773050e+000, 2.1215776497571226e-001,
          -9.9359131319840843e-001, 7.1140695882033544e-001,
          -1.4751236823590177e+000, 1.2385022829843892e-001,
          9.5729473615288696e-001, -3.3360841971498367e-001,
          6.5293030859624990e-001, 1.5546772612925457e+000,
          -1.0076047393970398e+000, -1.3822877692210913e+000 ]
      - [ -1.1442155738843396e+000, 5.6140647727715287e-001,
          -3.1968477466789558e-001, 1.2459591351388595e+000,
          -8.4626045996675059e-001, 2.4427848687258624e-001,
          -2.1204000397567024e+000, 3.9898008957628156e-001,
          5.6188373885285214e-001, 3.7051965743902776e-001,
          -3.8700686032606257e-001, -8.8242291913781176e-002,
          5.8632395100835999e-001, 2.2226850164768097e-001,
          -6.0791384857325392e-001, -3.8710451708121807e-001,
          -2.2275086692974394e-001, 7.3552159935238381e-001,
          1.0367713774473888e+000, 2.2699327188266669e+000,
          -6.1302558470991073e-003, -2.0144595599840401e-002,
          1.7478964966258153e+000, -8.6203829887178551e-001,
          8.2832525509242194e-001, -5.1047204624326037e-001,
          -1.0621563730645835e+000, -5.4344038504495851e-001,
          -8.3713559170829710e-001, -6.2821254852557407e-001,
          -9.6446109393060730e-001, 1.5149514369038781e+000,
          3.6267364336466795e-002, -6.0717538869850374e-002,
          8.8039601637438999e-002, 2.0982309109976904e-001,
          5.3153764420728264e-002, -1.5141402606391294e+000,
          1.0132868523795227e+000, 9.1253743793998565e-001,
          -2.4012598816789663e-001, -1.7707693214672657e+000,
          -1.9009963176473184e+000, -2.2807874022939215e-001,
          -4.4190341786719806e-001, -2.0916041937652117e+000,
          1.2669757411655808e-001, 2.2728439919944550e+000,
          3.7852825445692584e-001, 5.4486942248530768e-001,
          -3.0692542961281793e-001, -6.4720409779663468e-001,
          2.0538975262851003e-001, -6.1240945087522292e-001,
          -1.6028425711952521e+000, 4.2996711950777006e-001,
          3.9940862393021623e-003, 1.1092299513972648e+000,
          1.2131436607808548e+000, -6.1106382242436330e-001,
          4.7799684685910881e-001, -8.6524627412435173e-001,
          9.9728566385704998e-001, 8.0865699686003156e-001,
          -8.0259504385282798e-001, 7.6855690441135083e-001,
          -1.5220089792773879e+000, -1.7375267953159659e+000,
          7.7275336893528712e-001, -8.8936581814415039e-001,
          -7.7109611907922274e-002, -2.0697135047464008e-001,
          -1.5284591362619573e-001, 5.1664440895057295e-001,
          -7.6813104128778054e-001, -9.5067357220096516e-001,
          -1.3195065820243976e-001, 1.2786084617671881e-001,
          -7.8772548020473798e-001, 6.4690999852231290e-001,
          -5.1999448079153576e-001, 6.4879962335411645e-001,
          -1.4923697626931030e+000, -1.1543291706237455e+000,
          -9.9348545284749634e-001, -4.3702867675320850e-001,
          -1.9002872294797861e+000, 7.7131352483883575e-001,
          6.0023116888180961e-001, 8.4766692839978608e-001,
          7.3807976661889474e-001, 5.1040456847243743e-001,
          2.8871824071909730e-001, -4.7326748470808444e-001,
          5.4264741550026330e-001, 4.0413852048096660e-001,
          3.8236455218611876e-001, -1.4012802131482345e+000,
          4.5070836856507090e-001, 1.3513738988171957e+000,
          6.7045390079847400e-001, -7.1965280230500539e-001,
          6.4261166722088814e-002, -8.5142118372513631e-001,
          -1.1787842384175364e-001, 1.9215339869855783e+000,
          4.1087217477333532e-001, 3.3657867936904196e-001,
          -1.8729889334967755e+000, -1.8087091784590488e+000,
          -8.8293776263726853e-001, 2.8066574523810811e-001,
          1.4625979188539699e+000, 1.3310574293699857e+000,
          -5.7804063769923397e-001, 1.4434825243111964e+000,
          -4.7375582289508000e-001, 2.5459624229580197e-001,
          3.4555901930950711e-001, 3.8614718875514087e-001,
          7.7300965772611141e-001, -6.4742509691111361e-001,
          -3.1384446890703849e-001, -7.8904426404712624e-001,
          2.0505707212098736e-002, 7.8191535943998614e-001,
          -1.8231618215869816e-001, -5.1453149382862529e-001,
          3.8173974466668248e-001, -1.0409265230433204e-001,
          6.9611450885452308e-001, -1.0052421134083188e-001,
          1.0224484907217948e+000, -9.6697488830279881e-003,
          -6.8108684508825956e-001, -5.0660639042990308e-001,
          -7.1403089164960976e-001, -3.0523528076863099e-001,
          2.2599365530731388e-001, -7.5522575795026192e-001,
          4.1177198442703500e-001, 1.7270481372722144e+000,
          -1.1300916378952579e+000, 7.4832092308746867e-001,
          -4.2597997665365261e-001, 8.4099153623838330e-001,
          -9.2955735876670653e-001, -6.4306573911519271e-001,
          -4.4026556277820561e-001, 7.2138521162226799e-001,
          -5.5751538415975843e-001, -8.7013926759455948e-002,
          -2.7061478145773604e-001, -1.0263553872793345e+000,
          -8.2735930702887428e-001, 9.0081983005893740e-001,
          -2.1732686041062332e+000, -3.8225219488101987e-002,
          2.0167412858313347e+000, 2.6679786558431756e-001,
          -1.1560976175324880e-001, 7.8283158838135092e-001,
          1.0342765546082401e-001, 9.1062460524530209e-001,
          -1.7051271776128649e-001, -7.7916610351086801e-001,
          -5.2160795616041034e-001, -1.3445074653002429e+000,
          -2.0424715302856069e+000, -6.3640473849692203e-001 ]
