%YAML:1.0
my_nn: !!opencv-ml-ann-mlp
   layer_sizes: !!opencv-matrix
      rows: 1
      cols: 3
      dt: i
      data: [ 49, 36, 5 ]
   activation_function: SIGMOID_SYM
   f_param1: 1.
   f_param2: 1.
   min_val: -9.4999999999999996e-001
   max_val: 9.4999999999999996e-001
   min_val1: -9.7999999999999998e-001
   max_val1: 9.7999999999999998e-001
   training_params:
      train_method: RPROP
      dw0: 1.0000000000000001e-001
      dw_plus: 1.2000000000000000e+000
      dw_minus: 5.0000000000000000e-001
      dw_min: 1.1920928955078125e-007
      dw_max: 50.
      term_criteria: { epsilon:9.9999997764825821e-003, iterations:1000 }
   input_scale: [ 3.4022913158155049e-001, -1.4071119016099665e+000,
       1.5755014668800355e-001, 2.1275666404856533e-001,
       3.8226202483917376e-001, -2.0094058943060311e-001,
       4.9913642244002193e-001, -9.8870443409510478e-001,
       5.2751186823546459e-001, -2.3290327879040773e+000,
       4.2492179630545995e-001, 1.5837229383507303e+000,
       3.0809343205748196e-001, -1.2000178373650021e+000,
       5.3230065357166079e-001, -3.6343585991596217e-001,
       5.5827165635317755e-001, -4.7505902585478227e-001,
       5.4302027887658388e-001, 8.8682038020586240e-001,
       6.5903955632200273e-001, 1.8326051852014718e+000,
       7.9348540164426484e-001, 2.2723997804708964e+000,
       5.5369089943098415e-001, 5.1905989339057179e-001,
       9.1011404953112651e-001, 7.9869684125346552e-001,
       8.5601767981196220e-001, 1.7800360098787733e+000,
       8.5401922063419200e-001, -1.4300871014371844e-001,
       9.9023935232952165e-001, -2.6660653245573401e-001,
       8.9883742329200289e-001, -2.0827979158178619e-001,
       7.1131408347454483e-001, 5.3251822274382288e-001,
       6.7309042850547507e-001, -2.8882412107586508e-001,
       8.5614191291996267e-001, 9.0036546930276545e-002,
       8.3911761303630794e-001, -5.6848507309564152e-003,
       7.7713345052617089e-001, 1.2562726175859795e+000,
       1.1366521291032630e+000, -8.0885676176887999e-001,
       1.1308321128516363e+000, 1.5228231571324737e+000,
       1.0375661314909883e+000, 1.0221644793949254e+000,
       1.1579495793063999e+000, 8.0120091716145828e-002,
       6.5398348913065540e-001, 5.3373628097102699e-001,
       1.1239583422945938e+000, -1.4894179757768959e+000,
       1.3005048702313107e+000, -6.0814373136649014e-001,
       1.2907287722614331e+000, 9.1973907671516364e-001,
       7.0764704928729938e-001, 1.1061441716859122e+000,
       1.0567892714151101e+000, -6.2530165524507708e-001,
       1.1255973899614313e+000, 3.7712784253833126e-001,
       8.9321794632879081e-001, 4.7397462218837366e-001,
       1.2254308983271067e+000, -2.1215485104289651e+000,
       1.2903906557495801e+000, -3.6980425706115055e-001,
       1.4747326352723162e+000, -1.3973213458309746e+000,
       1.0306820121593878e+000, 9.5342626977107003e-001,
       1.3498680850148146e+000, -4.3915823568258722e-001,
       1.6519613627673968e+000, -1.0725433873678409e+000,
       1.1260001354579867e+000, 8.7951416822124762e-002,
       1.5373744575703034e+000, -3.6388010726642828e-001,
       1.4481973382065920e+000, -8.5791368243844124e-001,
       1.5586368714734593e+000, -7.0121205532314390e-001,
       1.3955674165361023e+000, -5.5062997951442050e-001,
       1.4327983404246147e+000, -1.0236396370433081e+000,
       1.7196402742269685e+000, -1.0728665154153700e+000,
       1.8825842514868696e+000, -7.5514787468628097e-001 ]
   output_scale: [ 5.2631578947368418e-001, 4.9999999999999994e-001,
       5.2631578947368418e-001, 4.9999999999999994e-001,
       5.2631578947368418e-001, 4.9999999999999994e-001,
       5.2631578947368418e-001, 4.9999999999999994e-001, 1., 0. ]
   inv_output_scale: [ 1.8999999999999999e+000, -9.4999999999999996e-001,
       1.8999999999999999e+000, -9.4999999999999996e-001,
       1.8999999999999999e+000, -9.4999999999999996e-001,
       1.8999999999999999e+000, -9.4999999999999996e-001, 1., 0. ]
   weights:
      - [ -3.5544238181542759e-001, -1.6534176003195336e-001,
          2.6375881522698368e-002, 8.0156598055477236e-003,
          -3.6775722754074376e-002, 1.4033751386974774e-001,
          2.4278000663661645e-001, 8.5966696300714643e-002,
          4.1021917184672088e-002, 1.2684234725679039e-001,
          -9.3470014863461154e-002, -1.8469098281992788e-001,
          3.3566098966035773e-001, 3.1949389701632752e-001,
          -1.4904865950040055e-001, 1.4405389799628018e-001,
          4.2890733717464741e-002, -2.5654859064592472e-001,
          1.8987903352806695e-001, 2.4437026724391595e-001,
          -1.5534195431618072e-001, 8.8036851178053509e-003,
          1.1481279545493113e-001, 3.2318522428342635e-002,
          1.2066670832425094e-001, 6.4168375370661862e-002,
          2.5783738352642627e-002, 1.5429297792923159e-002,
          2.0260515291669060e-001, -2.5020725058776766e-001,
          -8.8153964358280157e-003, 7.4241472925815899e-002,
          8.0355599080305137e-002, 2.3346612684649968e-002,
          -3.2015785241085837e-002, 1.4029591868660582e-001,
          1.8849969552797496e-001, -6.9983243995274981e-003,
          -2.4385344420803681e-001, 9.2763476265815242e-002,
          -2.6959096303251209e-003, 2.3144579591472020e-001,
          4.2739374415347369e-003, 2.7809546645537708e-001,
          1.7614748144767219e-002, -6.7335397857625004e-003,
          7.0345810959993274e-002, -3.0580272986488355e-001,
          -1.5518750955235325e-001, -8.0064953642475373e-003,
          2.9503731532942706e-001, 2.2990503283060174e-001,
          4.1176405817227785e-001, -6.1361157323283633e-001,
          1.1840268924407891e+000, 1.7042920201305481e-001,
          2.8731173262429466e-002, -7.0848846980576155e-002,
          -6.7112622614809048e-002, -1.3805228300477634e-001,
          -3.1096588155369160e-002, -9.4292656251672602e-002,
          -3.0778520773564128e-001, 5.2260848029067893e-002,
          2.8265827654293727e-002, 1.2418121690235580e-001,
          -5.0121389565811214e-001, -2.3741574581857139e-001,
          -1.4723505981252918e-001, -1.6048560668443453e-002,
          -1.1671202615132729e-001, -3.6591184070950938e-001,
          2.3905277867606223e-001, -1.3570111806946991e-001,
          7.3437034248285515e-001, 1.1497767534936383e+000,
          1.5929030151187304e-001, 9.0779127281078578e-002,
          1.5630126037163519e-001, 3.2673754068836380e-001,
          -2.6948580451250376e-001, 1.3449941991619380e-001,
          -1.1118392323355417e-001, -5.3969496594332611e-001,
          -4.1613365995060297e-001, 8.1809089516323735e-002,
          1.4893445982947368e-001, 2.9502006191342256e-001,
          4.9045263608132994e-001, -1.1654187133760729e+000,
          4.8518909082036599e-002, 9.7288842398022296e-002,
          -1.5184151904794752e-001, -2.4989191680448591e-001,
          -1.9194613853482201e-001, -4.2096552161595407e-001,
          -1.3517232752431724e-001, -4.4783778089199111e-001,
          5.4054261122631331e-001, -3.9280920450851527e-002,
          6.5656251728822967e-001, 5.6532924563255516e-001,
          -6.4695885176900983e-003, -7.6658459261593176e-002,
          1.6777521895944189e-001, -2.4814002882439593e-001,
          1.2766240199176894e-002, 2.9508546764725579e-001,
          -9.2736396303706309e-002, 9.7315922173618619e-003,
          6.3208467109007627e-002, -2.2935999698965062e-001,
          1.5919831387708895e-002, 1.4589780198492369e-001,
          -1.5278194883362486e-001, 6.1628467955956751e-002,
          5.5901335262990313e-002, 2.9047070648670054e-001,
          -5.2749372091322011e-001, 3.4778030254563386e-001,
          -3.4893950175758998e-001, -1.4180377715641851e-001,
          -1.1935326517210554e-001, -5.2849300338228600e-002,
          1.8546047132128912e-001, 3.6437801205687881e-001,
          -1.8197337002634367e-001, -2.8829577029374104e-001,
          2.7977004406039344e-002, -8.3200500482529180e-003,
          -2.5390702969388368e-001, -4.8486461123406233e-001,
          4.7521303748414845e-001, 1.1047392156030682e+000,
          -1.5962071123467003e-001, -1.4212385825792123e-001,
          -6.7165708612068831e-002, 6.3514019528598545e-002,
          1.1466456376531382e-001, 1.0602244631433548e-002,
          -1.1944135101411736e-001, 7.3341415704164845e-002,
          -2.2504358422407819e-001, -4.3190202452323273e-002,
          -9.2128235543137538e-002, 6.7286013417545462e-002,
          -5.3287937199277502e-001, -1.5262286486536776e+000,
          -4.9532793205233405e-001, -3.9940324481387263e-002,
          -6.6720714439565521e-001, 5.3212527970077828e-001,
          -1.4016129141216122e-001, 1.5532849887562428e-001,
          9.8416126036408910e-002, 2.6049418335703938e+000,
          -9.9918341926630316e-001, 5.7063932904603029e-002,
          6.3726954783268022e-002, -1.5660541916653441e-002,
          -2.7323732446164667e-001, 4.1477076056794160e-001,
          -8.0721444253505123e-002, 2.2432556393636283e-002,
          1.5762901026391471e-001, -3.0205526616038328e-002,
          -3.0424980720783990e-001, -1.2511435822827918e-002,
          -5.1168161456315565e-002, -3.0608609700365680e-001,
          -5.3884101220167541e-002, 4.2564856814097685e-001,
          -1.7268357929658111e+000, 2.3773149074432620e-002,
          3.8582878334614096e-001, -2.7033547096474803e-001,
          -8.4696051830946828e-001, -6.0018910318380914e-002,
          1.8658786949621448e-001, 5.6910300517414138e-003,
          2.9853279766585994e-001, 6.9533741213572559e-002,
          2.8672145469823052e-001, 3.1680336619899011e-002,
          9.5608057255615192e-002, -3.8519702097552809e-002,
          -1.4636479920114765e-002, 2.3182454013022560e-001,
          -6.8125110008853640e-001, -3.1262172660822829e-001,
          2.6441930515238782e-001, -1.8904037810872656e-002,
          -2.3444423900779313e-001, 3.6085980109313347e-002,
          8.6553024500640882e-002, 5.9214221301959934e-002,
          1.3730163408341638e-002, 2.2789211213233799e-002,
          3.6937951393372093e-001, -2.6913197152478259e-002,
          2.1113403846834169e-001, -3.7014543759323398e-001,
          -2.2942766040568455e-001, -7.2274787282383991e-003,
          3.1644408314239370e-002, 9.6059665373622941e-002,
          1.9166431655162788e-001, 2.4623424790514548e-001,
          1.1822945892174955e-001, -3.9395757741413975e-002,
          -1.3308796174538856e-001, -2.0293225868716516e-001,
          1.3664536996524393e-001, -2.3089929629304287e-001,
          -2.3087386695992429e-001, 5.1527299651213374e-002,
          4.1250172606991486e-002, -5.4032896100542627e-001,
          -4.2586565303687862e-001, -2.5707211397543461e-002,
          2.0579640376186099e-003, -1.0642234745758886e-001,
          -2.4745796835579030e-002, 2.4379665053753002e-001,
          -1.3575131835057158e-001, -6.1053856363328204e-002,
          1.7799702801050168e-001, 8.7873229560264401e-002,
          5.8390250238763985e-003, 1.2191281293214464e+000,
          -2.0290056003572907e-002, -2.3826919935106713e-001,
          -9.3863898968491954e-002, -1.1596281720478559e-001,
          1.0956662562917328e-001, 7.2590265595147710e-002,
          -3.2027849600794953e-003, 2.3851412290204807e-001,
          -3.0290833686304269e-001, -4.7749930063074215e-002,
          -5.8859788772790106e-002, -2.8023457110542921e-001,
          -2.3352068472887769e-001, -6.9593846024225914e-002,
          1.0402032436021948e-001, -5.3717296821223548e-001,
          7.5802483329485082e-002, -8.1784516955773004e-002,
          7.0225387108326459e-002, -4.5944404010396600e-001,
          -1.0247406244276704e-001, 2.0063931432557709e-002,
          4.3894337916750049e-002, -1.8058012389011519e-001,
          -5.9185936473711453e-001, 1.6019376564020665e-001,
          1.1909380598865561e-001, 4.4160476194819426e-001,
          3.7978048019826954e-001, 5.7934894671764603e-002,
          5.4186147629547633e-002, 1.2502408633095352e-001,
          2.1719147963048838e-001, -2.6222808201743114e-001,
          2.3391885645066865e-001, 6.9814074636650056e-002,
          6.8892877458876275e-002, -4.2250129273621190e-001,
          -3.5909018931028369e-001, -1.2971936995471339e-001,
          6.3516357269339441e-001, 1.0286366462986937e-001,
          3.4684104384497164e-002, 2.8620726750290731e-001,
          -2.6873719922653277e-001, 6.4286220996166446e-002,
          -8.1512260118681887e-002, -7.8321824774203144e-002,
          -7.1974996167703351e-002, -1.6183419573912117e-001,
          3.9995055913986319e-002, -1.5588068832446553e-001,
          1.8689702154676677e-002, -1.1260203803899835e-001,
          1.7007866847981809e-001, -9.5058466664623732e-004,
          -4.7126498406684966e-002, 5.0246047335410515e-001,
          -8.4288343006379177e-002, -2.8335256876544213e-001,
          3.1571001325577264e-003, 1.7549602476018847e-001,
          1.3691265336372757e-001, 1.1967083685621295e-001,
          2.2929369709602235e-001, -1.6291244799801999e-001,
          6.8210580700660092e-002, 4.7804100560485521e-002,
          -1.1044814963348224e+000, -6.9051611692869108e-001,
          1.0518506773220868e-001, -3.1614284733265391e-001,
          1.0084564053028844e-001, 3.8754807845325770e-002,
          -5.2582910597410062e-002, 5.3287490896965259e-002,
          5.7073614638702879e-003, 6.9953074354470027e-002,
          -1.1457305306258357e-001, -7.4939631218535127e-002,
          2.4103768713477636e-001, 4.1360417922292697e-001,
          4.6923490641378129e-001, 4.4823855038848698e-001,
          -2.9251062175221559e-001, -2.3787575460587831e-001,
          7.8708844543095380e-001, -5.7972691343644259e-002,
          3.6229151304936334e-002, 7.8124140054893931e-002,
          1.4763731652421312e+000, 4.1556556544268003e-001,
          -2.6023672691990365e-002, -9.4194232844479489e-002,
          -1.5111854138892475e-001, -1.0386298059250636e-001,
          -8.8723788468136958e-002, 1.6007946263466097e-001,
          4.2409366287362593e-001, -2.1134975707263932e-002,
          -9.4314758167814330e-002, 1.8244086111000621e-001,
          -1.2806894473410471e-001, 3.7274809189256686e-001,
          3.0182211299371176e-001, 4.1759578183585458e-002,
          -3.3271529284192281e-001, 5.9262838782589444e-001,
          5.7662796640660530e-001, -1.8584352110406894e-002,
          -7.1835457111672609e-003, -1.3965410331265907e-001,
          1.2677639233719840e-001, 5.7735811840666218e-001,
          1.0695702174351156e-001, 2.3346587495289781e-001,
          -1.6370795265979121e-001, -5.5355949083990885e-001,
          -4.7843100832832897e-001, -5.6830395187618388e-001,
          -2.6591905758507856e-001, 1.3973753709495740e-001,
          -1.9215017877007987e-001, -6.8660422318117101e-002,
          6.5605416228840373e-003, -5.5763921306432096e-001,
          -6.2967470781762902e-003, -7.3177520607920499e-001,
          2.0761498709981266e-001, -3.8238451781303681e-002,
          -5.4996012625706225e-001, 2.2348041458988682e-001,
          -3.4598726091236326e-001, -1.5079645030121325e-001,
          -8.1969777855653847e-001, 1.1797502646877112e-001,
          -1.0665709803561745e-001, -4.5667253768282942e-002,
          2.6767381842677818e-001, 5.9142117687930540e-002,
          -2.3276474916443204e-001, 3.5609676523296824e-001,
          3.1832803280699246e-001, -2.9476914702079970e-001,
          -2.8224960554679862e-001, 6.5154269788116975e-002,
          -1.4326234545380673e-001, 7.6968519961309567e-001,
          7.3103649723440467e-002, 3.0113563329079895e-002,
          -1.7042556715813148e-001, 4.7889667583424206e-001,
          3.0006594691689453e-001, 2.2413935764006906e-001,
          2.5400295826523239e-001, 4.6971059014640704e-001,
          2.4711029651349187e-001, -2.4825607771787708e-001,
          -4.6989183515160970e-001, -1.5371662255603019e-001,
          4.0620190790099341e-003, 3.0712049532967012e-001,
          -3.2889047856322418e-001, 1.9614509268168051e-001,
          -3.4398254023322007e-002, -2.5232335782929667e-002,
          1.0511254180956560e-001, -1.3057009722936913e-001,
          -3.3655617139099003e-001, -1.1163846729785303e-001,
          8.1811740646928408e-002, -3.2066368058236283e-001,
          -2.0653385044870415e-001, -1.9400474679645352e-001,
          2.6878720131117978e-001, 1.5762903817879784e-001,
          1.9366859352680535e-001, 3.1140526357991244e-001,
          6.6793047225224236e-002, 2.7182286594422250e-001,
          3.1118663384913758e-002, -7.7173219663205561e-002,
          -1.6364396336661896e-001, -1.9209296388662561e-001,
          1.9492329341531184e-001, 3.1015131466833042e-002,
          2.3291760589916258e-001, 5.5576668754419807e-002,
          -1.8437120511190830e-001, 9.4345615896254009e-002,
          -1.1887420429850189e-001, -1.9985303679481314e-001,
          -3.1699601051350018e-001, 2.0661878374592496e-001,
          1.4443902879412202e-001, -6.9038840314147962e-002,
          -2.0610336763940007e-001, -4.1578778556410258e-003,
          -5.8522227506797642e-001, 3.0529492079470841e-003,
          -1.0014511535625285e-001, 9.3477298088462557e-002,
          -6.8569954934341315e-002, 1.1140782001876152e-001,
          1.1612226510566959e+000, 2.2749194917738447e-001,
          3.6873603604564875e-001, 1.3377662183673766e-001,
          2.2919836359088747e-001, -2.6186616760427273e-001,
          2.4295320842450202e-001, 1.0468794277111956e-001,
          2.6847296556585108e-002, -4.8649604472138569e-001,
          -3.4211093999005820e-001, -3.4953119844992314e-001,
          -1.3966789635546487e-001, 8.1344152841270542e-003,
          1.4500926738376874e-001, -4.9050716751609247e-001,
          -2.7894927161937988e-001, 1.8541261302819853e-001,
          -6.4895525981681038e-002, -2.5095373133674237e-001,
          3.6703396169346592e-001, -2.7415610915701594e-001,
          7.3374833235123016e-001, 3.2854836679902844e-001,
          -2.7886903705620872e-002, 1.0244777502571396e-001,
          3.1986606799159018e-001, 2.0613282976181335e-001,
          -4.1412240925860966e-001, 1.4218807186084206e-001,
          3.3343656130316190e-001, 1.2121960649693177e-001,
          1.2692109961110243e-001, 8.2470869891450374e-003,
          8.1850863610122754e-002, -1.4159791735622362e-001,
          9.4259864946103680e-002, -9.0753607880770901e-002,
          9.2651197055837548e-002, -2.7268384286590086e-001,
          1.2755449815326009e-001, -1.6158432532132716e-001,
          -1.7516354375918537e-002, -1.2627943547258056e+000,
          -7.3454267378709553e-002, -1.0785748267613011e-001,
          4.8491106566038295e-001, 2.3648721020785933e-002,
          -5.5709636979129146e-002, 7.2786430368617936e-003,
          -4.9439300848471042e-002, -9.0914354011921550e-002,
          2.7798690199934417e-005, 9.2324912951168084e-002,
          1.1661110842451954e-001, 1.9445020765326673e-001,
          8.7942572863694418e-002, -1.0947891258676327e-001,
          -2.1905546547600234e-002, -1.9718331449660478e-001,
          -2.0531081025844305e-001, -9.6054290717140986e-002,
          6.9313646422726458e-002, 3.3650018544114951e-002,
          -1.2556354340548076e-001, -1.2013368893056624e-001,
          1.9043095788576886e-001, -1.6646065014749989e-001,
          -3.6883324871914681e-002, 8.8518947838405901e-002,
          1.3367785415523223e-001, -1.0502818307698081e-001,
          -6.5196491578933358e-001, -2.1090661302194305e-001,
          -3.5790797588385603e-001, 9.8722227724733949e-002,
          -2.3594016005014351e-001, 3.7502974058583743e-003,
          -2.0639894183394961e-001, -1.1593409374446242e-001,
          2.0274340357148687e-001, 1.9018909982117632e-001,
          7.3658082371498956e-002, 3.7506282122371176e-001,
          -2.3936987797524584e-001, 6.8415903687407367e-002,
          2.6322093540840741e-001, 3.4701463527321064e-001,
          -1.4735739306036369e-001, -2.1023710965262679e-001,
          3.3720972112951930e-001, 1.0498980665874748e-001,
          -1.5683267042336668e-001, -2.5608250882083027e-002,
          -1.6006990722076103e-001, -4.2490236501080869e-001,
          7.9611288123103488e-003, 1.5016299876513112e-002,
          -2.9171405817578178e-001, -1.6240999594575062e-002,
          -5.2639430634353768e-003, -1.0919003729943459e+000,
          2.4443897393565320e-001, -4.2792555117217340e-001,
          8.3615021981010576e-002, 2.8772787190121073e-002,
          -2.3252032671099518e-001, 6.4516199927695098e-002,
          3.0368857723730391e-001, 3.9759787706881572e-001,
          -4.6170191569686220e-001, 8.1165203101115097e-003,
          3.5754311088602664e-001, -3.6880487844632248e-001,
          1.4090601766252214e-001, 2.3702388315452960e-002,
          -8.8130741572339910e-002, -9.0650427258436117e-001,
          -1.1008482223915179e-001, -4.0559714739045516e-001,
          -2.5025376530309679e-001, -5.2783590863335755e-002,
          -7.7429037639697388e-004, -8.0916748454345322e-002,
          -9.5280086652927254e-002, -4.5932789276379532e-001,
          1.1817098339667273e-001, 1.4681075092303664e-001,
          3.3125076305862387e-002, 3.1642451562592372e-001,
          9.4493382339093435e-001, 8.9497108911984410e-002,
          2.3761210906544539e-002, -9.9377858187341087e-002,
          1.5452398476179244e-001, 2.1860400781548112e-001,
          -2.9138615055924949e-001, 6.6801827231376787e-002,
          4.5785694089294432e-001, 5.8756672383998310e-001,
          1.3318302140518418e-001, 3.7569622231996523e-002,
          3.4733473430743766e-001, -7.5632417169119448e-002,
          -8.8064361962522833e-002, -2.1575264390337013e-002,
          7.8948608342856263e-001, -4.3742305883872118e-001,
          7.3963821791783346e-002, -1.5633294566530922e+000,
          -1.5556331726949860e-001, -3.8358265506127792e-001,
          -2.9711806337372410e-001, -2.0466735887389897e-002,
          8.5769264486073180e-002, 1.9931599699601260e-001,
          6.4805809926089614e-002, -2.9130269990777069e-001,
          -4.8076691662266202e-001, -1.4791244748445438e-002,
          1.8670458789632183e-001, 2.1595364306447692e-001,
          -4.5389821568530986e-001, -2.4409712908861647e-001,
          -8.1599447930985433e-002, -5.3969800077862867e-002,
          9.0398481392681543e-002, -4.4638866422936525e-002,
          -2.8205312269206562e-001, -6.6110812915337924e-001,
          1.1219010786727412e-002, -4.7633610018051953e-001,
          -2.3393570798888888e-001, -7.7503109374091647e-002,
          2.2511558844336299e-001, -2.1779891397446258e-001,
          -2.4098343088993043e-001, 3.6872376816363334e-001,
          -3.4554697206819490e-001, 2.9041130497025381e-002,
          2.5526277087572463e-001, 2.0899494031047122e-001,
          2.3583840193607142e-001, 2.9056028307066089e-002,
          6.4722422039206320e-002, 3.1843495809236289e-001,
          1.0958621024237584e-001, 8.0795837055405613e-003,
          8.7371893995917493e-002, 3.1588791796453158e-002,
          -2.4298826863160272e-001, 1.3898004062725702e-001,
          3.1763418581571667e-002, 6.4832371000377154e-001,
          4.1701214151260180e-001, -2.6389892376186858e-001,
          -1.8853259957382484e-001, 1.5197119956831359e-001,
          6.8586990774957668e-002, -9.3652822698950498e-003,
          1.1957991696790263e-001, -3.1739929049894977e-002,
          -8.6098074394171872e-002, -1.1733106268740055e-001,
          9.0664710088529110e-002, 2.9017916849998565e-001,
          -1.7448443137183446e-002, 3.0842985563059749e-001,
          -4.6529375997814770e-001, -6.8740523891197891e-001,
          1.1864807754187316e-001, -3.1989459469254922e-001,
          3.1077021010380146e-001, 4.4629029613515037e-001,
          2.2576141379844267e-001, -8.2019386447402642e-002,
          7.6516860427090883e-001, -7.2577558375694295e-002,
          -6.6089726966884907e-002, -3.0406318640793095e-001,
          -9.5132170797343207e-003, 3.2499655345760325e-002,
          3.6422214291124140e-002, 2.5224475663155543e-001,
          -1.4625867573872878e-001, 1.2288601805107112e-001,
          -1.7068568218748800e-002, -2.5847659380119992e-001,
          -1.8098857009879712e-001, -3.2880468620508460e-002,
          7.1554467575176611e-002, 5.7656949544097037e-002,
          -3.0049791576222662e-001, -1.6799389471384113e-001,
          -1.0972742277321265e-001, 1.8146092719494068e-002,
          5.8110859245681212e-002, 5.2595675607516865e-002,
          -2.1690735578736089e-002, 1.2861120301649820e-001,
          1.6765720702919507e-001, 7.9357952764673251e-002,
          -1.2434119688068504e-001, 1.6857637624676108e-001,
          -1.8602408537386367e-001, 2.0569199436012256e-001,
          1.7770039759106063e-001, 5.9685069481969569e-002,
          -6.0508243681150334e-002, 1.7333485357613157e-002,
          -1.7638454558121444e-001, -2.7321206945690102e-001,
          6.9335504313848895e-001, -1.8383698675217587e-003,
          -2.0663707552898706e-002, 1.3015434511030816e-001,
          -1.7480606347652392e-001, -5.6422052196209597e-002,
          3.0339023816952315e-001, -1.6637226201104685e-001,
          -2.1933895358869523e-001, 9.6529969295503740e-002,
          4.3306225447975188e-002, -2.4688236883236911e-001,
          -2.3299274900087016e-001, 1.2221189603261604e-001,
          -2.6145203784026061e-003, 4.8909201055371859e-001,
          -1.9220784035569927e-001, -3.8370931847216666e-001,
          -8.9502156473249106e-002, 4.6415953018198952e-002,
          1.1504553548857344e-001, 1.0768942543654084e-002,
          4.9879311267134747e-002, 7.8793640983077978e-002,
          2.3433183904400573e-001, -1.6612594967588670e-002,
          9.7884059389205927e-002, -9.5051113540011150e-003,
          -1.0021558335833851e-001, 2.0112714964148162e-001,
          2.4510120608624099e-002, 8.4312283515392619e-002,
          1.9184997748025712e-001, 2.6959720857325048e-001,
          -1.4309532053814167e-001, -1.9936135449641731e-001,
          2.7435548236530055e-001, 3.4693184548669370e-001,
          3.5453463572517240e-002, 4.7335781669345861e-001,
          2.1459746996817583e-001, 1.1839731851083024e-001,
          3.4120566895204527e-002, 4.5262457597650546e-001,
          -3.7499337552669328e-003, -2.5078301943826548e-001,
          -6.2924250357887485e-002, 1.0029654571238698e-001,
          5.7732404537276993e-001, 1.5753826156808529e-001,
          2.5185650688907590e-001, -3.0823762280625644e-001,
          -2.9058269003515602e-001, -3.3588217486272876e-001,
          -4.1892659989409575e-001, -1.5821226891968232e-001,
          2.2333518157156412e-001, -1.7998527179818002e-001,
          -8.0481197524588877e-002, 3.3324676996209524e-001,
          2.1483554424533091e-001, -5.8028790867994784e-002,
          3.1016824962992334e-001, 2.0808753892445266e-003,
          7.7813042320884429e-002, -2.1713047052455883e-002,
          2.2986375507284451e-001, 1.4489179179983097e-001,
          1.3167584130010349e-001, -4.1560408705370630e-002,
          1.5063601488073516e-001, 3.9016508568696040e-002,
          -1.8252411577562400e-001, 5.7529176820377621e-002,
          6.4478722953223835e-002, -7.9549312847049969e-002,
          -1.9054144374042353e-001, 2.2912851014686254e-002,
          -4.6618991592180005e-002, 1.8015319176167111e-001,
          9.3413934512290187e-002, 1.9787935716857941e-002,
          -7.8114261999845891e-002, -1.2939273326243547e-001,
          1.2467789656045013e-001, -1.4539605457382615e-001,
          5.4858178116727559e-002, -4.4519419612050408e-002,
          -2.5269874789232843e-001, 9.3796480170187976e-002,
          8.3417689345182358e-002, -3.4744960110581161e-002,
          -1.1885902906957786e-001, -1.4295928795702859e-001,
          2.0396907924709262e-001, -2.5878806445787428e-001,
          -1.4209466463263384e-001, -2.0073808200498755e-002,
          -5.6077289588558552e-002, -7.8917911246869796e-002,
          1.3977105699496056e-001, -2.1250371734687634e-001,
          -7.5230498412894961e-002, 1.2064699445011745e-001,
          -1.3731788542224607e-001, -2.6033013645848746e-001,
          4.4769694097040985e-002, -3.0639502689290865e-001,
          6.1675464291018375e-002, 4.5700161350332402e-001,
          1.0084052932641517e-001, -6.5852679905834752e-002,
          3.6612360351650930e-001, -4.2784014122235858e-001,
          2.5648945133357570e-001, -5.4216720174203203e-001,
          -5.1477497554603557e-001, -9.8187271277160426e-002,
          2.6403484612007483e-001, -8.5423543279103772e-002,
          2.9659815206408417e-002, 8.0823081223203630e-001,
          3.3245184649841197e-001, -5.9610648140224216e-002,
          -2.3696278162346496e-001, 1.4035651013351216e-001,
          -7.7262148490911398e-001, -1.8995586829863728e-001,
          2.8778940268619302e-001, 6.4841737796635990e-002,
          -8.1801653522523249e-002, 3.1237473603908245e-001,
          3.0555063559423301e-001, -3.0805376912165111e-001,
          1.1008101503300369e-001, 3.1961582374421080e-002,
          -1.0247681567557700e-001, 3.0597893720151859e-001,
          1.5606468532457157e-001, 1.3975499261449051e-001,
          -1.9291578562410414e-001, 4.2953225727547367e-001,
          -5.9540333608605445e-002, 2.6895804554040365e-002,
          3.3614126523332189e-003, -3.4668965773880467e-001,
          -5.4987630107980934e-001, -2.6104257924077723e-001,
          -1.0103020504025265e-001, -2.4166650867062128e-001,
          9.4206951731413011e-002, 1.4168783206759933e-001,
          -3.0828387387885032e-002, -2.7594498839246778e-002,
          5.1872815578251941e-001, -4.2407558501081744e-002,
          -7.7358879552067189e-002, -2.8292416267855458e-001,
          -3.6124832396082485e-001, 9.5993637801710413e-002,
          -1.0335848304244420e-001, -1.9241484579610937e-001,
          -1.2814921286978820e-001, 6.4423019023758063e-002,
          -2.3271334204134814e-002, 5.2402767113065865e-002,
          1.5638838160545920e-001, 6.0537603172045061e-002,
          1.7096001671307295e-001, -4.6765845082402963e-001,
          -1.2104919087019539e-001, -8.0554247678351887e-001,
          1.6129291872449325e-002, 1.7483089388910205e+000,
          -7.5665858335155184e-002, 1.2680197654113079e-001,
          1.3726302228186812e-001, 3.2135372622663250e-001,
          -2.7448051843270156e-002, 1.1706211373498447e+000,
          2.5473954767003454e-001, 6.1230534123626512e-001,
          -5.3421916164387691e-002, 4.1848802924309578e-002,
          1.8115900791376582e-001, 1.0962671921693474e+000,
          3.1676227633193693e-001, 8.8287082389412158e-002,
          -4.9095495168172104e-002, -2.5713936530996995e-001,
          -2.6169798249168352e-001, -6.5831648958770717e-001,
          -2.3453293169356043e-002, 4.9780187795468617e-001,
          2.1450321158382551e-001, -3.8995836548563112e-001,
          2.1738432104992475e-001, -1.0345926937748917e-001,
          -2.8272230580011604e-001, -1.4698341209790994e-001,
          4.6185738453964467e-002, 8.7822758090667259e-003,
          4.1947785573294710e-001, 1.4316725345775515e-002,
          2.4253835123911982e-001, 6.9852213890172454e-001,
          1.9919485997608111e-001, 2.6320616775742717e-001,
          -4.7316839774915367e-002, -7.1876365258999528e-002,
          4.4711941250975124e-001, 2.3270149997111783e-001,
          3.8426142938358450e-002, -8.9678946691197511e-002,
          -9.1699012574799177e-001, 1.9058767330406658e-002,
          2.7382668850028610e-003, 3.7879697490028458e-001,
          1.2214216844224777e-002, 4.5259142767579452e-001,
          1.9887746777083964e-001, 1.8527262585782348e-001,
          1.8691689787112928e-001, 4.1734692993113970e-001,
          2.4089782300231249e-001, -3.4019637075175191e-001,
          -3.5301641212133542e-002, -5.8342937283737545e-002,
          3.8345248811883570e-001, 1.5806010114818322e-001,
          2.8944908441492018e-001, -5.5143323617836670e-001,
          -2.7135876364699107e-001, 3.1265287231826588e-002,
          -4.7223968088967172e-003, -9.1835023062255980e-002,
          7.0095823753410086e-002, -3.1462368758972981e-001,
          9.0176303354866108e-002, 1.8921581509290375e-001,
          1.6270446641450040e-001, -1.4618211833585463e-003,
          6.5153851657017836e-001, 3.1300949099044213e-003,
          1.4893892052951696e-001, -2.1163723187279371e-001,
          3.5317779441057698e-002, -9.7671733892363791e-002,
          6.8962197201964545e-002, -2.1431759180338647e-001,
          1.1583463029801912e-001, 3.5337771711694688e-001,
          7.6459849774923772e-001, 3.5844935961933377e-001,
          3.0957277494868407e-001, -1.4107705812588150e-001,
          4.8211954678369168e-002, 9.3267914627267245e-002,
          -4.4365479236536554e-001, 1.4527600138404523e-001,
          3.3418058122126248e-001, -2.6022056495401297e-001,
          -4.1258956565658500e-001, 1.9023505376612548e-001,
          4.8103383828376520e-002, 1.1411347039304601e-001,
          1.3028961713388045e+000, -4.2268425811234606e-002,
          -9.6019849257149223e-002, -1.8251094052061916e-002,
          -6.6524188984673577e-002, -1.4534845783992650e-001,
          -1.1001296736783103e-001, -4.1789511881580449e-001,
          -1.6911953724913256e-001, -7.9459764199636698e-002,
          -1.1650817763068140e-001, -9.6390234848645640e-001,
          1.2599925528003677e+000, 1.1237261873126707e+000,
          1.0324771493735903e-001, -2.9736741199366240e-001,
          4.0072085559766962e-001, -5.2082270984272117e-001,
          1.5234179271522166e-001, -2.2101993638977677e-001,
          1.2314036106306311e-001, -1.3479798293970779e-001,
          1.7613135228277821e-001, -5.8168428414574772e-002,
          -8.4474419707275400e-002, -1.8336954536387440e-001,
          7.9768525798245130e-002, 2.0164226502515772e-001,
          3.9480852038687758e-002, -3.6552709557865104e-002,
          1.2938905272514759e-001, 1.5618011840025361e-001,
          -4.4467791902991410e-001, -3.3667467156112313e-001,
          1.2469578716715853e-001, -1.3342919095671366e-001,
          3.0163456046336502e-002, 3.0842048246132220e-001,
          1.1488443455916540e-001, 7.6949956991383683e-002,
          8.4392926157030174e-002, -1.2649686950426378e-001,
          -1.3652823854661511e-001, -5.1522814050860477e-001,
          -3.6856113530210600e-002, -3.9192234770720991e-001,
          -1.6907293579476304e-001, 2.8839870779071131e-001,
          -1.5879955516008179e-001, 3.8066930621391737e-001,
          1.2543569910027794e-001, -2.2751942038318729e-001,
          -3.1008944024123342e-002, -3.0447866881847724e-002,
          -6.7384299491942343e-002, -2.3473257919083564e-002,
          -1.2286385328380832e-001, 1.9235287736116402e-001,
          -4.6807816288977108e-002, 1.7097822465549313e-002,
          9.5532424369781765e-002, 1.2758667487894731e-001,
          2.3158257455893416e-001, -2.0808572402956554e-002,
          4.0118348823394261e-002, 1.2729686849213206e-001,
          -4.8181617828897499e-001, -2.6279981563159494e-001,
          3.8760241043955390e-001, -6.8850011227770999e-002,
          -8.4521451459188573e-002, 4.0759052310119295e-002,
          -1.5442172884436525e-001, -4.4535047433838471e-001,
          -3.4612152972911725e-001, -1.1296263241755114e-001,
          -1.2340375762833780e-001, 1.0044386136126250e-001,
          3.2926367391142054e-002, 3.9398908909193886e-001,
          2.7547294555781660e-001, 2.3938913768284215e-001,
          1.3900301476140553e-001, -3.3631717545288081e-001,
          1.5364205604836390e-001, -2.0751708053365139e-001,
          -5.4933665315842227e-002, -3.7517450260635625e-002,
          9.7072762554178293e-002, 8.9636535614845206e-002,
          8.4881863175087155e-002, 1.7121793422558446e-001,
          -6.4580246901740287e-002, 3.8392193944528441e-001,
          2.3021335840869253e-001, -4.3200092163907335e-002,
          2.5469696094986397e-002, 4.0050124503189211e-001,
          -1.2632898638599576e-002, -2.4427328213062055e-001,
          1.4046440682618294e-001, 9.6615830207448808e-002,
          -2.6001436436257036e-001, -2.2244969648320803e-001,
          2.3082794768701356e-001, -2.2045640912309519e-001,
          -3.9206677266277534e-001, 1.1755006387567211e-001,
          2.4996729566550829e-001, -3.9807579483800098e-001,
          1.2245708491829199e-001, 2.2270051926651044e-001,
          -5.2212887895236382e-001, 1.8721372800129235e-001,
          2.7251060788314319e-001, -3.9991132661474409e-002,
          -3.8531812965618056e-001, 2.1558264949925482e-001,
          2.3986900200127231e-001, -2.7730957991168714e-001,
          1.8765818845066740e-001, 4.7362173176366974e-003,
          1.7147339346474361e-002, -1.3428569722220302e-002,
          1.4225321207980107e-001, 1.1803225867950612e-001,
          -1.8718592341459472e-001, 3.1267654657865573e-002,
          1.9142655444105514e-001, 5.2600418543725824e-002,
          -9.3583695238914771e-002, -7.5036789209218593e-003,
          -6.6969528154799798e-002, 6.7881618474741279e-002,
          1.2912821450779102e-001, -1.1824167161760191e-001,
          -2.1013524117630378e-001, -5.8057898529576539e-002,
          -7.9504993015322634e-001, -8.5612943695561064e-002,
          1.4323657073690121e-001, -4.6644530024650591e-002,
          -1.4100797159045167e-001, 9.5546718566372826e-002,
          3.2282712448791728e-001, -6.9173319731201915e-002,
          3.0216341040544176e-001, 2.2194810571915080e-001,
          -8.0930348649141587e-002, 7.7637816297364395e-002,
          -2.1349532941933702e-002, 1.6887189821776413e-001,
          -2.7986551858048009e-001, -1.9734931084108928e-001,
          3.0788942466441364e-002, -4.7673682520054356e-002,
          2.5936133461570809e-002, -1.4298454468132207e-002,
          -2.8311332507023151e-002, -2.0188491919955598e-001,
          6.1502642585022207e-002, 2.3598446758798616e-001,
          7.0207510846518550e-002, 1.1096088165454113e-001,
          1.0025947784024590e-001, -2.6102253887593137e-003,
          -8.5020175030205730e-002, -6.3507120624023167e-002,
          -3.9621111422358288e-002, -1.2488094049201648e-001,
          -4.6274412487956829e-002, 8.6565400114049493e-002,
          -1.6892576915396063e-001, 9.7722945641039866e-003,
          3.3050397273539545e-001, 2.3290196186272524e-001,
          2.2579366776047605e-001, -1.8906133376635206e-001,
          -3.5709756690727923e-001, -1.0404736392087910e-001,
          -3.7718413533958148e-002, 9.7330532298061567e-001,
          -4.4378090084316435e-001, -2.0853794531059391e-001,
          -1.0095035425963785e-001, 7.9814306878297228e-002,
          -3.2296570963848928e-002, 6.9423995448434819e-002,
          5.7700155394977408e-002, -4.0833026383268349e-002,
          -2.3810577209327904e-001, 1.0020522404220579e-001,
          -8.8640249470588142e-002, -6.2224115525263614e-002,
          -7.0797693891292068e-003, 2.1819005353687648e-001,
          -5.4951807995817982e-002, 2.7343144432436223e-001,
          -4.0126362753080541e-002, -3.5076121783261104e-002,
          -9.0289442633302949e-002, -9.4883261871083147e-001,
          2.5292343562069142e-001, 2.1390584194267207e-002,
          3.8580440284067369e-001, 2.9864029875592940e-001,
          1.1529558648783590e-002, 2.0288107330379893e-002,
          5.6230016440346108e-002, 5.7594338299448111e-001,
          8.2217381182611085e-002, -1.8768154322968181e-001,
          -3.0667452325789143e-002, 1.9143860823359093e-001,
          -6.6156282245480261e-003, 2.0609577886684233e-001,
          2.0255667082029163e-001, -2.1631027831623859e-001,
          1.9515852312229148e-001, -3.5690685176922123e-002,
          1.2809260323073440e-001, 1.4957387074363325e-002,
          -1.9052558260386807e-002, -1.2285430024015463e-003,
          -9.7898038351637323e-002, -1.8108560662346541e-002,
          -2.9455734625576054e-002, 5.1456515885811745e-002,
          1.0743075260460873e-001, -2.0968950848336289e-003,
          -7.6288602582850660e-004, -1.4143325037568860e-001,
          -3.4748251652572926e-001, -5.6284606157229071e-002,
          5.3448507660644733e-002, -3.1732740529249528e-002,
          -4.4183649758438026e-002, 3.6027246765814702e-002,
          -4.3442468701972090e-003, -6.7022820482756526e-002,
          1.4859147241864651e-001, 3.9107108755247269e-002,
          7.0670924204021893e-002, -6.7011065242991205e-002,
          1.2684432689420275e-001, 1.5708560927047149e-001,
          -6.9282029143297275e-001, 1.5935355242389188e-001,
          2.4264970088543386e-001, -3.5100182324062396e-002,
          -1.7189021267554494e-001, -8.3728026767967756e-002,
          -3.8099851227717266e-002, -4.1187584827712467e-002,
          -4.8503626132890376e-001, -1.3632004065970038e-001,
          -3.7119552276946494e-001, 2.3328234958044900e-002,
          -1.3364023662128743e-001, 3.0608990934959071e-002,
          -7.8079825811734435e-002, -7.8468679644192060e-002,
          1.2916138777797304e+000, -1.6164518275575696e-001,
          3.2546577589163467e-001, -9.2338762383655168e-002,
          2.0626967247359899e-002, 1.7511638116819972e-001,
          -3.9762901313028298e-001, -2.1820533779849084e-002,
          1.8242703166268331e-001, 2.2950308083312387e-001,
          -1.1894280356277726e-001, -4.4318853904913594e-002,
          3.8223659338651468e-002, -3.2640677143927370e-002,
          7.8799135639177398e-002, 2.0079691990443257e-001,
          -4.8583682523364894e-003, -2.7278254782318456e-001,
          -4.6906593370500627e-002, -4.9414928253966463e-002,
          -6.6092788990997042e-001, 1.5966368776423567e-001,
          3.5784669111337158e-001, 7.3081190269399998e-001,
          -8.4306072862284503e-002, -1.7756682800005405e-001,
          -1.0949932783928004e-001, 2.5111453999300531e-001,
          4.0130074507093202e-002, -1.2053404172972247e-001,
          -8.3030634299625192e-002, 5.3429598885176677e-002,
          -1.5279690976630464e-001, 4.0719253838805969e-001,
          -1.5789607963251964e-001, 2.1802572710041049e-001,
          2.7726029599323432e-001, -2.9637277222909564e-001,
          -1.4704886721489571e-001, -4.9719798706461860e-001,
          -2.2236899234434095e-002, 1.5061096526511372e-001,
          1.6514250635613580e-002, 1.9842364953711980e-001,
          7.1655480755627693e-002, 1.0020428718959726e-001,
          -9.7149627055578600e-002, -9.0528686602040900e-002,
          1.0372124386264056e-001, 3.9028825795414696e-002,
          -1.7404230256531958e-001, 1.9397085132346442e-001,
          -5.8213939435808618e-002, -3.7759744303807574e-001,
          2.9796935016031374e-002, 1.5005511840597024e-001,
          -5.8151319589161012e-002, -1.9520992285828703e-001,
          -1.8103485171197267e-001, -5.0037194153936621e-002,
          -4.0768192097284522e-002, 1.8550407594649609e-001,
          2.7177946376142259e-001, -1.8094123366159370e-002,
          -3.9239706871426394e-001, -1.4858686871276408e-002,
          4.2798814162003006e-002, -4.1985790687402708e-001,
          -5.3538893148193212e-002, -6.6448633826596618e-002,
          1.9748530727121422e-001, 1.5560954437017133e-001,
          -6.8300968138683736e-003, 4.4348628217552435e-002,
          4.1119742503213347e-002, 1.2084970662452270e-003,
          2.8947923727504671e-001, 1.0353512799761704e-001,
          -8.8895328928749531e-002, -2.0709894090864064e-001,
          1.4741930179456192e-001, 1.4642383745455900e-002,
          -2.8965155162481176e-001, 1.2657026603008159e-001,
          1.1432559182099092e-001, -5.0524436550403418e-001,
          -5.9397896865070265e-001, 1.6088569596395430e-001,
          -4.1113878313950014e-001, -4.3002899984903842e-001,
          1.7820094767467881e-001, 1.6911483991554202e-001,
          -2.1822103922449490e-001, 1.0920773186851979e-001,
          4.6730224859203329e-001, -9.7737548254938689e-002,
          -7.6573726101349507e-002, -3.0466109893888027e-001,
          -1.2280760058653055e-001, -9.0141469993462439e-002,
          -1.3066097120578729e-001, -2.3011585687266636e-001,
          -1.6654225831390376e-001, 7.7505771612719307e-002,
          2.6015436445795947e-001, 4.9127383159931270e-001,
          6.0529235646580326e-001, 4.1151550589567065e-001,
          -1.7038991211080563e-002, 3.5180999342384792e-002,
          -1.1196494943823497e-001, -1.3476771510418133e-002,
          8.3196310313416333e-001, 1.1933905861041203e+000,
          -6.0784149087414474e-001, 5.6367548598840989e-001,
          1.0619362348129238e-001, 1.8556979580173702e-002,
          -4.7166580983633868e-002, -5.6645941767505183e-002,
          4.4969991359732342e-001, -8.2183677511145053e-002,
          -8.3646715080155157e-002, -3.8850223682405607e-002,
          -1.8125537437089259e-001, -7.5764389307903066e-002,
          -3.4786453541518859e-002, 1.1419007964254040e-001,
          1.0944553755795633e-001, 2.4092705718313601e-001,
          -4.0346739007291216e-002, -3.2009331371235739e-001,
          -1.5799873091940300e-001, -7.0340746675135388e-002,
          3.8877928201228307e-001, 5.1150840215830433e-002,
          -3.0365910567880783e-001, -7.3264285669270082e-002,
          9.6179062326685960e-001, -5.9770423879297090e-002,
          -2.6794919283167157e-001, -3.3435389252888381e-001,
          -5.0953409227423307e-002, 6.0987623629434468e-002,
          -3.1251640446515877e-001, -7.8127097102968279e-001,
          -2.2222013832694532e-001, 8.9523026321082902e-002,
          2.8027483897337759e-002, 1.3231991430957651e-001,
          -4.6707953809075725e-001, -6.8258686243585623e-002,
          1.4746651645880154e-001, -1.9979281279185562e-001,
          -2.3856271448254915e-001, -4.7578320249837275e-001,
          -3.8003490860881381e-002, -3.2138745871226676e-001,
          -2.2473566771814024e-001, -2.9220469323196711e-002,
          -1.0275484628882364e-001, -4.8868280501674100e-001,
          2.1443562930093624e-001, -5.2340935056444926e-001,
          -4.7379673489871682e-002, 4.4749067561699378e-002,
          1.7008537991576831e+000, -1.8822802987031662e+000,
          -5.0241721343086643e-001, -1.0556050449762543e-001,
          -3.9607038874506735e-002, 6.0922156025555707e-001,
          -4.6720791130029402e-002, -4.5094524120357131e-002,
          -2.4313778290349922e-001, 4.1081940257140619e-002,
          6.2909968819207251e-001, 1.2482972381335668e-001,
          8.3002996739130841e-001, 7.5151220422120760e-002,
          -5.6475295332644382e-001, -4.8146399060254103e-001,
          -1.3411551687146628e-001, -1.8259785793266986e-001,
          -1.9481596905976534e-001, 3.8642199362732066e-001,
          -1.1703687534392010e-001, 2.9215681998450715e-001,
          -1.7596309232688141e-002, 1.4104272020373854e-001,
          -1.7111803430639735e-001, 9.6516502318734446e-002,
          -1.8779683587172166e-001, -6.8800956956305992e-001,
          1.9239981990224864e-002, -3.9693464478861351e-001,
          7.8451602088730227e-002, 4.8941392532868458e-002,
          -2.0304116886466758e-002, -2.9150362194985641e-001,
          -1.9825023520575361e-002, 1.3592792371173019e+000,
          -7.0071144039959576e-001, 1.4863315730499221e-001,
          -1.7250229144314233e-001, 4.1669800440793009e-001,
          -2.4400003955342559e-002, 1.2889897329042246e+000,
          -4.4907112756180623e-001, 1.4647614974835427e-001,
          -1.7975149638029528e-002, 2.0611611457801261e-002,
          -3.0213394800771856e-002, 4.4242529976122061e-002,
          5.0194329596370557e-001, -3.1588427453260834e-002,
          1.3727668416286745e-001, 1.6772822229389897e-001,
          -1.3018427184979910e+000, -1.6145893426915534e-001,
          -1.8231855490898277e-001, 2.4481511340546605e-001,
          1.1135937012991101e-001, -3.3810246256856669e-001,
          -3.1421815274514298e-001, 1.8395574062432793e-002,
          2.6808682448410187e-001, -1.1217898906496211e+000,
          -1.0611710096045675e+000, 1.6254787554567534e-002,
          5.2404706314747695e-001, -7.7646091517080545e-002,
          -6.4572249963738837e-002, -1.3792930264242403e-001,
          -3.5474170027380542e-001, -1.9988911372552826e-001,
          -2.9025995921865599e-001, 9.1381171921975174e-002,
          3.4598790449147004e-001, -3.4826486947698646e-002,
          5.2580013993653840e-001, -1.1036989243870846e-001,
          -2.5071658679871894e-001, -1.0086349663990125e-001,
          -2.3146281269543122e-002, 2.3701942809273960e-001,
          2.2511503921268172e-002, -4.0854535307094555e-002,
          -3.1759305664735066e-001, 3.2206453087721104e-001,
          -1.2972450253339377e-001, -3.3335769716986724e-001,
          -1.6677682383145216e+000, -7.8756695482061531e-002,
          -1.4185922039828588e-002, -1.7215827764196528e-001,
          -1.0805343421650847e-001, -1.0350983493128853e-001,
          -5.4952013682170453e-002, 5.1219166143013958e-002,
          -1.5848707630031852e-001, 7.4885950211380281e-002,
          -1.3216481987238621e-001, -1.2237986568889437e-003,
          -1.3011306421560273e-001, -5.3627910296580386e-002,
          -2.7565088956531734e-002, -8.2631764842459904e-002,
          -1.9412720273548820e-001, 5.1080902069778222e-002,
          -2.3721196086103738e-001, 5.3100902526854636e-003,
          -4.9110835724572258e-003, 1.1139266879468650e-001,
          -1.6362351304557204e-001, 1.1362258059582141e-001,
          -2.1278277972528326e-001, -5.3595353484738768e-002,
          2.1756649206607323e-001, 6.0604581947235059e-001,
          -2.0615560654986437e-001, -1.2891930598150825e-001,
          1.6793407414505435e-001, -2.0248097348263724e-001,
          -1.3952731273504810e-002, -2.2376504096058000e-001,
          3.8510470544789804e-001, -1.6612971184567024e-001,
          -1.8731317005252224e-001, 6.3223872530441219e-002,
          -3.4182085731689282e-001, 2.6191009719637626e-001,
          2.6659696813264685e-002, 1.5265316124865916e-001,
          -1.4350752766107600e-001, 1.2715340496300577e-002,
          2.3356456674720635e-001, -1.6133527770173565e-002,
          -2.3159975653706507e-003, -7.9666176549752921e-001,
          -1.7490066020631082e-001, -4.2554426627446928e-001,
          -2.6865083042824950e-002, 1.3620799483093088e-001,
          2.4115763641422525e-002, -5.6891221685146132e-001,
          -8.4155425287982200e-002, -1.9507587728173800e-001,
          -8.5274799531220291e-001, -5.6314253019330344e-002,
          5.5931526070642268e-001, 2.0298275714543977e-002,
          3.0125323386732846e-002, -2.5203532482779928e-001,
          -1.0548160356041067e+000, 1.6765953187885296e-001,
          -1.4845510527719130e-002, 1.3411932533607259e-002,
          -7.1814399916586974e-002, -9.8287890156614807e-002,
          1.1740191564026734e+000, 1.9280360448948636e-001,
          -1.1972298348523940e-001, 2.2213150051779376e-001,
          2.5452936080694832e-001, -8.8096202728237705e-001,
          -2.4460825309643587e-002, -2.4868748115591688e-001,
          -1.2475023251745654e-001, 6.2263520930169447e-001,
          2.9113610896422847e-002, 2.0474677916795281e-001,
          -3.0067905094175007e-002, 2.5945405591195070e-001,
          1.0912162003740147e-001, -2.3012210356323007e-001,
          3.1545185594987452e-001, 1.4771559036962870e-001,
          3.6035432560349101e-001, 2.3716539758175800e-001,
          8.1513213587581707e-002, -1.5285693655812812e-002,
          -2.2623494985803797e-002, -1.2171963815507021e-001,
          -8.6934121893778901e-002, -1.6115524330763223e-001,
          -1.5621203424986224e-001, 2.5413663693961017e-002,
          5.8041938915036201e-002, 7.3648096751692732e-002,
          -4.0038853055944561e-002, -1.7968180985850704e-001,
          1.0696056404503060e-001, 1.4271144805086988e-001,
          -2.1560500101596980e-001, -9.9926787141892820e-002,
          1.1434884110729238e-002, 1.0109432686920165e-001,
          -2.6684840151183853e-001, -3.2701340254639755e-001,
          2.7885613255851316e-001, -8.6467089180439216e-002,
          9.5517456461798628e-002, -2.3203808862101199e-002,
          -2.6535936418307687e-001, -1.1778362625614243e-001,
          6.4775008448465243e-001, -1.2457804826464107e-001,
          -4.2473699234142813e-002, -6.4021644656706359e-002,
          4.2696566086877344e-002, 1.6680776031018557e-001,
          1.0785746761465419e-001, 1.2301682164903147e-001,
          1.6686433232128674e-002, 1.0706818661013753e-001,
          1.0175704640066208e-001, -3.2651957367020967e-001,
          6.6340321184983073e-003, 3.1724929597607232e-001,
          -2.5930267679384855e-001, -1.6082920253568380e+000,
          6.0489251617267661e-002, -9.1249964002147341e-002,
          8.4081804886915371e-002, 7.1811109869921702e-002,
          2.8767334553701407e-001, -1.2545195472408630e-001,
          4.2965936899369721e-002, 1.9299108434670487e-001,
          1.3784629692144454e-001, -9.3278502028644558e-002,
          4.9554997397476742e-002, -4.9367614184804720e-001,
          -2.4678532028558720e-001, 8.6910550542285813e-003,
          4.6377738405131291e-002, -1.5476728843952606e-001,
          2.0079978670906640e-001, 1.6144244244789846e-001,
          -3.0982198090345714e-001, -2.8734572444944068e-001,
          4.7411189431780063e-002, -1.1949847739484157e-001,
          5.4543575018463651e-002, -1.1782582195528159e-001,
          4.5565525475349408e-002, -1.9155125849624352e-001,
          -1.5529737936114082e-002, -1.9694649514212947e+000,
          -2.4998524211534742e-001, -1.2250860328558237e-002,
          -2.8966285321945690e-001, 3.9427173324166881e-001,
          -5.8020967964445641e-002, -1.5675921846124194e-001,
          2.6200660525490571e-001, 7.5568948518084222e-001,
          -8.3454408395757670e-002, -5.1127123488763004e-001,
          6.8857264047237521e-002, -5.7165404832738909e-002,
          -4.9607371369093191e-002, -6.9628547294913204e-002,
          4.6955684459484315e-001, 4.0438127228965232e-001,
          2.3726355422175999e-001, -6.9574544690150175e-002,
          -2.5826830721625288e-001, 2.1778775669098971e-001,
          -1.4151862157146300e-001, -2.6422440646301726e-001,
          -4.2286305826527709e-001, 3.4539042785804902e-001,
          -7.2897899260791998e-001, 2.2083448303191600e-001,
          3.2867434071452106e-001, -2.0234881406698910e-002,
          -7.5676886293405032e-001, 1.7855512121929110e-001,
          -3.8742652850680126e-002, 1.7865709101893841e-002,
          7.3904148497907010e-002, -4.9512684210715313e-001,
          -3.0128657312972090e-001, -2.7710462242446959e-001,
          1.1580795426384552e-002, -6.5536234587273250e-003,
          -2.5097648401279055e-001, -1.2342914441871397e-001,
          -4.4812261695881211e-001, -6.0225146447328792e-001,
          8.2485470104763939e-002, 1.7044021206274595e-001,
          2.2325176981286682e-001, 2.2115082862076135e-001,
          1.4263355747333334e-001, -1.6032774689204493e-001,
          -1.5362259069233949e-001, 5.0620863920182035e-001,
          3.9580157782138259e-001, 1.7064301883168193e-001,
          9.6623061512870076e-002, 4.0292250666099916e-001,
          1.7848847269097710e-002, 2.1234974676931292e-001,
          -8.2732796901930683e-001, -3.0211527532333065e-003,
          -7.1571003335305153e-003, -1.4531515828735684e+000,
          -2.3755177495408922e-001, -1.9800401001194673e-001,
          2.3797269059687817e-001, -8.9978362307970641e-002,
          -8.0908852026709188e-001, -5.9841107240594257e-002,
          -9.2109648899312613e-002, 1.2903645043435108e-001,
          5.5700903635842935e-001, -2.6579999840773594e-001,
          7.5108274793779711e-002, -5.7137026376033184e-002,
          2.1450166609316278e-002, -1.6179802280040029e-001,
          -1.9496995734859041e-002, -3.1457167908346495e-001,
          -4.0973479516933187e-001, -3.9918395913841564e-001,
          2.0830974323737345e-002, -3.0946935085501004e-001,
          2.2934816466194979e-001, -2.0497611487271424e-002,
          -2.6104744865096996e-001, 7.7169725013840174e-002,
          1.1498442506193902e-001, -1.0141985685559686e-001,
          -1.8382695672711266e-001, -1.9772249040292328e-001,
          7.9528047183245229e-002, 1.6028549686391771e-001,
          2.0521016410279427e-001, 2.4198390364027131e-001,
          -4.2235309714241132e-001, -2.0187583996915354e-001,
          -1.3860427010142345e-001, -8.9175393916248680e-002,
          -2.3469134454826321e-001, 3.7770775678119532e-002,
          -4.2571580690520722e-002, 1.6857515971916390e-001,
          1.1604713081237188e-001, 3.0051725490011222e-001,
          1.7863018084225241e-001, -6.6666411217675770e-003,
          2.1382926888302750e-001, 2.9418352704321671e-001,
          8.3436261322524921e-002, 3.9112371638443938e-001,
          7.1757672328630095e-001, -5.0587167356159993e-002,
          1.2594973705044926e-001, 4.0410204793623888e-001,
          -1.3140384562445157e-001, -3.9222267361223584e-002,
          1.2391448963618590e-001, -4.9617356847431321e-002,
          -5.4698684572350464e-001, -5.7533314963757493e-002,
          8.7297413713811972e-002, 3.2112177494938765e-001,
          2.7820634609060696e-001, -4.8289243925728802e-002,
          1.4008438397811887e-001, 8.5531113630603797e-002,
          6.5901668190448806e-002, -1.1452433994655639e-001,
          2.1659528678596751e-001, -3.5816701560309283e-001,
          -1.3616622064372521e+000, 2.4160803909073936e-002,
          -8.1899731763415515e-002, 1.0868211664691582e-001,
          7.6050110395321113e-002, 2.2200499632374918e-001,
          -6.2684321723192438e-001, -2.8868887524105685e-001,
          3.1955379768047304e-001, -2.6651181306374244e-001,
          6.1633955800003047e-002, -2.7483076077685120e-001,
          1.3352923246254083e+000, -3.6654233133106967e-001,
          1.2922033755946816e+000, 1.4146089976822072e+000,
          -7.3982933170724774e-001, -9.6873762624064863e-001,
          7.5135687421146713e-001, 2.9542999368268791e-001,
          -5.9409065624085022e-001, -6.9752787013311002e-001,
          -5.7588522021319200e-001, -1.7678386131290783e-001,
          -6.3598340979298229e-001, -7.9240785474930464e-001,
          1.3619526205677064e+000, -4.8205775198034978e-001,
          -2.4231251521539532e-001, -3.2552377356251089e-001,
          1.1428218929643523e+000, 7.3457731538606863e-001,
          5.6870718163132850e-001, -1.7648047833216280e+000,
          4.5233101090067152e-001, -6.4479700798290596e-001,
          2.0478461753356081e-001, 3.9631261350011598e-001,
          -6.0039781820509430e-001, 3.1081818683569401e-001,
          1.1463860546538462e+000, 6.0518212748364261e-002,
          4.7081053378083593e-001, 8.8699504465124188e-003,
          -2.2616343563911324e-002, -1.2550891932952792e+000,
          -1.2063115032535556e+000, 1.0285091628766934e+000 ]
      - [ 1.2649929743376287e-001, -4.2275021829915505e-001,
          -6.0451487493082856e-001, -6.7277872499187974e-001,
          1.4699927935004231e-001, 1.1972871432437061e-001,
          -4.5721497890088547e-001, -7.4411843713564418e-001,
          9.8176485092846588e-001, -1.7758126297652729e-001,
          2.4586920374833346e-001, -2.1172145787947518e+000,
          3.1737107674065829e-001, 1.0457097684863806e-001,
          -1.2876756122737573e-001, 1.4813833175664683e+000,
          -1.1518755294736958e+000, -3.2720857189693732e-002,
          -4.7789052628121809e-001, -3.2829385945417883e-001,
          6.1395922809503178e-001, 4.2693074988954410e-001,
          4.5724349465958314e-001, -5.5155318550229937e-001,
          -4.6367112530067550e-001, 4.0754970151942965e-001,
          7.5090589051958845e-001, 9.2228967943156970e-001,
          8.9640370191542351e-001, 8.4940812310203906e-001,
          6.4249901288523348e-001, -5.5443645710481804e-001,
          1.4614748466326766e-001, -7.0215664657090149e-001,
          6.7841211528629053e-001, 5.8104811987902023e-002,
          -2.9635372402331206e-001, -6.9931627486701897e-001,
          5.2345244858200213e-001, -2.2281162566655865e-001,
          -9.5011695158897916e-002, 1.8473938117305311e-001,
          7.4372393290836192e-001, 8.7188054196072662e-001,
          2.2034091286361221e-001, 5.0631174059569839e-001,
          1.7871109035205759e-001, -1.7093887007765288e-001,
          9.0485233957974165e-001, -5.0132639001682389e-001,
          1.0336409739758519e-001, 7.3573948105468123e-001,
          -1.1689109647278484e+000, 1.4548557953564367e+000,
          -5.9920440607023828e-001, -4.0359839003570980e-001,
          1.8004589479565650e-001, -6.1863985428270596e-001,
          8.4856736732787896e-001, 7.1387660369087766e-002,
          -3.5499380891058885e-001, 8.0472615143588211e-001,
          1.0883834535191104e+000, -3.8436112936050559e-001,
          -5.9005041308701003e-002, 9.2814013858007294e-001,
          1.4145893620188748e+000, -4.8272197215314316e-001,
          -1.2889470166454444e+000, 7.3655119376903749e-002,
          -4.4725771785223833e-001, 4.0597937014640029e-001,
          -1.1378042923086062e+000, -3.6379356947981856e-001,
          4.1345311578497290e-001, 9.0844136105604012e-001,
          -1.2121277830248210e-001, -2.7659975335576281e-001,
          3.9159747858961536e-001, 3.9152406994857358e-001,
          1.1381077725348501e+000, -1.1143609484029418e+000,
          1.5090162649181471e-001, 7.7675761086866246e-001,
          -1.2010440758615733e-002, -4.4487112925030581e-001,
          -3.0370499255950556e-001, 3.9350192991219007e-001,
          6.9368693111977986e-001, 4.1796377487480640e-001,
          -4.4561109809023058e-001, -5.5816168474029138e-001,
          -3.6554031626980898e-001, -1.5401716939721563e-001,
          -2.8434936310648910e-002, 1.2186219813960325e-001,
          -2.7659518138971062e-001, -8.8466282027820609e-001,
          -6.6671347334907571e-001, 4.8640506808940048e-001,
          -2.2792897163480524e-001, -8.0920527480463966e-001,
          -3.3423431853719499e-001, 7.1562033553719567e-002,
          5.9323286308348178e-001, 2.6828194627242674e-002,
          1.4027741085424354e+000, 8.5499315399182008e-001,
          4.6421500352985678e-001, 1.9187088412344458e-001,
          -4.6938761091902859e-001, -1.1106767440302549e-001,
          4.5357050306994318e-001, -4.7221183021026686e-001,
          -5.0289287705346952e-001, -1.1137846896513579e+000,
          4.9429050477215042e-001, 5.7880526481077832e-001,
          7.4415985926051434e-002, -4.5286134821966306e-001,
          -1.0292701212422315e+000, -1.0380570301005665e+000,
          -5.2146689455693972e-002, 2.0244570280013560e-001,
          3.7088866927504544e-001, -8.9547505460478083e-001,
          -1.4403737816225307e-001, 6.3454576770458648e-001,
          -4.6195794914284355e-001, -6.8272906322002413e-001,
          5.1388743587229690e-001, 2.8701226289961784e-001,
          -1.4506298962424173e+000, -1.9911734581213264e-001,
          3.6309051240980622e-001, -2.5561391028848757e-001,
          -6.0068401178868536e-001, -8.4565686351830482e-001,
          7.9628279317007344e-001, 1.2644914928821810e-001,
          5.1269192087851756e-001, -5.5768309383791792e-001,
          -8.7473528560430516e-002, -8.2763774728543582e-001,
          3.0150915309786797e-001, 2.7696679457667456e-001,
          -1.0358942577854040e+000, -2.2079964941823388e-001,
          5.4193204632187764e-001, 4.2634798431822662e-001,
          -7.9468539079309131e-001, -4.1365059171250287e-002,
          -1.0913932376666369e+000, 3.7554361868343789e-001,
          -5.0609777935588962e-001, -1.0738798929748767e+000,
          -4.3635453441082894e-001, 3.1588888395759546e-001,
          1.2901742819594437e+000, 8.7966343757050769e-001,
          5.8782799537266162e-001, -3.3074954193505712e-001,
          1.5145902456093557e-001, -1.0170001138439320e+000,
          -4.6183850850845576e-001, -1.1193229269915566e+000,
          6.0163761567286000e-001, 1.8210321490958024e+000,
          4.4826877027850748e-001, -1.6637326023280608e-002,
          4.1533827424173841e-001, 3.6183041131130182e-002,
          7.2062334488863600e-001, 6.0835206659502805e-001,
          -3.6512655766429303e-001, -3.1474486878987545e-001,
          -1.6638248914984891e-001, -4.4871025331334741e-001,
          -1.1716259231837014e+000, -3.0674022704571491e-001,
          -1.0101295451144414e-001, -3.6891563107618408e-001,
          -5.3429833512658742e-001, -1.4093320821735664e+000,
          -3.0347833543643354e-001 ]
