%YAML:1.0
my_nn: !!opencv-ml-ann-mlp
   layer_sizes: !!opencv-matrix
      rows: 1
      cols: 3
      dt: i
      data: [ 64, 46, 5 ]
   activation_function: SIGMOID_SYM
   f_param1: 1.
   f_param2: 1.
   min_val: -9.4999999999999996e-001
   max_val: 9.4999999999999996e-001
   min_val1: -9.7999999999999998e-001
   max_val1: 9.7999999999999998e-001
   training_params:
      train_method: RPROP
      dw0: 1.0000000000000001e-001
      dw_plus: 1.2000000000000000e+000
      dw_minus: 5.0000000000000000e-001
      dw_min: 1.1920928955078125e-007
      dw_max: 50.
      term_criteria: { epsilon:9.9999997764825821e-003, iterations:1000 }
   input_scale: [ 3.7591180769717913e-001, -6.6394329968362487e-001,
       1.4787345664909848e-001, -6.8290105542845092e-001,
       3.3590726859814679e-001, -2.7356862637445878e+000,
       2.5034902292289318e-001, 1.8719441141740707e+000,
       5.5345777585320111e-001, -1.2794473371586551e-001,
       4.8839261919134563e-001, -1.1610887598906512e+000,
       4.3274336701126620e-001, 3.0505125546665213e-001,
       4.3699760632246282e-001, 3.0577524890038489e-002,
       4.8317894299740727e-001, -2.0727091663641051e-001,
       5.8718867905795180e-001, -1.2787580092488157e-001,
       4.7401348201844423e-001, -3.2509147339301686e-001,
       5.8572874638689176e-001, 5.2859905312672051e-001,
       5.1230081663780802e-001, -6.4237058726578322e-001,
       7.2437136016435855e-001, -4.3708319174541745e-002,
       5.7708201017525296e-001, 3.9617760886015423e-002,
       8.1489548013380342e-001, -7.1128520438820197e-001,
       6.7698662567919188e-001, -1.3672348384368089e+000,
       5.5994239876979990e-001, 2.4066985841787752e-001,
       8.9951947145846778e-001, -3.7332863705120317e-001,
       7.8748549100703513e-001, -4.0934945918095467e-001,
       8.1449466400735804e-001, -4.4314200734989961e-001,
       1.0101650782905951e+000, -8.3904350261087690e-001,
       9.6962251155574164e-001, 1.6356165845038724e+000,
       9.6350415587211979e-001, -3.7715040303512737e-001,
       8.9489423929086243e-001, 6.3577368401224699e-001,
       9.6241997524328526e-001, -2.1353937359217953e-001,
       1.0860017060193250e+000, 2.0707731052217682e+000,
       8.8165560877818427e-001, 8.2722651339921982e-001,
       9.8828910848051033e-001, 1.0773537751131173e+000,
       9.0783923626395835e-001, 8.3020579490424684e-001,
       7.3203517894824288e-001, -7.2325049574643907e-001,
       8.1821124634002840e-001, 5.2692558492774166e-001,
       1.2504065485295088e+000, 1.0231698292271285e-001,
       8.7280169165733790e-001, -6.0439118295772407e-002,
       1.3583477833806010e+000, 2.3959701174934611e-001,
       1.2344422707827565e+000, 3.3447063610015604e-001,
       1.1346434173183708e+000, -1.3713158099370767e-001,
       1.1692239283547323e+000, -9.5261196515199809e-001,
       1.0516963980314360e+000, 1.0620896031246805e+000,
       1.3293843750911614e+000, -5.4466849360328906e-001,
       1.7277861826661809e+000, -6.0604236479442419e-001,
       1.7295080706047488e+000, 3.3311072194249342e-001,
       1.1792971344665710e+000, -6.8871471710526613e-002,
       1.3510772631545369e+000, 1.3172935640625409e+000,
       1.5675462398499027e+000, 1.9496062708804385e-001,
       1.5374471885943415e+000, 7.6511327759562443e-004,
       1.4311881636452992e+000, -5.9920156121010637e-001,
       1.2170564360381158e+000, -1.2154585960286008e+000,
       1.5148260661675983e+000, -1.9868095268963593e-001,
       1.0255455462206378e+000, -6.1783985892895432e-001,
       1.4742502085558815e+000, -8.5248645816641599e-001,
       1.3444413244913127e+000, -3.6136884157067839e-001,
       1.0392953618419956e+000, 1.3318523170422352e+000,
       1.3239196357983500e+000, -8.9194757419459803e-001,
       1.6710307230533501e+000, 8.7923936711182427e-002,
       1.3207116293976044e+000, -6.5390818761147840e-001,
       1.4510885259441528e+000, 2.4723236024876577e-001,
       1.8996633342426668e+000, -7.6295270575504903e-001,
       1.9418452664560759e+000, -8.1541606646603970e-001,
       1.5546479727644265e+000, 6.4875055861040298e-001,
       1.8794581790384353e+000, -1.9918858400799230e-001,
       1.1975736497888947e+000, 9.5935934351671548e-001,
       1.4294860820041306e+000, -3.2244020499139964e-001,
       1.6741859874504119e+000, -4.7366310244381829e-002 ]
   output_scale: [ 5.2631578947368418e-001, 4.9999999999999994e-001,
       5.2631578947368418e-001, 4.9999999999999994e-001,
       5.2631578947368418e-001, 4.9999999999999994e-001,
       5.2631578947368418e-001, 4.9999999999999994e-001, 1., 0. ]
   inv_output_scale: [ 1.8999999999999999e+000, -9.4999999999999996e-001,
       1.8999999999999999e+000, -9.4999999999999996e-001,
       1.8999999999999999e+000, -9.4999999999999996e-001,
       1.8999999999999999e+000, -9.4999999999999996e-001, 1., 0. ]
   weights:
      - [ -9.2509469178443243e-002, 3.9766209600634145e-001,
          4.1122650365600300e-001, -2.4186114238551634e-001,
          -6.5119265091221595e-002, -6.0177416198610729e-002,
          1.4866518895062755e-001, 2.2589138521471383e-001,
          -1.0500945392346821e-001, -3.2101747399481251e-001,
          -1.7445840204597338e-001, -3.5551619477589537e-002,
          -6.4889860039662531e-002, -1.5066975162486601e-001,
          2.3556126891208481e-001, 3.1629588671072173e-001,
          -9.8919906714554362e-002, -1.7361256839791003e-002,
          1.5814348905570791e-001, 3.5916602823102765e-002,
          9.8358037938603204e-002, 3.1281380774351297e-001,
          -7.8945578048150417e-002, 3.6591551068178219e-001,
          -8.9837307328885507e-002, 6.7123361647740215e-002,
          -1.4621036809247948e-001, 8.7695387929060231e-002,
          -9.6839584067585568e-002, -3.7263075565231984e-001,
          6.3750539034078679e-001, 3.5305275613365327e-004,
          4.7392239199062935e-002, 1.3582026880553874e-001,
          -1.2008127568490627e-001, 1.1634890825075635e-001,
          4.3826674646642189e-001, 1.4164952624670968e-001,
          -1.9479993921657285e-001, -1.3850176616470630e-001,
          7.2324257666426917e-002, -2.9201215431562605e-001,
          7.7683216412707701e-002, 3.2646015495189934e-001,
          -1.0311826131284979e-001, -1.0529795435784084e-001,
          -2.3016933781565579e-001, 9.4594271923879564e-002,
          -5.3829164595726446e-002, -3.0067161285921340e-001,
          -2.0518226033225823e-001, 7.0746458140085428e-002,
          5.4409233901232634e-001, -4.7326922013208657e-002,
          2.6255477853767434e-001, -2.6659447032102057e-001,
          1.1010733162184977e-001, 1.7656960471983432e-001,
          2.3987758175441032e-001, -3.2641844068890363e-001,
          9.0827190201839145e-002, -3.2225701165939202e-002,
          3.1478178550312166e-002, 2.2307519371521894e-002,
          -4.5860231417765840e-001, -2.0746033078917309e-001,
          -1.7923532061895905e-001, 1.0436893863351582e-001,
          2.5906267380188763e-001, -1.0874729556887471e-001,
          2.5015036838374677e-001, 4.0131261952862668e-001,
          1.3198366107008069e-001, -6.3481964089621512e-001,
          -2.9116073126412745e-001, 3.3659559234557324e-001,
          2.0931834418230610e-001, 5.8975698572985825e-002,
          -2.5686712716168417e-003, -1.1245454269049038e-001,
          1.1748487156707330e-002, -7.0824878467645042e-002,
          3.5853273857978707e-001, -1.2997981840720887e-001,
          6.5256096566785396e-002, -5.0837393183142891e-002,
          1.3690822707328112e-003, -7.2199891877590072e-002,
          -8.8630904342808570e-001, 8.1734055289297738e-002,
          1.2939288491756562e-001, 6.9011141654800573e-002,
          3.3345906330581720e-001, 2.6199157933762668e-001,
          9.3336830848893479e-002, -4.4175029741779545e-002,
          -8.8460233527979673e-002, -5.4735384381030990e-002,
          4.3957196462413493e-002, 4.0169002133804149e-001,
          -8.6734748530604172e-002, 1.9936073077170580e-001,
          6.9459878208850717e-002, -1.0509783437156880e-001,
          3.4273426415492494e-003, -1.7377040332423155e-002,
          2.4842501064127792e-001, -1.3870909114490043e-001,
          -8.2103263734596854e-001, 2.6787440398511292e-001,
          4.0271469834138790e-002, 2.6550319039412597e-002,
          6.6646848068245543e-002, 9.1467040750983539e-002,
          -9.3957755291198347e-002, 1.1599102870378079e-001,
          -2.8197581755383733e-001, -4.0906148407421627e-001,
          -1.3083526982947052e-001, 2.6395678920586929e-001,
          6.6037710495495638e-001, -1.0937376985137891e-001,
          -5.6114255082059493e-002, 9.4334761555765340e-002,
          -8.7580520445300680e-002, 2.9176701783468866e-002,
          -3.5137803068463605e-002, 6.9447052841708934e-002,
          9.6337916763405140e-002, -6.9821955414862396e-003,
          -3.5567930098502197e-002, -9.1186991241741761e-002,
          -8.4855151037545484e-001, -9.2693496453867638e-002,
          -1.6321475839240709e-001, -1.0387202180344102e-001,
          1.7714962386386504e-001, -1.2121532691139310e-002,
          4.3012229340877650e-001, 1.3147338331112676e-001,
          -2.5570580827389056e-001, 5.9786582464462656e-001,
          1.0204865021791339e-001, 7.5792532300922888e-001,
          -3.0506430145490843e-001, 3.5544664049207642e-002,
          8.1907209813756363e-002, -4.9181322625581319e-003,
          -5.6319214228409797e-002, 3.0567549903492371e-002,
          -2.1726220726968778e-001, 1.5405490880016587e-001,
          -2.1588030557014914e-001, 2.1621210554410169e-002,
          -5.8100449648055906e-002, -1.3253700277703490e-001,
          -3.4647117258748306e-002, 5.4560153881287043e-001,
          -1.2697778612549021e-001, 4.4360402994896256e-002,
          2.2059537752118724e-001, 1.7586553223270637e-001,
          -1.0924702946547601e-001, 9.6335774041120537e-002,
          2.9002424826364603e-001, -5.0124440842615914e-002,
          4.1028884746463179e-001, -1.8354876294476791e-001,
          -1.3126252658994719e-001, -1.9032988285313962e-001,
          -3.1852769942566736e-002, -3.9708464096170223e-002,
          1.3554917247480847e-001, -4.1095235759993942e-001,
          -3.4375645578058295e-001, 1.9962067732463569e-002,
          5.2476391923531862e-001, 4.0946047627867292e-002,
          -1.1262547606701455e-001, 2.0548443157320899e-002,
          -3.2681161415256837e-001, 1.1302574856956796e-001,
          2.0230334541103073e-001, 6.9333061631639326e-002,
          -8.0598723557749247e-002, -4.4718360142524977e-002,
          -4.3555093381103788e-001, 6.7906939065789718e-001,
          1.1997030239261912e-001, -1.3563355009564523e-003,
          -1.9080188694950190e-001, -2.8812759169731972e-001,
          -9.3890630088788229e-002, 4.5427877283910573e-001,
          1.6690026786248566e-001, 2.4412251274269892e-001,
          -8.4891049498390325e-002, 5.0843333063162233e-001,
          -6.5182626929381385e-002, -6.7768356147653169e-002,
          1.8830485967363583e-001, -5.6328058514911628e-001,
          -9.8868258509312676e-002, 2.9158176349642184e-001,
          1.5534971231134197e-002, -1.9701195973386314e-002,
          -8.8818277437060583e-002, -1.0914951520844335e-001,
          4.7496837861380675e-001, -1.5376898291206071e+000,
          1.1534142358849861e+000, -7.1060758386139145e-001,
          -4.6625939700202945e-001, 1.5225273654807386e-001,
          -1.0684970186437617e-001, -1.8152858994618859e-001,
          1.7072990987266204e-001, -2.6180683520477277e-001,
          2.8499537768782235e-001, 4.0528773907506171e-002,
          -2.0318643607909095e-001, 2.2265194047033178e-002,
          2.3635810353229830e-001, 4.6144066465751754e-001,
          1.3537359898971715e-002, -1.5977959330737862e-001,
          -3.3382369420398550e-001, -9.5295430443554069e-002,
          4.6370663445588617e-001, 2.8641867713137037e-001,
          -6.6660283246510882e-002, -1.5808885073262469e-001,
          2.4925427636278169e-001, -1.9948985051922503e-002,
          1.1875302096733289e-002, 4.2213106215133203e-002,
          1.8412762179728653e-001, 9.7769825410673319e-002,
          -1.1460096305143060e-001, 3.1874506304584112e-002,
          1.3285822733712599e-001, -1.0246108033872142e-001,
          -2.5686273283590572e-001, -2.5704155044749304e-002,
          -1.6469884434678511e-001, -1.0644284448422305e-001,
          6.6312018425468341e-002, -3.2633496661571226e-001,
          -1.7964244632034490e-001, 3.1630733345841024e-002,
          8.0041145769605540e-002, -3.1742356206262187e-002,
          -1.3500142010192306e-001, -1.1068878337326125e-001,
          7.0394753302478089e-002, -7.7691244995985342e-002,
          8.0344377698016833e-002, 7.3608034195038387e-004,
          -1.6345431983438358e-001, 3.7922753652689567e-001,
          -9.7651226927368259e-002, -5.4573155770328646e-002,
          -3.3057730230469977e-002, -2.1588262368838645e-001,
          -1.0363011617008124e-001, -1.3660934030935981e-001,
          -9.8775905689989840e-002, 1.0931122991126901e-001,
          9.7271306385457321e-002, 2.5912056366056591e-001,
          7.4056309662123371e-002, -1.1387707818610769e-001,
          1.5551997175745230e-001, 7.4575742612867937e-002,
          -1.2261789810968693e-001, -2.3014930044949605e-001,
          2.3034535090275112e-002, 9.9863161437411266e-002,
          -5.5483316031319702e-002, -9.8314115804494354e-002,
          4.4091050568860979e-002, 1.3871552618538757e-001,
          4.4739335962061123e-002, -1.0585827700967108e-001,
          6.0607905681437674e-002, 5.3523960287102830e-002,
          7.1796296739924884e-003, 7.3393180733263771e-002,
          5.2888057113381415e-001, 2.2705420150493724e-001,
          7.8238375008827563e-002, 6.8982471572653734e-002,
          1.3473360181913416e-001, -2.8801918062799625e-001,
          -8.2052002222113021e-002, -3.7405293126651645e-001,
          -2.4789502039176725e-001, 6.3447864408063104e-002,
          3.9625676317991215e-002, 4.8932922835851395e-001,
          3.0793692958903945e-001, 8.7144017726057371e-002,
          1.5742353665013495e-001, -1.9840660756125003e-001,
          -2.9637748341547654e-001, 3.7611986800828201e-001,
          -8.6118870191846844e-002, -1.7266087154661849e-001,
          -5.6216079872499292e-001, 2.6743433266939154e-001,
          1.3347036170673018e-001, 1.4901362757708592e-001,
          3.9315923905674989e-002, 9.7056251319714737e-002,
          1.2592225414166330e-001, 3.5007645836964785e-001,
          1.7004278280951585e-001, 5.2694789385881591e-001,
          -1.5720058404484671e-001, 4.8904422486292204e-002,
          1.2151166322817809e-001, 3.2358346542525079e-001,
          -1.5652607248420305e-001, 4.6909812233763010e-001,
          1.1860100013918470e-001, -8.7985095350517781e-002,
          -1.7865456354202061e-001, -8.3119740142879497e-002,
          6.8932617827275680e-002, 1.2593570542497895e-001,
          2.7829109435807753e-001, -2.2221934236482671e-001,
          -2.4904955053175995e-001, -1.5346640654643037e-001,
          6.5275542679715304e-002, -1.4609181882396283e-001,
          2.1874195234454441e-001, 7.2094388927352579e-002,
          2.0990148992416338e-001, -1.3849485074586332e-001,
          1.2450941339934535e-001, -2.4440472482088352e-001,
          -1.1778986692524492e-001, 1.5359697448182091e-001,
          2.0601555712940539e-001, 1.1024118032295366e-001,
          -8.7879159405327936e-002, 2.8458657147566441e-001,
          -1.7379457018038919e-001, 1.4663029883271539e-001,
          -1.5302004565196231e-001, 2.0645940860537246e-001,
          8.7735729603145157e-002, 9.6205025655527812e-002,
          -3.5124593827759298e-001, 5.7209843178047746e-002,
          -1.9557050996143246e-001, 1.6346724158215811e+000,
          2.1350570251549963e-001, 6.9380544562078428e-002,
          -9.1661260502465369e-002, -2.9058582930614468e-001,
          -2.7201640361784052e-001, 3.1930155640178437e-001,
          -1.3533768520935163e-001, 8.9008863748232196e-003,
          1.1280150336708088e-001, 8.3067850194735643e-002,
          1.0650779653578746e-002, 5.1301910276163276e-001,
          9.3308733389806081e-002, -8.3246762086293669e-001,
          -1.0922745744697220e+000, -1.2787364661757223e+000,
          8.0535829665251607e-002, 1.1706113579704797e-001,
          4.7898067923423643e-001, -1.8424190075117222e-001,
          -4.0458306296019170e-001, -3.5462801134993871e-001,
          6.8154826349747966e-001, -1.4453557235450298e-001,
          1.0567300535122977e+000, 3.6624774303314137e-002,
          -6.2048954566407494e-002, -9.3183337087013429e-002,
          1.9563783159433090e-001, -4.9836863271373788e-001,
          6.5860088108683490e-002, 8.9167420497172065e-002,
          9.4507520391799082e-001, 8.8007654240540389e-001,
          -1.0165895802505320e-001, 3.8128836344578459e-001,
          -1.5140637858425823e-001, 1.1891364112643178e-001,
          1.3071285901930595e-002, 2.1410213449154013e-002,
          4.1961372861917673e-001, 3.6755863580086506e-001,
          3.1590560275428656e-002, -6.2847161340028906e-002,
          -2.8995236395267448e-002, 8.7423507630081188e-001,
          3.5670502378904639e-001, 1.8990081299607095e-001,
          -1.2966132935179366e+000, 9.6975774611830171e-002,
          -1.7769104845718461e-001, 2.9248785738973482e-001,
          -2.5922506045132915e-001, 9.7420895160760957e-003,
          -7.6004718125136470e-002, -5.8927322054512385e-002,
          -1.3783551240505540e-001, 2.0377818117125787e-002,
          9.6656233517598847e-002, -1.2864012331526961e-001,
          -2.1451763121054315e-001, -5.3465328846530005e-002,
          1.9267722207935895e-002, 2.6309663468197364e-001,
          -9.4354105434132311e-004, -1.5465510274050942e-001,
          -1.1656794704775167e-001, 1.6538474621505472e-001,
          1.8171272992069765e-001, -3.3570072696787784e-001,
          7.3374743974328513e-002, 6.1907542046253317e-002,
          3.3829420960453702e-002, 3.1774419579018789e-002,
          6.3268091603271714e-001, -1.0486797654991227e-001,
          1.2158725360776610e-002, -1.8692066218276980e-002,
          -1.4997249520980456e-002, 1.4276461026164577e-001,
          -4.9978554874665675e-002, -9.2931638182904425e-002,
          -1.9417812673184720e-001, 3.9117313039656770e-001,
          1.0198069619412876e-002, -1.2291331711634046e-001,
          1.0946093599695163e-001, 3.1181057582522875e-002,
          -1.0024211737434913e-001, -1.4378484842807962e-001,
          -4.9184180707780439e-001, 2.0126579317824822e-001,
          8.0335880981326518e-002, -5.7199136897629829e-002,
          -1.2807476312884317e-001, 2.0358602450942034e-002,
          -1.5480511535557631e-001, 8.7268502243648238e-002,
          -1.6506341330229640e-001, -1.0932221394835479e-001,
          -2.3356495931649601e-001, -2.6642036702835220e-001,
          -5.5945583055801267e-003, -6.5628779556117689e-001,
          7.9624811169899487e-002, -7.7240564020008756e-002,
          -2.4205572942562693e-002, -8.0154801128424269e-002,
          -3.7814673784637487e-002, -9.1362379144945514e-003,
          1.1208413287530204e-001, -7.9160054526461521e-002,
          -2.9764639509051738e-001, -2.4575859355638380e-001,
          -2.1599729681642321e-001, -2.8853608233450723e-001,
          1.5933379053296012e-001, 4.5789201786313072e-001,
          1.3920904453994284e-001, 1.0444984274979028e+000,
          5.5607082715370723e-002, -1.1206292018731698e-001,
          -7.9713517369844888e-004, -1.4535819031098686e-002,
          1.3817352717858389e-001, 9.3649613014948480e-002,
          2.0588302554866764e-001, 6.3401792752619576e-002,
          -1.1552782147650743e-001, 4.8817372387541846e-001,
          -6.4751004772879914e-002, 8.4848010884706337e-002,
          9.6417418585465417e-002, 4.1018508170275123e-002,
          -8.5881360312844698e-002, -1.1094547642884080e-001,
          -1.5990463204745797e-001, 1.3186176390879908e-001,
          1.5119295957326842e-001, 5.1190596415030487e-002,
          -9.6863140007955859e-002, 4.3654155047242493e-001,
          -4.1383101787942460e-002, 7.3384297318699929e-002,
          1.1719700127069503e-001, 4.8632452428001259e-003,
          -2.4391403424347638e-001, -6.0466597373655007e-002,
          1.5721746782065102e-001, 1.9003819765933597e-001,
          -3.7589121073745811e-002, 1.7784153125082769e-001,
          2.4844903399345372e-001, 8.3421838276564977e-002,
          5.8785993722677350e-002, -8.8288151179633331e-002,
          -1.8294637252783699e-002, 2.0095699174018725e-002,
          4.3205816366189136e-002, 3.6559262882466130e-002,
          -1.7003618018072725e-001, -1.9938456612752295e-001,
          1.3745933498822913e-001, -9.9374987075519727e-002,
          7.7440712237098835e-002, 6.1890958852098693e-002,
          -5.8398276700975464e-002, -1.4890473679516256e-001,
          2.8201905751483625e-001, -4.3525668050268210e-002,
          2.1441493784638180e-002, 3.4817983119496876e-001,
          -2.5470895093415449e-002, -2.1812018662643473e-001,
          1.0073962878009143e-001, -1.6470413003059603e-001,
          -1.2419338655304459e-002, -5.7086941147791566e-002,
          6.7520806236631745e-002, 2.2138651667502707e-001,
          -4.5628805396173575e-002, 2.7718570661376246e-001,
          1.5673889226016016e-001, 5.7741700032304499e-002,
          1.0208567613662273e-001, -3.3275843734921318e-001,
          8.4243328729158504e-002, 2.6557857455083328e-001,
          5.2785558310680880e-002, 8.7376216124350412e-002,
          -1.1079278786163853e-001, 3.6256193696073696e-001,
          -6.7118550314733960e-001, 6.9265298232265432e-002,
          2.1135878765186654e-002, 3.0445063402683263e-002,
          4.0737553537695592e-001, 6.0153325705145089e-003,
          -1.4441604055704430e-003, -2.6450939486278822e-002,
          6.3799803314330730e-002, -4.1611986897975733e-001,
          -1.9006592116184656e-001, 2.1141370232198084e-001,
          -3.1266633584419857e-003, -4.4639866592891819e-002,
          5.8979225974565064e-002, -2.1954703782480950e-001,
          1.0723236081340035e-001, 4.4733818213203574e-002,
          3.7880057946333773e-001, -1.6476849177944797e-001,
          -9.3454907062394926e-002, -2.2319720224779946e-001,
          -5.4944809503762619e-002, 6.5137798060961843e-002,
          -1.0089110872414774e-001, -2.0591251901484176e-001,
          -1.4815384943778920e-001, -5.2543498509305758e-002,
          -7.4334437065066948e-003, -1.0011303253774372e-001,
          -9.3387019402979193e-002, -1.2830018350765579e-001,
          -2.2706343915195035e-001, 1.2234508442620812e-001,
          2.8531557027399439e-002, 7.6404235775788559e-002,
          -8.3106418023180598e-002, 8.5878500445127168e-002,
          -7.9429052893580807e-002, 9.2421221154137825e-002,
          3.2836880414034259e-001, -6.9094938034755249e-003,
          -9.6258739995122106e-002, 2.4608936257054759e-001,
          -3.2503337762383383e-001, -8.6252055675507505e-002,
          8.9723236419514144e-002, 5.5039067100877281e-001,
          -6.2538562361742378e-001, 2.4564041223560992e-001,
          1.5699453241360448e-001, -1.3703670131343618e-001,
          4.3503409166301264e-002, -9.8080879519817976e-002,
          7.1123870152233648e-001, -3.0799389631945978e-002,
          -8.6746212228301112e-001, -9.0204744830444994e-001,
          -2.5405877441597984e-002, -6.4656966441107677e-001,
          7.9464309656265497e-002, 1.4150596408208682e-001,
          -9.9431994434840340e-003, -1.6565029033204717e-001,
          3.2342290990009465e-001, -1.2736784671878024e-001,
          9.6796035076586961e-002, -6.3866110009081586e-002,
          -1.8864107702963465e-001, -4.0409525113791728e-001,
          1.3082676979690120e-002, 7.3907809432072216e-002,
          4.4501397855189023e-001, 1.1407155503626421e-002,
          -1.3432774144136120e-001, -2.3820166329283810e-001,
          -4.6246141496576615e-001, 5.3691962759264167e-001,
          -1.4891752690114224e-001, 1.8247316646051576e-001,
          -2.2249847436399653e-001, 1.6386049877110831e-001,
          -1.3134865205772989e-001, 3.7730363371077991e-001,
          4.6404836816028799e-001, 1.9073309315057083e-001,
          -2.1657051173159783e-001, 1.4903451145194557e-001,
          -5.9033740439053482e-002, 9.9336351567266043e-002,
          4.1228793670314617e-001, -1.0681018172157487e-001,
          -1.0355778184270129e-001, -1.3689545853516359e-002,
          8.9654313640680883e-002, 4.2738240429364494e-001,
          -1.9885416271485601e-002, -3.8732842090398817e-002,
          -9.0100858288270649e-002, -7.9470389515540446e-002,
          -1.2753925619994436e-001, 5.4657675156096416e-003,
          7.5336206454999721e-002, 1.8669111752942433e-001,
          -1.0934955252264233e-001, 1.1427134373758792e-001,
          2.3360081124708473e-001, -1.2313390754191256e-001,
          5.2766888146745050e-001, 1.4576289740780360e-001,
          1.6204662268942305e-001, 3.7508453463326047e-001,
          3.6666224209902336e-002, -1.1877650909253616e-001,
          -1.0983136615228369e-001, 9.2044526919458014e-001,
          1.1394747536000957e-001, 1.2536732522014341e-001,
          -2.0434448896916363e-001, -4.6400818586743847e-001,
          1.4166329383748874e-001, 3.8813741751928241e-002,
          3.0603682785681774e-001, -8.5938222743969239e-001,
          1.5356349153055349e-001, 9.8557861400520877e-002,
          6.9850030538377905e-002, 2.4017292141989982e-001,
          -5.8594970643070883e-003, 5.4386751656117824e-002,
          8.9422801195482311e-003, -1.2938711484454032e-001,
          -1.1547510553880086e-001, -1.8523413669969030e-001,
          -1.8063670134220400e-001, 7.2263651477658342e-002,
          -2.9885083537687845e-002, -1.2882045263237074e-001,
          1.1616996887816025e-001, 1.5301935948949438e-001,
          -2.2208357579519167e-001, 1.7682030637301696e-001,
          -1.7884984768565507e-001, 2.1637962161407215e-001,
          1.8738304239028181e-001, -3.2799820281785552e-001,
          -5.1872104565099586e-001, -5.5870204290127867e-001,
          3.0639499179722457e-001, 3.3216442000208041e-002,
          4.6562757281321879e-002, 1.4265586480658269e-002,
          -5.4735017554317700e-001, -5.1985656893981970e-002,
          7.1260812812702867e-001, 7.3878705094128508e-003,
          6.3888512686394616e-001, 1.2169287370875316e-001,
          1.2231859590409086e-001, -6.8563968531762373e-002,
          -9.8627937489372111e-002, 3.3032199542818630e-001,
          6.8302476936467171e-001, 2.7744541408090090e-001,
          -1.6802623526215252e-001, -2.3106982789740849e-001,
          2.5928330433360004e-002, -1.6281872094319172e-001,
          -6.5212532859458411e-002, -7.5830030702023599e-002,
          1.1093959391299570e-001, 1.2064429588425810e-001,
          1.4166058372846881e-002, 2.0124429971697565e-002,
          9.7313023662730078e-002, -6.3511395744322435e-002,
          8.6575219938274328e-002, -1.3964140469750444e-001,
          1.9318147974268443e-001, -2.3550642743577649e-001,
          -3.5402368349254469e-003, 1.0162875092791765e-001,
          3.5751073037079327e-002, -3.3586654644931974e-001,
          -1.8642920018348752e-001, 9.6158835001699514e-002,
          -1.4309193869239589e-001, 1.9820213813905889e-003,
          1.2519118078055675e+000, -5.5956435859154063e-001,
          -1.5994852437354229e-001, -2.2159534390927674e-001,
          1.1571165038158927e-001, -3.1619421656004365e-001,
          1.1507984278270743e-001, 6.8719037275926459e-002,
          9.7273216408703789e-002, -6.1147806948711925e-001,
          3.2845367832486844e-001, 1.2859196306811704e-001,
          5.4437981899638965e-001, -1.2669998561461660e-002,
          8.3349817872328064e-002, 2.0312503983030625e-002,
          1.3476605263968633e-001, -1.8160908139466495e-001,
          2.6547756316952725e-001, -3.4461279541437001e-001,
          -2.1296636895583206e-002, 4.1148305950816803e-002,
          1.3646657194195133e-001, 3.2352308302098132e-001,
          -9.7539698619510462e-001, 3.7040648063621467e-001,
          -5.9373522159581416e-002, 3.1583682941709307e-001,
          1.2241531602394246e-001, 2.6345287475749268e-001,
          -2.1143275109560442e-001, -1.1277270656200848e-001,
          -1.1550201953619301e+000, 6.9043596887260583e-002,
          8.8720501620390391e-001, 2.9586806774091179e-001,
          -8.2415138358512285e-001, 4.6963396032814519e-001,
          1.8002530130071293e-001, 2.1935680275887734e-001,
          -2.8736407151330967e-002, -1.0902376289816416e-001,
          -2.0177589706390295e-001, -2.3597947525120441e-001,
          9.4381866724125990e-003, -1.7383153901632384e-001,
          1.2211089996939178e-001, 1.3919206938765927e-001,
          -3.8065388023162221e-002, -1.8646583552415125e-002,
          -1.2804557130779523e-001, 1.2902723090172613e-001,
          -4.6274032856425124e-001, -2.2005781274247196e-001,
          -5.3790684584681857e-002, -1.3764369888368691e-001,
          -4.7389902495888919e-001, -3.7086392528484495e-002,
          -1.0643616566666352e+000, -4.4251196087251965e-001,
          -3.6352157881492558e-001, 4.5725408801548156e-002,
          1.0098603535067152e-001, 4.5518092353502587e-001,
          5.8765281816697310e-002, -4.7979231143765777e-001,
          -2.1582597310327845e-001, -2.1528161876660643e-001,
          1.8967538049754293e-001, 1.7588928175418767e-001,
          -2.9509228660066589e-001, -1.0100233482755596e-002,
          1.3432701615276565e-001, 3.6987912627844947e-002,
          -4.2239208488135349e-001, -1.2426346990689820e-001,
          6.5507970228438725e-002, -3.8906770031966226e-001,
          -8.0499265868739511e-003, 1.2991237593108512e-001,
          -8.5955202292536087e-002, 3.3338990653798323e-001,
          -2.6105797087898747e-001, 3.9579512984680640e-002,
          1.0608682502113660e-001, -5.7797806287532105e-001,
          1.1599351938383165e-001, 1.8135566808165224e-001,
          -1.3605583136591065e-001, -6.6653890973080027e-002,
          -5.2843874966295268e-001, 2.4827698557896202e-001,
          2.1919904885548810e-001, -2.3041082816105415e-001,
          -1.3684777280946225e-001, -1.2324131117290675e-001,
          1.0753572312300035e-001, 1.1313557844701748e-001,
          2.5270102740987815e-001, -4.5142395074945357e-001,
          -2.1296903866928471e-001, -1.9359681746077184e-001,
          1.8726684631091489e-001, -1.4088151544154753e-002,
          7.6315635824952627e-002, 6.6095288413666062e-002,
          4.4138799236058152e-001, -4.3580612904761107e-001,
          5.8899358855062617e-002, -2.2678641052727744e-001,
          -2.7172842471657022e-001, -1.9941040494364123e-001,
          9.0079712547418478e-002, 1.1024281205283815e-001,
          -3.6782753600121357e-002, 1.9911258835917198e-001,
          -5.4292253444496985e-001, 1.2194224647722510e-001,
          -9.7704879573013048e-001, 2.0988380731433570e-001,
          1.1654069137017287e-001, 4.0934881597437367e-001,
          -3.7402110403498257e-001, -3.1720649960660918e-001,
          -1.9012605983633157e-001, 5.0870484964314766e-001,
          2.3097132591791827e-001, 1.0829948277569366e-001,
          -3.2174994432337312e-001, 2.7281058953726043e-002,
          -3.6907295577852756e-001, 9.0823393662405411e-002,
          -3.9281515628604838e-002, -1.2665280008696284e-002,
          1.7195795417776188e-001, 1.6708687085755354e-002,
          -2.1313449244202448e-001, 6.6139330157120244e-003,
          2.4575405820782631e-001, -1.1486561303724732e-001,
          -1.3961038999255243e-001, -2.1945814620251880e-001,
          -1.2295554099452388e-001, 8.7610092379541815e-002,
          -2.3960942720061659e-001, 1.4964958727604588e-001,
          -5.0811353412286188e-002, -3.1717206942249082e-001,
          -2.8465949561420134e-001, 3.5557210896580993e-001,
          -1.0579445670368710e-001, -1.5986584785849519e-002,
          7.1977065889324995e-002, 2.1265770096075991e-002,
          1.2547039459879481e-002, 6.0841814674005908e-002,
          2.2070156160305068e-001, -2.0689375512394648e-001,
          -3.4644393654717215e-001, -7.7980713783244660e-001,
          1.4212084743271841e-001, 1.6657208135366225e-001,
          -2.5794637022721739e-001, 3.5445649877483537e-001,
          1.9855800349618105e-001, 2.2871594738026133e-001,
          -3.5457539510530356e-001, 3.5972074240479324e-002,
          2.0889995123027798e-002, 1.7515101743830486e-001,
          -3.6017274004107397e-002, -6.1240486283687572e-003,
          -2.6398378667063183e-001, 2.9018556716070820e-001,
          -3.8253103058812521e-002, -4.5658913352001956e-001,
          2.4835208262232036e-001, 3.7534563967529477e-001,
          3.8956859609694416e-001, -9.0158918170488607e-003,
          -2.2640856257387537e-001, -5.1399011580917024e-002,
          -1.1642465278564457e-001, -1.2863636532433875e-001,
          -4.2500352133949387e-001, -2.5502404103656513e-002,
          1.5000987642347957e-001, 1.4917195344211587e-001,
          -9.1683054806522196e-002, -6.5392319558845419e-002,
          -1.2438300237349945e-001, 1.9269732997784822e-001,
          8.1851798839271281e-002, -7.6565095162798538e-002,
          4.1464010550700092e-002, 2.8957909235133683e-001,
          -1.9343024921824818e-002, -1.7725309180279558e-003,
          -2.0714194969339590e-003, 2.0243579113066210e-001,
          1.1829834359920996e-001, 1.0378217733442724e-001,
          7.1230638108076741e-002, -7.1611079394605426e-002,
          8.4921528752687648e-003, -1.4880130266678299e-001,
          3.0907103877706940e-002, -7.0177039008109982e-002,
          3.3549989707813954e-001, 1.8083477218700600e-001,
          -4.4693398284227796e-002, 3.1909377505394471e-001,
          7.5470002025697966e-002, -2.0685806361668991e-002,
          3.8991577350678497e-001, -2.5097732334368367e-001,
          3.0303305194330488e-001, 1.2979638163036350e-001,
          -2.0362152300941802e-001, -1.4977901851618181e-001,
          1.6321409218229979e-001, -1.2094654878195839e-002,
          1.4997332784338044e-001, -1.6937227437935898e-002,
          9.3515182809772765e-002, 7.8185720594604297e-002,
          -1.3743818832863386e-001, 4.3423725186834669e-002,
          1.0949901652435516e-001, 8.1096804770391406e-001,
          -2.5658448314724225e-001, 1.3257760397779886e-001,
          2.3935158844080126e-001, -2.3957676494974631e-002,
          -2.7966971827029868e-001, 4.7648778556530678e-002,
          4.4567503451834967e-002, 3.2473978249412866e-002,
          -3.2413242505022483e-001, 1.0328884656275514e-001,
          -1.4435460677966336e-001, -2.3999433473505852e-001,
          2.7593537787858730e-001, 1.5097152339584377e-001,
          -2.5069909980901622e-001, 3.2110637584266066e-001,
          -1.3689508113917917e-001, 2.8979403220208877e-001,
          -9.6682746416216492e-002, 3.7836178185012365e-002,
          3.2307298378751942e-001, -1.6530375397358582e-001,
          -1.5156399499499269e+000, -3.3371337951234398e-001,
          2.3592199749246612e-001, -3.8169171380991657e-001,
          4.2684290141643733e-001, -1.2516038893522350e+000,
          1.6481219033995562e-001, 1.0707640946509989e-001,
          2.2196956289077498e-002, 4.0976401126613116e-001,
          3.2739599403788000e-001, 4.5938881275057339e-002,
          -2.2842724172866027e-001, -3.5979674379998999e-001,
          2.1391681210073354e-001, -7.8108694885209151e-001,
          -5.8186590759005419e-001, -1.3408926714889585e-001,
          -5.4136191144150814e-001, -3.6191287112363663e-001,
          1.8743812746985938e-001, 1.3752267436183030e-001,
          2.9509794967887615e-001, 4.3837520089185855e-001,
          -2.2135827817507277e-002, 6.2641132212624675e-003,
          -8.0174164951969717e-002, 7.2380428255014853e-002,
          -1.8269128071588842e-001, 2.1410930759013952e-001,
          -5.6374794466602748e-002, 7.8999947861989189e-003,
          -5.5717353973812452e-002, -3.7396480913654738e-002,
          9.8680131707742189e-002, -4.5222805731022171e-002,
          1.1506046428564182e-001, 8.1951666993146460e-002,
          -3.7598293506444042e-001, -2.9613342788334981e-002,
          1.8252184711174256e-002, -2.3744590179621595e-002,
          -7.1572920862267034e-002, -8.0740924853091700e-002,
          3.3823009175836041e-002, -9.4522541345597788e-002,
          -2.4838745847819710e-001, -4.3916462166480631e-002,
          -7.0077556714988637e-002, 1.7749873193057007e-002,
          -6.2519963572457968e-002, -1.3279579255179363e-001,
          8.6912763248898309e-002, 8.4818253230893717e-002,
          9.6291792559469527e-003, 1.0319507903168877e-001,
          -1.3094512153343013e-001, -1.0176906957364281e-002,
          -4.4667767583844782e-002, -3.3163651437657676e-001,
          2.6722122486043370e-001, -9.5162324347434574e-002,
          -1.1502510671338298e-001, 9.2725554302785743e-002,
          -1.0026189524776759e+000, -1.6247426926616698e-001,
          4.7213826518549093e-002, 2.4436202429221558e-002,
          -5.3379612918622588e-001, -3.3498111050597934e-001,
          2.8414487599804633e-001, -5.0362281456000191e-001,
          -2.0540571231929286e-001, -2.8308562406206789e-001,
          3.7708596247920806e-001, 8.2307399910450818e-001,
          1.0326670072544532e-001, -2.4324066333931754e-001,
          -4.1194551839131860e-001, -1.9117246889921974e-001,
          3.7127283929584831e-001, -3.8238911855616758e-001,
          1.8404133563347712e-002, 2.0566387497030617e-001,
          2.4400799973550841e-001, -4.9586367925421154e-001,
          7.3356273881028999e-001, -2.0585829500212269e-001,
          1.6146038711345975e-001, -3.8034649223760986e-001,
          1.1102466433708113e-002, 2.1883447852302079e-001,
          3.4051118246402767e-001, 2.4402273649259221e-001,
          -3.1441743161200453e-001, 7.9587495137002673e-001,
          -8.3155071724945517e-001, 7.8642956761696947e-001,
          1.5599787932893958e-001, 3.3447876128419213e-001,
          -8.0146621232100479e-001, 1.5483707763670659e-001,
          -1.2661331219294358e-001, 2.3059631247403486e-001,
          3.4496426364396165e-001, -5.4062817180949234e-002,
          -5.2409492973239469e-001, 8.6832193549677050e-001,
          4.2281063839797760e-002, 6.3430652250508673e-002,
          2.5972063590747635e-001, 2.1369441018776852e-001,
          -6.4823491803590871e-001, -1.6246813721301048e-001,
          -5.5170450408899052e-001, 4.0082223150465285e-001,
          8.5480116331340783e-002, -2.3900465067568530e-001,
          -2.3749238686984370e-001, -3.0026701385607074e-001,
          2.6850854663608492e-001, 5.2620692925588110e-002,
          2.1414030976803033e-001, -1.1657860525152992e-001,
          -2.8028163527409486e-002, -1.0073744014873642e+000,
          3.4670248444931595e-001, -3.4675656221019313e-001,
          2.2667346683319126e-001, 2.4598397213994469e-002,
          5.0480762308371951e-001, -3.6094691313911381e-001,
          5.8046664271238536e-002, -3.6937067969222626e-001,
          -3.7891664919833457e-001, -1.6715663179824514e-001,
          5.9951913049833916e-001, 1.1668184848497626e-001,
          4.0489647848380345e-001, -2.9090996776722078e-001,
          9.1921603017990988e-002, 8.9977403537754408e-002,
          -2.0698250123400769e-001, 5.2326812763117292e-001,
          3.4974362687982624e-001, 1.4000282876100750e-001,
          -7.1210414937789290e-002, 8.2583725395571156e-002,
          -1.6837076316436314e-001, 1.2383101648954604e+000,
          1.6450773662923887e-001, 1.4037203027487846e-001,
          -3.7246566574590562e-001, 3.7192293993434583e-001,
          -2.4409847833795081e-001, 1.1529451398133715e-001,
          -3.4536452830223573e-002, 1.4020427027000096e-001,
          2.4995140389918910e-001, 8.7532657376912681e-002,
          -9.6807183037759648e-002, -1.3013850338162433e-001,
          -5.4716074335264271e-002, 1.7446153543811113e-001,
          7.9185467472068477e-002, 1.3460844397401278e-001,
          6.2463464979216088e-001, 8.8262986604551799e-002,
          -1.0034247156242262e-001, -4.6577164551053013e-002,
          1.4329602147139475e-002, -1.1434980835824109e-001,
          -9.8289014889713616e-002, 1.3468913638697755e-001,
          -2.3118787395164628e-001, -1.8462329265052363e-001,
          -3.2249399500384184e-002, 1.0155043248945821e-001,
          1.5735008993481051e-001, -3.5477416050370927e-002,
          1.9333307871968883e-001, 5.7471528112495063e-002,
          -2.0447272264389996e-001, -8.7899013735811812e-002,
          5.9490503219607659e-002, 9.7069658891376850e-002,
          -1.3460285865030944e-001, 2.1130958012462428e-001,
          -5.4790113137575813e-002, 1.3033541688355380e-001,
          -9.5890934422528537e-002, -1.7953159591221368e-001,
          8.9335878269704327e-001, -1.5285118841339460e-001,
          -2.6303905294153548e-002, -1.2164017094194540e-001,
          -2.9570434175682316e-002, 6.7571378671391680e-002,
          1.0672301477217117e-001, 1.1737489834749229e-001,
          4.9231212338082958e-001, 4.1272936542890742e-002,
          -7.8223664107782476e-002, -1.6553916817561523e-001,
          -4.5697587305838511e-001, -4.9116777435552025e-002,
          -4.9696247116226405e-001, -1.6985037003671152e-001,
          4.2041774431306378e-001, -6.9570799720578710e-002,
          -1.1844022818915953e-001, -5.4254834957585563e-001,
          2.6647059235727444e-001, -9.6507776898322920e-002,
          -1.6652166323457973e-001, -9.7532744968349538e-001,
          1.9094976801209829e-001, -5.1953933861874735e-001,
          1.9467733051348901e-001, -1.4675125506631759e-001,
          -2.2185553791607629e-001, -1.4730152364158067e-001,
          1.4393106225039198e-001, -1.0951383317859059e-001,
          2.9789643593069637e-001, -3.3558679569814404e-001,
          7.6061811291948431e-002, -1.1734549618912390e-001,
          -5.0445944131205553e-002, -2.1276668208312696e-001,
          2.4555265131597409e-001, 6.3568948711566020e-001,
          -1.4562017514578107e-001, -3.8796598826215350e-001,
          -3.3847015266619346e-001, 2.6431229438613851e-001,
          -1.6827594193071282e-001, -7.5044177166643744e-002,
          -1.7460153222427649e-001, -1.7376283490851324e-001,
          1.2627871183378794e-001, -7.2783713594910329e-002,
          -1.5486191637668334e-001, 4.6751093505459848e-002,
          -1.8113547816688369e-001, 1.4148066767583642e-001,
          1.3141494985597929e-001, -3.2552233647501466e-001,
          5.4375110874000310e-001, 7.7175231210026961e-003,
          -1.9113123645271909e-001, -1.3344618047731807e-001,
          -5.6310478587713486e-001, 1.1899930107331538e-001,
          -1.3011017613941600e-003, -4.2932256453501744e-001,
          -1.0129408372930387e-001, -5.4947945427008149e-002,
          1.1816243424068738e-001, -2.1689231237432258e-001,
          1.4395984772956133e-001, -4.5847666145121757e-001,
          8.4168002847090151e-001, -1.8079580643677876e-001,
          1.0338409350754683e-001, 3.6063767497163057e-001,
          5.2792645795636313e-002, -3.7926919932555536e-001,
          9.3461535682067845e-002, -2.2336764797487829e-001,
          -1.1837244005002273e-001, -1.0368160282616384e-001,
          -1.4746021896263845e-001, -2.8917929978642559e-001,
          1.1312619584145524e-001, -1.0840666131575213e-001,
          4.1476709506522758e-001, 7.3609519276397153e-002,
          -3.5623393159649441e-001, -7.5615752441110157e-002,
          -6.6915315915641344e-002, 6.6670506187777812e-001,
          1.0551499454165827e-001, 6.2930626137276097e-002,
          1.1731084379960940e-002, -1.2970980740210991e-001,
          3.5031942736049745e-002, 1.1594399724141680e-001,
          -1.5659195976869078e-001, 3.6621341262926527e-001,
          8.6443547944820037e-002, 3.7680972646762628e-001,
          -1.1650893593562196e-001, -2.9702399497240101e-002,
          -1.3512148535765277e-002, -6.2958203848083538e-002,
          1.1254196590787488e-001, 5.2570408707818171e-002,
          -1.4324272770995636e-001, 1.2709533416885774e-001,
          -8.7213767885383126e-002, -4.1900974856715498e-002,
          -8.7749979204127214e-003, 2.7642866818207702e-002,
          -1.1135456029691038e-001, -1.8031218831279636e-001,
          6.7569395135916449e-002, -1.3438356091108905e-001,
          1.4482030776013061e-001, -1.3483784924500206e-001,
          -3.6193352225053871e-001, -2.2358108612944839e-002,
          -3.3521441223262817e-002, -1.8780097340136276e-002,
          4.4288095940690286e-001, -4.2123822848408751e-002,
          1.1937640145067525e-001, 1.0985366350055087e-001,
          -4.5763834485872662e-001, -1.1263575497740820e-001,
          -1.7698309684094801e-002, 4.2454676736047282e-002,
          4.3806024402609128e-001, 1.1641343393904892e-001,
          -8.0120599153511884e-002, -4.2234030174795018e-001,
          3.2192469427718085e-002, 2.1726316356997175e-001,
          3.5997543914636741e-002, 1.7255242280688765e-001,
          -1.4453570793634085e-001, 2.2095662305782415e-001,
          -1.2731706029708173e-001, -2.0050080291907449e-001,
          6.6554520583705687e-002, 1.1569458196637539e-001,
          6.9906477335378081e-002, 2.5714544978254184e-001,
          -1.6563640015016851e-001, -4.9932516949160489e-002,
          -4.8927359008871213e-001, 8.4020641225672661e-003,
          4.6646785406287467e-001, 3.9685621713299041e-001,
          -1.2851743892909229e-001, 1.6368344995977271e-001,
          7.3859216601409913e-002, -7.5123154479327086e-003,
          -1.3753468746021368e-003, -1.0374934836367564e-001,
          1.3333667169866542e-001, 9.0318606599414569e-002,
          2.6323473573737655e-001, -7.1735122890558251e-002,
          -1.8010058816703350e-001, -1.0662867190442499e-001,
          6.7168600437155113e-002, -1.5405986433370306e-001,
          1.6417371516763954e-001, 4.3163991220290893e-001,
          -3.6892462242646140e-002, -1.3125185715569723e-001,
          6.1494231833340698e-002, -1.9115753754104743e-002,
          -1.1907353208459444e-001, -1.1923511835018311e-001,
          1.0780496733297316e-001, 9.3518884115654718e-002,
          1.2482275705547617e-001, 6.0273089537338981e-002,
          -9.7053430770741078e-002, 1.5603158653355795e-001,
          -1.1854002608878889e-001, 2.0617615297916933e-001,
          1.1701820120241714e-001, 9.3747720626558673e-002,
          -3.9712743296997671e-001, 1.6927910889412412e-001,
          -1.8519200636074890e-001, 7.9318351686430588e-002,
          2.4945310335235638e-001, 1.3529296956807824e-001,
          -6.4861641725132840e-002, -1.8141825888213875e-001,
          -7.3293802336931368e-001, 1.2773822535749429e-001,
          -5.0307483452520403e-002, 2.1506380094079483e-001,
          1.6067619015396667e-001, 1.3190414576195469e-001,
          -4.0527868397879814e-002, 1.9663036191139008e-001,
          -5.1764075162666040e-002, 7.1225094367298555e-002,
          2.4295797000021088e-001, 1.1626093074580503e-001,
          1.1322693105582168e-001, -1.0380910139314670e-001,
          -1.4011751919119630e-001, 7.2491580454348448e-002,
          8.2443751950351848e-002, 1.5370198798282500e-001,
          -1.3359092128666045e-001, 9.6532964855790104e-002,
          -3.1717931880404365e-002, -2.9740409186474437e-001,
          -1.1150328401156172e-001, 5.3323592177885792e-002,
          -1.7407940287853965e-001, -2.4650213153104392e-001,
          1.1625498450571463e-001, -8.0240218334152985e-002,
          -4.1959635519158700e-001, -1.6441239595912280e-001,
          7.2083138700313729e-002, 1.1808171558352799e-001,
          1.0556394192733753e-001, -3.5736959861593548e-001,
          -4.2456693915564858e-001, -1.0743899570628032e-001,
          -4.5594011931181477e-001, -2.1332361963829338e-001,
          1.7284442799549149e-001, -2.7064889376504681e-001,
          -1.7610935908018954e-001, 3.9271118798516094e-002,
          -9.7056280913961485e-002, 4.1083781994690566e-002,
          5.2729521285007901e-002, 1.4042197783895405e-001,
          4.3026894438222751e-001, -1.8024967518172538e-001,
          -2.1394170157261383e-001, 1.9968987242059560e-003,
          1.8999274725541007e-001, -6.0462726161657425e-002,
          2.6663056373665189e-001, 3.9889579296307050e-002,
          -2.3733210678038177e-001, 1.3035975592023175e-001,
          -4.5341073523525066e-001, -8.2289652632509758e-002,
          -1.9317236822210876e-001, 4.6939309239532734e-001,
          -1.4905216642364660e-001, 2.6561719689656477e-001,
          1.4440465305222555e-001, 1.2728865706570394e-001,
          8.0120320093664835e-002, 3.0062932959588695e-001,
          -5.1547598532573194e-002, -2.6012963667094310e-002,
          4.6008746706978293e-001, 1.9638958899649811e-002,
          -1.4208066013449719e-001, -2.3441816025264511e-001,
          9.9559336521206132e-002, 8.8125405253107844e-002,
          -1.0094414838402999e-001, 2.5920211120562774e-002,
          -4.4292585303482912e-001, -2.6230214087030246e-001,
          1.6725687639484324e-001, -5.3117879446718652e-001,
          2.3310051936446285e-001, -4.2101120703904821e-001,
          -8.3788146964283758e-002, 2.0099364344491076e-002,
          2.0205086886998186e-001, -9.9870616871235454e-002,
          2.3806887226792134e-001, 3.0525853366158884e-001,
          -3.2737170189549480e-001, -2.3836071589803590e-001,
          1.4303279572070032e-001, -1.1730066493465816e-001,
          1.0352643433234757e-001, -3.1668207036335799e-001,
          1.6808852090155998e-001, -1.6876662701118369e-002,
          -1.3925809601548600e-001, 2.7712974355121087e-002,
          -9.2775299075865097e-002, 4.4774531319192007e-001,
          -1.5926340873975880e-001, 1.9990038017459380e-001,
          1.4561580012555972e-001, -7.5787615117783036e-002,
          -1.8041549629892556e-001, -1.7552103729686347e-001,
          1.0641165884620640e-001, -6.3598129360768230e-001,
          -8.7918758732119431e-003, 9.5480832374311264e-002,
          -2.4726285196752590e-001, 7.0311110023757090e-002,
          1.1021170233313318e-001, -2.6755571127928507e-001,
          1.0821252198781017e-001, -1.1633665058587189e-001,
          1.1793668906845768e-001, 1.0790973839208447e-001,
          -2.2395774021475084e-001, -2.1816429501265180e-002,
          2.4932033995185909e-002, 2.6281157914608184e-002,
          -2.0560915122639689e-001, -4.4794929518567048e-002,
          5.1264458804922516e-002, -3.6082739898425925e-001,
          4.9184638784918205e-001, -1.7037044717066394e-001,
          1.2490913807337025e-002, 1.1124110502959196e-001,
          -1.1554994401103079e-001, 2.0799473156805394e-003,
          1.8628203079120340e-001, -2.9124773491492589e-001,
          -3.3012297060360135e-001, -1.0410405757075629e-001,
          6.5256158193075431e-001, -2.7831500264504960e-001,
          -2.3937435916699663e-003, 1.5256608395230498e-001,
          -6.9099798055699935e-002, -1.2202272558997204e-001,
          6.2495161240843963e-002, -3.1866077624645023e-002,
          6.5666820649167082e-002, 1.7093483289279128e-002,
          2.9234635545508558e-001, -2.7767509352193831e-001,
          -1.3001030001722755e-001, -1.2885209545275234e-001,
          -1.3844911060799325e-001, 1.1288436788289681e-001,
          -1.3749872749287917e-001, -1.6214796914276339e-001,
          -4.5638139530006133e-001, 4.5374362771769837e-002,
          7.9665551544383803e-002, -8.7051364367912679e-002,
          3.8128657931569770e-001, 2.9552353621886596e-001,
          1.2347971568358841e-001, -2.4438518471814621e-001,
          -7.8523970255636344e-002, -7.1355252951495848e-002,
          2.7046414521540563e-001, -4.9507689517519812e-002,
          2.4476847333601884e-001, 1.4076247610783316e-001,
          -3.5665185695053780e-001, 7.4935311299467816e-002,
          -1.1443959482300615e-001, -2.9885567855159244e-002,
          -1.1111537075364120e-001, 1.1435295462655259e-001,
          2.9145260532337491e-001, 1.9230959568831132e-001,
          -1.6195929465821313e-001, 2.0386657525847274e-001,
          -1.2806457448923095e-001, 1.1562732314914385e-001,
          2.3997303583080834e-001, 1.8697121442467468e-001,
          -1.7421155379789846e-001, -1.2752323087774201e-001,
          1.3361607432614253e-001, 1.5534984502595589e-001,
          1.4605814762617314e-001, 1.2034715860710123e-001,
          -1.5190823630203601e-001, -1.3635476224345380e-001,
          -2.8055769483872350e-001, -1.5151626591290651e-001,
          -4.9864372618454900e-001, 1.0407943081478437e-001,
          -4.3486360828650428e-002, 1.7861937889570878e-001,
          2.0987735928832343e-001, -8.3376511402024989e-001,
          -3.0968411796661526e-002, 7.0947334071734691e-001,
          3.5219059452598422e-001, 2.6608776403489320e-001,
          -4.7563222108514810e-002, 5.9537371597076860e-001,
          -1.6506316588826969e-001, -3.1689187422662085e-001,
          1.0154451142260800e-002, -1.8445501859046054e-001,
          -4.8817983660987879e-001, -9.7268745806859833e-002,
          -3.6347505209129044e-001, -7.4847727644334769e-002,
          -2.2144802951676212e-001, -2.2672638459687608e-001,
          4.9679875300211049e-002, 1.9778962797262344e-002,
          3.8967151447212756e-001, -1.0965622594832318e+000,
          2.9794974014437019e-002, 6.9008759792476865e-002,
          -1.3823362093452357e-001, -3.6013195805066645e-001,
          -1.7793211074097837e-001, 7.8406882765672356e-002,
          6.0808151082552808e-001, -1.8259938303169884e-001,
          -1.7836195360970439e-001, -3.2836011655488086e-002,
          4.2843630718652687e-001, 1.3091342857077554e-001,
          2.0042273776851302e-001, -1.8700737642780277e-001,
          3.1032532523130191e-001, -1.2787304660929458e-001,
          1.1604711901639080e-001, 2.1725159591615049e-002,
          5.8838135878162730e-002, 6.7358919502506498e-002,
          1.1009673558980312e-001, -1.7474545279888182e-001,
          -2.3042811400382424e-001, -2.4282145244057976e-001,
          -5.5631862080228633e-002, 2.0735791448151827e-001,
          1.9132646836684231e-001, 2.1588062944578484e-001,
          1.5438424655082117e-001, 2.5044158756363691e-002,
          8.7802943458248656e-002, 4.0837511667001516e-002,
          2.7864488148457106e-001, 1.4093503974412316e-001,
          1.7485572315139236e-001, -3.1991404560943559e-001,
          -1.0306939903789959e-001, -4.2646089251596263e-002,
          -2.5163300192045263e-001, 4.6161578562794695e-002,
          2.4594361332312534e-001, -7.2020276921605300e-002,
          -2.7145588565249595e-002, 1.7035201265261482e-001,
          3.6311594811866188e-002, -1.9650756557804505e-001,
          -1.3369799988684237e-002, 2.2536084082003038e-001,
          1.6678233058820235e-001, -8.2089710849608921e-002,
          -3.6869275982132882e-002, 3.1370394823908285e-002,
          -9.3050928172841718e-002, 2.7719278007640591e-001,
          3.2206981625592829e-001, 3.9351483925302730e-002,
          -4.6045109029749787e-002, 2.9521683366841706e-001,
          -1.5016968062897626e-001, 2.3588672941244729e-001,
          1.2676843052584724e-001, 3.5590961948439187e-001,
          5.9229207106177684e-001, 3.0932478538623454e-001,
          -1.0629283314363400e+000, -3.1657368387984025e-001,
          -9.1620006301145848e-002, 1.0019078085638615e-001,
          -2.6582177035434956e-001, -1.6265259175172980e-001,
          5.3923440618840568e-001, -8.6001961268480115e-002,
          -3.0188964318438560e-001, -2.4521373639821223e-001,
          -1.2485495705544494e-002, -1.0546149996748470e-001,
          3.5722443222558969e-001, 9.1556237948735214e-002,
          -2.9291672313489880e-001, -1.2167218950926073e-001,
          3.6814119315476085e-001, -6.5363802430195228e-001,
          -1.0508635861769007e-001, -3.9088772666500382e-001,
          -1.7188115068776222e-001, 4.1894081840554959e-002,
          -2.1260806192275411e-001, -1.4926347597457174e-003,
          5.7608464425231087e-001, 2.9312951524255138e-001,
          -2.8984462357402874e-001, -8.6476685965340680e-002,
          -7.1562324781650732e-001, 7.7464957062538742e-001,
          -1.1046056416227147e-001, -1.1826338789493140e-001,
          -4.7777165662904969e-001, 1.2678096258535612e-003,
          1.6162276000455200e-001, 2.0340693356031730e-001,
          -6.0013581232742010e-002, 3.7935473993670582e-001,
          6.1726837088296849e-002, 5.1307245990393335e-001,
          1.4038190336512471e-001, 2.1270318056829052e-001,
          -6.2885013077296464e-002, -2.7296065062753028e-001,
          -8.2936964780490202e-002, 1.5502046177165185e-001,
          1.1700632313818884e-001, -1.7027956179192857e-001,
          -2.3304027759640886e-001, 1.8674456440619566e-001,
          4.4700093769370189e-002, 1.6777262355034017e-001,
          -1.6396656497366314e-002, -2.4394528373979973e-001,
          2.0263372700783343e-002, 1.9934535589385793e-001,
          2.6275575536156348e-001, 9.8238015068596585e-002,
          -9.0222271443498231e-002, 2.3804297447558971e-002,
          -1.1596622149862268e-002, -2.2602899159053275e-001,
          -2.4833050935252532e-001, 5.1283890821750522e-001,
          1.3315219289355207e-001, 1.5628120128499071e-001,
          1.2334757187181652e-001, 2.3395447455488799e-001,
          -3.5248836667056693e-002, -1.5688582610782303e-001,
          -8.8813786529000668e-002, -4.2241737412456057e-002,
          2.2197046458307865e-002, -9.3321933858004302e-002,
          1.9613821819069013e-001, -2.6683345537885678e-001,
          -8.0470241728880579e-002, -9.1627637235956849e-002,
          3.0778860442496309e-001, 6.3925957337060378e-003,
          1.0324113529834435e-001, -3.5496206432498628e-001,
          -1.0085644123664442e-001, -3.0710049842691517e-001,
          5.4569820733258938e-002, -2.6519780349130256e-001,
          1.2211206126482149e-001, 2.0198743818720732e-002,
          -5.6954839053754112e-002, -1.0851498990425533e-001,
          4.2537748289740343e-002, -1.7836980870899580e-001,
          -1.4557310049941491e-001, -5.8979360132904383e-002,
          -5.5927829124581545e-002, -3.4466445977291503e-002,
          -1.1098851974516825e-001, 9.4360461824341997e-003,
          1.4830012702554147e-003, -5.1200403409000073e-001,
          -1.0669769659010758e-001, 6.6898633377325412e-001,
          4.9294969184221477e-001, 6.8106855558513243e-002,
          3.0881619608075474e-002, 3.8025615993365020e-001,
          7.8959722219113668e-002, -1.1334533571739953e-001,
          5.6132271672916366e-002, -4.2142604718039954e-002,
          -1.2077162139532209e-001, -2.1398002510709113e-001,
          2.3275801862666187e-002, 3.8797094215579475e-002,
          2.4919228288624952e-002, -2.2454224620075766e-001,
          -4.5133143453125704e-002, -9.0220404738549295e-002,
          3.2871376812958980e-001, -9.3270156626122036e-002,
          -3.6338983405137207e-002, 6.5745089002408399e-002,
          1.7387484915068998e-002, -1.9465144766191070e-001,
          -1.4918043339773521e-001, -3.3178673125842667e-001,
          -5.5846912772386785e-002, 5.9311436300749809e-002,
          -1.0740848113424201e-001, 2.8644616276888768e-001,
          2.6515713619606335e-001, 1.7795783297640821e-002,
          -5.8608601575805648e-003, -3.2646730577545602e-001,
          -3.4256920539443195e-002, 9.4724371270744526e-002,
          1.8770828006053439e-001, -6.8481321552613592e-002,
          -6.8083841418464741e-002, -7.9941527014333463e-002,
          -7.8562032997289921e-002, -3.2565740449671560e-001,
          -1.5557896428526269e-001, -1.6645240149855850e-001,
          8.8319607824824092e-002, 2.6283836067727534e-001,
          -6.1073599701532602e-002, -5.7428248003653493e-001,
          -1.7674227270698861e-001, -2.6899697685323415e-001,
          3.7709200615722299e-001, -1.3701683151026555e-002,
          -6.9500507932777927e-002, 6.8020195034550077e-002,
          -2.2596254523410048e-002, -4.0889517104157719e-001,
          2.5451414031685859e-001, -2.2834775073749716e-001,
          -1.0386180428276287e-001, 6.2687258381886421e-002,
          2.8314710156542278e-003, -2.1414252908669329e-001,
          7.7232967060803431e-002, 5.4483375497220687e-001,
          -2.3290469476442274e-001, 6.7320089926421622e-001,
          -2.0482828670922923e-001, 1.6670137222458442e-001,
          -6.1695605112959328e-003, 1.3300318579205120e-001,
          -8.4425420784263919e-002, 1.1930305653022943e-001,
          -2.0451180523031948e-001, 3.2081464675116807e-003,
          1.3961807269011334e-001, -2.4637217346719928e-003,
          -1.7145808948090582e-001, 1.9481123929670665e-003,
          1.5420690497177584e-003, 3.4600801108643170e-001,
          1.5843611876397060e-001, 1.6445950182130953e-001,
          9.2030290979435006e-002, 5.2369143372331867e-002,
          6.7781939375666178e-002, 1.8842022974109596e-001,
          1.0321131454141394e-001, -2.4626002549687454e-001,
          -5.2686172484585692e-001, -4.4279059136040166e-001,
          -8.8009311187346340e-002, 1.9463244777016073e-001,
          -2.3517844509873673e-001, -3.6062703110224992e-001,
          -3.0992022861104619e-002, -3.2290634437712046e-001,
          2.0296923616295029e-001, -6.7065804861079392e-001,
          -3.7824605766063604e-003, 3.1736245156628440e-001,
          -2.4197562270543088e-001, -8.5116740991708614e-002,
          3.2552358045254282e-001, 4.1110469636123512e-002,
          1.0718644040285885e-001, 2.7813020791610962e-002,
          8.9563454520806308e-003, -1.6124238691671081e-001,
          5.1249650226046963e-003, 8.4603022913901094e-002,
          2.4928727262222644e-001, 1.2450895613193323e-001,
          -1.3049579868741917e-001, -8.4206225373351290e-002,
          8.8198859380600708e-002, 2.3342643738010102e-001,
          6.0183672761508412e-002, 6.2018681454068747e-001,
          -8.0627264295145967e-002, 2.0450395108563807e-001,
          3.1545066037190961e-001, 6.3458765969992949e-004,
          -7.0991150237070488e-001, 1.6061295249472224e-003,
          -6.1107311457864422e-001, 1.0250893971212431e-001,
          1.4535521397706663e-001, 3.8455241096768189e-001,
          -1.2779420751663520e-001, -1.0557408440243062e-001,
          -2.6726344108314565e-001, -2.6266444274712786e-001,
          -4.9591752226520201e-002, 1.0901121407826475e-001,
          1.5337264880854330e-002, -2.1607594877063854e-001,
          3.0600255073636486e-002, 2.0709586457248002e-002,
          -6.5003875120776489e-001, 1.9071635632928305e-001,
          2.3436094390869261e-001, -1.6370639256567543e-001,
          -4.0328066332077439e-001, 3.2825402674649340e-001,
          -5.5987804144852514e-002, -3.5604233643040339e-001,
          4.7381017026543029e-002, -3.7117621003876680e-002,
          -1.4688991999262074e-002, 9.6718265026145958e-002,
          3.0030488607969230e-001, -2.4188517523956879e-001,
          -3.6923723352846904e-001, -3.4126431588058848e-001,
          1.7640753582858099e-001, -4.1974153697261668e-001,
          3.8647045367411287e-002, -2.1138231081131953e-001,
          1.2285543993974333e+000, 4.6385398887610912e-001,
          -1.8603390104940082e-001, -1.1468460576514661e-001,
          -3.7882123949868729e-002, -2.8515805834035401e-001,
          1.3628747688396062e-001, -2.3455007357483532e-001,
          -2.4356454177844772e-001, -3.8618615806027400e-002,
          -3.7790944084182071e-002, 2.7975010714580245e-001,
          9.8754327078524740e-001, -9.7769069522290614e-003,
          1.4986053851514319e-001, -5.3650108934187701e-002,
          -2.6013684082627231e-001, -1.0869848974476820e-001,
          6.2044035727018132e-001, -7.4847856588076463e-003,
          -1.5354773391413445e-001, 5.1633014218277329e-001,
          1.5165431717152855e-001, 5.4204444033903725e-002,
          -1.8248367933150092e-001, 1.7574109012095632e-001,
          -1.3059152806793445e-001, 3.0083344394918110e-001,
          -1.4088001087873062e-001, 2.4442109763528047e-001,
          -8.4902608329413862e-002, -3.1287696328373760e-001,
          -1.1147894549806851e-001, 2.2658614913448705e-001,
          -1.9558404599593729e-001, 4.2420593876441032e-001,
          -2.6804369904701919e-001, 3.5280239521615320e-001,
          1.1630404673599107e-001, 2.1648066988203910e-001,
          -6.9183507580552792e-002, -4.1458149391052412e-002,
          -8.5255810958405079e-002, -4.8344738218013344e-001,
          4.7036849127740937e-001, 8.3873065496768651e-002,
          3.2521655066058142e-002, -2.6885185461701772e-001,
          -1.4666311482538241e-001, -2.9322180356144184e-001,
          2.0438333585482454e-001, 2.1192289679998533e-002,
          1.2162080741024339e-001, 2.7745801603881605e-002,
          -3.7225157262387942e-001, -3.7303680956866098e-001,
          2.4483244130017335e-002, -3.7742634988204021e-001,
          -1.2929306434262428e-001, -4.4817027227161930e-002,
          1.1724706203292445e-001, 3.0923556866043176e-002,
          9.1282903175159996e-002, -1.1509208994699260e-001,
          1.0104208724576039e-001, -1.0862264546143625e-001,
          -1.0241058835896996e-001, 1.0363000633203445e-001,
          -1.5201398544609510e-001, 6.0371231316371743e-001,
          -1.1245882981878820e-001, -7.4309761655729622e-003,
          9.6226197278317382e-002, 4.2701203269052423e-001,
          7.3348665357140366e-002, 5.4923708447466513e-001,
          4.6489923097225452e-002, 1.1484493785670898e-001,
          -1.8190572463351103e-002, 2.4631008061490020e-001,
          6.9003475570974818e-002, -1.1963610113433767e-001,
          -5.7248215547197567e-001, 2.1528679173030980e-002,
          -1.8141480435002688e-001, -5.2608639051214840e-003,
          1.4114710205726044e-001, -2.8823034056354408e-002,
          5.1954995776737407e-002, -5.0921604198986170e-001,
          1.7755954720212769e-001, -2.5979238837962038e-001,
          8.1958390280887805e-001, 1.1322709839189832e-001,
          2.3465033987899242e-001, -3.7812371572923342e-001,
          3.4227134917520441e-001, -2.5220494247376896e-003,
          1.6688037106454537e-001, -3.9809877770764401e-001,
          -2.3906075325298676e-001, 3.3854021963724945e-002,
          1.6762640104773829e-001, 3.0335992134173470e-002,
          -2.4431609534182400e-001, -1.1516874605924178e-001,
          -1.0290815223370238e+000, 1.6420982637111482e-002,
          1.6077723089667550e-001, 3.1596078957251589e-001,
          -2.2640022193244676e-003, -1.5254981856268407e-001,
          -1.0822492896195364e-001, -6.2151658349269320e-002,
          -9.4863583026055395e-002, -1.5949173965244361e-002,
          -3.2366282433224985e-001, -3.5633734584707499e-001,
          1.1253211881003724e-002, 8.7824835918422189e-002,
          1.0439748260023810e-002, -1.3096062112580823e-002,
          3.6386625397758909e-001, 2.1496652407025230e-001,
          -1.8041104215029378e-002, 3.4068523590642669e-001,
          1.7251822035322029e-001, -9.5089186685736626e-002,
          -1.0611718741366477e-001, 2.8497178062852319e-002,
          1.3297091351221910e-001, -1.7380276400218102e-002,
          4.0430907126334611e-002, 3.5094216873466705e-001,
          1.3745442178547788e-002, 2.3776620119300373e-002,
          1.2258572037672472e-001, -1.4396611669056850e-001,
          1.0594486046027329e-001, -1.5878755450904056e-001,
          1.1029984513531957e-001, -5.6976792441059992e-002,
          -1.9681815548081440e-002, -7.8342988482925729e-002,
          9.1753646613765866e-002, -7.6295070313270562e-003,
          -1.2694243095297386e-001, 4.0140954130258139e-001,
          1.1184084653516166e-001, -1.7062468070760675e-001,
          3.1845232471526036e-001, 1.0141548710646692e-001,
          8.5129230207628540e-002, -6.7076539152285131e-001,
          8.5344342544557777e-002, 4.9800190099135055e-002,
          -3.4674883002843604e-001, -2.2332677202387724e-001,
          4.7501578412019752e-001, -3.7742348934283582e-001,
          -4.1657824933252019e-001, -8.8934988371802370e-001,
          3.0917445525930010e-001, 4.7899844197098856e-001,
          -1.5589449591572788e-001, -2.8777119675753421e-001,
          -3.4053679554922001e-002, -6.1714623583595651e-001,
          3.3912330890714221e-001, -5.9241505633955728e-002,
          -4.3365556221154844e-001, 3.9920481296565240e-003,
          -1.6686898758256907e-001, -5.5094885245343318e-002,
          -9.7961256464314972e-002, -3.2462043422034917e-002,
          3.4586749732184924e-001, -1.3167162310532152e-001,
          -2.4196315250954151e-001, 2.1984554334374190e-001,
          9.6668289829736131e-001, 4.1792578829517202e-001,
          -4.6339646037788973e-001, 2.0805529361859865e-001,
          -1.0839183903308176e-001, 1.8808818315794157e-001,
          -8.3913404554679678e-003, -9.5887384941129472e-002,
          2.0094709436708977e-002, -6.6074272208188817e-002,
          -3.2343160757404898e-001, 5.3425067518209912e-002,
          5.2421708476502460e-002, 7.2493168607904113e-001,
          -2.9399099318426086e-001, 3.1156359735376260e-001,
          5.9217210784207741e-001, 1.3402638778622851e+000,
          9.7127962110294419e-001, -5.7623916840675866e-002,
          -2.0895146562213995e-001, 1.5402696787687553e-001,
          -3.4900405501504544e-001, -1.2833401146481521e-001,
          -2.4737641499302498e-001, 8.2518499736577300e-001,
          2.3883386643354043e-001, 2.0988541454279352e-001,
          1.1984570090886863e-001, -3.9798472525480855e-001,
          -1.2772840526792847e-001, 1.0102859112823838e-001,
          9.1899910416698954e-002, 1.9938442116339114e-001,
          -9.6672438289937934e-002, 2.2602833793299665e-001,
          -3.1394563576032203e-001, -2.6329355119865411e-001,
          -6.2756437268953913e-002, -4.1676590153498000e-001,
          -8.5013700490522440e-002, -3.7078636399170245e-001,
          1.1335323965534679e-001, -5.2805110521770726e-001,
          -3.8190535637195028e-001, -6.1033463750198649e-002,
          3.0740347916602062e-001, -2.4827618054712036e-001,
          3.0952644231557347e-001, -2.4343277697535401e-001,
          -1.1445976404358302e-001, 3.2697857830258559e-001,
          -4.1940813706462271e-001, -8.3283601503497909e-002,
          3.1185805050074084e-002, -1.7631128353592912e-001,
          3.1789280467050696e-001, -1.8350203864320941e-001,
          -5.5637390912191287e-001, 5.2470284877210460e-001,
          1.3685253819913984e-001, 3.0526930370700622e-001,
          3.0155221164607889e-002, -7.4783332533852401e-002,
          9.2267644916731145e-002, 1.1010456786870067e-001,
          -2.7207177408646072e-001, -1.4234941228482820e-001,
          1.9169369266988891e-002, -1.2599866466917586e-001,
          -3.6276727927838354e-001, -4.7673033238336243e-002,
          2.0478312285496295e-001, 1.8153919379495381e-002,
          -1.1481308304346337e-001, 1.9917913828348746e-001,
          -1.1660150496163454e-001, -3.2533634899886849e-001,
          1.0758931303931547e-001, 1.3574471728544782e-001,
          -3.1179121927979392e-001, -2.6370569541607913e-001,
          -2.3884476639416463e-001, -1.7114199209882003e-001,
          -1.9597626252997777e-001, 1.5378747134588391e-001,
          -1.3256261837012037e-001, 1.5951357894829013e-001,
          4.6641950667386262e-001, 1.3178305925625175e-001,
          -1.4471666731527122e-001, -2.4629407709045381e-001,
          -1.3496502342548322e-001, -7.5425292119855103e-002,
          8.2613947073613692e-002, 1.3788611363330266e-001,
          5.6533108038135382e-003, 1.0773782763862878e-002,
          -4.3400063533430691e-002, -2.9627088710924998e-001,
          8.3068705991164754e-002, -3.5821670831353492e-001,
          4.2954951895325855e-001, -7.8824531013122701e-002,
          4.4755353695982764e-001, -2.4355983559201561e-001,
          1.3413060861978843e-001, 2.0695244006865163e-002,
          2.5160239057940820e-001, -1.2869152061611569e-001,
          4.7377598633750823e-001, 1.2992948465663073e-001,
          -1.7736114338820128e-001, -3.9529015449592259e-001,
          1.8872407267146227e-001, 1.5511410369283088e-002,
          -2.4146582184972953e-001, -2.3091965987814878e-001,
          2.5944273173412752e-001, 3.5025793943519662e-001,
          -1.9875443870439596e-001, -2.3504370404210084e-001,
          6.4410019510117947e-002, -4.3305549723782547e-003,
          -1.4861054345033842e-001, 1.2153158376346589e-001,
          1.9177921777517440e-002, 1.1083415258162801e-001,
          -4.1992636934190140e-004, -2.0602014093615906e-001,
          1.4097798539206025e-001, 2.4237011737235009e-001,
          -7.6640967272231575e-002, 3.0359837324339628e-001,
          -1.2152198855558771e-001, -3.0318486710713384e-003,
          1.4409941747086014e-001, 1.1207045032349958e-001,
          -2.1289581298404925e-001, -4.2861545924385173e-002,
          1.5191025102788847e-001, 3.1534561737979559e-004,
          1.4930317176464503e-001, -1.0791167844539075e-001,
          -1.6381166806628317e-001, 9.2465395538983933e-002,
          4.5072562238015181e-002, 1.7570579656187335e-001,
          1.5725911103553761e-001, -1.9819458730992759e-001,
          -9.5642694575553702e-002, -2.6524541096930815e-001,
          1.3994459236905726e-001, -6.4717023910499147e-002,
          -5.6350765313269532e-002, -2.6874607835446235e-001,
          -2.3282355778441094e-002, -6.5884941647568487e-002,
          -1.2134770778078114e-002, 3.7383490543520068e-002,
          2.1778104727459457e-001, 1.0638668189465329e-001,
          -7.3653602371770238e-002, 9.6623331631783271e-002,
          5.5673023875254690e-001, 2.5856659358215012e-001,
          -6.2699530089861666e-001, -1.2555158632420138e-001,
          2.7372684390556890e-001, 1.9906369274595065e-001,
          -4.4459695060260984e-001, 1.2185887093740939e-001,
          -2.7298128121964860e-001, 1.7968180160220898e-001,
          1.2717959793464481e-001, 5.2911558836388617e-001,
          -2.2136818287670085e-001, 7.1049295891078179e-001,
          -1.7898247022076086e-001, 1.9868139825596383e-002,
          -1.3027574756315302e-001, 4.3851312754843413e-001,
          1.7658821946711489e-001, 4.8574176399470183e-002,
          -5.1172479913770708e-001, -5.1509497809307157e-002,
          9.1724867253627607e-002, -6.9910398118383191e-002,
          5.3714870098725842e-001, -2.6155936145946657e-001,
          7.7796574102175192e-002, 5.7568870993447085e-001,
          3.1652558539509651e-001, 1.0608209679085829e+000,
          1.4649417930653866e-001, -5.1832799683212072e-001,
          -3.3331983270001397e-001, -2.3492764339189901e-002,
          2.6464614954271604e-001, -9.4589490225730510e-001,
          -5.1103097153206281e-002, -1.0032123106669179e-001,
          -1.4285185150785379e-001, -2.0389200892734094e-001,
          1.4131401327565105e-001, 1.4803090992746998e-001,
          -3.6218858852486513e-001, -5.0953892438799753e-001,
          3.3320096574966823e-001, -3.2011768902213905e-001,
          -1.4400641925624399e-001, -1.6897339526566896e-001,
          4.2200205164651955e-001, 5.1546318389644004e-003,
          -1.8421674046326514e-001, -1.8461837351999119e-001,
          -1.4255771300753084e-001, 5.2270592664830084e-003,
          1.2818495201335517e-001, -8.5935040006221042e-002,
          7.4162487896374581e-003, -1.2925611377620189e-002,
          -4.5579481691675680e-002, 5.1504375321947543e-002,
          4.4580938123573299e-001, -6.9303469240153209e-002,
          1.3153903966304359e-001, 5.6280849769201335e-002,
          3.9767850206245549e-002, 3.1520631566440926e-001,
          2.5970605276703751e-001, 6.3833160183785209e-002,
          -1.1601151409035101e-001, 8.4330584093509589e-002,
          -7.2279840640624787e-002, 4.3793698350244226e-001,
          1.8805205899330751e-001, -7.3397860011979746e-002,
          -2.0665682897608121e-002, 6.9259206922823627e-002,
          -1.1007435970978990e-001, 1.3090313550956656e-001,
          1.9878922144095673e-001, 1.1685600940166192e-001,
          -3.2330763856320782e-001, -1.0978640751069087e-001,
          1.5035687445130794e-001, -2.0827360469074971e-001,
          8.5500459147007699e-002, 1.9668731067437997e-001,
          -2.9183567352899314e-001, -1.3114590414745836e-001,
          -5.8250689585753558e-002, -4.8361800088886281e-001,
          1.4267454327537354e-001, 6.6368846199710474e-001,
          1.5488862311146741e+000, 4.6695943283238162e-001,
          5.9995222956105786e-002, -3.7072490766613247e-001,
          -3.3565336342836344e-001, 1.3548328134618248e-001,
          3.4040062799882626e-001, 8.7466201607032834e-002,
          -2.4348374103652301e-001, 2.0483150897019106e-001,
          -3.2365171309369317e-001, -3.7059919780460565e-001,
          -1.7303181915911617e-001, -1.1501188130987184e-002,
          1.6780800377045985e-001, 2.2855270641497993e-001,
          5.4978430318060156e-001, -2.7605283667249673e-002,
          -3.0828222234729735e-001, 1.4396818174519033e-001,
          -1.1162602801502514e-001, 4.1677509946916845e-002,
          2.0343901151837768e-001, 2.5507664950059072e-001,
          -1.6460746648880059e-001, -2.0648223160743179e-002,
          -4.4891232346912829e-001, 6.1857241523460546e-002,
          1.7684289685963507e-002, -5.4414406307333213e-002,
          6.6718807003224939e-002, -4.5840627497767700e-001,
          -1.3459185535962572e+000, 1.4165583931575421e-001,
          2.4804074366962756e-001, -2.6502269883979085e-001,
          3.5919682574449752e-001, -4.6748728415256624e-001,
          6.8816623265714327e-001, 1.7612158813241810e-002,
          -2.1086356536206233e-001, -1.4139948491525664e-001,
          -1.3918413907715543e-001, -1.4348799811542642e-001,
          2.2558419967079241e-001, -1.2803451207355490e-001,
          -1.0400056040475958e-001, -1.2123185426076058e-001,
          1.3897013540541642e-001, -3.5549099879250723e-001,
          4.8818490991049256e-002, -3.0842552529151251e-001,
          1.4731356947078189e-001, -2.2564526849108237e-002,
          8.6625718617537831e-002, 6.7309242225601695e-002,
          3.3638676390666317e-001, 6.1055840185945003e-002,
          9.1780361531377502e-002, -4.0153032436850193e-002,
          -1.3927262340340731e-002, -1.0310786346918099e-001,
          -5.8352552686134714e-002, -3.1742098938326430e-001,
          1.2701884083319456e-001, 1.0181043779698354e-001,
          -1.6626402150204597e-002, 4.0656524926024490e-001,
          -4.9112902646970630e-001, 9.2169690068176421e-002,
          -1.9185221270486871e-002, 1.0285633508675651e-001,
          7.1686933695178728e-002, 3.0590152931108167e-001,
          -1.3489050996207841e-001, -8.9241800662826127e-004,
          -7.2690027214987829e-001, 7.7052352733207860e-002,
          4.5173753824774160e-001, 3.1533647472497789e-001,
          -2.4390668898665707e-001, 4.3922418098840282e-001,
          3.5680742843676377e-001, -1.7304077745690958e-002,
          -5.7727703433116700e-002, -3.6387269379910436e-002,
          4.4037571128267707e-002, 4.0382390622168175e-002,
          -3.1488529639126552e-002, 2.0155952247084719e-001,
          -2.3595205183684465e-001, 1.6450302874625997e-001,
          2.0761659955348627e-001, 1.3866699296927482e-001,
          -4.6455137479566860e-001, 3.7755073755317441e-002,
          1.9251603211122009e-001, -6.2243339570707067e-002,
          1.4116762590685138e-003, 4.0394473879730240e-002,
          -8.3392934539223168e-002, 5.7082452578379728e-001,
          1.8801508548749063e-001, 1.4920120263759887e-001,
          2.7605145559867134e-004, 8.9332363904270434e-002,
          -2.4869609203242052e-001, 1.1872733586273269e-001,
          5.6882373047472151e-002, 6.6417080431889153e-002,
          2.2089211068925965e-001, 9.7170577397169097e-002,
          -8.6686467899197719e-002, -1.6064574562684455e-001,
          1.4416827883990105e-001, 4.2898985940240592e-001,
          3.7130142625367138e-002, -7.8367352370043109e-002,
          2.2868981890983672e-001, -1.1968807514108390e-001,
          -1.4599110575970492e-002, 6.2288693257585528e-002,
          2.2100561799609501e-002, 3.9728548494814366e-002,
          -1.1720490827200755e-001, -2.0662235902065864e-002,
          2.1832270390729436e-001, -4.0788195096545625e-002,
          -1.7452570060057698e-001, -8.0533003404235692e-002,
          -9.7901586743162156e-002, 1.6448385414370481e-001,
          1.6703701121602921e-001, -1.5621122659200437e-001,
          -8.3416497941037865e-002, 1.3283492426756774e-001,
          -9.2010544308606224e-002, 1.2975971689386542e-001,
          9.2785046986233050e-002, 1.0306010729459622e-001,
          2.3772310548413433e-001, -3.3735131451787431e-001,
          1.4866754365549473e-001, 5.6558654266777475e-002,
          3.6237943693153724e-001, 2.8442010140221956e-002,
          2.0334269276191166e-001, -2.3998369335710684e-001,
          -5.5707504893348470e-001, -9.2751999087183234e-002,
          2.3128827110470889e-003, -4.5671244155219719e-002,
          5.5350451341101503e-002, 7.8593772558562133e-002,
          -1.5197989646060223e-001, -3.8008974848607296e-002,
          -5.9472641612628392e-002, -1.4240611538626535e-001,
          -2.1349403179485728e-002, -6.0350958441322822e-002,
          9.5496752664784856e-002, 1.9609229187913989e-002,
          -3.1268568797169288e-001, 2.8887619736240655e-001,
          -8.6584213673497071e-002, -1.9002441870994538e-001,
          1.0011768048327942e-001, 1.8588832902294045e-001,
          1.8033569943568434e-001, -4.8549588607734756e-002,
          -6.2302652469941738e-002, -2.6564293525244670e-001,
          -5.4388492950281274e-002, 9.3646007510976778e-002,
          -2.2899681058895768e-001, 4.6868802637420975e-001,
          -6.1586292588836147e-002, -1.8346973301897171e-001,
          -1.4172738205892765e-001, -1.3320528052032665e-002,
          1.4627954196305631e-001, 1.5542131652433938e-001,
          -1.0531516767712409e-001, 1.5930936536262411e-001,
          7.5697133505473748e-004, 1.8936008917898203e-001,
          -1.2673770407706539e-001, -4.6080153694079773e-001,
          1.6244554754757956e-001, 1.0120226138963292e-001,
          1.6063096213266870e-001, 1.2155280584813544e-001,
          4.3093535391786460e-002, 7.5214462671960081e-002,
          7.8911180864430763e-001, 4.9106037012742874e-002,
          3.5976920757760689e-001, -2.6335181091412224e-001,
          -1.2198248247930504e-001, -4.8691976903478912e-001,
          -1.4088359830979899e-001, 2.8339817601232664e-001,
          2.2231105697836315e-001, 2.0519124190268262e-001,
          -7.8156839253775839e-002, -1.7259471503518092e-001,
          3.2062417618205880e-001, -7.0946151145957204e-002,
          2.5847075536667619e-001, -1.4505710380689632e-001,
          -5.5184987315955905e-002, -1.8316255713977508e-001,
          -3.2540011756708226e-001, -4.5095791723575217e-002,
          1.8128009667635891e-001, -9.0760652028940597e-002,
          -3.0189843051453957e-001, -2.1683276397046503e-001,
          9.8809535169864071e-002, -7.1684264041518703e-002,
          -1.5041605725658325e-001, 6.3710290674720915e-001,
          -6.4164861980804178e-001, -2.1646254813399843e-001,
          1.3593441978717216e-001, 1.7309761115684352e-001,
          -5.3176937546773406e-001, -3.5414121344050464e-001,
          -5.3578685845220342e-001, 2.6156051343215236e-001,
          7.8323619979179762e-002, 1.8960798463582507e-001,
          4.9918417285089493e-002, -3.1753584210658592e-001,
          -1.9870248740399757e-001, -1.4667273403608891e-001,
          3.4541130108947526e-001, 2.0343844055820776e-001,
          -5.2925270973510123e-002, 2.0761559652631770e-001,
          -3.8843536079797880e-001, -3.4950928565037653e-001,
          -1.1634237042578682e-001, -2.3802377322523310e-001,
          -1.3225339758389792e-001, 9.6785263478937900e-002,
          2.2919962508387642e-001, -1.8350314953040400e-001,
          -3.4062176563079427e-001, -2.9414652910513261e-001,
          2.2792116341912613e-001, 1.6835866504064761e-001,
          4.2505846765370875e-001, -2.2255225668928219e-001,
          -3.9082523218390924e-001, 5.5022840620066438e-001,
          -1.7627644226807518e-001, 4.0185659409247582e-003,
          1.3499183761465222e-001, 1.6612370698306712e-002,
          7.5443129733423453e-001, 5.1721209596255968e-001,
          -4.3534366202248015e-001, 1.3425280691627189e-001,
          2.3614691704111707e-001, 3.9325681402818979e-001,
          4.1452259848247569e-001, -4.9342981391102803e-001,
          3.0990611294915071e-001, 8.1169945614579034e-002,
          -8.0641472745175136e-002, -1.1711677127929404e-001,
          3.8434738106294625e-001, 2.8848887795061534e-001,
          3.6781715997934099e-003, 5.5129529170644599e-002,
          4.8695728952244055e-001, 3.6653432961815841e-001,
          -4.6271749120791617e-001, 2.2551571378964363e-001,
          8.0305146894239676e-002, 8.6395769881130208e-002,
          -4.4097300855259647e-001, 1.3098476915165812e-002,
          -3.3673391933502522e-001, -2.1233032996732629e-001,
          1.4903778428436695e-001, 2.9697467356930796e-001,
          -7.0219940526520641e-002, 1.5897916979177873e-001,
          9.2808013381163734e-003, 2.9603659427419332e-001,
          -2.1113225972757543e-001, 1.4365747191091544e-001,
          -2.2659918831621884e-001, -1.5471065448109163e-002,
          -2.4833471205583973e-001, -7.3854094514897231e-002,
          -9.7638219262878123e-001, 5.3179007354270363e-002,
          4.0037566470867392e-001, 7.9659952270327346e-003,
          5.0689763669539545e-001, 2.0323253156913655e-002,
          1.0013638269098589e-001, 3.2370166393261207e-001,
          9.8075904666195188e-003, -1.0591951474156641e-001,
          4.5095869430643054e-001, -1.8197200546043560e-001,
          -2.0842359932799737e-001, -4.2782568269059063e-001,
          3.2199423786520347e-002, -2.2693472178006144e-002,
          2.0735296952074056e-001, 3.7320257810687524e-001,
          9.1011173835211304e-002, 2.6245372193713756e-001,
          5.7128782505710379e-002, -1.3761402949539578e-001,
          2.0845420946401588e-001, -7.2790778972065484e-002,
          -1.3094906228869069e-001, 9.8496033901385477e-002,
          4.5280390070218374e-001, 3.5317252832876916e-001,
          -2.9626811426989147e-001, 6.6040340865512637e-002,
          1.3948455247267830e-001, -9.5621899462199664e-002,
          -5.0730560601679534e-002, -1.9672841228660181e-002,
          -2.3792314861441191e-001, -6.4250570763429493e-002,
          -2.5095195784837665e-001, 4.4821703621722352e-002,
          -1.0152580226913391e-001, 2.9573040523404692e-001,
          1.5811510160255351e-001, -3.5291465672757438e-001,
          -3.6609718253836099e-001, -1.3366994123463205e-001,
          2.4507553548327557e-001, -5.4564277925378442e-002,
          -2.9730140532613608e-001, 3.1563386697452200e-001,
          -3.9864019476663493e-001, -2.9328826494844824e-002,
          -3.4204922141794442e-001, 1.8719262652266760e-001,
          9.1927896696086409e-001, -3.6228162686507309e-001,
          -1.2563990900600466e-001, 4.1968651360650089e-002,
          6.0256259983646310e-002, 4.2765971308558498e-002,
          2.3948679721216792e-001, 1.9150035913539232e-001,
          -1.1624161879235201e-001, -9.7907856124742187e-001,
          2.5245917281685304e-001, 8.0093605098722076e-001,
          -7.7513752847242157e-002, -1.0461482051521270e-001,
          -3.7112613787217676e-002, 3.5207087608179882e-001,
          5.5062908443687264e-001, -4.5886180178394309e-001,
          -2.9864207423292360e-001, -8.0238409958157675e-001,
          8.5286452945660590e-002, 3.3259209497775066e-001,
          7.5021761600495618e-001, 2.3143303061080839e-002,
          -1.8841395570128400e-001, -4.3720466666929181e-001,
          1.2143163116703733e-001, -7.2426666528376860e-001,
          6.5354125994313306e-001, 2.7709020571849785e-001,
          3.0952860365198270e-001, -2.3345293598404523e-001,
          3.0661888864146075e-001, -1.3041756661226919e-001,
          -1.2606298858739073e-001, -8.1081709032611887e-002,
          4.1939059359469860e-001, 3.8725021997700265e-001,
          -1.0176492178506645e-001, 1.1608124957477078e-001,
          -1.4864819867339571e-001, 3.9679003844191756e-002,
          5.2353727147615700e-002, -5.0064996525116520e-002,
          6.8950648801564363e-001, 2.9124953775459889e-001,
          -9.7310628173835290e-002, 2.5095034791817161e-001,
          -8.7760097875808768e-002, 1.4081378817826287e-001,
          7.4880931160785735e-001, -4.8488599098767328e-002,
          -3.8279941679091661e-001, 2.5612657255278987e-001,
          -3.9032163066392339e-001, 2.2536649066303682e-001,
          -2.0452367420080314e-001, 9.0093249279265722e-002,
          3.5066967212025091e-001, 1.3398973235141085e-001,
          -1.1639450624999151e-001, 3.6233837027014626e-001,
          -2.5394706663220545e-001, -1.5519954805744085e-001,
          4.1023306876491666e-001, -3.3999995187671717e-002,
          1.7424828494533157e-001, -2.7814424366569340e-001,
          8.9102311051193636e-002, 4.1087862528865204e-002,
          -3.3595035862566826e-002, 2.6080483144198086e-001,
          8.7761100526482311e-002, -2.4594595164125407e-001,
          2.9799782959549177e-002, 2.7409835355302437e-002,
          -1.4833867585024628e-002, 2.3470421961667531e-001,
          -3.0387464955528209e-001, -3.5340535190297823e-001,
          -1.0390371710106619e-001, 1.3831064577015392e-001,
          1.8375688562669781e-001, 9.1913413990605819e-002,
          -6.5573531354920375e-002, -9.6554905107417793e-002,
          1.1034370313393536e-001, 1.1559381249007995e-001,
          1.0007418509159444e-001, -8.2072059153619731e-002,
          1.3422995091794251e-001, 5.0628596676091688e-002,
          5.8649114487726674e-002, 1.5630710599402811e-001,
          1.3264226150795833e-001, -3.8902687972863087e-002,
          1.0373205833475632e-001, -5.2787584448335401e-001,
          4.1191816892900846e-003, -6.7812466579477149e-002,
          -1.8806527380902743e-001, 6.8209032732712893e-002,
          5.9586245064529329e-002, -1.2782977237217732e-001,
          2.0760462126948520e-001, -5.9791528462040455e-001,
          -8.2964478251287643e-001, -2.7342292025648962e-001,
          5.7698188188243882e-001, -3.9770524119976686e-001,
          -3.5947329163205671e-001, -9.0145402871656688e-001,
          8.1140635608950684e-002, 1.0198683111461926e+000,
          -5.7808495976920671e-001, -3.2037744915046801e-001,
          -1.3086031963251310e-002, -8.9820257411146232e-001,
          2.3643674760783887e-001, 2.5966016637697498e-001,
          -4.1870172403015365e-001, -8.6066760350315408e-002,
          -4.3713347531309893e-001, 2.3543130535568935e-002,
          8.1047374936909800e-001, -2.1109854884625542e-001,
          6.3501867485061558e-001, -3.1885271460621639e-001,
          -1.1259217638415040e+000, -2.8572428379504422e-001,
          7.9018214466813577e-002, 4.4021706072000105e-001,
          -1.7086424358342620e-001, 3.2252378414333238e-001,
          -4.8889193883333804e-001, 2.6011285649345472e-001,
          -1.9949087614240782e-001, -1.6303144276387967e-002,
          -2.5796675964224382e-003, 3.5696735654854130e-002,
          -3.8210226868174613e-001, 6.1972630652443676e-002,
          2.8678546750163453e-001, 7.1846620517250182e-001,
          -3.2825423063890713e-001, 3.1614359762779393e-001,
          3.9692594505814993e-001, -1.8566964698006982e-001,
          9.5795150649386240e-001, 3.8014296061074676e-001,
          -8.7688808553467112e-001, -4.9986036255317046e-001,
          3.7273161086117768e-001, 4.7020511082889530e-002,
          3.5093911716590404e-001, -3.1158496229997062e-001,
          1.8316001434729054e-001, -5.1079029215602624e-002,
          -3.2038329084250855e-001, 5.9363104010441570e-001,
          -3.1764654989888930e-001, -2.2610550244586142e-001,
          -2.3915392705118568e-001, -1.5593337265062387e-001,
          -1.9406787493610217e-001, -2.5683267545711191e-001,
          -2.1350627743259284e-001, 1.5554913611821872e-001,
          -2.2232694447632781e-001, 4.9146167482422687e-001,
          2.0814736733718170e-001, 3.7653105309025818e-002,
          5.2555410004091807e-001, 5.9765989653444540e-002,
          -4.4473836132173145e-001, -1.2019951577569492e-003,
          -2.7301084075636017e-001, -1.4857635062408589e-001,
          -2.8179587295670583e-001, 1.6622237945277296e-001,
          5.3841432297492497e-002, -1.1113986011902979e+000,
          1.3192233287222166e-001, 1.4810490106641530e-001,
          3.4039595223110108e-001, 2.7292693539210028e-001,
          -3.1365436435780669e-001, 3.6512431188650446e-001,
          3.4211050926663622e-001, -1.4428483579455573e-001,
          -3.9909610635735232e-001, -4.6032366658817803e-001,
          -9.6653240742812126e-003, -1.7648205566998407e-001,
          -1.6350791191978795e-001, 1.0205119308373924e-001,
          -5.1288989751713154e-001, -5.1093925157613873e-001,
          -7.6658890132644958e-002, 7.1238202490054329e-003,
          -1.4316709442332756e-001, 1.4505145705754485e-001,
          1.0332843306257342e-001, -9.6740385510409505e-002,
          -1.5425852590178568e-001, 1.3883038498788603e-002,
          1.8547762671621670e-001, 2.4142769587284441e-001,
          -1.0951257696644169e-001, -4.1147184445777515e-002,
          -5.6734010242687281e-002, -1.7074880595367181e-001,
          -2.4421588461808037e-002, 1.9117341008124811e-001,
          -8.0184036039837231e-002, 3.8799698362311272e-002,
          1.0863543726373328e-002, -4.8510397550770447e-002,
          -7.7326502148885354e-002, 1.7810464369115331e-001,
          5.7013700475213328e-002, 1.1234982689819006e-001,
          -1.3408563665217102e-001, -1.3767848370533756e-001,
          2.3291077532219795e-001, 1.1378524881217610e-001,
          7.1217145336031448e-002, -6.8872778457014949e-002,
          -5.6663150422454907e-002, 7.4147588288947144e-002,
          6.5672789765902753e-002, 9.4067844755236663e-002,
          6.7150588347321086e-002, 6.8038381115337054e-002,
          5.9568076275899176e-002, -1.0510916776058995e-002,
          -7.0684669759578678e-001, -4.5671914751283776e-001,
          2.6364033775738822e-002, -1.5996970382048059e-001,
          1.4697020928087615e-002, -2.2300140670263355e-002,
          1.5572272087609490e-001, 1.9505255350577866e-001,
          -2.0762348012962089e+000, -7.0341824279033094e-001,
          3.8105435440671642e-001, -1.2902498265404465e+000,
          -2.8588521919483784e-001, -1.5770926002552856e+000,
          -2.7707101955586144e-001, -5.2666940360134218e-001,
          -1.2768764634816394e+000, -5.9340818963262865e-001,
          1.1097556682290214e-002, -1.5484124462883302e+000,
          9.2755407097995443e-002, -1.9149521560148458e-001,
          -6.4457242959813843e-001, -7.8988154330777260e-001,
          1.3664977213140008e+000, -9.8560843731323358e-002,
          1.1888697477937140e+000, 6.1799577830359176e-001,
          1.1871341027202713e+000, 8.9496221711961965e-001,
          -7.0937177741872082e-001, 5.3272192000000007e-001,
          5.0224719857622957e-001, 1.7584255728760245e-001,
          -8.1322101278004377e-001, 1.2677179900641857e+000,
          7.7805303636411760e-001, 7.8535933292594368e-002,
          -3.1083716824801227e-001, 2.2700648298802930e+000,
          -4.6783602967763271e-001, 1.4165937009730991e+000,
          1.6927029827103579e-001, 3.4037423631388020e+000,
          9.3066667218743049e-001, -7.7691865099083091e-001,
          -1.2617294041437142e+000, 1.4286616283966962e+000,
          1.2643884709822741e+000, 7.1728589850889246e-001,
          8.1251308543400413e-001, -8.3877831224933186e-001,
          -7.3923729352113565e-001, -4.6976290115433672e-001 ]
      - [ -5.9000274108311546e-001, 8.4512496784597646e-001,
          3.6950744805908192e-001, -2.0542066403508780e-001,
          -2.9055926366150381e-001, -9.3684233130216621e-002,
          2.8660314530390404e-002, -4.9911844520183374e-001,
          7.2197738288247570e-001, 1.9698726353794338e-001,
          3.4088592605590823e-001, 2.1305618736819620e-001,
          2.9446422343282025e-001, -5.4917502326026579e-001,
          -6.0577853846549989e-001, -5.5621552559113496e-001,
          1.0112555739358067e+000, -7.0054326231405128e-001,
          1.9802590313887597e-001, 1.5051179055497052e-001,
          -1.4192296107458868e-001, 7.0708347283303719e-001,
          -1.7701557246176527e-001, -2.5759337925059722e-001,
          -4.4533454542309003e-002, -3.4174475119969250e-001,
          1.7522050488079888e+000, 3.0417574312563050e-001,
          2.5755429879732605e-001, 2.8690437087460768e-001,
          7.8810264630817051e-001, 2.8517040890621176e-001,
          8.5976967156230710e-002, 2.8718626083403220e-001,
          -9.9687227559134339e-001, 4.8024179879242179e-001,
          5.9295889038736083e-001, 7.2567391108162745e-003,
          -1.2209990500211711e-002, -1.2112777276530862e-001,
          -2.9190892857015133e-001, 4.4076882624901526e-001,
          6.7944700603626829e-001, 5.5013214187515913e-001,
          -1.3622628507971768e-001, -7.0514037375244376e-001,
          5.5697665567040444e-001, 2.2910071569807650e-001,
          3.6422199552698070e-001, 9.1007829694747910e-002,
          -2.9053889458665250e-001, -1.6399390141069885e-002,
          -7.5096520572125969e-001, 1.6514347425891088e-001,
          9.6346340682172849e-002, -8.1167735430674556e-002,
          5.2413944877992191e-001, 2.6761415631958846e-001,
          2.2044939857023954e-001, -4.1483160982346529e-001,
          1.2200316172765544e-002, -5.5630153677165506e-001,
          2.9390128565981916e-001, 2.3200081624121072e-001,
          -5.1332364534288688e-002, 6.4869594502858688e-002,
          -8.0021815089695424e-003, -9.0404363658058340e-001,
          1.1212599233090996e+000, -5.1422808633372208e-001,
          -4.4022666025806068e-001, -2.9368886295706043e-001,
          9.8997249013093647e-001, 8.1619611363677302e-001,
          5.0651282834753386e-001, -1.0158577241212134e-002,
