%YAML:1.0
my_nn: !!opencv-ml-ann-mlp
   layer_sizes: !!opencv-matrix
      rows: 1
      cols: 3
      dt: i
      data: [ 45, 33, 5 ]
   activation_function: SIGMOID_SYM
   f_param1: 1.
   f_param2: 1.
   min_val: -9.4999999999999996e-001
   max_val: 9.4999999999999996e-001
   min_val1: -9.7999999999999998e-001
   max_val1: 9.7999999999999998e-001
   training_params:
      train_method: RPROP
      dw0: 1.0000000000000001e-001
      dw_plus: 1.2000000000000000e+000
      dw_minus: 5.0000000000000000e-001
      dw_min: 1.1920928955078125e-007
      dw_max: 50.
      term_criteria: { epsilon:9.9999997764825821e-003, iterations:1000 }
   input_scale: [ 1.8467979651790795e-001, -9.9973929000981254e-001,
       2.4550971381026704e-001, 8.5548063454003032e-001,
       3.8992097661606967e-001, -1.1049407517742829e+000,
       2.3792825976737719e-001, -4.8140457150098254e-001,
       5.0701210622909376e-001, -1.3672329891721671e-001,
       5.1357688460779582e-001, -1.0585319820191443e+000,
       3.4919340204219057e-001, -8.5199827515294702e-001,
       5.6666506552183882e-001, -7.5585299180808585e-001,
       5.0772896850879368e-001, -1.3623974996467908e-001,
       3.2513958773195067e-001, 1.4922886288298434e-001,
       6.4226539252451820e-001, 1.1949345135743024e+000,
       5.7744632638349214e-001, -1.4976321784773376e+000,
       4.2902962495933333e-001, -4.7609944484858308e-002,
       4.7722589747586602e-001, -8.0727034491826788e-001,
       7.7523612882059179e-001, -5.6721303663611955e-001,
       8.2695238398984783e-001, 1.5032374028883722e+000,
       5.4484043018009121e-001, -1.6181482246119940e+000,
       9.0563327196817534e-001, -9.4155797872110189e-002,
       5.4647345591676377e-001, 1.5477507238342183e+000,
       8.3197165384548466e-001, -8.5182337447728362e-001,
       5.0324931593289368e-001, 3.1828743305794921e-001,
       7.9644801078721361e-001, -3.9250622239202970e-001,
       6.5819404469842435e-001, 9.5334305695692623e-003,
       8.5295629513102222e-001, -6.1537322571708929e-002,
       1.3990082246447126e+000, -1.1920653143198122e-001,
       9.8558828852208258e-001, -1.1922780024923780e+000,
       1.0701826010947779e+000, -1.1681184332247923e+000,
       6.0003403355082563e-001, 3.5960666840799688e-001,
       9.7319141711909751e-001, -1.6264027197275064e+000,
       8.5841079573733481e-001, -1.1165363671380542e+000,
       1.0457379836161622e+000, -1.1306352783128151e+000,
       1.1147715850126880e+000, 1.1630808669144681e+000,
       8.7293918433468198e-001, -4.4234346934115559e-001,
       9.9296763147153111e-001, 3.7284148348095364e-001,
       9.0274689069099379e-001, 6.7824654265314965e-001,
       1.0979848127299310e+000, 7.9433831275233235e-001,
       1.1601194875770480e+000, -5.8151227480209755e-001,
       1.1587513952519477e+000, 3.5541082684423395e-002,
       1.4163119479865585e+000, 7.8098951763489088e-001,
       1.2198669186050715e+000, -9.5062310599344846e-001,
       9.9610627716993105e-001, -1.5048963938437179e-001,
       1.1491141472453923e+000, -4.8215503808902815e-001,
       1.2104357385937379e+000, -3.1100371382437031e-001,
       1.1541186518465654e+000, -7.0030713904095898e-001,
       1.3652380761369673e+000, -9.8883507628556877e-001 ]
   output_scale: [ 5.2631578947368418e-001, 4.9999999999999994e-001,
       5.2631578947368418e-001, 4.9999999999999994e-001,
       5.2631578947368418e-001, 4.9999999999999994e-001,
       5.2631578947368418e-001, 4.9999999999999994e-001,
       5.2631578947368418e-001, 4.9999999999999994e-001 ]
   inv_output_scale: [ 1.8999999999999999e+000, -9.4999999999999996e-001,
       1.8999999999999999e+000, -9.4999999999999996e-001,
       1.8999999999999999e+000, -9.4999999999999996e-001,
       1.8999999999999999e+000, -9.4999999999999996e-001,
       1.8999999999999999e+000, -9.4999999999999996e-001 ]
   weights:
      - [ -1.0282045765790181e-001, 3.9703028822349856e-002,
          3.9603585994096546e-001, -2.0540420983804716e-001,
          5.1575410060324722e-001, 3.5246328244745773e-001,
          5.9334785326543671e-001, -2.7267360033057092e-001,
          -8.5076371918512483e-001, -1.3069469145980107e-002,
          -4.8140270396689402e-002, 2.0299832494406569e-001,
          3.3024682827286578e-001, -9.3289958475484047e-001,
          -1.5750388381252614e-001, 1.6265109686916298e-002,
          2.0892603878836188e-001, 1.8783527769128450e-001,
          1.6928895986496459e-001, -9.4192471367251701e-002,
          1.8056327302258371e-001, 1.3703524353691157e-001,
          8.6495962064501164e-002, -3.4029878013442788e-001,
          1.1625182991184328e-001, -2.5881165597709965e-001,
          4.3485027933057552e-001, 2.1873819067383565e-001,
          -5.7650228800812164e-001, -2.4253903363366602e-001,
          -7.0000938439640836e-002, -6.2099350272398834e-001,
          7.2125865734362610e-002, 5.6124006312479359e-003,
          -9.0882199036503311e-002, 1.9555541231664256e-001,
          -2.0589990736691460e-001, 1.5864117430160954e-001,
          2.3924659552603592e-001, 1.0617194189542772e-002,
          1.7807724109834344e-001, -2.4290904371989810e-001,
          2.3144032914452181e-001, 4.3587991661276901e-002,
          -6.5570419340712949e-001, -6.0785014204408538e-001,
          -6.6009976762466768e-002, -1.0672349533690177e-001,
          1.1601561552082854e-001, 6.0550265953309139e-002,
          -5.4793903917443779e-002, 1.7909470441665212e-001,
          7.9371490029249436e-001, -9.1410209294213382e-002,
          -4.0904055146139617e-001, -7.6696070713752584e-001,
          7.4596303775241846e-002, 2.2067125138800830e-001,
          -3.3900441562454786e-001, 1.3466225888059102e-001,
          -3.7047357432445133e-001, -3.1303449775582401e-002,
          -9.5417768986819682e-002, 3.3556509342369967e-004,
          -1.8912803744597632e-002, -1.2005827931385359e-001,
          4.9188917820953089e-002, 1.4983178935033106e+000,
          -5.9512617550030211e-001, 2.7725088009056092e-001,
          -2.5292276799244140e-001, -5.2616740083967872e-001,
          -1.8712672701151145e-001, 5.3007799062801189e-003,
          2.0297771207504092e-001, -2.2970141454140072e-002,
          8.5482099146542839e-002, 2.2590479722272450e-003,
          1.6418203026548212e-001, 2.3220486600235829e-001,
          -1.8109710923830366e-001, 1.0346984778314003e-001,
          -1.4816162205945302e-001, -2.0695251403625092e-001,
          -5.1032757630357517e-001, 2.0201401802639818e-001,
          -5.8727802186929509e-002, -2.6392532346713304e-001,
          3.3736618649759685e-003, -1.3296148569529415e-001,
          5.5067952996756507e-003, 2.1117618235479287e-002,
          -2.2035813618250111e-001, 2.1127430072222418e-002,
          -3.2489265992916438e-001, -2.2645883732945463e-002,
          3.7823715737468372e-001, 1.7934666806821503e-001,
          7.4360383346499803e-002, 5.9153867251884873e-002,
          -2.2854046000955766e-001, -1.9411788091551074e-001,
          1.7900471164508324e-003, 6.2733428512162126e-002,
          1.4614100318815709e-001, 3.4279841990981863e-001,
          -4.8698094318805729e-002, 1.2277990015683243e-001,
          -1.0396493897914073e-001, 2.4072261113140606e-002,
          -2.1563160350468424e-001, -2.5230124686048128e-001,
          -8.9031232565312715e-002, -2.8864966692411897e-001,
          6.6688755048820740e-003, 2.0635839135667838e-001,
          5.4742622637805674e-002, -1.3995955827678117e-001,
          2.2374853566680300e-001, -2.0754440775361715e-001,
          -3.5427120162570998e-002, 2.7440375961096067e-002,
          -1.9031500380530003e-001, -2.3448327037512351e-001,
          1.4755500441971664e-001, 5.9372878629248720e-002,
          -2.0032632550408599e-001, 1.4558534650273932e-002,
          -2.5367038559519234e-001, 9.7801033351558841e-001,
          -1.2840596358606319e-002, 1.0483282826512903e-001,
          3.5156334658975233e-002, -9.9663839209643175e-003,
          -1.1559484792779520e+000, -1.2730594201286358e-001,
          2.5090121957091444e-001, 4.7344746652686731e-001,
          9.9775319450289817e-003, 2.3821353642444199e-002,
          6.2596200446585093e-002, 7.5196666041451421e-001,
          -5.7034041349631227e-002, -1.9583836962471149e-001,
          -1.1629118597935546e-001, -1.9340360384905103e-001,
          4.7252155158429315e-002, 2.9264003656747856e-001,
          -5.5533779938083516e-001, 1.5491800041590742e-001,
          4.1487527798477628e-002, 2.7445302056047238e-001,
          -1.2011532194285894e-001, -3.8034616249311773e-002,
          -6.3013031713552214e-001, 1.0486596018039261e-001,
          5.8791175404159977e-002, -3.1591012347572978e-001,
          -1.9138150351991843e+000, -2.9500210611545552e-001,
          -1.3185391934565083e-001, -1.9957702132435939e-001,
          8.4897000284458110e-002, -4.7997913742862219e-001,
          -2.2439493801113730e-001, 7.8892343325006242e-001,
          -1.0032316499823364e-002, 7.7793572430465099e-002,
          9.5357718186417847e-002, 3.8990883738955495e-001,
          -1.9552421488895802e-001, 1.3197227594786187e-001,
          6.9154911363563040e-002, -6.1671672881252942e-002,
          1.2166718325810275e-001, -1.8433323389655815e-001,
          -1.5408434356496847e-001, -1.2128110892689696e-001,
          -2.9611652599189109e-001, -1.2534208536746305e-001,
          2.3040117251054218e-001, 3.8126798459534855e-001,
          -4.3328527759261826e-001, 4.8093589149593073e-002,
          9.9816550467136389e-002, -5.2161476526164752e-001,
          -1.6387605217920649e+000, -1.4817995808383219e-001,
          -1.8578603372813948e-001, -4.2015035416142876e-002,
          -1.7177542454472564e-001, -1.2805048673290648e-001,
          -1.5157382345028486e-001, -6.5696155255975863e-001,
          -2.6222793731809496e-001, 1.0321211927401544e-001,
          5.7614055649221708e-002, 1.2640744750108768e-001,
          2.8020062384584460e-001, -4.6874635608858461e-001,
          -7.7391877247354759e-002, -1.9987758244315137e-001,
          -6.3016657554172550e-001, -4.2691933727674700e-002,
          -1.3162375427546327e-001, -6.2306154203047260e-003,
          1.4424703808970468e-001, -2.6255264769493791e-001,
          -8.4879744722278516e-001, 1.4761737307280962e-001,
          1.7179603467011889e-001, 5.7474829975599895e-001,
          -2.1391129519826202e-001, -3.6234686050963133e-001,
          -2.0386171669918102e-001, -1.2028877142490364e-001,
          6.8960580772489080e-002, 4.0100652220181172e-002,
          -1.8858580371251246e-001, -1.0207896122262511e-001,
          -1.7768984236128538e-001, 2.0744467755115664e-001,
          9.8903323661513332e-001, 3.7123772198494698e-001,
          -7.4889973074464808e-002, 5.8386492401860841e-002,
          6.2707393251411703e-001, 1.7571946666472932e-001,
          -6.6324962769745166e-001, -3.7432465061826503e-001,
          4.8153351990868565e-001, 3.0474994229276298e-001,
          2.5046013110449161e+000, -9.2723784140094426e-002,
          2.1422763577982365e-001, -9.2111181770607481e-002,
          5.2258820731215128e-001, -1.5833093452451348e+000,
          -1.9458321415590531e-002, 4.7685158246636222e-001,
          5.3032166490321342e-001, -3.4241134623617397e-001,
          2.9130420836484927e-001, 2.9825145089958421e-001,
          4.5992408594807221e-001, 4.7555766449990444e-001,
          -8.3065864103723142e-001, -4.1913379600896239e-001,
          6.5676291366791084e-001, 3.1892238163471229e-003,
          3.0082752543009385e-002, -4.2627287150272489e-002,
          -6.0284444462999209e-001, 2.1145754315806187e-001,
          5.4984462539218792e-001, 6.3707406485707530e-001,
          3.0066878246487828e-002, -7.1479035001298416e-002,
          1.7083828277487834e-001, -4.1252862968911785e-002,
          5.8354648290222122e-001, -1.7318173596234421e-001,
          2.0987887148152997e+000, -3.0142650883132482e-001,
          -1.1030852045675477e-001, -8.9585248261827705e-002,
          1.9837875995413201e-002, -6.9879108153736116e-002,
          7.1646348122852321e-001, 2.8256502422510688e-001,
          3.0993240320434271e-002, -3.8101347112839155e-002,
          -1.5837008264578253e-001, 3.8478528008004548e-001,
          8.1366411443589315e-001, 4.2006317624150066e-002,
          -9.6186205747744891e-002, -1.5739997266565572e-001,
          -5.2056585535037669e-002, 5.0284015562032866e-002,
          3.3925131685056821e-002, 1.0118395573968326e+000,
          2.0637929239607875e-001, -7.5329257057158691e-002,
          1.2571801621236581e-001, 3.2138163578955958e-001,
          9.3548402503340941e-002, -4.9793122359658791e-002,
          -9.5536517248851510e-002, -6.3004988491112010e-002,
          6.0048654114752686e-002, 8.2885735984829206e-002,
          -1.1459503802584439e-001, -1.9602927606713873e-002,
          1.0245773347337687e-001, -9.2102008348368875e-002,
          5.3298142925714542e-001, 2.4568927733236063e-002,
          -2.5036991482013871e-001, -6.2104831527915079e-003,
          2.7243890128468923e-001, -3.0975551848584169e-002,
          1.1555606774329732e-001, 4.2766644218186417e-001,
          1.0066567421160473e-001, 1.1009680889578101e-001,
          -2.2505445447190392e-001, 8.7653865239849652e-002,
          -2.4728795154368410e-001, -2.6869386014984414e-001,
          -3.7875548902150252e-002, 9.1802485138055043e-002,
          7.1830308952207156e-002, 2.9126383063201455e-001,
          -2.7853113147084718e-002, 5.6744251350193967e-002,
          2.3197036221362599e-001, -2.0656546096878814e-001,
          3.4463771286358406e-002, 2.0528727741269313e-002,
          2.7333332245398193e-002, -2.6552712655755395e-001,
          6.0273234714016709e-002, 2.4589969120953920e-003,
          6.1786169177553064e-002, 1.7571315385413396e-002,
          -2.6232842871808149e-001, 1.9349679407976925e-002,
          4.6898974188603710e-003, -7.0508193831142751e-001,
          3.8182845739238129e-002, 1.3201396961289271e-002,
          -1.9767230721677331e-001, 6.0762813893194136e-002,
          4.3955764012007675e-001, 2.2072856457782036e-001,
          -1.1654669837467270e-001, 7.6142305421947498e-001,
          1.0496137933058287e-001, 3.7409617709091886e-001,
          -4.4799916971123233e-001, -8.3688359001063850e-001,
          -2.9803149300270903e-002, -2.4737530113815653e-001,
          -1.9337276062996805e-001, 8.1990862101713857e-002,
          2.5234081581570555e-001, -8.2161525176348338e-002,
          1.8595083199429853e-002, 1.0883893442382724e+000,
          1.3997506829765927e-001, 1.9406178147431830e-001,
          -4.8349649805953443e-001, -2.7413628267578155e-001,
          -6.1496922882534187e-002, -2.4749496907981527e-001,
          -1.4814586959811113e-001, -3.3867824271880076e-001,
          -5.6508806627692065e-001, -5.9068488979878864e-001,
          1.8288215204324293e-001, 1.9608039858283510e+000,
          -1.6165396259265741e-001, -9.9673544723112295e-001,
          1.9860381961463419e-001, 2.7284561710507010e-001,
          2.1540815172303890e-001, -5.8305619048214630e-001,
          -2.5835587788904274e-001, 1.9412331192723207e-002,
          -3.7412716709622568e-001, 4.1565145699549860e-002,
          -9.4660376785211942e-002, 3.3239455743334001e-001,
          1.7017918104528826e+000, 3.1368899321905386e-001,
          1.1085694896181272e-001, 3.6129883701731852e-001,
          -8.9552250983689063e-001, -6.1815066177905942e-001,
          7.5794792466719207e-001, 9.3839637693948520e-003,
          -1.4597051633643525e+000, 4.3597565501591690e-001,
          1.7572592972522333e-001, 7.3168204114044564e-003,
          2.1519674095444974e-001, 2.5776616832528554e-001,
          1.4190821419996951e+000, 4.1435933488796750e-001,
          2.7171958417668968e-001, -2.1806572704352389e-001,
          -3.4507441325909452e-002, -5.1858742087302245e-001,
          4.8020449818437339e-002, 2.0094605234323112e-001,
          1.9327525470523385e-001, -4.7809493057848712e-001,
          6.2471317710484198e-002, 6.1459087429724509e-002,
          -1.6926977314533528e-001, -3.4991529665998666e-001,
          5.6999186795087609e-001, -2.9451989706117374e-002,
          -1.2384998090221713e-001, 3.5890186061114082e-001,
          4.1598101893183653e-001, 5.3215222845679658e-002,
          -8.4172399657917096e-001, 1.5201312901482888e-001,
          3.2833882877004422e-002, -9.6216182024776734e-002,
          3.5946014125302034e-001, -4.7017245270030150e-001,
          -3.8971939927748903e-002, -6.8014837662166172e-001,
          -3.7165970071382204e-001, -5.6292854632185182e-002,
          9.4736632741510077e-002, -3.7806210141105517e-001,
          -9.1872857842679276e-002, -5.9722289265984836e-002,
          2.4420166915788397e-002, -8.0165376553127915e-002,
          2.0219363802431936e-001, -8.7389238366386832e-002,
          2.5963905603978345e-003, -9.3623928343238030e-002,
          1.0358880463653446e-001, 1.3177692055358192e-001,
          5.4238572514127481e-001, -6.1247356276332010e-001,
          4.2430094902833443e-001, -1.4622528278379407e-001,
          -1.6595054740451184e-001, -4.5608547685879625e-001,
          2.5071872043238987e-002, 4.5794677359118505e-002,
          6.6662683973163250e-001, -8.6485585073496254e-002,
          3.5433167018842027e-001, 2.9764568521241158e-001,
          5.8171877677825626e-002, -5.1308583478596154e-002,
          -5.4597225512390598e-003, -3.5455561910112576e-001,
          -1.3073835301664324e-001, 1.1639685358001113e-001,
          2.1094263553722375e-001, 8.0834263731362037e-003,
          -3.0585506905175096e-003, 5.7061453084514835e-001,
          4.4951039924753211e-001, -2.6395985302605446e-001,
          8.7400784572148910e-003, -5.0803475190741054e-001,
          4.5905318256358096e-001, -4.5844578437344952e-001,
          3.1419856084759601e-001, -5.0039784170499278e-002,
          -1.1232210283915350e-001, 1.9042320313273781e-001,
          3.5758821046098371e-002, -2.2947826916443748e-001,
          -2.1641326027060631e-001, -3.9337906373802210e-002,
          -5.7340140705890635e-002, -3.1485408933050518e-001,
          2.5518474774070793e-001, -3.3135896889690515e-003,
          2.4619256305037121e-001, -1.9815117999224902e-001,
          -1.2707558545240738e-001, -1.3507612751852294e-001,
          -2.6578728274204722e-001, 1.9111083779733476e-001,
          -2.9896305024223219e-001, -1.6526675769368941e-002,
          3.6305875984172720e-001, -4.5148777763494158e-003,
          -4.1114061262687862e-001, 1.5549542018257501e-001,
          -9.3811733175251544e-002, 1.5750610886246352e-001,
          -8.9424036294087367e-005, 6.2911064881438772e-002,
          4.5006639630327430e-002, 7.4316425793506391e-002,
          2.2574889709920146e-001, 5.0567319233792651e-001,
          2.0891378570543281e-001, 4.2731423214398906e-002,
          1.3806006424944037e-002, -7.4860066983740914e-001,
          -4.5875628972888144e-001, -2.7553276980786490e-001,
          5.8043821774748761e-001, 5.7695629896829130e-002,
          -4.3009125150056914e-002, -2.1726425460723131e-001,
          1.5841398999020440e-001, -2.1056107166684587e-001,
          5.4101313868581902e-001, 1.8567678646587965e-001,
          5.6850406270805842e-004, 1.6775024332129793e-001,
          3.9996495328336468e-001, 1.6358649383152557e-001,
          4.1899681042777853e-001, 1.4607635558734433e-001,
          -1.4741006914271299e-001, -1.1607246306819152e-001,
          2.0684404427329564e-001, -5.3216750822526734e-002,
          -2.1090794174174482e-001, 8.8281325429690571e-001,
          9.8757826327059525e-002, -1.2126394053918953e-001,
          7.6657339221155127e-002, -6.7318682557567538e-002,
          1.8713861095816349e+000, 3.5835654069238651e-002,
          1.7848120328567624e-001, 3.8521882676179453e-001,
          7.1699881140529287e-001, -1.7733792317000308e-001,
          2.0491267393742016e-001, -7.6510509832209870e+000,
          1.7030246449838576e-001, -1.8168848371811039e-001,
          -6.8182365838271114e-002, -8.8517297810428192e-002,
          -3.8725939831427436e-001, -1.3332990837514319e-001,
          -1.8691843245487277e-001, 2.1760506028938087e-001,
          -1.6300690689817467e-002, 7.4594704131530553e-003,
          2.3552680545860565e-002, 3.7615033259707428e-002,
          -1.5643509949630802e-001, 1.6941070848701179e-001,
          9.2863203282707710e-002, -1.2038809511810034e-001,
          -2.9050180671887726e-001, -4.4719748060692441e-002,
          -1.1195009897814991e-001, -1.2099012781178661e-001,
          -5.8246806723785245e-002, -1.7978661931448711e-001,
          2.2563901581435133e-002, -7.1667696788558444e-002,
          6.3350919770543107e-002, 8.7963102213454297e-002,
          -7.5876944026795658e-003, 1.1376265828209196e-001,
          2.1990561290950789e-001, 1.6900587686117410e-001,
          -2.6473241800539241e-002, 7.6919045412467246e-002,
          -2.3766880462546205e-001, 1.5482545794343894e-001,
          -8.7584459418237326e-001, -2.7976502368532642e-002,
          -2.0090938356915058e+000, -9.6696527904549223e-001,
          4.0314266884961975e-001, 1.0156010758367615e+000,
          -1.0753185431708799e-002, 1.8118881360113678e-002,
          -3.5811323733486272e-001, -1.0947756904161421e-001,
          -1.3862423693812170e-001, 1.5781464419117147e-001,
          -8.4396825556650196e-003, 1.4386570562557828e+000,
          -5.5977903735912182e-001, 1.7418095167964484e-001,
          -1.5303954143924153e-001, 7.0087127836333574e-001,
          6.0037223162667019e-002, 1.1382345037784167e-001,
          1.1743717937968847e+000, 9.9207315042330302e-001,
          -8.6589577665023107e-002, 5.8104836205319321e-001,
          1.0023969643829782e-001, 5.1390457475438259e-002,
          -4.1876847740621920e-002, 4.9817494437431031e-001,
          2.9239803603851422e-001, 1.7210180398773542e-001,
          -2.0727433360152672e-001, 9.6788317838893467e-002,
          -2.8009632740083612e-001, -5.9615490754174416e-001,
          1.7905150679439436e-001, -9.3033214636251738e-001,
          -7.7022053126404311e-002, 7.3194688227572316e-002,
          3.0144317937995568e-001, -6.1848042074982658e-002,
          -4.6317088411484875e-001, -1.4376708356485526e-001,
          3.4113433071942700e-002, -5.1722215992210781e-002,
          3.8834584898083044e-002, 6.4357786584148524e-001,
          1.4771346215131884e-001, -6.5923740978448733e-002,
          -8.0658094779986284e-002, 1.7640979828106668e-001,
          3.3012402333457125e-001, -3.2283374654997848e-001,
          6.4950853743289572e-002, 3.7136176451206471e-001,
          -1.2797540689548390e-001, 6.9681167507050656e-001,
          2.2854375963724655e-001, 7.4662707459726918e-002,
          2.7304669019090860e-001, -2.0670463336064782e-001,
          1.1929796650973939e-002, -8.9315129708845739e-002,
          2.1384322159258957e-002, -8.8249693402050444e-001,
          2.5945658515156311e-001, 3.3369848999686003e+000,
          -1.7440460288472273e-001, -1.1723168644048680e-002,
          4.7271975069077005e-001, 5.2501669968389023e-002,
          2.2819009793008882e-001, 1.3406576608758275e-001,
          2.2660966354264431e+000, 1.6138615573318338e-001,
          5.3169441121835692e-001, 3.6159374697610804e-002,
          -9.7074747656735932e-002, -3.2252086772631097e-002,
          2.6292213031168946e-003, 3.1498378710326780e-001,
          8.6976264768523895e-002, -3.7481953020576893e-002,
          -1.3875801329676052e+000, -4.4172582920122661e-001,
          1.5068616918786690e-001, -1.7816671343182411e+000,
          -4.2288644313607410e-001, -2.6829169889704328e-002,
          -1.9028958344170827e-001, -2.2725100440302886e-002,
          -3.1716988453819545e-001, -1.1202848376755309e-001,
          -2.4748990295143597e-001, -2.2428999446990114e-001,
          -2.0571606578844800e-001, -8.7575681840288674e-002,
          2.1704175073316995e-001, 3.0019876390658445e-001,
          -5.2525303179336985e-002, 9.5382851459088064e-002,
          2.4292147592388913e-001, -1.7299535586223214e-001,
          8.1746355712597349e-002, 3.1534127680325152e-001,
          -2.5990698321673605e-001, 6.6093261490619393e-002,
          3.0800490620717913e-001, -2.2867995926245821e-001,
          5.5074329412552769e-001, 1.2147501824281991e-001,
          6.3267706454737255e-002, 2.0633749381360661e-001,
          8.1221127720092406e-002, -1.4506114233795053e-001,
          2.2247067618016195e-001, 1.6481173380609973e-001,
          -7.0536217160496850e-002, -1.2476324878835697e-001,
          1.0696639093466738e+000, 2.1893619838701628e-001,
          -3.3067490282120068e-002, -4.9120099544091314e-002,
          4.3732187495917917e-002, 3.6991305176511663e-001,
          2.9437048256858395e-001, 9.3369529429323694e-002,
          3.1037636569596551e-002, 2.4065089310682503e-001,
          -1.3777837276296953e-001, 1.4020086667996828e-001,
          1.5079608275900885e-001, -2.2180574849483079e-002,
          2.2942296329290746e-001, 2.4635430088046978e-001,
          -2.9341077622581846e-001, 1.9950012183616870e-003,
          -1.1171396319657484e-001, 9.5502950668321068e-002,
          -2.7701320326293388e-001, -6.0413363258237845e-002,
          6.3619497081129392e-002, 1.6071045289313216e-001,
          2.1174632080159064e-001, 3.0866246548457776e-001,
          -2.9803414072732846e-003, -1.2852881539129387e-002,
          -7.6986619408993054e-002, 9.3732957664188363e-002,
          -1.2815308507227288e-001, 7.9670752640249778e-004,
          -2.5670918999162717e-001, 9.7806812226425732e-002,
          -3.0045234497286686e-003, 3.0064693009294683e-002,
          -1.4639128809934812e-001, 2.8389163342471102e-001,
          -9.4983277428190866e-003, 2.2244430487358419e-001,
          -5.4019905384266896e-002, -2.9586786613540667e-002,
          -9.6971763438605668e-002, -6.8092317974323621e-002,
          1.1756109156006424e-001, 1.4861271783478935e+000,
          2.7456137204050368e-001, -2.1298119849893071e-001,
          2.8690207226852956e-003, 3.6424159178165078e-002,
          -6.8848150671505390e-002, -9.3477927648590517e-002,
          1.7075659859642747e-001, -2.2461990297433576e-001,
          -1.3993445547591774e-001, 1.0505580504516850e-001,
          -6.0118262950176263e-002, 1.9620275436654497e-001,
          -1.5684470281214913e-001, 2.8057786753385760e-003,
          -7.1048086055990958e-002, 2.9565230615858112e-002,
          1.6012212600716061e-001, -2.3781871662612405e-001,
          1.5211469231787139e-001, -1.9247400109906951e-001,
          1.9424846975446530e-001, 3.1753438258330840e-003,
          -4.1786230823245230e-002, -5.1474924264307154e-001,
          -8.9087079962993393e-002, -8.7511659488730673e-002,
          7.7804008812790135e-002, -4.6023958614268910e-002,
          5.2060558903158416e-002, -4.7120503972503683e-002,
          1.9822823443411672e-002, 3.1643845550785199e-001,
          3.4847110357500505e-001, 6.6318837281639439e-002,
          -3.9265160714742681e-001, -2.1370335710169602e-001,
          -5.6772755392229923e-002, -3.3180703693198932e-001,
          -1.5936568016768360e-001, 1.8338793739293949e-001,
          1.8214623012438264e-001, 1.1838954188424387e-001,
          -4.3568751353300361e-001, -7.3749008691030696e-002,
          -5.3733726879967403e-001, -2.3519581630362715e-001,
          3.5043506506995387e-001, 1.9994692037234768e-001,
          -2.9214212152542984e-001, -6.3410121815920435e-003,
          -1.7707109409810623e-001, -9.9150164247962386e-003,
          2.2666476778239733e-001, 1.0750569113222724e-001,
          4.4945564639359981e-001, 9.0500888081228567e-002,
          1.0909863260505449e-001, 5.9962126046027131e-002,
          1.3908012076050416e-001, -2.1277379768501348e-001,
          3.8896314138383847e-001, 4.9670000354527294e-001,
          -5.8499417940164139e-002, -2.1141043098709780e-001,
          -1.8995646595856599e+000, 3.3167199601931097e-001,
          -1.0713923994423018e+000, -6.0070149882150670e-001,
          2.5025845802421481e-001, 2.2829100696687983e-002,
          5.0614248676845963e-001, -5.3055743219712140e-002,
          -1.7275302812363100e-003, -4.4719816891052261e-001,
          -2.4355406237580829e-001, -9.1843619591325171e-002,
          3.5535992908738434e-001, 1.8602578119587651e-001,
          3.0336090433057611e-001, 1.1510644260126944e-001,
          1.7363226158171868e-001, 2.8395956016196727e-001,
          -1.9404226304577143e-001, 1.0110192713074795e-001,
          -1.1068583029043770e+000, -3.1173195471281895e-001,
          -3.4275676577559649e-001, -4.9992183121659775e-002,
          3.9330164436821852e-001, 3.6726758922119762e-001,
          2.3665589761306034e+000, -2.9780499836376806e-001,
          1.5303163702137440e-001, 1.1343637718943635e-001,
          -4.0000749147430625e-001, 7.9786905676697839e-001,
          -5.6255782500771713e-002, -2.5595185013906568e-001,
          6.4600446782012699e-001, -5.6397291807717348e-003,
          -2.8526799931035307e-001, -4.7546887921475864e-002,
          -2.8132902200676613e-001, -1.1186095389282508e-001,
          1.5253504590618119e-001, 4.4741533211130474e-001,
          -6.6227757580816582e-003, -1.6645703727905272e-002,
          -9.1200081909452405e-002, -2.8239263706280167e-002,
          1.3450734408760848e-001, 2.9459616759802621e-002,
          -5.3545171320682858e-002, 1.0845179616175556e-001,
          -3.8413345025803007e-002, 2.4858228260641607e-001,
          8.5288926601317344e-002, 5.6474854817307261e-002,
          3.0358685258750240e-002, 1.0521271624220703e-002,
          -7.8119486984900177e-002, -5.2539052351879854e-002,
          1.4924282580875803e-001, -9.6961634613670009e-003,
          1.2917591906149437e-001, 8.1001203258258506e-002,
          1.9506968182272849e-002, 3.1897078940278153e-003,
          6.5747720134935184e-002, -4.5950482189755081e-002,
          -3.3954518592272692e-001, 6.2686615809970347e-001,
          5.3774610297776415e-001, 8.4114059949712727e-001,
          5.8298821292770794e-002, 4.4037156801964239e-001,
          1.5537163276332738e-001, -1.4219922851921707e-001,
          1.4132080659517746e-001, 8.2454361623744803e-003,
          5.2813990763766350e-001, 1.7786043594858733e-001,
          4.2738126021318174e-001, -5.6390337855145145e-001,
          1.7826120928756944e-002, -5.6094151470365416e-001,
          -1.9944321800385012e-001, 5.6420435670838993e-002,
          1.7740558610139584e-001, -4.0948305518486444e-001,
          -5.7415424453242248e-001, 2.2371465142049726e-001,
          -1.9916127983689935e-001, -2.0807141920341521e-001,
          -1.5390443642135990e-001, -3.4391159349096723e-001,
          -4.7209174065741466e-001, -1.0021773485784088e-001,
          -2.9090211712015412e-001, -1.5830291925701195e-001,
          -1.8640495545581989e-001, -1.2048907593521618e+000,
          2.8701336240463865e-001, 5.8870794755862765e-001,
          3.3292339547620364e-001, 7.4935658928453566e-002,
          -3.1184656344906270e-001, 3.9355404480357528e-002,
          2.2027557413092980e-002, 3.7073892823070831e-001,
          -2.1753451929736084e-001, 6.3498241039992243e-001,
          -3.9123746279095442e-002, -3.6073830407450108e-001,
          1.9895509722106056e-001, 2.1497179752434456e-001,
          2.1563327739330787e-001, -1.7309481855695330e-001,
          5.6988780390036603e-002, 9.4688818630165136e-002,
          -5.0993886563620638e-002, 4.8201770677064562e-002,
          -3.5169350447699033e-001, -1.5128423974578117e-001,
          -3.8187354059660417e-001, -1.1040283505679029e-001,
          2.8715891850491648e-001, 4.6443499678008177e-004,
          -5.2127340876864436e-002, -1.5902255564481080e-001,
          -1.7417667726494038e-001, 4.5194672446613763e-003,
          8.0701413033860511e-002, -3.6057556513489741e-001,
          -2.0558161383003765e-001, 5.8511057647420775e-002,
          -1.7264293600749367e-001, -1.4248378663181838e-002,
          5.2172860512338104e-002, 2.3700134386318006e-001,
          -1.6827530111990549e-002, -9.6566694447826773e-001,
          -3.8637904813476720e-001, -1.7932258497622644e-001,
          5.3106549366838129e-001, 6.2510378692649622e-003,
          1.2535753587443063e-002, -1.7075625194126520e-001,
          3.9200088456397997e-001, 3.0015210664531516e-001,
          1.4463416109134647e-001, 8.8659693546078444e-002,
          -6.6466547018680899e-001, 3.5937603276806035e-002,
          -4.9463005146571926e-003, -9.1973550793160649e-002,
          -1.9571958987347793e-001, -3.2441536056285869e-001,
          -9.3751544857556809e-002, -1.0780710580308855e-001,
          -7.4831940123115975e-002, -6.7314321769599839e-002,
          2.8563664357842572e-001, 2.3169628795069644e-001,
          2.0593850312959469e-001, 3.4135842398526162e-001,
          2.2057698176832713e-001, 2.1663640900087713e-001,
          -5.2693471138382159e-002, -8.4264464496448019e-002,
          -3.6107459860522051e-001, 6.0305624673701397e-001,
          -3.0552157260980650e-001, -9.2932039121849913e-002,
          1.9260802914481009e-001, -4.1773960695636259e-001,
          -2.3425909530052957e-001, 2.9824567645898165e-001,
          -5.9492984333118226e-001, 9.9270236335239431e-002,
          -1.9286820838868257e+000, 8.2025952496119658e-002,
          9.6446503427378621e-002, -4.5515975368232625e-002,
          -6.6201679593086898e-002, -3.7491722452345312e-002,
          -3.4072386577870550e-001, 5.7942052887771586e-002,
          -2.9105195462593075e-001, -1.7532000210501644e-001,
          -6.6194453249302704e-002, -2.7739454678326819e-001,
          7.3533866351210439e-002, 1.7537894435885232e-001,
          -1.0037318298368997e-001, -5.2897658181728091e-003,
          -1.3590830608153903e-001, 2.7340494095963402e-001,
          -1.3946500896059633e-001, 2.8311245895850795e-002,
          -3.1018551883750241e-002, 2.1707330774591513e-002,
          -4.2838106465067788e-001, 4.5458005780228944e-001,
          5.8636917544296454e-003, 8.9167167770618627e-001,
          -9.0980407214338044e-001, 1.9938588976756216e-001,
          -8.7586189767565562e-002, -1.1226576181588382e-002,
          7.8023481975434530e-002, 1.5015468271708712e-001,
          9.3560285751882577e-001, 1.1648755504579138e-001,
          1.1910220153633773e-001, -1.9969754909812482e-001,
          -3.0183239849285011e+000, 1.2402288718585525e-002,
          -2.8583378859706743e-001, 9.4289322655318128e-002,
          -1.9483129764572149e-001, -3.7569385025604091e-001,
          4.1940256513087637e-001, 1.9380538096313021e-001,
          -7.8646215726403668e-001, -1.7504927222107949e-001,
          -1.0250769337012167e-001, 1.3648610598326791e-001,
          -1.2628866408540873e-001, 4.2210614790142814e-001,
          -1.5811396371592672e+000, -7.6511467595707636e-002,
          -7.9804166748823319e-002, -2.5969768940749566e-002,
          -1.2176332651056386e-001, -6.9826103829050745e-002,
          -2.2705903598782776e-001, -1.6090064925737696e-001,
          -2.5371722470749841e-002, 1.3726044169009072e-001,
          8.0079076896583695e-002, 2.9537201714115213e-001,
          -1.2849539665049833e-001, 3.1291312384414116e-001,
          -4.6867555727654213e-002, -8.8671779169693510e-001,
          4.0001517084325489e-001, 6.4055589454068737e-002,
          7.8025024642958754e-002, 1.4476942678522839e-001,
          -6.6810971840276145e-001, -2.0621691789678570e-001,
          -5.2572512184519936e-002, 1.6336493655759240e-003,
          -2.3646885429227360e-001, 8.2987677816798278e-001,
          -2.3428376580278840e-002, 6.7580364578857618e-002,
          -1.3058856633527217e-002, -1.9664972358221351e-002,
          -1.2122500975294477e-001, -5.1977553196073856e-001,
          1.3178424767663449e-001, 1.9290562291247898e-001,
          1.0355853793134158e-001, 1.9019885369599696e-001,
          -1.1612980636395502e+000, -6.5475481230242952e-002,
          -3.2900677303581433e-001, -5.7545461684101233e-002,
          -4.1929710137984827e-002, 2.0186134296493286e-001,
          -4.3494260079030969e-002, 3.9040307104606048e-001,
          7.5071689829511276e-002, 1.4952441349244813e-001,
          -7.7330656809138906e-002, 1.2397318185194732e-002,
          4.6823020995179834e-002, 1.4696486183765622e-001,
          1.7958247367223321e-002, 1.5514154877903936e-002,
          1.6294299121581302e-001, -5.2700563940143115e-002,
          8.6456245882157154e-002, 1.9318684333635558e-001,
          -1.4423758209119103e-001, 1.8852683762095680e-002,
          -6.2888524508483465e-002, 1.3793001696394559e-002,
          -4.1551724479931607e-002, -9.5964995046498053e-002,
          3.7725720374258936e-001, 1.4004271746285415e-001,
          -3.3716621856796497e-001, 6.9859048657585646e-002,
          -6.2457190052123820e-003, 1.2139794472888306e-001,
          4.2908289442120544e-002, 9.5448879410911194e-002,
          5.2466980446900097e-002, -1.1061428950623471e-001,
          1.6879878169063783e-001, -1.8088074235936827e-001,
          2.7066443079178121e-001, -8.3197980661032206e-002,
          4.1855039411232808e-002, -1.7711180666878282e-002,
          2.4019775268926291e-001, 3.6929125709766641e-002,
          -5.5515958012498534e-002, 1.3303211390104339e-001,
          2.7612465793137468e-002, -6.4953807978970352e-002,
          -1.7646508590255610e-003, 3.1314707152671636e-002,
          -3.1175050936472304e-001, -1.3040224864446995e-001,
          9.9545208169650429e-002, 6.3168938641739392e-002,
          1.6032720062169739e-001, -9.1571987329493010e-002,
          3.4923111461156964e-001, -7.7774779543131931e-002,
          3.2727079867797215e-002, 8.8096559777683964e-002,
          -9.5064112811299700e-002, -9.4287776198347883e-002,
          -2.1313132907441298e-001, -1.6395625043818019e-002,
          -1.3325214886956374e-001, -1.3980460509570414e-001,
          -1.4289792209081392e-001, -4.2727614048442150e-002,
          5.8146662073184108e-001, 2.5266342697531674e-001,
          -1.3109294068684796e-001, 2.0522885461911544e-001,
          -6.0185884695518901e-002, 1.1742660437600141e-001,
          3.3205916703590643e-001, -1.0516293125142283e-001,
          -6.1687001961933816e-002, 1.3884316392062801e-002,
          6.7794897618371791e-002, 1.4933161835822237e-001,
          2.3929006857038487e-001, -2.9783107205862808e-001,
          -3.1505033917892811e-001, -4.8715294954124355e-001,
          -2.6390450592148712e-001, 2.4545413266684862e-001,
          2.2557285103959068e-001, 2.3776723251417764e-001,
          2.6529013242600792e+000, 5.3794420178137869e-001,
          -1.1324915189162399e-001, -2.2866695200120510e-001,
          -4.7707028540799723e-001, -1.6613744561365995e-001,
          -9.2117827757006790e-002, -1.0079778940677753e-001,
          -1.1813700764690270e-001, 4.4127136246690157e-003,
          -1.1972068191478252e-001, -1.6245720963281468e-001,
          1.5554634205983434e-001, 2.6862903698983087e-001,
          -3.2607408938580090e-001, -6.6828509891542898e-001,
          1.3516728770280034e-001, -1.4306828737450181e-001,
          -1.5184336992141542e-001, -5.6435580960745593e-002,
          6.2712077067928418e-002, -2.8171214191291849e-001,
          -5.3261765541810091e-001, 4.6568888055714386e-001,
          -1.0325328679989990e-001, -3.5662411263292698e-001,
          -1.5604390706006081e-003, 2.8736728430468989e-001,
          1.8237344184194751e-001, -2.4197121004666106e-001,
          -1.1374462869554221e-001, -1.1381024765053274e-002,
          1.2918483482205307e+000, 1.1365110282325762e-001,
          3.6078498126693913e-002, 7.5027105072344735e-001,
          1.3058208855233353e-001, -5.0847771140784714e-001,
          2.8140119780424824e-002, 5.4279921716390352e-002,
          8.6084170680693059e-002, -1.4285139692272145e-001,
          -2.4433438520041480e-003, 1.1739122237914620e-001,
          2.0731761244765903e-001, -2.3487044846137034e-002,
          -2.6872930226947245e-001, -9.8454775192329411e-002,
          2.7992179213902080e-001, 3.7821089465270247e-001,
          -1.0508258893085724e-001, 8.6087574319636040e-001,
          2.2546617317399731e+000, 6.6750851016815313e-002,
          -6.4248715320621264e-002, 3.5262605488769305e-001,
          3.0216228439592535e-001, 5.5363223210157864e-001,
          -1.7646276336238290e-002, 1.5358169798461890e-001,
          1.1656323609509840e-001, -1.6186604053796022e-001,
          -1.9401348712728797e-001, 2.4200209325989952e-001,
          7.6446683586843117e-002, -1.7611609604650286e-001,
          -9.5802883304830799e-001, -2.2523715745396036e-001,
          -4.0515429781968884e+000, -1.4563791458292450e+000,
          3.3208050915473580e-001, -2.6739165266833015e-001,
          -8.2746979674045396e-001, -8.2809873503512221e-001,
          -1.0360627849321143e-001, -3.1027198831157310e-001,
          -1.3715646551940688e-001, 2.1796190629632281e-001,
          8.5085257556402283e-001, 5.4343173027256397e-001,
          -1.6130555765116766e-001, 1.5807308859265334e-001,
          3.5144035815420094e-001, 4.6456274111418799e-001,
          1.1257550945149582e-001, 3.4862410229465707e-001,
          1.8423051207853758e-002, 1.4044373391396561e-001,
          -8.7060444281465743e-001, -9.1735513067402963e-002,
          3.9333779306156019e-001, 1.5145185044298029e-001,
          1.6779087500470280e-001, 3.0461592578539964e-001,
          -2.1263908003678003e-001, -2.4094258338490410e-001,
          2.7965617443882562e-001, 3.3083351490398133e-001,
          2.7345442016122562e-001, 7.4073034576090313e-001,
          1.2256478173225509e-001, 1.6279814383786234e-001,
          -2.2135749552480383e-001, -8.1954448334614453e-003,
          4.4147513776492599e-002, 2.6206241712646666e-001,
          -4.3670891554083008e-001, 5.5990777383334300e-001,
          -7.3878600329146338e-001, -2.4879732142885685e-001,
          -1.5638549301739352e-001, 5.7619439201338896e-001,
          3.0577009531345611e-001, -8.5476305777695660e-001,
          3.2245600809061126e-001, -8.1781322038602933e-001,
          -3.1500515798148876e-001, -1.7422061321127367e-002,
          -1.0419385179155054e+000, -4.5752496138486320e-001,
          1.4708610203474029e-001, 1.3230094976174528e-001,
          3.5805814669859043e-001, -9.4839318669907080e-001,
          -1.1552574163125123e-001, -2.1251055727082410e-001,
          4.4999808203457414e-001, 5.3296052523645332e-001,
          -1.7339311480525421e-002, -2.1641456716757920e-002,
          -5.9644541378860244e-002, -3.1654057707405758e-001,
          9.0403332416044438e-002, 5.9274848542096803e-001,
          -7.1054987537434877e-001, 2.2298875516405306e-001,
          9.8752934866736905e-002, -2.3058753045134167e-001,
          -7.8410633440367972e-002, -4.7313599422513251e-002,
          -6.0672706021280010e-001, -5.0900674953259373e-001,
          1.3271721599062483e+000, -1.4780927505185582e-003,
          -1.4013668497659906e+000, 3.3428980222626209e-001,
          1.1268560350053240e-003, -2.5156551438581393e-001,
          -7.8205908798051849e-001, -7.2200813837124977e-001,
          -5.3133828428891339e-001, 3.2238138743381939e-002,
          3.3992289375713347e-001, 1.0320373226002171e+000,
          -1.2388989643655178e-001, -1.7822984276249595e-001,
          -4.2122038502713310e-001, -5.1192531690681464e-001,
          -1.4622261756877344e-001, -4.2081425386871807e-001,
          -2.1291973747387997e-002, -9.8430737146267244e-001,
          9.2852047766713866e-002, 9.1206735878457151e-002,
          9.5434703097267981e-002, 7.9175810285757930e-002,
          2.2076769840826771e-001, 4.4116756318293027e-001,
          -1.3979976326187521e-001, -5.0820844201926296e-001,
          -3.3545366978059010e-001, 3.8986160654533530e-001,
          -1.6689435683943941e+000, -1.4089718156745068e-001,
          -2.0861357291229927e+000, -5.0953262951956546e-001,
          -2.0034867830727132e-001, -9.3826147024882767e-001,
          -1.1219004510665220e-001, -8.0608499143041690e-002,
          -5.6888811859470600e-001, 2.3831628739589122e-001,
          -8.1180158918071221e-001, -1.6720055498750461e-001,
          2.9022348068695214e-001, 3.5956117153975359e-001,
          -2.2496858973575076e-001, -1.6207403217433754e-002,
          1.4510149849035206e-001, -6.3949029534962981e-002,
          6.5447987986735649e-003, 7.4038150830964947e-002,
          1.7548149662273779e-001, 3.0886090762536375e-003,
          -5.4949355360161226e-002, 7.1476432987930982e-001,
          -2.2553304075675540e-001, 2.5515169941997168e-001,
          9.8454792611595079e-002, 4.1651097604823842e-002,
          1.1447991443164789e-001, -2.6966568458901086e-001,
          -8.3458456354074251e-001, 1.9265445300946901e-001,
          5.2978047497156489e-001, -1.0113784621348036e-001,
          -1.5103722208905326e-001, -1.1037339445113235e-001,
          -1.5754807376836164e+000, 4.1461379283945066e-001,
          -4.8026782285299680e-001, -5.6906423148345625e-002,
          -2.6545697427755467e-003, 2.0070551025820255e-002,
          -5.6214058326808265e-002, 8.3748077407393248e-002,
          1.4642504941264561e-001, -6.9601798896033718e-001,
          1.8216198706923564e-002, 7.1672843173824197e-001,
          -4.8303714091392322e-002, -1.9857921439389564e-001,
          -4.2339466027121841e-001, 1.5173428227365848e-001,
          2.1603957461883625e-002, 8.3945914440180486e-002,
          3.0165965690780221e-002, -1.2238590693060442e-001,
          1.1576772492793982e-001, 1.1153917982271706e-001,
          -5.0590348531312235e-001, -9.5249116049293744e-002,
          -2.8431051305287713e-001, -2.4988042774267200e-001,
          1.0679634814519698e-001, 2.5010916776882469e-002,
          7.9754415109120874e-002, 7.1846838523288784e-002,
          -1.7016578283971990e+000, 2.1907103292650176e-001,
          -7.4582677303273628e-002, -1.5164101411825615e+000,
          3.1935331141107315e-001, -1.8305149354943090e-001,
          -4.4196651145830429e-001, -5.0472452729795121e-002,
          4.7788486605118929e-001, -1.7682165029304364e-001,
          5.2354112864575397e-001, -2.0755626001994251e-001,
          -3.1440727644025157e-001, 1.0505269548575175e-001,
          -1.3210789833368661e-001, 1.9057314215207025e-001,
          -3.2174437494009495e-001, -4.6009742164825736e-002,
          -7.2721751425074130e-002, 3.5123144241895504e-001,
          -5.8854342747008022e-002, 1.0397274255508437e-001,
          8.5946026823064803e-001, -7.0356624647955487e-002,
          6.5151454696397146e-002, 4.6540976528565320e-001,
          2.5462496175732946e-001, -6.9356159219747038e-001,
          -4.6255943169052444e-001, -1.5113086828629024e-001,
          8.8007405530274962e-001, 6.7479483073145985e-001,
          7.2289476940652597e-001, 6.6809334555847255e-002,
          2.8189623980291056e-001, -3.1771066704526529e-001,
          -3.1681975928489353e-001, 6.6872121998536968e-002,
          1.0225503749116124e-002, 8.3974281088234820e-002,
          2.8669211879696066e-001, 1.3236110361963682e-001,
          -2.1772277071312118e-001, -1.3738254370147171e-001,
          -2.9108760419449646e-003, -1.9142894623772660e-001,
          1.3875545036491255e-001, -1.7254567027228138e-001,
          3.3695323691006313e-001, 2.4830292295856563e-001,
          -2.4147966925771910e-001, -1.8440885791371231e-001,
          -8.6735317393991415e-002, -3.5902772618171164e-001,
          2.9481793828892622e-001, -2.7789448570492159e-001,
          -1.0564792094002014e-001, -2.3110595382913120e-003,
          1.9501463573320089e-002, 1.4321139689477028e-001,
          2.9166880822095842e-001, -1.7165209803113846e-001,
          2.5478940296103797e-001, -6.2611165272271341e-002,
          2.4738475874518878e-001, 6.9860336962565953e-002,
          1.7829710373757165e-001, -1.2039566627073910e-001,
          9.3543844635837481e-002, 3.5376604923615371e-002,
          1.3705343451737947e-001, -3.4431760847334299e-002,
          9.3840931889216647e-002, -4.5978789400091269e-001,
          5.2893081977189138e-001, -1.6279912265557828e-001,
          -2.5332589811739259e-001, -6.6638395871141856e-002,
          -9.3648288605337759e-001, -3.3066631220002857e-001,
          -2.1809097938288030e-001, 3.9289710907270181e-001,
          1.1143818959762147e-001, -2.8157351317927981e-001,
          6.6417644264028575e-002, -5.2619310808166841e-001,
          -2.7003160138002946e-001, 2.1134081883370434e-001,
          4.5570808856798581e-002, 1.2739436176536487e-002,
          2.4531832777348703e-001, -1.8821158715505215e-001,
          -6.5548067648289765e-001, 1.3200996296186942e+000,
          -1.7469257848749278e-001, -2.5017581357287222e-001,
          -3.9125813266364429e-001, -2.0685036479568827e-001,
          2.8220798767443889e-001, 9.2479392003892893e-002,
          1.9044159197590175e-002, -1.1820453137696363e-001,
          4.8346282295668269e-001, 1.2129342873150882e-001,
          -5.0854540008153388e-003, 7.6654457651672159e-003,
          -4.9745110943191634e-001, 4.4891382264632063e-001,
          1.9975938798111832e+000, 3.7814566234250679e-001,
          -4.6882738444113975e-001, -9.2490111372881179e-001,
          9.9977727191103816e-001, -4.3019033738771312e-001,
          -6.0489768269301980e-001, 9.9637362859976453e-001,
          6.3595835718206406e-001, 1.6992388095496840e+000,
          3.3792204000186848e-001, 2.4294737941278999e-001,
          1.5560016976713638e+000, -6.3041693588447689e-002,
          9.8901081142865166e-001, 1.8203983715464445e+000,
          -3.4770541628650270e-001, -1.5343861812692510e+000,
          -8.4922321246346621e-001, 7.3747409630924288e-001,
          3.7011223080466488e-001, 3.6020974261049715e-001,
          -6.4384574443040876e-001, 5.7765329383319941e-001,
          -1.9972776993354563e-001, 3.5511400034989482e-001,
          4.3532738195282294e-001, -8.7928135714983632e-002,
          7.8979150504808970e-001, 2.5821883796663925e+000,
          2.1400848428295999e-001, -9.1716054327193164e-001 ]
      - [ -9.7712597459809880e-001, 8.2170820241425191e-001,
          -9.6568723748423313e-001, 4.8217601670832377e-001,
          -4.6417349265354746e-001, -1.0024268809909127e+000,
          -2.1391933039548165e+000, 9.9080729119937827e-001,
          4.2040850785285244e-001, -1.4457176906977226e-001,
          -6.6401895859991411e-001, 7.3369529073354839e-002,
          2.8988182748836022e-001, 5.0831530798112101e-001,
          -1.0547258467898519e+000, -5.0713016870018175e-002,
          1.4030146510225591e-001, 6.1579895420063990e-001,
          1.2053275722618528e+000, 1.0158488739405656e+000,
          -4.1636416340414739e-001, -5.1840634261101470e-001,
          5.4021238242414782e+000, -5.5552314807498593e-001,
          1.9177125038333140e+000, -9.1766951021612442e-001,
          -1.4237357866095435e+000, -5.3897307855325771e-001,
          -6.5369653761396118e-001, -4.4889252497357457e-001,
          -5.0659045916312440e-001, 3.8485675966456250e+000,
          1.4186288933646682e-001, -5.4592329066146639e-001,
          -3.3943621531427048e-001, -1.2778937927430881e-002,
          5.5902062418648812e-001, -1.2478053020496851e+000,
          8.3473296851001100e-001, 1.0523182887451279e+000,
          -3.7364332727896674e-002, -4.5719948423406981e-001,
          -1.0099742623995912e-001, -3.2296740893825615e-001,
          4.2546734239852990e-001, -1.5574021077926770e+000,
          -1.1454338240993572e-001, 1.1831231540885216e+000,
          6.5159231036732546e-001, 2.7477561019200353e-001,
          -4.5816969737281815e-001, -7.9710680571073156e-001,
          -3.5214057516105796e-001, -3.5809847738808664e-001,
          -4.9734699342516642e-001, 4.5772208493361838e-001,
          -5.4429886897349800e-001, 8.0542079532174515e-001,
          5.5503603803972967e-001, -1.2170597754198957e+000,
          -5.7539812884802688e-001, -4.1887204457939170e-001,
          1.7807771445365048e+000, 1.0651480514904317e+000,
          -8.4018606087426795e-001, 5.0571445190267905e-001,
          -1.0933049468658331e+000, -2.7418606102588976e+000,
          3.8455283770743129e-002, -6.5064800084111041e-001,
          -3.8657187907922261e-002, -2.3407228423464013e-001,
          -3.3680800191035565e-001, 5.9812897977937329e-001,
          -5.5954599689584505e-001, -1.3838618124331790e+000,
          -6.2350056707074042e-001, 1.5914066840342522e-002,
          -2.1185836927586279e+000, 6.3806463802567293e-001,
          -1.0128712697565843e+000, 4.0891024863411651e-001,
          -6.9418829110812630e-001, -1.2355542291837458e+000,
          -2.7529502361925973e-001, 1.0730262182596555e+000,
          -1.0318674832694608e+000, 2.5120916976036434e-001,
          -2.2957744550737669e-001, 3.3695226107434606e-001,
          7.6400874576769462e-001, 5.9330533314123746e-001,
          -1.3755683120902662e-002, -4.5293842870808443e-001,
          6.1691791150026343e-001, -5.8741152158623333e-001,
          2.5651955189491876e-001, -4.5131917320620946e-001,
          -2.9782909785752892e-001, 2.2855763664095581e+000,
          6.1350752860437319e-001, -3.9718397755287765e-001,
          -2.9129041931976718e-001, -4.8171944497928043e-001,
          -2.7296282399055366e-001, 7.7080756939654171e-001,
          3.1161706997333549e-001, -7.2777065026497501e-001,
          -1.6840343593495083e-001, -8.2087052919140502e-001,
          5.6850464022378722e-001, 7.9220790666908014e-002,
          7.8501789814684542e-001, 2.5368904267359971e-001,
          -2.8635163079880179e+000, 1.6589497663482100e+000,
          -1.9312580013668010e-001, 3.6833958798405020e-001,
          7.2478064851184054e-001, 2.9648739125114076e-001,
          4.6545991512305074e-001, -5.7873292151111355e-001,
          -1.8540981386703853e-001, -7.1648116885992619e-001,
          -2.9984280832070126e-001, 8.0733332979948513e-001,
          -3.2305027361869804e-001, -2.8693015087310553e-001,
          4.7498121987948233e-001, -4.6037243452017579e-001,
          -2.9877629804182998e-001, 1.7356879991036819e-001,
          1.5215614481553339e+000, 6.4716393335727940e-001,
          -7.9568600028825975e-001, 1.0687200543943447e+000,
          -6.0737929164960991e-001, 5.0406899704256913e-001,
          2.9157882809451402e-001, -8.8959269875743041e-001,
          -1.3536648851775832e+000, 5.1219104754494815e-001,
          -1.9246809939323301e-001, 8.7985604380156557e-001,
          -1.6756155874948337e+000, 1.4772938426083255e+000,
          -8.0836117680313535e-001, -5.9699364226373641e-001,
          -2.6482811742268580e-001, -1.7957448209392521e-001,
          -3.5084077010791859e-001, -3.0613222118505579e-001,
          2.6827898555064046e-002, -9.3306006025213428e-001,
          -4.4702072114592262e-001, -9.3044340034824868e-001,
          -5.1728703624537364e-001, 2.2533463142781981e-001,
          1.7065834563158329e+000, -3.3381628020239161e-002,
          6.6390793385455726e-001, -3.6667149149754004e-002,
          4.9126136025698380e-001, -8.7050364653450640e-001,
          -1.0739145966620227e+000, -6.7886517571566829e-001,
          -3.4249367307458634e-001, -2.2302882604255507e+000,
          -8.7375144938305382e-001, -1.1153674809274745e+000 ]
