%YAML:1.0
my_nn: !!opencv-ml-ann-mlp
   layer_sizes: !!opencv-matrix
      rows: 1
      cols: 3
      dt: i
      data: [ 59, 42, 5 ]
   activation_function: SIGMOID_SYM
   f_param1: 1.
   f_param2: 1.
   min_val: -9.4999999999999996e-001
   max_val: 9.4999999999999996e-001
   min_val1: -9.7999999999999998e-001
   max_val1: 9.7999999999999998e-001
   training_params:
      train_method: RPROP
      dw0: 1.0000000000000001e-001
      dw_plus: 1.2000000000000000e+000
      dw_minus: 5.0000000000000000e-001
      dw_min: 1.1920928955078125e-007
      dw_max: 50.
      term_criteria: { epsilon:9.9999997764825821e-003, iterations:1000 }
   input_scale: [ 1.6057220328884947e-001, -3.5353446351095152e-001,
       2.1394869812419101e-001, 4.8936403845047682e-001,
       3.3373444566337462e-001, 4.6860453684169141e-002,
       3.7866862036906324e-001, 3.8242516215570765e-001,
       5.1071219724131101e-001, 4.7109118738261319e-001,
       3.2461587139108972e-001, -4.0464926373208937e-001,
       2.9363149326971566e-001, -4.5678269157738975e-002,
       4.2220083153955723e-001, -9.7128934575528159e-001,
       4.5019549424610228e-001, 3.3868658104752003e-001,
       5.9403576623899690e-001, -1.7853735494979917e-001,
       5.5716538193746157e-001, -7.6435445355088838e-001,
       3.6337055429541221e-001, -5.1665485373998388e-001,
       5.8050223152288660e-001, -3.8316688983144914e-001,
       6.0052208931587547e-001, 1.1268646828564264e+000,
       6.0652239904507488e-001, 7.6878283294323990e-001,
       5.1797744698851245e-001, 1.6992604689065458e-001,
       7.1825539029860919e-001, 1.0925825698625782e+000,
       7.5794781613338069e-001, -1.0342559258325195e+000,
       6.3487251522058996e-001, 1.0100791846369337e+000,
       6.5208036770433808e-001, -1.1549752923981296e+000,
       8.3313791212080535e-001, -2.5323162997554149e-001,
       5.9089579506109469e-001, -1.7142267050475168e-001,
       7.6849628875907783e-001, -1.7571984055665555e+000,
       6.2669686350224130e-001, 1.2802246640757522e+000,
       6.8934254804882023e-001, -7.0049195550675025e-001,
       8.0577706251736370e-001, 4.3306006932042690e-001,
       8.7748453334854670e-001, 2.3099932910941010e-001,
       8.6626705454219710e-001, -5.5433087239239776e-001,
       8.1746405893238294e-001, 2.6507090850138754e-001,
       4.8966849722012201e-001, -3.5170179801547630e-001,
       9.3070704387896697e-001, 1.1231190143099448e+000,
       6.1641282999068148e-001, 7.5009981606341603e-001,
       8.5360256832769799e-001, 2.7336185713193079e-001,
       6.6246229467603868e-001, -1.0992694876707310e+000,
       1.2527583377523610e+000, 5.6839246110583042e-001,
       1.2139714863232465e+000, -2.7406444746261893e-001,
       9.6848294097654342e-001, -1.0461310884645478e+000,
       8.0540294809371882e-001, 1.9786922967094780e-001,
       1.4887452586817300e+000, 7.9228761762897970e-001,
       1.2616861709708407e+000, -8.7094333391869116e-001,
       7.2903207417965965e-001, -7.6004351174531537e-001,
       1.1574626426052015e+000, -1.0310392999867524e+000,
       1.3296180897912184e+000, -5.2903487890311174e-001,
       9.2480040254894214e-001, -7.7732101165434675e-001,
       8.7879936513082746e-001, -1.0894984752350670e-001,
       9.8986225837616371e-001, 2.6870180684861372e-001,
       1.1521998462543563e+000, 1.0660791833025529e+000,
       1.0564528495503058e+000, -2.9119222661907851e-001,
       1.2324955297362787e+000, -6.5560267230572078e-001,
       1.4796624121869493e+000, -7.2108338466181546e-002,
       1.1622367472083770e+000, -2.6607177519526160e-001,
       1.5253881675330940e+000, -1.0040116858277909e-001,
       1.3506398413864931e+000, -1.5025017420378745e-001,
       7.8726462080829385e-001, -3.8567638285170930e-002,
       1.1057787043164127e+000, -2.3089637008286625e-002,
       1.1231337013967331e+000, 4.3432480601520818e-001,
       1.0394011028091414e+000, -5.4950636032587548e-002,
       1.2580734428831537e+000, -2.2727575853181005e-002,
       1.0545946843651599e+000, 3.5116119371207727e-001 ]
   output_scale: [ 5.2631578947368418e-001, 4.9999999999999994e-001,
       5.2631578947368418e-001, 4.9999999999999994e-001,
       5.2631578947368418e-001, 4.9999999999999994e-001,
       5.2631578947368418e-001, 4.9999999999999994e-001,
       5.2631578947368418e-001, 4.9999999999999994e-001 ]
   inv_output_scale: [ 1.8999999999999999e+000, -9.4999999999999996e-001,
       1.8999999999999999e+000, -9.4999999999999996e-001,
       1.8999999999999999e+000, -9.4999999999999996e-001,
       1.8999999999999999e+000, -9.4999999999999996e-001,
       1.8999999999999999e+000, -9.4999999999999996e-001 ]
   weights:
      - [ 3.7391286686504965e-001, 2.3875274450029058e-001,
          2.0264350490156183e-002, -1.7728228956322273e-001,
          1.1175701156483138e-001, 3.0473200029799908e-002,
          -1.6773096668834384e-001, -1.8478942416055166e-001,
          5.1089564886756006e-002, 6.2753707383916307e-002,
          7.3674703911505668e-001, 4.5593028105710659e-001,
          9.8036221609557217e-002, 2.3660806992588004e-002,
          2.4384039533725949e-002, -2.0904374348270699e-001,
          1.8671740314404256e-001, -6.5758592763063006e-002,
          -1.0105382395908485e-001, 2.2220598128608260e-001,
          8.9154086062986942e-002, -3.1311570417594692e-002,
          -8.1738689658176853e-003, 8.0834669897835082e-002,
          -3.1243223956631930e-002, -6.6302835032263863e-002,
          4.6262425135708100e-002, -1.2410577736717314e-001,
          -1.4922631889766080e-001, -3.6771423453518498e-002,
          -7.8792867807335909e-002, 1.8109388466571660e-001,
          6.5572417562207788e-002, -1.6620569737916813e-001,
          -1.3532611116338541e-002, 4.0476360642471933e-002,
          -1.5113727279479533e-001, -9.6516386147059863e-003,
          -3.5476723002165991e-002, -3.9933215507987618e-002,
          4.9717302148545645e-001, -1.9297721662133449e-001,
          -1.1926714819125038e-001, 2.7966939533787794e-001,
          -7.7932427755409761e-002, -1.2186231461093584e-001,
          3.0096601758974037e-002, 8.4503699704730484e-002,
          1.1463381904935224e-001, -2.1663430990322161e-001,
          2.0079519812753292e-002, 1.6212075171037593e-001,
          1.7542758084068485e-001, -1.3892382543494350e-001,
          -4.1244526330007206e-002, 2.6538772216019596e-001,
          2.3033926631226519e-002, -6.3719050536146432e-002,
          -5.8148338949656131e-001, 4.3962342028169449e-001,
          1.3489510948079972e-001, 5.7586858931933313e-002,
          1.7853077110534004e-002, 1.2535147299366414e-001,
          -2.5768353923837273e-001, 3.5416171379174155e-001,
          4.7501037485655914e-002, 5.0163448675346126e-003,
          -5.4160588857200570e-002, -8.9073088195077949e-002,
          2.9931386911081059e-002, 1.4751838541481910e-001,
          -1.8279913658698776e-001, 2.3750143293967282e-002,
          -9.3933585568624633e-002, 1.4550770069009608e-001,
          -2.1968249657817790e-001, -1.4759514330954196e-001,
          5.8385187436326397e-002, -1.0697972116809167e-001,
          -1.2306553374465681e-001, 9.3132558567261256e-002,
          -2.2558218544491127e-001, 1.0027841609280096e-001,
          -1.1988254693700212e-002, 1.8215279289332417e-001,
          -3.6426418776996115e-002, -8.6467871361275317e-002,
          6.3391893394822513e-002, 1.5074791628584722e-001,
          2.1844485494112698e-001, 1.6468128893719300e-001,
          -3.6917841219078873e-001, 1.8370759555643293e-001,
          1.0277417965526373e-001, -2.8876482150893307e-001,
          -1.1562284982968699e-001, 1.5453736530433651e-001,
          -1.7847106357887882e-001, -2.6323690696738705e-001,
          -1.0297429680704101e-001, 3.3053271488674957e-001,
          1.3051473443125222e-001, 1.4798057433966297e-001,
          -3.0662786487226706e-001, 1.6851279862852228e-001,
          2.9654323270569638e-001, 5.1791731124515433e-002,
          -9.1529902519751433e-002, 9.7405377942721680e-002,
          2.9005119898599378e-002, 6.6032224522644969e-002,
          4.9281762665362494e-002, -3.8569770537329706e-001,
          1.6368779983442761e-001, 9.8618995809232002e-002,
          -2.3383252790572773e-001, 1.3929463178872728e-001,
          7.4519737117899096e-002, -2.4164692662623469e-001,
          5.2695817350409535e-001, -8.0465072852849748e-002,
          1.2226366275763953e-001, 2.0101845174726929e-001,
          -7.0909432383238435e-002, 4.1393292599905063e-001,
          1.7545667282325414e-001, -1.8801406546260929e-001,
          -6.0703831538441910e-001, 2.1673225832165677e-001,
          -4.1660858069487194e-001, -1.0620542654653302e-001,
          -1.3068012654415997e-001, 2.7624658000272598e-002,
          1.2831768913512423e-001, -1.8023607950851941e-001,
          1.5149852911453684e-003, 4.4219741999760982e-002,
          3.6812791838207237e-002, 2.3002007985843614e-001,
          3.3457460091596380e-001, 1.3813551700683754e-001,
          -2.8767874753312786e-002, 4.3280633371625965e-003,
          -2.9972341363483507e-001, -1.0647261059898704e-001,
          3.3069261697608121e-001, 2.9708628989933999e-001,
          -1.6483427791720726e-002, 8.0950818647306619e-002,
          -2.5435068920086806e-001, -2.2121637242284661e-001,
          1.6892380500271445e-001, -8.3438891869378196e-002,
          -9.3376986461048209e-002, 5.4436615193595370e-002,
          -6.7864968772017087e-002, 6.2802482850324942e-002,
          -1.2391434325637515e-001, 9.4670858144091485e-002,
          -2.8770771061880301e-001, -1.4254243693900981e-001,
          -9.2391278855217585e-002, 1.3942703367908357e-001,
          9.8997313465605294e-002, 4.3717561155094953e-001,
          1.6826202644671420e-001, -1.4633775199178378e-001,
          6.7407423372975034e-002, -4.8654296957379778e-001,
          -1.8716822175618808e-001, 3.0009964687720214e-001,
          -2.4448847482672031e-001, -3.4009402884849479e-002,
          -6.5081666753681899e-001, 1.5526339519366733e-001,
          1.4615675623234362e-001, -5.6802643515932533e-002,
          6.9011874100006809e-002, 6.7174817943011389e-001,
          8.0257714319943652e-001, 1.2587259349647709e-001,
          -3.3688972556111210e-002, -1.2503599233981169e-001,
          1.1637648798238416e-001, -2.5485895842585654e-001,
          -2.0146372850189703e-001, 2.4589742547925880e-001,
          5.9371837538708505e-001, -8.5328792455632935e-002,
          -8.0547756157196726e-002, -6.8657725889029825e-002,
          1.8786640172015805e-002, -9.0753970466090600e-002,
          3.6457967048993345e-001, -1.7621326358526188e-001,
          8.7481502801169175e-002, -4.4354896161497936e-001,
          -7.6129044976639554e-002, 2.2959914976043039e-002,
          -1.7833107690961339e-001, 3.4450978700567320e-001,
          5.3279876175635621e-001, 4.8540096148825601e-001,
          -1.4232747283723441e-002, -3.3221730375830111e-001,
          -2.9198219607142584e-001, -2.9389591112830721e-001,
          4.3425592013018216e-001, 2.4224076907541348e-001,
          1.0525394923195962e-001, -7.6829784545733207e-002,
          8.2444037594111674e-002, -1.5715966932024122e-002,
          1.7862995318312463e-001, -4.6039699117435445e-001,
          -7.6843740481023111e-003, -1.1764859534569588e-001,
          5.9669924951927772e-002, -3.2076218098683001e-001,
          -2.9503411586664467e-003, -4.4467346223686158e-002,
          -1.2168633783311014e-001, 1.1660768019447006e-001,
          -4.0977524590351633e-001, 2.3641080078825880e-001,
          -2.5679962079877477e-001, 9.9146329803489808e-002,
          1.8926677886178228e-001, -1.5927788755174146e-001,
          1.1308010982687198e-002, -1.8945661071276220e-002,
          2.6453157151547035e-001, 2.6717732932246047e-001,
          1.9241464161702990e-001, 8.1972275396173563e-002,
          -1.4583117321672323e-001, 2.7669484085399900e-003,
          8.8794314408462055e-002, 9.9159172897189854e-002,
          -2.4796206945775390e-001, -2.2389005461619782e-001,
          8.3879210667518342e-002, -2.3122344250446492e-001,
          -1.2938431998759739e-001, -1.3497526377429453e-001,
          5.5824287680228256e-002, -3.4666790203968056e-003,
          -1.1075378864660905e-001, 4.0453509403565499e-002,
          -1.8723423650725007e-001, -1.3155453128859164e-002,
          -2.2762953342492204e-001, -8.3269331455459852e-002,
          -2.7742010565144376e-001, -9.5457399474722981e-002,
          -4.3045677959273304e-001, -1.2709202895150634e-001,
          -1.0736842884943310e-002, -3.7985310456830852e-002,
          9.4103707146205778e-002, -9.7006730510437289e-002,
          -1.9667665111290214e-001, 1.6518798735370432e-001,
          9.2430406246474042e-002, -6.2666331180742496e-001,
          4.2285549876501366e-001, -2.1012611372717477e-001,
          1.1826755969855966e-002, -1.5130218804451620e-001,
          -2.2397729948592771e-001, -1.2424979321996950e-001,
          1.6353573179060325e-002, -1.1407375082862795e-001,
          -1.8535920251770702e-001, -5.6184380516832666e-002,
          -1.0390563365411484e-001, -1.0692821523173908e-001,
          2.9348683314555296e-001, -1.8144788355480768e-001,
          -9.6476848200563223e-002, -7.4044595310810160e-002,
          5.0702589524119726e-002, -1.1029368496039689e-001,
          1.5875330489794495e-001, -1.5222368144767093e-001,
          4.0821133358656436e-001, 2.0463341393746165e-001,
          -7.7160192731463642e-002, -5.2858002666612072e-002,
          -5.0207024549672197e-001, -4.6591240293324031e-002,
          1.7336344989014710e-001, -5.5934501837903369e-003,
          -3.9245596819721984e-001, 2.8428007240695857e-001,
          -5.1087922779682515e-001, -1.6340711101228231e-001,
          -4.8608542321350943e-002, 1.1099446863283527e-002,
          7.8091188575368981e-002, 6.5421196033903228e-001,
          -9.1241865286099275e-002, 1.7948576429592325e-001,
          -9.6040903471439690e-002, -1.2447855698294813e-001,
          -4.2704648533195659e-002, -6.5797161682072530e-002,
          -2.6794681209070148e-001, -4.4364390446974744e-001,
          -3.9585246012251094e-002, 5.6079042726250618e-002,
          9.4283766969467331e-002, -1.8743157984364722e-001,
          -1.9880856137278433e-001, 1.4942151678684357e-001,
          -4.8530858775765251e-001, 5.9330526773396647e-003,
          -3.9070981151238020e-002, 9.5410595239993956e-002,
          3.4425178181665206e-001, -6.5922378722311159e-001,
          1.0700734594019466e-001, -5.6849713387251775e-002,
          -3.8457430405764007e-002, 6.6456106419242808e-002,
          -3.2481271926068572e-001, -1.0668137794021815e-001,
          2.4634099470045093e-002, 1.8049341596299853e-002,
          1.2663344300996179e-001, 3.3962238301677369e-003,
          -7.1171276169142705e-002, 8.7409291519647270e-002,
          -2.6807343411400114e-001, 3.3089125184175550e-001,
          -1.2741759131956927e+000, -6.5362839622538138e-002,
          3.0122549208584659e-001, -1.0276793357471663e-002,
          -1.0039771824089538e-001, -1.6705045891765330e-001,
          1.5525409946906038e-001, -2.5530637400883318e-002,
          -6.8017823878618211e-002, 7.7019085074537891e-002,
          -5.6073931473443361e-001, -1.5330827566147343e-001,
          -1.6626873654582544e-001, -7.0401322609950773e-002,
          -2.3210396577621673e+000, 1.1388520090209364e-001,
          -2.2357518078708435e-001, 3.4634655208632112e-002,
          1.3573067104480627e-001, -3.1660701986125694e-001,
          -5.6295258508518931e-001, 9.1389083193001347e-002,
          1.7409875675498537e-001, 4.3869355812830350e-002,
          4.7738099566741306e-002, 7.6698547020771002e-002,
          5.7885646392344559e-002, -1.5883111388782121e-003,
          -2.7878349599902513e-001, 9.3296516332538756e-002,
          3.3121066093943552e-002, -9.3042519292349815e-002,
          1.3635804799391882e-001, 2.4217831286740170e-003,
          1.7148166974879690e-002, -2.5546377133818184e-002,
          6.1578146139026846e-002, 2.8500197789316639e-001,
          2.5346373728423943e-001, -1.2436610080117348e-001,
          -2.7952474151119816e-001, 1.6121105507324404e-001,
          5.0759750005766491e-001, 1.1597662543449835e-001,
          8.6791093191469298e-002, 1.4370263751939832e-001,
          -1.7736768362122557e-001, -6.7180196588380744e-002,
          -6.9710645770937385e-002, -1.1911792469363747e-001,
          -2.0410572565473287e-001, -6.7220663397925151e-001,
          1.0563574010520839e-001, 1.2195750809252637e-001,
          -2.3772801489573792e-001, 2.4630223123105169e-001,
          1.1044243807173191e+000, 1.2962080393862381e+000,
          -1.2443761566274737e-004, 7.6340682756632439e-001,
          -4.3632358463072965e-002, 1.7229683278825186e-001,
          -4.8680874920066466e-002, 9.5982879449201752e-002,
          2.2440274538817143e-001, 4.0071378767972038e-002,
          5.5771038721084032e-001, -1.1290751566516859e-001,
          -2.1964222780401701e+000, 2.6315063745287659e-001,
          -7.5024410921945534e-002, 3.1978578285881537e-001,
          -2.1601585483043878e-001, 2.2948422222366333e-001,
          5.2482310839741220e-001, 5.6455391897403540e-001,
          -3.9230953997154611e-001, -1.6861540226201227e-001,
          -9.7860021792025728e-002, 5.7174223912596620e-002,
          -9.8968391218591995e-002, 1.1012243063650712e-001,
          6.1723440147371345e-001, -2.2174027552903000e-001,
          -9.6015837533186391e-002, 9.8654354653670673e-002,
          2.0525737104111169e-001, -9.6032771769408043e-001,
          8.4587712377377056e-002, -6.0894945370801909e-002,
          6.1915702773303705e-001, -1.0575786432910249e-001,
          9.3918820887681734e-002, 2.2222673863876374e-001,
          -4.4967355926857452e-002, -5.7944644645204968e-001,
          7.4356486389211274e-003, -2.9121884973464052e-001,
          -3.4058516017401458e-001, -3.3631648976280087e-001,
          -2.0060328063137839e-001, 2.9285724604440067e-001,
          2.2973262492494273e-001, 1.3347622007169610e-001,
          -2.6579042765287397e-001, -1.1696210225479953e-001,
          1.1717739351869451e-001, 2.8400390718753393e-001,
          -3.4149715274408726e-001, 2.7566190849276079e-001,
          -2.0615008721563428e-002, -3.4109912435740894e-002,
          -2.8821880117078289e-002, -2.9414888287873531e-001,
          9.4868240777200727e-002, -4.8210440057447679e-002,
          3.9209995258106596e-002, -9.3025242971723793e-002,
          4.4102771089258064e-001, 4.9352571129979629e-002,
          1.5542206323508861e-001, -4.2828844373083208e-001,
          -2.2254598139553131e-001, -1.4035964376800207e-003,
          -5.3015146604942963e-002, 3.0654717730224512e-001,
          -2.9791806770749563e-001, -3.8434616930602006e-001,
          -4.9812917724266360e-002, -2.1421319976035563e-001,
          1.6255478658528061e-001, -1.4148675494483040e-001,
          -7.9973567911229698e-003, 7.0681240159431363e-002,
          2.4539115574460602e-001, 1.1558338273829898e-001,
          7.7963391028287532e-002, -1.5094949169369008e-002,
          -8.4776213526045696e-002, -1.8043365567170766e-001,
          -2.1571672498367497e-001, -6.5459176068472990e-003,
          -6.4809039372908002e-003, 6.8517529086976406e-002,
          -2.4433177124108359e-002, -8.1447614803565022e-002,
          -7.6743525319319300e-002, -5.3069132021810281e-002,
          -3.3445155867561187e-002, 6.3141193986339054e-003,
          -1.5142554237682867e-002, 1.7522551333951542e-001,
          8.1155511863149732e-002, 3.3252678973172328e-001,
          -2.2669202359997798e-001, 8.6677694734850153e-002,
          -5.2175751171921934e-002, -2.2028131833282275e-001,
          2.0017529866773265e-001, 1.6772084306319920e-002,
          1.9458587749164630e-001, -5.3770302325903456e-002,
          -3.4463062810758432e-001, -8.5870397312143812e-002,
          -1.3732812091868074e-001, -2.1414095626152271e-001,
          -8.0142467432964840e-002, 2.4849817148508042e-002,
          7.3517460101750420e-002, 4.4725651275012573e-003,
          -4.8679431915135692e-002, -1.0580667039703843e-002,
          6.8043117471445513e-001, 1.7502728286486205e-001,
          -1.1957223549554741e-001, 1.5660386011028305e-002,
          -2.4836256776733534e-001, 2.3775720957886107e-003,
          7.3047450245343121e-002, 2.0025507542319862e-001,
          -9.8377273991332434e-002, -6.9487343289722192e-001,
          1.3034597437085690e-001, -1.0531380349670047e-001,
          3.6264108199869589e-002, -8.1613501799122315e-002,
          4.9521012909030208e-002, 6.7238478214526026e-002,
          -8.3147446071617170e-002, 8.0709775113361887e-002,
          -3.8707873461782380e-002, -1.7727701309319197e-001,
          1.0742858385467018e-001, -4.5945483449757435e-002,
          8.3865182307706887e-001, -6.7395826674763915e-001,
          1.8583300030182393e-001, -6.6015160309549004e-001,
          1.6774428613397432e-001, 4.0727923812759576e-001,
          3.1824864405282910e-001, 1.3589091416558099e-001,
          1.8658028459578402e-001, 3.8361874721846961e-001,
          1.8171992278340758e-002, -5.3990155624864006e-002,
          3.6429521221867939e-001, -3.8369907337093562e-001,
          -1.6323567001499356e-001, -2.4213402418500374e-001,
          -1.4876475541009349e-001, 2.5994442680967172e-001,
          2.4406043079143883e-001, 2.6618652112409885e-001,
          1.6632380052628604e-001, -5.0140707731184793e-002,
          7.9586804206028083e-001, -3.4065761070585246e-002,
          2.7744489437651376e-001, -9.2811103368606443e-002,
          -3.6794045998553132e-001, -1.2389852394424119e+000,
          -3.7377389764499680e-001, -5.7741873160506796e-001,
          -2.4507121964822826e-002, 4.2558625383437226e-001,
          1.1694196609399568e-002, 3.8543449041706901e-001,
          -1.3861528588472760e-001, -1.2059957404430907e-001,
          -1.0289786337349414e+000, -2.5502431714197793e-001,
          4.9047479763135039e-002, -1.0179026693953742e-002,
          8.7268578113181561e-002, -1.1034595320566876e-001,
          -1.1027237178617526e+000, 1.4668193628766560e-001,
          -2.8910377498160802e-002, 1.2517177492269366e-001,
          1.1757169216019535e-002, -1.3062212100274356e-001,
          9.7410827609106840e-002, -1.4596512244568971e-001,
          -6.6580525326122053e-001, -1.2417285991448111e-001,
          -1.5417062364064496e-001, -2.3583012373848997e-001,
          -5.5314558200206809e-002, 2.6823534281533532e-002,
          -1.3274600057136482e-001, 2.9721806263700834e-001,
          5.6525567855861200e-002, -1.3981385580156189e-001,
          -1.0568905031250667e-001, -8.5850856243921719e-002,
          -1.4648454170375710e-001, 7.9268943279893617e-002,
          -2.4896165597410508e-001, -1.3150279931912631e-001,
          1.5920767677842365e-001, 1.6707624227370627e-001,
          1.0662629609554550e-001, 1.4858529451659921e-001,
          1.2721893693277980e-001, 7.6279524143832189e-001,
          2.5258332269592551e-002, -4.1241516906866799e-001,
          -2.3022706641458664e-002, -2.2683534101756431e-001,
          -1.8204175155503363e-001, 3.2391392203696981e-002,
          3.7163605369071179e-002, 3.2658778991626802e-001,
          -3.2067875913998664e-002, 2.0014359325579899e-002,
          -5.0421596567589910e-001, -2.6905644628676595e-001,
          1.4383639574591123e-001, -7.9389523283331889e-002,
          1.2643923437763216e-001, -1.4012736310480647e-001,
          3.4778097118401147e-001, 4.1913749866414163e-002,
          -2.4922046442592555e-001, 2.8945284843263680e-001,
          2.6970599510592824e-001, 5.1123032070851226e-001,
          -2.5242532243247123e-001, -1.7554780611000434e-001,
          -7.4051439811769912e-002, -4.2350461315735188e-001,
          -3.9155547749144433e-002, 4.2119249269751768e-001,
          3.4257161161595467e-001, 4.3557270597298181e-001,
          2.1444359128404070e-001, 3.5322535501256036e-001,
          -6.8015205054670902e-002, -2.9385375043303966e-002,
          6.4080992837109524e-002, 9.5202335444458525e-002,
          -5.0187450501780362e-001, -4.1326290087439127e-001,
          -1.0367137624116046e-001, 4.1138660011219200e-002,
          -2.7692514777801081e-001, -7.1727612214423919e-002,
          -2.2651238072238639e-002, 3.2992132659644191e-001,
          -1.3482226267865138e-001, 3.5404453595410634e-001,
          2.4666961082236788e-001, 1.0591678132230223e-001,
          -1.8820086493156751e-001, -8.9695227551500417e-002,
          5.4251296848613864e-002, 3.2155360941006954e-002,
          2.6228067173202224e-001, 2.3449105429276024e-001,
          -3.4133887951642716e-001, 3.6749688576401718e-001,
          -1.3857071203344104e-002, 3.8984268926836452e-001,
          -1.8346041955665149e-001, -1.8939471349321488e-002,
          3.3773993605808134e-001, -1.0245119986130150e-002,
          -8.1947707445692866e-002, -2.5739471851116258e-001,
          2.3179916078302287e-001, 1.8601832742834573e-001,
          9.7970545476143839e-002, 1.7077775419026364e-001,
          5.3475803649141292e-002, -2.1845907636040129e-001,
          1.7441426326932871e-001, 2.2408079702802616e-002,
          -4.0993469201633499e-002, -2.1224297459045818e-002,
          3.3027428665679998e-001, 3.1932946713472182e-001,
          -1.7275190913856767e-001, -2.7497769897909924e-001,
          2.6482444413524320e-001, 3.2058479569505571e-001,
          5.8474262039288245e-003, 3.4958387153209880e-001,
          1.6481634610422125e-001, 4.5707037039764287e-001,
          3.6719153955918621e-001, 8.4844015414459045e-002,
          -1.0951212230500542e-002, -9.4881815415232787e-002,
          -1.6127393721688599e-001, -2.5359323068158246e-002,
          7.0988721074480496e-002, -8.6776503321862625e-002,
          7.7196253707109821e-002, 6.6276281954463112e-001,
          -2.4254629584959389e-001, 2.7960451224760180e-002,
          -1.3616912706675963e-001, -2.6564824915542320e-002,
          3.0682108778733602e-001, -8.6320983806542295e-002,
          1.3824122285298701e-001, 6.8951941095592217e-002,
          -3.6735130038949237e-002, 3.5212862237611198e-001,
          -9.6251539154779409e-003, 1.1460171801674583e-001,
          7.8801908663481218e-002, -2.9750851307128162e-001,
          -2.4008254046906602e-001, -4.5067222953218203e-002,
          -4.2145288935574336e-002, -6.8059272369183210e-001,
          1.3868425127710166e-001, 9.2763490347406580e-002,
          2.1131341485648109e-001, 7.0541790791196796e-002,
          1.5813444730807180e-001, -7.2976311781946718e-002,
          -8.0701082252197326e-002, -9.1901547907644168e-002,
          -2.8819148264084155e-001, -8.6468373425590800e-002,
          2.6524959279863192e-001, -9.1719902871160705e-002,
          -4.0302735874986950e-001, 2.7852019458367554e-002,
          6.9673450913995905e-002, 8.4602946198604673e-002,
          4.6197849042942636e-003, 1.2889359178324655e-001,
          -5.3397314860950618e-001, -1.9867691514539390e-001,
          -7.9447577141183079e-001, -1.2627227776842635e-002,
          -2.7257227857878141e-001, -5.3606609984899002e-002,
          4.9977134537972409e-002, 6.0469197802470238e-002,
          5.0497836193579611e-003, 2.2327352002303552e-001,
          -9.1835147895096592e-001, 3.3399395312331065e-001,
          8.1973802334463219e-002, 6.2326235617740991e-002,
          2.8220498989269377e-001, 4.6668105682543641e-002,
          1.7765712750534599e-001, -2.0585744323295352e-001,
          1.4761386727883483e-001, 7.3503368565709326e-002,
          2.4844104528800280e-004, 4.6931858965379619e-001,
          -3.1282303169582826e-001, 5.7653511582298367e-002,
          -5.5508048498619522e-001, -1.8089923298730830e+000,
          3.7548839379904990e-002, 1.2329906282604439e-001,
          5.5437991802197190e-002, -4.1759333812852856e-001,
          -4.6392029399500223e-001, -7.6305031098498594e-002,
          6.9386053146340221e-001, 1.1806691012651933e-001,
          2.6554571221416012e-001, 7.3401158453110305e-001,
          4.7817226343184999e-002, 1.3362526545969095e-001,
          3.2890923942386054e-002, -3.5563902983859419e-001,
          -1.6863286620743482e-004, -6.6253369648278021e-002,
          -8.6318340920241809e-001, 3.5053336692291825e-001,
          3.3755093476027237e-001, -7.4843398635036384e-001,
          2.5997519095649396e-001, -1.5159378927885407e-002,
          -3.9615963863251544e-002, -4.9387427706957787e-001,
          9.6509506493870995e-002, -1.1893198252342188e-001,
          -2.3883412736618118e-001, -1.4793114083308190e-001,
          -1.9396960219348131e-001, 6.9905859727492858e-002,
          1.7416620114210624e-001, 9.4468478739203540e-003,
          1.7870647816073848e-001, 4.7089116552727191e-002,
          -1.4103125748058362e-001, -1.4208103029984157e-001,
          1.8068471739528542e-002, -3.4222081125432652e-001,
          1.9939113202690852e-003, -8.3444275832916392e-001,
          1.6336801055318473e-001, -2.4100133895570108e-001,
          2.7308395298181903e-001, 2.2979661437200888e-001,
          1.4794283098371325e-001, 9.6420188136708534e-003,
          -2.1194348164748567e-001, 2.9353830316423291e-001,
          -2.4088991737457495e-002, -2.7592857659117120e-001,
          1.1522223240671165e-002, -3.0969717122504545e-002,
          -1.2783791186196000e-001, 5.2604425445353306e-002,
          1.6872548422073663e-001, 5.3237017975951192e-002,
          -4.9047051531094968e-002, 5.1689546005930009e-001,
          -4.0913844314124415e-001, 1.9360466902413176e-001,
          -3.3339150943635820e-001, 1.2206297531986578e-001,
          -4.4400838223539171e-002, -1.4230020521707198e+000,
          2.8677524097546248e-001, 1.3830135066382731e-002,
          5.7354124981945927e-002, 2.0498225235049439e-001,
          1.5332098305856812e-001, 9.9148717417168641e-001,
          -1.0783144135669906e-001, -8.6086166706432418e-002,
          2.2828057029247492e-002, 3.1486278818455937e-001,
          -2.4248561194529249e-002, -1.2817685293344225e-001,
          7.1204150050570994e-003, 8.9896521355883641e-001,
          9.2319295614864794e-001, 4.3386930051643659e-002,
          3.8519133840904285e-001, -2.2203611675173163e-001,
          4.1623332522923839e-001, 8.1345639779366624e-002,
          -1.6785445139248354e+000, 3.7232689906076200e-002,
          7.3875386375094076e-001, 5.0143034762838667e-001,
          -2.3167708895316269e-001, 1.9707961114130246e-001,
          2.7598965889261771e-002, -4.5278142668332418e-002,
          3.0767794601839898e-001, 1.4061762681284373e-001,
          6.0108796401878987e-002, 2.2226678310306885e-001,
          2.9007889896212546e-001, -6.0179550061875427e-002,
          3.1136256031794024e-001, -7.8159469971012613e-002,
          -4.6724072003743559e-002, 7.0398015183827101e-001,
          2.9525934758851841e-001, 8.4803897996325678e-002,
          -1.2231949380808687e+000, -5.0074584356433449e-001,
          6.8859719559799165e-002, -7.8653437527749392e-002,
          3.5109890742679051e-003, -2.7357061633505558e-001,
          -8.4079414081794895e-002, 2.4154007809764483e-003,
          -3.8268773313340644e-002, -8.2523370508486987e-002,
          -4.4763527044643359e-001, 5.2161465464771850e-001,
          3.7412310640202937e-002, 1.3250262522746575e-001,
          1.8882005850888329e-003, 1.0645912200870397e-001,
          4.6380226234698163e-001, 1.2161711744328085e-001,
          2.1688455625723380e-001, 1.8501376034454109e-001,
          -1.2250760820117950e-002, 7.1284522905854492e-002,
          2.2527091185451492e-001, 2.1646183999432911e-001,
          4.2613224641547903e-002, 1.1194797912824275e-001,
          3.3503063925133231e-001, 1.7475593701911168e-001,
          -1.4287481206416858e-001, -1.9439838937000986e-001,
          -2.1181980546352785e-002, -5.0289825395844656e-001,
          -2.4765687418365567e-001, 1.8461663300935610e-001,
          4.3536188264911249e-002, 6.7199713762614244e-002,
          -6.1040293729767059e-001, -7.3902998737559275e-002,
          5.6988592620640453e-002, 2.3467935055104461e-002,
          -5.0906562158561086e-001, 2.2060026159988103e-001,
          2.0341726594172901e-001, 5.7415640540354396e-001,
          6.8497653833055949e-002, 3.7837541630886828e-001,
          3.3322610953686042e-002, 2.0301111249533829e-001,
          8.0235116035882029e-002, 6.7885094950528302e-002,
          -1.8654626635521054e-001, 1.0663904921245349e-001,
          2.3328619607399220e-001, 1.9427565376864359e-001,
          -3.0129188782914901e-002, 1.7393902376644291e-002,
          6.2324355166378527e-002, -6.6386345984668721e-002,
          -6.5194367275517362e-002, 5.2528371273886591e-002,
          -5.6753472466907851e-001, 8.2726653617231682e-001,
          2.7381783745387483e-001, 1.9661983902854380e-001,
          5.9388063182263369e-002, 3.5374082853226935e-002,
          8.7176830032792141e-002, 1.6466439762384716e-001,
          -8.4711737298704196e-002, 9.3616960258103010e-002,
          -2.7672898345657004e-001, -5.5471389128007931e-001,
          6.3553416959414999e-001, 4.6629551430302141e-001,
          1.4075444173884219e-001, 2.6061872125276242e-001,
          4.4879790352334431e-001, 3.4542802909573081e-002,
          2.5901212866339000e-002, -8.5021002688176750e-002,
          1.5135352351795714e-001, 4.4123326060205047e-002,
          3.6651632520803373e-001, 4.0109301604452402e-001,
          7.7477177624185184e-002, -5.3379094593014750e-002,
          6.1592780873838482e-001, 1.4623599315116809e-001,
          -1.1704559856084011e+000, -3.1973367321209067e-001,
          1.5839372662302836e-001, 3.7805258064691000e-001,
          -1.5475277050751185e-001, -2.7731325809381979e-002,
          -1.6998160862878192e-001, 1.6253701895336550e-001,
          -3.7345338674684807e-002, 1.9780155825061507e-001,
          1.7439549749874078e-001, -7.3514156930019225e-002,
          -3.3357621132495457e-001, 4.6800042589425545e-001,
          -1.1349746543490383e-001, -2.4489334898142662e-001,
          -1.2983490925819375e-002, 2.5506868397738358e-001,
          2.3382384575893183e-002, 2.8266571726162062e-002,
          2.1697737570007697e-001, -5.5903588123175557e-002,
          -3.3302756145867023e-002, -6.1899609690257922e-002,
          3.1197598360328118e-002, 3.1605988184063832e-001,
          2.3157792763559093e-001, -2.7595860772699779e-002,
          -3.2211589071070695e-001, -2.2874075900534491e-002,
          6.1731968707756310e-004, 3.2680808996290300e-001,
          1.9599489635718631e-001, 1.0701998567002140e+000,
          1.0877693031171567e-001, 7.9539453317298086e-004,
          -3.1835122925630627e-001, 3.6999080893741987e-001,
          4.5035778284091105e-001, -4.9825250042756980e-001,
          1.1315638572286993e-001, 6.1627905487752332e-003,
          -5.9124843081054190e-001, -3.9833674596495124e-002,
          -9.2803805959169358e-002, 2.5325276036673300e-001,
          -1.2764279105525742e-001, -1.1633831746769707e-001,
          -6.4314706097298766e-002, 2.3852181233207576e-001,
          -4.2768787024197708e-001, -1.6023322192359474e-001,
          4.0720066947617602e-002, -3.8925705999127903e-002,
          -8.9788252000345792e-002, -2.1197487852372385e-002,
          -2.1550453288403398e-001, -3.7266258619169039e-002,
          2.3510168616834512e-001, 2.3825425882500667e-002,
          7.7535325226818722e-003, 1.3099628987252890e-001,
          2.2873611777052752e-001, -1.3386066278589112e-001,
          1.2455407408581283e-001, -3.5589808044060325e-002,
          -9.8475214953091909e-003, 5.1073101072140537e-001,
          2.7689098269202644e-001, -3.0542722985823622e-002,
          1.0883937406231402e-001, -5.6633632472979734e-001,
          2.6030188003051169e-001, -2.5360180281059114e-001,
          -2.7549923427864515e-002, -5.2097738775798624e-002,
          -8.7314691792523103e-002, 3.4215545936658587e-001,
          6.7132626617506769e-002, -1.8138390121188314e-001,
          -2.8770865654393369e-002, -1.2308084171655759e-001,
          -5.8429842050186802e-002, -9.2221544650830364e-002,
          -2.1906042513830593e-001, -5.3888906663204084e-001,
          -1.0070263402120182e-001, -9.2568803254097540e-002,
          -9.5300322449715560e-003, -1.6292141987948647e-001,
          -3.1907329407163837e-001, -1.6707207393422743e-001,
          2.2546398383199848e-001, 1.1215927501376750e-001,
          -5.4422158383851303e-002, 3.5774888247610909e-002,
          1.0015226082353906e-001, -6.9940003102628517e-002,
          -3.2326932358331319e-002, 5.2837891784957909e-002,
          -2.5520538529922338e-001, -4.7890447334367668e-002,
          -1.4808915270546147e-001, 1.4859387189337143e-002,
          -6.6049858640397502e-002, -1.5642407555976584e-001,
          2.8539270975437448e-002, -7.9278020135148425e-002,
          6.8897171423569825e-002, 2.9265047739376510e-002,
          -2.7844092601374937e-001, -2.9264326790533457e-001,
          -1.4204116002743661e-001, -7.3375693357322913e-001,
          -2.3719487116080631e-001, -9.2911559145306723e-003,
          8.6801113515216688e-002, 2.0119105656436431e-001,
          2.4741463427925414e-001, 1.0223419637555511e-001,
          -2.0417704663900796e-001, -5.8024073152395550e-001,
          -3.7616115555080931e-001, -3.2407133086345040e-002,
          6.0443322124634768e-001, 2.8710767652914113e-002,
          -2.8485065076802862e-001, 5.0808854349259480e-001,
          -4.9869231416697329e-002, 2.4453573281188556e-001,
          -1.4476129974706247e+000, -2.7739973037175673e-002,
          3.0983178209425193e-002, -2.0472795594636295e-001,
          -6.3307940179321565e-002, 1.2109651036587264e-001,
          5.7936936912829168e-002, -1.3637094950294201e-001,
          -2.2856824840684889e-001, 3.1058876485936210e-001,
          7.6967245856091354e-002, 2.9166089538271165e-003,
          1.7019947454889539e-001, 1.7748382529381473e-001,
          1.5374267864275812e-001, -1.3793898165292959e-001,
          -8.7599534421682872e-003, 7.2637770385246714e-002,
          3.0602400777482771e-002, 3.3094196969160238e-002,
          -2.0026667214788166e-001, 1.1016470555795997e-001,
          -7.7350808481983724e-002, -5.4148379276212043e-002,
          -1.0245555827469977e-001, 9.7135096107214314e-001,
          -5.6042527726326473e-002, -3.2712584981179899e-001,
          -2.6251688844983950e-001, 1.7219559665543541e-001,
          3.4214849010960841e-001, 1.3506286895619132e-001,
          -5.6708587279904452e-002, 5.2268369129999337e-001,
          4.2696997347011117e-001, 3.0304795754905151e-001,
          1.2149825134973205e-001, 2.2865244641056481e-001,
          -6.7016890984687327e-002, 1.8071797351546562e-001,
          9.2214427607532970e-002, -8.9019640793583321e-002,
          -2.0047335536614413e-001, 1.6754572459687131e-001,
          -2.9969677794413802e-001, 1.1158418853402902e-001,
          -7.1595213792136014e-002, -1.3957756904619889e-001,
          1.0547317778309631e-001, -1.2268184209026334e-001,
          -4.6727135454187961e-002, 1.7562955966839482e-002,
          4.2888333219266989e-001, 1.8366291346936403e-001,
          -2.1649996627941950e-002, -1.5350392243803856e-001,
          5.6729068498173080e-002, 4.7640266015164558e-002,
          -4.6203856391399893e-002, 1.8203573881874241e-001,
          1.5680877933268153e-002, -1.5567854915104068e-001,
          5.1262598761770795e-001, 1.1422651996966118e-001,
          1.0607297883898428e-001, -8.1102749185958944e-003,
          1.9315434333501070e-002, -2.6520148438282681e-002,
          2.3079028623785691e-001, 2.7802642276833256e-001,
          1.0936218784755909e-002, 1.8479112995928584e-001,
          -1.1662996324263467e-001, -1.6824923017882087e-001,
          -1.8517013940018814e-001, -1.3520500069407415e-001,
          1.0614160750214080e-001, 1.4703204343188639e-001,
          -3.0301926237510879e-001, 6.3944621220936193e-002,
          -4.1892980472397798e-002, -1.6121135770781399e-002,
          1.1075990386392262e-001, 1.3928489920760911e-001,
          1.2535036601510940e+000, -1.4003578308236106e-001,
          -9.0354861685709886e-002, -1.6752669501186873e-001,
          -1.1260835563192709e-001, -8.5048308962917263e-002,
          -2.2290459801946508e-001, 3.2205638174959007e-002,
          -1.8384297081565093e-001, -5.4773563948383519e-001,
          1.9483888956623063e-001, 1.7322683814170717e-001,
          2.1354273851421343e-002, 4.0629613899683892e-002,
          8.4836959166612325e-002, 2.0056933924709086e-001,
          9.9158731189509686e-002, 1.7682300941198584e-001,
          -1.0019719410469011e-001, 3.4801144729652927e-001,
          -5.5347757686583642e-002, -2.3808791324982240e-001,
          4.0550351318050415e-001, 2.7132478878073346e-001,
          1.4475643508657729e-001, -3.3982490417010552e-001,
          2.1720053591825265e-002, -6.1235158435827518e-002,
          1.7854149918127660e-001, 6.5165194298279175e-002,
          5.5753965556429183e-002, 1.9325497530016034e-001,
          2.9815971314798878e-001, 2.6462791778856850e-002,
          -9.4614226418320388e-002, -1.5686914684284853e-001,
          2.8339871495039159e-001, 6.6607745821887152e-002,
          8.9742532541713466e-002, 1.5808845635341254e-001,
          -2.6292259069019181e-002, -7.5952467626218378e-002,
          6.4143047541951950e-002, 1.9801146346023535e-002,
          -3.1915959777776443e-001, 1.3313299073407087e-001,
          -8.9053520973942535e-002, 1.0138111162995479e-001,
          1.5361540754157532e-001, 3.1376555525183075e-001,
          5.6991240584326919e-001, -2.1282453145733612e-001,
          1.9392119919283313e-001, -1.4252462879101049e-001,
          -1.3267860542052998e-001, -1.6763125644535878e-001,
          -1.9565023253840708e-001, -2.4854167919050760e-001,
          -8.4080776205990526e-002, -8.5949858413606278e-002,
          2.0515444849897452e-001, -1.5363192385160998e-001,
          1.4929126432176976e-001, 1.3951771489783496e-001,
          -1.3676932394890692e-001, 1.5844934445868319e-001,
          8.2459937591611174e-002, -1.8312045111738126e-001,
          -1.6469746656608111e-001, -1.7415963814274990e-001,
          4.9497911706606938e-002, -1.0999379948993550e-001,
          -1.0459285085374356e-001, 2.6542509621050491e-002,
          -9.7196161331487133e-002, -2.4837209294794790e-001,
          6.6759427369404045e-002, 9.9044866812505294e-002,
          -1.5559370089404148e-001, -2.0434810693955498e-002,
          7.0151227928430274e-002, -2.3795550328976767e-001,
          -7.4643199529589310e-002, -3.8946110683243584e-001,
          -2.9520392988840427e-001, -6.6529493989867239e-002,
          -1.7913055604320979e-001, -1.3405845064344615e-001,
          2.7830604049482572e-003, 8.3966839470584628e-002,
          -6.4143106812378739e-002, -2.1607120599820198e-001,
          -5.4051492542733848e-001, -9.5428516198937302e-002,
          -1.2300849176514159e-001, -1.6122517114561960e-001,
          -1.5680786518258381e+000, 2.0532831674079180e-001,
          1.6529987363877449e-001, -1.2845289784807040e-001,
          -5.2885566767891676e-002, 1.7372229267305535e-002,
          2.0419040509204528e-001, 2.4254234978455740e-002,
          9.5394132829161968e-002, -1.3269626415025990e-001,
          2.5947746599083093e-002, -5.9389254502933164e-001,
          -3.6769790977285716e-001, -1.9123644649034385e-001,
          -1.1455181740731766e+000, -4.8318477543744598e-001,
          -4.7598955535929868e-002, 1.0832021365917753e-001,
          2.3637402849883962e-001, 8.6174901132180709e-002,
          -2.4416118249763072e-001, -4.7673209495806512e-001,
          7.9236848015884653e-002, 1.1895188506156588e-002,
          1.3136476030395597e-001, 1.9288750387315409e-001,
          4.0817615179249062e-002, 3.0522949848206593e-001,
          -1.8688785417500981e-002, 5.1417343655931336e-001,
          7.6437479678294257e-002, 1.3970737349096035e-001,
          1.0654600999782082e-001, -8.7430005555257470e-002,
          1.4181065278082688e-001, -2.2341543477096715e-001,
          -1.1245059781389036e-001, -4.9069359815739561e-001,
          -6.3702453844922025e-001, -4.2588555155763957e-001,
          -5.0442611087425510e-002, 2.7943478103706176e-001,
          1.2846096320586592e-001, 1.9173652171036748e-001,
          1.4146974432147430e-001, -1.1357962726030656e-001,
          -1.6890946983206026e+000, 3.0130335325328970e-002,
          -9.1183070819623513e-002, 3.2735741813908986e-001,
          -1.5888469266193572e-001, 3.9755273147464432e-001,
          9.0288530655278254e-002, 1.3257589331420944e-001,
          1.4353169303123564e-001, 4.3006780002349237e-001,
          4.2517998896654335e-002, -7.5233178236384188e-002,
          5.9982265724504595e-002, -1.3421529265240242e-001,
          1.6092607732955841e-001, 2.1913809894911315e-002,
          1.2672959905644890e-001, 3.1249673903114172e-001,
          -1.5946525980416598e-002, -6.5064735546660923e-002,
          -1.4976329687088466e-001, 1.0909938221370405e-001,
          -1.6962109608471240e-001, 1.3436157471863905e-001,
          9.7132928016801776e-002, 5.5088311542991104e-002,
          4.3291859016987781e-002, 8.8364915369016583e-002,
          -1.3347610470670029e-001, 3.0105910407800762e-001,
          -6.4288045370073932e-002, -1.2420785921298971e-001,
          2.3728397974303184e-001, 5.3364958794240178e-002,
          3.6945245240369295e-002, -9.7861164686625479e-002,
          1.9221996885441142e-001, -8.7732968601704764e-002,
          1.1013884544529637e+000, -4.0270212299448570e-002,
          -1.8322838858195756e-001, 9.6360466269489620e-001,
          2.4407237054437210e-002, 6.4964349333880969e-002,
          -1.7059798198637882e-003, -1.0967340056199795e-001,
          6.3943089029475098e-005, 3.2633796943533017e-001,
          7.0559185091305064e-003, -1.1496614784557159e-001,
          -1.0344091347878442e-001, -6.7607367566971721e-002,
          7.6740576520561399e-001, 4.1989824294071998e-002,
          2.7171198362179616e-001, 5.8309232373292552e-002,
          1.4505544673841804e-002, -5.8156694222951291e-002,
          7.0879075812201708e-002, 2.1798440866261104e-001,
          -2.6929746731629822e-001, -1.7805699312681094e-002,
          -1.1810507202432548e-002, -8.9898993936968430e-002,
          8.7473101872295150e-002, -1.0904432154261839e-001,
          -6.3284901516949918e-002, 1.0896008309455353e-001,
          1.2947227371755132e+000, -9.2660821586260947e-002,
          -2.4977401104518210e-001, 1.3073625264480271e-001,
          1.5682710465940157e-002, -4.7631563393926157e-002,
          -8.3564264317751630e-002, 1.3553331434238236e-001,
          5.7322593010356221e-002, 4.6849373540557959e-001,
          2.8556206884914792e-001, -1.3149110939033684e-001,
          3.1574316530837865e-002, 3.8456329428863421e-002,
          -1.2723095580310595e-001, -1.3159727581466046e-001,
          6.2181646118910153e-002, 4.6356503582524111e-001,
          -1.0361743740702151e-001, 4.3663369429773363e-001,
          8.8877066944921687e-002, 1.5845990201282328e-002,
          -2.0479613028924282e-001, -4.3275148732021440e-001,
          3.3510618594566310e-001, -2.9990518556233720e-002,
          2.0158380753512398e-002, -6.6268795160317945e-002,
          1.3875889259856222e-001, 2.5235313247228813e-001,
          -1.1306829328352698e-001, 2.1073115966942435e-001,
          -2.9499495689284738e-001, -1.6375357882415828e-002,
          -2.0284279075997811e-002, -1.4063436807174146e-001,
          -1.4649662772657190e-001, -1.0767447479010701e-001,
          1.3425102645969791e-001, -1.2983848474689960e-001,
          -2.9268893238186339e-002, -8.0057650210054426e-002,
          2.7455371175350241e-001, -5.9116408855616233e-003,
          6.8843474300953611e-003, 1.1232209947382615e-001,
          -3.1785278656914280e-002, 3.6258276586397586e-001,
          -2.6618728880281359e-002, -6.2913984320769833e-002,
          -3.2972253340193214e-002, 2.5184623271753676e-001,
          -3.7779788355958083e-001, 5.8396537990144792e-001,
          1.8273428498146188e-001, -6.1683375043311856e-003,
          -1.0167560285124624e-001, -9.7833002945826988e-002,
          6.9958072853424785e-002, 1.5273812741185178e-001,
          -1.2033350888181107e-001, -3.2608631514587844e-002,
          -4.0291052590130966e-002, -2.7431293886321001e-001,
          2.1956928486015126e-001, 1.7859959710821716e-001,
          3.5164333346135529e-002, 2.0832324174104258e-001,
          1.1317184194757554e-001, 2.7807957729815619e-001,
          -1.1000649800743255e-001, -1.8634596461873013e-001,
          5.1035960372193656e-001, 3.1137766006044404e-001,
          5.2163258586698280e-001, 5.2279703657837850e-001,
          3.8760674404215129e-001, 2.9420629722054897e-001,
          6.9554242172946534e-002, 3.0516517824632589e-001,
          -1.2289306758495272e-001, -2.3193513062348106e-001,
          1.1527456872556421e-001, -1.5993093380134343e-001,
          -3.0691913545286170e-001, -1.1405447403208163e-001,
          1.2963149225028564e-001, -1.5949056532334849e-001,
          -7.2151898405429099e-002, -2.3450837694549603e-001,
          1.2849099392401203e-001, 7.5206867681402306e-002,
          6.4833712987910019e-002, -5.2322831836400407e-001,
          3.0341039036623674e-001, -2.8093028422597732e-001,
          -8.1080830486758140e-002, -2.8209830131868407e-001,
          -6.1494786340838570e-001, -1.5095597838874558e-001,
          -2.9114567136604375e-002, 1.6004226733133636e-001,
          -1.4993370454797841e-001, -5.1502093299551119e-002,
          3.5716651527342624e-001, 1.8185782642192211e-001,
          5.1457004978554077e-001, -3.5270611256034018e-001,
          1.5135406655638917e-001, -1.3636528632663336e-001,
          -9.0762582798418034e-002, 1.2260363184237677e-001,
          6.9470920538583572e-003, -1.2033341378786887e-001,
          -1.1080637698790954e-001, 3.9904911610513066e-001,
          -2.3999155038383993e-001, -4.8031710692508239e-001,
          -8.4677284775781914e-001, 9.3700362086489353e-001,
          6.7344440924528393e-001, -2.0177355049037410e-001,
          -1.1152338025173210e+000, 2.4724901239849659e-001,
          -2.8267043004775566e-001, 2.1850126769821088e-001,
          -2.9317874544223821e-001, -5.8148240059119512e-002,
          -3.7669159867230868e+000, -4.8069128264854605e-001,
          -1.7798175857483337e-001, -1.0534368489958373e-001,
          -9.5648736257616218e-002, -6.8495878237693464e-001,
          -2.2773534271502952e-001, 7.1628840495619184e-002,
          -1.8647709526942147e-001, 3.0289345569380625e-002,
          -1.4957708533046868e-001, -3.9468784726259587e-002,
          1.4905921992104537e-001, -1.5766791680135481e-001,
          -6.7954524126790039e-002, 5.4721532765926818e-002,
          2.9801621614667972e-001, -2.7428357186905974e-002,
          5.8678874160437344e-001, 2.3768776876335879e-001,
          3.1310107320814373e-001, -4.7336543268497155e-001,
          -1.8623911272401680e-001, -5.6973075373987148e-001,
          -1.1808419602185991e-001, 1.1576400468934458e-002,
          -3.3909375133860567e-002, 1.0823053223050916e-001,
          1.1260030976785208e-001, 4.0284856320154627e-001,
          2.6951119537419932e-001, -5.0995930421024438e-001,
          2.1301504206621052e-001, 1.8297768701040748e-001,
          6.2467586708269218e-001, -9.2011905642700367e-003,
          -7.9551045327110298e-002, 7.1149698009710383e-002,
          6.0246900222259592e-002, 2.5418013091072014e-002,
          -1.2312100427198019e-001, -2.8439692653018617e-001,
          2.5107749482888853e-001, -1.9553765110965921e-001,
          -6.6228952235503902e-002, -1.3455007664112484e-001,
          -4.6270057817249993e-001, -2.0818944701775327e-001,
          1.6055078491103745e-002, 1.3015054201323084e-001,
          2.8424302719120537e-001, 4.1131366828971311e-003,
          9.8279592945447122e-002, -7.2521514413002919e-002,
          7.7702892198885709e-002, -6.2913772416925784e-001,
          -2.0088433087202144e+000, -4.0879697315920810e-002,
          3.8908983131464309e-001, -2.6612468493135327e-001,
          2.4879773505872521e-003, 4.8869476043213522e-001,
          -3.3617785673814121e-001, -2.0175866653342667e-001,
          -3.4829481387512801e-001, -1.9670694539704836e-001,
          3.3735111975786125e-001, -6.2966512415283937e-001,
          -7.3065933082354772e-003, 5.9683903537975196e-003,
          1.4071334183355766e-001, -4.4594471061054644e-002,
          -4.2739788699460513e-001, -6.0010541087263669e-001,
          1.0702261319981551e-001, 8.1016218987367705e-001,
          6.3745826305836828e-001, -7.3161176568655742e-002,
          -4.3768372140270941e-002, 6.3513355087054940e-002,
          5.7708998751922948e-003, 7.4607617133744350e-002,
          -3.7535724584818919e-001, 4.4543217999575530e-002,
          -9.3508020632418060e-003, -2.5881044053336505e-001,
          5.7254265989626651e-001, -1.3342869206550212e-001,
          -6.5050384981949191e-002, -3.6710877228086752e-001,
          -2.2397756832284690e-001, -7.7010662278559058e-002,
          -4.2871462644860713e-002, -2.8555264769068389e-002,
          1.9611298114453803e-002, 2.3809197255257575e-001,
          -6.3062621412514119e-002, -1.4796142439248275e-001,
          -1.5699405929377691e-001, -5.0780141066990608e-002,
          -5.1004499534177850e-002, -3.7748537029873408e-001,
          5.7355856829670898e-002, 1.6529194882296480e-001,
          1.5518559983392882e-001, 2.4290306035529158e-001,
          -9.6901293824035839e-002, -8.8276399585993065e-002,
          -3.7411058817831883e-002, -2.9114823413810292e-001,
          -1.2161330314949319e+000, -1.0752036114861678e-001,
          1.2971383530307589e-002, -1.0838254646602105e-001,
          2.6468415938184494e-002, 2.5961346447985278e-001,
          -5.1202986604002139e-002, 5.6991515204810195e-001,
          -1.1860621587810979e-002, -3.3900602407789743e-001,
          1.1252310758564149e-001, -1.7831524441751751e-002,
          -4.6749680158162416e-001, -9.9322607044928540e-002,
          3.3278754260384590e-002, -6.7424821284193609e-002,
          -9.8932465549346954e-002, -4.8797179057037832e-001,
          -7.4377424780939783e-002, 1.5109888337566652e-001,
          1.7716344346088510e-002, -6.5278118295213394e-001,
          -1.2938524313570199e+000, -2.4813450836301629e-001,
          -7.2008515224204162e-001, 6.5643762779707182e-002,
          1.7921761472819556e-001, -6.7510642747548433e-001,
          -1.1432116263010138e-001, -2.7062591255163204e-001,
          -1.2857486563465600e-001, 4.1794614662504032e-002,
          -2.2469698291292967e-001, 1.3135022304949689e-001,
          1.2225909446551206e-001, -1.2858851011294269e-002,
          2.1704219634729389e+000, 1.5282041514194895e-002,
          1.8912254430959108e-001, 4.0071644039420856e-001,
          3.1363155017279470e-001, -1.7135200515942048e-001,
          -1.5730727525948782e-001, -2.5782477481071120e-001,
          -1.2627518721117958e-001, 1.6366156443742161e-001,
          3.6242997020202547e-002, -9.8195856874883636e-002,
          -1.4456556826537075e+000, -2.2245899535768499e-002,
          -4.4139142779084872e-001, -7.1124150505389561e-002,
          1.8685455183510360e-001, -1.0172543740654270e-001,
          2.1684952343850539e-001, -3.8079685967185045e-001,
          3.4029587871878691e-001, 1.0610978191982112e-001,
          -1.2514504895751488e-001, -6.9650381412522666e-003,
          2.9885423906398029e-001, 6.8602410220935905e-001,
          -1.3580687856514184e-001, 1.4044498134232591e-002,
          -4.8164286602804030e-002, -4.4484221330167589e-001,
          -3.8918732863812658e-002, -9.9918620254938584e-002,
          -4.5369530448675241e-002, -4.6467756844026542e-002,
          -3.3285201739269143e-001, -2.9977834809296552e-002,
          8.3017436038358858e-002, -7.8485736544053289e-002,
          7.1907915900914804e-002, -3.3248495187608348e-002,
          -2.1226230650446379e-002, 3.4396709524637253e-001,
          -1.8311363187594887e-001, -2.7765687384690280e-002,
          1.4545701554857524e-001, 1.4589861575804258e-002,
          -1.0659191535942122e-001, 6.5806513176702563e-003,
          1.2283561601475519e-002, -5.4227464591105577e-002,
          -1.2877423451062733e-001, -4.4913543049813270e-001,
          -2.2157573025998267e-001, -1.3396605083412011e-001,
          -3.7991034545381236e-001, -1.4648592098177211e-002,
          -1.5632124247521281e-001, -7.6597849902250076e-002,
          7.8150717850252482e-001, 9.5873777289993092e-002,
          2.5475739932655773e-002, -5.4623489695582528e-001,
          1.6275780476620944e-001, -1.4833103315218735e-001,
          1.7618115586607819e-001, -1.2418127238541340e-001,
          4.9336179113921824e-002, 1.4033375997023070e-001,
          -4.4517077538927620e-002, 1.0097440211547079e-001,
          6.8406266578405026e-002, 1.0904597442801089e-002,
          9.0481991838898879e-002, 5.6680942113178125e-002,
          -1.7928620751347538e-001, -4.2239946637777970e-002,
          -5.1321807326367319e-002, 2.1338476530473527e-001,
          -3.0826121815087926e-001, 6.6633176536624343e-003,
          8.1856915973340660e-001, -3.2952220522532211e-001,
          3.9349239689143545e-001, 6.7208658025755541e-002,
          3.4657751904151168e-001, 3.4081758109366278e-001,
          2.2386784793999936e-001, -2.6842277019742605e-002,
          -1.0931811130833656e-002, -1.1519139385076788e-001,
          4.5736554533764623e-001, -4.2069267833666224e-001,
          -1.8978356302288307e-002, -6.3531272653529924e-002,
          2.2229612049543751e-001, -3.8703696624516293e-001,
          -4.1675921112618308e-002, 4.2250794105633033e-001,
          -7.5799910581233115e-002, 1.0139786004079271e-001,
          -6.4530988072646733e-002, -5.0184303706512459e-002,
          -4.4190423607876013e-002, -1.9482206995323795e-001,
          -1.1339662452888437e+000, 3.4061503642187946e-001,
          9.8257004469737314e-002, -1.1101482310684659e-001,
          -5.3180208984251957e-002, 3.3046502820985826e-002,
          1.2156180748448994e-001, 2.7963856078640978e-002,
          1.5765375324539166e-001, -1.5234585893514069e-001,
          8.3161811252369364e-002, -1.7183865864437289e+000,
          -2.1664276200810298e-001, 4.6004271741062269e-001,
          -1.0309729665731061e-002, 3.9061069267903731e-001,
          7.9723291960281406e-001, 1.9091233497052362e-001,
          1.1723678209406359e-001, 5.8205871248606955e-001,
          -1.4777062525620002e-001, -3.4609590116487315e-001,
          3.2380255370795014e-001, -5.1607587496353191e-001,
          -7.3718973728435677e-001, 1.4021086284978651e-001,
          -3.6299194336058833e-002, 8.5574797056323904e-001,
          4.6594517781492199e-002, 1.1557778087467255e-001,
          1.6651814616673802e-001, 2.8250019329359755e-001,
          -1.3605133450753857e+000, 1.4641449649388288e-001,
          6.8161247299943759e-002, 1.9305233486406347e-002,
          1.0672533632014097e-001, 5.4582262829711548e-001,
          -5.6573613625934316e-001, 1.0584592026546602e-001,
          4.3398070379369424e-001, 7.2711115358805714e-002,
          7.3921295197995146e-002, 1.1117047378088714e-001,
          8.1320538369345899e-002, 1.3560280384686058e-001,
          -2.2315209363893346e-001, -8.6540374720311009e-002,
          9.6034120806682569e-002, -2.7158720453133667e-001,
          -1.8530847939292863e-001, 1.3916423490295143e-001,
          -1.0104855206896437e+000, 1.4421620161919191e-001,
          -2.8744614740301898e-002, 2.1847585404068215e-001,
          1.6356130284530992e-003, -1.0960474405087630e-002,
          2.7362124411294203e-001, 7.1947932165626005e-002,
          7.0688404602830948e-002, -4.1932413728314223e-003,
          -1.9091866477203601e-001, 2.7067871990446173e-002,
          -9.7981105909693195e-002, -3.2800071672416103e-001,
          -1.7161372524752816e-001, -8.8924059126346122e-001,
          -2.2758353075906493e-001, -7.6541328231532674e-002,
          1.8731173108517923e-003, 7.3891744298676676e-001,
          1.6502947980132757e-002, -2.1805653772780598e-001,
          -7.1172885828707555e-001, -1.9021031782770798e-001,
          -1.0609334092773568e-003, 4.5300649515019296e-002,
          -5.2627045062012978e-001, 4.4783738930114614e-002,
          -4.3726341244355188e-001, -4.9919009218253221e-002,
          1.3199017164338496e-002, -2.4162606912993051e-001,
          1.3070170205774823e-001, -2.3926890414495183e-001,
          -4.6324456054903214e-002, -1.7026035180314000e-001,
          -3.9188217163453158e-002, -2.8246202267905562e-001,
          4.2712831850038369e-001, 7.1780788890249414e-004,
          1.0604687363363530e-002, 1.4619460995624767e-001,
          3.3424349041975204e-001, -4.9525255042512498e-002,
          4.3330235480895740e-001, 3.5897948989485401e-001,
          3.4315942069661493e-001, 2.0957389202061955e-001,
          1.4500612843299737e-001, 6.6070056357215790e-001,
          -7.5310820082580776e-002, 4.8671541637369642e-001,
          -5.7812817081066226e-001, -3.5331776570061141e-001,
          1.3648689299054642e+000, 2.8977087885318537e-001,
          -1.4829455345428480e-001, 9.3347332511140912e-001,
          1.2567876990483351e+000, 2.9254975972558622e-001,
          2.1499385977507166e-001, 1.1158596538930900e-001,
          4.5905768396501367e-001, 3.9589997026516732e-001,
          9.9074920120932131e-001, 9.4012941738927791e-001,
          4.0922754338165140e-001, -2.3413240601268531e-001,
          5.2263922240225391e-001, 4.3394324455440708e-001,
          -2.1627405225632829e-001, 2.3015402010195340e-001,
          8.9736641184264043e-001, 4.0254942664761501e-001,
          -1.0691900663643168e+000, 3.6385279699652445e-001,
          1.0889495127276578e+000, 2.1669194154817570e+000,
          2.0180504686686679e-001, -5.4092818627765868e-002,
          4.1546042752205775e-001, 8.6830478650241572e-002,
          2.5529498280250440e-001, 1.7694294723998708e-001,
          2.2865198698855435e-001, -9.7882411614776121e-002,
          7.5046807936403603e-001, -1.9062636013844891e-001,
          -1.9980270253240895e-001, 4.5844044310544191e-001,
          8.2411846769671143e-002, -5.5799367435789886e-002,
          4.1191550767779410e-002, 1.6390884576866835e-001,
          3.1958711031013456e-002, -9.1483365304631387e-002,
          4.6575556450492162e-001, 1.1505113748874221e-001,
          9.8556951193213949e-002, 6.7396913793377844e-001,
          1.5961498118267177e+000, 3.1124180915297112e-001,
          8.1940300898811144e-003, -4.1748643422243492e-002,
          -2.6027078845428431e-002, 1.2512017999553252e-001,
          1.7858592195137451e-002, 1.2348598630719668e-001,
          -3.6710485967913770e-001, -2.7397580630024055e-002,
          5.4670281913333764e-002, -1.9629976227001941e-001,
          2.1591170457274225e-002, 1.7150843531577939e-001,
          -7.3457922026670008e-002, 3.8794749987078575e-002,
          -1.7160502031862816e-002, 1.3645018790320990e-001,
          1.8825704299418955e-001, 4.0344093104138040e-001,
          -2.1030987511874860e-001, 7.5160883310403104e-002,
          -1.0417251488865528e-001, 1.3640218499145587e-001,
          8.8788580147155752e-002, 5.6831979206286432e-001,
          2.2606563187485579e-002, -2.4686422645776314e-002,
          4.1704593948698032e-001, 1.0729544798066838e-001,
          -1.5344033999732107e-001, 3.6973577173374456e-001,
          5.4874188697708742e-003, 6.9366259682143744e-002,
          -5.2728774041685272e-002, 4.8832940482142234e-002,
          -7.4833302993956088e-003, -2.0869945082847866e-001,
          -5.3210906772675959e-001, 6.3415620045107604e-002,
          5.6843168350428533e-002, 2.5961273347308111e-001,
          8.4361882297707591e-001, 4.8407177087166703e-001,
          2.2791360792530660e-001, -8.6680596645338975e-002,
          -1.1460866789988716e-001, -1.4934390389866867e-001,
          -8.3306690672228775e-002, -1.9887536830808178e-003,
          -2.2241330835554438e-001, -5.5855486800368881e-001,
          -2.0237148658522416e-001, -3.7637977788875937e-001,
          -5.4396121065039948e-003, 3.5348705298844396e-001,
          -7.1966872038872004e-002, -1.2029140776501741e-001,
          3.5571284545536652e-001, -6.4697869546199230e-002,
          -1.5998788535498795e-002, 2.3063267275066357e-001,
          -1.6824258564313638e-001, 7.4539103494122166e-004,
          -7.4875173013479956e-002, 2.0916453550487374e-001,
          1.8990815423879850e-001, 1.9463666672485461e-001,
          1.5843537568376415e-001, -3.7724607271421406e-001,
          -1.6902032940811726e-001, 1.8157193945322111e-004,
          -2.3986783075118208e-002, 1.0985979028080414e-001,
          1.1356236473689751e-001, -2.6413496847921752e-001,
          -8.6550111999548784e-001, 1.7510222656028357e-001,
          6.3895891597757479e-002, -2.2317538955751923e-001,
          -2.5478026152550509e-001, 2.3040099540025210e-002,
          -8.5254154069262678e-002, 1.9911057068510993e-001,
          1.9312114561978597e-001, 9.0210443117927419e-002,
          4.5126304333921807e-001, 1.0428175916013546e-001,
          -3.9558238007361313e-001, -1.1218983736513832e-001,
          8.4153910583411942e-002, 1.3648107434119566e-001,
          -7.4287988830883346e-003, -8.3444066532494887e-001,
          4.0550675180191226e-001, -1.5395798895648430e-001,
          3.3096752839343719e-003, -2.9244581999417650e-003,
          8.7117586341023595e-002, 1.1443999548660826e-001,
          -8.7134979973068266e-002, 2.4804636608585179e-001,
          2.5993417324941165e-001, 3.7237136333842352e-001,
          -3.2129948346832068e-002, -4.1744611735909203e-003,
          -9.1212267624329324e-002, -5.5944409827777730e-001,
          1.1774972692523331e-001, 3.8730280688152979e-001,
          1.8485850060686126e-001, 5.9160316315946770e-001,
          2.0572107010728860e-001, -4.9106340351547012e-002,
          -7.0762896454635876e-002, 1.5669411713443931e-001,
          5.0494077849527981e-002, -2.2482935858223602e-002,
          1.1607636460316308e-001, -1.2345409562187080e-001,
          2.3792441051632151e-002, 2.7091775884954778e-002,
          3.0763174150759126e-001, 1.6625268698447404e-001,
          1.7762828423006366e-001, -2.4477333024345305e-001,
          -3.8101476887593369e-002, -7.5454756947728074e-002,
          -1.3669236079431418e-001, -1.0001888083692297e-001,
          -5.7942958016139925e-002, 2.8884704852838984e-002,
          9.8811013750806281e-002, -1.5020237355417290e-001,
          -2.0709940284355518e-002, 1.3823164012661920e-001,
          1.1027943442356632e-002, -5.7973577988399450e-001,
          1.1881515912908587e-001, -3.2644150087914901e-002,
          -1.0738935001231605e-001, -1.3099012166239801e-003,
          3.6241205305712902e-003, 4.4699156946674722e-002,
          -1.8027947949585982e-001, -4.1439396686410845e-003,
          2.1348538678165746e-002, 1.4708740394954278e-001,
          -6.2059497816531306e-001, -2.2070654101742099e-001,
          -2.9387216686809631e-001, 3.1918062309575645e-001,
          -3.2340465775473598e-001, -3.4923381882973137e-001,
          -2.3420623788326009e-001, 1.0893508216162422e-001,
          -6.5721086182140009e-002, -9.1046136438180762e-003,
          -8.9994375379000041e-002, 3.7501349335505935e-001,
          1.8491272513593890e-001, -1.9713322863546384e-001,
          -9.0945038151649421e-002, 1.5229941360929894e-001,
          3.3620112652676815e-001, -4.9821771792155500e-001,
          -5.6667928770963300e-002, -1.5235357453803275e-001,
          -9.2405258683734282e-001, -2.0512500601790110e-001,
          -5.4701800735036193e-002, 1.6648076813134034e-002,
          6.1260432664503850e-001, 8.5983136987800957e-001,
          -2.0259853022613708e-001, -1.9237099593262785e-001,
          -8.4510163460918025e-002, -2.4212501936547715e-001,
          2.3527841064921701e-001, 1.0335072853900640e-001,
          -1.3517425459018309e-001, -3.9281292160193396e-002,
          5.7806503513260332e-001, 2.4691567593522473e-001,
          -1.5440682654589596e-001, 2.3283923367817738e-001,
          7.2239092494379292e-002, -2.0166959783023244e-001,
          -2.5144743181908194e-002, -3.9976661899667046e-002,
          9.5629584232005543e-002, 2.1542306819890576e-002,
          2.7089603897325853e-001, 7.2582516345455095e-002,
          -1.4185099201771062e-001, 1.7498072532977257e-001,
          -3.4376924556940924e-001, -7.3994436405941277e-001,
          1.5620279615489518e-001, 3.5272910163394749e-001,
          -4.4940442249869367e-001, -3.0375533088089762e-001,
          -2.4530014647870707e-001, -2.0198219773573231e-001,
          3.7011056672188791e-001, 4.2432375425542457e-002,
          1.2615213622773166e-001, 5.0650053816849228e-002,
          1.4015441940459802e-001, -5.6454753132697384e-002,
          -1.6444662677498836e-001, -1.1254875518965632e+000,
          -3.1762085367644736e-002, -1.7767597725370851e-001,
          -8.7305354024118020e-001, 5.9388620510191842e-003,
          -3.0518864693740921e-001, -2.1493212654790558e-001,
          -2.7205039212808163e-001, 3.0530645034821613e-002,
          3.0547599520273278e-001, -4.0671448455277631e-001,
          1.9101433895350071e+000, -8.7185738153348485e-002,
          -1.9491128813337147e-001, 4.2858853784148149e-001,
          2.7430914268949097e-001, -3.0474311999844023e-001,
          2.5189398426991833e-001, -1.5842802177999574e-001,
          2.2259487998002481e+000, 4.6598224745536765e-002,
          -2.1531863357868308e-001, 4.5280970808900439e-001,
          1.7755408210604923e-001, -6.1535025931390130e-001,
          6.4986420746878282e-001, -1.3733181205513584e-001,
          5.1154772657120207e-002, 8.8285346254106098e-002,
          3.8823032586697510e-002, 4.9494104111881071e-001,
          1.8183163966122082e-001, 2.2108808407923294e-001,
          3.0465668614754521e-001, 6.7396597425662030e-001,
          -2.4261766300772586e-001, -4.0521547180302064e-001,
          1.4417358336646466e-002, -1.9185264356591021e-002,
          -1.5220756092921203e-001, -1.6903356840837418e-002,
          -8.1054310469314261e-001, 4.8099319912828636e-001,
          8.4654658359377188e-002, 1.0154177474197983e+000,
          9.8610193538015201e-002, 4.6110260420355959e-001,
          5.2690798800835614e-001, -3.0778693422033482e-001,
          2.6483016182083124e-001, -4.5161478955731732e-001,
          5.7653295959101425e-001, 3.5420576654775959e-001,
          -2.4319104613370945e-001, 2.2318901997458823e-001,
          1.4066742024825782e-001, 2.9549195650506593e-001,
          -9.1700624620913429e-001, 4.6962704802064670e-001,
          -1.3255946770660640e-001, 1.6958330820401987e-001,
          -1.4099047819326083e-001, -2.5821051509222248e-001,
          3.0966913660358375e-001, -5.1459590449202441e-001,
          1.6610961183172543e-001, 4.4451008738289603e-002,
          1.2237108350270993e+000, 6.5191546778114340e-002,
          -2.9528022715331764e-001, 8.6455153352239439e-002,
          3.2455850423768619e-002, -3.8433521939282195e-001,
          -1.2581525403035385e-001, -3.1417141770792312e-001,
          -5.6985944510474340e-001, -3.1947578385242092e-001,
          5.3278348963377582e-002, -2.2641894490104801e-003,
          -1.3570039235251791e-001, 4.5118650351224282e-001,
          6.7449794584151734e-002, -4.6266428748455046e-002,
          -1.5862524556076577e-002, -1.5696936468669835e+000,
          6.6666859776941623e-001, -4.0920640667477894e-002,
          -7.0182063237668579e-001, -1.2583487186898130e-002,
          1.0996729502602506e-001, -8.8151868092743058e-002,
          2.0330282455638554e-001, 1.3303094162809076e-001,
          -3.2562725897341571e-001, -6.2005091304935323e-001,
          2.9295145838768044e-001, 1.1481851344141444e-001,
          -1.3833200180691246e-001, -8.0856658262110942e-002,
          -4.9654894722363382e-002, -4.6885781770743366e-002,
          1.5629159995288497e-001, 2.2181460204406148e-002,
          4.5631428377697120e-001, -2.4374734606670656e-001,
          -6.1057485821559421e-001, -5.9086390775005826e-001,
          6.3988380141862707e-003, 4.1357023840501111e-001,
          6.8848910135489261e-001, -9.1484031202288829e-001,
          1.3910590854694952e-004, 1.2805635592546943e-001,
          2.7204393938428609e-002, 4.6117808875450007e-002,
          2.5690355942765714e-001, 1.9005705907445380e-001,
          -7.0732404486727844e-003, -1.4064960093607179e-001,
          -2.5581290646721511e-001, 4.5218679870173958e-002,
          5.9568351498733263e-001, -8.2263403853128136e-002,
          -5.5323518546951153e-002, 1.9256669459325429e-001,
          -4.4754478767711790e-002, -2.4105037116726294e-001,
          -1.2583758228494569e-002, 1.0544970071256138e-001,
          -2.2429514272002606e-002, 5.5542310338055989e-001,
          -2.5690660839031704e-001, 1.1893061069932558e-001,
          2.0960458773386169e-002, 4.7553498676379459e-002,
          2.7606245200275248e-001, 1.9655561058390628e-001,
          -2.4004065834857445e-002, 7.1715002039965947e-002,
          6.5245812492843308e-002, -2.5307269748433681e-001,
          -5.2996472432320633e-002, -7.2877298276699795e-002,
          -2.8535218995780670e-001, -6.7932363110268179e-002,
          -2.5946107461988310e-001, -1.9765804429877640e-001,
          7.6084983241554022e-002, -1.7048610604198675e-001,
          -4.7901212908740012e-002, 1.6871300311694232e-001,
          1.2304456255224491e-001, 2.1951103009642745e-002,
          -1.6818133259503021e-001, 5.4222632883055975e-002,
          3.0254568979455311e-002, -6.3507176395946219e-002,
          1.0066579058202724e-001, 4.6699987333485446e-002,
          1.5099350403281467e-001, 1.7685032599513695e-002,
          1.1772476348458115e-003, -1.1243043671734348e-001,
          3.2520403272155918e-001, -4.3358429497433276e-001,
          -7.6573898436002631e-003, -1.7004128290785039e-001,
          1.2163359560634309e-003, 6.0313041211258814e-002,
          -3.6267094590039217e-001, 7.8610314607131138e-002,
          4.4200486717076753e-001, 1.6484446800216243e-001,
          4.0136441779173421e-001, 2.4981802478031032e-002,
          9.4041276382248237e-003, 4.8303508440966697e-001,
          4.7966751007256625e-001, 9.3367240485082034e-002,
          -6.5303810228947420e-002, 1.4501903659131184e-002,
          1.4962764077238159e-002, 9.5026315303194137e-002,
          3.6195261706006017e-002, -9.3508993454932080e-003,
          -5.1609569095364516e-002, 1.6597677364221655e-001,
          -3.7518449039843339e-002, -2.5643624556992872e-001,
          2.5851751749120053e-003, -1.0355513720527321e-001,
          -2.0563871304142708e-001, -5.8779805783126464e-002,
          7.5371592968678547e-001, -5.3053034797465294e-002,
          3.0460027878670348e-001, -2.7631945657836429e-002,
          -1.0626981584714739e+000, -6.6859312811452842e-001,
          4.7657627297356292e-001, 5.2148446537198623e-001,
          -3.9563735409492251e-001, 7.5307665743302707e-002,
          5.9645710706506838e-001, 6.6037970444338767e-001,
          8.7037076635674310e-002, 7.4958325801471049e-001,
          7.0179591923251808e-002, 1.0897795495938651e+000,
          2.9951427681514925e-001, -3.1492989064829779e-001,
          -7.2390537264031066e-003, -1.0955238160796932e+000,
          -4.5690570329364683e-001, 2.9387810168377393e-001,
          1.1696749481081739e+000, 2.8633512282496076e-001,
          -1.7188498592894014e-001, -2.2848983352524534e-002,
          -1.0313536355492471e-001, -1.4029278608106546e-001,
          1.6931159422312825e+000, -5.3470488424369000e-001,
          -1.3947947455844117e-001, -2.1972212152619014e-001,
          3.8676496257371568e-001, 9.2242557881481252e-002,
          -3.4325866675494215e-001, 3.3515278612648314e-001,
          1.5927470969076047e+000, 5.3157866877738746e-001,
          -1.6651687275557597e-001, 4.7205680927022688e-002,
          5.4628989934083459e-002, -4.4120346978929820e-001,
          2.2603668536946314e-001, -2.0865232108639559e-001,
          -3.1065219792605919e-001, -3.3360836898416624e-002,
          2.4055363170623727e-002, 9.6285929168844070e-002,
          8.7076212022185628e-002, -2.4792604557248388e-001,
          -2.3206576405442197e-001, 1.7154925060480112e-002,
          8.2540379063231173e-001, -1.5381713759839941e-001,
          -1.0445525932133637e-001, 1.1624177585591799e-001,
          3.4311835687300431e-002, -2.3851336601340142e-001,
          -3.2691166379555514e-001, 1.3846429698816329e-001,
          3.2527356320648536e-002, 4.2662219856547545e-001,
          2.7765789658077483e-001, -4.2097803682605892e-002,
          -5.5619240462608376e-002, -2.2767900547591063e-001,
          2.2245994507893323e-002, 2.5822531822819433e-002,
          3.1741528895066778e-001, 2.9680142650219930e-002,
          -2.4026656585405409e-001, 3.9923702065973882e-001,
          1.8727568706253767e-001, 2.4768975289459344e-003,
          -5.1719374024071244e-002, -2.9810871855865714e-002,
          1.5858342277142948e-001, -1.5814388893413811e-001,
          -7.2452022484920520e-001, -3.2428585216422084e-001,
          -1.4596255584983781e-001, -2.1869565387515957e-001,
          -8.0704073271665755e-001, 1.5602208415049185e-001,
          -8.2506895878347294e-002, 2.7292562354341143e-001,
          -9.7860828624246965e-001, -5.4006077396902696e-001,
          7.8933368197431603e-002, -7.7410658915920250e-002,
          -1.8887143421354058e-001, -7.4135997502347173e-002,
          -1.8316888056152142e-001, 3.6631168114789510e-002,
          5.9421790747176018e-002, -6.3784340620397773e-001,
          -4.8325381486352306e-002, 3.0463361589783286e-002,
          -1.9372370869047577e-002, -2.6166302775029954e-001,
          -7.8389268836828085e-001, -2.6631950550412571e-002,
          2.6129412549715236e-001, 1.1734626059826538e-001,
          -2.1747618645551089e-001, 1.4795158107494571e-002,
          -4.5906914685909767e-001, 1.3873073842649750e-001,
          -1.2371805232033595e-001, -2.6386111930267081e-001,
          2.8529151993024993e-001, -2.9015117876237101e-001,
          -1.1690341155148696e+000, 2.9998272434252921e-001,
          -3.0844706144707934e-001, 1.4308847615987730e-001,
          1.5660490710787148e-001, -3.2997995927294838e-001,
          9.2804147168964291e-002, -6.3573631410595588e-001,
          9.6552464595701687e-002, 8.9453858609204046e-002,
          -2.4739439961666693e-001, 6.7585625143374239e-001,
          2.1942446189199372e-001, 5.1633398426145054e-002,
          -3.2213360125740542e-001, 2.2818436531604775e-002,
          2.5917791506466636e-001, -9.1046684490665747e-002,
          1.9483884081403793e-002, 2.5018611482444797e-001,
          -7.8249370322476819e-001, 1.2713171631331385e-001,
          1.0303021886059303e-001, -5.8607069262897278e-002,
          -2.1829934245812840e-001, -1.9513175442971051e-001,
          1.3399602117111512e-001, -3.3059973558619010e-001,
          -5.6066485258061127e-001, 7.3872172058171232e-002,
          -1.4804693973503730e-001, 2.5057734628876127e-001,
          -7.9629498513790198e-003, 1.1531918167218808e-001,
          1.5288728601879942e-001, 5.2097722103441813e-001,
          1.4636655932744611e-001, -1.2126475174366730e-001,
          1.3194510981176935e-001, -2.8730383054181522e-003,
          4.3176944704979109e-001, 2.5606686983525973e-001,
          -9.0470809758017814e-002, 1.0540553318792339e-001,
          2.2629766678909202e-001, 3.4326160816598117e-002,
          6.9485290057070354e-002, 2.8211578888824423e-001,
          -3.5841622985880567e-001, 6.4552772166960690e-002,
          -5.9098630977183353e-001, -8.6082883755611198e-002,
          3.0954827890390441e-001, 1.3374986509509001e-001,
          1.0325595659017614e-001, 3.6288235369925849e-002,
          1.0143072310930620e-001, -1.7054197998681489e-001,
          1.3955930366382614e+000, 8.3531117337200167e-001,
          1.0394661745438510e-001, 2.2753923436646742e-001,
          1.1484452677320685e+000, 3.1324075370245015e-002,
          1.5150205981953863e-001, 1.3874517242278877e+000,
          -1.8491029258641464e-001, -2.7648548359902464e-001,
          9.1247669879628202e-001, 5.8949581128677897e-001,
          1.3429626848731391e+000, 9.1013677472897603e-001,
          7.3526420211188409e-002, -1.5055707174086286e+000,
          -1.5050372406106189e+000, -6.2759407140546486e-001,
          3.0601644576942527e-001, 3.7984188028791710e-001,
          5.9635396321049505e-001, 7.4478207999999990e-001,
          1.9994988059446139e-001, 1.0165986002813418e-001,
          7.1186138410855393e-001, -3.2478618238410201e-001,
          -8.6963594689458010e-002, 4.8587631438550154e-002,
          -6.0638643440539730e-001, -6.8081210738168252e-001,
          -1.2361796565326733e-001, -1.7284717123020190e+000,
          -1.2200347460085557e-002, 6.9679817756089546e-001,
          -5.9214952534480858e-001, 1.2025426167522908e+000,
          -8.3273893522937126e-001, 2.1942517317313417e+000,
          2.2265651734260978e+000, 2.8943895988280732e-001,
          1.3699787593691453e-002, 3.4972890156944264e-001 ]
      - [ 7.8448860485298555e-001, -1.7167547368243324e-001,
          7.6672236957246093e-002, -6.7463854558585223e-001,
          -6.6190379167094815e-001, 4.1761389079188105e-001,
          -1.5240460008947185e-001, 3.7371258964582682e-001,
          -1.7938293717914827e-001, -9.8266252924296849e-001,
          -8.8790187399834408e-002, -3.1274827812054762e-001,
          -1.0406175792862478e+000, -3.5914551926785182e-001,
          6.7085282955318704e-001, 6.7175176311476148e-001,
          -1.5974362224631653e+000, -1.1161917120878065e-001,
          8.1694153269406478e-001, -7.1141438584523808e-001,
          -2.9722865028306839e-001, 2.0846294529378956e-001,
          -3.5253236221566797e-001, -1.1599980896757807e+000,
          -1.3459812212417726e+000, 5.9449127969951610e-001,
          2.7324824260048391e-001, 1.0294402436461858e+000,
          -9.9805411187188020e-001, 4.7906150919541118e-001,
          -5.9963644177944075e-001, -5.3884995307173600e-001,
          5.2220184077129361e-001, -2.8871536933444247e-001,
          2.0147422531619674e-001, 5.1224601585754759e-001,
          -1.0772854942717598e+000, -1.7998148742105369e-001,
          -5.9854082321507862e-001, -9.3911918509379022e-001,
          -8.2981581783786396e-001, 9.8112842550436130e-001,
          -6.3629072315618407e-001, 3.1651115823567511e-001,
          7.0411572218284002e-001, -8.4091622238636621e-001,
          1.0416624818408489e-001, 1.0203620573056227e+000,
          -4.7176657110786441e-001, 4.9998945146054019e-002,
          7.4607384445548641e-001, -1.8828004905669019e-001,
          -2.7668162648013878e-001, -1.2934162054684208e+000,
          1.1669778865383935e-001, 4.3116789324406907e-001,
          8.6827228649561494e-001, -9.1477154275805361e-001,
          -3.6244415896819226e-001, -3.4271940076947216e-001,
          -7.6775584435090405e-001, 2.2228098890208720e-001,
          -2.1767904735765459e-001, -7.6700522457528109e-001,
          -7.7025439688339825e-001, 3.3214589663699867e-001,
          -3.3932208908410078e-001, -5.4553713736152076e-001,
          -2.0282721078947910e-001, -8.7958636599064488e-001,
          4.9999589983565745e-001, 2.2702439992964268e-001,
          1.6107620304822926e-001, -2.4369290209107851e-002,
          -5.1486122615754593e-001, 6.9402996436164366e-001,
          -9.3603231015612554e-001, 7.9199305333401138e-001,
          3.3163825824217208e-001, -1.9993766043038372e-001,
          5.5703011131317026e-001, 3.0350760817631345e-001,
          -8.6759084242135298e-002, 1.1433634588723729e+000,
          1.6402752492166156e-001, 1.2051990931731815e+000,
          -7.1643190438864757e-001, -1.9291668531879785e-001,
          6.3556142579965480e-001, 7.2808560019731516e-001,
          4.1791942740396859e-001, -5.6338304510159409e-001,
          8.3531207448300704e-001, -8.5788801242507773e-001,
          -3.6588638678193097e-001, 5.6860454464034449e-001,
          -1.1604642084687901e-002, 8.0806071381444425e-002,
          -4.7087245924428706e-001, 6.6278049563694774e-001,
          4.7101533786326649e-001, 7.4427611025770390e-001,
          -9.3045559303207326e-001, -6.4921038442180756e-001,
          -8.5799509551376107e-002, 7.0228977817029359e-001,
          -4.0396416710924360e-001, -1.6386607291209693e-001,
          -1.6646353801874444e-001, -1.0046104653030572e+000,
          -1.4250015491485596e-001, -1.1724068393011097e-001,
          -9.4970680721879608e-001, -1.0234946557160662e+000,
          6.8132142641514548e-001, -4.9333368010215284e-001,
          -2.2325331043854948e-001, 5.4782350134766933e-001,
          -5.1550517433167109e-001, 4.4995811038346284e-001,
          8.3615654846549614e-001, -1.2707135331539927e+000,
          -9.4692696141005761e-001, -1.2748401222412764e+000,
          3.5709394076049322e-001, 5.6432766064555773e-001,
          1.7542950860330458e-001, 1.0239676415336130e+000,
          -2.0423232567556027e-001, 4.9557098228484392e-002,
          -5.1422309833183899e-001, 4.7070541441230113e-001,
          7.4665726737679761e-001, -1.4841664759047224e-001,
          -2.4067441549988844e-001, 4.1310325740575797e-002,
          -1.3597988437626705e+000, -8.4347542993171332e-001,
          6.1797523800822518e-001, 1.6642134810239076e-001,
          1.0426923377548640e+000, 4.0588077960355212e-001,
          2.0367961626328712e-001, -7.8806799062626531e-001,
          5.8778212218625470e-001, 1.1769089941911517e+000,
          -1.9542678710626477e-001, -6.5385065111048124e-001,
          8.5816328288938515e-001, -3.8557869811623197e-001,
          -2.1496634356305006e-001, -7.2218566241563431e-001,
          9.8737591709608297e-001, 3.2741096250967505e-001,
          -4.7930176275774844e-001, 3.3519011021852491e-001,
          8.8551953512728224e-002, 4.2542557595267899e-001,
          6.9924310303183257e-001, 5.5699941056042890e-001,
          1.9475751847535375e-001, 2.2821350304238669e-001,
          -6.7691859360487461e-001, 4.2647767238867879e-001,
          -5.6031336300075056e-002, 8.2342592011124494e-001,
          -4.3627865826131096e-001, 1.0146273877540229e-001,
          -3.1220999653971193e-001, -6.0379308320329206e-001,
          -2.4821103677019479e-001, 1.0086922513563745e+000,
          5.2870257130384446e-001, 1.0902809594636675e-001,
          5.0586144249662757e-001, -6.7391862279140957e-001,
          7.8235516653823489e-001, 2.0534617714222528e-001,
          -1.0595923743358256e-001, -7.4732544368577003e-001,
          5.8453039189354905e-001, 5.3325441931076800e-001,
          8.7200537189043181e-001, -3.4129468750596040e-002,
          -4.2247956377787477e-001, 1.2070014385909439e-001,
          -3.4370884520128370e-001, -4.6620664474845547e-001,
          2.7352557936068783e-001, -7.1791424498168754e-001,
          2.4125274533146615e-001, -5.4555376818595447e-001,
          -1.4103696324673889e-001, -8.4975328456740842e-002,
          -3.1231639507619668e-001, 9.9316966664046061e-002,
          -7.5513993073591601e-001, 1.0803895233762861e-001,
          3.2965292288344369e-002, -1.2675543478748634e+000,
          6.0130087041587232e-001, -4.6948573872729454e-001,
          -1.6459745078399782e-001, -4.5765375930222280e-001,
          2.3032925791114561e-001, -6.4491014425889848e-001,
          -8.7037678924550499e-001, 5.6135182739049172e-001,
          -2.4738531360764052e-001, -2.0463537998497486e-002,
          -9.1613505744477863e-001, -9.7265820704088801e-001,
          -1.7596791757271646e+000, -1.5014021158516606e+000,
          -1.1101198933417800e+000 ]
