%YAML:1.0
my_nn: !!opencv-ml-ann-mlp
   layer_sizes: !!opencv-matrix
      rows: 1
      cols: 3
      dt: i
      data: [ 49, 36, 5 ]
   activation_function: SIGMOID_SYM
   f_param1: 1.
   f_param2: 1.
   min_val: -9.4999999999999996e-001
   max_val: 9.4999999999999996e-001
   min_val1: -9.7999999999999998e-001
   max_val1: 9.7999999999999998e-001
   training_params:
      train_method: RPROP
      dw0: 1.0000000000000001e-001
      dw_plus: 1.2000000000000000e+000
      dw_minus: 5.0000000000000000e-001
      dw_min: 1.1920928955078125e-007
      dw_max: 50.
      term_criteria: { epsilon:9.9999997764825821e-003, iterations:1000 }
   input_scale: [ 1.6246729509341090e-001, 5.7357419738071669e-001,
       1.5065208477623279e-001, -1.3284580362657708e-001,
       1.9943990570191017e-001, 3.3473507115471784e-001,
       2.9682662725077824e-001, 3.3200086400661583e-001,
       3.1596144330554315e-001, -2.5163835496852272e-001,
       3.0333061476059608e-001, 2.1593776868766423e-001,
       2.2673437724623724e-001, 5.6563768698156026e-002,
       3.7810705785033649e-001, 5.4437263647211764e-001,
       4.7649982105058758e-001, -1.7302454914954954e-001,
       3.9902342892782772e-001, -2.6049512098002120e-001,
       5.2823364994689936e-001, 6.8912466201708644e-001,
       5.7533263680106028e-001, 3.7407204279443290e-001,
       6.1355737442434444e-001, 3.8679102433428392e-001,
       7.1081393066412024e-001, -3.1045344554707155e-001,
       7.3028962548048659e-001, -1.7700757411461157e-001,
       5.8217058404019317e-001, -8.1156826968287618e-002,
       7.5518848415622719e-001, -3.4933972133461899e-001,
       9.7908796523523101e-001, -3.2538823417935991e-001,
       6.1216681199858158e-001, 8.4443925186274327e-001,
       8.1753635715484807e-001, 2.8352046669728177e-003,
       7.8150247172530174e-001, 2.7626954997801784e-001,
       7.6113634680905318e-001, -4.5546522424814589e-001,
       5.7530711591096517e-001, 8.2979505524960795e-001,
       9.5981246719877156e-001, 3.8111554508783785e-001,
       9.7347732755895910e-001, 3.7072556104065091e-001,
       8.8606899651676430e-001, 4.1480772712076530e-001,
       7.7610062087378706e-001, -1.7236840954549421e-001,
       9.7267527351831207e-001, 1.6751927256124768e-001,
       9.1218746111187599e-001, 1.0873250477579642e-002,
       1.1283346911658454e+000, -9.8976627828911298e-002,
       8.9227322966869160e-001, 7.6222430687586263e-003,
       7.7335386376508786e-001, 1.6729800720957216e-001,
       9.2918333324357105e-001, -1.9787372074290244e-001,
       1.0501959530814029e+000, 8.5034102738581141e-002,
       8.0502724916676005e-001, 9.0314184448375889e-001,
       8.7610061237436931e-001, -3.7808134901020884e-001,
       1.3381520094570751e+000, 8.9062706520928203e-001,
       8.3437529918888320e-001, -2.7088224629582075e-001,
       1.0027904611308649e+000, -1.4043444764003005e-001,
       1.2125888973939232e+000, -4.6170731435233597e-001,
       1.7676748841350214e+000, -1.7151163241718909e-002,
       1.0853893908759564e+000, -2.7493719681638845e-001,
       1.2999836365386064e+000, -7.0958004505225922e-002,
       1.1885854218198686e+000, 1.2731740065236336e-001,
       1.5895374812221472e+000, 5.1056530523607258e-001,
       1.3299886678798718e+000, -3.4551625050460760e-001,
       1.2924026953494652e+000, -8.1593647640751155e-001,
       1.2661718644011031e+000, -2.5175979263236020e-001,
       1.3239200318519253e+000, -5.9752100889431203e-001 ]
   output_scale: [ 5.2631578947368418e-001, 4.9999999999999994e-001,
       5.2631578947368418e-001, 4.9999999999999994e-001,
       5.2631578947368418e-001, 4.9999999999999994e-001,
       5.2631578947368418e-001, 4.9999999999999994e-001,
       5.2631578947368418e-001, 4.9999999999999994e-001 ]
   inv_output_scale: [ 1.8999999999999999e+000, -9.4999999999999996e-001,
       1.8999999999999999e+000, -9.4999999999999996e-001,
       1.8999999999999999e+000, -9.4999999999999996e-001,
       1.8999999999999999e+000, -9.4999999999999996e-001,
       1.8999999999999999e+000, -9.4999999999999996e-001 ]
   weights:
      - [ -8.1506765815427554e-002, 1.7122534396804659e-001,
          1.2740607975418980e+000, 1.0552987580554769e-001,
          1.2419963964592558e-001, -5.6011350565025231e-001,
          1.3138400663661642e-001, 3.7161952702071460e-001,
          -1.4953961881532787e-001, 1.0235601829679045e-001,
          3.7281600856053876e-001, -1.1302559081992791e-001,
          -3.3816321513964231e-001, -1.5851682298367240e-001,
          2.7858252499599476e-002, -9.3893603562291972e-001,
          2.5924432091746474e-001, -1.1885312088592477e-001,
          -3.2104246471933030e-002, -6.3643924859608403e-001,
          1.1689684568381922e-001, -2.7002933859419470e-001,
          4.8864162745493089e-001, -2.2386792821657349e-002,
          -1.2302250767574908e-001, 9.6557367370661867e-002,
          -2.6727538907135734e-001, 2.3981870579292322e-001,
          7.6459760916690586e-002, -1.6292840258776764e-001,
          4.6598015356417194e-001, -2.0676172707418408e-001,
          1.5937352804030511e-001, -4.3366876473935001e-001,
          4.2750077475891413e-001, 8.5645763166605868e-002,
          -2.0814651247202509e-001, 6.0542872400472514e-002,
          7.7385557919632452e-003, -3.3413612373418483e-001,
          2.3717470136967486e-001, 7.8790179914720218e-002,
          -4.5647606255846529e-001, 6.0354161045537724e-001,
          -9.2908987855232800e-002, 6.2092147664623742e-001,
          5.0937757287999319e-001, 5.8871279909511631e-001,
          -1.2780224555235323e-001, 2.7471904255575241e-001,
          -2.3615538867057292e-001, -4.8876217169398217e-002,
          -1.4606709827722199e-002, -1.0049629742276391e-002,
          -2.6154078397521080e-001, -3.7649415438694517e-001,
          -2.9013376737570529e-002, -1.6868954698057617e-001,
          -8.1000822614809023e-002, 4.3366751699522366e-001,
          -2.2687061815536910e-001, -6.0578440251672597e-002,
          -4.9526568517564129e-001, -1.7686971165093213e-001,
          -6.7092625634570613e-001, -8.3788936847644199e-002,
          2.9378147842188790e-001, -3.5871349685857140e-001,
          -1.2388962877252915e-001, -2.9494942034844340e-001,
          1.6321943352867271e-001, 2.4125759290490590e-002,
          1.1470278676062193e-002, -1.0683507006946991e-001,
          4.8705867528285512e-001, 3.8639457275763817e-001,
          3.2861630151187304e-001, -1.0018872718921427e-002,
          -4.7899529628364822e-002, -4.1460059311636169e-002,
          5.2526067487496275e-002, 7.0620199161938405e-003,
          8.2906867664459035e-003, -7.7357222103326212e-002,
          -3.0080233195060296e-001, -8.3287630483676239e-002,
          -1.3954017052634528e-004, 1.2487671983342252e-001,
          2.9453785208133010e-001, 2.3555050403935085e-001,
          -3.3737516997963388e-002, 9.9946026398022289e-002,
          -4.6727426304794750e-001, 2.5480741115513999e-002,
          5.1278614651779995e-003, -3.0456230561595404e-001,
          -1.8848872752431725e-001, -3.3733302891991120e-002,
          3.9994166221513333e-002, 1.5649648754914852e-001,
          1.1674690478822992e-001, 6.9946682044215502e-001,
          1.5762811482309895e-002, -1.3441220926159320e-001,
          1.0465401895944185e-001, -1.3735023882439601e-001,
          4.7549640199176908e-002, -5.0394066352744071e-002,
          -4.9417996303706309e-002, -1.3987166282263813e-001,
          4.7952919926900750e-001, -4.1806000189650708e-002,
          8.0826839387708904e-002, -6.5761266015076286e-002,
          1.8565129532637523e-001, -2.6397858996404322e-001,
          -2.7245098817009650e-002, -5.8127457225299439e-002,
          -7.4535702285242000e-001, 2.4312066385633949e-002,
          5.8407103305200980e-001, -6.3070434396601815e-001,
          -3.9959376117210543e-001, -2.3195663345822856e-001,
          2.5772927132128903e-001, -3.6597347943121195e-002,
          3.3879361973656333e-002, -4.5742106293741092e-002,
          2.4584268406039320e-002, 9.8416026546947116e-002,
          5.6504833711571611e-001, 1.3613350117758530e-001,
          2.9208811965625476e+000, 6.9250440771724420e-001,
          3.7890534572532991e-001, -1.3499445005312130e-001,
          -2.3598208237206880e-001, -7.6222940471401462e-002,
          -7.4245436234686144e-002, 4.1881304527143343e-001,
          5.6084852738826629e-003, 1.6114506370416481e-001,
          -5.5000634902407808e-001, 2.5929124074767668e-001,
          -4.6422583554313751e-001, 4.5793786749754545e-001,
          3.3659031376722492e-001, -2.1061279627351773e-001,
          -1.4302406005233406e-001, -2.2780032448138732e-001,
          7.9579255604344729e-002, -4.3821920299221717e-002,
          2.8081978858783879e-001, 4.5455849887562422e-001,
          1.2082250836408875e-002, -1.0284365482998939e-001,
          -1.4730786466150320e-001, -1.8360932213539702e-001,
          5.5421332533268058e-002, -5.1716807553585320e-001,
          2.8343251894315324e-001, 2.0380651485914161e-001,
          -1.3344084253505122e-002, -7.9430193606363719e-002,
          4.3567068183914717e-002, -6.7745326616038326e-002,
          1.3770773211121601e+000, -6.9694244782827902e-002,
          2.3056222254368447e-001, 1.5184430299634313e-001,
          3.1295175669983250e-001, 5.5863062348976915e-002,
          -4.1268234615621147e-001, -7.5509114925567361e-002,
          -7.9080016653859025e-002, 1.7751372903525195e-001,
          1.1411431305053153e-001, 4.2656358968161906e-001,
          4.2525469496214482e-002, -3.1218969948258610e-002,
          1.3396667158585998e-001, -9.2554002786427447e-002,
          -6.7201912111369347e-002, 9.5831311619898996e-002,
          -1.6541928649438484e-001, -4.0530010097552825e-002,
          1.0757270079885263e-002, -7.0510459869774472e-002,
          2.9870334983146368e-001, -3.1309692660822819e-001,
          -4.3354505964761220e-001, -1.2679864581087269e-001,
          -7.0302839007793064e-002, 2.1766178810931336e-001,
          1.1811598450064087e-001, -1.4143246669804008e-001,
          3.7596581140834162e-001, -9.3153538786766174e-002,
          4.3652936353372090e-001, 8.5091302847521755e-002,
          -7.9750411531658322e-002, -3.4112637593234019e-002,
          -2.0040460405684527e-002, -1.8153947872823842e-001,
          -1.2216699168576062e-001, -6.5298635863770115e-003,
          1.4606052455162791e-001, -1.1857779209485456e-001,
          1.0016805892174950e-001, 9.3512422585860268e-003,
          -1.6638796174538856e-001, -2.0228161868716518e-001,
          1.1625458596524398e-001, -1.1942691733304288e-001,
          -1.1768246070992432e-001, -3.4041580348786613e-002,
          1.1306572606991493e-002, -2.3761497188542643e-001,
          1.1730969467512135e-001, -2.1411571139754348e-001,
          -1.3009535962381392e-002, 2.8250152542411172e-002,
          -9.7877046835579060e-002, -4.2534933462469990e-002,
          8.2054985649428411e-002, -3.1517897236332820e-001,
          -8.7480296789498355e-002, 5.6023756026442675e-004,
          1.3854816851443635e-001, -1.9904460393136605e-001,
          -7.2621956003572893e-002, 6.6284800648932718e-002,
          4.8594501031508051e-002, 7.3279370295214433e-002,
          -9.1000908658826762e-002, -4.4022694404852285e-002,
          -1.2696520996007951e-001, 1.0670722902048039e-002,
          -5.1505056863042659e-002, 2.7387802993692584e-001,
          1.9592021122720990e-001, 2.0858320894570750e-002,
          -9.2775824728877659e-002, 2.0157619757740965e-003,
          -9.5057800639780504e-002, -5.1055928212235431e-002,
          1.4418608332948510e-001, 1.6815948304422704e-001,
          -1.0410882889167351e-001, 7.4101593300833921e-002,
          -1.1060961244276703e-001, -3.2368498174422909e-003,
          -4.2568162083249955e-002, 4.6020068109884779e-002,
          1.6606541953445367e-002, -2.9641263597933241e-003,
          -2.6861166580654439e-001, 3.7453699481942073e-003,
          1.6807696198269557e-002, -3.1010105328235397e-002,
          2.3767715562954767e-001, 4.1945023930953507e-002,
          -2.6365791409511657e-002, 3.6564481930736881e-001,
          -8.3029805949331320e-002, 1.2269711463665008e-001,
          -5.4592151501123724e-002, -9.5212729536211960e-002,
          3.3348733440171624e-001, 2.3626913004528663e-001,
          1.0486807867739446e-001, -1.4951383937013063e-001,
          -7.2803424575502818e-002, -1.0030172449709276e-001,
          2.6823584773467170e-002, 1.7448822099616645e-001,
          1.0467633988131808e-001, 3.3004735225796909e-002,
          -1.0852889616770336e-001, 1.8808852426087866e-001,
          -6.1299164086013651e-002, -2.5412668832446556e-001,
          7.7795494154676681e-002, 8.7277961961001682e-002,
          -1.5980086552018197e-001, 2.5709841533335376e-001,
          4.0115565305315015e-002, -2.4163126645894720e-002,
          -5.4156218206379142e-002, -1.1854347095961820e-001,
          3.2202982532557732e-002, -4.1553597523981156e-001,
          -1.8390868423627252e-001, 1.3767794356212964e-002,
          8.2409002056022307e-002, 2.1762323950197998e-001,
          1.0741768870066010e-001, -2.2996109943951448e-001,
          -1.4562820778442237e-001, 2.3467257299130881e-001,
          -2.1621980216779135e-001, -3.2800428526538611e-003,
          2.4104824530288421e-002, -3.0235792154674222e-002,
          -3.2944113267740999e-001, 5.2249037089696515e-001,
          -8.0722174536129745e-002, -8.7329789645529954e-002,
          4.9412585293741651e-001, -2.2483916017853514e-001,
          -5.2013099638522364e-001, 1.4405170818292695e-001,
          5.5788922413781278e-002, 2.9249154420487037e-002,
          -3.3625183882741561e-001, 1.3917087835412159e-001,
          -1.5031057920904603e-001, 1.1649441265635573e-001,
          1.2026825130493633e-001, 1.7260549873790534e+000,
          -2.2235787104586863e-001, -2.2885163517319954e-002,
          -6.6850933912399035e-001, -6.8704681524447941e-001,
          1.3616108024307524e-001, -2.0649696267250636e-001,
          -9.9430038468136944e-002, -2.3919453736533897e-001,
          7.3911162873625980e-002, -7.0402475707263948e-002,
          8.6789451832185643e-002, -3.5629730889993771e-002,
          -1.1296327369410473e-001, -1.0670720810743312e-001,
          4.7055837793711738e-002, 8.1361450183585454e-002,
          1.7220000116751721e-001, 5.3531610353894483e-002,
          -2.5088841759339459e-001, -2.4714944110406888e-002,
          -9.0620825711167252e-002, -7.1165003312659139e-002,
          -4.7489987447240156e-001, -1.8367428159333776e-001,
          -1.3837782564884785e-003, 9.3785874952897849e-002,
          1.5186249726020878e-001, 1.3951864676009110e-001,
          -3.4218048328329059e-002, -1.6215315187618398e-001,
          -1.0491469518507857e-001, -2.9998566034504254e-001,
          -2.3530169877007984e-001, -1.1020151606811709e-001,
          -2.2358319437711596e-001, -2.8833432986432095e-001,
          -1.0139799707817630e-001, -1.2467597579120494e-001,
          5.1754011605981243e-001, 1.3000029821869633e-001,
          -2.6545018257062503e-002, 1.5060882398508682e-001,
          8.6572030606875661e-001, 1.5122296987867233e-003,
          -3.5404878015653851e-001, 1.6840976468771186e-002,
          -1.4867809803561743e-001, 2.6059068223171711e-001,
          -1.5990281573221857e-002, -3.2615382312069473e-002,
          -1.5700150916443209e-001, -7.1590914767031721e-002,
          -3.6582149593007492e-002, 3.5916684017920025e-001,
          -9.4125294506798490e-002, -3.5518001421188289e-001,
          4.2153334546193286e-002, -4.9106928386904246e-002,
          1.7202547723440494e-002, 3.3197690753079878e-002,
          3.9757075284186849e-001, -6.0161148165757940e-002,
          -1.5008530831054617e-003, 5.5365335764006907e-001,
          -1.2353214973476756e-001, -2.0223880893592866e-002,
          -5.9518562828650790e-001, 2.2714473828212289e-001,
          -5.1997271439609735e-002, -2.0909467255603015e-001,
          3.1172702131900987e-001, -6.5558428867032970e-001,
          -1.0499807856322417e-001, 2.1409179348168053e-001,
          2.5481549597667807e-001, -2.9955585782929672e-002,
          9.2332604209565558e-002, -3.6754331322936906e-001,
          7.2602126090100041e-003, -1.5319088329785299e-001,
          2.1612522516692845e-001, -1.5793408058236286e-001,
          -1.2554551252870419e-001, 1.1836622680131461e+000,
          -1.1365087868882022e-001, -9.9859799453202155e-002,
          7.6056335268053343e-003, 2.1220687535591240e-001,
          -2.4721395277477579e-001, 3.6267163643449902e+000,
          6.5189129384913766e-002, -4.4928019663205587e-002,
          -1.2655210544661896e-001, -8.1376963886625589e-002,
          1.3231152970331189e-001, -2.0829488534276688e-001,
          1.2672755899162579e-002, -1.5270531245580192e-002,
          2.0869594888091664e-002, -3.0783168010374601e-001,
          -9.2023650211610175e-001, -4.8658289919481323e-001,
          -2.2519778843350016e-001, -1.8232283565887494e-001,
          2.3250612794121980e-002, -6.5236403141479427e-003,
          2.2677583236059989e-001, -6.0526754825564089e-001,
          -4.2680423229037656e-001, -8.4180328375205271e-001,
          1.5386404345334706e-001, 6.3161298088462589e-002,
          -3.0419025493434138e-001, 3.6368885425876146e-001,
          1.6803186142469628e-001, -6.3115547866261545e-001,
          -2.1795255595435126e-001, -1.9653781632623640e-003,
          -8.8889620409112524e-002, 1.2145968553768469e+000,
          2.9756703242450200e-001, 1.5150037677111958e-001,
          -4.3963873944341486e-001, -4.4146965169385793e-002,
          -4.1675693999005808e-001, -1.5331782656883228e+000,
          1.6935799564453513e-001, 3.6519691528412701e-001,
          3.3017496738376867e-001, -6.3673188411129233e-001,
          5.6844495190220050e-002, 1.8506686302819855e-001,
          4.5336694601831889e-001, 6.9044062632575582e-003,
          5.0499474569346581e-001, -5.6232732515701578e-001,
          3.1102675027123000e-001, 7.3525326799028401e-002,
          2.7058684629437918e-001, 2.8508557502571402e-001,
          3.6482781007159032e-001, 3.3847692976181332e-001,
          -2.3381525853809752e-002, -2.0165361773915794e-001,
          -9.4264018968380561e-003, -3.1111779350306817e-001,
          5.0808599611102429e-002, -3.5518416301085493e-001,
          7.2224063610122763e-002, 1.9885611603776387e-002,
          -1.2627651905389631e-001, -1.6781532388077089e-001,
          -5.0537902944162480e-002, -1.4566345886590085e-001,
          1.9861379815326011e-001, -3.0427996361327213e-002,
          -8.3952370375918531e-002, -5.2956717914206186e-001,
          7.8145326212904574e-003, 8.0026611732386987e-001,
          2.4136885766038291e-001, 8.9102890207859269e-003,
          9.5167275520870856e-002, 3.4697236786861783e-002,
          4.5333483151528950e-002, -5.4888754011921552e-002,
          1.0262155891818476e+000, 7.5838006701168095e-002,
          4.9917358424519519e-002, -9.2712762106733196e-002,
          1.4063217286369439e-001, -2.6597251258676330e-001,
          -1.6806554654760023e-001, -6.9929098496604780e-002,
          6.7004247661556923e-002, 1.5917652528285905e-001,
          1.5571364642272648e-001, 2.0285931854411499e-001,
          -3.3744219507548073e-001, 2.5724503586943370e-001,
          -3.4285685011423112e-001, -2.0742501474998801e-003,
          -1.0156699079191468e-001, 7.3740594175840557e-001,
          6.1009294155232215e-002, -4.4465331050098078e-001,
          -3.0038219578933373e-001, -5.8028357983154288e-001,
          -5.1275711883856039e-002, -1.6200241227526604e-001,
          4.2309839949856501e-002, -1.7195336341416139e-003,
          3.5297058166050402e-002, -2.1237905694446241e-001,
          1.5611412741148686e-001, -1.1038332334682366e-001,
          2.2830029421149894e-001, 1.1508074570371180e-001,
          3.1747554024754140e-002, -1.3283529631259261e-001,
          -1.0277357748759258e-001, -3.7401378635878929e-001,
          2.6068193877963630e-001, 1.2416817607590207e+000,
          3.0494721129519266e-002, -5.1974504381252548e-002,
          2.8117826589663331e-001, -2.2519511088208308e-001,
          -6.0799950714076079e-001, 8.4576418989191257e-002,
          1.6982628673231034e-001, -2.8295688412348691e-001,
          1.5808739974421823e-001, -3.8393745029457499e-001,
          -4.5705661506343537e-001, -2.1335397338176416e+000,
          5.1937447473565312e-001, -1.0525077894817345e-001,
          -3.9063737698989437e-002, 4.3981308287012111e-001,
          -1.4751667871099519e-001, 2.1419699878316947e+000,
          6.1754694523730391e-001, 5.3693947706881584e-001,
          -1.5774671569686216e-001, -1.8113183968988852e-001,
          1.2157011888602665e-001, 1.8360327219653250e+000,
          1.6104041766252217e-001, 6.1539895631545294e-001,
          -2.7511890157233987e-001, -1.9772106887236141e-001,
          -5.1459657883435184e-001, -1.1128235661808548e+000,
          6.0027991810170311e-001, 3.8302494865666420e-001,
          8.8825395666360285e-001, -3.0893831645434533e-001,
          -2.6648132152927287e-002, -2.2049354268379520e-001,
          4.7122098339667273e-001, -1.2683397248176340e-001,
          1.9390636030586239e-001, -1.1714397589407624e-001,
          1.5682907638293458e-001, 1.2589250891198439e-001,
          -7.1246889093455446e-002, 5.2460158521745881e-001,
          2.6895358476179243e-001, 1.3155889796938811e+000,
          1.0963064944075052e-001, 2.0585924163137678e-001,
          1.7061250889294430e-001, -5.7580830036584085e-001,
          5.3411403485184139e-002, -1.1156427525776036e+000,
          1.0493889789143770e-001, -3.1226157597871940e-001,
          7.9748135003747711e-001, 9.9802566040966301e-001,
          2.0844023633736253e-001, -8.7407945878721138e-002,
          4.2097274339178337e-001, -7.5355343373092534e-002,
          -1.8399932878949857e-001, 1.1159539293872207e-001,
          6.2567131303587564e-001, -3.8825681588738997e-001,
          -4.6793819801926775e-002, 1.4473705747601273e-001,
          -1.1758311673910357e-002, 3.5166622169222939e-001,
          1.6310469209965373e+000, -8.7486369748445439e-002,
          5.5746751608321841e-002, 1.7308962386447693e-001,
          8.8324223994690171e-002, -4.7923445683816540e-002,
          -1.4340387193098542e-001, -3.6558310007786293e-001,
          -4.8531936052731839e-001, -5.9470550422936488e-002,
          5.8428263730793462e-001, 1.0954163001718055e-001,
          1.9166505351707273e+000, 2.6158031581948032e-001,
          -2.8988581358888899e-001, -5.5009156657409153e-001,
          5.1040133844336266e-001, -2.7129641157446260e-001,
          -4.7417140912993033e-001, 3.5707421168363335e-001,
          3.2206219273180514e-001, -3.3456936550297472e-001,
          -1.5561388912427540e-001, -2.6485417968952868e-001,
          -3.5148878910392861e-001, 2.7646410510706609e-001,
          -2.3800856196079370e-001, -3.0842457982763710e-001,
          7.5088878018375799e-002, -6.7081656870459500e-002,
          -9.8942097033368226e-001, 2.8659881699645318e-001,
          3.1468712316359720e-001, 2.2018632627257017e-002,
          -1.8138830378428429e-002, 5.1955689456697152e-001,
          -1.4779707448739815e-001, 7.8035548903813134e-001,
          9.4977610908351190e-002, 6.2267504637791327e-001,
          5.9812370614957637e-002, -4.2232982698950546e-003,
          -1.5498282776169728e-001, 3.9461808695010492e-001,
          2.7770257392582814e-001, 4.1264470112599400e-002,
          -8.0377689911470845e-002, -2.9506004600143589e-003,
          1.7523184286816477e-002, -2.6788796324940256e-001,
          2.9557495042185228e-001, -1.7627615091197857e-001,
          -3.0406158005812683e-001, -4.7159401773490539e-003,
          1.0109794184647609e+000, 1.6454331332555047e-001,
          -8.3723586201557385e-002, -6.9360276447402683e-002,
          -4.7705437172909126e-001, -2.1160763837569427e-001,
          -2.8625354904688488e-001, -3.3967957040793090e-001,
          -5.9846309483973426e-001, 1.9126965534576029e-001,
          6.5602054291124104e-002, 8.1348413140995515e-002,
          7.2199761124239115e-001, 8.8925410051071144e-002,
          -6.4035505818748811e-002, -3.6037920935319978e-001,
          -1.0838209009879708e-001, -6.9453657742050834e-001,
          -5.0130361242482346e-001, 3.6322709544097019e-002,
          -3.2161334437426692e-002, 2.9714464966158885e-002,
          6.5497422826678720e-001, -3.3637409928050593e-001,
          -1.5949830043431876e-001, 1.7349867560751689e-001,
          5.5229117023886376e-001, -2.5958604983501821e-002,
          -2.3670869889080492e-001, 1.9560835276467328e-001,
          -9.4361454178180493e-001, 1.2628816632676118e-001,
          2.2891999014613632e-001, 9.3522694360122643e-002,
          -5.0712024089393367e-003, 1.3846693188196954e-001,
          7.8473157918849706e-002, -1.4131925064238679e-001,
          -6.4399516621214487e-002, -3.1498536650650100e-001,
          -8.3922230649351082e-001, -1.4445556986752175e-001,
          -5.4496449155289872e-001, 1.3770645007030810e-001,
          -3.9293103476523934e-002, 1.5385857280379037e-001,
          -1.5837211319047678e-001, 4.9501633988953166e-002,
          1.2101197841130479e-001, 6.0389277295503752e-002,
          -2.4643342552024806e-002, -7.3906298412369231e-002,
          -6.4521450008702208e-003, -8.2901840412738381e-001,
          -4.5799988037840245e-001, 1.0541541055371867e-001,
          -1.6630109411569929e-001, -9.8261824721667130e-003,
          -2.9440636473249057e-002, 6.0732359268198935e-002,
          6.9254719488573299e-002, -9.8416899376345887e-002,
          2.2279608607673468e-001, -6.7711671516922034e-002,
          -7.5585289096559416e-001, 3.9147187607241130e-001,
          -2.1797819853079406e-001, -1.5405099551400117e-001,
          2.9193817664166150e-001, 1.3506402964148168e-001,
          -1.6937203598657596e-001, 1.1608853951539264e-001,
          -6.1238630519742904e-002, 3.1503439257325044e-001,
          -5.9652860058141674e-002, 5.7502174463582668e-002,
          4.7500575718130039e-001, 4.9789918756669366e-001,
          2.0755021357251727e-001, 3.1484924693458628e-002,
          -1.8853613003182418e-001, 1.2423896229057103e+000,
          4.9655546735204531e-002, 4.6012867878610542e-001,
          1.9362561512623329e+000, 1.6796978056173453e-001,
          -2.4181506635788749e-001, 3.1425459632386951e-002,
          -5.9642254627230121e-002, 3.9693789676808539e-001,
          2.9797908890759643e-003, -1.6012885058225651e-001,
          -1.4775335819515606e-001, -7.5405774862728675e-002,
          1.1791656870870240e+000, -3.7479900919682306e-002,
          1.2086703949156408e-001, -3.7759527179817998e-001,
          2.8703612727541111e-001, 1.0038921860209529e-001,
          -3.2057506375466910e-001, 1.4516367313200526e-001,
          1.7263548162992329e-001, 1.3522715938924451e-001,
          1.5737163432088450e-001, -1.0931224705245592e-001,
          -1.2903964492715553e-001, -1.0361306468049687e+000,
          1.0899584130010348e-001, -6.8600819270537050e-001,
          -1.2797636169526483e-001, 6.3753708568696013e-002,
          -3.7540731577562397e-001, -1.8130987956362229e-001,
          3.2752230787322395e-001, 4.1050874652950049e-002,
          -1.2111664374042351e-001, -1.7441915923531373e-001,
          2.6340772440781995e-001, 8.6104791761671032e-002,
          -1.4843279282973096e+000, 7.1601640547685785e-001,
          3.2125480040015403e-001, -1.7067351726243549e-001,
          4.9315786560450083e-002, -6.3356014573826155e-002,
          -4.6920359980327242e-001, 5.2467184719754945e-001,
          -6.2546247892328502e-002, -8.0627159829812015e-002,
          -1.0215805340664654e+000, 6.8953855889418894e-002,
          3.2987680930422147e-002, 5.4246152042971403e-002,
          7.1788401876709262e-001, 1.0846524754212568e-001,
          1.5841378536736622e-001, 3.4900449861550115e-001,
          7.9958102206641457e-002, -1.7443523604686981e-001,
          3.0349861491496061e-001, 1.0903651854627237e+000,
          -3.1922729841289499e-001, 2.2278351925011750e-001,
          2.6341258327753917e-002, 1.0891329394151254e-001,
          2.9263094097040972e-002, -1.0174585292908671e-002,
          -8.8768035708981646e-002, 1.9594513350332404e-001,
          -9.1354862673584822e-002, 1.6064820094165256e-002,
          -1.2091105888349066e-001, -5.7350325781755851e-001,
          1.1337851333575845e-002, -3.8343897742032063e-002,
          -1.4168357946035605e-002, -1.5611371277160431e-002,
          5.6053689412007479e-001, 4.5739874320896233e-002,
          -1.7955168479359163e-001, -4.5722138917852351e-001,
          -6.2272239990158773e-001, 1.1469235185977580e-001,
          5.7202682038614922e-002, -2.0989788986648777e-001,
          -6.0602151491142269e-003, 3.0053660661362693e-002,
          -1.8859098138069544e-003, 2.1419910150863600e-001,
          2.1058168557476706e-002, 1.3700986039082423e-002,
          1.7449060663423313e-001, -5.8419950940965093e-001,
          -3.8139849669963492e-003, -4.2107460162557891e-001,
          -1.9821295327557703e-001, -1.3632326798481397e-002,
          -1.1506250667542846e-001, 2.7660485501449050e-001,
          1.9488214375895794e-002, 7.7295447754736025e-003,
          -1.0354537360860541e-001, -8.7469795445959619e-002,
          1.2210853265233323e-001, 3.5607342611952654e-003,
          2.1403381476019070e-001, -3.7417779240777160e-002,
          1.7112643495974736e-001, 4.4177360716937847e-001,
          -1.1850922426858701e-001, 5.8304832067599316e-002,
          -7.7965571387884999e-002, -2.2994660379924672e-001,
          -2.0441204543348043e-001, 3.8341868917891814e-001,
          1.1341117836793277e-001, 1.5562877940144540e-001,
          1.5691967603917523e-001, -1.7635832219828959e-001,
          -4.1936830424442245e-003, -4.8199903716109306e-002,
          1.2321481913021183e-001, -5.2975902576241907e-002,
          -3.0346083420413483e-001, -4.8926682886934192e-002,
          -4.7414873423454068e-001, -2.8358910482795491e-001,
          -9.1204543286927037e-002, 2.9744233125597014e-001,
          2.9036729129804605e-002, 3.9880131216481124e-002,
          3.0021066979244931e-001, 1.2785735489102040e-001,
          1.9210890966484481e-001, -1.2807482665886924e-001,
          -2.2169633771813183e-001, -5.4655091377336740e-001,
          4.0795863156729846e-002, 4.4068068601044938e-002,
          -9.5812889829965497e-002, -5.0383396372373479e-001,
          -6.1288725376438768e-001, 3.0575052924309596e-002,
          -9.6148742086234196e-002, -4.5392459235452279e-002,
          1.2582027633193696e-001, -4.4269559521058782e-001,
          -8.0528352768172107e-002, 3.5100002669003000e-001,
          2.0517102550831656e-001, 1.9702865390285268e-001,
          2.0416047830643956e-002, -1.5193314758245138e+000,
          -4.7644925614662072e-005, 1.9349301791916890e-001,
          3.1094045864992464e-001, 6.5294122622510831e-002,
          -5.6880897800116015e-002, 2.5736828582209009e-001,
          3.8841859539644639e-003, -1.6697224190933273e-002,
          -1.6200346666705284e-001, 8.1759043057754929e-003,
          -7.9305711260880207e-002, -2.4089208722307526e-001,
          -1.5401400239189024e-003, -2.4355099224257273e-001,
          -2.0173139977491539e-001, 1.6595023474100049e-001,
          -6.1802987429984857e-001, -2.7796435194421066e-003,
          -2.6737795081164156e-001, 2.3282056434880247e-001,
          -2.0852848478799177e-001, 6.3002180349286729e-002,
          3.5280651688500286e-001, 4.3496671698028466e-001,
          -7.0272733155775216e-002, 1.3003502767579450e-001,
          4.5881192570839627e-002, 2.3339748985782352e-001,
          2.1698403787112927e-001, 1.5699540993113958e-001,
          3.7215196442312498e-002, 3.5091952608024807e-001,
          -5.3416641212133548e-002, 5.1002062969738227e-001,
          4.6039848118835741e-002, 1.6533363481832045e-003,
          4.7569405183892011e-001, 4.7199563821633261e-002,
          -1.8815666572699113e-001, -2.3420817181734228e-003,
          -5.6642378888896713e-002, 2.4327784937744051e-002,
          1.6789112375341003e-001, -4.5122101238972984e-001,
          -2.3806800645133859e-002, 1.3088793029290377e-001,
          2.1284320241450042e-001, 5.9136482816641474e-002,
          2.9088116570178353e-002, -4.7784988400955764e-003,
          -3.4872724267048300e-001, 1.0983968127206256e-002,
          -4.3811789313494226e-001, -2.6931109629236377e-001,
          -9.1471552798035455e-002, 5.8244421966135128e-003,
          2.3909906549801918e-001, -1.7793220928305309e-001,
          -1.1404780902580189e-001, 8.0874972193337967e-003,
          -1.4818966770091579e-001, -3.1916830812588143e-001,
          1.0261820467836917e-001, 9.2139362627267199e-002,
          6.0487697439434301e-002, -1.6309649861595477e-001,
          6.8976638708625054e-003, -1.4405584154921303e-001,
          -1.1747356565658498e-001, -2.8014453023387453e-001,
          1.1592098382837654e-001, -9.9873713606954004e-002,
          2.8780565741880509e-001, -2.0856939262083452e-001,
          1.2937234274285075e-001, 2.5576161562793809e-001,
          5.9405283015326403e-002, -1.2001525783992648e-001,
          -1.1760013936783106e-001, -5.3882747081580462e-001,
          1.1424244675086745e-001, -1.4410812059963665e-001,
          -8.5578177630681429e-002, -4.8433466455608989e-002,
          -7.0269388877711753e-002, 1.3829818731267080e-001,
          -1.3235181402264101e-001, -1.6480628303366240e-001,
          -1.9140514840233031e-001, -1.4623326643792123e-001,
          -3.3750072847783213e-003, 1.5913263610223185e-002,
          1.5147439506306318e-001, 7.2811210602921755e-003,
          -1.3392399089722179e-001, -1.7347833049457476e-001,
          -9.3960825957275396e-002, -1.4295579536387437e-001,
          8.4420287779824510e-001, 2.0934065025157825e-002,
          -7.2959147961312268e-002, -7.6896459557865088e-002,
          -1.0656845985085234e-001, -6.8768095997463726e-003,
          2.6147064468208586e-001, 1.8329464427887687e-001,
          1.7309719341715857e-001, -2.6535839095671371e-001,
          -1.2637247953663482e-002, 2.2027414646132218e-001,
          7.8930088059165418e-002, 8.5166206991383692e-002,
          9.7218710157030166e-002, 1.6352713049573628e-001,
          -3.5151589479661510e-001, -2.0443774690860458e-001,
          -3.7284863530210599e-002, -6.3844228370720990e-001,
          -3.3369493579476311e-001, 1.1621042617107114e+000,
          6.0941134759918185e-002, 1.1041146213917373e-002,
          3.0981949110027790e-001, -4.5274420383187304e-002,
          -2.1311972802412327e-001, -6.9485424801847717e-002,
          -5.7903049491942367e-002, 5.2371542080916433e-002,
          -8.7973037283808342e-002, 5.5028269361163992e-002,
          1.1265472691254226e+000, 7.5606102246554929e-001,
          8.0114780228978155e-001, 4.1215095007894736e-001,
          4.5191554055893418e-001, -7.7398416152956576e-002,
          -1.5938670909660574e-001, 3.4736115249213195e-001,
          6.2642981415902477e-001, -6.9134151163159496e-001,
          -2.8833673305100599e-001, -5.3434517922777092e-001,
          -5.3549501459188589e-002, 1.9940152335011929e-001,
          -1.9219552844365238e-002, -1.1951287433838480e-001,
          -3.1489454691951724e-001, -1.4945943241755114e-001,
          -2.8235671762833792e-001, 1.3420495511126249e-001,
          1.0639608158007421e+000, -2.5129116690806114e-001,
          3.1627332955781651e-001, 2.6746164968284220e-001,
          9.0364614761405490e-002, -3.8462471452880884e-002,
          1.7317826624579633e+000, 2.3698591946634870e-001,
          -9.0788513315842270e-002, -4.4666895915023563e-001,
          8.9429260255417820e-001, -1.5011028038515478e-001,
          1.5268866317508714e-001, -1.4353688177441540e-001,
          3.3963249709825977e-001, -2.0227347370091153e+000,
          -1.0456038371113072e+000, -5.7435140008390728e-001,
          -2.4680983790501362e-001, 1.3176964503189223e-001,
          1.2023647911140041e-001, -3.5504532130620575e-002,
          -4.0742115849017123e-002, -2.4134291979255118e-001,
          6.2011438206942959e-001, -7.0444464832080944e-003,
          -3.0283023129863574e-003, 6.4476803375690472e-001,
          2.0984596333722472e-001, -3.4257616092432785e-001,
          -2.2367148833449174e-001, -1.2265360283800103e-001,
          1.5239138491829196e-001, 6.4149207030651034e-001,
          4.2631784104763604e-001, -2.2111548799870767e-001,
          -1.1356881257360565e+000, -1.3870753891147444e-001,
          -4.0686196325618074e-001, -1.3155152501594528e-001,
          2.6423307304127214e-001, -1.6091873872128698e-001,
          7.0522686339466722e-001, 2.2852027067636692e-002,
          1.8227937934647434e-001, -3.2576032922220416e-002,
          2.1611618329801081e-002, -1.6670694132049385e-001,
          -1.4615912341459469e-001, -6.5239532842134421e-002,
          -5.0998055558944912e-002, 1.0553707646372583e-001,
          5.9774091476108515e-001, 5.8072800107907818e-001,
          6.0214625584520010e-001, 2.3880184747412745e-003,
          7.5563814507790955e-002, 1.8853258302398087e-002,
          -1.8429789909630376e-001, 4.1515178347042347e-001,
          -2.6016268713226456e-002, -6.7519823695561088e-002,
          -3.3955121326309884e-001, -2.4491077224650604e-002,
          5.0678903409548337e-002, 5.6797678566372849e-002,
          4.3407136128791740e-001, -2.3100160373120193e-001,
          1.0567652700064185e-001, 9.5396505719150801e-002,
          -3.8396248649141568e-002, -4.5569783702635612e-002,
          3.1166717058066298e-002, -6.7235289282235836e-002,
          -2.1224678962048016e-001, -4.2088060841089320e-002,
          1.4073269246644138e-001, 5.0542833479945627e-002,
          8.5818133461570814e-002, 1.4509154553186779e-001,
          -1.6154711650702316e-001, -3.3903157711955600e-001,
          1.2944494258502220e-001, -1.8534310041201385e-001,
          1.7498135846518541e-002, -3.5825678345458883e-002,
          -6.3169822159754072e-002, 5.1831383221124072e-001,
          7.7199824969794245e-002, -2.0497812062402312e-001,
          1.3527388857764167e-001, 3.6269059507983523e-002,
          -1.3783066248795683e-001, -1.0043923988595049e-001,
          -3.9080651915396064e-001, 2.3202104456410400e-001,
          2.2902769753539540e-001, 1.8582116186272524e-001,
          -4.9683638874896391e-001, 2.4661201023364790e-001,
          8.9904308092720792e-002, -3.3542986392087903e-001,
          2.3103038646604182e-001, -1.0701178951938448e-001,
          -1.7276668484316438e-001, 1.5069005468940608e-001,
          -3.0757854259637854e-002, 9.4236818782972246e-003,
          1.6383116536151078e-002, -2.8845833955156519e-001,
          -5.0462000452502265e-001, -9.2330263832683338e-003,
          -1.8682077209327910e-001, 2.0143159004220576e-001,
          -3.0774383347058809e-001, 6.7510334474736367e-002,
          1.0457223061087081e-001, -3.2422073046312355e-001,
          -7.7979857995818011e-002, -1.6665255567563769e-001,
          2.8640363724691942e-001, 3.1097687821673881e-001,
          -8.7861926333029465e-003, 2.8275367013396846e-001,
          -2.0714195637930860e-001, 1.0902854419426722e-001,
          3.9306902840673758e-002, 1.9651668755929434e-002,
          -3.5357782535121640e-001, -5.3563200669620128e-002,
          -2.9757483559653887e-002, -2.2486614020551884e-001,
          -2.7154624139338890e-001, 1.2228924677031822e-001,
          2.5673567674210852e-002, 5.6631088233590962e-002,
          4.3574967754519732e-003, -6.2675023831576977e-003,
          -1.9917686389970840e-001, 4.5939721683761418e-002,
          2.6116459410291476e-002, -2.7106413517692213e-001,
          -2.2832141276926562e-001, 4.4690870743633072e-003,
          -1.2403475618038678e-001, 1.5088012574759843e-001,
          1.0928476164836268e-001, -4.2787196623465347e-003,
          -2.5889205665576072e-002, 7.1284435988581174e-001,
          -3.9793919139539119e-001, -4.1008602708483349e-001,
          -7.0303860258285099e-003, -2.7781853037568865e-001,
          -1.8368636548572936e-001, -4.5717498157229065e-002,
          -1.6159929233935527e-001, -6.6230865529249505e-002,
          1.7285075024156196e-001, -1.4520697198418531e-001,
          3.3275531298027771e-003, -7.2264864448275645e-001,
          -6.7431027581353498e-002, -1.3677689124475279e-001,
          -2.5029107579597815e-001, 7.5955590757008737e-002,
          -7.4797081105797317e-002, -1.6006127072952844e-001,
          -1.2550360253697276e-001, 2.8039112042389192e-001,
          2.6141839894623381e-001, -2.7195268232406244e-001,
          -2.0669021267554494e-001, 5.5414370032032256e-002,
          1.6625238506028273e-001, 7.4434982317228748e-001,
          7.3401230280696159e-002, 5.9046593402996483e-003,
          -6.8568194769464880e-002, -1.6452856504195512e-001,
          -3.3623198062128740e-001, 2.1292059413495906e-001,
          6.1421290783465587e-002, 1.6396175235580790e-001,
          1.4000300784693046e-001, -2.4118051075575692e-001,
          -1.8287021233236520e-001, 8.0158037616344838e-002,
          1.2920488724735987e-001, 7.6197493668199723e-002,
          -1.9109776313028298e-001, 3.4097955180150893e-002,
          -1.0261418167489644e+000, -8.7775669166876111e-002,
          -3.2132803562777285e-002, 1.1111739945067340e+000,
          -1.3125776658134850e-001, 9.7503072856072626e-002,
          -1.4784286436082261e-001, -6.3483098015567424e-002,
          -6.7521968252336501e-002, 5.3777399497681544e-001,
          1.4812374262949934e-001, 1.9385350374603358e-001,
          -1.9183625368597049e-001, 1.4774666376423570e-001,
          2.3999691113371607e-002, -1.0940840923907995e+000,
          -4.9872322862284497e-002, 1.0571877199994595e-001,
          8.4658574240720014e-002, 1.8550959791300528e-001,
          -2.1041485492906801e-002, -6.2378551979722460e-002,
          1.8790908570037487e-001, 1.3917119888517668e-001,
          7.5049320223369520e-001, 2.3604718478805969e-001,
          2.2046782436748036e-001, 1.1007360302041047e-001,
          1.9938149599323432e-001, 4.0788443770904265e-002,
          1.1727753278510426e-001, 1.8488611293538143e-001,
          -8.8749299234434129e-002, 5.3909733265113724e-002,
          -1.1182731736438642e-001, 5.7649274649711979e-001,
          7.9908605867562765e-001, -1.8157712810402737e-002,
          1.7141357294442139e-001, 1.6447550197959078e-002,
          -2.6278756137359430e-002, -2.6767974204585258e-002,
          -3.3379888656531947e-001, 3.5223101323464449e-002,
          -5.6944739435808578e-002, -3.4940559633275858e-002,
          -7.9389989783968620e-002, 1.3524040005970218e-002,
          4.4251156108389943e-003, -1.7034975604868710e-001,
          -2.4751922291197262e-001, 4.2579149679006323e-001,
          1.8296284790271550e-001, -1.8213165013350385e-001,
          -1.1206239048177325e-002, -1.9015612336615939e-001,
          -2.4604085904663939e-002, 2.7934656744723597e-002,
          -1.0217896983799697e-001, 5.2901571259730065e-003,
          -1.4281969314819323e-001, 8.0855384093403343e-002,
          3.4278937127121423e-001, 1.6388765410171317e-002,
          -2.3443979281386837e-001, -8.6597496582447558e-002,
          3.4967012903213385e-002, -3.6526798510775471e-001,
          2.2384303119504675e-001, -4.9120720023829549e-003,
          1.0851006307125048e-001, -2.7014367690864066e-001,
          -5.3263751612543797e-001, 1.1898355974545589e-001,
          6.1577232375188251e-002, 3.4510135103008160e-001,
          -1.2373770817900907e-001, -1.9796862022403403e-001,
          -1.3773296865070273e-001, 1.0800692915435448e-001,
          -2.2391708754910009e-001, -4.3974614682384117e-003,
          5.0931906351467870e-001, -4.5196200084457960e-002,
          1.0415820651871528e+000, 6.9225559529251968e-001,
          7.0344853920333624e-003, -7.9399965033493869e-001,
          1.5881302389865051e-001, -3.1033955448320355e-002,
          -1.1822982087453056e-001, 1.3844415000653751e-001,
          3.7563499679421264e-001, -2.1624994792666313e-002,
          1.2260081900977438e+000, -1.4486172838728070e-001,
          -3.9948685542040493e-002, -7.6290187600687329e-002,
          2.3795689533574511e+000, 7.4622006960767062e-001,
          9.4241308788919453e-002, 2.4157901534238482e-001,
          2.3199804038576496e-001, 1.7818276431958188e-001,
          6.5127162051016341e-001, 3.8208101204204065e-001,
          -2.4242325087414474e-001, 3.3873652772410098e-002,
          -6.4617691718707626e-002, -1.5225540441982632e-001,
          -6.4967309943633880e-002, 1.1640906232494816e-002,
          2.8615977151732341e-001, -8.2106652511145045e-002,
          2.7933008491984490e-001, -1.3625361824055864e-003,
          1.5306425629107365e-002, -7.8123693202790290e-001,
          -8.9861511461518842e-002, 5.0097187642540390e-002,
          -9.4558187242043651e-002, -2.3247537481686395e-001,
          3.1542436928326872e-001, -3.4194100912357375e-002,
          -1.6490751491940295e-001, -1.2943942267513539e-001,
          -1.8488439798771691e-001, -1.8746005978416952e-001,
          -1.2869126421880794e-001, -1.9449553942927003e-001,
          -3.8867849116258052e-001, 5.0561761207029085e-003,
          -1.7887550831671553e-002, 3.4788554747111622e-001,
          2.0889435397257672e-001, 8.3655236294344730e-003,
          3.9265099534841141e-002, -1.1638508205864699e+000,
          -5.3419488326945312e-002, -1.7905173159891707e-001,
          -1.2450641102662243e-002, 1.1496651430957655e-001,
          2.0133487086924290e-001, 1.0610634271641436e-001,
          1.6078846645880157e-001, 3.7552387208144453e-002,
          1.2485118551745089e-001, 1.2372205466642713e-001,
          2.0393682899118526e-002, 1.3228174128773323e-001,
          7.7991116281859688e-002, 1.9799849067680328e-001,
          9.5212353711176367e-002, -2.5728805674101168e-004,
          -5.1137170699063761e-002, 8.1776921435550751e-002,
          4.2317945393412826e-001, -2.2518671643830060e-001,
          -1.9027163126996446e-001, 2.8941452410643353e-001,
          1.0675158656913347e-001, 3.8888309582374547e-002,
          1.5772796112549320e-001, -9.0357039744442827e-002,
          1.2470842486997066e-001, 9.6669382129642892e-002,
          2.8671800109650075e-001, -1.2574805974285941e-001,
          -1.6534089180792741e-001, 1.2770772381335674e-001,
          -1.2812684444869152e-001, -2.7754000437787923e-001,
          -3.6198349228324406e-001, 1.2231066539745894e-001,
          2.4620001592853369e-001, 3.4709603774733017e-001,
          7.0699823450346413e-003, -2.3830840637267933e-001,
          1.4997907465607985e-001, -1.3234076401549283e-001,
          -1.0466200923268816e-001, -3.9344591979626148e-001,
          2.2757321177360262e-001, -3.7133357384126553e-001,
          -6.1692358070372166e-001, -2.7046049563059778e-002,
          -1.1481251800977514e-001, -2.0339325578381368e-001,
          -3.4801123112697574e-003, 4.8599955317286853e-001,
          3.9415563113533225e-002, 1.7867025090143762e-002,
          7.2561275625542465e-001, -1.2126223191412187e-001,
          -2.0326592622103606e-001, 6.1101611704992287e-002,
          4.2808268556857709e-002, 1.5694706232793018e-001,
          -4.8136189195534240e-001, 1.2367729258422477e-001,
          1.7596358245419383e-001, -1.2360033025164571e-001,
          6.9610413036197039e-001, -1.3567987654219879e-001,
          8.2655851992281416e-003, -1.9007133831187792e-001,
          -4.5215261956294425e-002, -3.5520289945326072e-001,
          -1.6440332583713257e-001, 4.9314257150349883e-001,
          -1.2571386273991427e-002, 1.7241663373084462e-001,
          -2.7060154908982802e-002, 1.0342039618171137e+000,
          1.4114228532991105e-001, -5.5896720323800686e-001,
          -7.5265224745142925e-002, -1.3639261793756721e-001,
          3.1798158544410188e-001, 2.2779140642455473e-001,
          6.4963207116824473e-001, 1.2997534260462151e+000,
          1.3387445053947697e-001, -2.0004289151708052e-001,
          2.7430146603626127e-001, -1.4470294642424029e-002,
          1.4088270932619448e-001, 3.5513712412407172e-001,
          -2.4761330833865608e-001, -2.4646622007802488e-001,
          -5.3080457748529861e-002, -6.3214317987698665e-002,
          6.7098878931738493e-002, 2.5160869764129151e-001,
          9.7883112606081055e-002, -5.0475143263990130e-001,
          -4.1566381488874293e-001, -9.4150939907260423e-002,
          -1.8414833707873182e-001, -2.8619240246869460e-001,
          3.2791980152649419e-002, -6.3440438031588900e-002,
          -8.8385702533393770e-002, 1.6637388683013277e-001,
          8.6834946325478030e-002, -1.0868712748206155e-001,
          1.8247998004017138e-001, 9.9714682358034712e-002,
          -2.9902167421650838e-001, -1.9162842931288532e-002,
          2.7645265831782950e-001, -1.0737104697698616e-001,
          3.8245850577968138e-001, -2.2212524978861975e-001,
          9.0893280127613801e-002, -1.1453398617688895e-001,
          3.5921659624397258e-002, -5.0366136990618016e-001,
          -5.6648480956531716e-002, -2.4023371859245987e-001,
          -6.7611920273548787e-001, -3.2477189793022160e-001,
          -1.7045052086103746e-001, 4.5315290252685450e-002,
          1.8023439617754275e-001, 6.1898450879468614e-001,
          3.1097678135442791e-001, 7.0568610648382113e-001,
          1.0677967019471668e-001, -8.2116137484738741e-002,
          2.5738919842073167e-002, 1.1442012739363503e+000,
          4.8870317655959582e-002, 7.2329398018491767e-002,
          6.0239581366505435e-001, 2.9275186517362797e-002,
          -1.6355474327350478e-001, 7.1001746143941979e-001,
          -3.1434771055210181e-001, 1.5977486095432969e-001,
          2.5780079947477767e-002, -9.3281427469558809e-002,
          -1.9787351754089286e-001, -3.3416798803623741e-002,
          2.3668996813264686e-002, 1.3166441124865913e-001,
          -6.2768803821076025e-002, 3.7456190049630056e-001,
          3.9524166747206352e-002, 1.9720850102982643e-001,
          5.8714527234629318e-002, -3.0208529448210553e-001,
          -3.8690813540631080e-001, -2.4780258286966936e-001,
          3.8707716957175085e-002, 1.4017867003093090e-001,
          -8.2943020358577493e-002, 3.2127261822053860e-001,
          1.2474004991201784e-001, 6.8620998238262010e-002,
          -2.4233632273620306e-001, 9.0332797806696521e-003,
          -2.7337916489357728e-001, -2.5563659020545604e-001,
          2.0928439858673289e-001, -1.0336442482779926e-001,
          -2.2210535894666747e-002, 4.4038389798852932e-002,
          -5.9960215893936686e-001, 4.3664418653360715e-001,
          -7.6174859596586958e-002, -2.9950326807661481e-001,
          4.6025550236107371e-001, 8.6647644894863821e-003,
          -2.2918888748523938e-001, 4.6497477194179376e-001,
          2.1275617701174818e-001, 7.8351435117622992e-002,
          4.7273862269035632e-001, -5.0671231155916888e-002,
          -8.4270703557456542e-002, -7.0619219457670546e-001,
          2.0923739489642282e-001, 4.2572379167952777e-002,
          -8.4315711344174982e-002, 2.1127344791195077e-001,
          4.6157920037401462e-002, 8.7448680436770024e-002,
          -1.3603313605012543e-001, -3.2507730163037130e-001,
          -3.0777407439650883e-001, -9.5552702418242014e-002,
          -2.5865128641241836e-001, -1.2416385365581281e-001,
          -8.4303645769803884e-002, -6.2202846215507013e-001,
          -4.9776621893778884e-002, -1.3222635914763212e-001,
          3.1935982815013775e-001, 1.8631663693961006e-002,
          -1.1355149858496379e-001, 3.4776536751692740e-002,
          -3.8403292645114462e-001, 6.4161082141492951e-002,
          1.8353336404503057e-001, -1.3538365194913007e-001,
          -1.6626005893596979e-001, 7.3205319108107222e-002,
          -9.9442772139270774e-002, 3.3860511086920164e-001,
          4.6071598488161433e-002, -1.7276980254639748e-001,
          -8.9399667441486821e-002, -8.0124774710043911e-001,
          -3.7257184353820139e-001, -3.3147205886210129e-001,
          -7.7124364183076791e-002, 1.1597117374385757e-001,
          1.0846233792465235e-001, 2.0545173535894328e-004,
          -8.0896541623414264e-001, -6.6188644656706375e-002,
          -8.9160962873122626e-002, -4.2914937545941434e-001,
          1.8931346761465423e-001, 3.5808360564903147e-001,
          3.3033893323212860e-001, 1.4032879982453377e+000,
          1.5179884640066210e-001, -4.3635969958209689e-002,
          2.5765098211849835e-001, 9.0460735976072321e-002,
          -9.0714260793848589e-002, -6.7433992992003799e-001,
          -2.0815302678273237e-001, -1.1086078349832669e+000,
          2.1514380488691537e-001, 1.3189266522699215e+000,
          5.5483065857014020e-002, -5.7439470672408610e-001,
          2.4052843689936973e-001, 3.3153588434670489e-001,
          -1.1092029507855553e-001, -2.4835950202864460e-001,
          1.4386399739747674e-001, -1.8239388392804737e-001,
          -1.0855194620558717e-001, 2.0858245505422859e-001,
          5.1675248080513125e-001, 5.5271201748047394e-001,
          8.0631738862906632e-001, 2.1307455044789841e-001,
          -9.1325480903457129e-002, 1.3417737955055925e-001,
          5.6062949735178003e-001, -7.8468451474524148e-001,
          -2.7769337498153629e-001, -4.3058818995528153e-001,
          3.6690741475349425e-002, -5.6750566592024343e-001,
          -1.5485987936114082e-002, -3.6218763445694296e-001,
          -2.6634076211534735e-001, 2.0736258967144178e-001,
          -1.4190572425945699e-001, -1.3837884467833120e-001,
          -1.3383177116444561e-001, -3.5371977846124192e-001,
          5.5587446368690563e-001, 2.0871489318084230e-001,
          -1.1358830839575766e-001, -1.9556661068180625e-001,
          3.1180054804723750e-001, -4.0201654115273888e-001,
          -1.9792150896909314e-001, 4.1272096062508684e-001,
          -1.0541707961098068e-001, 4.6597269669925223e-001,
          7.2918797703135974e-001, -1.6001008719015020e-001,
          -9.7746167056252886e-002, -2.1198426713810305e-002,
          2.6406390002853691e-001, -7.0054294463017225e-002,
          6.3520657574722805e-002, 1.8007768289804907e-001,
          -1.5571524817374388e-001, 1.7828368303191591e-001,
          -3.2229595285478821e-002, 1.6036068659330108e-001,
          -2.1146300053405029e-001, -1.1567612128070884e-001,
          5.4329558758919830e-002, -6.7949284981062008e-003,
          -1.1543165150209297e-001, -1.3378698107153130e-002,
          1.0350854133022789e+000, 1.1501453757553044e-001,
          -1.5876646857361545e-001, 6.3185294941272688e-002,
          4.4053170798720931e-001, -1.3392192649871398e-001,
          1.7146376363638796e-001, 1.1002857446711943e-002,
          -2.3337083934728353e+000, -7.9635232336125394e-001,
          4.4929269812866761e-002, 1.2404881262076134e-001,
          1.3073675747333338e-001, 5.7676945310795502e-001,
          3.5046618930766044e-001, -8.1520724202979483e-002,
          -1.1019218898821732e-001, 1.1613319643168191e-001,
          -1.5151345348712988e-001, 2.0297366660999201e-002,
          1.4799984726909773e-001, -1.1174525323068712e-001,
          4.6916169139669306e-001, -4.1549109067323337e-001,
          3.7120549266469523e-002, 6.3930350853123119e-001,
          4.3311758184591070e-001, 3.8603468998805329e-001,
          -2.6712962236312171e-001, 4.6717290169202941e-001,
          -1.9079661329749226e-001, 5.4973142759405749e-002,
          4.4244324253268730e-001, -7.3156489956564874e-001,
          2.1115161215260547e-001, -1.2138683488773593e-001,
          3.1797706839377987e-001, 2.7908977362396681e-001,
          1.3957516660931626e-001, 2.1179322719959970e-001,
          1.2470620426514098e-001, -7.9093279083465001e-002,
          1.9596083619066812e-001, -1.2536244489841564e-001,
          3.1502608073737344e-002, -1.8520145789065809e-001,
          1.9921522716194978e-001, 1.2152461127285697e-003,
          3.6916651349030084e-002, 1.8858380011384018e-001,
          -2.9711622991918074e-001, -3.5246190485559686e-001,
          1.2814408327288737e-001, 2.5547531359707665e-001,
          -4.1047960241675474e-001, -1.5500150313608238e-001,
          -1.4023962789720568e-001, -3.5599249635972863e-001,
          -4.7417952182411315e-002, 2.0859528579084646e-001,
          1.7978232989857654e-001, -1.4125139391624866e-001,
          5.9186155451736777e-002, 1.6809464714877194e+000,
          -9.2193227705207464e-003, -3.0066364028083603e-001,
          1.5874417081237197e-001, -3.4255521613988782e-001,
          -3.3078407115774755e-001, -1.5026883312176756e-001,
          1.1854070517102756e-001, -2.9872202974398310e-001,
          5.2303818132252500e-001, 5.2788983222443941e-001,
          -3.1625738871369907e-001, -3.8586607356159958e-002,
          1.7410987465044925e-001, -1.0914123546856103e-001,
          1.6477114375548427e-002, -4.9965467361223571e-002,
          -7.7856570843814060e-002, -2.2280825668743126e-001,
          2.8356437681295345e-002, 9.1816477036242489e-002,
          1.2284699771381198e-001, -6.6939125050612364e-002,
          -1.0877911640939301e-001, 2.0310965783427123e-001,
          7.7581326058118891e-002, 1.9801602563060375e-001,
          1.7747888419044883e-001, -1.6245512394655640e-001,
          -2.1828132121403249e-001, -9.7865815603092848e-002,
          2.4795369634009176e-001, -4.4804809593092598e-001,
          -1.4970723176341547e-001, 2.5462340560691582e-001,
          1.9034229727532109e-001, 5.4068285616374911e-001,
          -3.9770838863924428e-002, 2.1726552475894317e-001,
          -3.1058740231952703e-001, -2.0946959098374232e-001,
          -4.4208156199996920e-002, 3.9801813031487970e-003,
          1.4994388244387840e+000, -8.8971479085106964e-001,
          -1.4339611240531810e-001, 4.8931240847260704e-001,
          -4.4255349627247829e-002, -1.1038115984646482e+000,
          -4.8362234178853292e-001, 6.5485003080268778e-001,
          -8.1053592728085011e-001, -7.5686662981311026e-001,
          -2.8635354763719206e-001, 5.5713667647092131e-002,
          -5.5175626611298212e-001, -9.5131328669304641e-002,
          7.5246051387714663e-001, -9.8964981700434984e-001,
          -1.0086926400153953e+000, -7.3096095756251067e-001,
          8.5182960639999994e-001, 7.1066870738606880e-001,
          9.5420519231328479e-002, -8.3578114727580399e-001,
          8.5631581090067144e-001, 7.1238023361709391e-001,
          3.3700616034316072e-001, 1.4420155515097157e+000,
          -6.9596313020509404e-001, -7.9881813164305995e-002,
          8.1080630916904606e-001, -5.4940855120581167e-001,
          6.4684189378083590e-001, -9.0973804955348758e-001,
          -5.3990425498791128e-001, -6.9593839137527924e-001,
          -7.2433934683755608e-001, 6.7121004991669331e-001 ]
      - [ -2.8628526627823708e-001, -3.6974585589915515e-001,
          -8.3442327493082868e-001, -1.7093067699987274e+000,
          -8.1956020649957648e-002, -1.5567544567562935e-001,
          -1.6013312290088560e-001, 6.3718911419875546e-001,
          8.8182837988846607e-001, -6.5499536089652710e-001,
          9.7691930655793313e-001, -6.6066665199436836e-001,
          5.5192026074065847e-001, -3.1703752896896187e-001,
          -1.1831413442673755e+000, 7.8127389336064457e-001,
          -1.2290607458832961e+000, 6.7431084135106234e-002,
          -3.7651313428121802e-001, -1.1353417945417878e-001,
          6.2490288460447163e-001, -5.1978651172965584e-001,
          3.3398888665958315e-001, -1.2858030209749943e-001,
          -1.1604794122817952e+000, 8.5780270151942950e-001,
          5.2408358472758843e-001, 9.7300847943156976e-001,
          3.5894481295542363e-001, 1.0415887683520388e+000,
          5.4702422888523350e-001, -8.4083724944818042e-002,
          1.0727766066326762e-001, -5.4325686161090148e-001,
          1.3391137928629074e-001, 2.2775745838790201e-001,
          -1.0799253342377120e+000, -5.8731231915501869e-001,
          3.5390056517720231e-001, -3.5469491846655860e-001,
          -4.2537915446897938e-002, -1.3239628623174693e-001,
          8.3932529290836200e-001, 2.8745979700072677e-001,
          8.5634797192321210e-001, 1.0199135005956987e+000,
          7.4053310640057560e-002, 4.6981454992234706e-001,
          1.1282299380437413e+000, -3.7213562751682411e-001,
          4.6347241035758519e-001, 7.2772893897468138e-001,
          -7.6586602264784875e-001, 6.8265654075061288e-001,
          2.5398321353761626e-002, -9.1311011611570958e-001,
          5.5549933195656528e-002, 1.8868823582929378e-001,
          1.0447529148478791e+000, -2.2402121067091224e-001,
          -4.2420133787058895e-001, 6.4360265143588202e-001,
          1.1406172890391106e+000, 1.1381975404429434e-001,
          3.1697570994129887e-001, 6.6020246324726028e-001,
          8.1120691345669904e-001, -5.5956712796856689e-001,
          -4.9954831243962061e-001, -6.9800087023096216e-002,
          8.0816010147761561e-002, -8.8316644227215946e-001,
          -7.7369137070860616e-001, -3.5324263187981841e-001,
          2.3556631578497292e-001, 1.1353367530560401e+000,
          -1.1487791917168817e+000, 7.0158987244903692e-001,
          3.2825342247441563e-001, 7.0832946194857338e-001,
          8.5765551461485023e-001, -7.8917729451494212e-001,
          1.9725623183082621e+000, 6.9213561086866271e-001,
          1.4724909324138424e-001, -6.4324112925030563e-001,
          3.5051295093105422e-001, 4.5333757791218993e-001,
          1.4219890727389797e+000, 1.8726906767480642e-001,
          -6.8442030118783048e-001, -1.9484535578029161e-001,
          -3.4948113226980904e-001, -9.2396182517215736e-002,
          8.2303436893510808e-003, 1.5287606053960320e-001,
          -3.0051397242971073e-001, -6.8031393687340658e-001,
          -8.1774291386107534e-001, 1.0853489452094003e+000,
          -3.6636536348052355e-003, -4.6708222584463949e-001,
          -7.9320490541719491e-001, 5.2344899355371954e-001,
          5.3407010850348169e-001, -2.5349387452757308e-002,
          6.1925136913763545e-001, 7.3968034599182009e-001,
          2.9156172736985692e-001, 3.2228713412344456e-001,
          5.4124889080971489e-002, -6.6412122340782542e-001,
          5.0721863069943258e-002, -1.3517163821026684e-001,
          -6.4797805205346937e-001, -7.6098538965135820e-001,
          2.8793690477215056e-001, 5.6434052497077836e-001,
          6.9977480764514127e-003, -8.0449511502926285e-001,
          -8.2506227202623139e-001, -9.6045064587016626e-001,
          -1.1661123153569400e-001, 4.6033222800135609e-002,
          9.6524870289424514e-001, -6.9651481460478049e-001,
          -5.4110661848225294e-001, 1.4935489666458673e-001,
          -2.0068754914284354e-001, -8.0384656322002424e-001,
          -5.4536420892770288e-001, -2.4218903286998203e-001,
          1.1532756595986062e+000, 6.6467375926673386e-003,
          3.7395131240980634e-001, 8.6740452111512420e-002,
          -1.1599342585982855e+000, -4.2111227512790494e-001,
          1.1768036765748733e+000, 3.2734297328821804e-001,
          5.1587192087851752e-001, -9.2186214064751792e-001,
          3.4304587024916944e-001, -1.1985882611030358e+000,
          -2.2043004690213197e-001, 3.3843439457667457e-001,
          -1.0525748101054038e+000, 1.1699695899136595e-001,
          5.0844094691707753e-001, 5.9971492383822667e-001,
          -3.5493264173709155e-001, -6.1873407088325005e-001,
          -1.3749114044762365e+000, 8.8382266834378231e-003,
          -4.5764390415588962e-001, -9.5255587377487683e-001,
          -4.1778062337082883e-001, 7.8174792011759531e-001,
          3.3826835215361983e-001, 1.2293462394905073e+000,
          7.1171111196786174e-001, 1.7736489006494280e-001,
          3.9048485563677565e-001, -6.6317162915810801e-001,
          1.3679909149154423e-001, -1.0378661225115569e+000,
          6.2930953119286004e-001, 1.2694191017219780e+000,
          1.2307870278507500e-002, 1.0668924197671939e-001,
          5.0680859424173830e-001, -5.5159621109286971e-001,
          7.6313657732383611e-001, 7.4874977859502800e-001,
          -5.5916886166429303e-001, -6.6992615628987529e-001,
          8.0491443285975084e-001, -3.7337093278854744e-001,
          -9.0682005097787732e-001, -3.7190785904571483e-001,
          9.4332441200555839e-002, -6.4458167395618404e-001,
          -7.3916676372178747e-001, -1.8404426460135661e+000,
          -2.1786578394364331e+000 ]
