%YAML:1.0
my_nn: !!opencv-ml-ann-mlp
   layer_sizes: !!opencv-matrix
      rows: 1
      cols: 3
      dt: i
      data: [ 59, 42, 5 ]
   activation_function: SIGMOID_SYM
   f_param1: 1.
   f_param2: 1.
   min_val: -9.4999999999999996e-001
   max_val: 9.4999999999999996e-001
   min_val1: -9.7999999999999998e-001
   max_val1: 9.7999999999999998e-001
   training_params:
      train_method: RPROP
      dw0: 1.0000000000000001e-001
      dw_plus: 1.2000000000000000e+000
      dw_minus: 5.0000000000000000e-001
      dw_min: 1.1920928955078125e-007
      dw_max: 50.
      term_criteria: { epsilon:9.9999997764825821e-003, iterations:1000 }
   input_scale: [ 1.4822575312401529e-001, 1.8584044386683565e-001,
       3.2936274316523512e-001, 7.5010171974771889e-001,
       4.2789281871921975e-001, -7.2363306578347122e-002,
       3.4027074518142647e-001, -3.5149805314572241e-001,
       4.8095414399132930e-001, 3.1027037648740624e-001,
       3.1837407092756020e-001, -8.9769540827671768e-001,
       3.4509646344219619e-001, -9.1805879170183208e-002,
       3.8787275225997309e-001, -7.9704181824024423e-001,
       5.3760512393293136e-001, 3.9897244116371167e-001,
       5.1899265380847082e-001, -6.6436056063599758e-002,
       7.2184065864340352e-001, -8.7422471008344815e-001,
       4.3897454882284126e-001, -3.5048728663195744e-001,
       5.2720619846297601e-001, 4.6525669053198254e-001,
       6.7087327645414940e-001, 7.8903060933332470e-001,
       8.4864338937205719e-001, 9.8972679247351814e-001,
       7.2691500715028090e-001, 8.0086717932153295e-001,
       6.3982506201777678e-001, 1.1507736315883055e+000,
       8.5115941356159674e-001, -6.4752676949206944e-001,
       6.4872075711380073e-001, 1.2256212941048927e+000,
       5.7054175942140462e-001, -1.3134882222871225e+000,
       1.0996545244796141e+000, -4.3549712150128046e-002,
       7.4577823563231749e-001, -4.1924627018253857e-001,
       1.0140344111479591e+000, -1.5280320602788282e+000,
       7.3954372217393516e-001, 1.8158522900714811e+000,
       1.0324560670867788e+000, -7.2979529467328574e-001,
       9.6285191240606338e-001, 1.6440204630208584e+000,
       8.5126920425439989e-001, -2.0153864214346076e-001,
       9.7039984199167473e-001, -6.1259339979108718e-001,
       9.1376919257895606e-001, 3.3328391726027548e-003,
       6.5877931021763381e-001, -5.7556029166877920e-001,
       8.9407373377675403e-001, 1.3185122746989646e+000,
       8.1883884530435702e-001, 2.0127799253905151e-001,
       8.7961871971742323e-001, 4.8953658349636421e-002,
       7.1849774582269443e-001, -9.5679242862087999e-001,
       1.1836540562519851e+000, 5.6653023767405319e-001,
       1.3710625263703020e+000, -9.3677409930524619e-002,
       1.2568183103331736e+000, -6.6270828055896747e-001,
       1.2113866966378057e+000, 7.5526783480786719e-001,
       1.0698351777058144e+000, 7.3100107096403810e-001,
       1.2193919042078396e+000, -6.9572479987773694e-001,
       9.8541212853602911e-001, -3.3329850151211243e-001,
       1.5179911940954858e+000, -5.5635287261484667e-001,
       1.2599123590740271e+000, -7.5334302699544520e-001,
       1.3476587645477101e+000, -9.4312799045667339e-001,
       9.4041727203336467e-001, 1.1819082855980767e-001,
       1.0320049495098989e+000, 8.2294995519255532e-001,
       9.8318964868874914e-001, 9.3225023541532726e-001,
       1.0530668462668173e+000, -1.4546825994513163e-001,
       1.4831842347744268e+000, 1.1312095848736679e-001,
       1.4460811565291527e+000, -4.8088522777909148e-001,
       1.1526165811870599e+000, -4.4078656498046853e-001,
       1.2206126387829797e+000, 2.1828453604499296e-002,
       1.4267583788642808e+000, -2.9920898524034156e-001,
       1.0144025853398881e+000, -1.5213355635879255e-001,
       1.2471761972884250e+000, -2.7339041349963333e-001,
       1.1387214942757085e+000, 2.2119763384693875e-001,
       1.1795568585028358e+000, -2.9176752180479609e-001,
       1.0597366168749198e+000, 2.5875575209238544e-001,
       1.1638517658888199e+000, -4.3609474254037106e-002 ]
   output_scale: [ 5.2631578947368418e-001, 4.9999999999999994e-001,
       5.2631578947368418e-001, 4.9999999999999994e-001,
       5.2631578947368418e-001, 4.9999999999999994e-001,
       5.2631578947368418e-001, 4.9999999999999994e-001,
       5.2631578947368418e-001, 4.9999999999999994e-001 ]
   inv_output_scale: [ 1.8999999999999999e+000, -9.4999999999999996e-001,
       1.8999999999999999e+000, -9.4999999999999996e-001,
       1.8999999999999999e+000, -9.4999999999999996e-001,
       1.8999999999999999e+000, -9.4999999999999996e-001,
       1.8999999999999999e+000, -9.4999999999999996e-001 ]
   weights:
      - [ 9.0265759646504962e-001, -1.3114064173970935e-001,
          -2.8864810450984379e-001, 4.2942335436777286e-002,
          -1.1449754843516864e-001, -3.6873049970200099e-002,
          1.6731351331165614e-001, 1.5920385583944832e-001,
          4.6481219486756008e-002, -5.6780437261608363e-001,
          3.0308815911505665e-001, -1.3261563894289341e-001,
          1.1483622160955721e-001, 4.6692782574458802e-001,
          2.8504895953372600e-001, 3.2486976517293008e-002,
          1.3869340314404255e-001, 8.2885407236936978e-002,
          -6.1513628959084854e-002, 1.8925951088608264e-001,
          6.5846586062986920e-002, 2.1612701749664531e-001,
          -1.4138919436581765e-001, -7.1923410102164922e-002,
          1.5437648104336801e-001, -1.0353760303226385e-001,
          2.9958770513570815e-001, -4.5417112367173114e-002,
          -8.6652956297660774e-002, 8.9721396099448136e-001,
          3.6196321926640885e-003, 2.0246402226571661e-001,
          9.1330230062207779e-002, 3.5213539002083183e-001,
          2.2415862039310153e-001, 8.2022840642471936e-002,
          -1.1173127279479536e-001, 1.3495584878529401e-001,
          1.0990077699783402e-001, 4.1590304492012412e-002,
          2.5302294148545640e-001, -9.8855341621334511e-002,
          -5.3967148191250390e-002, -5.9823422662122094e-002,
          -1.1075412716747697e+000, -5.0125279861093575e-001,
          2.5471601758974033e-002, -1.2406110029526950e-001,
          3.2255280016935223e-001, -1.4752540990322155e-001,
          -3.2846056187246668e-002, 3.2880996771037602e-001,
          -7.6280864279315158e-002, -7.8516652143494359e-001,
          -1.9274054233000718e-001, -2.4863067783980397e-001,
          -9.5502333454533433e-002, -3.1692985053614653e-001,
          -4.8597373496561451e-002, -5.8526379718305439e-002,
          -2.2114114519200288e-002, -1.1387122106806666e-001,
          2.7635334262533982e-002, -9.5185527006335882e-002,
          -6.0230951248637277e-001, 1.7084158911741650e-002,
          -5.3223830045994391e-001, -1.2069708988446540e-001,
          5.1897395142799431e-002, -1.9275513195077948e-002,
          -5.1446333088918945e-002, -3.5738794417494074e-001,
          7.0990943413012236e-002, 2.6580512893967245e-002,
          1.3134094403137539e-001, -1.2189492330990399e-001,
          4.7439300242182209e-001, -3.2701006938954197e-001,
          1.9376172791632634e-001, -4.0304076108233183e-001,
          -4.8070456834465675e-001, -3.3580470151849867e-001,
          -4.3764834544491144e-001, 3.9387051209280100e-001,
          -1.4365075469370017e-001, -3.2787031497227581e-001,
          5.7066506666300376e-001, 4.6685859758724683e-002,
          4.7995779474822503e-002, 1.4310644268584710e-001,
          -1.6494634505887293e-001, -4.3823945942806967e-002,
          1.6355426426361122e-001, -2.4407737999556708e-001,
          3.5233379565526374e-001, 1.3971498491066886e-002,
          4.4790673417031290e-001, 9.5665893043365095e-003,
          -3.6076306997887880e-001, -6.1935162967387040e-002,
          1.4283290319295899e-001, -4.3491734111325031e-001,
          -5.7260500448747802e-002, 2.2866800909166293e-001,
          2.7293405512773278e-001, -2.1132767782587766e-001,
          3.0132044614569636e-001, -1.9149306887548453e-001,
          2.7014775108024858e-001, -1.6890259851167835e-001,
          2.8224855029859930e-001, -2.9022730477355013e-002,
          -2.0350082133463746e-001, -8.5936094621297046e-002,
          -4.5303778147757240e-001, -1.1611969438768025e-002,
          -3.5918057505727734e-002, -1.1059056821127274e-001,
          5.9943388060845904e-001, 4.7128856137376524e-001,
          -1.5152262649590470e-001, -3.3259508760484974e-001,
          -1.8126040764236045e-001, -3.6551953225273071e-001,
          1.6959536761676153e-001, -4.3759281300894926e-001,
          2.0198314322325411e-001, 1.4917839453739065e-001,
          -2.5612928498441911e-001, -2.4613734167834325e-001,
          6.3124203305128065e-002, 1.6116557345346699e-001,
          4.1384873455840014e-002, 4.1246124200027262e-001,
          -6.2899810864875810e-002, 8.9849155371480569e-002,
          1.1228938529114538e-001, 2.9766141999760992e-002,
          2.2487839183820724e-001, 1.6639727985843616e-001,
          1.8658455982796388e-001, -1.8592468299316248e-001,
          -1.4425622533127869e-003, 3.7755633371625956e-003,
          -1.0577806963483509e-001, 6.8611764401012951e-002,
          4.8906407809608132e-001, 1.0068672189934003e-001,
          -2.0901742779172069e-001, -2.7040325085669337e-001,
          -3.8047616565526798e-001, 2.5567588766291338e-001,
          1.6164400500271450e-001, -1.5799536226937819e-001,
          6.4960513538951756e-002, 6.6967245593595376e-002,
          1.4296059922798290e-001, 8.9828962850324948e-002,
          -1.3147914325637511e-001, 2.3952058144091515e-002,
          4.5190863287175687e-001, 2.1461477906099025e-001,
          5.2193721144782407e-002, -1.8397281163291640e-001,
          -6.5436216134394723e-002, -6.2041788449050367e-002,
          -1.9369735532858254e-003, 2.0864648008216250e-002,
          2.7836468825996374e-001, -3.3628537337979229e-003,
          -2.0914726380418808e-001, -1.6284867312279780e-001,
          4.0393404213279624e-002, -3.2783617284849451e-002,
          8.8913054063180841e-002, -1.1907349440633262e-001,
          -1.7769575851965644e-001, 3.7753789085846734e-001,
          2.2914984500006837e-002, -1.4399745640988612e-001,
          9.8906627999436544e-002, 2.4158673496477108e-002,
          4.1649928752964865e-001, -3.5833112193981170e-001,
          -2.3998069326561577e-001, -7.2052878425856545e-002,
          8.1712821898102986e-002, 5.4333895879258819e-002,
          5.1656704987085099e-002, 2.9116152229636699e-001,
          9.8872438428032824e-003, 2.2731813151897018e-001,
          -2.8345178579984188e-002, 3.2344901993390923e-001,
          -1.6663210551006660e-001, 2.6703206814738128e-002,
          1.2486541755316911e-001, 3.3646553847078042e-001,
          2.2738208462336043e-001, 1.7370638972804298e-001,
          1.1513308693038657e-001, 3.0740417405673195e-002,
          -2.8232499939564354e-001, 1.0917091348825611e-001,
          2.9102071946827651e-001, -7.7606751758301243e-002,
          -2.3544405847142599e-001, 2.2489572362369278e-001,
          -3.5770070527781794e-001, 1.6425429867541350e-001,
          1.3930216731959620e-002, 8.5717131294266780e-002,
          9.6113643994111625e-002, 2.1552153306797583e-001,
          -5.9188846816875335e-002, -3.0976147117435437e-001,
          7.3300196264397682e-002, -6.5266089845695874e-002,
          -8.6214143048072234e-002, -1.8794318098682997e-001,
          1.6640858841333553e-002, -2.7461485822368620e-001,
          1.3514384328688991e-001, -1.5854881980552996e-001,
          -3.8847469903516382e-002, 1.8544958478825871e-001,
          -5.7064342079877461e-001, -2.8823193742110245e-002,
          -1.8625472113821775e-001, -7.6773567551741501e-002,
          1.8388266982687196e-002, -1.3319029019127621e-001,
          2.2577571515470209e-002, 7.5079409322460489e-002,
          -1.0298435838297013e-001, 1.1138587539617356e-001,
          -3.5328749216723188e-002, -3.2077755914600059e-003,
          -2.2435604675153792e-001, 3.6352194518986594e-004,
          -2.5426945775387701e-004, -2.3553629077619781e-001,
          1.9115171066751840e-001, -1.0217780650446490e-001,
          -2.2149727998759738e-001, 1.3075231734570550e-001,
          -2.6243416319771722e-002, 1.0615632097960320e-001,
          1.2605621135339096e-001, -6.9002740596434520e-002,
          -9.2776161507250099e-002, 1.1065704687114084e-001,
          4.3982350746083776e-001, 1.6947710054454013e-001,
          -4.4167211205144380e-001, -3.0385771947472295e-001,
          1.0701345528726687e-001, 1.7727005104849367e-001,
          2.4130657115056697e-002, 4.4650152043169182e-002,
          1.9214036746205754e-002, 4.1120239691356264e-001,
          6.8487348887097885e-002, 1.6170318735370431e-001,
          9.5759512464740296e-003, 7.8124884032574948e-002,
          2.1585002292501365e-001, 3.9502078272825279e-002,
          1.0423739596985600e-001, 2.5371691955483847e-002,
          -1.3862664348592771e-001, 1.2496028678003056e-001,
          1.1883449317906036e-001, -5.5576392876627925e-002,
          -3.0548097966970700e-001, 2.7593810473116726e-001,
          -3.0887331365411475e-001, -3.6278527674597905e-001,
          -1.6631366854447122e-002, -2.9274003554807741e-002,
          4.5574531799436782e-002, 4.4921035089189806e-002,
          2.2043007477211971e-001, 1.5495131503960310e-001,
          9.6458584897944968e-002, -4.7535201447670858e-002,
          4.3105411118656428e-001, -1.1396186062538342e-002,
          -2.8455242331463647e-002, -1.8276790186661201e-001,
          -7.6935990648721975e-002, -5.7812233529332391e-001,
          -2.3183875810985291e-001, -9.8309501837903386e-003,
          -1.3516828819721988e-001, -1.3935042759304139e-001,
          2.4310579051174779e-002, -3.4938311012282293e-002,
          -1.8670374232135092e-001, -6.4884553136716483e-002,
          1.2059900107536894e-001, -1.3668652286096750e-001,
          2.0560884713900718e-002, -1.9302689330407677e-001,
          -2.0713703471439686e-002, -2.1398320086294811e-001,
          4.9229151466804351e-002, -1.9656382418207258e-001,
          2.2689987909298499e-002, -5.1327216469747437e-002,
          -1.1584774601225106e-001, -1.8418457273749394e-002,
          -8.8885998150532705e-002, -1.4639421024364718e-001,
          2.8065694627215643e-002, -5.3738248333156505e-002,
          1.3268418024234732e-001, 1.1682962039733968e-001,
          3.8868502524876186e-001, 7.5436571694393939e-002,
          2.4282197816652064e-002, -3.0270684375111691e-002,
          -4.8202454059805326e-002, -3.2904166797701168e-001,
          -1.9853498528576399e-001, -2.1044119358075719e-001,
          1.4183928739314179e-002, -4.3510277940218160e-002,
          -1.9355902052995486e-001, 9.0402573596299871e-002,
          6.5522014009961771e-002, -8.3837702416983195e-001,
          -2.6260972256914278e-001, 3.1062679151964734e-001,
          -1.7714811827400118e-001, -1.9064106065824449e-001,
          -7.3566505195693035e-002, 4.2864458437746178e-001,
          6.2801044085846539e-002, 5.9013906642528341e-002,
          3.1493798175910448e-001, -4.6582463917653361e-002,
          3.4068808346906049e-001, 6.2450000627911662e-001,
          -1.6431361037819932e+000, 1.7707165074537887e-002,
          -1.5647109585443383e-001, -1.0172030878501452e+000,
          -2.3198688054582545e-001, -3.2292522609950809e-002,
          -1.7393725339992810e-001, 1.1256225147964936e+000,
          2.3910001921291560e-001, 1.4415225520863209e-001,
          4.5181852100320613e-001, -5.6219339861256976e-002,
          -1.0344965241571891e+000, 1.1637238221912731e+000,
          8.7236575506985353e-002, -4.4739566306716955e-001,
          1.5852592096674126e-001, 2.0799874702077098e-001,
          -3.1831234400765540e-001, 5.9948824881312179e-001,
          -1.5470695999025244e-002, 1.1918897133253875e-001,
          -5.0101433906056453e-002, -4.5464919292349894e-002,
          2.2964622924191869e-001, 4.9006231912867387e-001,
          -1.5200649702512031e-001, -4.1885768601381823e-001,
          3.0074394613902689e-001, 1.6433657893166406e-002,
          -3.8479862715760559e-002, 3.6529433696179732e+000,
          -3.0779361191119819e-001, 1.0254875350732440e+000,
          -2.2528272086009504e-001, 1.6322418031449834e-001,
          4.3407375327722930e-001, -3.3929537848060154e-001,
          1.5681141378774369e-002, 4.4413785541161921e-001,
          1.9914769022906265e-001, -7.4426607957363722e-001,
          -8.5634429654732877e-002, 5.2245422020748458e-002,
          2.2148822522520831e-001, -1.5610581398050731e+000,
          -1.4151801489573798e-001, -6.2522314476894836e-001,
          -3.3513092890188056e-001, -3.4043246605376171e-001,
          -2.3227381261566271e-001, 3.6403991172632444e-001,
          8.5525865536927079e-002, 1.3799912788251894e-002,
          -6.9680267460006640e-001, -4.9587847860519813e-001,
          1.1935705578817145e-001, -3.7869591776279465e-003,
          1.3808881921084026e-001, 4.9781929454831425e-002,
          -4.1336852060017049e-001, -6.2255282547123390e-002,
          -8.4360541921945517e-002, -1.3020882741184639e-002,
          -3.0974257483043871e-001, -1.3521097777633667e-001,
          -2.9931835720258776e-001, -2.1768157286596454e-001,
          1.1847405247645383e-001, -2.6469320318201228e-001,
          2.2587474332797416e-001, -3.9743627608740328e-001,
          -7.6522521861059201e-001, 7.8951077036507097e-002,
          -1.9871955436628658e-001, -1.1146129108102999e-001,
          -3.4349844872985824e-001, 8.3864912708070560e-002,
          -5.6630148958888224e-002, -1.7976889785408054e-001,
          -7.2557087622622918e-002, 6.0006569381198097e-002,
          3.6757324693037094e-002, -1.3773461920910246e-001,
          2.8360179734208169e-001, 4.6395242388676389e-001,
          9.7126712073142496e-002, 1.1017137114795017e-001,
          3.3312539231892108e-001, 2.5236066105359445e-002,
          1.3695417294598539e-001, -3.9926695376280091e-001,
          -4.6318608063137834e-001, -1.2617264579559928e-001,
          -1.2779492995505723e-001, 4.0089725482369598e-001,
          1.4689250969112602e-001, -6.8256547444347127e-001,
          -4.0216543469977488e-002, 5.2305126524193390e-001,
          -2.6698840650408723e-001, -7.9132634878723906e-001,
          4.4496063278436575e-002, -1.8093928843574095e-001,
          -5.4340385230575006e-001, -2.6406481267353572e-003,
          1.5357733005720070e-001, 2.1601142002831225e-001,
          -1.5108353434189345e-001, -1.0134001897172379e-001,
          6.1795210892580645e-002, 1.1999512600997961e-001,
          -8.1623768044491141e-001, 1.5809352845783980e-001,
          -4.0686510995531298e-002, -2.6321937243767995e-001,
          -9.9940082650831774e-001, -3.1922732278351468e-001,
          -1.5519936770749559e-001, -1.7625340130602007e-001,
          2.0076561187573366e-001, 6.9796800239644366e-002,
          -2.1861107329471938e-001, -3.3647401503059032e-001,
          1.5918766720887703e-001, 9.9574040159431373e-002,
          2.2430643574460596e-001, -1.4350355717594104e-001,
          -1.9184579137171245e-001, -6.0646784049368962e-002,
          -1.6538301452604567e-001, -1.4681085567170768e-001,
          -9.8465948983674945e-002, -4.9434176068472975e-003,
          1.4124487206270916e-001, -2.5676845913023591e-002,
          -1.9519942244108357e-002, -7.4252614803565029e-002,
          4.1296127468068056e-001, -8.9540456021810280e-002,
          1.4406714913243884e-001, 3.7377550398633948e-002,
          8.3350444036231708e-001, 5.6961289339515435e-002,
          7.2750118631497501e-003, -5.3330102682767142e-003,
          -5.1319523599977976e-002, -1.6669127066514983e-001,
          -1.5478745117192197e-001, -1.4222611833282273e-001,
          1.4369279866773263e-001, -1.5966011569368005e-001,
          -1.6630315290835371e-001, -1.0448842732590347e-001,
          -6.2663145227584316e-002, -9.8382798312143818e-002,
          6.2473799081319267e-002, -1.3405695626152281e-001,
          2.4275128256703515e-001, -3.2432102851491951e-002,
          -1.2242736549824960e-001, -2.4637795841809870e-001,
          -2.9698538034137573e-001, -2.3766408703970382e-001,
          1.2223145114455122e-002, 1.1505171486486204e-001,
          3.2653406450445260e-001, -4.0090409204337168e-001,
          2.5876823543266458e-001, 3.4427202598378859e-001,
          -4.0372839158763769e+000, -3.0013122857680147e-001,
          -7.3417139913324759e-003, -5.6396237415802197e-001,
          -7.7679625629143045e-002, -1.8299849099670051e-001,
          -1.6810057930013045e-001, -3.2286777799122354e-002,
          -1.6995307090969775e-002, 9.0527614214525987e-002,
          -9.8416346071617186e-002, -3.8642877976663809e-001,
          7.9310046538217632e-002, 6.7093595187320809e-001,
          -2.2523741614532986e-001, 3.0841537350242580e-002,
          -3.8409712922931119e-002, 2.4502883252360785e-002,
          6.6001750301823925e-002, 2.3780732904509817e-002,
          -9.9913636426025743e-002, -5.2081081872404254e-002,
          -6.9580565547170833e-002, -4.5181334183441890e-001,
          6.8191235499578395e-001, -5.6622436781530353e-002,
          1.8293845627834079e-001, -1.0373388148043838e+000,
          -9.5912030906132029e-001, -1.5541667337093559e-001,
          -2.2167409001499358e-001, 2.4018239581499626e-001,
          -2.0908897068100933e+000, 1.9748280967174471e-004,
          7.1119068039143873e-001, 3.2619208912409875e-001,
          -4.7121699473713981e-002, -3.0111870773118488e-001,
          -1.5041152593971899e-001, 1.8817123892941473e-001,
          1.4519659496513834e-002, -1.3653610336860650e-001,
          -7.8026891985531255e-002, -2.2237830760241206e-001,
          -6.4880507332499660e-001, -3.0038385160506798e-001,
          -1.9641148692006629e+000, 2.2551133383437222e-001,
          2.8793039660939956e-001, 8.1776929041706892e-001,
          -4.5551070988472764e-001, -6.1622074044309083e-002,
          -2.1354555750469406e+000, -1.0682719714197798e-001,
          2.8669339976313496e-001, -7.0673606693953742e-002,
          2.6985457811318153e-001, -3.7579587320566882e-001,
          -1.2609964633337527e+000, 1.1100461746876653e+000,
          -3.7968685749816089e-001, 5.2869231992269350e-001,
          -7.8525526783980476e-002, -3.4144370100274346e-001,
          9.7366942760910680e-001, -1.3320434644568974e-001,
          -8.1227753275178050e-001, -5.1436035991448104e-001,
          -7.4476255640645042e-002, 3.0100795626150995e-001,
          8.1944441799793183e-002, 5.2825253428153340e-001,
          1.3911440402863529e-001, 5.1506662637008337e-002,
          -3.0110532144138835e-002, 2.5985864419843824e-001,
          8.4526949687493330e-002, 5.7393843756078290e-002,
          9.6379458296242893e-002, -8.7197156720106389e-002,
          -2.3778555974105074e-002, -7.9560199319126362e-002,
          1.5235767677842368e-001, 5.0301848673706226e-002,
          -3.9687225984454608e-002, -2.1369550548340077e-001,
          1.8121215293277981e-001, -3.6655734561678095e-002,
          -1.0186783573040743e-001, 7.0136680531331874e-002,
          1.6702093358541330e-002, -6.2625877017564294e-002,
          -4.7174198643503362e-001, -1.5437772779630302e-001,
          1.0168392536907117e-001, -1.0010868653813193e-001,
          -3.5158778631399873e-001, -7.0312924674420074e-002,
          -5.4703868567589908e-001, -2.4582780434116594e-001,
          -6.3473508254088762e-002, 5.1366101716668153e-002,
          -3.1731033781103973e-001, 1.7872538620719358e-001,
          3.3025072606401151e-001, -1.4045109413358584e-001,
          7.6957035574074462e-002, -8.0159755156736323e-001,
          -7.4519867294071770e-002, 1.5865249670851234e-001,
          1.0434920111312881e-001, 1.0717938899956819e-003,
          6.2627922588230092e-002, -1.0015878915735182e-001,
          -4.9155490774914434e-001, 3.2419036994551781e-001,
          7.0999168070354668e-002, -2.6716926027018195e-002,
          1.5566399128404076e-001, 2.0253535501256034e-001,
          -4.1516007350907091e-001, -3.3767388704330392e-001,
          -9.2880671162890491e-002, -1.1442580855554145e-001,
          3.1408276858219614e-001, -1.9270482087439122e-001,
          -6.7545776241160455e-002, 1.2495408401121920e-001,
          5.5100508541989168e-002, 8.5775877855760949e-003,
          -1.9170465807223863e-001, -1.7670828923558118e-002,
          1.8579353832134857e-001, -3.7320264045893607e-002,
          -1.6055061317763214e-001, -2.0300565342969776e-001,
          1.5115299106843250e-001, -1.7964443551500432e-002,
          1.2740179684861383e-001, -2.7825423905899305e-001,
          1.9874027813202219e-001, -2.2166394570723980e-001,
          1.3202294960357286e-001, 9.0900442218417199e-002,
          -2.7922590320334406e-001, 1.8380429182604546e-002,
          2.1375804433485029e-003, -1.7884927134932144e-001,
          2.1027743605808139e-001, -5.9061626347668994e-001,
          5.6240572554307103e-002, 1.1682831488837361e-002,
          -7.2847448273697724e-001, 2.5121835942834564e-001,
          3.8977619844143815e-002, -6.9910728039949621e-001,
          2.1001830364914129e-001, -3.0056851636040138e-001,
          -1.4901456873067134e-001, -1.2538914429719744e-001,
          3.7931580398366513e-002, -4.1007561459045792e-002,
          -3.0949513663199937e-002, -2.0913357057278127e-002,
          1.3564329086143237e-001, -4.8582989790992284e-003,
          -1.2224703586475683e-001, -3.9975976801694418e-001,
          -2.3050594598474305e-001, 1.3251257153209897e-001,
          3.5073461042212459e-003, -2.6298644823571690e-003,
          -1.4619969244081366e-001, -5.5526160585540940e-002,
          4.1480709176949959e-001, 1.5295098458476725e-001,
          -1.2162471321688603e-001, 1.7816553453184175e-001,
          4.4680641074480464e-002, 1.8371092067813735e-001,
          1.6846303307109834e-002, 8.4528295999031111e-002,
          1.5273035055040607e-001, 1.4100707522476028e-001,
          -6.0568727066759649e-002, 5.5981422764457653e-002,
          -6.7678112212664066e-002, 3.2967174400145771e-001,
          1.7244528013298696e-001, 1.5925194109559224e-001,
          1.1158446036105077e-001, 1.1141822376112019e-002,
          4.9898366084522056e-002, -1.6884026598325419e-001,
          1.5437414066348121e-001, -4.6634782328166050e-004,
          -5.5733397621065994e-002, 3.7349506646781820e-002,
          -2.4507968893557433e-001, -2.6575443691832151e-002,
          -5.4188025005793838e-001, 1.3895479595406577e-002,
          1.0104149485648106e-001, -7.7254975301680295e-001,
          2.8450164730807176e-001, 3.1353682180532616e-003,
          8.6917861747802624e-002, -5.3504967907644148e-002,
          1.0081532695915843e-001, 1.1935832361744088e+000,
          -6.4274716449368038e-002, -1.6660810287116062e-001,
          -2.0480535874986958e-001, -1.2952113514163244e-001,
          -1.0652509948600411e-001, 8.9362711446604709e-002,
          -5.5533069155010573e-001, 2.7456671783246581e-002,
          -1.8474150803350620e-001, -1.6006097914539394e-001,
          -1.5599547411830936e-002, -2.9557135277684277e-001,
          8.3958969421218554e-002, 2.3190449146950101e-001,
          1.6544219462373233e-001, -2.9943202197529752e-002,
          -4.2388554566064196e-001, 2.4702178010879550e-001,
          -3.1440395895096590e-001, -1.0199836687668933e-001,
          -6.0943277665536755e-002, -2.2721376438225899e-001,
          4.3764739892693805e-002, -9.8306939317456390e-002,
          -1.8222639249465394e-001, -3.0123828163295346e-001,
          6.5182867278834836e-002, -1.3564650663429070e-001,
          -1.6339289220271200e-001, 2.3358480405379611e-001,
          -2.4927336129582833e-001, 1.8535143158229839e-001,
          -2.4754513669953729e-003, 5.9636971374916720e-002,
          -4.5280461777209491e-001, -6.0737371739555948e-003,
          1.0318941580219723e-001, -7.8679770128528601e-002,
          3.4687830184499757e-001, 7.7005129015014096e-003,
          1.7686216791780227e-001, -4.8829089873480690e-002,
          -3.3159345962583991e-001, -7.6070908908896728e-002,
          3.2836242634318502e-001, -8.1295047040309057e-002,
          -5.9123110809613924e-002, -1.4056420871859412e-001,
          1.0048059113379255e-001, 4.5283654351721991e-002,
          -1.2076478936241807e-001, -5.1057889316284177e-001,
          6.8798594760272336e-002, -3.4459503363612382e-001,
          -4.6255124744350595e-001, 4.4765266552651445e-001,
          -2.3082224386325162e-001, -6.5553626552397781e-001,
          1.1957738149387101e-001, -5.6850242783542193e-001,
          3.7300970233818766e-002, -4.4889155042284185e-001,
          6.1951720999519044e-001, -9.3996402272507162e-002,
          5.3032601142106318e-002, -8.2865652126079645e-002,
          2.2778166297752023e+000, 1.0424931655272719e-001,
          -9.7278957480583614e-002, 2.7310137700158433e-002,
          9.3940311739528534e-002, -7.2138006006326513e-002,
          -1.6550958867973092e-001, 2.4969527110835985e-002,
          -5.8261772819881519e-001, -4.2889402955701102e-002,
          2.2568648533819083e-002, 3.7613789924008878e-002,
          9.7108309837132673e-003, -6.0791161958632922e-001,
          -1.1013628164748566e-001, -2.8324714323576705e-001,
          -5.6605991737457499e-002, 2.5462269380882879e-001,
          -3.3431196759328839e-002, -1.2227367698170449e-001,
          -1.2266368786196001e-001, -7.5532256335464654e-001,
          -2.0631491206726338e-001, 2.2518445285595121e-001,
          -5.2462755310949422e-003, -6.4800594788699845e-002,
          3.1480974504742770e-001, -2.2305445097586826e-001,
          9.9349264036417435e-003, -1.0027998992813424e-001,
          7.3711929776460808e-002, 4.7343729077279732e-002,
          -6.6267639024537472e-002, 1.6636724494638269e-001,
          -1.3242290977005405e-001, 4.6778397779049435e-001,
          -2.1071420645567190e-001, 7.3394911771686680e-002,
          -1.8924744135669905e-001, -2.7468152286643244e-001,
          5.9360285702924742e-001, -2.7152889181544071e-001,
          -1.4723156119452929e-001, -8.5802628933442246e-002,
          1.2122311500505710e-001, -1.2034780644116354e-001,
          -2.8543713869935194e-001, 1.2483116480364362e-001,
          -2.5596725590957204e-002, 1.0481092324826839e-001,
          1.2966269472923841e-001, 2.5495394902736668e-001,
          -1.4279847680563576e-001, -6.9697110093923792e-002,
          4.8719155994141033e-002, 3.0121755838038672e-001,
          3.5474335046837294e-002, -1.5817118458697547e-002,
          1.2537775500926177e-001, -1.6930765306833234e-001,
          -2.0643853910160098e-001, 5.8108126812843733e-002,
          1.6318918040187902e-001, 5.1760544318882884e-001,
          1.0183408847636553e-001, 2.4787139013812459e-001,
          3.1884748831794024e-001, -1.8559346997101267e-001,
          -6.9075992003743578e-002, -1.8798875056172873e-001,
          -4.1166385267772149e-001, -3.6189000325423415e-001,
          -1.6185151664086903e-001, 7.2948416358830526e-001,
          -7.6450841474440839e-002, -1.0119823752774940e-001,
          -2.3789632357597207e-001, -8.5305943119329541e-001,
          3.6291264991820510e-001, 1.0961412078097645e-001,
          3.1001872668665936e-001, 1.1246588709151302e-001,
          -3.2329550519843364e-001, 1.1333203064771856e-001,
          -1.3556668660779711e-001, 1.7466169722746572e-001,
          -1.7437333541491121e-001, -2.4951302311296039e-002,
          -2.2601824556725847e-001, -7.2871917308719114e-002,
          -2.3082952374276616e-001, 1.5882343925398124e-001,
          -5.1887260820117936e-002, -2.2658214594145496e-002,
          1.3468411854514920e-002, -3.8250985005670861e-002,
          -1.5717062858452091e-002, 7.6888979128242746e-002,
          -1.7404456074866770e-001, -1.0165848798088832e-001,
          3.4274987935831454e-002, 2.4777323562999018e-001,
          -9.1044421414635268e-001, -8.5631853958446608e-002,
          -6.4160074183655671e-002, -3.4604768699064387e-001,
          -6.5163811735088742e-002, -2.1942051023738571e-001,
          2.1728962702329307e-002, -6.2734934737559284e-002,
          -4.4988756379359549e-002, -1.8299014494489557e-001,
          -5.7732565585610809e-002, -7.3631276752011898e-001,
          -4.9591734058270963e-002, 9.7615467903544001e-002,
          -6.9735309116694399e-001, 1.2757119230886832e-001,
          1.2435054953686056e-002, 2.5968612495338293e-002,
          -1.9234988396411801e-001, -4.4999798504947164e-001,
          6.9086893644789482e-002, -1.9521350787546542e-002,
          3.4084724567399222e-001, -2.7841628223135645e-001,
          -1.0898732638291488e-001, -3.1888076503355720e-002,
          5.9695430166378564e-002, 1.5627937401533126e-001,
          -1.2802836727551742e-001, -5.7034028726113434e-002,
          -9.3215956669078698e-002, -2.9853663827683025e-002,
          -7.9359487346125149e-002, 1.6885828148543794e-002,
          -1.8079607966573660e-001, 6.9706446853226953e-002,
          -4.9728763342960786e-001, 1.0940542194384720e-001,
          1.2218418221295796e-002, -3.0888627334189700e-001,
          -1.1683648345657006e-001, 3.1972108719920588e-002,
          1.0550489594150050e-002, -1.6893296825697840e-001,
          2.7279887565884225e-001, -6.3035346747237611e-002,
          1.9231602448334431e-001, -3.1482822090426923e-002,
          -8.2235091133660981e-002, -8.1645386688176794e-002,
          -1.5358070048204284e-001, -6.9570065939794937e-002,
          -6.3214953079196601e-001, 8.3069876204524121e-002,
          2.3172128024185171e-002, 2.2233405406985252e-002,
          -2.7200147126161500e-001, 1.5338009415116810e-001,
          -2.4921354361416098e-001, -6.9655993212090705e-002,
          1.4162944150302839e-001, -5.4371339353089951e-002,
          -1.2886412856191184e-001, 6.7424918670618034e-002,
          -1.7626473662878195e-001, -6.2576181046634510e-002,
          1.0744841132531516e-001, 3.3918186714021520e-001,
          -8.8541533021259194e-002, -1.2850775693001926e-001,
          -2.4071349132495465e-001, -1.1412040610574455e-001,
          5.4798145650961309e-003, 1.9335497101857332e-001,
          7.7167739474180611e-002, 4.7167348397738357e-001,
          1.3023904575893183e-002, -8.4970850673837917e-002,
          -3.0698154321192300e-001, -4.6612468123175557e-002,
          3.5943040225413292e-001, -9.8870809690257896e-002,
          -5.1920165479671855e-002, 2.9506381840638328e-002,
          -3.6375702276440913e-001, -2.5171866077269978e-001,
          -1.9965904710707073e-002, -1.7176180390053450e-001,
          -3.5010942712922453e-002, 5.6544089962902930e-002,
          3.5651696357186367e-002, 1.7113072502021431e-001,
          1.1518339431171572e-001, -3.7980065086682702e-001,
          -3.1928509256306366e-002, 2.3823605053741992e-001,
          -2.9444297159088903e-002, 1.8390620724301923e-003,
          1.9039420748286984e-001, 1.2622632014877530e-001,
          -3.6593070810542055e-002, -2.0915812196495104e-002,
          -9.3455385959169385e-002, 8.9251185747330174e-003,
          -1.5928279105525747e-001, 1.9581478013230291e-001,
          -9.9465106097298750e-002, 1.7553227633207572e-001,
          2.6304990380228302e-003, -2.8522284423594738e-002,
          2.1338504447617583e-002, -7.4701594938088767e-001,
          -1.2688425200034575e-001, 1.0411703374762764e-001,
          -7.4334128840339341e-003, 2.9776091578083097e-001,
          -2.0598745831654879e-002, -8.6427310117499281e-002,
          -9.1104842477318163e-002, 2.9587322587252901e-001,
          1.1081720193052748e-001, 6.2476161534108954e-002,
          8.0947861296581269e-001, -9.1596619124073198e-001,
          -4.6969321495309205e-002, -6.3936890403059432e-001,
          5.1074038349535444e-001, 4.6695478014176367e-002,
          1.1270395006231400e-001, -8.8667262229797345e-002,
          -1.8647959642388831e-001, 2.9595429718940885e-001,
          1.1929750057213544e-001, -9.0816577775798615e-002,
          1.0921867332747691e-001, 4.0686233936658595e-001,
          4.0274770617506755e-002, 1.7662108890811676e-001,
          5.2792934345606633e-002, -2.9094066571655758e-001,
          2.2017765794981320e-001, -2.7348264610523026e-001,
          3.5203638861693996e-002, -2.7366996319540746e-002,
          6.1647131098798227e-002, 1.3423017558952273e+000,
          -2.1707183096497151e-001, -2.1310329633388639e-001,
          -2.9848394071638362e-002, 2.0310559006577256e-001,
          -2.4943165214990154e-002, 1.9161942601376747e-001,
          -7.9592692758251260e-002, -1.5443294791238907e-001,
          -1.8366363277646092e-001, -5.0925779102628521e-002,
          7.9299112681766881e-001, -3.3330581321504221e-001,
          4.6346433452776600e-002, 1.7056330266563230e-001,
          4.6411790142538420e-002, -6.7550944106628368e-003,
          -1.0362785864039754e-001, -1.6952631555976588e-001,
          1.0033050297543743e-001, 1.1596029986485155e-001,
          -2.2871429897643014e-001, -1.2693303226062344e-001,
          -2.6885487801374941e-001, 1.7542953209466552e-001,
          1.0234163997256342e-001, 1.7410118226677071e-001,
          -1.2062423487280625e-001, 1.6659884408546938e-001,
          1.3019686391521668e-001, -1.1964974343563570e-001,
          9.0784530312541349e-003, -3.4833348362444494e-001,
          4.1356983336099201e-001, 1.1475938367604431e-001,
          -3.1597611875080933e-001, 3.6667866913654965e-002,
          1.0326982124634773e-001, 7.7816765291411879e-004,
          6.0830923197140565e-004, 8.6031545604594931e-002,
          -2.6669109381669731e-001, 1.7950827405988556e-001,
          -3.0623141462262460e-001, -3.9847007789175638e-002,
          1.8625189820942525e-001, 9.5271404053637029e-002,
          -1.4970942017932157e-001, 2.5102954365872718e-002,
          -2.1272563087170827e-002, -6.7041323200150205e-001,
          -3.7901604840684888e-001, 5.4122770477360227e-001,
          -1.5356619414390860e-001, -1.3596739104617295e-001,
          3.7826819700895555e-002, 3.4557456929381464e-001,
          1.4048678642758137e-002, -1.1162148165292958e-001,
          9.1714811677831784e-002, -1.1221430961475333e-001,
          2.7412370077748277e-001, -8.8294603030839774e-002,
          -8.0751592147881704e-002, 5.3045050557959959e-002,
          -4.0069652848198356e-001, -9.8643749573061190e-001,
          -7.7631638274699794e-002, -2.6466356275856813e-002,
          -6.4274447726326442e-002, 1.5528493034820101e-001,
          -1.7614268844983955e-001, 8.8916583535435398e-002,
          -1.4072082573039152e-001, -3.9842360144380856e-001,
          -6.8702923012790429e-001, -1.5665606870000665e-001,
          -3.3343047196988873e-001, -1.0113562450948481e-002,
          -4.8013166865026780e-001, 8.6036766410564805e-002,
          2.1134309015312679e-002, -2.4904526484534364e-002,
          -3.7452808552467021e-002, -2.8136537038334319e-001,
          3.4001315663385584e-001, -9.9980375403128680e-002,
          -6.1814377944138070e-002, -1.3599381146597089e-001,
          -2.3312256739213602e-001, -2.6516146904619875e-001,
          9.6801427783096333e-002, 2.7895055790973650e-001,
          -1.2529313545418796e-001, 3.2777270596683944e-001,
          -1.0563053580733008e-001, 2.0953041346936405e-001,
          1.3555918404190468e+000, -4.1964664243803868e-001,
          -1.6409493150182694e-001, -1.0741013398483541e-001,
          -1.6191168039139991e-001, 1.3152275321874238e-001,
          -1.6530912206673187e-001, 2.0055597884895937e-001,
          6.1146666601770816e-001, -4.0526548003033885e-001,
          1.6915662683898428e-001, 5.9725728668140410e-001,
          -2.0353054966649889e-001, 6.6162676521717395e-002,
          1.0228904872361692e-001, -2.2481773723166737e-001,
          2.9224282784755889e-002, 8.4610493959285882e-002,
          -6.9868939242634695e-002, 1.2513956982117921e-001,
          5.6165420184781178e-001, -2.1097300069407418e-001,
          2.5905920750214079e-001, -1.1138881746620908e+000,
          -1.0905262375108762e-002, -2.1281723477906381e-001,
          2.0463019527602169e-002, -8.7267370650781370e-002,
          1.6496332786392257e-001, -2.3016500403909325e-003,
          -3.4005691584890585e-001, 1.1995116603763897e-001,
          -4.6230073560570978e-001, 9.6610498813129713e-004,
          -1.0227271403192710e-001, -1.2775929008291728e-001,
          2.7285809660534954e-002, 3.2913138174959007e-002,
          3.8843889984349053e-002, -3.1695778348383508e-001,
          2.5886175356623065e-001, -6.1836890061029282e-001,
          -1.6597592614857867e-001, -1.4274238610031606e-001,
          7.9517900076661241e-001, 1.4261683924709090e-001,
          -6.5556688104902814e-003, 7.6582241411985802e-002,
          -4.5034794104690128e-002, -1.6744743270347071e-001,
          5.6944742313416376e-002, -2.0298017333558238e-001,
          2.0400810134050421e-001, 1.1405835678073346e-001,
          4.1692211086577308e-002, -1.2576810417010553e-001,
          -1.4658241680817471e-001, 2.5251046588417253e-001,
          1.4506264301276633e-002, 2.0039269429827922e-001,
          -2.7674151089797072e-001, 1.8508975300160317e-002,
          9.8949729147988733e-002, -9.1208053621143148e-002,
          7.2021557066167952e-001, -3.5030674684284852e-001,
          2.2105574970239156e-001, -2.5871273063251282e-001,
          -1.2451636745828651e-001, 2.8390840035341264e-001,
          -3.4105015547792258e-003, 9.4444552373781646e-002,
          -2.3728725645804805e-001, -2.2232508853397645e-001,
          7.5319762222235478e-002, -1.5685388426592908e-001,
          -3.3736779937394246e-001, -1.5472311237004521e-001,
          -5.3120368458424688e-002, 5.5971885064050264e-001,
          -1.2014647415673070e-001, -3.9815662093361202e-003,
          -3.2881300807166870e-002, -9.3421028791010524e-002,
          9.8576713329470045e-002, 9.1836939546412442e-003,
          -1.8934086293840710e-001, -2.6298235919050761e-001,
          -9.2348200205990563e-002, 1.7806217633839369e-001,
          -6.8859551501025476e-002, -5.9522421985161000e-001,
          -7.5658585678230250e-002, 1.8758503489783496e-001,
          -1.9093320394890695e-001, 3.5278144458683207e-002,
          -2.7800062408388847e-002, -7.3404331117381219e-002,
          -5.5823928134081158e-002, 1.9144441857250130e-002,
          -2.6314208829339314e-001, 1.1890912051006448e-001,
          8.9215873946256491e-002, 4.1206093621050516e-002,
          -7.9999690192924700e-001, 2.1299036652052090e-002,
          1.8399052369404048e-002, 2.0510159641250536e-001,
          9.3275374305958461e-002, -1.2325481069395548e-001,
          1.1527074792843027e-001, -1.2972153804176764e-001,
          3.7102208047041063e-001, 2.8546393167564143e-002,
          2.0013155011159564e-001, 4.2670790601013275e-001,
          -1.9455556043209813e-002, 1.1761216595655387e-001,
          -1.0382522490705175e-001, 1.6512433947058464e-001,
          -3.6531090041237874e-001, -2.5836148599820191e-001,
          -1.6849163792733848e-001, -5.0328916198937299e-002,
          -3.2147596731714156e-001, 3.4782568600638036e-001,
          -1.4948207786359813e-001, -5.8060683259208191e-002,
          1.3343606663877444e-001, 6.7721021519296072e-003,
          5.0141333232108301e-002, -1.2032007073269450e-001,
          9.4136325092045309e-002, -2.3661945205287434e+000,
          9.7918356829161959e-002, -3.7221633750259955e-002,
          -1.7393679740091691e-001, 5.4873359306682398e-003,
          8.4070058227142766e-002, -2.0657750249034393e-001,
          -2.2718975922517698e-001, 1.5988740206255397e-001,
          -9.5795307535929825e-002, -1.3526661340822484e-002,
          1.6273943268751156e-001, -1.3686713361981928e-001,
          -6.5933694497630757e-002, -1.2424798935806518e-001,
          1.5056865217588467e-001, 9.7520140321335680e-001,
          3.1751760303955975e-002, -1.9004499612684594e-001,
          -1.1734195282075091e-001, 4.6761978482065945e-002,
          -9.0301985417501007e-002, 1.4909904071931343e-001,
          -2.0024722032170575e-001, -3.0508346222103955e-001,
          1.8143728999782083e-001, -1.1495022955525747e-001,
          3.2513481278082701e-001, 4.4694965229032872e-002,
          -8.2376197813890426e-002, -1.8863710157395595e-002,
          9.4286047150779595e-002, -1.5502201542963956e-001,
          -4.6097691087425507e-002, -1.4180738962938274e-002,
          -5.3105597279413408e-001, 7.9535337710367457e-002,
          3.2762094432147437e-001, 8.4867596739693449e-002,
          4.2534315080997288e-002, -4.7648608674671050e-002,
          5.4776731803764748e-003, -1.4768487786091017e-001,
          -1.7436011766193574e-001, -1.3851458852535561e-001,
          5.2127068617527827e-001, -8.4491471805790599e-002,
          -1.2413573096876430e-001, -6.5525602856507575e-002,
          -1.3928136110334571e-001, 3.4147417076361597e-001,
          -6.7399691554953945e-003, 8.3227007347597609e-002,
          7.1430600875158484e-002, 1.3205572989491124e-001,
          -2.8849676894355103e-001, 1.4377026863114165e-001,
          1.0298643401958338e-001, 6.9570464453339087e-002,
          7.2272195214875296e-002, 1.2688578221370411e-001,
          2.4860306795287539e-002, 9.0684558152823891e-001,
          1.2300972801680175e-001, -8.2790188457008862e-002,
          -2.9104359830122361e-003, 1.3457284496901653e-001,
          1.5630248569329969e-001, 1.5937605962360765e-001,
          -3.2486471577007398e-001, -1.8070648321298971e-001,
          8.0642922463031896e-002, -7.9478791205759819e-002,
          -8.4104004359630696e-002, 6.4244835313374521e-002,
          -8.8672031145588567e-002, 1.7804087024629525e-001,
          -1.4079655470360644e-003, 5.0466261270055124e-001,
          1.5717353141804241e-001, 2.7618057075696242e-002,
          1.9019993705443722e-001, -6.2244718666119046e-002,
          -3.7674779819863780e-002, -1.5363272824199789e-001,
          -1.2732276941097054e-001, 3.8298249435330112e-002,
          2.7721095850913052e-001, -3.3467527845571596e-002,
          -1.2209411347878443e-001, 5.4221713243302816e-001,
          -3.2526466474385896e-002, 3.3520668829407207e-001,
          2.0311518362179620e-001, -6.6180943626707428e-002,
          1.6986534467384182e-001, 1.5681930577704864e-001,
          9.7601139812201629e-002, 1.4705783266261102e-001,
          1.0408002068370183e-001, -4.9443509931268098e-001,
          -1.0060450720243257e-001, 1.1312523006303155e-001,
          -3.3582817172770479e-001, 3.6048590245738155e-001,
          1.8615969848305011e-001, 2.0445096309455352e-001,
          -9.3136498459686454e-002, 1.3172897841373907e-001,
          9.5800938554817930e-002, 2.0227116644802718e-002,
          -2.9101384953405990e-001, -1.4337398739392615e-001,
          1.5426463568224838e-001, 8.5326439342382321e-002,
          6.0295393010356212e-002, 8.6613763565579607e-002,
          -2.3526576603085206e-001, -1.0810499355033684e-001,
          -2.7231299251615082e-001, 8.1654588359462310e-001,
          -1.1850761490100945e+000, 6.9029219696357935e-001,
          4.6911829687091000e-001, -1.0523507128515877e-001,
          -1.7352312700702155e-001, 8.1906814297733638e-002,
          1.7790375991910440e-002, -2.5565577798717661e-002,
          -7.0560200689242764e-002, 5.0939121319785556e-002,
          1.9575185634566303e-001, 6.8489241443766266e-002,
          8.4525026001512432e-002, 2.8191556048768196e-001,
          -4.9393746367197712e-002, -1.1407235552771182e-001,
          -2.5019691683526912e-002, 7.4264689269424353e-002,
          -3.2367428967087442e-002, 4.6111711616558404e-001,
          -1.8200736091313250e+000, -4.3659536711741484e-002,
          -1.1334287847857191e-001, -2.0826212279010703e-001,
          -1.9545571530030206e-001, -2.8162207514689952e-001,
          2.1076443636181361e-001, 1.3290969903794558e-001,
          1.3353713320696627e+000, 3.5086341703443830e-001,
          3.2908766441185522e-001, 1.6851589147382626e-001,
          3.4721200134308583e-001, 1.8363074026397583e-001,
          2.5482859271971864e-001, 3.2404577759923014e-001,
          1.8561308425980683e-001, -3.8995237682463255e-002,
          -5.3545261195808947e-003, -3.0085000898552029e-002,
          1.2336020498146189e-001, -5.2612565551009094e-001,
          -1.6252233245124625e-001, 2.9759196780617286e-001,
          -5.5529361898575227e-002, 6.7018925408065178e-001,
          -1.1807374363381110e-001, 3.6813256016541224e-001,
          7.4584267409869051e-002, 6.7783578256789961e-002,
          1.6782310374015127e-001, 1.2579439710821724e-001,
          1.6296529859413553e-001, 1.4080825294104263e-001,
          5.9151681947575543e-002, -1.3013475870184368e-001,
          -2.8680027607432552e-002, 9.5730578126985034e-004,
          -1.9338854618063357e-002, 1.3094854006044410e-001,
          3.2052625626698283e-001, -5.3766160349621422e-002,
          1.0795202998987401e+000, -6.8709444177772272e-001,
          9.6097207420946476e-002, -3.6799419001674091e-002,
          -7.9629916707127171e-003, -3.6087252787148116e-001,
          2.8839048725564184e-002, 1.9578100950656555e-002,
          1.4933765471382330e-003, 1.0318360596791838e-001,
          -5.8786787271611429e-001, 1.2597511915665144e-001,
          9.0899364094570861e-002, 7.8613788302503984e-002,
          -1.5483100607598793e-001, 3.5316542414024002e-003,
          4.7267377725414994e-001, -2.2807439836400398e-001,
          1.6241942511823673e-001, -8.5405822322424929e-001,
          3.3794268516124171e-001, 1.1873549868131586e-001,
          -7.4279665956838592e-001, 2.6345141611254425e-002,
          6.6623632863395607e-002, 2.7492170208333638e-001,
          -1.4102997286797847e-001, 6.8888873070044865e-001,
          -5.7956712952657363e-001, 7.4974386421922126e-002,
          2.6680169906554096e-001, 3.6270087119659705e-002,
          -1.3101113344361090e-001, 4.1218751367336659e-001,
          1.3123485720158196e-001, -3.5250448157623265e-002,
          -4.6178923946141627e-002, 2.0911097021213115e-001,
          1.9741864701209041e-001, 5.9739018505130630e-002,
          -3.5448186513583990e-001, 2.8250135707491758e-001,
          -7.6430568687461931e-001, -9.5582186751910614e-001,
          -7.1826822434716178e-002, 2.8695202518962587e-001,
          -2.4776945527892119e-001, -4.6799487601503403e-002,
          5.5397889952244352e-002, 1.4721972698210890e-002,
          3.7538727055776167e-001, 2.3615505994088046e-001,
          -2.7902532921371204e-001, 3.3424639619945390e-001,
          -2.2478036849483338e-001, -1.3235146089958374e-001,
          1.2954831984623834e+000, 2.7152581513730512e-001,
          4.9091572928497046e-001, 5.0392840495619179e-002,
          3.3683389082578473e-002, 8.9113078817380648e-002,
          -7.2031015413046862e-001, 6.1765071273740445e-002,
          5.8125065467304537e-001, 2.3457385708786442e+000,
          2.5094297533209940e-002, 1.4549613276592679e-001,
          1.2544151614667978e-001, -9.3466417186905987e-002,
          -1.8226010882762647e-001, -3.9317390163664112e-001,
          2.9346354360814364e-001, -2.9882397804971622e-002,
          -7.1717480724016847e-002, 1.7246180020128371e-002,
          -1.4988234002185996e-001, 6.9833045588934536e-002,
          -3.7635155113386054e-001, 1.0640491823050914e-001,
          -4.2202287666414784e-001, 1.5209442328730624e-001,
          5.9781819696395921e-001, 1.3756931786975551e-001,
          7.0248669415197040e-001, 3.7132488701040745e-001,
          1.9197706388269228e-001, -2.6854725608368135e-001,
          -1.2562506951911026e-001, 2.0233824200971037e-001,
          3.4619754622259594e-002, 2.7085527317683195e-001,
          -3.0065307467198021e-001, -8.9614641301862322e-003,
          -3.8456653779111324e-002, 3.8865298890340780e-002,
          -7.1052952235503924e-002, -1.1932257664112478e-001,
          1.9390182182750007e-001, -3.3915687017753236e-002,
          -6.7383026508896257e-002, -1.8493632441876912e-001,
          1.3740980709520539e-001, -4.0755455610686281e-001,
          2.1012810494544712e-001, 1.0050318558699706e-001,
          -1.7509902780111430e-001, -1.5821058816925793e-001,
          7.5042008399785060e-002, 2.4767256276983918e-001,
          7.1150663314643009e-002, 9.9573202568646699e-002,
          -1.1527182264941280e-001, -4.8152279567864713e-002,
          -8.5185452258141253e-002, 1.5645334665733389e-003,
          2.4722192212487198e-001, 4.2455641460295163e-001,
          5.1277003917861226e-002, -1.5876746460723931e-001,
          -6.3379330823548066e-004, -3.0089662852620247e-001,
          8.5786530953557705e-002, -1.8745066606105462e-001,
          4.6711496927419455e-001, 5.9518789127363206e-002,
          -3.7280361200184485e-002, -6.8370209889432276e-001,
          -1.9337709054163152e-001, 7.5728918011710422e-001,
          1.4589463004772010e+000, -1.3345972491294511e-001,
          3.2281521187519235e-001, -4.3934785167425561e-001,
          3.2959430615181085e-001, 2.9296344199957541e-001,
          -5.9766315663241754e-002, 8.9033783466635000e-002,
          5.6288449464826662e-001, 1.7015350793449788e-001,
          -1.0089072546194916e-001, 1.1379472339913244e-001,
          3.5358029407715308e-001, -9.8534662278559032e-002,
          3.6248587755139276e-002, -2.6156608640106838e-001,
          -1.4905278188554624e-001, -1.8358636344742418e-001,
          -2.7653430141251412e-001, -3.4672462439248281e-001,
          -1.2229559529377694e-001, 6.5983955608500933e-001,
          4.0551164658221188e-003, 5.0302784581265830e-002,
          -1.1651360877032908e-001, 2.0515009302964876e-002,
          5.7393063103060049e-001, -4.5795951484708351e-002,
          8.1128658175964194e-002, -7.6454799585993022e-002,
          4.1720109182168105e-002, -1.9264839413810286e-001,
          -1.5953236589493219e-001, -4.6088858514861680e-001,
          5.7034649472697929e-001, 1.0268538313397889e-001,
          1.0804889593818445e-001, -5.3911655520147150e-002,
          -3.0323198660400213e-001, 1.7442617720010190e-001,
          8.8839276012188884e-002, -5.7662539021165748e-001,
          5.5088056473764158e-001, -4.2610240444175174e-001,
          6.6724395213357568e-001, -3.0973523744492865e-001,
          1.3581649685238462e-001, -7.1162321284193600e-002,
          -7.1434635354934684e-001, -6.7008014570378402e-002,
          2.6897683530482014e-001, 6.5957768495666480e-002,
          5.1168455266111135e-001, -1.8803190740653383e-001,
          3.1215482368297987e-001, -2.2078858836301626e-001,
          3.2724997757958341e-002, 4.3197309019707135e-002,
          6.0895814728195580e-002, 2.0107368214371557e-001,
          -1.2474484263010129e-001, 3.5919693544836784e-001,
          1.7301550236534396e-001, -5.5248756217495955e-002,
          1.3500517087070309e-002, 1.1199102304949693e-001,
          -1.4632450553448792e-001, 1.2273512479670572e-001,
          -8.6433407727060166e-002, -1.6213835605805145e-002,
          2.8966680030959108e-001, 1.3163295623420843e-001,
          -1.2202511542720521e-001, 1.4277662959257953e-001,
          2.6497759492512235e-002, -2.8215100969071116e-001,
          -5.2132545265579582e-002, 1.2979459918942168e-001,
          -1.1585124871684693e+000, 2.5846658152511642e-001,
          -1.3578726345370778e-001, -2.0298477953576852e-001,
          -2.1392662793274373e+000, 2.4118067449461048e-001,
          3.6440983835103614e-002, 1.5985715459345734e-001,
          1.2750302343850542e-001, 2.4945714920149430e-002,
          3.5881395615878681e-001, 9.8592281919821098e-002,
          3.5598989442485122e-002, 1.3074161858747733e-002,
          -4.2297636368801966e-001, 3.5198909226375907e-001,
          3.4747463834858168e-002, 8.9747673814232543e-002,
          -5.1346902442804009e-002, 1.4013068909832413e-001,
          -5.2597132863812679e-002, -8.7404162654938555e-002,
          2.4457049551324772e-002, 7.1957384955597337e-001,
          -1.3119729739269137e-001, 7.1183760190703424e-002,
          -7.6480359616411149e-003, 6.8650907807946734e-002,
          -1.7187934809908523e-001, 2.5952338521239160e-001,
          -3.5109967500244627e-001, 4.3544662267037249e-001,
          1.0793468812405112e-001, 9.0316712615309741e-002,
          -8.1577960003424779e-002, 2.9098583157580427e-001,
          2.4020671504057878e-001, -5.3307523282329801e-002,
          8.2700109119123522e-001, 9.6517815408894439e-002,
          4.8511498557513255e-001, 2.0385861750186732e-001,
          -3.4657878741198250e-001, 5.9802594675787990e-001,
          -1.3546825453812380e-002, -9.6482982498177217e-002,
          -1.4165584887521279e-001, 4.2817184849749911e-002,
          -2.8081861733747521e-001, -1.2870534771000688e-001,
          4.6585963859761581e-001, -1.8616889695582542e-001,
          5.6228414366209435e-002, 9.9732361643757261e-001,
          -1.7447356413392173e-001, 5.8888471801458664e-001,
          -6.1700886078159449e-005, -3.7821720029769329e-002,
          1.0943950246107238e-001, 5.0451440211547061e-001,
          -8.4038256410767453e-001, 5.0669785229080100e-001,
          3.2773591838898886e-002, 2.0745359926517806e-001,
          -1.4621356669427535e-001, -8.8974026637777939e-002,
          6.8314725921632721e-002, -4.6316198065366460e-001,
          5.8444507289120727e-002, 8.2650519490166241e-001,
          9.7953598648745444e-001, -2.0134303082532209e-001,
          -4.4828786319432445e-001, -2.6173426197424454e-001,
          2.1174183264151172e-001, -1.0021844066633724e-001,
          -8.3077342460000758e-002, -2.8127469737174265e-001,
          -1.9151537637883367e-001, -2.6870092345076785e-001,
          -3.5367874579579361e-001, -2.8136219308866217e-001,
          8.7181495274470011e-001, 1.8047137694647009e-001,
          -2.1976045147948331e+000, -1.0689764624516293e-001,
          2.4279223888738174e-001, 3.4783571065633029e-001,
          2.1108897466676677e-001, 2.9537473044079282e-001,
          -5.8961280145376649e-001, -1.6655966370651243e-001,
          2.1079411114412394e-001, 2.9619357981828193e-001,
          -2.2650571242484388e-001, 1.3678520581879496e-002,
          -2.1442061985026281e-001, -1.6834673350684662e-001,
          -4.0354363584251950e-002, -2.8841676757901419e-001,
          3.2803727423648987e-001, -4.5819685541191890e-001,
          -6.9854280764159682e-001, 2.2157717594485932e-001,
          -6.0605868747630624e-002, 8.6292554861285919e-001,
          -2.3704984200810300e-001, 1.4710929741062279e-001,
          2.1338277033426889e-001, -2.0387375564096269e-001,
          6.9024464754814205e-002, -2.7581915711523625e-001,
          3.5222558209406363e-001, -2.8809088751393047e-001,
          -3.8164872925619997e-001, -1.2237690116487311e-001,
          -1.6111225852360498e+000, -3.0608605843531797e-002,
          9.8242536635643168e-002, -2.8120784215021349e-001,
          -1.1701722473605881e-001, 1.4567421696323907e-001,
          -4.6442382218507786e-002, 3.3100196874672548e-002,
          1.4035740216673803e-001, -1.7391677745840239e-001,
          -1.8706325145618591e-001, -3.0586549362611715e-001,
          2.4085095229994372e-001, 1.7897222748640634e-001,
          5.9301336320140979e-002, -2.5549987628644445e-002,
          -1.2716743250510312e-001, 2.9628732126546609e-001,
          4.3487253553694254e-002, -3.5928235193194255e-002,
          -1.9314719280200479e-001, -4.3510295433911289e-001,
          4.5878190736934599e-001, -3.8184548415313940e-001,
          -1.0918093638933431e-002, 6.0060086688173686e-001,
          5.4973384806682617e-002, -1.9166480453133661e-001,
          -3.0700192899292861e-001, -1.0182439477848547e-002,
          -4.2281000068964392e-001, 1.1513324304191919e+000,
          9.9095251739381995e-003, -9.2677063831950957e-001,
          -1.2846386971546900e-002, 2.6345815949123798e-003,
          -9.0220981277404655e-001, -3.4769885823437391e-001,
          -3.3113237139716900e-001, 1.7619908630716852e-001,
          1.4780841522796404e-001, -4.8896892868955383e-001,
          6.0611854090306796e-002, 1.0321317212918386e+000,
          8.5572747524718228e-003, 2.8793932873653871e-001,
          -1.2522256115906488e-001, 1.7643747176846730e-001,
          2.9090011731085180e-001, -2.0413917013233192e-002,
          -4.8254086771867225e-002, 7.8030982272194030e-002,
          5.3475708767132435e-001, 2.2840376217229208e-001,
          3.0664681699072266e-001, -6.7860975484980726e-002,
          6.5371869379870148e-002, 7.9895522884435455e-001,
          -1.2064671484355195e-001, 4.1346125086750674e-001,
          -4.7683882356615026e-003, -2.7382380129930512e-002,
          -4.2393427542251748e-002, 5.1369495855048158e-002,
          2.6640488794509687e-001, 1.1526936019686004e-001,
          -5.4340351724921310e-001, -1.0232090267905561e-001,
          1.6657567850038374e-001, 7.0559919693589102e-001,
          -1.3224832636636477e-002, -1.8361715324375227e-001,
          2.0381757041975207e-001, 4.4580664957487470e-002,
          -1.1039684519104251e-001, 2.1018332477485407e-001,
          3.0650033870237475e-001, -7.1736628593804027e-003,
          6.7326640432997409e-002, 1.4197909024095770e-001,
          1.0569223783741921e-001, 1.8244612997369636e-001,
          -5.1205521210662151e-002, 5.2734299388611125e-005,
          -5.2228355731373544e-001, -2.0449120114681463e-001,
          -2.7007386291988478e-001, -4.1035874248590641e-002,
          -2.5207731102526454e-001, -3.1723842744137494e-003,
          -3.7485791622492842e-001, 1.5791194795678682e+000,
          -4.4861614643498626e-001, -3.8484949533483259e-001,
          6.4901771130591002e-001, -1.3970704981072204e-001,
          4.0989702458741128e-001, 7.2427385259314761e-002,
          4.6768787315425414e-001, 7.3775279306407121e-002,
          -9.4191323049632802e-001, 4.9790820101953431e-002,
          -5.7568800957359341e-002, 6.3340569047615036e-002,
          3.1050135123568290e-001, -1.1037755500347553e-001,
          2.5710197910845822e-001, 1.9946105004175782e-001,
          -2.8173482733133186e-002, -4.6963596102776584e-001,
          1.6625719264205777e-001, 1.3433079865024153e-001,
          3.1575770280250426e-001, 4.6567216323998711e-001,
          6.8717869885543802e-003, -1.4820972962053605e-001,
          -9.1292686734639802e-003, -4.3527960138448930e-002,
          -3.4428702532408914e-002, 1.1494662310544197e-001,
          -1.1395813723032884e-001, 1.4492102296421011e-001,
          -3.7515750651222052e-001, 1.8067764576866835e-001,
          8.1511711031013484e-002, 3.1482124109536852e-001,
          2.1725236450492155e-001, 5.5826060436874214e-001,
          3.3248096719321385e-001, 1.7112008577377838e-001,
          5.1464075378717701e-002, -3.0329969084702890e-001,
          7.3737362798748096e-001, -1.5236394233256185e+000,
          -7.1201854845428444e-002, 5.1597214747532566e-002,
          -1.2415983980486260e-001, 5.5859431427196654e-002,
          -1.4040937167913770e-001, -7.2563324630024045e-002,
          -3.8655931808666627e-001, -1.4892376227001941e-001,
          3.2995906433727423e-001, -1.8222170184220524e-002,
          7.3243589973330026e-002, -1.6408717001292139e-001,
          2.4315147296813716e-001, 1.9454881190320994e-001,
          4.5446642994189594e-002, 1.5795573104138036e-001,
          2.2516612488125140e-001, 2.3668283331040302e-001,
          -3.3811210888655283e-002, 2.8072473299145584e-001,
          1.8105584874715577e-001, -1.4656566553713560e-001,
          9.1414682687485593e-002, -1.0442861014577631e-001,
          -3.6937774051301969e-001, -8.6573352019331612e-002,
          -2.0339605199732108e-001, 6.2821403733744577e-002,
          -1.1871429363022912e-001, -2.7748406991785635e-001,
          -2.2316027404168526e-001, 3.5169044048214226e-001,
          1.1032566970060440e-001, -4.1768450828478673e-002,
          -2.5722026772675977e-001, 2.5633712004510761e-001,
          2.5445449335042847e-001, -9.4749588714418936e-002,
          -3.5109996870292398e-001, -5.9115941128332891e-002,
          -2.9824920746933732e-003, 7.2350703354661025e-002,
          -1.3647914789988716e-001, -2.9632290389866861e-001,
          4.9807371827771230e-002, -1.5205252968308089e-001,
          -5.0603665875554427e-001, 1.4992639836311160e-002,
          -2.5324998658522418e-001, -9.4602113888759332e-002,
          1.0949499064549595e-001, 5.4716782588444028e-002,
          -2.5036673189807196e-001, 1.8824847223498256e-001,
          -7.1631122544633483e-002, -9.0261537546199214e-002,
          3.7789833146450114e-001, -3.9741260724933652e-001,
          -1.1062350564313632e-001, 2.8683759103494116e-001,
          -1.4945973013479958e-002, 5.0776535504873772e-002,
          -1.1124928576120158e-001, -2.4785195675145338e-002,
          -5.2995824316235833e-002, -2.5255285342141755e-003,
          1.5927077059188280e-001, 2.1521196681945318e-001,
          -1.3157270307511820e-001, 1.5653121428080410e-001,
          4.7709740736897488e-002, 1.9243294192078247e-001,
          1.6709138948512007e-002, 1.5020942656028349e-001,
          -1.1198244440224252e-001, 2.0785414004248073e-001,
          2.2018669655449488e-001, -1.2338782045997479e-001,
          3.7654095930737326e-002, 8.0876670685109897e-002,
          1.2335431012127969e+000, -5.0440216776207258e-001,
          2.2247215120481803e-001, -2.9445840839864547e-002,
          2.6605801032638687e-001, 3.9172719738686163e-001,
          5.0958499630400639e-002, 1.0404106154119569e-001,
          -3.2438719888308831e-001, 1.3865209627505098e-001,
          -1.2275052819808779e-001, 3.0608153744351568e-001,
          1.9615591688393441e-001, -2.3485126779994175e-001,
          2.4810398634102360e-001, -2.1931259911339174e-001,
          1.0754961727493177e-001, 4.2531766848585184e-001,
          1.4507100524941152e-001, 7.5733913738423600e-002,
          -3.5917966629883202e-001, -1.1909261173590920e-002,
          3.5901515637567061e-001, 3.7011561242222601e-002,
          -5.1318842674766739e-002, 4.6975473146392988e-001,
          -1.9430904439313870e-001, 3.3429685507247919e-001,
          1.7292926722728855e-001, -2.9294394035154697e-001,
          -1.3517889645463588e-001, 2.0909731713443933e-001,
          -3.8073174615047206e-001, -6.2503374985649529e-001,
          -2.2012205539683685e-001, 1.9015669498129231e-002,
          3.3171772105163211e-001, -7.5902349115045217e-002,
          9.7097405507591161e-002, 1.4065068698447405e-001,
          6.4760784230063706e-002, -2.4016293024345309e-001,
          -1.1190756328759342e-001, 8.4513179052271889e-002,
          2.4182046420568581e-001, -1.0386638083692303e-001,
          -6.7775316220481163e-001, 2.0292717525283901e-001,
          -4.4628208009193725e-002, -6.4084608434172866e-002,
          -1.1288994028435556e-001, -1.8626388341898079e-001,
          1.1520186344235664e-001, -1.6847641476399447e-001,
          1.1999452168908593e-001, 7.6276690912085110e-002,
          -2.9381728601231605e-001, 6.6476776438337604e-001,
          -2.1184634986942871e-001, -4.0409319950772510e-001,
          5.5128618230254034e-001, -1.4787840366864105e-001,
          2.9114427859240577e-001, 1.4736279782954279e-001,
          -4.3198562165313155e-002, 1.4040134538257898e-001,
          1.7142233131903689e-002, -7.6833702664243581e-002,
          6.5629326452639591e-003, -2.3609612922973128e-001,
          3.6587212197593982e-001, 6.5103402616162409e-001,
          -8.9116307658213989e-001, 2.1811292235618193e-001,
          6.2680600862099989e-001, 8.2079993355059402e-002,
          -1.9826007486406105e-001, 2.7621102736453607e-001,
          -6.2802676903164945e-001, -1.9701850639070109e-001,
          1.1923270652676822e-001, 4.1599856623844489e-001,
          -8.0722696770963276e-002, 6.1078482546196722e-001,
          2.0369059478185700e-001, 2.0231359398209880e-001,
          5.7332123414496361e-001, 3.6909326813134039e-002,
          4.0682276233143844e-001, -9.0533910121990219e-002,
          1.0491546977386292e-001, 6.8816849615313180e-001,
          -9.0244670106091762e-001, -4.1259348016547720e-001,
          3.7004971304921686e-001, 4.4605888373900626e-001,
          -7.3745454590183099e-002, 5.4651660542956648e-001,
          9.4322620284603337e-002, -2.6378544406477533e-001,
          1.3969044835341040e+000, 2.9208404416393730e-001,
          -1.2466982750562072e-001, 3.6275437016976753e-001,
          -7.3318743181908161e-002, -8.0153429899667047e-002,
          1.3387336023200552e-001, 3.9375785881989056e-001,
          1.3282435897325856e-001, 1.4915059634545511e-001,
          1.7722526526228935e-001, 1.3012928532977261e-001,
          -1.9959288307340919e-001, -3.4819788219412943e-002,
          4.4433996154895163e-002, -8.2886898366052467e-002,
          -2.5391770249869366e-001, -5.1159773088089766e-001,
          -3.8024312247870701e-001, -1.9659131773573232e-001,
          7.7393562433887869e-002, 9.0514595425542424e-002,
          3.2811806822773165e-001, 1.9836135381684919e-001,
          2.4272350356459790e-001, -2.6797253132697391e-002,
          -9.3736866774988423e-002, -7.0300182773635703e-003,
          -6.4568313367644792e-002, -2.4691597725370848e-001,
          -1.4325822440118025e-001, -4.6516867538740805e-002,
          -1.6291744053740925e-001, 5.2846414520943685e-003,
          -2.3388273728081662e-002, 3.9610887863482153e-001,
          -6.4302404797267218e-002, -6.2875666552776308e-002,
          9.6306752555807465e-002, -1.0373550327334848e-001,
          -3.5239928813337151e-001, -6.5594026855851828e-001,
          9.7610654689491039e-002, -1.3999049999844021e-001,
          -3.8838409573008165e-001, -1.2028821779995758e-002,
          -8.6085789818951847e-002, -3.4727595125446309e-001,
          -3.7028966078683064e-002, -3.4720211910995571e-002,
          5.7564314258049171e-002, -5.8961659313901189e-002,
          2.2561155146878278e-001, -6.7555389205513583e-001,
          -7.8478833428797991e-003, -1.9758013020029394e-001,
          -3.1285200920530243e-001, 9.4452941278810806e-002,
          -8.7399128338779206e-002, 1.8859075083123297e-001,
          1.4876646147545237e-002, 9.8778303757292407e-002,
          -2.5805743900772582e-001, -2.5689199803020597e-002,
          3.8186434713664641e-001, 1.8910606236340899e-001,
          2.4024876869638809e-001, 2.4935306315916253e-001,
          1.3206610214124570e+000, -3.3465691671171349e-001,
          3.4833283435937717e-001, -3.4822351594020168e-001,
          4.3842206999241512e-001, 2.5794954001155967e-001,
          2.9533592846275614e-001, 2.3603852062766503e-001,
          -3.3903472342716889e-001, -1.7894742955731732e-001,
          1.7316345959101423e-001, 2.7635618508215959e-001,
          4.5787502337029040e-001, -1.6901018002541168e-001,
          8.7989220248257810e-002, -5.5160088189493406e-001,
          -3.6711440682353447e-001, 2.2945847647504672e-001,
          -1.6406750610660645e-001, 1.6985032705841988e-001,
          9.6995351259073903e-001, 1.5252395053337739e-001,
          1.2626774092210553e+000, -6.9563222449202433e-001,
          -2.5679403360827463e-001, -2.9566241261710372e-002,
          2.8707140590709962e-001, 3.8222267781143288e-003,
          -1.4770874171331766e-001, -7.7295904567760532e-002,
          -7.7048469576231404e-002, 9.8338715372717789e-001,
          -3.3162144884753789e-002, -2.8514382892912979e+000,
          -2.3689960955914338e-001, 4.6943736814757897e-001,
          2.2929700904913752e-001, 4.5398310550989522e-002,
          1.6783337445708196e-001, -5.6648456208775699e-001,
          -5.7387379914384828e-001, -8.6767213500455034e-002,
          1.8339087544392341e-001, 1.2909973635221597e-001,
          3.9851131776941606e-001, 1.8574489533252211e-001,
          -2.1208924830244585e-001, 8.0888547565101873e-002,
          -5.3193628519575008e-002, -7.8304118092743069e-002,
          -2.8950321704361437e-001, -4.4129778797190922e-001,
          -6.2084758973415748e-002, 1.2784326295064674e-001,
          -7.5241157452319560e-002, 6.2229860979981433e-001,
          -3.0766643380691250e-001, -2.9419592226211094e-001,
          3.7172695487763657e-001, -1.5484613770743364e-002,
          1.6181141586728849e+000, 8.0718197804406158e-002,
          -1.4673274623028660e-002, 1.5874272433329334e-001,
          1.3460254178440592e-001, 1.1790938082179410e+000,
          6.3069246360394604e-001, -1.8610575949887440e-003,
          -6.4251226451074329e-003, -2.7895028577264824e-001,
          5.0316648308546971e-002, 1.4585441842546940e-001,
          -3.5919606061571394e-002, 2.1251227287544999e-001,
          9.5566044675657186e-002, -2.8633717567754613e-001,
          9.7279259551327227e-002, -3.4759120936071801e-002,
          -1.3300143606721526e-001, -2.4138004012982603e-001,
          2.7487949873326056e-003, -1.2275300385312812e-001,
          3.8066981453048848e-002, 1.5000481510269437e-001,
          -6.1866878767711783e-002, 1.3927020883273702e-001,
          9.4840142771505459e-002, -2.8839859080743857e-001,
          1.1270478572799739e-001, -3.5611861867439976e-002,
          -7.8127078390317059e-002, 1.6246461069932555e-001,
          4.1241458773386169e-002, -2.0980788257162056e-001,
          3.0828732002752560e-002, 4.7325942882390631e-001,
          6.7270312159382561e-002, 2.4847077759196587e-001,
          -3.2470698750715671e-001, 2.3611370515663224e-002,
          -9.0773972432320618e-002, -2.7285543587669980e-001,
          1.9599694604219320e-001, 5.3508656889731845e-002,
          -1.3452955461988311e-001, -1.1485724429877636e-001,
          7.6099832415540249e-003, 2.3136649395801334e-001,
          1.7805846909126000e-001, -6.8619496883057726e-002,
          2.1501056255224488e-001, 1.3125579050964270e-001,
          -3.1898224779503009e-001, -8.7706268631361584e-001,
          3.2434498579455330e-002, -1.1598533639594620e-001,
          3.8745790582027269e-002, 6.3646472581485439e-002,
          6.2370068643281451e-001, -9.7074240508624599e-001,
          1.2040171803484583e-001, 3.3922467803465645e-001,
          -9.0895011630440767e-002, -8.1661070461017293e-001,
          1.1612255468399686e-002, -2.1678941090785039e-001,
          2.4342596041823393e-002, -1.2901015878874114e-001,
          -2.2292370341463219e-001, -3.5171612379286882e-001,
          -1.2897239926123238e-001, 1.1923683760216243e-001,
          -3.0323376204826569e-001, -3.7678383592196901e-001,
          1.4664520515246487e-001, 1.4305924440966702e-001,
          -3.9418673438183366e-001, -1.0716475951491798e-001,
          9.7078744771052550e-002, -1.9612886740868814e-002,
          1.1424132567723816e-001, -4.1874616469680587e-001,
          -1.1859949580823402e-001, -5.0002084974549321e-001,
          1.8727846930463549e-001, -1.3494074110978332e-001,
          9.9101405960156638e-002, -1.4772689516992871e-001,
          -6.4032919301548785e-001, -2.9481519480527318e-001,
          2.5753206958572930e-002, -4.3418429783126475e-002,
          -3.7279768393241453e-001, -2.7944000454653319e-003,
          -2.3190996121329663e-001, 2.8387806394216364e-001,
          8.3027015928525572e-002, -5.3868087851452839e-001,
          4.8844137935436299e-001, -1.1216060262801364e-001,
          1.7125390990507749e-001, 5.0597507663302663e-002,
          -3.3257246861493156e-001, 2.9483486774898027e+000,
          -6.2627723364325677e-002, -2.2502112102528934e-001,
          -5.2614392076748222e-002, -8.0804155953634743e-002,
          5.1262413690090913e-001, 2.3098909351702043e-002,
          -2.2272474972640305e-001, 1.8369666392030715e-001,
          1.2519224870635315e-001, -1.0836881831622613e-001,
          -2.6185488474226089e-002, 2.5014022824960822e-002,
          -9.3241337928940113e-002, 3.1525238564747549e-001,
          -1.9673678299869239e+000, 1.6300655471893452e-001,
          -1.4741215685095729e-001, 2.6195984535630995e-001,
          -3.0785490558441115e-002, -1.6850366774190152e-002,
          9.1951298573715687e-002, -1.3837604211851870e-001,
          1.7639468364505784e-001, -8.8120713873516957e-002,
          -2.5481675794039527e-001, -7.2317715222612447e-002,
          1.5457992724442404e-001, -7.4581819072977312e-002,
          -6.0172590065916548e-002, -2.7154782439538283e-002,
          -7.6686556103053671e-001, -5.4233921086395590e-002,
          2.8643998998818088e-001, 3.1370834710158335e-001,
          -1.5471143682937624e-001, 4.0506963735751594e-001,
          1.4384649522185624e-002, 1.2401610930751605e-001,
          3.2943568106557813e-001, 6.2953541060480109e-002,
          -1.2373130298688816e-001, 9.5559827649600609e-002,
          -1.4485049364310965e+000, -9.6267824144082026e-002,
          3.7737967568730046e-001, 7.1746633986598557e-002,
          8.8423981644444843e-002, -8.3163188259836651e-002,
          -6.4588408927351487e-002, -1.5784944943452456e-001,
          7.5776556666534794e-002, -4.9415874576260599e-001,
          -8.6969016443060820e-001, 9.7673494524089341e-002,
          -3.7994019237210658e-001, 1.9716500222281944e-001,
          -1.6080035869059206e+000, -1.2625771334978009e-001,
          1.0356599939394591e-001, -4.9212680885450111e-001,
          -1.5884312937462335e-002, -1.4311460871054053e-002,
          1.7587909637592877e-001, 2.4309153744134320e-002,
          9.1044166771429430e-002, 9.3905486065861882e-002,
          5.0505634039879466e-001, 2.2941888255577916e-001,
          1.7072893750162174e-002, 2.5194631831351233e-001,
          9.6701731283342390e-002, -9.5567958495081842e-003,
          -1.1933498112634729e-001, 3.3196858879141145e-001,
          1.3960507260553023e-001, 1.1653689643097273e-001,
          -1.8894663180256840e-001, 1.0837677308407975e-001,
          -1.7798192381354055e-001, -8.4818097502347173e-002,
          -1.2576088056152146e-001, 6.6538026429029645e-002,
          -1.2654086372823982e-002, -1.3702280620397764e-001,
          1.6550550513647740e-002, -2.7275838410216691e-002,
          3.9897091309524209e-003, 4.6558072249700433e-002,
          2.0105923401251893e-001, -1.5123363055041258e-001,
          9.5986925497152362e-002, 1.1262260598265380e-002,
          -1.8316142133551092e-001, 6.5826781074946024e-003,
          -7.0251554583509757e-001, 2.2831265842649745e-001,
          -3.1449213232033602e-001, 1.0501435109732921e-001,
          3.1650986938250039e-002, -1.3408907876237103e-001,
          -4.9780968276470085e-002, -1.4317452365747077e-001,
          -2.5430921619907937e-001, 5.0467961598773294e-003,
          1.5082240710787151e-001, 1.4442940597505172e-001,
          -1.2890085283103569e-001, 2.7491780173404412e-001,
          1.4813861710514181e-001, 1.4275732900920404e-001,
          -1.3367447961666695e-001, 3.5700069943374241e-001,
          1.7365886189199375e-001, -4.9976671973854948e-002,
          1.0510591874259458e-001, -9.7266283468395234e-002,
          1.2204041506466634e-001, 1.2207201150933429e-001,
          -9.4408115918596242e-002, -8.0586732005555184e-001,
          7.0138085226963143e-001, 7.5483700911331364e-001,
          4.1230599486059299e-001, 3.4081154737102728e-002,
          -1.4809394249566883e+000, 1.8558224557028960e-001,
          3.3008146648311509e-001, -1.6898053558619011e-001,
          -4.7445147658061143e-001, 2.5507033577017124e-001,
          2.2274932035072265e-001, 1.0759778288761217e-002,
          -3.0063552585137898e-001, 9.1641681672188072e-002,
          2.3288876144667991e+000, 1.0255109603441817e-001,
          1.8806054940744607e-001, 1.3540832825633270e-001,
          3.3657114732600951e-001, -4.7352572235240675e-001,
          6.3447214144979114e-001, 8.6654422535525955e-001,
          6.4291824993982158e-002, -1.3624950681207657e-001,
          6.7197470154109196e-001, 5.8276462941435803e-001,
          -1.6714730399982567e+000, 2.1121786888824429e-001,
          -3.8677287340440575e-001, 1.9178860816696067e-001,
          1.6337125822816637e-001, -5.4247318775561115e-001,
          3.8225302642390441e-001, -7.7808284395189853e-001,
          6.2258956590176079e-002, 5.2403807012192583e-001,
          -2.4616207689069389e-001, 1.9809732001318522e-001,
          4.5600063983826178e-001, 3.8513095449200180e-001,
          2.5007875054385155e-002, -1.8831842163353266e-001,
          1.4332484216520687e+000, -5.0555490574975492e-001,
          1.3964702720537783e+000, 1.3786083915461598e+000,
          -2.1861106858641466e-001, 5.4097125880097541e-001,
          7.8496474796282259e-002, 1.4476466313725391e+000,
          7.0003004487313925e-001, 1.2542017577689757e+000,
          1.9958542021118841e-001, -6.8664697980862910e-001,
          -1.3609381317466192e+000, -7.2314489585346475e-001,
          1.3526672222382527e-001, -2.6441043540800826e+000,
          1.3053092321049525e-001, 3.1197567999999998e-001,
          -1.7650160100553849e-001, -6.7192715971865810e-002,
          -2.3885005623448563e-001, -6.2270610046410191e-001,
          1.5883700987505418e+000, -2.8147936856144984e-001,
          -1.2840098840053975e+000, -7.6509565298168236e-001,
          2.3701601015473256e-001, -6.7798849868281941e-001,
          -6.0919694546584546e-001, 9.9747661401529553e-001,
          -1.9373316985976210e+000, 6.7345061675229079e-001,
          -1.3428768833893716e+000, 6.8969800168334217e-001,
          1.0065210377460985e+000, 7.1384550119480739e-001,
          -5.0747267640630844e-001, 4.6523533356944258e-001 ]
      - [ 1.7771639160498567e-001, 3.9188452631756665e-001,
          4.5164073615724598e-001, -7.3283963767161198e-001,
          -6.0164437167094820e-001, -5.3950682805611871e-001,
          -6.1166844417523170e-001, 2.5281018964582674e-001,
          1.7103012010085178e-001, -6.6884851324296835e-001,
          4.4305461260016571e-001, -1.0078223581205474e+000,
          -1.0029405792862474e+000, -3.3233735491585187e-001,
          6.6182548930518692e-001, 6.8432939511476154e-001,
          -2.7161254091965511e-002, -8.0121538879854037e-001,
          6.2551408053406465e-001, -3.6932888184523788e-001,
          -5.1324052528306818e-001, -8.3698966430621047e-001,
          -3.5724362215667965e-002, -6.1872983482778054e-001,
          -9.3095425599377202e-001, 7.7430127969951612e-001,
          2.8403153860048391e-001, -3.1658360916405404e-001,
          -6.8255625611764026e-001, 2.5338990919541121e-001,
          -4.1042456337944067e-001, -8.5230385182373614e-001,
          2.3475327552329364e-001, -5.8980147493444268e-001,
          4.7404570316196687e-002, 4.3661891594330748e-001,
          2.7344880947440010e-002, -2.6593466297305363e-001,
          -2.1623255215078595e-002, -1.1304189451795503e+000,
          -7.4643105271786403e-001, 8.8436736228516111e-001,
          -1.6768610324194405e-001, 1.5374333423567504e-001,
          3.0652277303724018e-001, -8.4381239838636624e-001,
          -4.2968935815915099e-002, 5.2895764770562292e-001,
          3.1954935849213550e-001, -2.5334634765394592e-001,
          8.2384502045548647e-001, 9.7929589343309767e-002,
          -2.2485577048013880e-001, -9.5856253193498087e-001,
          6.3246276653839362e-002, -1.4304592475593092e-001,
          5.5292483689561478e-001, -1.1408889603580534e+000,
          -3.2756695896819238e-001, -8.7995666085523216e-001,
          -8.6164562035090431e-001, 1.3254730365408721e-001,
          -5.6665104735765459e-001, -5.1273122457528131e-001,
          -3.7261859688339827e-001, 2.3830276703699871e-001,
          -1.8994128908410071e-001, -9.0278737361520520e-002,
          -7.7622792554147912e-001, -1.2224998007426446e+000,
          1.2623953183565731e-001, 1.1860087992964266e-001,
          4.3573742749622912e-001, 6.4974197790892099e-002,
          -4.0669186090954607e-001, 4.8580190036164378e-001,
          -3.3357422580412555e-001, 1.2957457832601160e-001,
          1.2568689340987607e+000, 1.4472213489616241e-002,
          8.0723401131317007e-001, 5.8409339217631351e-001,
          5.0115728375786461e-001, 6.7824534303237338e-001,
          -5.7216847507833823e-001, 1.0221197664531823e+000,
          -7.5147537114064755e-001, -6.4282685318797841e-002,
          6.4135952704765486e-001, 7.0791800019731521e-001,
          8.4952769780396853e-001, -5.1536794750159443e-001,
          4.2200110923500705e-001, -8.0798263322507768e-001,
          -2.2486099666193091e-001, 8.2722442880034430e-001,
          3.4813079266731195e-001, 7.9974039381444428e-002,
          4.9401106075571277e-001, 4.5402141547694780e-001,
          2.3267113786326643e-001, 9.1751889553770372e-001,
          -4.0146049543207324e-001, -1.0913173033338075e+000,
          1.5044184850302386e-001, 7.4980641305029361e-001,
          -4.8220350150924352e-001, 3.2562292708790302e-001,
          9.4834029981255508e-002, -7.7227453570305782e-001,
          3.0032791772207207e-001, -9.7693774401587075e-001,
          -7.7439784721879612e-001, -4.3870814097686633e-001,
          9.5126887601514509e-001, -4.2378396010215280e-001,
          -1.3599471043854958e-001, 3.4649270307669441e-002,
          3.5589889606832881e-001, 3.7397712196746286e-001,
          8.7546842491989618e-001, -9.7816249851975279e-001,
          -1.0418008455700576e+000, -8.6193487680127667e-001,
          6.6823038619025321e-001, 9.0564029552555747e-001,
          -4.3656849139669546e-001, 1.0267070015336135e+000,
          -2.5085232567556021e-001, 8.4440250686848417e-001,
          -1.7918054345183890e-001, 8.1467463041230093e-001,
          2.1675009937679776e-001, -7.7934684266247234e-001,
          -4.3282545037988834e-001, 2.8684156734057575e-001,
          -9.3086381014347064e-001, -9.0169014993171326e-001,
          8.6523763672822507e-001, 1.7411368410239075e-001,
          9.3972731215486427e-001, 2.4898241160355206e-001,
          8.4007779634904689e-001, 1.4714878024093445e-001,
          4.7548477818625473e-001, 8.7125367835115186e-001,
          -4.0364223750626477e-001, 6.5993787929518821e-002,
          7.3411576288938529e-001, 6.4218425663576806e-001,
          -2.8438814356305003e-001, 6.9116486667717802e-001,
          -3.8786824574162548e-001, 4.7909330259543487e-001,
          -1.6571483808517256e+000, 4.2000085421852495e-001,
          2.1258451876072812e-001, 6.4937021595267885e-001,
          9.2125434679832807e-002, 9.9112210560429154e-002,
          -3.9670783627664619e-001, -1.9811773535761321e-001,
          3.2943682758813653e-001, 4.9678141663443875e-001,
          2.2165064699924943e-002, 8.5020489611124506e-001,
          -2.0045055781882994e+000, -3.0565118122459767e-001,
          -1.7375899653971189e-001, -1.1119249596576919e+000,
          -1.9641081277019479e-001, 6.4470876335637439e-001,
          5.6330752170384457e-001, -1.6434109445363318e-001,
          6.0380341468529930e-001, -5.6814582279140946e-001,
          1.2558025249023513e-001, -2.3054800884177454e-001,
          -2.1686473743358262e-001, -1.9098072688577009e-001,
          7.8288734689354889e-001, 1.0952981131076812e-001,
          8.7125177189043179e-001, 2.2599203124940398e-001,
          3.0381473126212516e-001, -3.0625926540905617e-002,
          3.3292396398716319e-002, -2.3249951514845529e-001,
          2.8310743944644773e-001, -1.3810515971532074e+000,
          1.0330852133146619e-001, -2.7435400185954573e-002,
          -4.1608144324673896e-001, -3.3285376045674075e-001,
          -7.4422776787619660e-001, 2.9413486054404608e-001,
          -1.0706065654879158e+000, 5.0475598273762867e-001,
          9.2239724288344385e-002, -3.0815016227486364e-001,
          9.1572904641587227e-001, 4.6570949967270536e-001,
          -4.3618753078399786e-001, 1.9674759237777711e-001,
          -4.0774742088854316e-002, -2.8627450675889848e-001,
          -8.0747581004550462e-001, 6.1590886214249196e-001,
          4.3873034514435932e-001, -2.7102794183849743e-001,
          -1.1344989614447789e+000, -1.8097936417928882e+000,
          -2.6166565837271651e+000, -1.2044495902324610e+000,
          -1.2373490884009801e+000 ]
