%YAML:1.0
my_nn: !!opencv-ml-ann-mlp
   layer_sizes: !!opencv-matrix
      rows: 1
      cols: 3
      dt: i
      data: [ 64, 46, 5 ]
   activation_function: SIGMOID_SYM
   f_param1: 1.
   f_param2: 1.
   min_val: -9.4999999999999996e-001
   max_val: 9.4999999999999996e-001
   min_val1: -9.7999999999999998e-001
   max_val1: 9.7999999999999998e-001
   training_params:
      train_method: RPROP
      dw0: 1.0000000000000001e-001
      dw_plus: 1.2000000000000000e+000
      dw_minus: 5.0000000000000000e-001
      dw_min: 1.1920928955078125e-007
      dw_max: 50.
      term_criteria: { epsilon:9.9999997764825821e-003, iterations:1000 }
   input_scale: [ 1.8563842927577956e-001, -6.2052542225003360e-001,
       1.8388454542515045e-001, 1.4998509796182094e-001,
       1.4178041333620145e-001, -1.8979787375983009e-001,
       2.8079347456865722e-001, 8.5913238981642925e-001,
       2.7854236643679930e-001, -1.5739326287698915e-002,
       4.4219494946013005e-001, 1.2306161911316114e-001,
       4.3952448593326443e-001, 1.9085898247067146e-001,
       5.6276371141276582e-001, -2.7822438195735377e-001,
       5.5907767644661621e-001, -6.9284993757996871e-001,
       3.6421279112745286e-001, -6.8566775995748419e-001,
       5.4370515136476039e-001, 1.0242375958119381e+000,
       8.8789845672650203e-001, -5.7035173170408404e-001,
       5.3660852491013589e-001, -1.0014862621793759e+000,
       5.5225810274182230e-001, -2.8727095528981977e-001,
       6.2918358531193674e-001, 4.4805106731088486e-002,
       8.2994982595648992e-001, -1.9059839970052159e-001,
       6.4071459925908669e-001, 2.5738456132615728e-001,
       4.9845125457088363e-001, 1.6363083348001925e-001,
       6.2946836908354487e-001, 6.0015391949030945e-002,
       8.1416433395320043e-001, -9.4850490759446127e-002,
       9.1023759233476154e-001, -1.6589515674910912e-001,
       8.6195309444404988e-001, -1.9859374796749860e-001,
       8.3013624936175534e-001, 2.5554569481366914e-002,
       7.0869119808455672e-001, 3.3872166319161090e-001,
       9.7498549414083557e-001, 1.2684459963076891e-001,
       7.0614815965663214e-001, -2.3872049341312023e-002,
       1.0106475032767117e+000, 1.6394631078296659e-001,
       8.7682495434892971e-001, 1.7355567685414525e-001,
       1.1857320880861826e+000, 4.4706604395117322e-001,
       1.1351814416297747e+000, -7.8562817382080458e-002,
       9.4294499747374194e-001, -1.0079775254741672e+000,
       8.8911283894159510e-001, 5.1547440825563388e-002,
       1.0575346784611701e+000, -3.0685325753378434e-001,
       9.4667073166050653e-001, 6.3431528130276527e-002,
       1.1279009571326224e+000, 6.0586947747994768e-001,
       9.8680972206024831e-001, -1.4975870984738879e-001,
       1.0976277698663726e+000, -1.7482316608830714e-001,
       1.0741134186006904e+000, -1.8962751207718906e-001,
       1.2702700165040928e+000, -1.4505053761169853e-001,
       1.3651346689851509e+000, 9.6313691771523754e-002,
       1.3117269352334842e+000, 1.6871707497598493e-002,
       1.1676118278595859e+000, -2.8640431481607082e-001,
       1.2945137343953559e+000, -4.9482413911127121e-001,
       1.5815752448694660e+000, 4.0473840374599657e-001,
       1.2686521188742308e+000, -1.8260196940516310e-001,
       1.2717829359102817e+000, 8.4003574999907515e-001,
       1.3990167500436546e+000, -1.7279533754500706e-001,
       1.1018798505824166e+000, -9.8880694095949531e-002,
       1.8076015031836108e+000, -2.8161768941512538e-001,
       1.2161571638820743e+000, -1.0780955920143455e-001,
       1.6079646575027509e+000, -2.8076119305183384e-001,
       1.3739058533754507e+000, 3.7512875266210621e-001,
       1.1595160142666896e+000, 1.3217285175159316e-001,
       1.5468116581508249e+000, 1.8450307830813148e-001,
       1.6386503304786089e+000, 3.8368216017248734e-002,
       1.7332566792766864e+000, -1.6511538837408204e-001,
       1.2521802830929949e+000, 2.6861225353977092e-001,
       1.5483312427971248e+000, -4.0617021563304723e-001,
       1.3744487782746575e+000, 1.9248973965810112e-001,
       1.1003901399887579e+000, 1.2087222043706261e-001,
       1.6047340851399408e+000, -4.3303953386135879e-001,
       1.5237388437309700e+000, 1.3693562817024571e-001,
       1.3401371297384306e+000, -1.5616461343298316e-001,
       1.2412226606148229e+000, 3.0855558881002008e-003 ]
   output_scale: [ 5.2631578947368418e-001, 4.9999999999999994e-001,
       5.2631578947368418e-001, 4.9999999999999994e-001,
       5.2631578947368418e-001, 4.9999999999999994e-001,
       5.2631578947368418e-001, 4.9999999999999994e-001,
       5.2631578947368418e-001, 4.9999999999999994e-001 ]
   inv_output_scale: [ 1.8999999999999999e+000, -9.4999999999999996e-001,
       1.8999999999999999e+000, -9.4999999999999996e-001,
       1.8999999999999999e+000, -9.4999999999999996e-001,
       1.8999999999999999e+000, -9.4999999999999996e-001,
       1.8999999999999999e+000, -9.4999999999999996e-001 ]
   weights:
      - [ -3.0997469178443239e-002, 3.1139844600634148e-001,
          9.7053703656002993e-002, -1.3150629238551631e-001,
          2.5187753490877846e-001, 4.3837006540138929e-001,
          -9.0334811049372410e-002, 9.3662141694713763e-002,
          -1.7060445392346824e-001, 3.8306126005187451e-002,
          7.0337597954026582e-002, 1.6213380522410455e-002,
          7.5453889960337472e-002, -9.0303751624866008e-002,
          6.1148948912084750e-002, 3.7264059071072170e-001,
          6.0423843285445651e-002, -3.7205006839791027e-002,
          -1.8152262934429211e-001, 2.3546484423102733e-002,
          4.0727035793860306e-001, 9.4072407743512984e-002,
          -5.9714596481503894e-003, 1.0827551068178225e-001,
          -4.1597307328885495e-002, 3.3561792897740202e-002,
          2.6070383190752061e-001, 5.5959387929060175e-002,
          -8.7123016067585574e-002, 2.8042443476800974e-003,
          -1.3036460965921323e-001, 2.1302178175613362e-001,
          -1.4181776080093711e-001, 1.9770906880553871e-001,
          -3.4705650684906275e-002, 8.7370188250756375e-002,
          2.1454354646642185e-001, 3.7995700784670966e-001,
          1.3480366078342712e-001, 2.1002233835293718e-002,
          2.1495863266642687e-001, -3.1306192532362603e-001,
          2.8913991913270759e-001, 3.7374315495189936e-001,
          -2.6553920083284976e-001, 1.2022045642159182e-002,
          -1.9512741781565582e-001, 4.4422927192387957e-001,
          -1.3940728959572649e-001, -1.9366233285921344e-001,
          8.5900875667741627e-002, 5.0752058140085411e-002,
          9.1316339012326359e-002, -1.5513700201320871e-001,
          3.1018458537674386e-002, 5.6967769678979423e-002,
          3.3433333162184981e-001, -2.2053759528016562e-001,
          2.3423758175441031e-001, -4.1025991088903591e-002,
          1.4662319020183912e-001, -7.5800076165939201e-002,
          3.6300017855031219e-001, -3.3054903062847807e-001,
          1.3618485822341606e-002, -3.1638500278917309e-001,
          -1.4854375261895914e-001, 5.3060593033515839e-002,
          6.1537627380188753e-001, 2.5317704431125319e-002,
          3.4431618383746782e-002, 2.4439749528626691e-002,
          5.3788267707008064e-001, -6.1352054329621530e-001,
          -1.7159481264127436e-002, 4.1942439234557322e-001,
          -2.4333999567693908e-002, -8.7664172670141489e-003,
          2.1715007872838318e-001, -4.6457292690490357e-002,
          -1.8599511284329270e-001, -3.3121634947645029e-002,
          3.0003993857978700e-001, 9.0051815927911574e-003,
          1.1984009656678540e-001, 2.3177535081685716e-001,
          1.8888508227073283e-001, 2.5875108122409941e-002,
          -7.7779123428085573e-002, -8.7888344710702254e-002,
          -1.4611711508243436e-001, 4.7266950965480053e-001,
          3.0221581146581722e-001, 3.3535777933762673e-001,
          7.5812205484889328e-001, -9.3970029741779537e-002,
          -5.6230233527979685e-002, 2.2147849721896898e-001,
          5.1576907146241335e-001, 1.5817113901700415e+000,
          3.9297525146939594e-001, 2.9325353077170563e-001,
          -3.6908412179114924e-001, 1.4721365628431161e-002,
          -1.7869165735845075e-001, -5.2804033242317798e-004,
          4.1478101064127787e-001, 4.8036410885509956e-001,
          -4.0613292534596857e-001, 5.0838771982511277e-001,
          5.3145844834138790e-002, 3.1823348063941259e-001,
          -2.9810315193175452e-001, 1.5852304075098353e-001,
          6.5117088470880158e-001, 1.3424102870378080e-001,
          -2.3401162171383738e-001, -6.4985828407421631e-001,
          3.1417730170529491e-002, -2.5586890794130648e-002,
          2.6425513695495639e-001, -7.3001640145137880e-001,
          3.1977474491794072e-001, -6.1228238444234653e-002,
          2.6607572955469921e-001, 4.0372583383468851e-002,
          -4.2887803068463612e-002, 4.4840952841708935e-002,
          -1.4287708323659490e-001, -2.4006619554148623e-001,
          2.0713319901497804e-002, -8.2374491241741760e-002,
          -1.2609544973834546e+000, 3.2114183546132373e-002,
          -3.9340067839240705e-001, -3.2598202180344094e-001,
          9.0287222706386494e-001, -2.7248473269113932e-001,
          -9.4105065912234200e-003, 1.9788258331112674e-001,
          -3.8588152023890564e-002, 1.5038582464462663e-001,
          5.0141793217913379e-002, -2.4451572990770984e-002,
          1.5422569854509163e-001, -8.2185317629383214e-001,
          9.1607209813756363e-002, 1.0448061773744184e-001,
          -1.7106646422840982e-001, 1.3792254990349237e-001,
          -1.3504720726968780e-001, 4.9409928380016582e-001,
          -1.2939968057014914e-001, 1.8185558555441017e-001,
          -1.2838169964805590e-001, 1.2043174722296510e-001,
          -1.2262736725874832e-001, 5.7532544281287035e-001,
          1.9807213874509809e-002, 9.0494402994896236e-002,
          7.7828057521187238e-002, -7.3372740728729358e-001,
          -2.2279702946547603e-001, -1.3868975595887947e-001,
          4.8914248263646071e-002, 1.6198555915738408e-001,
          2.8126964746463179e-001, -4.1757313794476797e-001,
          1.7181559841005281e-001, -7.9872382853139592e-002,
          2.0632285505743328e-001, -1.7911656009617022e-001,
          9.2517922474808417e-002, -6.3252321759939542e-002,
          -1.4157520578058294e-001, -1.0470282522675363e+000,
          1.7178391923531883e-001, 9.0986447627867326e-002,
          7.2412468932985447e-002, -5.1776556842679115e-002,
          -1.5630286415256830e-001, -1.6666300143043208e-001,
          3.9948495411030731e-002, 1.3817306163163934e-001,
          6.7505276442250711e-002, 3.9186919857475050e-002,
          3.5993298618896197e-001, 1.3828661057897250e-002,
          9.4235302392619139e-002, 5.7405546099043525e-002,
          1.5248579305049814e-001, -2.0702543489731970e-001,
          2.2882661991121184e-001, 1.0522084408910581e-001,
          -1.3416973213751432e-001, 1.6795626274269890e-001,
          -1.0218775349839034e-001, -2.2518266936837750e-001,
          1.9333373070618602e-002, 1.4990351885234685e-001,
          -5.9818890326364206e-002, 6.0304735085088368e-001,
          4.7630166149068731e-001, 4.6146763496421786e-002,
          2.5208105123113428e-001, 4.1263563244261359e-001,
          3.5689872256293925e-001, 4.8356968479155682e-001,
          -1.6890802138619318e-001, -6.2720755158367544e-002,
          3.1905304855698635e-001, 6.7151655258660847e-001,
          5.0180122997970554e-002, -1.9529926345192619e-001,
          1.6449404813562382e-001, 6.4178450053811426e-002,
          9.1093659872661978e-002, -2.6529977120477283e-001,
          -1.4342462231217770e-001, -1.1173290609249384e-001,
          -1.9917723607909088e-001, -2.5406792595296679e-001,
          -4.4018856467701740e-002, 3.7754146575175850e-003,
          -8.7400320101028300e-002, -8.5209593307378623e-002,
          -1.8757470860398553e-001, -6.7385430443554051e-002,
          1.4190718485588630e-001, -2.1127132286862957e-001,
          -7.0311708964651076e-001, -8.3709097073262451e-001,
          1.6789802636278159e-001, -4.6585723465192241e-001,
          3.9113599150473327e-001, 1.6672542621513320e-001,
          -1.4602737820271347e-001, 3.9263425410673285e-002,
          -5.6255948945143053e-001, -4.3471838969541582e-001,
          5.9321290733712617e-001, -2.9432200363318080e+000,
          5.6472211164094240e-002, 8.1495764955250682e-002,
          -1.5768784434678504e-001, -3.9188252448422312e-001,
          1.1370264342546831e-001, 9.6655033384287839e-002,
          -6.2349967203449170e-003, 5.0087053345841050e-002,
          5.9241659376960543e-001, -2.0341356206262193e-002,
          -1.7470054207880028e+000, 9.4533466626738810e-002,
          2.6281969282247808e-001, 5.1087093100401448e-001,
          -3.7436553590198313e-001, 1.8204200034195042e-001,
          2.8432643365616416e-002, 5.4037623924689560e-001,
          -6.1058118592736821e-001, -6.8499961625032857e-001,
          1.7273939067695296e+000, -1.0322742368838644e-001,
          -2.6479011617008119e-001, -2.8541083093597541e-003,
          2.0649049431001013e-001, 2.0308522991126898e-001,
          -4.4494613614542711e-002, -5.7017836339434108e-002,
          3.8780590966212336e-001, -2.1772939818610765e-001,
          6.2849171575745222e-001, 1.1668824261286792e-001,
          -3.0850500210968690e-001, -3.1894210044949611e-001,
          2.5892893509027509e-001, 8.7878643741124579e-004,
          1.5941043396868024e-001, -2.9228115804494397e-002,
          1.4100505056886098e-001, 9.0211022185387513e-002,
          1.4415246096206108e-001, 2.6732299032893297e-004,
          1.0810790568143766e-001, 1.8250917980710279e-001,
          -1.0636837032600757e-001, 2.6453180733263772e-002,
          3.7816971133813999e-002, -2.6746311849506271e-001,
          -1.2378749991172453e-002, 4.8826221572653782e-002,
          -9.0481398180865771e-002, 3.1286601937200365e-001,
          1.8248699777788702e-001, 2.5120687334836142e-003,
          -1.4102002039176736e-001, -6.0575335591936910e-002,
          8.7372551317991223e-002, 8.4611308358513937e-002,
          -3.7043932041096050e-001, -2.0636373227394261e-001,
          1.6087736650134955e-002, 1.2164739243874990e-001,
          2.5363251658452335e-001, -2.2200638199171802e-001,
          1.1694237980815318e-001, 8.6506328453381492e-002,
          -2.9126628724992817e-002, 4.3998303538939154e-001,
          1.6111361706730179e-002, -7.3858308422914035e-002,
          -1.2013687609432500e-001, -1.3528614868028527e-001,
          -2.6721495858336681e-002, 4.9641083696478515e-003,
          -7.2082217190484202e-002, 1.1886197385881606e-001,
          -5.2178698404484658e-001, -1.4105577513707808e-002,
          -6.8313055218218836e-003, -1.1589966574749113e-002,
          -3.3126630851620287e-001, -2.7510386166236989e-001,
          -6.6384457486081527e-001, -3.8941970350517767e-002,
          -8.7485363542020633e-002, -3.8440990142879508e-002,
          -2.0565708517272438e-001, 1.6528720542497896e-001,
          -1.8000912164192240e-001, 1.7991645763517328e-001,
          6.1214444946824020e-001, 1.5252359345356964e-001,
          -2.5689885732028472e-001, -1.0995647823962800e-002,
          7.0735077344544386e-002, -1.1320861072647462e-002,
          8.1311489924163344e-002, -5.4404850745863285e-002,
          -2.3334204260065475e-001, 2.5213995179116513e-002,
          -2.0829986692524491e-001, 4.0711543900182073e-001,
          -5.6304428705946322e-003, 7.3416805322953665e-002,
          -1.5156915940532797e-001, -1.6342181764433555e-001,
          6.4387125819610813e-002, -2.0365162116728452e-001,
          -5.4075045651962292e-002, 6.5793964028537244e-001,
          7.2726256031451636e-003, 8.7960025655527838e-002,
          4.8774695772240700e-001, 1.4252021817804769e-001,
          -1.0479406619614324e+000, 2.2640079982158151e-001,
          1.7396150251549966e-001, 3.3652024856207835e-001,
          -6.9378604502465371e-002, -1.6753974930614468e-001,
          -5.0405403617840502e-002, -2.0101517319821549e-001,
          -2.0237389180935159e-001, 1.2965294904948230e+000,
          -1.7402240632919092e-002, 6.1383135419473545e-001,
          -9.5776670346421233e-002, 3.5412950276163258e-001,
          -1.7517286661019396e-001, -2.9403102462936835e-002,
          -3.1204516902972212e-001, -3.0545002777572272e-001,
          5.9860829665251608e-002, -1.8376982602952077e-002,
          4.6368442323423648e-001, 1.3171653124882782e-001,
          9.1095613703980838e-001, -5.1958123349938677e-002,
          4.8600778349747975e-001, -9.4405572354502990e-002,
          2.5007919399229789e-001, 7.9372231830331419e-001,
          4.0806204543359237e-001, -6.7910589708701330e-001,
          -1.4172216840566909e-001, -9.6173291271373773e-001,
          -2.1302823189131653e-001, -1.8098177950282796e-001,
          4.3627251591799110e-001, 3.8203411040540386e-001,
          2.3109604197494679e-001, 1.8293424344578463e-001,
          2.2063621415741766e-002, -3.9387221487356816e-001,
          -2.2672394098069395e-002, 3.5414601344915397e-001,
          4.7307804861917668e-001, 4.9916529180086511e-001,
          -9.5168994295657128e-001, 3.0477083865997107e-001,
          -8.5236395267435680e-005, 7.0621659514881241e-001,
          1.0142859178904647e-001, 8.2515812996070956e-002,
          1.8719099448206306e-001, 3.9004649461183011e-001,
          -2.0456580045718459e-001, 7.3071153738973471e-001,
          1.6088595486708403e-003, 1.2128108951607607e-001,
          2.4543078187486356e-001, 1.2980867794548762e-001,
          5.2913856759494449e-001, 5.1397818117125786e-002,
          1.8305623351759884e-001, -1.1938267371526962e-001,
          -2.4375006321054318e-001, -2.9907002596530018e-002,
          1.7136147220793591e-001, 1.8907150508197365e-001,
          1.1955005894565865e-001, -1.9413765314050943e-001,
          -8.2733947047751652e-002, -2.6742005378494521e-001,
          7.7474309920697620e-002, -7.1439726967877940e-002,
          8.2901623974328542e-002, 2.0016765788625329e-001,
          -2.6252979039546306e-002, -3.2148132557298137e-001,
          3.3943378643271727e-001, -3.0687797654991222e-001,
          -1.0396027463922340e-001, -3.9698066218276970e-002,
          1.0412775047901955e-001, 1.2662461026164576e-001,
          -1.2769995487466568e-001, 1.1422361817095578e-002,
          -2.0775300673184718e-001, 3.0159210396567708e-002,
          -2.1308693038058707e-001, -1.1888206711634043e-001,
          5.6742967246951624e-002, 2.5461057582522872e-002,
          -5.4802117374349146e-002, -1.2884164842807957e-001,
          -1.7156180707780441e-001, 4.4908162677824826e-001,
          -8.3972599018673461e-002, -1.6949136897629832e-002,
          3.5591886471156797e-002, -1.7105364754905800e-001,
          -1.7234536535557632e-001, 1.0693850224364826e-001,
          1.9533383669770357e-001, -1.2104471394835480e-001,
          1.1735874028350397e-001, 9.6132082571647778e-002,
          -4.2934892630558008e-001, 2.9955666662122316e-001,
          -4.0730831383010047e-001, -1.6105336402000880e-001,
          1.3690705705743728e-001, -2.3378480112842426e-001,
          -4.9953947378463748e-001, -3.8264997692249453e-001,
          2.0106413287530206e-001, -5.7057254526461522e-002,
          5.9051979909482626e-002, -1.0624793755638375e-001,
          1.9354510318357682e-001, -2.5156108233450736e-001,
          -1.9003352946703983e-001, 2.2430841786313074e-001,
          5.5416075789942780e-002, -1.0250663974049680e-001,
          -2.5399891728462920e-001, 8.2840183812683044e-002,
          1.3453786482630153e-001, 1.6264818096890130e-001,
          4.4463432717858387e-001, 1.1967150901494852e-001,
          -6.3930724451332382e-002, 1.9472679275261959e-001,
          5.3402969052349236e-001, -2.7262798620458134e-001,
          2.5796993474712004e-001, 4.4346801088470628e-001,
          -7.8289612664534575e-002, 2.5862814817027513e-001,
          1.2189988968715530e-001, -4.2248101082884065e-001,
          -4.9063204745797544e-004, 2.5240921350879908e-001,
          2.0638215957326844e-001, 7.6630596415030505e-002,
          6.2472859992044147e-002, -3.0666844952757516e-001,
          6.9851273212057544e-002, -1.1094382768130012e-001,
          -2.9953612372930505e-001, 9.8149245242800137e-002,
          -2.9417867424347643e-001, 6.4333286786345034e-002,
          1.4713746782065101e-001, -8.4916802340663927e-002,
          1.6233320392625417e-001, -1.3948246874917236e-001,
          9.7913801993453731e-002, -2.2696161723435027e-002,
          -4.9835881277322656e-002, 8.1556848820366637e-002,
          -1.3279463725278370e-001, -1.1715130082598128e-001,
          5.0502113661891309e-003, -4.1952612117533900e-002,
          -3.8287445218072719e-001, 1.5058923387247700e-001,
          2.1438665498822912e-001, 1.1074938792448027e-001,
          -5.2595608776290126e-001, -1.5932324114790131e-001,
          1.0946528299024580e-002, 1.2905026320483742e-001,
          7.6564057514836248e-002, -3.4161468050268207e-002,
          1.8290749378463814e-001, 2.1469708119496875e-001,
          -2.0146119209341543e-001, -1.8427298662643474e-001,
          -3.0046069921990864e-001, 5.0878789969403912e-002,
          3.2299106134469546e-001, -9.9882604514779150e-001,
          1.6920830623663174e-001, 2.2255651667502707e-001,
          1.8130119460382640e-001, -3.5116973386237600e-002,
          -4.5836090773983984e-001, 8.2418461632304499e-002,
          4.5695372136622718e-002, -1.5490715734921315e-001,
          -7.8891276727084148e-001, -1.3595142544916677e-001,
          1.2047618331068086e-001, 3.4210125472435038e-001,
          -2.9821433486163856e-001, 5.2627733696073686e-001,
          1.3945456852660276e-002, -1.1179720176773458e-001,
          1.9133387876518668e-001, 1.9133738340268325e-001,
          2.0646097537695590e-001, 8.6105325705145182e-003,
          6.2199589594429575e-002, -2.9138939486278818e-002,
          -5.1313796685669238e-002, 2.0443478062024248e-001,
          -2.2266092116184663e-001, 1.0274602232198085e-001,
          -9.7156359358442024e-002, -9.7096566592891814e-002,
          -7.2412024025434937e-002, 4.4411216217519045e-001,
          -6.0255639186599666e-002, -9.4841181786796389e-002,
          -1.2461342053666229e-001, -4.3235307779447917e-002,
          -7.5088827062395003e-002, 2.2772279775220050e-001,
          -3.0051971103762620e-002, 5.7162300609618598e-003,
          -6.7416108724147758e-002, -2.0744251901484181e-001,
          -2.3165272943778920e-001, 1.4751125149069422e-001,
          1.3209466029349332e-001, 1.5558796746225634e-001,
          -1.7020381940297924e-001, 4.4511618092344149e-002,
          -2.8033099755195034e-001, -3.6799011557379191e-001,
          3.6959468202739937e-001, -2.5024961382421140e-001,
          1.1866766197681944e-001, 6.4763140445127168e-002,
          -1.0013911903911805e+000, -2.2271421384586210e-001,
          9.5482884140342755e-002, 7.2058661965244747e-003,
          1.6652940004877846e-002, 3.7628261741854752e-001,
          -1.8659026775833934e-002, -2.2630907967550748e-001,
          5.6161316419514148e-002, -1.7643597859122714e-001,
          -4.6698562361742368e-001, -2.3230358776439008e-001,
          2.8439690041360433e-001, -6.3438269313436185e-002,
          -1.3701894083369875e-001, -5.1791879519818000e-002,
          1.7471105152233637e-001, 4.7642234937605399e-001,
          7.7252930516988783e-002, -2.1742656830445009e-001,
          -7.9013477441597979e-002, -1.9178425641107680e-001,
          3.4183309656265509e-002, 3.1473364408208682e-001,
          5.7711980556515968e-002, 2.0260807766795280e-001,
          -1.0384658099905287e-002, -1.2507981671878024e-001,
          4.9520073907658679e-001, -1.4289379000908159e-001,
          -1.0020347702963465e-001, -1.4505201913791732e-001,
          1.5366795379690115e-002, 1.2712329359207225e-001,
          6.8921546551890173e-002, 6.9919213436263720e-003,
          -2.9971164544136125e-001, 3.0081245254716182e-001,
          -7.8528214965766216e-002, 1.5965087759264157e-001,
          1.1711632309885776e-001, 1.3212821686051576e-001,
          2.4277775636003480e-002, -1.2752310122889177e-001,
          -1.9802365205772990e-001, 3.5747886571077997e-001,
          7.0043339216028799e-001, 2.4021389315057082e-001,
          -3.1294491173159772e-001, 1.8406723145194553e-001,
          -7.5490771689053437e-002, 8.4884031567266066e-002,
          3.0122030470314626e-001, -2.9622681721574881e-002,
          -2.2466218184270131e-001, 1.3807973414648367e-001,
          -2.7088168635931908e-001, 4.1871736749364502e-001,
          -6.4117916271485609e-002, -2.1544516209039874e-001,
          -5.4893942929627060e-001, -7.6260389515540455e-002,
          2.4781597580005563e-001, -2.8617263248439040e-001,
          6.4102504546299954e-001, -2.2863388247057573e-001,
          2.4680044747735760e-001, -2.2793597626241202e-001,
          8.7987938225508466e-001, 2.6657898845808742e-001,
          8.0928081467450647e-002, 1.5780397407803574e-002,
          6.3127062268942291e-001, -3.1695234952673967e-001,
          -7.9692675790097672e-002, -4.1909030909253620e-001,
          -3.6475566152283687e-002, -1.1749422602871532e-001,
          2.5758267536000956e-001, -2.0936747798565598e-003,
          -1.6611491396916359e-001, 2.5036538213256143e-001,
          -1.9116902616251130e-001, -9.6987721498071777e-002,
          -1.5806442214318228e-001, 6.4524717416030741e-001,
          1.0901145507305534e+000, 3.3862124300052082e-001,
          -5.1860369461622112e-002, 5.9547886241189996e-001,
          -2.5290449706430712e-001, 4.4263489066411776e-001,
          3.5772616171954824e-001, 6.6885480515545959e-001,
          -2.9648742553880086e-001, 1.4603986330030969e-001,
          -4.2198694134220394e-001, 8.9399571477658341e-002,
          -2.9432332353768786e-001, 2.5351054736762924e-001,
          9.3888868878160281e-002, 2.6956935948949440e-001,
          5.9376424204808299e-002, 4.6525870237301686e-001,
          1.3088865231434496e-001, 2.5640421614072168e-002,
          5.9833581910281819e-002, 8.1263997182144512e-002,
          -5.1101837301099584e-001, -1.7337004290127875e-001,
          2.5809739179722457e-001, -1.2239795799979197e-001,
          1.6801775728132187e-001, -9.1058809519341741e-002,
          3.4751472045682286e-001, -4.6719156893981949e-002,
          3.1039528460702881e-001, 3.4503837050941288e-001,
          1.9043072686394619e-001, -1.7576632629124686e-001,
          -2.2180405369590911e-001, -1.8104398953176243e-001,
          -7.7424007649737192e-001, -2.9163322971813663e-002,
          5.3837043336467161e-001, 5.3539921408090074e-001,
          2.3315796473784753e-001, 5.5126172102591464e-002,
          -1.9545077566639993e-002, 1.0772027905680825e-001,
          -3.3489993339458457e-002, 1.3536934429797642e-001,
          3.1942209391299575e-001, 1.7036893588425805e-001,
          7.1662662372846880e-002, 4.3487554971697560e-002,
          -1.1750735133726994e-001, -6.5263481833632242e-001,
          1.3442115938274339e-002, 6.9771027302495542e-002,
          2.6953379742684445e-002, 8.6719169941222340e-001,
          -2.0706580483492545e-001, 1.1511627192791765e-001,
          2.7851073037079344e-002, 3.4981235755068024e-001,
          3.1661899181651237e-001, 2.9702459148169957e-001,
          -8.5349858692395905e-002, 7.9090341381390566e-002,
          1.4178954220556775e-001, -3.1083315859154048e-001,
          -4.9670116437354217e-001, -1.6082365750927674e-001,
          9.8274150381589265e-002, 7.5513346343995624e-001,
          -1.2007915721729258e-001, -2.1609515472407356e-001,
          2.7617026600870381e-001, -3.6522919487119228e-002,
          2.7969167832486852e-001, -7.1416049318829607e-003,
          5.2134058996389801e-002, -2.0818756656146156e-001,
          -3.6186018212767201e-001, -3.6149109601696933e-001,
          3.9606052639686272e-002, -3.0357708139466505e-001,
          2.1753924316952722e-001, -1.0445622741437004e-001,
          7.9752351044167780e-003, -7.0509494049183191e-002,
          -1.4537428058048609e-002, 3.5885733020981407e-002,
          -6.7341452575904875e-002, 5.2464912636214729e-002,
          -2.7548852215958131e-001, -5.1526970982906900e-002,
          -4.1647183976057545e-002, 4.8602954757492711e-002,
          -1.7375831909560441e-001, -1.0110690656200849e-001,
          -2.6970435361930386e-002, 2.4412801288726049e-001,
          2.1668860020390415e-001, 7.4465723990911850e-002,
          -2.0685342774512283e-001, 4.1636960328145275e-002,
          4.0419051300712910e-002, -1.0861031564112257e-001,
          -6.0865743627133084e-001, -1.7522813789816413e-001,
          -3.5570297063902925e-002, -5.2762149925120427e-001,
          -6.1878133275873977e-003, -9.4309350163238135e-003,
          -4.9242562806082277e-003, 2.5490626938765931e-001,
          6.0702652557683756e-001, 3.7580013644758481e-001,
          -4.4283071307795227e-002, 3.2607968050172603e-001,
          -4.6795285642512330e-003, 2.7885061925752802e-001,
          2.2140715415318160e-002, -8.6299948883686958e-002,
          -2.9856232095888924e-001, 3.5976107471515514e-002,
          2.9728662493336472e-001, -3.0491960872519673e-002,
          -1.1992517881492556e-001, -9.9935391198451851e-002,
          -3.2093964649328503e-002, -7.2549076464974174e-002,
          1.3145278181669731e-001, -5.7109114376578405e-003,
          -1.3789197310327847e-001, -2.2921661876660643e-001,
          -1.8468781950245708e-001, -7.4511439824581227e-001,
          1.1573331339933407e-001, -1.0461895348275568e-001,
          2.8011261615276573e-001, -1.3851628737215504e-001,
          -2.8153334881353558e-002, -1.8461784490689820e-001,
          -9.9074969291561246e-002, 2.6958189968033763e-001,
          7.1582607341312621e-001, -3.5627634406891479e-001,
          -3.0150040229253611e-001, -1.6758649346201676e-001,
          2.4427242912101235e-001, 2.3548262984680615e-002,
          1.8405720002113662e-001, -4.3982192847532114e-001,
          -4.4007980616168348e-002, -2.2268081918347771e-002,
          -3.4671958136591080e-001, -1.3891576597308003e-001,
          -1.3899266966295271e-001, -5.8284246421037904e-002,
          -2.3998970114451190e-001, 2.0294792183894578e-001,
          -1.2941777280946223e-001, -2.5446311172906737e-002,
          -2.0599552687699968e-001, -2.4339674155298247e-001,
          -1.4971497259012187e-001, -1.2571400114945355e-001,
          8.2523048133071508e-001, -7.5112442460771853e-002,
          3.1380324631091494e-001, 5.0127291845584532e-001,
          -8.6130470737504716e-001, -9.5698461586333924e-002,
          1.5205299236058153e-001, -8.8116702504761102e-001,
          -4.3745312274493736e-001, -5.4850160527277474e-002,
          1.0504657528342982e-001, -1.3948400494364122e-001,
          -7.5760137452581533e-002, -1.3128453794716186e-001,
          1.7988724639987869e-001, 2.3955633835917201e-001,
          -1.8272666444496977e-001, -2.8889535352277490e-001,
          -5.7813295730130727e-002, 3.8077160731433579e-001,
          -3.2803058629827138e-002, -2.5435184025626330e-002,
          -2.3461110403498256e-001, -1.1616369960660924e-001,
          2.0355356516366843e-001, 2.4223740004314764e-001,
          -1.9124947408208168e-001, 2.1910107775693671e-002,
          -8.5967443233731164e-003, 3.6146625895372614e-001,
          3.9492819221472415e-002, 1.7102964366240545e-001,
          9.0312234371395142e-002, -1.4601163000869624e-001,
          -1.0662704582223816e-001, 1.9004148708575538e-001,
          7.1497827557975513e-002, -1.1388769072924481e+000,
          2.7620825820782646e-001, 2.7335666696275268e-001,
          -2.4976789992552435e-002, 8.0588701797481233e-002,
          3.9131725900547604e-001, 5.7492642779541830e-002,
          -5.4557236620861649e-001, -7.9743948723954086e-002,
          4.5402246587713808e-002, 1.8025369697750923e-001,
          -2.5736078201420137e-001, 3.1608537936580999e-001,
          -5.5695943718368701e-001, -2.6813420978584934e-001,
          -2.1332613411067497e-001, 1.5677565425607606e-001,
          1.6418095945987948e-001, 2.1117409467400589e-001,
          -2.9881891839694924e-001, -1.1484283512394650e-001,
          -9.3701126947172267e-002, -4.0737288232446642e-002,
          4.1366656743271840e-001, 3.2922161353662285e-002,
          -2.2505892062721738e-001, 1.9873512917483538e-001,
          8.5724435496181084e-002, 2.4370094738026124e-001,
          -4.4123459510530366e-001, 2.7601079424047936e-001,
          4.5610756123027771e-002, 8.3104387038304778e-002,
          -8.5709178004107434e-002, -4.1385232628368733e-002,
          -2.0885137067063189e-001, -5.1207343283929185e-001,
          -1.9226871393881254e-001, 6.4937410057918021e-001,
          1.5321848262232041e-001, 2.7545473275294840e-002,
          7.1628132569694392e-001, -4.5959413181704872e-001,
          1.0695897342612454e-001, -1.1964221158091705e-001,
          1.8329534721435545e-001, 3.2586263467566123e-001,
          -6.9617521339493935e-002, 4.7385695736343499e-002,
          8.0262296263479582e-002, 1.0648695344211585e-001,
          -3.3599429806522210e-002, -8.4653919558845409e-002,
          3.0189619762650055e-001, 6.9671329977848279e-002,
          -3.3132320116072878e-001, -3.6255544762798533e-002,
          -1.4740909344929987e-001, -4.7539722764866310e-001,
          1.8033797507817520e-001, 3.3301346908197199e-001,
          -8.5374194969339238e-003, 9.6290209513066194e-001,
          -3.6391256400790044e-002, 2.7834811685442723e-001,
          -1.3832936189192335e-001, 8.9725206053946089e-003,
          1.7575515287526877e-001, 2.0578869733321709e-001,
          -2.1553637512229301e-001, -1.2109485700811003e-001,
          7.4063497078139529e-002, -1.4119802781299401e-001,
          2.3208970571577220e-001, -5.1444792946055258e-002,
          1.0539600202569796e-001, -5.3022063616689798e-003,
          -2.7765476493215042e-002, 6.4878476656316381e-002,
          -1.8106334805669511e-001, -8.9426934209636377e-002,
          8.1529708990581984e-002, 1.8772314838182470e-003,
          5.4402842182299779e-002, -3.5597965487819588e-001,
          -3.1797167215661964e-001, -8.1694877437935909e-002,
          -3.0664817190227213e-002, 2.9802120594604325e-002,
          2.4766181167136614e-001, 1.2380272518683466e-001,
          -5.4716983475644854e-002, -1.1479435229608573e-001,
          1.1689111685275765e-001, -3.4453522802220121e-001,
          -5.9202779559198761e-002, -1.0391524449497465e-001,
          1.1233028172970128e-001, 9.5893778556530682e-002,
          -6.6427676548165032e-002, 8.5727346249412847e-002,
          1.2890632494977516e-001, 1.6038465627551419e-003,
          3.1902120122033673e-001, 2.3182066526494149e-001,
          -1.2844694212141264e-001, 3.4957443395843758e-002,
          -3.7088149980901625e-001, -1.5410462415733928e-001,
          2.7597723886082098e-001, 8.7924251722088786e-002,
          1.2943325358378349e-001, -8.3288788195787639e-002,
          -6.4961416212480569e-002, -7.5491433973585792e-002,
          -3.0814381949926969e-002, 2.9444815648765615e-001,
          -3.4789440250753384e-001, 2.6806352459008337e-001,
          -2.7883349858356266e-001, 1.5088539064776496e-001,
          -8.3331559660044408e-002, 1.0758245266509980e-001,
          -3.5009664371092253e-001, -3.7906158873386886e-001,
          -9.0720005962119946e-002, 6.2695759129105733e-001,
          -2.9349591728660272e-002, 3.4083656200009957e-002,
          -3.6092190789926654e-001, 1.4026665114790840e-001,
          1.3366652440994584e-001, -1.5098677114889580e-001,
          7.7211488558491748e-002, -2.8716163912363663e-001,
          -9.0455772530140630e-002, -8.8347190345576954e-001,
          -2.5558050321123904e-002, 7.1496000891858508e-002,
          1.5202417218249276e-001, -1.6489588677873757e-001,
          -5.6805164951969737e-002, -5.6801571744985173e-002,
          -1.1631628071588840e-001, -2.2949837240986043e-001,
          1.6368400553339721e-001, -1.4563125521380110e-001,
          -2.6416987397381247e-001, -2.5491480913654743e-002,
          8.3902631707742176e-002, -3.9353368073102224e-001,
          2.0347046428564183e-001, 3.6437637099314640e-001,
          9.8204814935559520e-002, 5.6118345721166474e-001,
          1.7179118471117427e-001, -2.5807090179621593e-002,
          -1.7391792086226707e-001, 3.6104487514690820e-001,
          2.6593409175836025e-002, 1.1671325865440221e-001,
          -3.5670245847819704e-001, -1.0673621216648059e-001,
          -6.9600724714988654e-002, 3.0458507319305700e-001,
          -3.5347463572457986e-002, 2.3501082448206364e-002,
          1.6524276324889831e-001, 1.4138405323089370e-001,
          7.7349804255946966e-002, 1.5889927903168877e-001,
          -1.9763715334301132e-003, 5.7464093042635736e-002,
          1.5093803241615522e-001, 2.0318940562342325e-001,
          -7.5219775139566222e-002, -2.7721732434743451e-001,
          -9.1137606713382974e-002, 3.3845554302785789e-002,
          -3.2453375247767580e-001, 1.8438135573383310e-001,
          2.6785342651854915e-001, 1.9102860242922157e-001,
          -9.4680879186225766e-002, 5.2350416309402059e-001,
          -3.0291342800195359e-001, -3.8335898720002023e-002,
          -1.0830774431929290e-001, 6.0393223937932117e-002,
          -1.9900971752079188e-001, -4.4376412011469168e-001,
          3.2081770072544530e-001, -9.8657063339317494e-002,
          -5.8051402551318597e-002, -1.2777091889921979e-001,
          -1.3812952870415166e-001, 3.6870481443832412e-002,
          2.9581335633476944e-003, -1.6137960662969378e-001,
          1.2079799973550850e-001, -1.5346481341421173e-001,
          3.3613902970290079e-002, -9.8787095002122724e-002,
          -2.4543761288654029e-001, -1.2241199623760989e-001,
          2.0838006643370813e-001, 4.8047767852302081e-001,
          -1.4459217535972343e-002, 7.6372886492592149e-002,
          -1.1110383161200439e-001, -6.7775302249173261e-002,
          -6.0375427649455374e-002, 4.0676707801696954e-001,
          1.1007867932893955e-001, 2.1500637728419225e-001,
          -2.6914399280100498e-001, -9.8169322363293399e-002,
          -5.8449312192943643e-002, 6.2614744474034950e-002,
          1.0807389564396166e-001, 1.8264558281905077e-001,
          -2.8170481389239482e-001, 4.9636975496770548e-002,
          -8.1487686160202244e-002, 1.9046697225050868e-001,
          3.7099067907476385e-002, -2.5812958981223150e-001,
          2.5816413681209133e-001, -8.0331372130104765e-003,
          -5.6574504088990431e-002, 6.3408151504652843e-002,
          -9.4121086606592380e-003, -2.8936410027568527e-001,
          1.2592613130156310e-002, -2.1134363856070822e-002,
          -5.3165705336391511e-001, -2.7589130707441190e-001,
          8.7846477376803023e-001, -1.4473617325152990e-001,
          3.7465621147259054e-001, -2.2207700376753183e+000,
          1.6568008444931603e-001, -1.3786296221019312e-001,
          1.3869846683319126e-001, 5.8598397213994451e-002,
          8.7747867844371930e-001, -1.1351525998821537e+000,
          -7.1357357287614651e-003, -4.4579798092226258e-002,
          1.2708463080166543e-001, 3.9364924980175492e-001,
          -5.0769441702166074e-001, 2.6259284849762419e-003,
          3.8086115048380337e-001, 8.9916009064779243e-002,
          -3.4799762822008966e-002, 1.0084190842238341e+000,
          -1.4319530123400770e-001, 5.2132900923117287e-001,
          5.9611126879826219e-002, -6.3056435238992514e-002,
          1.1564190506221070e-001, 9.2340125395571182e-002,
          -1.3456488156436311e-001, 1.9062370895460562e-002,
          1.9430373662923883e-001, 1.2264203027487845e-001,
          -3.8911105745905721e-002, 2.1617107894234577e-001,
          5.6211080166204908e-001, -1.5809581101866282e-001,
          -4.8318961283022355e-001, 1.4835227027000092e-001,
          1.3125164069918913e-001, -2.7033694262308727e-001,
          -9.6284751037759617e-002, 5.1284957213837556e-001,
          3.2000325664735735e-002, -5.8241096561888868e-002,
          -3.0128612527931597e-002, -3.0607556025987186e-002,
          8.1026479792160919e-002, 2.2375661860455182e-001,
          -1.5106675156242261e-001, -8.7133944551053000e-002,
          -5.3090787945286044e-001, -1.7462580835824112e-001,
          1.6606985110286361e-002, -3.4871341401302219e-001,
          3.9803233468835370e-001, 3.0382670734947648e-001,
          1.9531850499615828e-002, 2.9006682489458199e-002,
          9.7337121184810471e-002, 1.5274658394962901e-001,
          3.1860151071968890e-001, -1.3150490388750488e-001,
          3.6616453561000260e-003, 3.7922598626418813e-001,
          1.5879050321960766e-001, 4.6582840891376862e-002,
          -9.2998538650309437e-002, 9.8740121246243279e-003,
          -2.5685451375758337e-003, 1.6786541688355378e-001,
          3.7397538557747129e-001, 7.9038004087786259e-002,
          1.9161476907784347e-001, -1.1443704133945779e-003,
          -2.9144790529415365e-001, -1.4264674194994537e-001,
          9.0429565824317687e-002, 7.6835753671391657e-002,
          -6.2444385227828844e-002, 2.1085729834749228e-001,
          9.2332203380829730e-002, 3.3998886153489083e-001,
          2.1970004789221748e-001, 3.0310723182438482e-001,
          -1.0993030505838515e-001, -2.7865677743555212e-001,
          -7.9093107839426402e-001, 4.4024663563288519e-002,
          3.1382531513063867e-002, -2.9047479972057877e-001,
          -1.8401494818915948e-001, -3.1582439957585556e-001,
          -5.3271940764272563e-001, -2.4519509689832283e-001,
          -1.6772934323457972e-001, -2.8405126408349579e-001,
          4.8153048801209808e-001, -8.3583912485874701e-001,
          2.4666478651348894e-001, 4.5072744933682317e-002,
          7.1123858083923699e-002, 9.2054726358419339e-002,
          4.0566738225039189e-001, -8.9796375317859056e-001,
          1.1562243593069639e-001, -2.4960679569814401e-001,
          1.4151781129194840e-001, 2.5624122381087605e-001,
          -3.9455060291205518e-002, 2.2963120591687308e-001,
          1.8397765131597416e-001, 2.5161575911566020e-001,
          -4.3945841514578110e-001, -1.2335174186215359e-001,
          -5.2914415066193522e-002, 3.8791229438613845e-001,
          -4.9225941930712849e-002, 5.9845239883335621e-001,
          -3.1257753222427653e-001, -8.2652349085133164e-003,
          -2.1676928816621208e-001, 3.6658373600508970e-001,
          8.3229196522331650e-001, 5.4944093505459826e-002,
          1.3879252183311636e-001, 1.1871972815583642e-001,
          6.5964949855979255e-002, 2.4730444112498526e-001,
          3.4469440474000335e-001, 1.1559444095210025e+000,
          -8.4301777679575896e-001, -9.5973060477318073e-002,
          -6.7176017877134828e-002, 9.9824901073315375e-002,
          -2.1332752676139413e-001, 1.2196983546498257e-001,
          -7.5094083729303859e-002, -3.5493674542700809e-001,
          -1.8683319075931260e-001, -1.1815231237432260e-001,
          1.2009342272956136e-001, -5.9740093451217655e-002,
          7.9688104709016543e-003, -1.0917674243677872e-001,
          3.1923293507546815e-002, -5.0973325028369390e-002,
          -2.3407354204363701e-002, 9.9595800674444637e-002,
          1.6994278568206786e-001, -1.3552092797487830e-001,
          3.4288855994997719e-001, -2.9020802826163854e-002,
          -2.6120581896263839e-001, 6.7979996213574354e-002,
          1.9506369584145522e-001, 1.8650753868424785e-001,
          -1.4383610493477250e-001, 7.2827637276397170e-002,
          -9.0827531596494454e-002, -8.4611352441110149e-002,
          -1.0457951591564135e-001, 1.4760426187777820e-001,
          -1.5911063045834173e-001, 1.0659562613727611e-001,
          -1.4298391562003909e-001, -1.4002932402109878e-002,
          -8.9499307263950278e-002, 3.1050056684141675e-001,
          1.3313124023130921e-001, 1.5882941262926528e-001,
          -1.1496645205517995e-001, 1.4635726467626330e-002,
          -1.1627456093562194e-001, 2.6481263410275990e-001,
          -1.6745214853576532e-001, 8.8901171151916480e-002,
          3.1416802990787490e-001, 2.2460960870781815e-001,
          -2.1764272770995632e-001, 4.5710334168857697e-002,
          5.5167800114616847e-002, 2.2307371432844876e-003,
          -4.3585979204127222e-003, -5.1165313318179240e-001,
          7.9450918370308954e-001, 8.8985751207203548e-002,
          3.4812267513591644e-001, -1.0000348091108903e-001,
          4.6405010616013059e-001, -2.1500144924500203e-001,
          2.8617723358946118e-001, 5.6166891387055148e-002,
          3.6728558776737176e-002, 3.9541436665986368e-001,
          2.5837855940690302e-001, -3.0871735884840862e-001,
          -2.6051876654932465e-001, -1.2589648649944912e-001,
          9.5974951412732233e-003, -4.7327252297740818e-001,
          4.1071062932390512e-001, 1.7928827673604728e-001,
          3.4116644026091263e-002, 4.7475001939048890e-002,
          -9.6141991535118460e-003, -2.0884705374795023e-001,
          2.6657619427718080e-002, 1.8528441156997180e-001,
          3.1065718391463665e-001, 4.2747514280688770e-001,
          2.3841572063659156e-002, -5.8197567646217574e-001,
          2.7404814702918303e-002, -5.7972198759074473e-002,
          9.9840888583705684e-002, 1.9534581966375357e-002,
          -1.5791885898462188e-001, 4.8484884818254192e-001,
          -1.0393414404932082e+000, 4.0999221905083960e-001,
          -7.0041583648871197e-001, -8.3821935877432738e-002,
          1.4980225406287467e-001, 6.4666972113299026e-001,
          -1.4560243892909228e-001, 5.7573837635977265e-001,
          -1.3178283839859012e-001, -6.9962315447932688e-002,
          -1.6495486687460215e-001, -1.1580854836367566e-001,
          9.6299466698665431e-002, -1.0631576840058544e-001,
          4.2163473573737659e-001, 4.1178877109441757e-002,
          2.4538841183296645e-001, -5.2356819190442483e-001,
          7.2360530315715488e-001, 7.5264113566629676e-001,
          1.1025639516763952e-001, -2.4179368779709098e-001,
          1.8944481775735383e-001, -3.4035560115569713e-001,
          -2.1179076816665926e-001, 3.5973246245895256e-002,
          -9.3548345208459427e-001, 5.0948892199285667e-001,
          -6.1235032667026859e-002, -3.3672772588434519e-001,
          3.1202867705547621e-001, 2.6711489537338966e-002,
          -4.6518430770741068e-002, -1.7278121346644204e-001,
          -2.5217922608878895e-001, 5.8710429198716918e-001,
          -4.0587372379758285e-001, 2.6149206265586649e-003,
          -3.7420263296997680e-001, 1.1847211549412406e-001,
          6.5665938639251131e-002, 1.7519195168643065e-001,
          -1.3245000064764359e-001, 3.0627344568078273e-002,
          1.5260835827486710e-001, 7.3742174111786096e-001,
          4.5318261663068615e-001, 1.9798870035749430e-001,
          -7.0218005052520363e-002, -4.0526787905920519e-001,
          2.2386030855396674e-001, 8.7619145761954675e-002,
          -1.7928186839787980e-001, -5.7742577709660980e-001,
          -9.1118075162666026e-002, 5.4163001436729841e-001,
          3.5163189000021083e-001, 4.1287762674580503e-001,
          -2.3452431894417836e-001, -2.1964810139314669e-001,
          -3.2994421419119635e-001, -6.1966769545651543e-002,
          5.9983875195035186e-001, 2.9580462699082494e-001,
          -2.0127452128666040e-001, 1.7469376485579011e-001,
          -1.9547900188040435e-001, -3.7758329186474437e-001,
          -1.1098765901156167e-001, 1.3304859217788578e-001,
          7.6470597121460329e-002, -1.7213153104402327e-004,
          1.2391435950571462e-001, -4.9334226793415298e-001,
          -4.4215420479158690e-001, -9.0944929195912261e-001,
          5.7135673870031378e-001, 5.9200465583527997e-002,
          -9.1033558072662474e-002, -7.1680702615935413e-002,
          -7.3676939155648616e-002, 4.7922836429371962e-001,
          -1.1905886931181478e-001, -4.0994859704629344e-001,
          -1.3903719700450853e-001, 3.4565106234953229e-002,
          2.0230626591981046e-001, 1.2490919879851609e-001,
          -2.1393628091396155e-001, -1.0724389800530945e-001,
          -5.0101478714992098e-002, 1.1014145205589538e+000,
          1.3250994438222757e-001, -5.6105462478172530e-001,
          3.9663734273862224e-003, -1.6518726275794048e-002,
          1.4910574725541001e-001, -1.5605647616165741e-001,
          -3.6125103626334809e-001, -1.0631602070369295e-001,
          -8.6535306780381877e-002, 2.6225475592023167e-001,
          2.2862846476474918e-001, -2.1692308162450974e-001,
          -1.6953236822210876e-001, -1.1871690760467261e-001,
          -2.9953984642364651e-001, 1.0129719689656480e-001,
          1.2856280345222554e-001, 9.4828657065703925e-002,
          -3.7585817590633513e-001, 1.1426200959588698e-001,
          -2.8829042353257311e-001, -1.4822796366709429e-001,
          9.9909371069782996e-002, -8.8301041100350197e-002,
          -5.4869101344971818e-003, -1.5745336025264514e-001,
          5.6759336521206120e-002, 1.7405250925310778e-001,
          -1.2042831960640297e+000, 5.9301011120562769e-002,
          2.9157334696517079e-001, -7.7612582087030246e-001,
          1.0057419639484325e-001, -1.3297919446718645e-001,
          2.0539851936446293e-001, 1.7727522496095172e-001,
          -2.5343082696428382e-001, 6.6243643444911038e-003,
          -9.5397881130018139e-002, 3.0004231287645514e-003,
          4.3965447226792120e-001, 7.5372417821588836e-002,
          -4.4921701895494881e-002, 2.6928410196409922e-004,
          1.8821992072070029e-001, 1.2201636546534195e-001,
          3.3021480933234754e-001, -5.4532470363358003e-002,
          -1.7987641810643995e-001, 3.5473337298881621e-002,
          -2.5329109601548599e-001, -1.1671202564487891e-001,
          1.8159430860413478e-001, 8.1654284711920100e-002,
          3.2629819126024107e-001, -3.4108681982540606e-001,
          -5.4353713939444015e-001, -1.7826236711778304e-001,
          4.5862682370107444e-001, 5.7067282703136539e-002,
          5.7451005884620621e-001, -2.8448668798848253e-001,
          -6.9830875873211948e-002, -6.4823167625688793e-002,
          1.6703602803247411e-001, 1.2136071002375712e-001,
          -7.7473477666866852e-002, 8.2323856720714919e-002,
          2.3561346150781015e-001, -2.3857920098587190e-001,
          3.1499265322845765e-001, -1.5636120112791549e-001,
          1.7286437818524905e-001, -2.6868231110126517e-001,
          -2.1267564600481409e-001, -9.3541380853918183e-003,
          1.5503477377360306e-001, 3.6608750248143290e-001,
          -1.1169317319507743e-001, 4.0301362501574073e-001,
          1.0489344832918207e-001, -4.8772759917066377e-001,
          1.7115365780733705e-001, 5.7523906182959184e-001,
          -3.5039944011030784e-002, -1.2539237268431941e-001,
          -3.0645028920879658e-001, -6.6039665949257365e-003,
          4.0538576539639842e-001, 3.8270194242924360e-001,
          -3.1900693006924546e-001, 1.7628659735495031e-001,
          2.1049393640833006e-001, -3.2946012047695011e-002,
          4.4906383944300104e-002, -7.5577255899720325e-003,
          -3.4943046759156028e-002, -3.6717604485445282e-002,
          -2.8988892335083277e-001, -2.4702863571072087e-001,
          1.3629035455085661e-002, -9.0892693521938350e-002,
          -2.6275755001722750e-001, 1.8006227094724769e-001,
          -2.9601985607993285e-002, 1.2615168788289680e-001,
          -6.7610234092879126e-002, -8.3365569142763440e-002,
          -1.3023414530006128e-001, -1.3586637228230161e-002,
          -2.0058781745561624e-001, -3.7186662535991266e-001,
          5.2836451883569757e-001, 3.1759536218865951e-002,
          2.1432346568358843e-001, -3.0732470471814621e-001,
          1.0726026174436361e-001, -1.3833520295149584e-001,
          8.1978345215405618e-002, -3.8637757111751980e-001,
          1.4318127333601890e-001, 8.7251125562783316e-001,
          3.4918143049462134e-002, 1.6602131129946787e-001,
          -1.0439334482300612e-001, 7.4500432144840770e-002,
          3.7146292463587863e-003, -4.9475045373447393e-002,
          7.3263805323374953e-002, 3.9299703408831121e-001,
          -4.2785337465821310e-001, 9.8879627797847247e-001,
          -3.3204574489231004e-002, 2.6691276314914375e-001,
          3.7005903583080829e-001, 3.2909964424674649e-002,
          -8.9827553797898460e-002, 5.8042569122257998e-002,
          3.0231769932614244e-001, 7.1589845025955917e-002,
          5.9350072626173131e-002, 6.6757158607101200e-002,
          -8.8234863020360092e-003, -1.1182991224345375e-001,
          -7.3977944838723511e-002, -2.4647802411290656e-001,
          -9.1411022218454885e-001, 8.7723501481478450e-001,
          3.9391959117134950e-001, 8.8827698895708795e-002,
          4.8146158968832331e-001, -2.7579923620250104e-002,
          -9.5953979796661509e-002, 1.9974482487734693e-001,
          4.9377911292598420e-001, 1.0824168403489323e-001,
          -2.5206602210851470e-001, -4.0318854029231264e-002,
          -4.1601630489626962e-001, 3.5204996173379112e-002,
          1.8920132614226076e-001, 4.2575381409539467e-002,
          -2.4155146860987883e-001, 4.2125334193140157e-002,
          -2.6629608209129041e-001, -3.6868772764433472e-001,
          -1.6174034951676214e-001, -5.5949668756876084e-002,
          -3.7141246997889291e-003, -1.8393828720273761e-001,
          5.1768410472127609e-002, -1.4386453788323195e-001,
          3.1396937401443697e-001, 1.4902509792476855e-002,
          -5.5549882093452352e-001, -3.0505098530666547e-002,
          -3.5514931074097839e-001, -3.7648119403432767e-001,
          1.9524287082552813e-001, -1.1431227903169885e-001,
          -7.0754572960970441e-001, -1.3500101165548811e-001,
          2.4388876665269524e-003, 2.0942228570775545e-002,
          1.1821678576851297e-001, -5.5093325802780257e-001,
          6.5902052313019360e-003, -3.0077984660929452e-001,
          -7.0809130983609206e-002, 3.5757955959161503e-001,
          -1.6546064121837244e-002, 3.0507068270250648e-001,
          -9.4139614410196873e-002, 6.5299374720111836e-001,
          2.1568948599617574e-001, 2.9004414755942026e-001,
          6.8568137919771385e-002, -2.7305808551848171e-001,
          5.7865040737484197e-001, 2.3418022944578484e-001,
          4.3408246550821220e-002, 3.1534867075636369e-001,
          -3.1230440654175140e-001, 5.1222511667001536e-002,
          -1.6582679851542897e-001, -1.5248826025587683e-001,
          1.1242332315139236e-001, 3.4621165039056440e-001,
          -6.6605199037899604e-002, 1.6130891074840376e-001,
          1.9436699807954735e-001, 2.6398660256279455e-001,
          2.0687577652312530e-001, -1.2226538092160529e-001,
          -4.1305036456524968e-001, -5.2491187347385254e-002,
          3.6006269881186620e-001, -6.5377645578045054e-002,
          2.7746380001131576e-001, -5.6131159179969636e-002,
          -3.0713266941179768e-001, -2.8483993036960886e-001,
          2.1566472401786710e-001, 8.7165394823908282e-002,
          1.9250547182715830e-001, -4.0592787923594088e-002,
          -8.1051085574407167e-001, -1.3872081607469730e-001,
          1.4771777097025024e-001, -5.0777534331582899e-002,
          1.4287831937102374e-001, -9.7230820987552743e-002,
          -1.2405564947415275e-001, 1.1317381948439190e-001,
          1.5035172546177683e-001, 2.2375998538623454e-001,
          -2.1600547959634053e-001, -2.1150897987984035e-001,
          -3.6014537551145857e-002, 4.5699980856386130e-002,
          -2.9272817035434956e-001, 1.0159700824827020e-001,
          2.7323040618840572e-001, 1.5571538731519894e-002,
          -2.3300964318438561e-001, -7.6572936398212249e-002,
          8.2284504294455538e-002, -1.5706147896748468e-001,
          2.1068081622558965e-001, 1.1723123794873520e-001,
          -6.4349403134898869e-002, 4.0307810490739282e-002,
          7.1751193154760834e-002, -5.5583101246195232e-001,
          -4.1475358617690056e-002, -3.9221483066500384e-001,
          5.0870156931223753e-001, -6.1335518159445046e-002,
          -1.5386806192275412e-001, -4.6031834759745718e-002,
          5.4941814825231083e-001, 4.5148631524255134e-001,
          -9.9217423574028796e-002, -2.5901685965340673e-002,
          -5.1226501933650748e-001, 1.6012597062538750e-001,
          -8.0558064162271500e-002, -9.7873027894931422e-002,
          -5.8248456629049761e-002, -5.1855632938214635e-001,
          5.9889678404552033e-002, 3.3461205356031720e-001,
          -1.4833278123274196e-001, -1.0447566006329415e-001,
          5.6053370882968604e-003, 4.1581889190393340e-001,
          2.3941925336512468e-001, 3.3012475556829046e-001,
          2.7874898692270339e-001, -5.8606650627530281e-002,
          -2.8966432478049020e-001, 2.4616261771651878e-002,
          3.6116723138188839e-002, -1.7029866579192859e-001,
          1.1113612240359115e-001, -2.0082689159380426e-001,
          -1.0229625823062979e-001, -3.7298449644965975e-001,
          -2.0331630449736626e-001, -7.6721603739799665e-002,
          -8.7702566764225653e-001, -1.9925044106142108e-002,
          -1.5667024463843654e-001, 2.6589241506859657e-001,
          -1.5687494344349823e-001, -5.6564530255244116e-001,
          -1.5552802214986225e-001, 2.9397829416946719e-001,
          -3.7331881517012522e-001, -3.3522240812894732e-002,
          1.4146874329355211e-001, 5.7187601284990709e-002,
          1.5277157187181650e-001, 1.8237882015488793e-001,
          -1.2924883666705669e-001, 3.6953529389217693e-001,
          -1.0697237852900070e-001, 1.8723896658754391e-001,
          -1.1992703354169218e-001, 4.2567861419957340e-003,
          -9.6533349809309874e-002, 2.6402640621143197e-002,
          3.4561443027111943e-001, 5.1332148276404299e-001,
          2.9694582682496312e-001, 2.2812209973370601e-001,
          -5.3455014630165554e-001, 1.5045433452301360e-001,
          7.4338785444335553e-001, -2.0330794802691521e-001,
          -4.8055081926674104e-001, -3.3791823549130262e-001,
          -7.0406218735178522e-002, -7.6243928181279272e-002,
          -2.4297311105375405e-001, 3.4833541009574465e-001,
          -2.6269265171025963e-001, -3.1737420870899574e-001,
          5.1306835500585062e-002, 2.6528527986709555e-001,
          -1.4719175412458149e-001, 1.6456855402270854e-001,
          5.8466480254831740e-002, -4.5203953817565798e-002,
          -1.5025074872974462e-001, -2.7941634769000090e-001,
          -6.7467696590107595e-002, 9.8641719773254338e-002,
          2.6382841184221473e-001, 7.9305605558513237e-002,
          -6.3168380391924531e-002, -9.5315440066349788e-002,
          1.3509204221911367e-001, -1.0084085717399532e-002,
          1.0472227167291634e-001, 7.0431795281960030e-002,
          -8.7361621395322081e-002, -3.1153234510709105e-001,
          2.5570518626661896e-003, 1.3667094215579470e-002,
          9.7204993410622464e-001, -3.1202246200757629e-002,
          -7.6326807453125686e-002, -7.7499079885492645e-003,
          1.4041091812958986e-001, -1.1571000382261216e+000,
          8.1168360344862828e-002, -7.5869910997591591e-002,
          -8.3345640084931019e-002, -9.7838947661910702e-002,
          6.3522916660226492e-001, 1.5706901874157331e-001,
          1.3610708722761322e-001, -1.3147013169925015e-001,
          1.4437276886575803e-001, 6.1779745876888781e-001,
          4.4077020356063375e-002, -7.7910716702359162e-002,
          1.1269938984241946e-001, -3.9730985775456008e-002,
          3.2106794605567899e-003, 1.5920117127074448e-001,
          4.4807671206053440e-001, 2.5736187844738639e-001,
          -7.1315041418464731e-002, 6.1606833858566667e-001,
          -1.4882763299728993e-001, -8.1660972496715639e-002,
          3.7562272531473723e-001, 1.7870704810144153e-001,
          -1.3941539217517593e-001, 7.3261028102031522e-001,
          3.3151640029846741e-001, -1.4866733655734784e-002,
          3.8264780729301140e-001, 3.3800623146765865e-002,
          1.4177200615722313e-001, -1.4374400315102659e-001,
          6.0377717206722192e-001, 2.3430019503455010e-001,
          2.5316054547658995e-001, -9.1510739041577249e-002,
          -1.1728105968314120e-001, -1.6827311073749712e-001,
          -8.5805542827628693e-003, -3.3530694161811353e-001,
          3.6509147101565420e-001, 3.2558481043330673e-001,
          1.9739656706080341e-001, 2.8054590281220687e-001,
          -1.2560626276442269e-001, -5.4529190073578360e-001,
          -1.4892328670922922e-001, 5.1708722224584419e-002,
          1.3254918948870406e-001, 8.6945165160965099e-001,
          2.7039579215736062e-002, 5.1277480053022950e-001,
          -6.6255555230319535e-002, -1.2656237001248832e-001,
          3.7212287269011318e-001, 2.2667627826532799e-001,
          -1.3986808948090576e-001, 2.2904311239296712e-001,
          1.5266806904971775e-001, -3.3327438513568307e-002,
          -2.9250131236029424e-002, -2.3102482178690410e-002,
          -2.3160050902056500e-001, 1.3260197537233187e-001,
          -3.2323399662433377e-001, 2.1065029741096041e-002,
          -3.4599868545858598e-001, -3.0776825496874542e-002,
          7.0486275154142991e-002, 1.3394889663959833e-001,
          -2.3116491118734631e-001, -1.6824835222983925e-001,
          -5.9618445098736775e-002, 1.1273176889775009e-001,
          1.3169922713889534e-001, 2.0515865562287955e-001,
          1.8416170976295032e-001, -9.8850073661079363e-001,
          -9.1403342176606325e-002, -1.1425614843371558e-001,
          1.9866172729456910e-001, -1.0758574099170858e-001,
          -1.1665021954745723e-001, 5.2485469636123515e-002,
          -1.2735315959714111e-001, 2.1400649279161094e-001,
          -1.0098054547919368e-002, -8.3056891671083838e-004,
          -5.7698634977395309e-002, 5.0064222913901078e-002,
          2.9364016862222653e-001, -4.0789292546806677e-001,
          2.8933451312580814e-002, 3.5612877462664871e-001,
          -2.9266390619399247e-002, 6.5722373801010026e-003,
          -8.6688551123849156e-001, 2.3206201454068751e-001,
          1.6530273570485404e-001, 5.7705705690323794e-001,
          -1.9889339628090429e-002, -5.1306412340300089e-002,
          1.8883793762929524e-001, -5.7553467047505258e-001,
          4.5133700269355731e-002, -8.3852442988787557e-001,
          -3.6417278602293335e-001, -1.8261339032318118e-002,
          2.6560268848336488e-001, 1.3221091559756942e-001,
          5.2404990916854327e-002, 1.5240435725287207e-001,
          -7.3932752226520196e-002, 3.2891981407826465e-001,
          2.7392766488085429e-001, 7.4406728322936144e-001,
          -3.8219911992636363e-001, -6.0453261514275181e-001,
          1.2632506511602346e+000, 1.0852783832928314e-001,
          2.2693594390869257e-001, 6.5303607434324534e-002,
          3.3882936679225706e-002, 4.8364026746493427e-002,
          4.0305320855147500e-002, -6.8858336430403400e-002,
          5.5501101702654299e-001, -9.6024210038767079e-003,
          -9.4566719992620826e-003, -1.4362984973854055e-002,
          -3.2196911392030758e-001, 3.7365016376843108e-001,
          3.8748386215153097e-001, 2.1102160411941143e-001,
          3.2527385828580994e-002, -1.8147536972616632e-002,
          8.3443845367411257e-002, -1.2960231081131951e-001,
          3.5421118019743342e-001, 1.2675742887610916e-001,
          -1.3197015104940088e-001, -1.7102700576514665e-001,
          -1.8414612394986873e-001, 9.7319691659645990e-002,
          9.8182476883960618e-002, 2.4117605762516472e-001,
          -3.8102792993844775e-001, 2.5532538419397255e-001,
          9.9528735915817901e-002, 1.7536167514580245e-001,
          9.8670270785247358e-002, -9.1757386952229070e-002,
          -4.3433461484856800e-002, 5.7308109106581240e-001,
          9.1343159173727595e-002, 6.1613493873523173e-001,
          -1.1436964272981848e-001, 1.4540558934119233e-001,
          -3.7669973391413442e-001, 1.4191574218277328e-001,
          1.4178671717152858e-001, 1.4129344403390368e-001,
          -5.9319040893150066e-001, -4.1448930987904370e-001,
          -1.5091952806793446e-001, 3.4540078346918102e-001,
          5.4356610912126957e-001, -6.1022902364719522e-002,
          -9.8791538329413897e-002, -2.5049207829173759e-001,
          8.6883429501931467e-002, -4.7378313086551294e-001,
          4.1035905800406275e-001, -1.0931836523558955e-001,
          -1.1651009904701924e-001, -3.7834348638384668e-001,
          4.3852084673599107e-001, 4.2417590188203913e-001,
          1.4496988241944725e-001, 7.7560600608947608e-002,
          -1.2078706095840507e-001, -5.2296540586013363e-001,
          3.3604740327740940e-001, -2.8059061450323142e-001,
          3.1056165506605810e-001, 1.3718814538298227e-001,
          -1.5575828982538240e-001, -2.5306980356144188e-001,
          -5.3252356996277539e-001, 3.5824518567999847e-001,
          4.3629396581024332e-001, -1.0579048396118394e-002,
          1.2473342737612064e-001, -8.9884335968661050e-002,
          5.8420164413001729e-001, -3.6629943148204019e-001,
          2.3999467965737578e-001, -1.1859114562716197e-001,
          -5.2013853796707543e-001, 8.6648590466043174e-002,
          -7.5025896824839983e-002, 6.3424661587060738e-001,
          1.4594048724576036e-001, -1.9121577046143626e-001,
          3.6263912616103000e-001, -1.0492499366796555e-001,
          -2.1447126544609507e-001, -3.2835296683628240e-001,
          3.0054053658121177e-001, -1.2687697616557295e-001,
          -1.7693700272168258e-001, -2.2120236730947571e-001,
          1.2523434035714034e-001, -3.9899651552533477e-001,
          2.9459992309722555e-001, 1.0032761785670904e-001,
          -2.2100805146335106e-001, 1.2093182013490017e-001,
          -4.2047764429025157e-002, -4.8908077313433768e-001,
          3.0521496452802438e-001, 5.3135774173030982e-002,
          -1.6786804350026871e-002, -1.2722406390512145e-001,
          -6.0176897942739546e-002, -7.8538034056354414e-002,
          1.5358340511367372e+000, 4.3312988261813828e-001,
          -4.1163717279787232e-001, -6.0379268379620342e-002,
          -1.1395082999112183e-001, 2.3436303791189828e-001,
          -8.3869660121007536e-002, 6.7534388270766563e-002,
          -1.5233650824795547e-002, -1.1085804942473768e-001,
          -4.8502582893545459e-001, 2.2170999029235594e-001,
          -6.2693649252986747e-002, -2.0525063851627506e-001,
          1.2257240104773827e-001, 5.5875222493417331e-001,
          7.9568384658175950e-002, -2.2206466059241821e-002,
          3.5482839766297575e-001, 3.8755607637111493e-002,
          -4.4639179310332450e-001, -6.2580694162748396e-001,
          -1.7004243421932447e-001, 2.8146521503731592e-001,
          2.0918007103804634e-001, -2.6222009034926935e-001,
          2.1269398497394457e-001, -1.5554017396524433e-001,
          -5.6111882433225013e-001, -3.3624381687074920e-002,
          9.9954461881003723e-002, 4.3843591842220378e-004,
          -3.5387865173997624e-001, 4.7696976367941918e-001,
          -3.0699141862410829e-002, -1.8249920392974764e-001,
          1.2163929578497062e-001, 3.4622632006642678e-001,
          -1.4506677964677972e-001, 7.5438013314263364e-002,
          2.5376553258633522e-001, 7.7602178062852342e-002,
          7.4813413512219096e-002, 1.6145252359978188e-001,
          3.3059327512633457e-001, 2.3578242673466718e-001,
          -2.5557135782145218e-001, 1.0448279611930034e-001,
          1.7272700037672475e-001, 1.4148559530943156e-001,
          3.1918710460273302e-002, -1.0125986509040591e-002,
          2.7341427713531957e-001, 1.7803477555893998e-001,
          6.3883984451918563e-002, 4.1178651551707429e-001,
          -2.0613635338623415e-001, 2.3918978896867293e-001,
          1.6245396904702619e-001, -2.1545057453741848e-001,
          -1.1971555346483834e-001, -2.7263824870760678e-001,
          -2.9606279112473965e-001, -1.2241551289353307e-001,
          -6.1555528563237127e-001, 3.1387908847714857e-001,
          5.5670492944557809e-002, -5.2748192190086485e-001,
          -1.1724963002843605e-001, -1.4619677202387726e-001,
          -1.0479381587980247e-001, 2.0448251065716425e-001,
          1.0697838426747985e-001, 6.8097500588197601e-001,
          -1.7959954474069997e-001, -1.5405943962901136e-001,
          -7.6477175915727863e-002, -3.7521519675753418e-001,
          4.1637320445078008e-002, -8.5828635835956346e-002,
          -8.7781774709285776e-001, 3.9748494366044260e-002,
          -7.1884210173154839e-001, -1.0144215187034350e-001,
          8.1973292417430954e-002, 2.5479450754656664e-002,
          6.9089888305568492e-001, 1.0973875657796509e-001,
          4.5386749732184917e-001, -1.0942059092877214e+000,
          -2.0811535250954155e-001, -4.6461940816258165e-002,
          9.1941686973613691e-003, 3.8003282189517201e-001,
          -8.9413260377889686e-002, 1.0556831761859868e-001,
          2.1470592966918264e-002, 1.5540018315794155e-001,
          -3.2640010145546799e-001, 6.2455488229727019e-001,
          1.8797389436708972e-002, -1.5155952208188803e-002,
          -3.1385072597404906e-001, 8.1712171518209920e-002,
          -5.0353291523497559e-002, 2.5816048607904107e-001,
          -4.5855793184260779e-002, 5.3057828603762520e-002,
          1.3785921184207750e-001, -3.3462285575691469e-001,
          4.0114330110294416e-001, 7.8745242815932404e-001,
          -7.0698152514213974e-001, -7.5868670073112432e-001,
          -2.8678485501504536e-001, -4.6049011464815270e-002,
          -1.1645164993025028e-002, 9.2899892857730773e-003,
          1.8549521643354044e-001, 4.4925294542793523e-002,
          5.2345700908868649e-002, -8.2507252548085826e-003,
          4.1863914732071496e-002, -2.5258640887176165e-001,
          4.0522410416698962e-002, -8.8185578836608866e-002,
          -1.1153080628993792e-001, -2.3161639806700329e-001,
          -4.9955517360322069e-002, -1.2539669598654195e-002,
          -3.1957937268953913e-002, 2.9772353825019825e-002,
          2.1711009909477580e-002, -3.2917072471702391e-002,
          1.7786091965534678e-001, 1.3314569478229266e-001,
          -1.1905356371950204e-002, 2.4824453624980133e-001,
          -1.9507652083397928e-001, 4.5747332345287955e-001,
          -4.1472355768442648e-001, 1.5651223024645989e-002,
          1.6024103595641695e-001, 9.8277778302585606e-002,
          -8.7660937064622746e-002, -3.3958601503497908e-002,
          -2.5923322949926005e-002, -4.3008921935929076e-002,
          -2.4871316832149298e-001, -1.1749723864320945e-001,
          -5.3531349619129988e-003, 8.6883648772104638e-002,
          7.9521819913984295e-004, -1.2545096292993815e-002,
          2.9859003716460780e-001, -5.3520207533852393e-002,
          -8.8139955083268842e-002, -1.8340032131299349e-002,
          -1.3496816086460722e-002, -1.9054021228482818e-001,
          2.0285836926698886e-001, 5.4001700893082405e-001,
          -3.5202595927838354e-001, 4.1694136676166382e-001,
          7.0590097245496286e-001, 5.7346527937949521e-001,
          -1.0743716304346337e-001, -2.7704573211651268e-001,
          -1.2755202336163460e-001, 2.6013181100113136e-001,
          3.1121281303931542e-001, 2.8099271728544789e-001,
          -3.3446929927979391e-001, 3.3813302458392080e-001,
          7.0438948845383520e-001, -2.2033051049881999e-001,
          1.6572973747002223e-001, 8.5976271345883870e-002,
          -4.4164206797012034e-001, 8.7047578948290127e-002,
          -6.7020920884613733e-001, 3.7440731525625187e-001,
          -6.6141667315271213e-002, 7.1676322909546245e-002,
          -8.7755223425483225e-002, -1.7986837211985510e-001,
          3.7917486707361364e-001, -4.1345896796669729e-001,
          1.6056851080381346e-001, -4.9531645723613715e-001,
          -2.4028506353343068e-001, -3.8244887109250017e-002,
          3.3237365559116477e-001, 1.6068929168646498e-001,
          2.4780711895325847e-001, -1.5666944745753626e+000,
          -3.7785667488017222e-001, -1.0992983559201561e-001,
          3.3357659901978837e-001, 5.3718476006865162e-002,
          2.7866822579408181e-002, 4.1927353838842937e-003,
          -2.5485281366249180e-001, 9.2769846566307500e-003,
          3.3550285661179868e-001, 2.7625498150407746e-001,
          7.2202039267146223e-001, -1.4613658963071691e-001,
          -1.3073270184972954e-001, 1.3205092572185118e-001,
          4.3230033173412757e-001, 8.8737194903519623e-001,
          -7.6081563704395921e-002, -9.5596829042100831e-002,
          -7.1861980489882071e-002, 2.6871894627621691e-002,
          -3.5410543450338450e-002, -4.5447130775653399e-001,
          -1.1510538830248254e-001, 1.9625915258162804e-001,
          1.0380775363065806e-001, -3.3107790936159051e-002,
          -1.2805326460793981e-001, 2.0922701337235006e-001,
          -2.6864696727223153e-001, 2.2879337324339624e-001,
          -4.4106988555587742e-002, -2.5365192867107134e-001,
          -1.7760278252913991e-001, -1.5555874967650044e-001,
          7.7805126535950730e-002, -2.5548795924385182e-002,
          -5.5045888492111408e-002, 1.1589742561737976e-001,
          2.2835317176464501e-001, -2.2440857444539070e-001,
          -2.3725668066283123e-002, -1.5099880446101610e-001,
          -7.6866037761984793e-002, -2.3839768882557264e+000,
          2.0229646103553756e-001, -3.1196269738992760e-001,
          -3.0005789457555371e-001, 5.4610389030691889e-002,
          2.8261859236905718e-001, 1.9414572008950079e-001,
          1.1085234686730479e-002, -2.1629647835446236e-001,
          -4.2617755577844119e-001, -1.9670734164756851e-001,
          1.6233842922192188e-001, 5.2819990543520060e-002,
          2.3431896727459461e-001, 2.0170800294653304e-002,
          1.4772139762822975e-001, 3.8420397803178319e-001,
          -3.6152449247453061e-002, 7.0100253742150148e-002,
          -5.7504563049861657e-001, 3.6995613675798615e-002,
          -1.3516147609443108e-001, -2.6798718725404941e-001,
          -5.9685270602609884e-002, -8.1953049062590599e-002,
          -2.7253299961964844e-001, -9.2085451839779087e-001,
          2.3829959793464484e-001, 1.0103718836388632e-001,
          -1.5056818287670090e-001, 1.0160748307078195e-001,
          2.7317484977923906e-001, 1.2292541982559640e-001,
          3.0529170203684697e-001, 3.9943959154843417e-001,
          2.3473541946711490e-001, 5.9198005799947018e-001,
          -1.6795719913770707e-001, -3.1280949780930706e-001,
          -2.5718327175437233e-001, 1.3237960188161682e-001,
          2.3661110098725854e-001, -1.9194544145946660e-001,
          7.4921574102175190e-002, 4.6345510993447087e-001,
          5.0302286539509622e-001, 1.7748244950858294e-001,
          -1.2421582069346129e-001, 2.8687305276787939e-001,
          6.3325367299986030e-002, -5.3588764339189895e-002,
          -2.2907850457283982e-002, -3.1837746225730512e-001,
          -1.0101309715320628e-001, -1.2367091342986916e+000,
          -5.1743531507853789e-002, 3.8655765507265893e-001,
          -1.8394198672434889e-001, -1.6555509007253005e-001,
          -9.7215420524865134e-002, 5.2281075612002313e-002,
          -3.3168613825033166e-001, -8.7084090221390166e-003,
          1.2037438074375595e-001, -6.9828659265668933e-002,
          -1.4080366835348032e-001, -2.6840944816103546e-001,
          -6.9803460463265146e-002, -7.5455173519991203e-002,
          2.5672128699246921e-001, -1.0536334073351697e-001,
          -3.1282247986644814e-002, 6.8314589951377891e-001,
          -2.2876876210362537e-002, -7.4365656537762004e-001,
          1.4760518308324326e-002, 9.4547479321947556e-002,
          -1.9476626036426697e-001, -3.7735469240153231e-002,
          1.4708991966304352e-001, -2.5836008975079866e-001,
          3.2404785020624555e-001, 1.4144394766440924e-001,
          3.4392025276703753e-001, -1.5538083981621484e-001,
          -4.7226514090351022e-002, -2.9374029750649039e-001,
          -6.2503840640624808e-002, 1.1711387950244237e-001,
          -2.9126243700669235e-001, 1.0396653598802023e-001,
          -2.1403546337760826e-001, -3.5760793077176382e-002,
          -6.0717959709789958e-002, -9.7063968490433403e-002,
          -1.0150517855904329e-001, -1.1473474259833810e-001,
          4.4851361436792102e-002, 7.4730279248930875e-001,
          -3.0919525548692095e-002, -4.0430884690749652e-002,
          5.5890709147007708e-002, 6.5291278674379935e-002,
          -3.2158873528993090e-002, -7.4483376147458383e-002,
          -9.4794371598575344e-001, -4.2284616088886273e-001,
          8.2286564727537337e-001, -3.4438222162895188e-002,
          -4.2230055928532556e-001, 2.3943714432381677e-002,
          4.7240762295610578e-001, 6.7171092333867533e-002,
          1.1578954571636574e-002, -2.8392666681381751e-001,
          5.0156877998826344e-002, -1.9696109567296716e-001,
          1.5089705896347694e-001, 3.0985025897019108e-001,
          -3.7019213893693184e-002, -7.4314197804605631e-002,
          9.8311930840883785e-002, -1.3325695708509870e+000,
          -2.5007112069540125e-002, -2.5117293585020038e-002,
          8.4660735180601715e-002, 2.3759853585275026e-001,
          -1.1826529434729736e-001, -1.5623321825480974e-001,
          1.4117597198497486e-001, -7.9184100530831341e-003,
          -4.3475287264162232e-001, 2.0842672950059074e-001,
          8.5290005511199390e-002, 2.8113417683925684e-001,
          5.4775265308717788e-003, -8.3339654476539418e-002,
          1.2654928968596349e-001, -1.6574040630733319e-001,
          -4.8484472996775059e-002, 1.8477972776152279e-001,
          1.8495462403742315e-002, 1.5301263931575421e-001,
          1.5110474366962756e-001, 5.0938856516020892e-001,
          2.4582682574449752e-001, -9.9854765752566299e-002,
          4.8336491681714339e-001, -8.9531441186758168e-002,
          -6.3954122808206215e-001, -2.3589948491525659e-001,
          -2.6616813907715553e-001, -2.1444299811542644e-001,
          4.6448199670792417e-002, -7.2793712073554895e-002,
          -1.9149816040475959e-001, -1.4447854260760571e-002,
          5.9768510405416420e-002, 1.8516980120749271e-001,
          4.7039386991049266e-002, -2.6125621291512600e-002,
          -2.4161143052921810e-001, -3.4397684684910818e-001,
          5.9876968617537864e-002, 2.0519404222560164e-001,
          -1.0116340093336828e-002, 1.2596352018594503e-001,
          -3.9459638468622507e-002, 7.0923447563149833e-002,
          3.4641001765965929e-001, -2.1447063469181009e-002,
          1.5789407231386526e-001, -1.0243633689032641e+000,
          3.3046340833194562e-002, -1.7233196220301647e-001,
          2.1250399784979543e-001, -3.4868030739754946e-002,
          -4.7435053046970616e-001, 5.5171782907617639e-001,
          -1.9275221270486878e-002, 3.9494533508675639e-001,
          1.1309693369517869e-001, 2.0556529311081654e-002,
          -1.1169684962078430e-002, 4.0747761993371732e-002,
          -1.5877327054987833e-001, 1.2436272733207871e-002,
          1.5396863824774165e-001, 5.6086474724977950e-002,
          -3.1549865058665710e-001, 3.5306606258840284e-001,
          8.7150284367637880e-003, 1.0284822254309042e-002,
          7.5120377816688311e-001, 1.9788730620089574e-002,
          1.0035357112826773e-001, -4.0306209377831831e-002,
          4.9089419036087334e-001, -2.2619224072915281e-001,
          1.3799994816315536e-001, 1.1239346074625997e-001,
          6.7307319553486261e-002, 3.4550206496927482e-001,
          1.7081822520433140e-001, 1.8550122415531736e-001,
          -1.0711656478887799e+000, 4.8908660429292913e-002,
          -4.5268940534093144e-001, 8.4127387973025167e-004,
          -1.2013213453922317e-001, 1.6942209378379738e-001,
          -3.6762514512509357e-002, -5.5879479736240101e-001,
          -4.3197894854440116e-001, 2.5751836390427035e-001,
          -2.7060220403242041e-001, 6.6800725862732696e-002,
          1.1384469304747213e-001, -1.0242451956811084e-001,
          -5.5476962831874022e-001, -7.9394445108283096e-001,
          9.0079476122080215e-001, -1.1486792762684452e-001,
          1.2236011883990107e-001, 3.5952357741840602e-001,
          1.8753192625367142e-002, 1.5782039162995687e-001,
          -3.5286794109016340e-001, -1.3934228911410838e+000,
          1.6194888942402952e-001, -5.6421306742414475e-002,
          -6.9074438200390498e-002, -2.4819120908088648e+000,
          -1.9716990827200756e-001, -2.0822348590206588e-001,
          2.5193098550729431e-001, 5.4112092490345454e-001,
          -3.5330700600577025e-002, -9.7501215958727561e-001,
          2.7070201325683790e-001, -1.2105379585629523e-001,
          -2.8694538878397075e-001, -1.5879842659200441e-001,
          -1.2966774794103780e-001, -1.1656307573243227e-001,
          -3.1102211230860621e-001, 1.5562096489386540e-001,
          1.7139272698623303e-001, 3.5629730729459613e-001,
          -5.3126289451586561e-001, -1.7996320251787432e-001,
          -1.7367485634450527e-001, 1.8135522226677750e-001,
          1.4409900493153718e-001, -1.2432048985977803e-001,
          -2.5470230723808834e-001, -5.4077293357106850e-002,
          -2.9624013053348469e-001, -6.7529679087183242e-002,
          -6.4105867288952914e-002, 5.5452079424478029e-001,
          -1.3797879665889851e-001, 4.7758652255856210e-001,
          1.2121110353939778e-001, -1.1006247484860733e-001,
          -8.5477641612628358e-002, -7.3149795386265398e-002,
          7.6100596820514246e-002, -3.8756074281322821e-002,
          3.3331563266478487e-001, 6.4516291879139938e-003,
          2.1441703202830706e-001, 1.9088851736240664e-001,
          -6.2847463673497070e-002, -4.8732253710994544e-001,
          -2.6453039516720591e-002, 1.3601792902294046e-001,
          2.3794469943568430e-001, -1.9492870700773476e-001,
          -1.4941122046994179e-001, 2.8746456375555318e-001,
          1.4519762288971869e-001, -4.1963992489023209e-002,
          -7.7509554588957599e-002, -1.7329213362579021e-001,
          3.2133307411163867e-002, 1.1961806698102836e-001,
          -9.6254814058927704e-002, -3.9398552805203269e-001,
          6.1694464596305632e-001, 3.7965335012433937e-001,
          -1.6473016767712412e-001, -1.7500438463737589e-001,
          -1.7635902866494527e-001, -1.1717399082101798e-001,
          -1.6491304077065394e-002, -2.2828653694079770e-001,
          5.4719142914757957e-001, 2.8801896538963295e-001,
          -1.1361303786733129e-001, 2.4342012584813544e-001,
          4.1088473539178644e-001, -1.1072204392803996e-001,
          4.3378892864430801e-001, 9.8218537012742871e-002,
          1.4379920757760695e-001, -1.1386653987412232e-001,
          -2.9841140247930503e-001, -1.7968976903478909e-001,
          -8.0452670230979884e-001, -2.0690367987673222e-002,
          3.3172755329836318e-001, 4.3264564190268251e-001,
          -4.0661888853775821e-002, 8.8737534964819079e-002,
          -8.0135823817941196e-002, -3.5045429774595721e-001,
          -9.0006046333238610e-003, -4.5810298540689626e-001,
          2.5068001268404416e-001, 2.3037324286022495e-001,
          -2.9659111756708223e-001, 1.7501652827642478e-001,
          9.1924471676358921e-002, 4.2612947971059439e-002,
          6.6371569485460427e-002, 1.1342236029535031e-002,
          -7.9393589830135919e-002, -3.0782471364151870e-001,
          -3.5980837725658327e-001, 9.1168007547209162e-002,
          -3.7440166940804170e-001, 3.0078251866001594e-002,
          3.6694533978717214e-001, 4.6430761115684355e-001,
          -2.4929375467734133e-002, 1.6325110655949537e-001,
          -1.3875920845220349e-001, -4.7207230567847612e-002,
          4.9969619979179765e-002, 4.4082984635825065e-002,
          -1.0129383871491053e-001, -2.1108273810658595e-001,
          -1.3079928740399757e-001, -5.0877534036088870e-002,
          2.1610005108947530e-001, -1.2769812904179220e-001,
          -1.1162934973510138e-002, 1.6705459652631771e-001,
          2.0656695920202120e-001, -2.1854428565037667e-001,
          8.8668829574213154e-002, 1.0784222677476690e-001,
          -7.8320997583897933e-002, 1.8539381878937902e-002,
          5.5524625083876449e-002, -2.1713149530404065e-002,
          -1.0545776563079430e-001, -1.0775652910513255e-001,
          -4.9235086580873867e-002, -2.4734719095935243e-001,
          4.1989835653708743e-002, -9.9674176689282218e-002,
          -6.6786235191909293e-002, 3.7679406200664289e-002,
          -8.6472692268075094e-002, -5.6017234059075258e-002,
          9.2730876146521930e-003, 1.0804921098306750e-002,
          -5.2118572666576535e-001, 4.8407345114559776e-002,
          -3.6964382022480126e-002, -9.5819693083728105e-002,
          3.4699082104111706e-001, -1.1821803597181017e-001,
          1.9729484848247567e-001, -1.3951893911028180e-002,
          -9.3687370508492226e-003, 3.6685570614579034e-002,
          -3.9880067274517511e-001, -1.2175177127929401e-001,
          8.6015571043746408e-002, -1.4239112204938459e-001,
          -6.1918280740820641e-001, 2.6242636917064455e-001,
          9.6527564082440648e-002, 9.2182136961815830e-001,
          -2.8026949120791628e-001, 1.3331692978964357e-001,
          -1.7808723470576029e-001, 7.7342569881130266e-002,
          3.0084139144740352e-001, 4.2423690251516566e-001,
          -6.5674223933502540e-001, -2.2343791396732635e-001,
          -1.3086205571563309e-001, 1.8814673569308001e-002,
          2.3620035566547937e-001, 3.2250783078377876e-001,
          1.1011216133811641e-001, 1.6539749027419343e-001,
          1.7642332427242446e-001, -3.3920608089084578e-002,
          2.1409546768378104e-001, 5.7053345518908432e-003,
          -7.5062107365583963e-001, -2.3280409451489725e-001,
          1.2621472577121864e-001, -1.2934053398841292e+000,
          2.0554798086867410e-001, -1.1984249817296730e-001,
          -1.8112556330460444e-001, 9.4952531569136647e-003,
          2.6496580809098585e-001, 1.6637113532611908e-002,
          9.3674790466619529e-002, -6.7923034741566427e-002,
          -7.1407220489356937e-001, 1.0557994539564439e-002,
          1.4359432067200262e-001, -3.2015928269059063e-001,
          3.7716223786520349e-002, -1.8912773317000620e-001,
          -2.5025110087925939e-001, 5.7743144210687503e-001,
          3.6875496551521114e-001, -3.8629516462862362e-002,
          5.3576430250571039e-001, -2.1218566949539569e-001,
          1.8077020946401590e-001, -2.7074437897206555e-001,
          -9.4398662288690705e-002, -7.0294743745861432e-001,
          2.0632030070218377e-001, -1.3789019167123084e-001,
          1.1934596573010856e-001, -1.5788897497448734e-001,
          4.3975552472678307e-002, -2.6951274462199654e-002,
          3.3239423939832047e-001, -2.6272346522866008e-001,
          1.0992155538558813e-001, -4.1676570763429455e-002,
          -2.3852835784837662e-001, 7.7470503621722336e-002,
          1.4550173135006597e-001, 4.8091655234046807e-002,
          -1.1464898397446521e-002, 8.6653432724255776e-003,
          2.0624688146163886e-001, 1.9474865876536790e-001,
          2.0409679483275565e-002, 4.3332869164621528e-002,
          -1.0111100532613605e-001, 6.8623562974521921e-002,
          5.9624205233365035e-002, -5.2519202649484487e-001,
          7.5373528582055579e-002, 2.6270942652266760e-001,
          7.2820086960864311e-002, 1.2913573134926876e-002,
          -9.7608659006004628e-002, 6.5954436976065001e-001,
          2.0674717582364630e-001, -3.1501528691441530e-002,
          -6.9156736407031960e-002, -9.2291896864607717e-002,
          -3.1418561879235202e-001, 3.0551599875257796e-001,
          3.1669757281685296e-001, 2.7448930987220808e-002,
          -4.7085118687242078e-002, -6.3442183235521254e-001,
          -4.4048613787217673e-002, -1.1924540391820121e-001,
          6.9120218596872743e-002, -1.5615401783943135e-002,
          -2.7890807423292363e-001, -4.4522431741576982e-002,
          2.3345982794566059e-001, 1.9579209497775063e-001,
          5.0263519501295606e-001, -5.2642696938919153e-002,
          1.2204214429871602e-001, -7.0517866669291773e-002,
          4.5740831167037352e-002, -2.0306665283768829e-002,
          2.5158827943133035e-002, 3.3987420571849780e-001,
          5.1951003651982630e-002, -1.2840781598404527e-001,
          4.4968288864146078e-001, -1.0751446261226924e-001,
          3.8733029141260922e-001, -2.6891810903261182e-001,
          2.5869619359469864e-001, -9.9407264182997279e-002,
          1.3925907821493355e-001, 5.3997649574770788e-002,
          -2.0497379867339571e-001, 2.7536888004191785e-002,
          -5.8059333323843484e-003, 1.0644780347488349e-001,
          6.8003796961564378e-001, 2.1329033775459882e-001,
          -1.3283994401383517e-001, -7.6521876568182823e-001,
          -4.4346097875808774e-002, -2.6624176638173702e-001,
          1.9766851160785742e-001, 1.7001140090123271e-001,
          -1.7812376879091654e-001, 1.5244017255278991e-001,
          -8.2021806639235115e-003, 2.8599652426303679e-001,
          1.9053232579919677e-001, -2.2748800072073430e-001,
          -2.6529778003974913e-001, -4.6674377164858910e-001,
          2.9712693750008491e-002, -2.3400513554745370e-001,
          -4.5815966632205468e-002, 3.1201045194255933e-001,
          8.3971297199691664e-001, 1.3052940481232825e-001,
          -2.2309916465466845e-001, -5.4407506734569333e-001,
          -2.0090536894880637e-001, 2.5204786252886513e-001,
          2.6009536413743317e-001, 2.9515270984198078e-001,
          -1.6694929947351769e-001, 1.0534436635874590e-001,
          -2.0299461704045080e-001, -5.5954299664469742e-001,
          4.4870577241497528e-001, -6.9635453983324630e-002,
          -2.5175144955528217e-001, 2.0333239391462168e-001,
          -1.4935744126106615e-001, 3.5970104577015394e-001,
          -4.3925056397330214e-001, -1.9659554600939422e-001,
          -2.7054620335492030e-001, -4.1701657107417821e-002,
          6.4217587293935369e-002, 2.2112180490080000e-002,
          1.6942650509159438e-001, -2.7521378815361969e-001,
          -4.6589818809005734e-001, -6.8180603323908323e-002,
          2.8058714487726656e-002, 3.7137447751402802e-001,
          2.8368098150795840e-001, -6.3282093592062952e-002,
          -3.6297162166524372e-001, -3.6756352448335405e-001,
          1.8744442681290122e-002, 6.0698211725412266e-001,
          1.2119197665340122e+000, -2.9462473366728698e-001,
          -3.7729754935470657e-002, 7.9319027627822697e-002,
          -2.5281298730514767e-002, 3.6587080177959530e-001,
          -1.0280746411287653e-001, 4.3801631174351041e-001,
          2.1413068188243892e-001, -2.0105936919976691e-001,
          -5.9598273163205651e-001, -8.9907468716566907e-002,
          -2.4673616439104931e-001, -1.4471741685380732e-001,
          -1.0481895976920684e-001, -9.0198764990468111e-002,
          5.0179593036748689e-002, -8.1926180111462354e-002,
          2.5860353160783878e-001, -3.3573383362302506e-001,
          2.6180275969846296e-002, 2.1537323964968461e-001,
          4.3665274686901005e-002, -8.9746869464431070e-002,
          2.1689451736909801e-001, 5.5322511537445589e-003,
          5.4265334237061547e-001, 2.4925226587378374e-001,
          2.5380351615849595e-001, 1.3591418020495583e-001,
          -8.8360488953318628e-001, 4.1106404720001107e-002,
          -6.6761490726342620e-001, 2.5180106414333236e-001,
          2.6084061166661929e-002, 1.0952085649345472e-001,
          2.7188912385759217e-001, 2.0944405572361208e-001,
          1.1809033240357752e-001, -3.7244020825145829e-002,
          -1.8044226868174623e-001, 4.4277775065244368e-001,
          6.6725458750163447e-001, 6.1047455172501701e-002,
          -3.0245903063890728e-001, -3.3209868653220620e-001,
          1.9133114898149849e-002, -5.8519446980069854e-002,
          -1.9300889350613742e-001, 6.3119360610746772e-002,
          -9.0575259753467130e-001, -1.1113356255317036e-001,
          3.2747241086117757e-001, -1.1124548891711050e-001,
          -2.3247528283409599e-001, 8.2282957700029372e-002,
          1.0228619343472904e+000, 7.5786270979239723e-001,
          -3.2590689084250846e-001, -8.0645959895584374e-002,
          -2.7531944589888929e-001, 3.2912297755413855e-001,
          1.4067367294881428e-001, 3.5708254734937600e-001,
          -7.6442874936102190e-002, 2.5319932454288813e-001,
          -1.4716717432592848e-002, -8.9688113881781259e-002,
          3.9874305523672209e-002, 5.0255674824227013e-002,
          -3.2458863266281829e-001, 5.0558105309025804e-002,
          1.1456370004091815e-001, 5.4771239653444548e-002,
          8.3738208278268444e-002, -5.6786995157756953e-002,
          -5.1835684075636013e-001, -1.0957600624085833e-002,
          4.5651932704329407e-001, -2.5833986054722707e-001,
          5.3122682297492507e-002, -9.8047263190298120e-002,
          -1.5832204212777834e-001, -3.7606429893358467e-001,
          3.1897955223110108e-001, 1.5435718539210025e-001,
          3.7282563564219323e-001, 8.6400963406504439e-002,
          -7.1979490733363669e-002, -3.2676235794555746e-002,
          4.3321365364264752e-001, -9.7660321858817800e-001,
          1.4940925925718784e-002, -4.1929793726998399e-001,
          -4.9514231191978786e-001, -2.2124431916260762e-002,
          2.2362602248286839e-001, -2.9316157157613859e-001,
          6.3997359867355053e-002, 1.4656132024900537e-001,
          -7.3060844423327567e-002, 2.4411257057544860e-002,
          5.5574433062573411e-002, -5.0398417719040944e-001,
          -4.2765589901785701e-002, -3.0480961501211407e-002,
          -1.4943237328378331e-001, -1.0767310412715561e-001,
          1.7286554803355833e-001, 2.5208284304222471e-002,
          -1.5795935362687363e-002, -3.0438793095367173e-001,
          -1.0127321346180806e-001, -1.0854658991875191e-001,
          -1.1085591103983723e-001, 2.8441006636231120e-001,
          -1.1519895627362667e-001, 3.5966160244922957e-001,
          4.0693660185111469e-001, -5.4965506708846631e-002,
          -2.0290391132478672e-001, -5.3602311262180979e-001,
          -3.6906657617217092e-001, -5.5297233705337505e-002,
          1.2218077532219791e-001, -3.8281475118782388e-001,
          -4.1060960263968271e-002, -3.5727340345701497e-001,
          -1.9125690042245494e-001, -3.2551321171105274e-001,
          6.3562795776590253e-001, 6.7163644755236673e-002,
          -1.6000621165267889e-001, -3.3396018884662967e-002,
          -5.5998072372410079e-001, -8.2945916776058976e-002,
          5.0791572404213108e-002, -2.8404178751283782e-001,
          9.4798408775738821e-002, -2.7590663820480626e-002,
          -1.4303769907191236e-001, 5.0189544332973657e-001,
          -4.6174175123905099e-002, -4.6940468649422129e-001,
          9.4999137470379047e-001, -5.9837796119033071e-001,
          6.7405403440671641e-001, -1.0377859454044656e-001,
          -6.4061735820283772e-001, -7.2969456070328598e-001,
          1.1218980444138642e-002, -9.2107676360134205e-001,
          3.2894753651836051e-001, 9.2536781036737126e-001,
          -3.9358844331770970e-001, -7.4193134548833051e-001,
          9.6596407097995440e-002, 3.2673170439851534e-001,
          -1.2525728929581383e+000, -7.4011514330777262e-001,
          7.9624553140011343e-003, -5.0657521301132358e-001,
          1.4272103739371395e-001, 1.0583765783035917e+000,
          -5.1828844767972837e-001, 7.1479126031961970e-001,
          1.3794302581278959e-002, 9.2378559999999987e-001,
          5.9198679857622971e-001, -9.2787264271239733e-001,
          -5.5907230238004391e-001, 6.2672141278418625e-001,
          1.0804137762041173e+000, -5.4605174670740553e-001,
          -1.2389348824801227e-001, 1.1510016342322935e+000,
          -1.2367683816776325e+000, 5.5109561137309915e-001,
          1.0760856182710357e+000, 1.1999189560348031e+000,
          1.0928950418743075e-001, -1.0265282509908307e+000,
          -5.7246476414371439e-001, 3.4094063255669649e-001,
          1.2374559098227411e-001, 5.8637803751689255e-001,
          8.3436053503400409e-001, -5.0155911224933181e-001,
          -6.5310513352113564e-001, 7.0518429884566314e-001 ]
      - [ -7.9519402108311532e-001, -6.5341009939242345e-001,
          5.9790038706708182e-001, 1.1733203996491216e-001,
          -1.4520437020615040e+000, -2.4552823313021652e-001,
          -4.8270521506960956e-001, 8.1558768041736596e-001,
          4.8608258288247586e-001, 2.6183039953794335e-001,
          3.0337392605590829e-001, -2.4946221263180376e-001,
          4.0148265543282025e-001, -4.4755234326026555e-001,
          -5.9269667446549990e-001, -7.3584952559113537e-001,
          9.9042150753580682e-001, -4.8646826231405144e-001,
          2.3690303913887595e-001, 3.7793040554970493e-002,
          -6.5800033067458863e-001, 5.3011803331303731e-001,
          -3.9057000446176526e-001, 3.6564188749402773e-002,
          3.9975454545769096e-001, -4.6311625119969246e-001,
          4.7127073339038905e-001, 2.2848934312563052e-001,
          -2.7589210120267388e-001, 7.4494385247460748e-001,
          8.8223256630817048e-001, -7.0503773691138816e-001,
          3.7032959915623065e-001, 2.4304066083403231e-001,
          -9.9593819559134356e-001, 4.9553279879242196e-001,
          6.8660956768161058e-002, 4.7278230711081609e-001,
          2.4965232949978827e-001, -2.0880777276530862e-001,
          -5.7129792857015105e-001, -2.3716397375098472e-001,
          4.7707292603626850e-001, -1.5687774612484090e-001,
          -1.7985828507971768e-001, -2.2480309825071312e+000,
          -1.2769614250156751e+000, -1.6615468270192357e-001,
          2.1725042752698065e-001, -2.6827810630525201e-001,
          -2.3134721458665253e-001, -7.2227529149069825e-002,
          -7.6801809532125975e-001, 4.1027190625891075e-001,
          8.5981899604217260e-001, -4.6261093543067444e-001,
          6.1907157037992189e-001, 1.6951915631958844e-001,
          3.8390763857023946e-001, 3.1462535017653459e-001,
          7.4911223617276557e-001, -9.0765379277165514e-001,
          4.6736291765981919e-001, 5.7625721624121062e-001,
          1.4230299546571129e-001, 1.4592400250285864e-001,
          -1.3510277508969567e-002, -6.3518116458058371e-001,
          8.7801980746909958e-001, -5.1212808633372175e-001,
          -5.2941738025806073e-001, -2.3638794895706028e-001,
