%YAML:1.0
my_nn: !!opencv-ml-ann-mlp
   layer_sizes: !!opencv-matrix
      rows: 1
      cols: 3
      dt: i
      data: [ 250, 512, 5 ]
   activation_function: SIGMOID_SYM
   f_param1: 1.
   f_param2: 1.
   min_val: -0.9500000000000000
   max_val: 0.9500000000000000
   min_val1: -0.9800000000000000
   max_val1: 0.9800000000000000
   training_params:
      train_method: RPROP
      dw0: 0.1000000000000000
      dw_plus: 1.2000000000000000
      dw_minus: 0.5000000000000000
      dw_min: 1.1920928955078125e-07
      dw_max: 50.
      term_criteria: { epsilon:9.9999997764825821e-03, iterations:1000 }
   input_scale: [ 0.1298224304739751, 0.2170550102959042,
       0.1695625349339026, -0.2410549954912079, 0.1683848892469003,
       -0.0242785925215660, 0.2299261152870712, 0.3631811479293195,
       0.2991449860041234, -0.0258676831624064, 0.3197073007291114,
       -0.0124238974077297, 0.3652161270359048, -0.2486771234324984,
       0.3622536199248374, -0.1304550059435364, 0.4145274356714490,
       0.3623895784135030, 0.4127902149233451, -0.0390559350880243,
       0.4097318133218045, 0.0770633496435920, 0.4712926111641781,
       -0.3619591511025376, 0.5116550194015715, -0.2745215185908402,
       0.5149623723115166, -0.1591825120596438, 0.4116326491562620,
       0.0372756938768623, 0.4902375453834094, 0.0734867889783676,
       0.5513329368067207, 0.2680747461061592, 0.5409285187037864,
       -0.0519211401157290, 0.5845265053238426, 0.0470833992049956,
       0.5819396547432104, 0.1518928205545328, 0.6254266182166717,
       0.0532346138947014, 0.6090892208644360, -0.1350673598795944,
       0.6808537451002616, -0.0964512313241080, 0.7193202060737387,
       -0.1525819808965092, 0.7391386723684219, -0.0306294709061874,
       0.7392604527632762, 0.1648390175651386, 0.8127230410517704,
       0.1517714699119941, 0.8277383273174052, 0.0554913395773239,
       0.8924345576017831, 0.2863117589559099, 0.8062335140057787,
       -3.6458525923560516e-03, 0.8656506109628600, 0.0288805663093344,
       0.8852593534351633, 0.1567079544117417, 0.8729895088260874,
       0.1870632559443248, 0.9203724578571757, 0.1194205885951623,
       0.9477876771568520, -0.0181579395054958, 0.8380853907626934,
       -0.0692530475926398, 0.9749801359799461, 0.0881456329514069,
       1.0512919209087905, -0.0512508970897998, 0.8838903355625326,
       -0.0803156971091221, 0.9819702013140870, 3.3159035281728122e-03,
       0.8801166965414287, -0.2412143066347834, 1.0123551300229787,
       -0.0935596701304608, 0.9872645414193916, 0.0531888536029810,
       1.0316636294048120, -8.3372863873032339e-03, 0.9407785854629495,
       -0.1628682438829609, 1.1445756716270836, -0.1860642769790126,
       0.9759316830886334, 3.0188770455767534e-03, 1.0610151056270081,
       0.1058153054368389, 0.8911230052618152, 0.0168613843899175,
       0.9570926514174353, -0.1310897740467178, 1.1735153731122827,
       0.0793254338830819, 1.1196420376409209, -0.0481502784092311,
       1.1039082026762823, 0.1239171951487503, 1.0277518757463291,
       -0.0812629763637134, 1.1907240886451786, 0.1804587254747397,
       1.2120704239585538, 0.0218427192149082, 1.3727809063472851,
       0.1930208478852735, 1.1364102635236886, -0.1824537223969061,
       1.0296625938878867, 0.0914543890633353, 1.2895990653999760,
       0.2481526096700587, 1.3587650078205149, -0.3194991802169417,
       1.1879336926341397, -0.0335675932773393, 1.3910196973254940,
       -0.2652323374820342, 1.3468328152097706, 0.0267052937363946,
       1.2977250586079641, -9.5132932383018426e-03, 0.9359119179411987,
       0.1097902505548335, 1.4501017537664513, -0.0598403951169966,
       1.4223449860969262, -0.2082294960106778, 1.0659843139494085,
       0.0457858606494017, 1.3584483749798411, -0.3021711862606665,
       1.3206320127408253, 0.0234546759446477, 1.2893227884879026,
       -0.3446001646358219, 1.3530261430524562, 0.0360300344601755,
       1.4858885618464701, -0.0257780371083584, 1.4442405507463405,
       0.3387285896673158, 1.5816443297369258, 0.0946664315105870,
       1.4962808277398496, 0.4908616628020313, 1.3299600914050056,
       0.1098860966909772, 1.5086144819943739, -0.1418781981952736,
       1.4147834410111477, 0.0333071880234867, 1.5484448528799570,
       0.3203633813766386, 1.5402770644391166, -0.0541097725009717,
       1.4947958986094727, -0.0858701007904904, 1.8292283396992000,
       -0.0114184022683168, 1.7682876538078702, 0.0111280902881280,
       1.7315415838713171, 0.1806645768628894, 1.4343001258118686,
       0.0203936071927197, 1.7588359660265254, -0.1569340137054379,
       1.7593048096851154, -0.0874650185956176, 1.6879148745960668,
       0.0592975143186995, 1.7582558901894434, -0.1792893718971623,
       1.6684210682002296, -0.1791394379658151, 1.6286715100790543,
       0.1679483261781144, 1.6505851103824472, -0.0709672071948201,
       1.4959877381064248, -0.2417855896193021, 1.8829433949340171,
       0.2321746850932917, 1.9348057270068182, -0.1150602541337025,
       1.7714433135746384, 0.0917750989873082, 1.7493272905258288,
       -0.0968985784614974, 1.8182256172492739, -0.0618623685761435,
       1.7140951673550264, 0.0854449980352676, 2.0807490076040973,
       9.1252627161692696e-04, 1.8618463461187478, 0.0341387823784175,
       1.8488160169342713, 0.0190134823661485, 1.6330977858384912,
       0.0144408737713173, 1.7416836691413620, -0.1743855130036902,
       1.9234855103297033, 0.0617612275638896, 1.9186728617678206,
       0.0217946493814658, 2.1624982613343593, -0.0566286291418314,
       1.9360515530586422, -0.2142932548385043, 2.3093457476723529,
       -0.0156321707572206, 2.1723964851694326, -0.2071125067032961,
       1.9660577871720739, -0.1264638503532467, 2.1722338338208873,
       -0.3023376844771419, 2.0153131129559405, -0.3295611648267342,
       1.9110651678659485, -0.1855453786730213, 2.1744197483753145,
       6.7165522253727211e-03, 2.0510118285904335, 0.0408839949233550,
       2.1386793796636909, 0.0375454420315967, 2.2921769496991078,
       0.0463596214308655, 2.2291205633936353, -0.3716925318765680,
       2.3155451595739418, 0.0813861371588595, 1.9881713765958113,
       -0.0908169670574253, 2.1806967161600568, 0.0631736645537701,
       2.3767872612137415, 0.0662997261693054, 2.3398328365155043,
       0.0431179965061003, 2.2288223380542846, 0.0578889874407271,
       2.2465128208679688, 0.0230472106628576, 2.1246938956728285,
       -0.0762297001916028, 2.3959200603616777, -0.0700926409895874,
       2.5666736033466919, 0.3341065280515487, 2.1685543053360865,
       -0.1465610306242020, 2.1588620035058490, -0.1202166280782459,
       2.3990262685840751, -0.0921393186009102, 2.4171177906236481,
       -1.4804690685799060e-03, 2.3084719787675194, 0.3248269938259837,
       2.4157282786607723, 0.1511491240347763, 2.5835978066801490,
       -0.0759090094847776, 2.5518980356658614, 0.0408247152384215,
       2.4545919564707952, -0.0968177497227414, 2.4465758533512449,
       -0.0315247080043048, 2.5793821237941752, 0.0451168183484861,
       2.6932576829074422, 0.0954445628988897, 2.3202192390635834,
       0.1726856746285332, 2.7413507056317612, 0.2567697456481565,
       2.7897262562963516, 0.0392779135763186, 2.7219666140477528,
       -0.1781875467097347, 2.7104378117622621, 0.0301005154790505,
       2.5368913995990194, -0.0674548571860431, 2.6459221379804863,
       -0.1927173549793112, 2.5600097538774311, 0.1594185471014081,
       2.7608907086295065, 4.2973053541178943e-03, 2.5256062609423462,
       0.1607905355922196, 2.7186307194556636, -0.0972713388135068,
       2.4195959503455020, 0.2012652695584969, 2.6569484355245478,
       -0.0561511608591740, 2.7721542371531567, 0.0867527737829839,
       2.5140836902060442, -0.0217459897403429, 2.6926037854746752,
       -0.1076782504790284, 2.7365976317689986, 0.0925256894662945,
       2.7182026852707204, 0.1144464925800460, 2.9359739228994446,
       0.2813620235928681, 2.7879084863212760, -0.1909548059026458,
       2.5996725319358904, -0.1480483012619991, 3.0678010230745731,
       0.1004769860410333, 2.6747416131736257, 0.2040437545114490,
       2.6745566581569129, 0.2636679188505240, 2.8936003332516109,
       -0.1234550292615666, 2.6847979106360107, 0.1116203055953402,
       2.8099851156510289, 0.0442565919478615, 2.7189883323176640,
       0.0880683506549380, 2.7240202189379525, -0.0414900364434409,
       2.5718987175586530, -0.2069863752623901, 3.0404288131196613,
       -0.0122030646959343, 3.1437754451825133, 0.1535562300120155,
       2.4813172722875634, 0.1016132353386570, 2.8436311320310126,
       -0.0562631329908884, 3.1715251001210256, -0.1733399043661747,
       3.1787637695080040, -0.1122945188729278, 2.7651720457760982,
       -0.2397543013817221, 2.8555262413631812, 0.2394297273982893,
       2.9031371287459300, 0.1679303607968803, 2.4944304213538504,
       -0.1049539890969364, 3.0528912799361336, -0.1297937676368549,
       2.9421142695015123, 0.0555260289431052, 2.8922766671419198,
       0.2086855168754818, 3.0725200081772783, 0.0854493015668099,
       3.0277699171386798, -0.2203493407464744, 2.8295757046407175,
       0.1311539284028569, 3.1423041030846104, -0.1484121705760804,
       2.7678286800256684, 0.1730599200271293, 3.2962472224796087,
       -0.2086791267321436, 3.0089001654528627, 0.2267600280306971,
       3.3706842074135204, -0.0920365577440929, 3.2181897554618391,
       0.1225760773599531, 3.2910142746468440, 0.0578435599032243,
       3.0358026161314551, -0.2435268510340936, 3.1381749539730963,
       0.1162705232674178, 2.8421420410863587, -0.2058195583415944,
       3.1507988834178220, -0.0783463382090260, 3.2004986742500718,
       0.1403801021601490, 3.2905317407434582, -0.1122629984767715,
       3.3356258960933256, 0.2112960241803740, 2.9948103342190397,
       -0.2132395809120843, 3.3188619925921201, -6.6267157305788171e-03,
       3.2204181329267301, -0.1956132665845413, 3.0527854707354858,
       0.0711785056888694, 3.4291133261705133, 0.0170286446256815,
       3.3404917611956662, -0.1831008047356407, 3.6423374028535909,
       -0.0744608220563108, 3.5815089415501564, 0.1805194423586831,
       3.5257943586387652, -0.1292598230487090, 3.3146799105315941,
       0.1209546707575959, 3.1537653487029318, 0.0764397756575339,
       3.8155116210355886, -0.2807977347971578, 3.3607752819478067,
       9.9185649769417111e-03, 3.5671237669534950, -0.2690877283990437,
       3.5398660054973532, -0.3515151053389279, 3.1550863333914032,
       0.0999583887515276, 3.8182816789475740, 0.1031755085019755,
       3.2723818291407798, 0.1030864178335670, 3.4777267655756763,
       -0.0974861185261995, 3.8170885654815061, -0.0920852381776164,
       3.5306716931477529, -0.1774802219784935, 3.6692790447568768,
       -0.0849496863418847, 3.6507704323628252, -0.0612528631682516,
       3.3793366687437159, -0.0654165603950739, 3.4345241486688778,
       0.0798981223112702, 3.2727516232487868, 0.0687770350119003,
       3.3432591779370981, 3.7698409460672857e-03, 3.4428298324902107,
       -0.0616532782516103, 3.4825685151075407, 0.1034413855917788,
       3.5700503654316207, -0.1456714236826848, 3.5779090647315819,
       0.0152601265663226, 3.6569350116726138, -0.1006526680644070,
       3.8305314276323665, 0.0834174549100893, 3.8536747751412288,
       0.0466240286765026, 3.7050311048332261, 0.1663976652226896,
       4.0036885105938200, 9.3462415278443983e-03, 3.5580723251283963,
       0.2157726545879434, 3.8265742761253811, 0.2404448094404555,
       3.5721335678175890, -0.0604874756134883, 4.1541785623096112,
       0.1014620594756058, 3.8952027895947126, -0.0192565739473848,
       3.6523489390914592, -0.0494661825693418, 3.5993575996087039,
       0.0998152305503339, 3.8638628917960087, 0.1718145458432624,
       3.8431317990753757, 0.1184798218791585, 3.8775124064397510,
       0.0797592460331879, 3.3111033325266921, -0.0324286152333360 ]
   output_scale: [ 0.5263157894736842, 0.5000000000000000,
       0.5263157894736842, 0.5000000000000000, 0.5263157894736842,
       0.5000000000000000, 0.5263157894736842, 0.5000000000000000,
       0.5263157894736842, 0.5000000000000000 ]
   inv_output_scale: [ 1.8999999999999999, -0.9500000000000000,
       1.8999999999999999, -0.9500000000000000, 1.8999999999999999,
       -0.9500000000000000, 1.8999999999999999, -0.9500000000000000,
       1.8999999999999999, -0.9500000000000000 ]
   weights:
      - [ 0.1299352269118634, -0.1203834244595364, 0.2172332728725912,
          -1.3220461050846326, 0.2478269519668080, -0.1284129593508852,
          0.2253852212256597, 0.1125481172112599, -0.6714093457652330,
          -0.4087361549820397, -0.0200406725763536, 0.1176981967152787,
          6.4151999621005146e-03, -0.0266771218745389,
          0.3463639657787220, 0.1098637780662293, 0.1587805030725757,
          -0.8598802345929009, -0.0300628701665132, -0.2078867426814307,
          -0.1467905419158978, -3.8097241554257691e-03,
          0.4232955723654211, -0.4822990232222127, 0.1276645623624714,
          0.2978701776745649, 0.2503019580071327, 0.3593748358613246,
          -0.2371785634416015, -0.3118550885443067, 0.1272578911809846,
          0.6457298420615114, 1.0430948587124007, -0.1671029241286610,
          0.2379024996222711, 0.3464344545120608, 0.0295485063695238,
          1.9637552936143887, -6.0674021165071958e-03,
          -0.3993597698728366, 1.3121672425640996, 0.0353260115004251,
          -0.2875053873373438, -0.2743798060145894, -0.0758411752276214,
          -0.3017824605104441, 0.1030133384884542, 0.2896630392587756,
          -0.4147387432340742, 0.0928134509319376, 0.4322730799885597,
          -0.6912659862691974, -0.9249877293721099, 0.0994651958841333,
          -2.9371728495728639e-03, -0.0166061076625265,
          0.2018021067323231, 9.6582434483763087e-03,
          -0.3799538645047740, 0.0309445326625732, -0.2511128339469229,
          0.2668020440527110, -0.4710937070832646, 0.3133830605910526,
          0.1834181651623413, 0.9964861202063813, 0.0549709272543697,
          0.1370329588316728, 2.1067672175169250, -0.3033734424242231,
          -0.2824414229650596, -0.3004452426146888, 0.6465845250537063,
          -0.3633936951045531, 0.4356883120746367, -0.7274074082377562,
          0.7540078506661481, -0.3420583849832402, 0.0203799625771257,
          -0.7347354884616620, 0.1515357120806544, 0.2587520962195597,
          -0.2439554167147768, 0.2889508376920301, 0.4136693717224735,
          -0.2545715430077201, 0.2046282098785308, -0.1721119981374718,
          0.1557924466382233, 0.0366555550158823, 0.0380060138281913,
          -34.1423299180412840, -0.3973104128044211, 0.1811630861504562,
          0.1552160465783122, 0.4272596372573338, 0.4470848623745202,
          -0.0984620552263763, -0.2454192706769969, -0.4099222665996113,
          -0.0368269987891189, 0.3033162338325711, 0.3028240120576728,
          -0.6636466727321719, 0.2032187342560437, 5.1585896764922694,
          0.9428561949616412, 0.7772080094914233, -1.3237251287944005,
          -0.1649939777734843, -0.1993662592272208, 0.1112548767827991,
          -0.7283891661347551, 0.0219648745596785, -1.4482727560054762,
          0.0325302512017031, -1.8880842953318007, 0.1223843483274753,
          -1.4204005850745438, 0.7527201479125412, 0.1198810625816264,
          -0.6894319360664070, 0.5056888074570218, -0.2366088513336888,
          0.1649880140528300, -0.5115158502454772, 0.1135681477741471,
          0.3656347779356240, -0.4229265640837036, 0.1033455515988979,
          0.3832809952859140, -3.5808901605945085, -1.9974927542714724,
          0.2490425026711679, 0.2765029036808442, 0.2040282641045534,
          -0.3542874283792457, 0.1409772475284631, -0.4726730084229457,
          0.4329848761479782, 0.8283432439309361, 0.0518600808907248,
          0.3396542339598070, 0.3666167099280712, -0.3856198596733475,
          -0.1523773835308254, -0.1312486076833966, 0.6253121504565433,
          -0.2665384402346189, -0.6981675518856433, -0.0636557195308868,
          -0.7247142837051638, 1.8826971366589511, 0.4096569995880212,
          0.8007228892859088, -0.1161134414778676, 0.3093140561418551,
          0.0216699948421279, 1.8087702308643701, 0.1315248460975036,
          0.2700216232481851, -0.1284488141614444, 1.0164047881235356,
          -0.9732527104238786, -0.0362569612383061, 0.3145477489212179,
          0.4640230463335076, -0.6246499790838846, 0.1264402784422357,
          0.2302488441686400, 0.1038358813876380, 7.1023427580691779e-03,
          0.4245093582347707, -0.2822786358647551, 0.2287381977641273,
          0.4344032927483407, 0.0598667390859116, -0.0997300332922714,
          -0.4864315575809081, 0.2626959845841427, -0.0374375273327705,
          -3.9171264643107402, -0.2442786847546820, -0.8814359063726656,
          -0.2582707149728423, -0.1204891317608940, -0.1133536938696675,
          0.2938115297667765, 0.7352577758269413, 0.1006094735122676,
          -0.5128845854602684, -0.3429965165796030, -0.1754165512212188,
          -0.6082718471174258, 0.0408619646811426, -0.6087065469470052,
          0.0540209761041801, -0.0710171473375122, -0.2519376468267522,
          0.0269334427273781, -0.1005963581804092, 0.1974207647614974,
          0.1481526564446917, -0.0471671430541531, -0.1812129359187048,
          0.7141849246988469, -0.3343683067721739, -0.3108359250979154,
          0.2207197374680273, -0.9669027645467732, -0.0215891893939785,
          0.2620221617424935, 0.1157207656458640, 0.7950398053854366,
          0.3436745213428863, 0.7658583759076507, -0.4025874209587712,
          0.0715505709493551, -0.6184462564290142, 0.5623895290251404,
          -0.2238562106820137, 0.3808742614746396, -0.3794897137549212,
          -0.2157125933944672, -0.2447155864140411, 0.5240445410276070,
          0.0719369970021841, -1.7603528404719941,
          -3.2168443972583173e-04, -0.0844353088609854,
          -7.5303842775694756, -9.9396638640193262e-03,
          0.3379990952986370, 0.2382897711267441, 0.2971103277907357,
          0.2693489131891125, 1.1769430513555297, 1.2097897142029375,
          0.2549036107751460, 0.4220335365790659, -0.3910592971536094,
          0.1874410318676528, -0.1535212097166606, -0.1420024773644239,
          -0.0740752130962959, -0.5775214317400308, -0.0810027520213167,
          -0.2896987805649683, 0.5463326844827177, -0.1485008186276348,
          -0.0462301233599577, -0.0926387357441435, 0.5112916890651151,
          0.5087829768776003, -0.0850755853812608, -0.5812249352400445,
          -0.2189613942644230, -0.1737416843906809, -6.8611209676966958,
          0.0168104397320743, 0.1886253672636021, -1.1049432648805186,
          -0.4937184312451341, -0.4861778346103012, -0.1338654853730513,
          0.4056978048479001, 5.1818351370758343e-03,
          -0.3770511428719732, 0.3453174913416966, 1.1505649092319115,
          0.4035624283610066, 0.1220029230657958, -0.3623684323353494,
          -0.2297167848888898, -0.4823310205583764, 0.7661635309060322,
          0.1151011077708900, 0.5735980029584304, -0.4763288338916094,
          -0.0410989407451609, -0.4411126372837735, 0.3013514395574638,
          0.3489595909385154, -0.0954595423168703, 2.7406698733768224,
          0.1880501285104885, 0.1660400204735922, -0.5538656489701340,
          -0.1792931117743843, 0.2282672973510846, 0.8035341059581158,
          -0.2006177595407742, -0.0378577725933906, 13.9416064593968940,
          0.0332093528389767, -3.7836539700008302e-03,
          -0.1540167324998165, 0.7884749283322977, -0.1018701805359918,
          0.0927095641257166, 0.2219464361813712, -1.2120981758685414,
          -0.4929541014118055, -0.1621468178789219, 0.2174759421064804,
          0.4851718316577471, 0.4119711230440172, 0.1603786258618338,
          -0.3232523187198124, -0.4407140935183378, -0.1750497048483599,
          -0.2785885999455409, -0.0148059330477759, -0.4197771053932237,
          0.3483555683336174, -0.5161056187908811, 0.4267033752170198,
          -0.1451975783917385, 0.0209106995718905, -0.6658676141596512,
          -1.3280576195868006, -0.1618618126184143, 0.8874726375985195,
          0.2947942924013412, -0.7193500538106371, 0.2690095032072445,
          0.0602478119457188, -0.4479445183276399, 0.0562596809309777,
          -0.4840724687838225, -0.0443089507027324, 0.0178244155992026,
          0.1243244909173794, -0.2874665163280932, -0.4787406751756931,
          -0.3094742466783251, 0.1216910937274536, -0.4301724115594130,
          0.0789329321094431, 0.7934646920784030, 0.5287194031057640,
          -0.3458769529203150, -0.2375118561750961, 0.4418274015466326,
          0.0922942646408395, -0.1425811811441300, -0.2526522836992751,
          -0.8165674216347654, 0.0811489273436097, 0.2338330267994862,
          -1.3508191344838283, 0.0913830829289281, 0.2511068310067587,
          -0.3322950855770356, -0.5823702157175993, -0.6583028747831565,
          0.6190740259822339, 0.0717665015419674, -0.3249146143023006,
          0.2674244460632489, 0.2527894590419106, 0.7142689735259151,
          1.1181036669311391, -0.3700498401799783, -0.0966466260566220,
          -0.0173364992216107, 0.8137359487552598, 1.0649093525297826,
          -1.5794116750342824, 0.0129173065110056, -2.8302985204686313,
          0.2297973572555856, -0.1694728532660139, -0.9620865979331431,
          0.8732314097127405, 0.0843540600494661, -2.7720194701794840,
          -0.8613474043858370, -0.0913866921324492, 0.0218443794001186,
          0.4676127681858666, 0.0812226243516907, 0.0203744962796827,
          0.4623257066396989, -0.0663035957339267, 0.0348988479513007,
          0.7060635652985290, -0.4294133202850617, 0.4427533169757558,
          0.9081755862326862, -0.8763985402956627, 1.3599562622514951,
          0.3015703275464233, -2.2151137537377115, 0.2204322175043374,
          0.3589780067121305, -0.1173351444059443, 0.5522667452788489,
          0.0964500581509762, 0.2812825101621457, -0.2636957493941468,
          0.2264492774650372, -0.2837826446998886, -0.7504341081503982,
          2.1437320655779284, 0.6372438802714003, -0.1574656579180666,
          0.6365634996627079, 0.4915456355302468, 1.1450586915005496,
          -0.3456086211231906, -0.0561519464671496, -0.6366698259877228,
          0.4515646104523306, -0.3347390695257451, 0.4558495451337559,
          0.2580049710628440, -0.0519898732488800, -0.4121050958708929,
          0.3829140193192530, 0.9987885332438879, -0.2565970339211086,
          1.2202250284904306, 0.1263697429442318, -1.0522658378577794,
          -0.0124007214107726, -0.1477780952136520, -4.2490142530318833,
          -0.0468940973937327, -0.3719591483982719, -0.2455660799423163,
          -0.1806169000665907, 0.1289878370658915, 0.7686781269521665,
          -0.1521527072235014, 0.4518861240485088, -0.3338414492758477,
          -0.0762199992795029, -1.0040641142824491, 0.3561748454882130,
          -0.2712773189496549, -0.5233229721237536, 0.6315948401576883,
          -0.2190885668045353, 0.1570186682786733, -0.4732892113601286,
          -0.6032380086484168, 0.0488777298108204, 0.0227059192119698,
          -0.0256312149012546, -0.3500611737195168, 0.9039503733222567,
          -0.3214423116658485, -0.3708306918813496, 1.9145919632107924,
          0.3836682883007743, 2.1502072629809534, -0.3170591367311844,
          -0.3871026678047632, 0.1064946444818514, 0.1200125104496453,
          -0.7606768988887864, -0.2557126810159212, -0.0632963560467794,
          0.6154302930957291, -0.0795813524960678, -0.4726720892614622,
          -0.3896221432764533, -0.2040483030250495, 0.0967610175228935,
          0.6613105299730727, -0.0652794809038770, -0.5441298189637425,
          -0.4673678841665426, -0.5432229517283672, -0.3921273809005816,
          -0.3197109090024904, 0.6616286232364536, 0.8589051446114184,
          0.2086127550642523, -0.1718560300222973, 0.5554033868644598,
          -0.8402307204744420, -11.5618676789769328, 0.1863014652023944,
          0.2886520549048792, 0.1818155484324685, -0.0107644802868105,
          -0.1489745983170344, 0.0841208275645789, -0.0879334882347541,
          -0.4250591996113466, -0.4245609770134881, 0.2140894768577860,
          2.6922515708584882, -0.2035476230217907, 0.2241356475475967,
          0.8499265254572157, 0.0840361852103549, 0.5104666652419420,
          0.2698408636736714, -0.2999185814365560, -0.0134869341372527,
          1.0007448400233572, 0.0399584779751915, -0.7130607867004074,
          0.2090489948506885, 0.3094533982394502, -2.8856040280282280,
          -0.1185973570456284, 0.1704890518233493, -5.1548955987986211,
          -0.4655614182294867, 0.5376529918135350, 1.0445257090122479,
          -0.1800291470684153, 0.3739120071323152,
          2.2707468863600762e-03, 0.6898568298343899, 0.3042152063341395,
          0.1440653871585426, -0.4011236053511301, -0.4085524112623454,
          -0.3979062897898696, -0.5490529537836010, 0.5540517594007466,
          -0.3621460789820501, 7.6764591729844428e-03,
          0.2541761859301319, 2.5471933251716492, -0.9356067447598384,
          -3.3337393390068866, -0.3838748753563032, 0.3023121619814635,
          -0.1749642673441698, -0.2701247237345973, -0.2628038013949591,
          0.7408960781885749, -0.9730051994002163, 0.2071388098034525,
          0.5336683794605287, -0.1430435990217573, 0.1917773916830441,
          0.0633135064055529, -1.3058462502973966, -2.3554082768685767,
          0.8807786076840943, 0.1897630272958493, -0.2840013457786894,
          1.5717544659032450, 0.0744289843437044, -0.0858458425055447,
          2.5442114076522195e-03, -0.8578834228633884,
          -0.2265737248143161, -0.2748774429539899, 0.7462148466196104,
          0.6905925082877024, 0.1362213298031209, 1.4834566295939224,
          0.2254014663350489, 0.1943485303708888, 0.4228800048670382,
          0.7223498978353871, -2.0086540576948981, 0.1719720917089967,
          -0.6333151396962116, -0.2552506848547099, 0.4417391952477644,
          -0.2288117219184069, -0.2710705429446050, 0.3246671116679903,
          -0.4001347231906168, 0.5125546419985652, 0.0459960085371024,
          0.2723848249638295, 0.0646332832613065, 0.0452285317380318,
          -0.2696093098672392, 0.0381442814097300, -0.6726521648741053,
          0.3070878377811597, -1.2246980709730062, -0.3429196404381502,
          0.2187843224713557, -1.2082612254256162, 0.8997719329481759,
          -1.3900907061404095, -0.3911362602897427, -0.2400409354851844,
          0.9550556562089884, -0.0403118797436475, -0.6871665916560303,
          0.1825345874206766, 0.0583137006178312, 0.0425228284072325,
          0.0389172937890476, -0.5706609294103654, 0.9452371549773999,
          -0.3480681062397771, 0.2362463349690471, -0.0460217896946176,
          -0.0330787344501777, -107.5161515927465103, 0.1150120079090152,
          0.5506231787961811, 1.2317230977013807, 0.4105712945808970,
          -0.0473149777055177, -0.7600354063814144, 0.2967220240411738,
          -0.4082268015603960, -0.0645547689236946, 0.5938011334515634,
          -0.2282518118984623, -0.0782395022916673, 0.0753094683504141,
          3.0050652763066585, -0.5464694997405561, 1.1056313852410633,
          -0.8222311108928360, 0.0340339290704861, 0.4304201556884543,
          -0.5966581778970190, -0.1634083491475161, 0.2060724843256797,
          -0.6857148027144204, -0.6014094549905888, 0.0565611922826642,
          -0.7522909720785665, 2.3145246067336349, 0.1670737699872289,
          -1.1348946721677409, 0.5176527229766515,
          5.1721601889321133e-03, 0.0147029473266428, 0.1452857601911973,
          0.3261743475413151, -4.9669394616540579e-03,
          -0.2129581090169301, -0.1140878764801822, -1.0195795400620069,
          0.1115724712127269, 1.4988165984544488, -0.3754841141752494,
          0.2924695324640243, 0.4425502084632859, 0.5140487088278313,
          0.4478139397582305, 0.2465177535604660, 0.3573962284063261,
          -0.0512158811061899, 0.6326071705284134, 0.4887436049255676,
          -0.3375481375284676, -0.3623278494080964, -0.0110852517646158,
          0.1436607376862706, 0.0433480090147384, -0.1320568845234291,
          1.0862724745142094, 0.0371090968592011, -0.3780615820925022,
          -0.7785809483264103, 0.3755069737448475, 0.4049734139879592,
          0.8176064238843539, 0.1285375673150353, 0.2824562022061241,
          0.6230410403329535, -0.8224604419061516, 0.5718957549140924,
          -0.5331652783853521, -0.7118768192071565, 0.2559842114003080,
          0.0500718413822615, 0.4831693607917620, 0.2977088570543659,
          0.2297226264620316, 0.4426570506101305, 0.1054101697176728,
          -0.3701485926180126, 0.0864860384117146, -0.4197932805806445,
          0.2468082628988962, -0.6664669965362618, 0.2546393818794918,
          0.1779392720577073, 0.0949115470440573, 0.4357553746765585,
          -0.3662670556142859, 0.1407991527071170, 0.7146609615192340,
          5.4114180446622600, 0.4175362196965000, -0.6312598956962403,
          0.2103790071140101, 0.9310355459326520, 0.0737139843573534,
          -0.1013046156971633, 0.6956925084080962, -0.5120471079811943,
          -0.3278965037691898, -0.4202009524656188, 0.2691204273138713,
          -1.9452418811799987, 0.1412728164245553, 0.3211942284628013,
          0.1000259968556786, -0.1077142097435795, 0.0322107042339584,
          -0.8321003202033368, 0.1297723111560754, -0.0494659347028068,
          -0.2048901526347618, -0.0933594280115844, -0.0126485437599889,
          -1.5943905237322509, -0.6602603207915311, 0.1599876723154005,
          0.9476289182081215, -0.1482348437435107, -0.5326335804198430,
          0.4559508410178356, -0.6384669283506892, 0.1698522337833594,
          0.4563948868133333, 0.3588798710032788, -0.3263785245713351,
          -0.1063609180703979, 0.0798599877043162, -0.2378705284772199,
          -0.2595254326699629, 0.3418523459180038, -0.8599401317695631,
          0.2570967101258409, 0.2703167243714746, -0.2582600698923031,
          -0.5474544633746624, -0.1850767029497190, 0.0742740227619695,
          0.0249040956028221, -3.4112125923871988, -0.0148610839180989,
          -0.3002614167228071, -0.4445209879473259, 0.5683819090395850,
          0.6828936922313441, 0.5784796149542870, -1.9394629448344356,
          0.0897345597171439, 0.1973128254827291, -0.7038575032046481,
          0.1741168231210348, -0.4916303525000725,
          -5.4970902078617630e-03, -0.2762297198471333,
          -0.2335802705265537, 0.7993310983561933, -0.2854823788731223,
          -0.2598956832306686, -0.0714447587196334, -0.1325866346931828,
          0.9050708421209988, 0.4169958933516086, 0.6577702446306443,
          0.2635288807663920, -1.5979629991696582, -0.4951734552063141,
          0.4706029593382085, 8.6357328412148711, 8.2087303422294037e-03,
          0.6444440034044147, -0.5799794931907037, 0.1213152529888831,
          -1.2639013252066189, 0.0469366021626755, 0.0748053856583246,
          -1.0801456750572580, -0.2102082461905280, 0.5552078807244228,
          -1.6409602164538388, 0.6970196420449567, 0.2387934174957879,
          1.4103076280166227, -0.1491561031342333, -0.7993170830278837,
          0.0636776342851766, -0.3305564538743966, 0.7896427248153680,
          -0.2007638007074401, -0.1999397135416805, 0.0940218186581313,
          -0.0691033311353765, 0.3581302091219074, 3.1472885558181640,
          -1.0282719277293337, -0.6925968841603305, 0.1990135306730336,
          -1.0705878395987090, -0.6289431537120632, 0.1534501576635464,
          0.2142121070646323, -0.3298826462669082,
          5.2720725405848217e-03, -14.8828353124815749,
          -0.0791006915517570, 4.7072095267062441e-03,
          -0.0338490045300140, 3.4508482536013871, -0.3682001054892015,
          0.2978967489231816, -0.9540704737968636, -0.8996822226023367,
          -0.1090091057991948, 0.0202948918657693, -0.3682996203668576,
          -0.2524549725542241, 0.1117944820809336, 0.2251504251509738,
          0.2704754649241489, -0.7573502200151799, 0.7099949841752272,
          -0.1531180661050474, -0.3159096229999354, -0.1733791406059984,
          5.4379295965086252, 0.9109532379452427, -0.7742079088547669,
          0.2755873558351012, 0.9066784120070221, 0.2326471156029561,
          -0.1789089196777305, 0.6847756057481661, 0.2531277801172083,
          -0.4270554728156621, 8.7505508087945966e-03,
          0.6274742920932882, 0.5822430487410384, 0.0395705447354109,
          0.5954444590410877, -0.9379675801714078, -0.0575477205077423,
          -0.2856360131161637, -3.5036100015957925, -0.4757498970157397,
          -0.1635149252679767, 0.2988769027258976, 0.3490198177115708,
          -0.2683810490326187, 0.2207347334638693, 0.1357370914227573,
          0.1469510911995063, -0.2136634459625864, -0.2536553508070970,
          -0.9527548826562039, 0.3603829231617293, 0.0746204716016070,
          -0.6049326964364788, -0.2353539748057220, 0.3663936642213291,
          1.6949952288851635, 0.4609508044740585, 0.1148230566485108,
          -0.1850387704605250, 5.4790768753347121e-03,
          -0.2398728593786464, -0.3839855212250944, 1.1347613333174236,
          0.2580598663190101, -0.3275111571568937, 0.1251297148161066,
          1.5021234921253850, 0.4021648649842063, 0.3353647160002863,
          0.3368571137506862, 0.6538995325560841, -0.8199377425531089,
          0.3122252287182888, -0.4117773586521452, -1.2387082498586861,
          -0.7405989733317372, -0.4629323515426796,
          8.8568902299986842e-03, 0.4652426586053646,
          -1.2667384380726070, -0.0642050457719797, 0.5670468603149396,
          3.5337977808494729, -0.3154471050382142, 0.6122607364502654,
          0.4031687462305604, -0.7738369492330074, 0.3177208014166130,
          -0.4406469372037916, 0.7021248301730055, -1.1122147597593841,
          0.0251013883426311, 0.1443790604574261, -0.0446237094291298,
          1.7833532409854058, 1.4293429312598214, -0.3975741493019806,
          -0.0991156774772121, 0.1308809056322685, 0.1468727588678053,
          0.1774359728507343, -0.2306412926340240, 0.2850158378086298,
          -0.0149790720352373, -0.0911333001792972, -0.6653548895250651,
          0.5744006835919964, 0.0241488497835273, -0.0122357492856761,
          0.2114853564110180, 1.6359857937887463, 0.3441872961891038,
          0.1786194941561209, 0.4184015579684732, -0.7777998215389333,
          0.0385734520649230, 1.6900074031474737, -0.1366763779375840,
          -0.4711357476155492, 0.0300829851543546, -1.2374673392181521,
          -0.0633061279107313, 0.2957933666643381, -0.7928430318336865,
          -6.6972464677830289e-03, 0.3631860699129563,
          1.3460022685667068, -3.0684556986573935e-03,
          -1.0016166622685798, -1.0218423908807426, -0.7287250413563204,
          -0.5828126214033840, -0.4461870491289377, -3.2158826864134333,
          -0.1066241095198257, 0.0334474895657842, -1.1017909341590435,
          0.5118767817694654, 0.7613161134448259, 0.1704563994038875,
          0.3257428422831761, 0.2380390717726102, -0.1595175413637096,
          0.4408367050836426, -0.0777921742332680, 0.2200613916083803,
          0.2114977817157958, -0.4537563152119308, 0.0453258263266244,
          -0.0774909370332824, -0.0698093257298054, -0.4076533748455999,
          2.3965851252414061, -0.0819256692418964, -0.0290804081887390,
          -0.2682779857675957, -0.4804632560340441, 0.4454115142299662,
          -0.1370345460239217, -0.2613396560190622, 0.2406605547360308,
          0.0515928454247448, -0.5286765039060434, 0.4372990291226033,
          -0.0529637588987410, 0.2894244875024859, 0.2872912380220629,
          -0.4584266931750041, -1.9557124189606316, 0.4903105333577005,
          0.4303878040686158, -0.5475018524368291, 0.9583649746809380,
          -0.3695168942940874, -0.6155371123137259, -0.1920455763674056,
          0.2190730021373052, -1.0042359938993188, -0.1788726180071608,
          -0.1508739434848574, -0.1276687864777508, -0.4524178263632529,
          0.3267312379869164, -0.2270040660074565, 0.3635616829353255,
          -0.1310306800634243, 0.0731663110947736, 1.1958070708650450,
          -0.7676670328084141, -15.0630823697827463, 0.1053109808088582,
          -0.5496500447065307, -0.1392032892729820, -0.1148951703543467,
          -0.1524598310881673, 0.2696365917669069, 0.3800739606563033,
          0.5035654264299425, 1.3089776859997990, -0.8535544469390115,
          -2.5016931966273814, -0.7266949577106954, 0.5747639748651402,
          -0.6404706879893236, -0.6458942882861878, 0.5736485019909769,
          0.4467425627298721, -0.4335311082629453, 0.1462358763981954,
          0.9666600972485873, -0.0490866053371390, 0.1409518316211761,
          -8.1135139553474844e-03, 0.0973244349707060,
          0.6800393577514129, -0.2556467535814666, -0.0648565784132130,
          3.3783865071436039, -0.1550270076108915, -0.1573597633759476,
          0.4511542172592551, 0.0544518477844889, 0.5736654832984773,
          0.5266813620600981, 0.4336906753094909, 0.0190926711437562,
          -4.8458918220628453, -0.0459524737650589, -0.6232681015266576,
          -0.9613143750561610, 1.8590832020652419, 0.2652638670101071,
          -0.2321087969100179, 0.4921189138822948, 0.1638927882137647,
          3.5458264148924088, 0.1037399771824061, 0.0838792333393152,
          -0.1254098858070054, 0.3971916673004028, -1.2556984978932439,
          -1.9400194911782531, -0.0661599799730584, 0.2887030628504111,
          -2.2841342543441430, -0.0544820213262388, -0.3662395343735766,
          0.0753160362431047, 0.1741118491846584, 0.5087790335163173,
          0.5302339720406593, -0.5869190607090973,
          -8.1635100782312953e-03, -0.2229104450903062,
          0.3406874113226870, 1.2717671395831280, -0.2938664961766864,
          0.3189340086603712, -0.3651599454613382, 0.8063452107962926,
          -0.3312712434538509, 0.0755640446332375,
          5.0249079910810387e-04, 0.0169128628474404, 0.2826947724904040,
          0.2591224147411458, 0.2231718832884928, -0.2786059587241399,
          0.0213743228822504, 0.9436721129780267, -0.8781740612727474,
          0.0566522264309164, -0.1566743522870493, -0.1020032878864160,
          0.0607447921833740, 0.3352974865050860, -0.1182461274720213,
          -0.2100690339156517, -0.1015843989937029, -0.2093182792686539,
          0.3054672924758117, 0.0170546626951279, 0.0376162994234243,
          -0.2407873784022845, -0.9364974974706544, -0.4193501072430999,
          -0.5684229879598058, -0.6506113797595481, 0.4680490395183222,
          0.3214698862208518, -0.2442995851880019, -0.5495854904813378,
          -0.2194333919295186, -0.5013692280739200, -1.1395349126662111,
          0.2347003642046154, -0.8263895728305443, -0.0378304679674797,
          -0.0808974176910934, 0.1143493894242707, -0.1054239330225668,
          0.6892078295884243, -0.2982309819319897, 0.1792253250607030,
          0.5826217643934819, 0.3614395925647153, 0.2426989492649748,
          -0.0172512902496973, -0.0557117452597297,
          -204.0461656338297018, -0.0833829511289080,
          -0.2499666977179522, -0.0818132386454644, -0.1435351467164195,
          0.0418296838283750, -1.7278383073445567, 0.4851142297911489,
          0.0327524619326337, 0.6474506921757213, 0.3865293006434522,
          -0.0296881908104101, 0.0332810872927126, 0.6022029603299015,
          2.3248071612256500, 0.3175546906892509, 0.6504417652094343,
          0.0611210369028760, -0.1741544503145150, -0.1944330564421616,
          0.0951109327532179, -0.2738172867309658, 1.4166613430520054,
          0.3035892418998511, 0.3787787972845368, 0.9369601688364743,
          0.5464153184267362, -1.0915837503404515, 0.1668854175747382,
          0.0508372215415771, -0.4261561038687992, 0.2715833060221993,
          1.0131923616847307, -0.0801604533799816, 0.1986677820887023,
          -0.1517786647742471, 0.1116927857276078, 0.0823535025607170,
          -0.8929600996007017, 0.4164812829461359, 2.7546766828989786,
          -0.1995778330426003, 0.7351838755825278, 0.6540630899244569,
          2.7515261487563012, 0.2360829570424894, -0.7300029863011657,
          0.2889137562173285, 0.3512425285880113, 0.3452107241199866,
          0.2300511736583132, 2.1105537328114599, -0.8684523622203733,
          -1.8864633617192725, 0.0743386596370623, -0.9724136619002639,
          0.5505202705437117, 0.1017294229751070, 1.1407560759299602,
          -0.3728056285198386, -0.1400894088292943, -0.2881072143149183,
          0.1852656355801596, -0.4323928673577352, 0.5771138676667198,
          0.5195697843881105, 0.7359922883602638, 0.3556557649530271,
          0.0855522874632348, 0.1388828096002831, 0.3823829053758821,
          -1.9800347554352375, -0.1333237230995306, -0.2923483121090207,
          -0.6881877694139350, -0.0925800254074461, -0.3541056551848948,
          -1.0607850330107138, 0.6725499055825939, 0.5501846225893042,
          0.0674981856350846, -0.7265253621059872, 0.6104935245112671,
          -0.2330588116204311, -0.2053713709384407, 0.0646649632558433,
          -0.0974925356058183, 0.0943218485545915, -0.3877139836480500,
          -0.3426106351615485, -7.8465052862637394, -0.1354583299147173,
          0.1833954484195458, -1.1418563917626361, -0.4294191311142685,
          -0.2095597700996047, -1.3967596325032419, -0.9876080516370013,
          0.0469652973853621, -0.8915299059631592, 0.3220129845837393,
          0.6056356208989578, -0.8690462473338550, -1.7976093390302561,
          -1.4940242499310949, 0.0481639583141785, 0.0614990160776324,
          0.1727790867089314, 0.5287035263361748, 0.7374459044515743,
          -0.2929813162441986, 1.6928123674764404, -0.0130079941097469,
          0.1343939096486580, 0.0868970353840535, 0.1105656136054279,
          0.5260913027725209, -0.1590208096800121, -0.1378807997271666,
          0.2548625206214556, 0.0350513061845354, -0.0615873516230733,
          -0.4969403233117466, -0.2551260014702137, 0.0620913090874435,
          0.2490729448141756, -0.7928517004486501, 0.0601374828504706,
          -0.2894933154822774, -0.1959592574048556, -0.3650159094882558,
          0.5661249821166173, 0.0451132487527954, -1.1480476940387205,
          -1.4600237726151457, -3.3731598186210938, -0.0289370421689826,
          -0.0109385705196693, -0.0298809033011795, -11.8991845505165461,
          5.9540334314938190e-03, 3.4664935941913400, 0.4413299396072417,
          -0.1787742220988160, -0.3547455697753297, 1.0685699832726157,
          1.5825221716007896, 1.3132285945380282, 0.0626946305309039,
          -0.2615904010587131, 0.5037244921475782,
          7.4771459239979070e-03, 0.8511605543980597,
          -0.2305751364501212, -0.5431953814714643, -0.1041599274303157,
          -8.3922789509925026e-04, -0.4769275620706569,
          -0.4976094217747536, -0.0232129737355928, 2.3836486798793022,
          -0.1382240655194037, -0.1166782763011342, 0.3314558330679986,
          -0.1268863248301059, -0.0535116043117576, 0.4715724235705430,
          -5.0559033982496713, -0.0726405537204098, -0.1958309399548769,
          0.4329654374155946, 0.4304259622304413, -0.6732850573366184,
          -0.2045135010669973, 0.2453363716384322, -0.2641326500329233,
          0.1807291029502116, -0.5445370310710673, 0.3103630153737674,
          -0.3340956734197079, -0.4570551540998188, -0.6258701211005128,
          -0.4792450434175485, 0.5159569067738349, -0.1432936958831801,
          0.1832210794773975, 0.1005394416690737, -0.1011763120403975,
          0.2386757192826426, -1.2135786152024781, 0.6982130130900698,
          0.3350130867543075, -0.0284500934851068, 3.1028227970904698,
          -0.1305184905497399, 0.1452456724257225, -0.7156990012841232,
          -0.2509409398838161, -0.1020241404332830, -0.0682696257154946,
          -0.5917004350381426, 0.0895872644038903, -17.0038459728619351,
          0.0545007541275586, -0.0610556369099291, -0.1058333942820818,
          0.0415425386516548, -0.1125078640246090, 0.4072097959235927,
          0.2262240030190234, -1.4546457299984827, -0.6781126495119102,
          0.0178314766406201, 0.2251067556847917, 1.0446835914014323,
          -9.4614784643483017e-03, -0.7238846743823875,
          -0.1365865123829625, -0.0447858748157561, 0.2854410438573719,
          -0.5324974655478657, 0.3445529728889280, -0.6150800862846697,
          3.5114764898945312, -0.7014451412028911, -0.1693364617588434,
          0.1308701998591816, 0.2334130422923536, -2.0437033011555044,
          0.2967577898267332, 0.4818710995827020, -0.1782141494320937,
          -0.2514880048646093, 0.0738975554194358, -0.0598612129636569,
          -0.0418763180902750, -1.0380931135991542, -0.1362813371528734,
          -0.2036908480141172, -0.4876364835103549, 0.5824568039128493,
          -0.1605338403654794, 0.0198474114155225, 0.2850782592186208,
          -0.5481589738127011, -0.0682506064592436, -0.1467534496129861,
          -0.4789880333254348, 0.6606868033400644, -0.2757349556801710,
          0.7979649073268238, -0.0421081740195168, -0.0760971027720593,
          -0.4702894335850623, -0.1427066962307041, -0.1306942112251640,
          -0.7691338006501361, 0.1850579493145966, -0.0885732060611502,
          -0.1165223309046617, -0.4931349451240847, 0.1934016911804089,
          0.4245301970977188, 0.3347844430275294, -0.0333664697804972,
          -0.1522816238518765, -0.3855319926119732, 0.0777214876041961,
          -0.0238764906595148, -2.1344925769040159,
          -4.2250573027406780e-03, -0.0657610938243656,
          -0.0366035618725985, 1.1267267277869526, -0.1450056866480822,
          2.0316955667646872, -0.3253006626134393, -2.4462703717628358,
          0.3836879670627295, 0.4782333777273651, -0.0711902649366893,
          0.0808969073611017, -0.1155677922567367, 0.9689854850776243,
          -0.0965457976274549, -3.8317921676762787, 0.3539682273464581,
          -0.2042080020423316, -0.6237490372544832, 0.3934621643120426,
          -0.1361259402479230, -0.1057844436749381, 0.4594158599348775,
          0.1605315210969408, 0.1209922059075781, -0.4986488296029045,
          -0.0848514176153660, 0.1906635562080935, -0.8913157176746273,
          -0.5028441625611086, -0.1972495401787940, 0.1194102059587969,
          1.2042072116063394, -1.0405142871915782, -0.3701690910391499,
          -0.8134792512014898, -1.6264264984168009, 0.4607398600247160,
          0.1280011085113589, -0.5194412466144801, 0.3429116842296658,
          0.0315371356504718, -1.2795921889603099, -0.1330203041879279,
          -0.2297855148673673, 1.4019825335849940, -0.1600103122732392,
          0.7623971248682132, -0.3414864707105065, 0.5783442407480686,
          -0.4449604511393564, -1.0135889222486869, -0.4641238854537860,
          -0.7283131488067676, 1.7906291140946606, 0.8385926984670978,
          0.2458862008071750, -0.7279718649302220, 0.1133886460163826,
          0.9646525382067512, 0.3924288446532568, -0.5743508254664085,
          -0.1976151617515188, -0.0637079662869571, -0.4238096587657495,
          0.3854717019156105, -3.2975269194640369, -1.1976489121975786,
          1.0568230688795621, 0.0746576363359078, 0.4436737765625487,
          -1.1416963887223777, -0.3392527233134726, 0.5365893338916379,
          -0.2319365448521096, 0.1355405567746479, 0.5415952891778533,
          0.0615049713641133, -0.1080983519941485, 0.3603291283671103,
          0.5854771283163643, -0.0853667121987764, 0.0954706320687459,
          1.0115089813965226, 0.0131581614740309, 0.1102845708945800,
          0.2594271894447651, -0.5549307910873528, -0.9121758467620145,
          -0.1719041975210900, 0.6596930069509749, -0.7641251588171427,
          -0.9371472869211742, -0.4315811694035299, 0.1988838344050644,
          0.0455722569329136, 0.3249072103164224, -0.9553769085529877,
          -0.2330024855330818, -0.0980405797528625, -0.2525357682700239,
          -1.3009326632571487, -1.0173222446561316,
          -1.8178220074390027e-03, -0.4634406866409745,
          0.1133307506987278, 0.7247732189733165, -0.0339395650250762,
          0.1056571401353817, -2.3945968083714306, 0.5157512127170859,
          0.4761030212366016, 0.2481842259618233, 0.3459585389403579,
          -0.3287251277396353, -0.1297300240460473, 1.1268249137656909,
          2.0647210620254728, 0.7754429006755952, 0.0732188670608342,
          0.2838351210254668, 0.9614237939670216, -0.1212287546207688,
          -2.8406624192531535, 0.4141559078945053, 0.3860459074918293,
          -0.1223814988105930, -0.5320051161415803, 0.2724733215216580,
          -0.3992465172730024, -1.4489205092163104, -0.2791476195571799,
          0.2219377740039768, -2.4533432264092245, 0.3867444707200902,
          -0.1603510350005548, 0.1381067301178017, 0.3651993177385985,
          0.3333592243525252, -0.1348731850356495, -1.1027323386373640,
          0.5158789994018829, -8.7643603145112128e-03,
          -0.0765006032485707, 1.0117399008320760, -0.4240426042596253,
          0.2923142631445455, -0.2856720492821452, -0.2634617811014832,
          -0.0443222041623452, 7.4827803266117154, -0.1983671679584498,
          -0.1955423726701175, -0.3012765552470417, 1.0401148212722617,
          -0.2389967740936743, 0.3481510607689000, 0.0235803144205184,
          0.0381018139942777, 0.6613163758463820, 0.1125786916739031,
          -0.8902946489456792, -0.2680030263106906, 0.3878321759742486,
          -0.1967034851619360, -1.3329616344982320, 0.4249882837852266,
          -0.0820880434659499, -1.9487181057578171, 0.3350078946398127,
          0.1498406086552346, -0.2413594679545613, -0.4841076790644179,
          -0.1445692608334337, 0.2945565308685975, 0.5257879562286069,
          0.9676441786634281, 0.2592588793474986, -0.5513123464347406,
          0.9332292490651193, 0.5139693068554813, -0.7611885205151677,
          0.0409460808877869, 1.1351289052663796, 0.0278896213923694,
          -0.9550902074522899, -0.4689007269915350, 0.5260515963204634,
          -0.8880532139973353, -0.2872156435129538, 0.1128698999393439,
          0.3412873475669004, -0.5220718680264965, -0.7396394283556215,
          0.3018811524349388, 0.3858051413555393, -0.2065575755990497,
          -0.3822649918385149, -0.4278275410450739, 0.3432014742789621,
          -0.2488755854595894, -0.1804105025788842, -0.1479011660958573,
          0.0702564945765943, -0.0838597064285621, -0.3737623808847202,
          -0.0431205786199863, 5.5643870176603919e-03,
          -0.1670204702479613, 0.3664371537285876, 0.2300059526203485,
          1.2198463171645371, -0.7033625937568401, 0.0767725026120436,
          -0.1223460376108160, -0.1952200717579193, -0.2125315391950786,
          0.1661173649111134, 0.0649264286384208, 1.0059212197772558,
          -0.0220266327498703, 0.7810599635756007, 0.3101605387330826,
          0.3066378931367931, 0.2407992436555871, -0.1407129767161682,
          0.2059300655205076, -0.1787350750827347, -0.8050496744565846,
          0.2416654502158482, 0.0503409390142100, 0.2829001146056367,
          0.5086618147519768, -0.0415566183273670, -0.2504421931606650,
          -0.5938932248646623, 0.2792661779494480, -0.1424867721480548,
          -0.1423823567913536, -0.1074718744467953, -0.0493447291388562,
          0.0694279842567299, 176.0966511576842208, 0.1081609265066166,
          0.2568596754967413, 0.0666371465685877, 0.1092376408923021,
          0.3517926750770211, 0.4654624575310446, 0.0433534618724525,
          0.1424462964293974, 0.0301812419075874, -0.1227354654622277,
          0.2220162465651005, 0.1633143105002480, -0.0676438286308026,
          -1.0257426704327586, 0.4294340832112645, -0.0294673063374841,
          -0.7717637915767044, 0.6742969343774280, -1.4575797868462941,
          0.1638612562499094, 0.0548373304273179, 0.3212141984817716,
          -0.4530514505632535, 0.4587399990107615, -2.7929899578932127,
          -0.1373269266277051, 0.6186592650423843, 0.2194516289173382,
          0.1689384547798716, 0.3220444375257981, -0.4548211363574632,
          0.0556102252631659, -0.9357907020107471, 1.1116821514260273,
          0.4897472974216108, -0.1460913361118175, 0.0265382092978884,
          -0.8616639697571229, 0.2431692819280844, -0.3315991279765875,
          0.1939844805298232, -1.1626740809619320, 0.5817199805354526,
          -0.2887308037849339, 0.4227596723552109, -0.7084390537497817,
          -0.0821097081228083, -0.3193683695652341, 1.0399476444959175,
          -0.5767899100767894, 0.1254319859878768, -1.1662292681447812,
          0.0321612141825313, -0.3450472316816468, -0.2566330190004874,
          -0.1205931834341799, 0.0233986641864376,
          3.7096369537541994e-03, -0.3417281662672125,
          0.2347216058190263, -0.3062748128148266, -0.3629950545614558,
          1.3210172210043456, 0.0370995297397556, -0.4852245426985430,
          0.0547435389762991, -0.4108955435056316, -0.1222558554814802,
          0.0143985261708357, -0.1004892450215259, -0.6255769630394277,
          0.1388449666213100, 0.6933679237919810, 0.1049512356127023,
          0.0910710661309976, 0.2154735125824611, -0.0332756679764626,
          0.5969339088285162, -0.3355624523460307, -0.0849462894019614,
          -0.1559376835053991, -0.1510565004487859, -0.4463408846894388,
          0.2083412314622278, 0.0145679152976868, -0.0113419265340924,
          -0.3624570894762773, 0.2420067359064079, 0.5775880846212740,
          3.1158202313302508, -0.0635736806817974, 0.2474657055854489,
          0.5060609711106141, 0.0201971014765161, -0.2819388617556136,
          0.2073601901124847, -0.0701709446847126, -0.7439191274094933,
          -0.7622288657389042, 0.0624126890394604, -0.1665446916802248,
          0.1307649635511477, 0.2497574556022558, 0.5743828006837555,
          -0.3738353163465425, 1.3768397098714644, 0.4167752510877781,
          0.0129296068344828, -7.7959194927281388e-03,
          0.1060613946078402, 0.2971853302762388, -0.1386490982437272,
          2.1191445006493774, -0.0111034925636142, 0.2564529603478046,
          -0.6026599204465778, -0.0824217958316919, -0.4109048730979445,
          -0.1065118055981285, 0.0735828925617231, 0.6893799448017184,
          -0.5796359240309783, -0.2638995688629907, -0.5746028578415313,
          0.2770809347767777, -0.1045338129910851, 0.0318287192640254,
          -0.2015766106592175, 0.4022799356177890, -0.1327018218810279,
          -0.4012541108061174, -0.1163612113631649, 0.5842701763809363,
          -0.0348469292790578, -0.3417253109910522, 0.0574703596443960,
          0.0539068294024562, -4.1913677081202114e-03,
          12.1531621038820994, -0.0525378583095176, -0.8503932547824035,
          -0.0491413240146160, -1.0356580078926512, 0.1218351617592245,
          -0.7062626630506589, 1.6007941010919962, 0.6053591705935699,
          0.2022163291805399, 1.1424919627296053, 0.1945783535082518,
          0.9291472927295527, -0.1927409656093003, -0.3524322254039440,
          -0.1801158505890835, -0.1060992096631618, -0.2585490428421346,
          -1.5094853223782807, -0.1076033039103585, -0.9029218087520063,
          1.3197784031505504, -0.2185595799818141, -0.5270125144738188,
          0.0845624020641867, -0.0774610518628611, -0.5244641341436945,
          0.3064588616467911, 2.1519462488078434, 0.0633246334200405,
          -0.0801320129051134, -0.0247292759160965, 0.1276257048519463,
          0.0869180653682026, 0.4046286190939550, -0.3377379190386153,
          0.5921108289660815, -0.9656628827256143, 0.9764790392891330,
          1.7409304231716303, -0.0111328543471455, 0.0540423363702717,
          -0.4016940441512673, 0.1414346414352214, -0.0895202425253364,
          -0.0980627009576571, 0.5369368408567603, -0.0776737781767438,
          -0.0813824049180574, -0.8996040656186047, 0.0569436974280882,
          0.2851879480898149, -0.7808714887965085, -0.1396268560200109,
          3.1993925715195619, 0.2666645653933485, -0.2015572287113749,
          0.6215219999095772, -0.1055233727118927, -0.9167789634578984,
          -0.5517817279548214, 0.3316893005514778, -0.0482483059734720,
          2.1276780305288532, 5.9730253069107727e-03, 0.0759894136016003,
          -0.1849599403267201, -0.4960955661677827, 0.2994592608783976,
          0.2285017130360424, -0.1950824353024646, -0.4426993552614817,
          0.1548511352518835, -0.4875889178901199, -0.1770619470644240,
          0.0837776573395668, -0.3211406109021713, 0.4937034251274531,
          0.2120320706825558, -0.1678580730250254, -0.4112743855289052,
          0.0100718153992254, 0.6645410734896486, 0.6788697888154336,
          -4.7384490397191072, 0.6255098945861807, -0.5256335059704927,
          -0.1835266840164335, 0.2576616656564262, 0.4226156818222769,
          1.2072014178598789, 0.0841730636007940, -0.5661758481211600,
          0.0718673948718219, 0.1685402048910442, -0.0362135032187918,
          0.0296611209431965, 0.1982433211273751, 0.2128294019677084,
          -0.7184389834043385, 0.3118045683753792, 2.1009068338419867,
          0.2950908652967397, 0.5407853985296019, -0.9514417170787902,
          0.6570519558464323, 0.2359956704471660, 0.2180536195387076,
          -0.2262822249236013, 0.6430651627632955, -0.0655301052427202,
          0.0663231064012871, 0.2254211675895005, -0.6462272664502251,
          -0.4336666744560164, -3.6761155041267991e-03,
          0.1065546549538182, -7.4971464903442891e-03,
          0.0491387344432948, 0.4723546001245956, -0.7264950947312097,
          -0.0699155287766004, -0.8146541082366630, 1.1444859437977388,
          0.0400175836440122, 0.1289827700631688, -0.0273063238253923,
          -0.0462152960886392, 0.1594025985757579, 0.0169652139090824,
          -0.9221422197030595, -0.0733066099814275, -0.2410479730241485,
          0.0797789726923385, -3.3999844482642191e-03,
          0.2376482586178100, -0.6808368694835344, -0.7761101839030883,
          -2.6444236151106320, -0.0469512036697004, 3.2730129530576120,
          0.5273046112469610, -0.1307719842695904, 0.3785894297133516,
          -0.1777056760847458, 0.4915123834531008, 2.7419332687083440,
          0.2136915719601643, -0.5490677684874534, -0.4065853098883063,
          0.0762419115358039, 0.3624842116553429, 0.4223740079500400,
          -0.7805634156612873, 0.1311490157333653, -0.3554246933722390,
          -0.6921753580725567, 0.3293304573917950, 1.3806065975703814,
          2.7681984794436358, 0.4003540114744542, -0.3309207461222604,
          -0.7086675684460637, 2.3156480902818140, -0.1697784301111344,
          0.0423868286439796, -0.3193440238194088, -0.7076990291125460,
          0.3301170914019604, -0.9699181945895743, 0.1803082664754265,
          1.2044301827330395, 0.8158807247919523, -1.4749810654807805,
          0.2272676932199549, -0.6298604272944808, -0.0781118675232733,
          -0.5994291441521720, 0.3352429947735884, -0.2369973958023315,
          -0.1618813513910353, -0.4553987150263458, -0.9251623136619604,
          0.1441409557654216, 0.2899121124922528, -0.7446741610305132,
          -0.1330650358030001, 0.2909802088369410, -0.2636169844635157,
          0.1915093333481479, 0.4162297739221109, 0.1179179705342540,
          -0.0724330697084600, -0.0480338082750903, 1.0542403588040512,
          -0.1379301920396171, 0.1591805817493996, 3.1313716405443288,
          0.1664932983275427, 0.0684257353787570, 0.6999522839491125,
          0.3084191887947453, -0.3073716551300833, -0.4879784613817837,
          0.0777406796221271, -0.2233620125447528, -0.2320584840423317,
          -0.2708632063921597, 0.1203266460838382, -0.7870581178707887,
          0.5203775109979105, 0.4052706123483387, -0.4500298442342157,
          0.1773844979159459, -0.4423544331806362, -0.5845809326003769,
          0.4383501355044835, -0.1712465180409590, -0.1216351569523665,
          0.2747520741533375, -0.2968645263212600, -0.3533897162541276,
          0.1931690751058040, -0.6204887288326224, 0.1274114201550081,
          0.1193842859983813, -0.2810582138900987, 0.2362856829936184,
          -0.3028217595068099, -5.9577302787157012e-03,
          0.4800236454835655, 0.0333098453842627, 0.4417390896488356,
          0.3697070007041327, 0.5418145440339597, -0.0473072212056803,
          0.5767631022012600, 0.7589798667651195, 0.5836045291496026,
          0.7581641435879518, -0.3716151700008978, 0.4348909730711396,
          0.6629570560252451, 1.5941854921242362, 0.3891330555127971,
          -0.5866926014911662, 0.2068860065248850, 0.6023659265287431,
          -0.5035556058710593, 0.3854731177122644, 0.3059221918860228,
          -0.6466897879924989, -0.1647792573259638, 7.6899409276791726,
          -0.1583474642401262, 0.5946238571458716, 0.0417948928286294,
          0.7365440169464904, -0.7908015754517254, -1.1175795433767008,
          -0.2796955773004757, -0.4433824769693546, -0.0514104485690493,
          -0.1047034478820164, -0.8778644994591729, -0.2333884790414711,
          -0.6926937187529406, 0.8515552918581398, 0.0380249912809065,
          0.8028829008593433, 0.2830072194198723, 0.5648445438619144,
          -0.2121170288308389, -0.0525906946649711, -0.2300948944932338,
          -0.6692792976427776, -0.0697311867088892, -0.0515245179274182,
          0.0818945105609988, 0.2781836865552120, -0.1121946785262429,
          -7.0912101318346927, -0.0464655136899478, 0.1393994954176814,
          -0.4576908726745653, -0.1329383197360603, 0.9791423579743904,
          -0.1179927744025318, 0.1738664412008769, 0.1617491151270841,
          0.1783169782630483, 0.1204682994406868, 0.0699223160431025,
          0.0968548438284584, -0.3250494736099891, 0.1794991175578019,
          0.4023218390487651, -0.3117684382450014, 0.0848705776974650,
          -0.7507148909168069, -0.4177073511839611, 0.0733933606776367,
          -0.2329609789587723, 0.3208476885692053, 0.3135793348160539,
          0.0127369021019564, -0.2051159313769218, 0.6328917253119514,
          0.2440866186179495, -0.0217650020122592, -0.0140121740513636,
          -0.1086037725937288, 0.0288466333571661, 0.0818215767495564,
          -0.5233268269231708, -0.0613715029204498, 0.5828441288895152,
          0.5210779496692783, -0.4236151403573230, 1.0317091262291083,
          0.4347880168162213, -0.3155358053850333, -0.2756376209963615,
          -0.3000492656116335, 0.2970935657564047, 0.0463387539040344,
          -1.7403894562852651, -0.1475682360847559, -0.2817314246442367,
          0.0259691723742253, -0.4781539270725366, 0.3223483254064170,
          0.2179199008316038, 0.0659959565024436, -0.2160707657973630,
          0.0569607208690894, -0.1890804897201294, 0.0678928168196408,
          -0.1605711293618336, -1.0723079754691645, -0.9880510087379286,
          0.0388746335744939, 0.6437809652368888, 0.3072869922811092,
          -0.4021899572912531, 0.1640712861761490, 0.6117665912275552,
          -0.0357603300268152, -0.4119426365439093, -0.4063868466078811,
          -0.7411325006763406, -0.0664012690031186, -0.2522945502912632,
          -0.2853230308011785, 0.9472871870654805, -0.2531375702844908,
          0.8321376527125350, 0.5298098572768275, 0.2268194645256826,
          -0.4790387965871962, -0.6496871541933861, 0.1246468139152591,
          -0.3571713900134711, 0.0338536883168189, -0.6165958508918742,
          -0.6018080129410932, 0.2196809021609973, -0.3868076195718532,
          0.2417916185756984, -0.3329087240945253, -0.0191835175149298,
          0.0444803850243050, 0.0270065803221304, -174.0206159980597818,
          0.1150722384236617, 0.2105988540539770, -0.0627482536221382,
          0.5897966328619426, 0.6944341842198959, -0.1739295407259739,
          0.0198148580388909, -0.8321162211374659, 0.2281219346078967,
          -0.8506540523161981, -0.3194339122654075, 0.0260326957522524,
          -0.6608878389712965, -2.9544720177499304, 0.7701546974513955,
          0.3070064700087668, -1.3033467326444306, -0.1348358205065590,
          1.2088752314315181, -2.1386383663236774, -0.1499185900881033,
          -0.2837726705671353, -1.9272265546309757, 0.3367580410869142,
          -0.3557536280431890, 0.4351511709824170, 1.3995252480232407,
          0.1938074695239889, -2.7392628759367538e-03,
          0.2648745512558233, 0.0134194590513149, -1.1678268081888841,
          -0.0476994383778541, -0.4081682422980182, 0.0558603700826896,
          -0.0577027486826846, -1.7643145357873860, -1.6253410325730064,
          -0.2012562533600417, -2.5951902549182493,
          3.9883354939722060e-03, 0.4404104426955336,
          -0.1036252027234266, -0.0335273827302636, -0.8913621034361708,
          0.4728443998247306, -0.7479899880897949, 0.2151165337467772,
          -0.5418430894779049, 0.3827209866535554, -0.5082277054013740,
          1.4484626023017706, 0.4043719274646934, -0.0311870721655489,
          -0.2742513496560385, 0.0422372439319067, 0.2390894511086297,
          -0.9558788078480096, -0.0483657734729255, -0.5829957182964652,
          0.0894682862182652, 0.5002949524069433, 0.1811273902584034,
          -0.3640208265070459, 0.5851025854554466, -0.2506494321650389,
          -0.4527009335616407, 0.3049063233903541, -0.3938778462026735,
          0.0629686322614770, 0.1298618957243593, -0.1906645901158786,
          0.3262553470752754, -0.0795385374693710, -0.0885749127320823,
          -0.0369726551184104, 0.3520514553605435, -0.1903962984657853,
          0.2328902011071566, 0.2520136335680446, 0.4735340806068826,
          -0.7815078698319380, 0.2923207557038901, -0.1144548546328766,
          0.3974742658392081, -0.0254723493260273, 0.2451958242285570,
          0.9889721350082837, 0.4145331357363946, 0.1771588964317765,
          0.5867182672939294, -0.0862518550968678, 0.3758955427442566,
          0.2173191805300033, 0.3376670276187654, 0.5356489842316158,
          0.2570921424581796, -0.2735688128854131, 0.2589053394423507,
          -0.2561709092281583, -0.1195352667066970, -0.1326117876158221,
          -0.0415621963245759, 0.2847316846605266, 0.0200796618098979,
          0.0655473659548233, 1.2441411417236614, -0.2653722695010214,
          -0.0300589629641524, 0.1721316995669068, -0.4637196981425080,
          0.2537239722099479, -0.7154328984608558, -0.1952408009618245,
          -0.2256375608569778, 0.4025962161849968,
          -3.5850727724862867e-03, 0.2600471875848689,
          -0.0836238644476730, -0.0238108363519338, -0.0294647463164856,
          0.7149240226395446, 0.0928262366461114, 0.7966702409663696,
          -1.3964463095639565, 0.9671895252320251, -0.2620582423922194,
          0.6991473999053076, 0.0642826404920844, 0.4830315874298700,
          -1.1606813186680558, 1.2893429019643758, 0.6945794412218209,
          0.3165627082456942, -0.1254575313731718, -0.9972068860650769,
          0.0760646101425153, 0.1027516831374518, -2.5787110490162979,
          -0.0408169089128483, -0.2475354171550988, -0.3133763876769378,
          0.1341693312392153, 0.6353396831163114, 0.7785513306695871,
          -0.3849335819517424, -0.4011154828293892, -0.1545610509912701,
          -0.8622424505869769, 0.6073595842731874, -0.3326004832113135,
          -0.6110367402121173, -0.0507957460521830, -0.5113514972755931,
          0.2778068537350958, 0.2151947212012263, 0.7938221542376382,
          0.6341070828231957, -0.3136966739027389, -0.8317588753583145,
          0.1582049056742881, 3.6786399430243035, -0.1193255512873077,
          -1.1012978779519311, 0.5929331413282140, 0.3315044300065392,
          -13.2508849455477069, -0.0331969831952040, 0.2592355104934757,
          -0.3528145747475267, -0.0892889011732752, -0.7669572084572477,
          0.2635221361131283, -0.3226478692670960, -0.1142445996339738,
          -0.5416981881777243, -0.8834937362147178, 0.7786786145136061,
          -0.5018379334300208, 1.0152187592703277, -0.1308427967247471,
          -0.5189572768627120, 0.1493691270001940, -0.1084626843785553,
          -0.0892721694171823, -0.0243774940357093, 0.0223398648322871,
          -0.2220148279935518, 0.2260034819360185, -0.1827809576425677,
          -0.4297560118282366, -0.0514290405000132, 3.1555517001982474,
          -0.1614636794681534, 0.7478663502517433, -0.2334565301338619,
          -0.9580505594335529, 0.1652758159105100, 0.6259641559423181,
          -0.2077537631201831, -5.8952605480269435e-03,
          -8.8630549911789096, -0.0717701688673104,
          1.7841083783598716e-03, 0.2938832415978083, 3.6102592711173229,
          -0.3632807656981255, -0.2323120489324856, -0.1934967030994726,
          0.7432621129173869, -0.1385258503033827, 0.7118342341122248,
          0.3105368352564091, -0.3693776265316419, 0.1502522179012763,
          0.2618305069089065, 0.2747670380793734, -0.6148445241089356,
          0.0761173669306573, 0.9555880780324736, 0.0130557639273896,
          -0.4265540034147993, -2.3390246790883547, -0.2040001337127147,
          1.6072151368259391, 0.0233118631465569, 0.0314543173655001,
          0.4501878222889989, -0.7622882736332606, -1.1697271462538905,
          1.4348276568874136, 0.1734961020387169, 0.3131937570502416,
          -0.0197807994643646, 0.5923737093203459, -0.1323132559279789,
          -5.0329538890597639e-03, -0.2890450764889476,
          0.3473682162933510, 0.1415587157201466, -0.2287978394121428,
          -0.3766341374179488, -0.4026583368827708, -0.0643994356734844,
          0.1781847497970898, -0.1035228227758757, 0.3716559204563876,
          0.2845515426594918, 1.6343260509919144, -0.1001942382236399,
          -0.4867707326942254, 0.5139947839717567, 1.3799104653877443,
          0.0813302050028736, -0.1252056280314537, -0.9742066959809572,
          0.0148261331572623, 1.4518867463064261e-03, 0.6019403022385317,
          0.2296845389204381, 0.8053398323587090, -0.1233075007921798,
          -0.2078527577452212, -0.2165218656192620, 0.2279022667099900,
          -0.1130543316525722, -0.2767467399481595, -0.0752578070270046,
          -1.7444642668443471, 0.5534181262311457, -0.0204846151257822,
          -0.2792181369255062, 0.1693239950876101, -0.2289903475387566,
          -0.6192445373354318, 0.3199526883749556, -0.1493974528330670,
          -0.0704483952140116, 0.1308714950302790, -0.1985751557037472,
          0.3139509144018331, -0.3978877248784893, 0.0404636653244766,
          0.1988062538195268, 4.2848246940231620, -0.9442133762417180,
          0.0932158616736167, 0.7853458215632891, -0.1552447519082783,
          0.5558866460904650, -1.0369090275961703, 0.1327185639324590,
          0.0482122108390671, 3.7879108690068953e-03, 0.1492905767888112,
          -1.6740694396685319e-03, 0.0965740140492014,
          -0.2817211747519417, -0.1416753162605649, 1.4243234354691936,
          0.1059385369389525, -1.9838801453099679, -0.1411288763879404,
          0.2036443505533023, -0.0636467102339249, 0.3144320108508278,
          -1.2474743309153471, 0.1244609661460996, 0.1839075977947027,
          -0.2666184908170144, -0.5676049040261461, 1.5275082132831119,
          0.2834820619572620, 0.1139929019353345, 0.3212694614741189,
          0.3468012752660847, -0.2238026348688998, -0.0665567852691165,
          0.3240850945677272, -0.1154851425793909, 0.1731647779650345,
          0.5351671814508603, -1.2104858925856943, -0.1596048282618010,
          0.1999919143597107, 0.0451650342052770, 0.2407665465682882,
          -0.3401195720478317, 0.3655623694276856, 0.1196474382252133,
          0.0578050118436537, -0.3010173720310076, -0.6134411107028329,
          -0.3265993701115076, -0.3206643506392259, 1.6700903223493671,
          0.2964024063465042, -0.1187447180553571, -0.1302480594300016,
          0.1871437786458240, 0.1345303572430409, 0.5494360522806591,
          -0.2444553630445157, 0.1488725377044188, -0.1259862675815960,
          1.4355375514098070, -0.1203628070394131, 0.5538958842253856,
          -0.4078974754097698, -1.8415908099566078, 0.1001011745760419,
          -0.1627628258113884, -0.3437846936753532, -0.6516181631786289,
          -0.2649036524431699, 0.3778864117308879, 0.0468030394484133,
          0.0915105400240916, 0.0353957660351839, 2.4893448200561465,
          -0.2033775219783498, 0.3337742961758111, 0.6180693765251368,
          0.0236182518542145, -0.0394285738997806, 0.8276195431317188,
          0.2912627157157357, 0.1701704055822047, 0.1547647348245825,
          0.0201956981949525, -0.2470907054013364, 0.1219923917951759,
          0.2444789323590762, 0.1831160759861986, 0.4957911371214539,
          0.4215132582787291, -0.2278235625760710, -0.0883035808810331,
          0.1832318971058474, -0.1441364294377084, -0.3729805129052056,
          -1.3385030381363232, -0.4479195997814036, 0.0848606027488798,
          -0.7764120796639985, -0.4334134897670360, 0.1636712118105066,
          0.6351995971740242, -0.0574021763072756, 0.4369868280487228,
          -0.3223660073995514, -15.8785552095084128, 0.7096114669789994,
          -0.2632476999985330, -0.1025050281751853, -0.1999255796969978,
          -0.4019346846408453, 0.5716217255670005, 0.2154453464231303,
          -0.2095164799419010, 0.3568931338863003, 0.4331639007732574,
          -0.8914808278337424, -0.0213984718840312, 0.6680335939555089,
          0.4519361140156469, -0.2029571518169191, -1.2371915070840755,
          1.0968185514308220, -0.2518581957400018, -0.0293340380355669,
          1.3988423763691020, -0.0133764395289570, -0.4037356547008498,
          -0.0265921924963992, 0.4795029420121065, -0.0893307716691398,
          -0.5400111865850989, 0.0319639953862425, 3.6951798757039058,
          -0.4230114586335170, 1.1724976943675816,
          -7.2953204695677433e-03, -0.6815586649539719,
          -0.4025482789972714, 0.8377685369189396, 0.0581258770977904,
          0.6070806785906901, 0.2946683702848173, -1.6936071433379845,
          0.5472924240940644, -0.0518977832904896, -0.5912125703766857,
          -0.3778753246873223, 0.5331136712565318, -0.1782064959865000,
          4.9301617258717245, -2.7564332791383861, -1.5764604109842411,
          0.0522171023601237, -2.0712109750473515, -0.2999410557345998,
          0.0718539049202001, 0.0262229452377751, -0.1514773574972257,
          0.3215967815426248, 0.3913802118373513, 0.8298936293361462,
          0.0288478299453327, -1.0022622157018544, 0.2028411131778672,
          0.1875055929695944, 0.2124064438460221, -0.8857099952362684,
          0.4612557806020742, 0.3489819895450517, -0.1958908520584485,
          0.1532425425998591, -0.0626410684056991, -0.7461328283380868,
          0.1203042359837586, -0.9984741487767939, 0.8962571001902472,
          -0.9858009817666427, 0.1243577079398239, -1.5673647211119837,
          -1.2750384343763308, 0.4583043452856278, 0.3127846747426872,
          0.6808247823511493, 0.7281362201639846, 0.4040545054507242,
          1.4229818224676989, 0.5402715129687183, -0.1448496512074133,
          0.0403732915840482, 0.2487693935437725, -0.5820489787129728,
          -1.9213498539788481, 0.1766120068281374, -0.4243183088182696,
          0.3266031534420608, -2.1521540558237073, 0.2316709476657412,
          0.9357120492844693, 0.7227717505538007, -0.8787068483515958,
          -0.0748273304588515, 1.8352064540762094, -1.1754727564613345,
          -0.8717522494378764, 0.2443105937831436, 0.0949387784624977,
          0.2140371617652230, 0.3824292629358785, -0.4103854165425230,
          0.2888317601187610, -0.1566664384966221, 0.0981604454330506,
          0.1753504525012569, -1.1316664129601628, 0.3441242790595695,
          -0.5876657421870028, -0.8811471668944530, -0.0197087415963723,
          -0.7346394868019703, 1.8933503596279044, -0.7422761772372983,
          0.2492908175727116, 0.0259839753501883, 0.0412606530928592,
          162.2823904557432968, 0.4805814838991642, 1.6968626009368470,
          1.0217783114981605, 0.1836947572493956, 0.6200617780596228,
          -0.8354359305765524, 0.5221748603628245, -1.3555559260671008,
          0.1230215038345373, 0.3441602624420513, 0.0309742491973757,
          -0.3006776505497730, -1.6593802387611880, -2.3040554104471909,
          1.8022438320581340, 0.4513641991343873, -2.0741771441234715,
          -0.1890598592849778, 0.6924191493433374, -0.3388985209333847,
          -2.2503793366136757, -0.3985745843802899, -0.9919795053639771,
          0.1168332329439424, -0.9042556614351173, -0.2176622777173509,
          -1.9605093613672835, 0.7074188771188153, 0.6140056640992984,
          0.0937032539889382, -0.2137167683221656, -0.4630111688343730,
          0.6475981426055748, -0.3537460071953826, 0.6335421210252341,
          0.0523372704920874, -0.7589839394391051, -0.8123726008982000,
          0.0890364386634428, -1.1347145925055095, -0.8121831394052842,
          0.9825539458820406, 0.1401301224610478, 0.1161103000723554,
          -1.5009341077911931, -0.0475026990839365, -1.7566425489083028,
          0.3549011229161382, -0.5536629289419375, 0.4442343243948275,
          -0.7204736311255162, 0.2157028224229796, 2.7454869598746541,
          -0.7538551180353409, 0.3318662074375627, 0.3720932160099034,
          1.8047428142151170, -0.3232212312104943, -0.3081112661347982,
          -0.7391095538792991, 0.9199084990754121, 0.9407335334241129,
          0.0786281365587929, -0.2750468347135257, -0.1929183239707205,
          -0.8989713429264031, 0.8666806300059833, -0.0391047844029386,
          -2.0194844008724200, -0.7202927716502561, -1.1356154356018375,
          -0.1276111159312368, 0.0615853963888938, 0.2536638971241748,
          0.2567447931061942, 0.0322225438465133, -0.0851265201970349,
          -0.4939508275900109, 0.1068279597848686, -0.1206642108202738,
          0.9802082696978227, -0.3858189738129986, 0.7687258830811395,
          0.2821228247928799, 0.0187570428535857, 0.1716364144328791,
          0.4474373292044068, 1.3692631354021836, 0.8505441491925221,
          -4.5035842281487319, 1.7185625227579755, -0.0952835522221248,
          0.4542444430422998, 1.5886271275017991, -3.3646539758113909,
          0.2455484726280160, 0.7386141980937354, 0.3619543872606422,
          0.3250110537694686, -0.4130985459665407, -0.1907975698169901,
          -1.0588463783031048, 0.6832132835395514, 0.6798491246593598,
          0.3459238342116482, -0.1193168277105441, 0.9398899322316294,
          -0.5377276125326346, 0.0346632437364201, 0.1352453689929774,
          -0.6611580318916253, 0.2998693809195544, -0.9364615164475825,
          -1.3641511603834411, -1.0613198174724516, 0.2728675995941716,
          2.8035657706766894, 0.2334547381947108, -0.5727757643147714,
          0.0779313449403377, -0.6797156551234148, 1.2053942400117510,
          0.2453530077193807, 0.2012367129980184, -0.6059065298380811,
          0.2879392058095255, 0.6487934024869619, 2.0472782490389019,
          1.9247719250869984e-03, 0.9532792235523533, 0.8653107173385157,
          1.0921170461534322, -0.9884382166473987, 0.2345894319286936,
          -0.0134369512365281, -0.1565201382469344, 0.0648510389566313,
          0.0165246378853865, -4.3115733356451313, 0.0178544656587637,
          -0.7393875131093705, -0.8772092983553865, -0.4139151513747562,
          0.1838157508430519, -0.3309072848462609, 1.5786508797160157,
          0.1511921341138486, 0.0456937515537931, -0.9073016783303782,
          2.7349939515320947, -0.6694563106710727, 0.3523139435185539,
          -0.1637398828796265, -0.7345705107019714, -0.0923817974471713,
          0.2597657422221957, 1.3493431975433614, 0.0850808946786087,
          -0.1033728687023687, 0.5272462958418529, 2.2046586915288020,
          0.7639724172486713, -4.9669313804079481e-03,
          -1.8702355667901218, -0.6908352039904883, 0.3678716135502860,
          12.9027134833161039, 0.0326969323311939, 0.9860648874189379,
          -0.8894176950449865, 0.0533028402880263, -0.9874894053918339,
          0.2463613425000759, -1.8684811394196732, -0.2478714201080432,
          -0.4881375457660494, -0.0435745333289157, -0.7036473117470220,
          -3.6074371457456365, 0.2176520798503270, 0.9926754727105919,
          0.9012060481141613, 0.1372734309075514, -0.0502736482664514,
          -1.1009346943353231, 0.8445418169108765, -0.1622137940358110,
          0.3014001272216807, 0.2993562698617110, -0.8540062616011557,
          -0.3404365972302415, 1.0058302694577821, 2.7361918189478609,
          -0.4058148729526638, 0.2334300912601363, -1.1053333205199332,
          -1.0509718832430546, 0.2146498124002395, 1.4691719395958474,
          -0.2388805816671520, 0.1139231149721090, 10.5925722348305644,
          0.0209469886220773, 0.0515543629131211, -0.0892556537454826,
          0.9929088130482282, 0.1251092658787450, 0.0448495592759722,
          -0.2676274955197860, -3.1631974447066244e-03,
          -1.9633242856933397, 0.3622480007499871, 0.2321157864067126,
          -0.5281101877610446, 0.7786308685616744, 0.3818383007583457,
          0.0521446269390682, -0.8535817093545296, -0.3960840364724678,
          0.7611558105100413, 0.1764083054676602, -0.6866153730077227,
          3.6063357934964135, -0.2520143885575266, 0.6547111258853900,
          0.4655445014618860, 0.3299389707536912, 0.8889780475742535,
          -0.5354478087048186, -0.2750508699553197, 0.8458873448431639,
          0.4344968510599255, 0.1777677227474735, 0.8462939183261284,
          1.2067413465590502, -1.0478283621847415, -0.4349999142639218,
          -0.6336512492196950, 0.1699047895927702, 0.3036084426219688,
          -0.7790622030822956, -0.0223863578257168, 0.3197112842169500,
          -0.5184420867297914, -0.0821943691786891, 0.0452307061138442,
          0.6280504432108062, -2.7501761887740583, 2.2542939601923502,
          -0.6132023395195333, -0.6758208097010685, 0.1596734541743801,
          0.1077570295690760, 0.0237453282312649, -0.0932439125191579,
          4.5687181349823325, 1.1964718067585072, 0.0542456389834651,
          0.2113094081349254, 0.1194037872940149, 0.8561213327257673,
          -0.6511406452267159, -0.4259110634979996, -0.7681214332742258,
          0.5073784033912778, 0.0714472365650900, -0.8427615635670354,
          0.0308306149680169, 0.9528936626419993, 0.8307690549549070,
          -0.0302393099116945, -1.0441294102389116, 0.2719680047747779,
          0.1549289711559818, -0.3832445447931562, 0.8082622382096576,
          -2.3995166954885629, -0.7833601257118700, -1.9076784642397646,
          0.1458437161288175, 0.7234858623057699, 0.2146074186590349,
          -1.6039374266237192, 5.2478847105710695, -1.9104051986341475,
          -0.8707571245002665, 0.5653606393186673, 0.5964953246071212,
          -0.0676406374949466, 0.7285122019630248, -4.3384092717451379,
          1.0380655017052931, -0.9557744478677953, 0.1364336167654390,
          1.0081517134013833, 0.0908939609955705, 0.1181611583189313,
          -1.4322569314946669, -0.2479945657527639, 0.4288773486490007,
          -0.1381327104857258, -0.7200932568244047, 0.4713565646139328,
          -0.0566153772139771, 0.2712062617008357, -0.4509487877754141,
          -1.2110391851039479, -0.3387547789509314, 0.4039345868373228,
          -0.0373686655887874, -0.4949717540438812, 0.3461114335550100,
          1.8748319626045957, 0.1659380074550784, 0.9681013180117559,
          -0.3107625689852544, -1.9873168322756876, -0.0652722689949651,
          1.2435042111892853, 1.0071098682612616, 0.3846748206855301,
          -0.8732679573919667, 0.3339398834274109, 0.4347963683959349,
          -0.0546486409197645, -1.4054387476058743, 0.0888212573114675,
          -0.1343301740913251, 0.1143916895975840, 0.1314356431677442,
          -0.7393361519420787, -0.2863221172038968, -2.2576560964287604,
          -0.7580196556224839, -1.9546073294091244, -2.3003560282880064,
          0.4122572846611675, -0.3012163986830981, -0.5895898707554488,
          0.0877351757901616, 1.1921125955689202,
          -1.0541711599726840e-03, -0.6377199374947093,
          0.8589300758576996, -0.7168098993358114, 0.2006288181903995,
          -0.4439811769906890, 0.9440062339656403, -0.1737354315511872,
          -0.3125006365032919, 0.2658238358814225, 0.4698162565746707,
          -0.3074784560378227, -0.2189156046910371, -0.0143612638420026,
          -2.1750097731854492, 0.3947223928942962, 0.5550677627354439,
          -0.0245753653392834, 0.2225580869730326, 0.6746807825076009,
          -0.2516681469921482, 0.6064447629472330, -0.0359238154943733,
          -0.7729970348082353, 0.3879251705901390, -0.7092920676967347,
          0.4744674833487947, 0.1966623015048241, 0.0634201038812340,
          -0.8820066286153307, 1.7140514367839499, -1.7629823223892502,
          0.2227719484247510, 1.4524770269601206, -0.9386228796032851,
          -1.4107784803529315, -0.4285961017609595, 0.2723625001899170,
          -0.5174719713593052, 0.3355836696928891, -1.5616448910909866,
          -1.0630832102833865, 0.2047839019938414, 0.3595214245039556,
          -1.4154335418777115, 0.9932539576989895, 1.0336942334495194,
          0.0270178222365105, 0.6835508337818560, -0.5029163457302065,
          -14.3874351086711627, 0.3309483055744901, -1.0382853685071183,
          -0.0276844444056396, -0.0977400293253712, 0.4467632624055796,
          0.9613602130982362, -0.0698007531799884, 0.3707940684996602,
          0.0685617719677559, 0.2473347920890595, -1.7207383352836831,
          -0.7529092148812175, -0.4048551861402830, 1.5478536312789493,
          -2.3233858012399780, -0.4796999381438821, 0.5628921740028752,
          -0.7489080230650722, 4.1824965982438980e-03,
          0.5092494175995955, -0.3217816723250184, -0.0172044836548083,
          0.0957806465010551, 0.5751954499630281, 0.2565503421062029,
          -2.1949494539095440, 2.9205733071222864, -5.6193959323730756,
          0.2030023948552071, 0.5430222230440968, 0.7841332223576657,
          -0.2707444820966025, 0.0634192714293498, -0.1847916291925483,
          0.3304918766618251, 0.3064009404063977, 0.5692703499539672,
          -0.1340931721355606, -0.1918953181088907, -0.3008534767911458,
          -0.2727410508150355, 0.9049146904764769, -0.4538515402977233,
          -2.0869264112927648e-03, 0.0207032493326326,
          3.1978381419469315, -0.5125740602063327, -0.3156273383080140,
          -0.2047720133251018, -0.4834397668430031, -0.6115563959479889,
          -0.6433491757400537, 0.1194926956601665, -0.8062217888143576,
          -0.6200959227723412, 0.1508889135942077, -0.0604496012203532,
          -0.9128604885257857, 0.2634550183405598, 0.2170965777255202,
          0.3523636451930083, -0.8462621210505537, 0.6656578204496522,
          -0.0695788712120757, 0.1849082805814019, -0.9813722000063900,
          0.1024167187615456, -0.1444968626746306, 0.0996254725334804,
          0.4520973873857814, -0.0991388903576192, -0.3464202804051660,
          0.0476543556162293, 0.1383708829320447, -0.3107691743868963,
          0.1912977318755928, 0.1022533953789298, 0.6749524537864166,
          0.0241121966179726, 1.0160447548296307, -0.4936846219841370,
          0.1394507667499000, -0.1734963891413118, -0.0354884357210461,
          -0.0457823157718668, -0.4181428184289287, -0.9046788836346131,
          0.1896793186926720, 0.0821340956576949, 0.0665046729647410,
          -1.9634630509793163, 1.4666710216962180, 0.5005039215480479,
          -0.2858299953476641, -0.1320934327423284, -0.4050797938430181,
          -1.5463393564555343, 0.0336283409072092, -0.4963040174022363,
          -1.0821881738467611, 0.0531319214617618, 0.1945385222919729,
          0.8690040042429275, -0.8268691057927362, -0.6688484418152014,
          -0.0403052113323078, 0.0671512074324439, 0.2278781017105060,
          -0.3884869091939801, 0.3779937734075934, 0.0363382305197843,
          0.0394295312029179, 0.1214207969944550, -2.5981675049165198,
          0.5042286487179555, -0.1248681611747888, -0.0699530907415081,
          0.0485288734255276, 0.0317488183196877, -173.9666980970991119,
          0.4380037504150423, 0.3674641019525647, -0.0230420219194075,
          0.4333959147949013, -2.0852546605040088, -0.3461523363117932,
          -0.1012624387129804, -0.0385153755988579, -0.0738294114426374,
          0.3942494592479576, -0.0945925487221513, 0.1869553107254652,
          1.5113930281754668, 3.5446972299562480, 1.7441012876077486,
          0.4274951528486949, -0.9073329378940901, -0.6956850664076111,
          0.4175706889180075, -0.1657497219883525, -0.6607876585765888,
          0.1083044454331413, -0.8925038325900453, 0.5254227454660821,
          -2.6850626183313939, 2.4870588166127052, 1.0162426427700595,
          0.1784730584919674, 0.1593761403099778, 0.1563031520180898,
          0.2132482498364815, -0.0768562356595158, 0.0928652590333359,
          -0.2107627657600484, 0.9580124160926133, -0.3836104826132384,
          -1.0248856341414987, -0.1767802246463482, -0.2433229307530848,
          -0.1582185352758871, 0.3203939758719430, 1.1811249612783115,
          0.2921106247256782, 0.1731559314894565, -0.3890629850177739,
          1.4326022043954474, -0.7276963093564043, -0.0134207763201030,
          -0.1223394905027652, 0.2839606160241073, -0.0620080179134853,
          0.1475124396363105, 0.3179168530177942, 0.7308000722193549,
          0.1151285295158582, 2.0279557378689552, -0.4603682246508912,
          -0.4027339817588802, -0.1505531560254524, 0.2582267516562604,
          1.0739191662234493, 0.2181621635007406, -0.2762966282284687,
          0.9721704304060912, 0.5312542983813363, 0.7810261684582299,
          0.0848889688742211, 0.0300383822970438, -0.2214078608102801,
          0.7851412124432058, -0.2560412767495205, 0.1043208685939464,
          0.1565380130810513, 0.1612955982459610, -0.6952223464625827,
          0.1543946097455181, 0.5634367189545739, -0.2560198742260417,
          0.4179904921301896, 0.1581499335169383, 0.3895624613346024,
          -0.7085253382804064, 0.0200871407469059, -0.0784336892449814,
          0.2749602977133265, 0.0407551790565426, 0.3007948779354461,
          -0.3220104328856985, 0.3308426408296694, 7.5513572414037258,
          -0.1174932167167648, -0.6965525117398962, -0.7189530490319400,
          -0.0973366165329396, -0.0954318443083476, -0.3380182341381247,
          0.3450122109205889, 0.3825935449894022, -0.2660152403898771,
          -0.1346469058664544, 0.2061540530604672, -0.6501015879792412,
          -0.3372827154148187, 0.0550625916384185, 0.2201402231796844,
          -0.0847080488755718, 0.2508645919040578, -0.1467694683105142,
          0.1706659049204737, 1.7085398987732707, 0.1212345077275875,
          0.1834553078018729, -0.1675077177014370, -0.0447524383707446,
          -0.1159210000553935, 0.0849864856755423, 3.6517792577325388,
          0.3268222801491229, -0.6553751627340539, 2.2091065393286331,
          -0.0473705668003622, -0.1890258728811632, 0.9297220557653249,
          0.2920889008283764, -0.3889696990290312, -0.0264366546513158,
          0.6848825016372663, -0.4004022747841287, -0.0375376347867321,
          -0.1811267670227959, 0.4990685247959110, -0.4897444719894664,
          -0.5166970067588724, -0.4865453893191464, -0.8367312564503496,
          0.5917272741950073, 0.0733238843943882, 7.7217986352595474e-03,
          -3.3343025069527101, -0.0483940288858988, -0.0126125781771747,
          0.1219440514574092, 0.1949251914383931, 0.5945812798568513,
          0.4956331244690389, -0.1364849082332455, 0.1425611909997812,
          -6.1695967026251016e-03, -0.5169364797483993,
          0.0483194684160384, -0.1651344881467331, 0.8324671137480498,
          0.2278745402230913, -1.3596807634275385, -0.2576498664409263,
          -0.2600450032086168, -0.2329094853562296, -0.0621134125111766,
          -0.2414412239612144, 0.6406046986450372, 0.5832238700141054,
          0.9403886808986331, 0.1535777402035529, -0.1791521373407327,
          -0.5058127880066989, 0.4192900730893444, 17.0963163750242053,
          -0.0347564997155969, 0.2036081038183338, -0.8230564024498696,
          0.1196365077380808, -0.1281697976575094, -0.1110740920971818,
          0.3083020852640193, -0.1404747246933470, -0.7910033098239112,
          -1.1021405445099159, 1.7330229097681538, -0.0880517497559320,
          0.4296627255350626, 0.3250153150611702, -0.1504797843873730,
          0.2726628373662124, -0.0157797954629483, 0.0580325245886178,
          0.0384858169234962, 0.1313341468625902, -0.6301223844831867,
          -0.1543842100025644, 0.3952424824105496, 0.0824045068943972,
          0.7250973681678113, -2.3901655115391827, 0.5237803792531200,
          0.6711835421122209, -0.3886583325147697, -0.1209936860756622,
          0.3899319062510676, 0.0138599313024692, -1.9417977504180794,
          0.0441605379192080, 10.1921764079224761, -0.0799021231466893,
          0.0804508595414622, -0.0879968407579221, 1.1914403735381427,
          0.0128684412914192, 0.1184074093821463, 0.2940341507306679,
          -0.5625069106421126, -0.5562163098474026, 0.1369913330603463,
          0.6128856763467501, -0.0138281174603706, 0.0517337121724717,
          -0.1080142404115097, -0.0582382862694710, -0.7486634495837838,
          -0.4052640719049874, 0.7225584136084879, -0.3169245536267528,
          -0.5972439868251206, -2.9853861181593224, -0.1017501724195874,
          0.0204268946838635, 8.2231031673880243e-03, 0.1975110205898200,
          -0.0333036072994877, -0.8704434040773430, 0.1534868499634738,
          0.1463991602910795, -0.1451816861152172, 0.1344064251584066,
          0.8503806368446372, 0.2657803680620038, 0.3067617720170988,
          -0.1812456343144095, 0.0795539620326295, -0.5054304693028671,
          0.1050185302191658, -0.9101453366594452, 0.5099100855356812,
          -0.0720191480583575, -0.3909968749497149, 0.3508530892930229,
          -1.1910696971660644, -0.1629552025318329, -2.3592155550532188,
          -2.0271935326850858, -0.2709423095174227, -0.6705976450976101,
          0.8602204990547621, 0.5321901723964634, -0.0656383862000210,
          -0.2929243082652596, 2.0835432430842911, -0.0191668759436963,
          -0.1008697704187187, 0.6067242882089393, -0.2007417433150902,
          0.3565831816343518, -0.6886954584830760, 0.0241509795763916,
          -0.7518842823642760, 4.2587062658113801, -0.1417289507941794,
          -0.5863505023702277, -0.7557843541237474, 0.7824938261746104,
          0.2036502385504389, 0.7683831709930840,
          -5.7057889948592122e-03, 0.3627559744814197,
          -0.5587948784591955, 0.0306038256244269, 0.9757902060189818,
          -2.9259567584007762, 0.5645715222778949, 0.0163188973129950,
          8.9449386828116938e-03, 0.1759922730834573,
          -0.3028505437274704, 0.7520994009304596, 1.0130632267921968,
          4.5161186561171442, -2.4534614084020627e-03,
          0.2852734502508512, -5.5702577350703912e-03,
          -0.0270201678039090, 0.3348437392290067, -1.3162373737221293,
          1.0287237879305682, -2.1167463882777726, 0.2780227165782673,
          0.1234318433781708, 0.1568773836126229, 0.5026760937832695,
          -1.8097899683855727, -0.1887707147150816, 0.1083767813221032,
          -7.0984179759319248e-03, 0.7433401066636119,
          -0.1464136210461624, 0.3813498980769464, 0.8147570219619756,
          -0.2689567036424161, 0.1758554587973880, 0.0126183399869534,
          -0.6509398870930954, -0.0260296266471173, -0.4561982519904762,
          -0.8880114236620282, 0.8017351195591275, -0.1806025151205017,
          0.2268832506666000, 1.4454671058649391, 0.0706925865516107,
          -0.9148289748409317, 0.2133647291622543, 0.1701235350110014,
          -0.1127048182368132, 0.7451245133014880, 0.5876190202728182,
          0.1245260562237234, 1.6100544450803038, -0.2780251176082367,
          0.0208443854844291, -0.2030409311656222, 0.8611455618321274,
          -0.0170027877658684, -0.3785635137014361, 0.3704769519332121,
          -0.7403797510279769, 0.0285182460282983, -0.1727840831514878,
          1.4652773432354349, -0.1927367466185435, 0.0878948303674357,
          -0.4407408861405976, -0.0950714447260976, 0.6179337618329110,
          -0.0492370872814340, -0.4563305354820434, 0.6943230237728529,
          0.2219826745076427, 0.1849382824701705, -0.0910532507376476,
          0.4009218036232363, -0.5672386800497256, -1.5754505490711239,
          0.4339500325762891, -0.2038816385628013, 0.7304527498855692,
          0.1395120582705267, -0.4199423176590459, 0.8163532018737069,
          -0.0884220025380880, 0.0971270551269929, 0.2481716843810828,
          1.7087809765325337, -0.1448830336362259, -0.1981895741087782,
          -0.1501409870372849, 0.1374118823515146, -0.1617913980852818,
          0.1044443370852199, 0.6138354418747231, -0.4277197674528741,
          -0.1011090634573061, -0.1977747046450492, -0.2729047372642974,
          -0.0134391785184049, 0.7405325938818247, 0.1501269826819041,
          0.2724860110922313, 0.5188141236818139, -1.4631784130206746,
          0.2977932786434991, 0.6140418524250839, -0.3204394983555593,
          -0.4146450506899863, -0.9766198467597825, -0.0954337351439925,
          -0.2103016059765564, -0.4877941854603579, 0.0302434890736390,
          0.5566830098835801, 1.0786735200728390, 0.4481400968866526,
          0.3573565062270098, -0.3149792162295550, -7.4953855286290256,
          0.0223060190833516, -0.1128959512201335, 0.3897764458850140,
          -0.0343618801700237, 0.0789278849272816, 0.7002453710545629,
          0.3273222483604067, 0.3595843402175462, 0.1245003366936513,
          1.0443045996083768, -1.1172514234943001, 0.3131242658547359,
          -0.3020284153434391, -1.5507367878610587, -0.7249108904403017,
          -0.4363425033526827, 0.1296348643815182, -1.5664895983775258,
          1.0345168619663812, -0.3289623375240046, -0.0908033829910256,
          0.7186386962804527, 0.5806130123276495, 0.4470945948875846,
          -0.5918862448076948, -1.1498929679628831, -0.6287198350041494,
          -2.7293565625956964, 0.0757713525143840, 0.2165292702357476,
          1.5129223684893403, -0.1704692142593856, -0.0634221109200037,
          0.5372340727509289, -0.0103277089021686, 0.6378686305223017,
          0.0882838968864042, 0.1824449645941356, -0.2619454190714068,
          0.1136679500446430, -0.0249785499300005, -0.0356837412513869,
          -0.3913363362764486, -0.5310571636257396, -0.0196230465979864,
          4.8033908075122982, -0.7735132750218484, 0.2895949897806346,
          -0.2430921066241431, -0.0397016682076923, -0.2907822474389167,
          -0.0608638390793126, 0.0448183159740097, 0.1370488978230999,
          -0.0663038414430472, -1.1194020068422490, 0.1073921742243464,
          0.3893293199551797, 0.0518368431271860, 0.0802127651880603,
          2.2481362570631322, 0.1154395092168823, 0.4059475856509591,
          -0.1547561605502048, -0.0254651090313534, 0.0683647352920453,
          0.3083788927707378, -0.0186413240311930, 0.4700832997467114,
          -0.0843788873125404, 0.1115987987120519, 0.1238923708575275,
          0.0221908830818228, 0.0654067917734781, 0.2412150780709632,
          1.0392288160997039, 0.0604976782196756, 0.1902417435636300,
          0.1296632911884755, -0.2253301339354838, 0.2517974759424378,
          -0.1116744062428132, -0.1660146068959166, -0.8038143182251132,
          -0.0998424738839041, -0.2296314711029638, -0.3186072130005767,
          -0.0668976473109404, -0.0773091317562559, 0.3212754424173331,
          -0.1210031090076599, -0.3574156328561657, -0.0130156705539701,
